1815 100
unspecified 0.5451318 0.045234222 0.41197208 -0.055042077 0.2710666 -0.31397682 0.38930476 0.14555995 0.05907407 -0.1378426 -0.06914359 0.024565827 -0.26945302 0.25544178 0.20121646 0.16848648 -0.034826968 -0.07973428 0.023878932 0.10410093 0.5382674 0.08309855 -0.053850386 -0.018348228 0.13378708 -0.058696046 0.09731262 -0.1623808 -0.039070606 0.08237354 0.012127445 0.12823543 -0.108527824 0.2347575 -0.5868832 0.08845269 -0.047896285 0.7465392 0.47682562 0.307409 0.1848693 0.12104139 -0.078633524 -0.441542 -0.4037001 0.06830709 0.07826746 -0.18648465 0.31292933 0.36089507 -0.4453307 0.23154606 -0.018953431 -0.21104205 -0.1654138 0.08473311 0.058251113 0.1128335 0.2487723 0.3749381 -0.08929694 0.124147564 -0.46054673 0.7938036 0.07819707 -0.14968766 0.0048765903 0.39836314 0.0871716 -0.4838382 -0.032839265 0.1706321 0.3057719 0.028861154 -0.56042695 -0.63422203 -0.3777963 -0.20309103 0.18546939 0.06257869 -0.124827825 -0.022962322 0.13425373 0.11255416 0.15036282 -0.0013911573 0.0817782 0.30596787 -0.31820846 -0.29635525 0.054575026 0.107922435 -0.097117 0.33861488 -0.18025842 -0.33927834 -0.3939345 -0.016958764 0.6125009 0.038682006
without 0.92105454 -0.40366796 0.52103037 -0.36423585 0.22494863 -0.89450186 0.35635966 -0.4281626 0.725043 -0.23095068 0.14546902 -0.12804595 0.010917681 0.64341354 0.16345479 0.12849967 0.09663708 0.19895083 -0.19015235 0.5137658 0.42792526 -0.22594123 0.085130095 0.28732812 -0.11032789 -0.1569492 -0.11864397 0.37525088 0.18172292 0.26602125 -0.04719266 0.28703874 -0.114359185 0.5323247 -0.33945474 -0.2698194 -0.30111787 1.0528013 0.68157476 1.0416877 0.11133899 0.31711456 -0.20839542 -1.2468029 -1.1783619 -0.2946854 0.036431264 0.041535426 0.13053444 -0.07835925 -0.7459192 0.51171297 0.15814464 -0.15543626 -0.6221245 -0.1427255 -0.33297554 -0.041531555 0.3429455 0.4550282 0.40409768 -0.13212636 -0.99139386 1.1943603 0.43918353 0.25738996 -0.022043085 0.9956838 0.6438227 -0.47655785 -0.71183634 -0.13390228 0.23363422 -0.17859921 -0.62761545 -0.8158083 -0.52487296 -0.71463376 -0.025001746 -0.03582355 -0.2503922 -0.4095004 0.053644896 -0.3610409 -0.015857521 0.35731962 0.3240161 0.042849377 -0.817852 -0.20382525 0.004531951 -0.18921557 -0.019389566 0.2411262 -0.5716697 -0.7095905 -0.9576076 -0.3381732 1.2810644 -0.098032415
mention 0.9298979 -0.41719046 0.40614727 -0.49669683 0.28046164 -0.9485534 0.33528662 -0.45773727 0.75385845 -0.28141862 0.1330645 -0.16594334 -0.046593398 0.63118136 0.09614933 0.16033304 0.11495625 0.1709108 -0.23037724 0.5302179 0.367907 -0.31185302 0.16917317 0.3488969 -0.2609484 -0.14801924 -0.24300055 0.50682753 0.16743629 0.19786678 -0.0076044155 0.1876377 -0.035954997 0.6275807 -0.29659498 -0.32247993 -0.26374173 1.2107775 0.7020658 0.9339379 0.17340589 0.276616 -0.17125532 -1.2482569 -1.2257576 -0.2585092 0.061725162 -0.0016050268 -0.145354 -0.11929214 -0.8616132 0.5856574 0.21145056 -0.2599972 -0.6707495 -0.10277853 -0.17057504 -0.031379577 0.4047714 0.4252544 0.5052308 -0.038199183 -0.9632572 1.2525192 0.51305145 0.33528236 -0.07755284 0.9823202 0.68103695 -0.47208828 -0.5746302 -0.015712986 0.416609 -0.16718502 -0.7999547 -0.82096684 -0.6359695 -0.79051125 -0.050682824 0.03142161 -0.19635859 -0.580225 0.087393165 -0.47266153 0.09777988 0.4176482 0.25900283 -0.05080142 -0.78662425 -0.2964363 -0.18753608 -0.3555409 -0.15885355 0.17937432 -0.6175742 -0.7364807 -1.1152979 -0.38666627 1.4658047 0.02669461
specified 0.115596764 0.0140500385 0.50875586 -0.08027181 0.5361908 0.028553324 0.28532526 -0.2013033 -0.027256515 -0.17294854 -0.029776065 0.12367562 -0.22527991 -0.14379053 0.10022692 0.28035995 -0.27014616 0.0458671 -0.21916842 -0.27098876 0.30942857 0.14832833 -0.07670544 -0.04434477 0.20275874 0.18324754 -0.35252377 0.039279707 -0.14604934 0.07077283 0.0017548365 -0.1231793 -0.016529307 0.14253277 -0.5804099 0.20549546 -0.15460312 0.32945108 0.18377566 -0.0442095 -0.105463594 0.2600534 0.08457232 -0.19516109 0.12931053 0.27411193 0.19276686 0.21683906 -0.027114298 0.84192663 0.038531218 -0.066862814 -0.13032196 0.3100786 -0.1789195 0.14686081 0.14230612 0.083231255 0.22711419 0.54581547 0.00159312 -0.004094168 -0.40524355 0.57805383 -0.06372025 -0.3977295 0.33863938 -0.1206357 0.0340969 -0.38782716 -0.11999468 0.01232215 0.19833325 -0.29299846 -0.3437667 -0.4019051 -0.5251725 0.39607218 -0.08509311 -0.022387793 -0.34170938 -0.2493418 -0.012124223 0.17034721 0.047094345 -0.16127086 0.0017253233 0.39473546 -0.0053928997 0.008583579 0.08306455 0.2819346 -0.20134476 0.38190952 0.0028332113 -0.34978822 -0.39561817 -0.29926547 0.5912925 -0.11820117
open 0.90405536 -0.023870148 0.9634839 0.0445452 0.13651435 -0.67061627 0.37994924 -0.21387684 0.7728672 0.013111685 0.17298384 -0.1503924 0.03450355 1.0270745 0.16988103 -0.0034446209 0.042959694 -0.18463373 -0.24006872 0.7396656 0.8277099 -0.062389914 0.003978653 0.06871901 0.3417894 0.0020197176 0.3522511 -0.24273911 0.2003017 0.3523702 -0.47572884 0.4940527 -0.49867356 0.56338483 -0.54874 -0.037808225 -0.1935113 0.9169618 1.0131668 1.3695226 0.224275 0.12712586 -0.10264096 -1.1805785 -0.8901044 0.048026793 0.020116087 -0.14019288 0.8408483 0.058862615 -0.44254497 0.3723275 -0.05907724 -0.02287937 -0.3937787 -0.4069287 -0.26917392 0.11417965 0.13055563 0.67330295 0.044503715 -0.16771626 -1.1597182 1.138537 0.35386893 -0.04892986 -0.10501753 0.77497244 0.60323846 -0.8174712 -0.7174008 -0.037625015 0.028074572 -0.29997584 -0.4141433 -1.167747 -0.18107934 -0.3122153 0.45277798 -0.0030091438 -0.26148877 0.17844777 -0.0044876873 0.1613472 0.014254359 0.063945726 0.26992705 0.38090372 -1.0200253 -0.0882778 0.2770973 0.112428024 0.11442622 0.6788905 -0.43654972 -0.82694227 -0.758066 -0.42204592 1.1141638 -0.17046472
injury 0.61642665 0.059517022 0.7668146 0.08377542 0.17073567 -0.47214907 0.3148088 -0.1283108 0.49559614 0.039061762 0.11984273 -0.05396687 -0.029965075 0.6488638 0.18075207 0.055693876 -0.07600832 -0.0574914 -0.13021296 0.3736526 0.6727202 -0.008305073 -0.0886144 0.056588184 0.2732086 0.07867301 0.30357954 -0.20224291 0.12001978 0.18413337 -0.31553128 0.3944465 -0.36618075 0.35335088 -0.5979888 0.063122705 -0.18694326 0.704291 0.74457157 0.92936647 0.113893144 0.14426926 -0.12241644 -0.88474697 -0.6405409 0.04354995 0.02540791 -0.10889329 0.6942256 0.26205876 -0.26291007 0.20921184 -0.18362372 0.03971152 -0.27934995 -0.26593733 -0.21890315 0.13375106 0.15695426 0.5424894 0.002591971 -0.07375167 -0.9261844 0.8316252 0.18233036 -0.122659706 -0.08619694 0.52929914 0.33458516 -0.66398144 -0.49448738 -0.08300082 -0.054310355 -0.19619033 -0.27364647 -0.9706506 -0.24568698 -0.17161644 0.2889561 -0.006692508 -0.2617446 0.1919499 0.050207052 0.14757837 -0.11471196 -0.032000273 0.21628895 0.45149177 -0.63531667 -0.094533876 0.30860308 0.15108575 0.06616234 0.5752763 -0.33829883 -0.63037664 -0.58832216 -0.31977588 0.82983536 -0.16098173
complication 0.6641205 -0.52269155 0.1988524 -0.70578206 0.5891075 -0.7672405 0.31183353 -0.5130111 0.45896447 -0.39295185 -0.06601489 -0.15651336 -0.24460545 0.18457437 0.2520192 0.32384038 0.06825447 0.30540377 -0.24931389 0.024324616 0.33449262 -0.34849295 0.037689433 0.42778003 -0.41183463 -0.2607063 -0.48412377 0.8178067 0.15385401 0.011543112 0.18881011 -0.12329491 0.20100285 0.559545 -0.4297393 -0.34257597 -0.25051096 1.3334665 0.4170638 0.41086072 0.12194702 0.33017993 -0.114012755 -1.030639 -1.0727541 -0.21824901 0.07511662 0.03675043 -0.57743144 0.14747319 -0.65438354 0.4763476 0.22859715 -0.31487 -0.5602343 0.1406442 0.07483251 -0.25419083 0.46346375 0.4249328 0.61117893 0.036014363 -0.88984 1.1117051 0.39003992 0.28451768 0.009307131 0.8167147 0.46822312 -0.35141677 -0.2997004 -0.02308569 0.5638732 -0.048416663 -0.89399105 -0.6647908 -1.014398 -0.7742232 -0.36992946 0.086440496 -0.27321345 -0.9828166 0.17091559 -0.5543429 0.037376378 0.37020087 0.22828673 -0.09329655 -0.38512203 -0.36642283 -0.48148355 -0.5260868 -0.41504163 0.1485892 -0.40914664 -0.6551851 -1.2871845 -0.24072906 1.4931684 0.20050165
fracture 0.67147356 0.32031533 1.0549697 0.10817859 0.1677629 -0.41755867 0.33131835 -0.04658148 0.6113944 0.116308875 0.17651825 -0.027532076 0.01042334 0.8462544 0.15598245 0.0019384754 -0.041345447 -0.2324123 -0.198626 0.5437186 0.807912 0.07797946 -0.061413273 -0.08503007 0.43539444 0.11448316 0.3001786 -0.47992936 0.22052008 0.2771444 -0.47608647 0.394103 -0.57516485 0.55813694 -0.67214125 0.05767226 -0.20700721 0.80855614 0.9255088 1.1768377 0.22111766 0.06874401 -0.023301722 -0.87332666 -0.52828956 0.22064556 0.05400024 -0.05595136 0.84949017 0.35282794 -0.30464453 0.26184985 -0.2710365 0.28775 -0.3169969 -0.45786273 -0.11009302 0.29220435 0.1699477 0.6407884 -0.034742422 -0.05584501 -1.0610055 1.000238 0.289786 -0.1893662 -0.10718176 0.3723833 0.45788512 -0.83723015 -0.46309322 0.09598495 -0.103136 -0.3278906 -0.17014262 -1.1906086 -0.08043359 -0.054912895 0.4423794 0.11654853 -0.4483802 0.33487672 0.09173937 0.34890443 -0.095593005 -0.09942587 0.23742828 0.47862554 -0.881428 -0.11895639 0.35991436 0.3670501 0.017659679 0.7497295 -0.28121755 -0.817385 -0.62605214 -0.42276415 0.84623563 -0.11021724
loss 1.2269602 -0.23392636 0.9206681 0.427782 0.07336934 -1.0389289 0.42342156 -0.42986873 0.99596906 -0.45259315 0.6093577 0.3079136 -0.08073549 0.96018535 0.0035483139 0.036527406 0.16893812 0.20168696 -0.22932623 0.91180897 1.0207373 -0.043054733 -0.13645032 -0.25592664 0.4409783 0.089021854 -0.53196084 0.097115204 0.10457268 0.42000124 -0.38645953 0.78491306 -0.35452542 0.007457395 -0.5053508 0.104981944 -0.111549824 0.48395935 1.2873545 1.1578606 -0.15901256 0.47528166 -0.29189926 -1.0611873 -0.6762558 0.071178794 0.37106556 0.5656425 0.89082927 0.06658511 -0.56436837 0.21236946 0.0030731636 0.40883505 -0.7499128 -0.14775917 -0.65982 0.10643358 0.23275878 0.8721568 0.32281315 -0.29785988 -0.5235962 1.725396 0.3949215 -0.10175071 -0.095437616 0.77794224 0.8634436 -0.5086073 -0.90665674 0.1440694 -0.0082871895 -0.484618 -0.48897803 -1.0518767 -0.2378021 0.049444575 0.25650704 -0.56757814 -0.9089067 0.032195557 -0.42051312 0.43155158 0.32221165 0.45303196 0.21823892 0.30982697 -1.22225 0.10267103 0.49181676 0.792835 0.4942129 0.52193767 -0.89528066 -0.97432846 -0.24700515 -0.9115215 1.0530484 -0.6151854
condition 0.7283755 -0.56874615 0.21058506 -0.7113918 0.5921731 -0.8566703 0.34673706 -0.5517142 0.5380373 -0.43459705 0.0015661818 -0.16000086 -0.2840982 0.19834828 0.21017689 0.35958377 0.084506646 0.33434123 -0.2434724 0.06611259 0.33238497 -0.34276956 0.038744718 0.43740472 -0.45424986 -0.26148105 -0.5902919 0.90245235 0.14275299 0.021084325 0.17392336 -0.040592518 0.2246194 0.58146554 -0.45273706 -0.3935551 -0.27429086 1.4262944 0.47846517 0.4168234 0.11235641 0.35269806 -0.15097879 -1.0680691 -1.118645 -0.22877093 0.09107477 0.105250694 -0.5783492 0.13271381 -0.68696475 0.52431756 0.22239633 -0.3265085 -0.6094792 0.1742409 0.04179771 -0.25853285 0.49562818 0.44688296 0.68985337 0.020060655 -0.8851021 1.168044 0.41838273 0.30693448 -0.018132726 0.8330552 0.48676446 -0.32689753 -0.29600984 -0.018085524 0.56779844 -0.040715627 -0.96537226 -0.6840016 -1.047046 -0.8263979 -0.37785116 0.04737186 -0.3053722 -1.0145991 0.17738931 -0.5902579 0.05500089 0.41077617 0.19196315 -0.143249 -0.40959895 -0.39480835 -0.50848395 -0.48156214 -0.4641133 0.120717786 -0.46078375 -0.7373353 -1.3499482 -0.31982997 1.584641 0.18949865
neoplasm 0.2722044 0.06371148 0.7038915 0.068668656 0.37174502 0.12569416 0.45032078 -0.10592672 -0.07357001 -0.24279933 0.05031181 -0.0012372129 -0.013689256 -0.16477402 0.13773014 0.31139332 -0.23948233 0.15040097 -0.23642863 -0.050211776 0.2705792 0.051407598 0.051381588 0.027024474 0.12985088 0.30323067 -0.080951676 0.16327876 0.08820139 0.12794238 -0.05084833 0.023596667 -0.021713095 0.45349032 -0.6120535 0.38381606 -0.37102574 0.39554772 0.2440928 0.032029122 -0.004634483 0.26001084 0.07003869 -0.3335647 0.024818497 0.28208286 0.34883013 0.12943947 -8.041421e-05 0.7998829 -0.014736826 -0.011465571 0.020461166 0.39426714 -0.26599592 0.0356615 0.101133265 0.18629923 0.2703845 0.8072741 0.19842179 -0.020555211 -0.5389088 0.7566089 0.12324836 -0.38966885 0.4167037 -0.17253731 0.02286762 -0.3382274 -0.12601161 0.049349822 0.28211698 -0.26309186 -0.45874324 -0.4760432 -0.49296486 0.19059636 0.08406799 -0.03552897 -0.2904527 -0.18073998 0.12757747 0.17055055 0.091384485 -0.25892004 0.18163608 0.21989068 -0.15148784 -0.14776458 0.06564891 0.45989648 -0.15548666 0.39331836 0.004869946 -0.54645437 -0.5792679 -0.44596013 0.56112975 -0.24718586
malignant 0.2609092 0.10875102 0.55045617 0.059183437 0.45414618 -0.043424714 0.37367144 -0.2981285 -0.009257008 -0.081379645 0.018474912 0.031614043 -0.11147491 -0.08584582 0.13627887 0.28922942 -0.30983305 0.044899352 -0.37178937 0.011811105 0.3440356 0.15119143 0.113089316 -0.04637437 0.20422466 0.35706073 -0.20527938 0.05596274 0.052667774 0.105324276 -0.024388053 -0.013196142 -0.002520489 0.31728116 -0.6129961 0.291003 -0.34064364 0.3659757 0.25816506 0.14384027 0.01225405 0.34192583 0.031480715 -0.23740268 0.09219908 0.36932287 0.34776136 0.16493389 0.07093464 0.7162296 -0.15117508 -0.038934752 -0.031249095 0.31835654 -0.21662663 0.16616014 0.16099328 0.2528563 0.20740074 0.72446585 0.1565856 -0.14185125 -0.51918894 0.7979056 0.112040766 -0.46432132 0.40127403 -0.17912708 0.042889435 -0.50711656 -0.08443997 -0.051299535 0.24288194 -0.2544768 -0.323707 -0.4267277 -0.53064054 0.20651111 0.071336 0.11980781 -0.39894915 -0.20956619 0.074224874 0.072473094 0.038275972 -0.1299895 0.07079184 0.25090826 -0.19513354 -0.11592915 0.08592911 0.23977427 -0.20464948 0.37903067 0.040262796 -0.39015538 -0.60485786 -0.2565445 0.6230275 -0.10581211
wound 0.84534556 -0.12839486 0.8395828 -0.07621461 0.17223077 -0.65126204 0.32043797 -0.20640984 0.67924535 0.020961903 0.11918353 -0.22192736 0.0054626046 0.84455645 0.15262806 0.004713163 0.086708635 -0.13085197 -0.2686815 0.6537266 0.72178864 -0.08509323 0.084175505 0.15447006 0.19089444 -0.056296367 0.27014118 -0.06886741 0.24960814 0.34456062 -0.3770874 0.39530575 -0.44730985 0.6204032 -0.45727473 -0.13730747 -0.21761166 0.93829244 0.86672664 1.1963793 0.25206843 0.14113542 -0.113023266 -1.1308815 -0.86867666 -0.04205809 -0.03389469 -0.1674088 0.61069703 0.018953603 -0.55765647 0.4243825 0.049901027 -0.014926105 -0.41599047 -0.33267835 -0.21263674 0.10572077 0.1594549 0.53637123 0.11544682 -0.12770258 -1.0691326 1.149391 0.43472037 0.09728252 -0.09013438 0.7662327 0.57975966 -0.68921995 -0.62722635 0.043235425 0.09773317 -0.26068103 -0.4017388 -1.0239469 -0.20648828 -0.42407477 0.35258844 0.09349043 -0.17568247 0.066253595 0.07195721 0.024425747 0.009208927 0.1341814 0.22342832 0.33484203 -0.9186584 -0.11788352 0.102269106 0.005704864 0.045142338 0.54735583 -0.4103422 -0.73710763 -0.7916333 -0.3873262 1.1042247 -0.08319529
antepartum 0.75311726 -0.5410279 0.22625276 -0.6885629 0.54502374 -0.87169987 0.34624425 -0.5764132 0.5797269 -0.41476667 -0.0050124903 -0.14284505 -0.26615313 0.23339939 0.2512997 0.3129281 0.08403789 0.33542746 -0.26340845 0.13047233 0.39398044 -0.3656553 0.053187516 0.45544907 -0.45215026 -0.23996949 -0.5372422 0.86020523 0.19924222 0.00075431296 0.13181812 -0.039672185 0.21644835 0.58884007 -0.42437798 -0.39478645 -0.25876057 1.3502835 0.48145944 0.5392205 0.13163026 0.38251352 -0.16934368 -1.1123508 -1.172854 -0.25222117 0.08403782 0.08070308 -0.5512036 0.06643688 -0.695089 0.5188093 0.21377344 -0.31836703 -0.5959295 0.12014984 0.03102469 -0.24523798 0.5016225 0.44601187 0.64112616 0.010595615 -0.9123431 1.2027978 0.40697592 0.3641297 -0.0114599075 0.8553735 0.5480686 -0.37532958 -0.3616921 -0.015952848 0.5366227 -0.06298836 -0.9133531 -0.70468384 -0.98975396 -0.85700566 -0.3649372 0.0728288 -0.26980755 -0.99538326 0.15538913 -0.5987227 0.059427135 0.42006165 0.2515527 -0.11589004 -0.45182014 -0.35035622 -0.46041298 -0.49894956 -0.39249486 0.121641204 -0.490466 -0.70551074 -1.354992 -0.29683563 1.5703108 0.13649128
due 0.11885893 0.022672463 0.43501496 -0.1944232 0.53658205 -0.06892595 0.2653019 -0.21616511 0.0060919956 -0.12715162 -0.079540856 0.05213198 -0.2870443 -0.12185832 0.12157211 0.29326817 -0.3178914 0.077446006 -0.15451686 -0.3893918 0.31679285 0.0717382 -0.15044187 0.099089906 0.09900177 0.12242789 -0.2536317 0.12175107 -0.16839352 -0.0048610177 0.03411872 -0.025569195 0.0076282127 0.13194874 -0.67279464 0.11347232 -0.22704026 0.4834237 0.16928667 0.04913178 -0.1056605 0.24256839 -0.0068025417 -0.401672 -0.10398237 0.08374253 0.11423027 0.094109416 -0.03809463 0.8214127 0.06631578 0.026094953 -0.20291387 0.14204952 -0.15528952 0.14000703 0.072621435 0.050940223 0.30060902 0.46929637 -0.017386807 0.07504448 -0.54304504 0.48026416 -0.13648416 -0.2843387 0.26982316 0.106635965 -0.050896034 -0.42164898 -0.1891303 -0.09550221 0.18084142 -0.21543048 -0.35504672 -0.5568507 -0.61663806 0.24604644 -0.1741533 0.006405227 -0.25778913 -0.2701247 0.043067098 0.044128686 -0.10455394 -0.20827375 0.044437714 0.4146468 0.07751393 -0.07654012 0.11561816 0.06666915 -0.24583109 0.40307814 -0.080350965 -0.36901122 -0.5979148 -0.20158467 0.71288615 -0.0864223
involving 0.41129696 0.31157842 0.8883812 0.21007493 0.19106509 -0.0026376843 0.256704 0.055752706 0.060088497 -0.26888293 0.40873516 0.3386353 -0.2152974 -0.08791359 0.1261723 -0.064135715 -0.7590046 0.12887159 0.39041293 -0.30171084 0.29297715 0.5412 -0.2619405 -0.41580603 0.40739742 0.3154788 -0.19507031 -0.8290068 -0.26359364 -0.09826805 -0.0025141686 0.26265568 -0.25724673 -0.16509767 -0.8988954 0.16084261 0.08748614 0.84999037 0.75185734 -0.104720026 -0.24137203 0.021624167 0.050599273 -0.18482152 -0.19957379 0.31207123 0.16159403 0.51949 0.5696485 1.4325455 0.3032007 -0.016585859 -0.51752853 0.28121966 -0.032509338 0.13853928 -0.092054956 0.5279342 0.5005106 0.81684387 0.07475666 -0.10790305 -0.6176408 0.55839264 -0.17553446 -0.8554884 0.096873894 -0.15278675 0.023434358 -0.58705926 0.29682022 -0.09005093 -0.1924287 -0.30461064 -0.57982856 -0.90059656 -0.61082715 0.3000062 0.42099676 -0.27458972 -0.48426077 0.23131567 0.18929543 0.5271605 -0.47540632 -0.13103117 0.27372792 0.97364104 0.1797929 -0.31507728 0.6397208 0.63377434 -0.45482337 0.46269512 -0.25048715 -0.816533 -0.45374045 -0.45433834 0.4156859 -0.37334752
tuberculosis -0.49292848 -0.4451416 0.8273864 -0.34410995 1.0663065 0.6381569 -0.2015259 -0.4572264 0.4141001 0.12916857 -0.48540008 -0.4807914 -0.6993725 -0.0036300384 0.101958685 0.48887423 -0.4409723 -0.37572446 -0.48125467 -0.49918756 0.8064353 -0.1259042 -0.6302433 -0.02590361 0.21549131 -0.2512444 -0.37238342 0.43918616 0.06264229 0.076065764 -0.44680324 -0.097227976 -0.551993 0.22390948 -0.68346936 -0.35897142 0.18642817 0.12640083 -0.23701245 0.1341099 -0.27413788 0.1090594 0.25639063 -0.20410167 0.60866535 0.48434052 -0.10552976 0.4419904 0.05661834 0.7761933 1.0665987 -0.20585516 -0.20688224 0.5715982 0.1895747 0.0044643544 0.6061657 -0.556751 -0.3978695 0.69119686 -0.23910154 -0.2149019 -1.05256 -0.014361242 -0.46117893 -0.10292997 0.30723938 -0.2955012 0.12410425 -0.35877904 -0.54750806 0.07738562 -0.17669845 -0.55512655 0.04328966 -0.911426 -0.2694281 1.1719159 -0.65260154 -0.074822605 -0.45208493 -0.56456685 -0.2155305 0.40479589 -0.1327104 -0.58673507 -0.3484466 0.9474821 0.23598418 0.67295605 -0.39356428 0.14414416 -0.13168018 0.89328575 0.32829908 -0.52479976 -0.57465017 -0.5565824 1.0435026 0.0407439
consciousness 1.15134 -0.25288272 1.0939143 0.42112288 0.20669837 -1.2388896 0.5145641 -0.44899756 1.1583393 -0.23650467 0.36562148 0.18716928 0.018365148 1.2799423 0.2783114 0.24649528 0.21587105 0.26000714 -0.20669392 0.92777 1.2940595 -0.14535892 -0.32841256 -0.14232285 0.39988267 0.02135366 0.0540884 0.1482604 0.17881201 0.36995494 -0.48172545 0.90578794 -0.3409528 0.16844097 -0.7511657 0.15172066 -0.259118 0.60970724 1.3539848 1.6431769 -0.16609277 0.5249428 -0.40604135 -1.4519241 -1.0548733 0.01710248 0.22042832 0.1884031 1.2621343 0.13670073 -0.56944865 0.2365312 -0.18850446 0.23951364 -0.82838833 -0.27233136 -0.7414693 -0.10361522 0.089137174 0.8480073 0.20553598 -0.26295114 -1.0606545 1.7458726 0.2200904 -0.14186254 -0.30181617 1.1711307 0.8322916 -0.8195465 -1.1961597 -0.17944 -0.15160936 -0.25493658 -0.48800132 -1.4617108 -0.44500136 -0.15399182 0.09173268 -0.5539894 -0.7777508 0.10789536 -0.282331 0.27962443 0.09171053 0.3688564 0.33731467 0.41872728 -1.3167591 0.058273185 0.5420886 0.5218708 0.656867 0.80394804 -1.0387707 -0.9776651 -0.43949535 -0.83717495 1.394508 -0.51397043
closed 0.5376572 0.30643266 0.8412993 0.13612887 0.078091286 -0.253072 0.2628328 -0.011897862 0.49906653 0.07023952 0.16831304 -0.008749998 0.031246547 0.7286922 0.117466815 -0.055009823 -0.09281624 -0.24718864 -0.083238915 0.4660989 0.6122865 0.10656088 -0.075127125 -0.11596227 0.43247223 0.12112473 0.28663605 -0.5085785 0.109444 0.21860757 -0.42432046 0.3571088 -0.45378846 0.36137477 -0.5207282 0.07912412 -0.10041602 0.6080647 0.7658701 0.9170445 0.14889015 0.0049076965 -0.009175038 -0.67354006 -0.39280894 0.23874328 0.063549235 -0.016321136 0.7877228 0.27015507 -0.11562814 0.1745724 -0.24642576 0.16970994 -0.18077727 -0.3815945 -0.12625378 0.23652034 0.1024841 0.5324966 -0.070927516 -0.08706132 -0.8042632 0.6820612 0.14849004 -0.25728512 -0.082904086 0.2515387 0.33239844 -0.6687614 -0.32834637 0.013085681 -0.11019633 -0.2505342 -0.13832328 -0.93039083 0.007527237 0.0124726 0.45344415 0.01249575 -0.3373452 0.33241522 0.029772399 0.37400278 -0.083819896 -0.118780054 0.21195237 0.38039145 -0.67046726 -0.049588323 0.3757603 0.34914434 0.032864638 0.6041962 -0.21238707 -0.66522783 -0.4091013 -0.31159008 0.5901923 -0.13657923
degree 1.2108891 -0.23076767 0.8235026 0.32915872 0.11830243 -0.6789444 0.2561309 -0.3667354 0.6840171 -0.71139103 0.7923423 0.39313686 -0.30446595 0.3815069 -0.26553047 -0.058864385 0.005680733 -0.0424444 -0.32963833 0.7122513 0.6201342 0.19299532 0.24713561 -0.5381041 0.55484337 0.2775789 -1.4004247 -0.015401188 -0.09648553 0.43598133 -0.16889185 0.45911592 -0.26299396 -0.047851007 -0.2953078 0.05008856 0.050197925 0.52254844 1.1803229 0.3599558 -0.01662222 0.38757423 -0.114028454 -0.41847172 0.08459788 0.24353431 0.61383694 1.124012 0.383914 0.33504528 -0.5474853 0.2294461 0.24740015 0.78784984 -0.6474491 0.08857063 -0.36990568 0.33058804 0.41106498 1.0507301 0.45909223 -0.25597888 0.025766691 1.8334247 0.57913125 -0.27430224 0.30873847 0.09452532 0.7549006 -0.24991691 -0.40026763 0.52963734 0.38288206 -0.8813693 -0.7228006 -0.53604394 -0.13500515 0.48215663 0.44360653 -0.47825912 -1.0993869 -0.2239751 -0.56545013 0.70694745 0.6176109 0.5133492 0.06677586 0.20730981 -1.0014108 0.10095603 0.32562172 1.1692231 0.019059833 0.27602446 -0.55935955 -0.99139595 -0.21376781 -0.9727334 0.714278 -0.64330786
intracranial 1.270586 0.017918237 1.1940103 0.2468411 0.008014728 -1.0076774 0.5124501 -0.06942789 1.0364746 0.024874497 0.31907263 -0.16962044 0.02877367 1.3671489 0.18666431 -0.029686626 0.045789476 -0.098868355 -0.13095275 0.9845006 1.1764511 -0.050860554 -0.12582017 -0.013445291 0.42507198 -0.041058227 0.5196879 -0.37219754 0.3070615 0.40668014 -0.58296186 0.8727595 -0.6622341 0.5702999 -0.7681839 -0.061994158 -0.22251987 1.0926921 1.424886 1.7570376 0.18455592 0.15563357 -0.30908513 -1.4895903 -1.2301335 -0.030290041 -0.0038475795 -0.15380701 1.3217648 0.040294107 -0.60006785 0.49947327 -0.17217237 -0.03796497 -0.50148696 -0.48012397 -0.5074155 0.17379178 0.1705904 0.8052884 0.06697644 -0.17986839 -1.3756194 1.496378 0.40772572 -0.039994977 -0.31406814 1.0881789 0.7152916 -0.9915452 -0.86117053 -0.0042623677 -0.10248643 -0.24332805 -0.49499753 -1.6208819 -0.18434055 -0.440354 0.6319201 -0.116378024 -0.3909977 0.40112904 0.05015856 0.28481352 -0.06776245 0.15597516 0.37538502 0.58822614 -1.2680829 -0.19651057 0.5127064 0.31088567 0.26033282 0.8718258 -0.74317884 -1.0650002 -0.8276025 -0.60725266 1.2945646 -0.2678061
hemorrhage 0.95634574 -0.15878817 0.6409022 -0.03723066 0.10718851 -0.7793986 0.40201014 -0.14565618 0.7135112 -0.12342245 0.1642223 -0.16608417 -0.08827565 0.84367454 0.19709326 0.11481289 0.02795518 -0.0016408525 -0.12540133 0.6485041 0.7992717 -0.1292789 -0.06367926 0.064810365 0.110706516 -0.1115417 0.17200124 0.056734033 0.18929106 0.25403565 -0.2289088 0.4894455 -0.33493754 0.45401078 -0.5524485 -0.12459791 -0.24880354 0.92233366 0.9139594 1.1215459 0.14292401 0.20960264 -0.26923475 -1.1290458 -0.9917854 -0.11534166 0.061455008 -0.06393563 0.6412351 -0.03781743 -0.59193796 0.43810993 -0.012490291 -0.122041285 -0.45626906 -0.17795207 -0.32296392 -0.0061811307 0.21664034 0.5433895 0.16702417 -0.08633284 -0.97608 1.1720848 0.33212203 0.09926469 -0.1851227 0.8870041 0.5163283 -0.64081174 -0.5933857 0.01229153 0.06779132 -0.14297627 -0.50938433 -1.0841146 -0.29112166 -0.45310852 0.23862666 -0.102916054 -0.3296433 -0.021233711 0.043311138 0.017703556 0.018881237 0.18362656 0.24366239 0.32041094 -0.883827 -0.20866497 0.17685437 0.10020676 0.12570083 0.49165624 -0.5687033 -0.755539 -0.7212551 -0.38752294 1.1235954 -0.11008742
delivered 0.7029512 -0.5195726 0.24228294 -0.63748825 0.56690836 -0.76814735 0.31570253 -0.5106013 0.52315193 -0.3910336 -0.018669296 -0.15475519 -0.26857528 0.21817057 0.2256836 0.31959784 0.054873124 0.29042366 -0.2567096 0.0778744 0.3641009 -0.3375798 0.028673781 0.3827914 -0.3855878 -0.22563714 -0.49881664 0.8206179 0.1552283 0.02582444 0.14429452 -0.036714137 0.16426487 0.5343626 -0.44054654 -0.35034525 -0.24249278 1.3074845 0.4678168 0.45412785 0.10179843 0.35105854 -0.13766597 -1.0425066 -1.0572307 -0.21947944 0.09330182 0.08352921 -0.4809139 0.122916244 -0.61122787 0.4800889 0.21693715 -0.2774035 -0.5467153 0.13988581 0.028842337 -0.23358466 0.44231457 0.48177373 0.6048213 0.020574732 -0.87168235 1.1178693 0.40647995 0.28402433 0.006693212 0.79528266 0.48766285 -0.33932135 -0.33438691 -0.0468367 0.5290059 -0.08020623 -0.86802113 -0.7054912 -0.95540786 -0.7368876 -0.34954104 0.029629365 -0.28941712 -0.90968144 0.14352486 -0.51041067 0.021950481 0.35214287 0.20242368 -0.07648884 -0.41581833 -0.32864875 -0.44599208 -0.43771645 -0.4080158 0.16473733 -0.4261488 -0.697824 -1.2514929 -0.28852308 1.4862562 0.13976422
acute 0.32421649 -0.049394008 0.34712937 -0.15000477 0.39921227 -0.19420789 0.26581734 -0.2050381 0.12298779 -0.14236437 -0.039305765 -0.01447125 -0.27612633 0.058571912 0.14844997 0.2677103 -0.17446785 0.02761118 -0.16799091 -0.080281176 0.35826153 -0.030830935 -0.06337883 0.063208036 0.028007735 0.05416398 -0.1558832 0.16271356 -0.076514296 0.043064684 0.014957656 0.026563188 -0.06608309 0.21380834 -0.5401228 0.02245574 -0.19442649 0.53671545 0.23136342 0.26577666 0.02431532 0.23459487 -0.07076027 -0.45496932 -0.26220992 -0.00857924 0.15158024 0.05493729 0.029292952 0.4624527 -0.17471345 0.13131703 -0.06465724 0.037381515 -0.22589509 0.106380396 0.018421382 0.0468743 0.24556197 0.4710426 0.050493825 0.061097022 -0.5301008 0.5904527 0.037445243 -0.12115427 0.19140011 0.26633462 0.06774141 -0.38559276 -0.25789616 -0.0042876126 0.20890743 -0.17084087 -0.3618182 -0.5313687 -0.46368837 0.023775043 -0.10164935 0.0013625927 -0.26282263 -0.2734387 0.016063571 -0.007914525 0.006662457 -0.07655065 0.054053042 0.28813142 -0.18831 -0.11563378 0.04244569 0.037234284 -0.13877566 0.30509117 -0.1539952 -0.36286935 -0.52274996 -0.14317407 0.7341834 -0.055266663
disorder 0.25700873 0.008479097 0.37100106 -0.13935678 0.5075616 -0.10851746 0.30832472 -0.11484638 -0.0061625578 -0.16498281 -0.10870651 0.021947239 -0.41461152 -0.062016606 0.16148312 0.34884572 -0.15169424 -0.027491327 -0.2034489 -0.25297746 0.5285457 0.0017799638 -0.14504237 0.044600494 0.12230171 0.0375407 -0.27082446 0.13620725 -0.13559617 0.036142796 0.038042206 -0.0054590134 -0.0026985288 0.16554105 -0.6751052 0.09069803 -0.104306236 0.58162236 0.2419567 0.067312494 0.07936229 0.23069681 -0.038917623 -0.3441767 -0.08811076 0.088066414 0.16858053 0.033353947 0.021304537 0.5897389 -0.13647006 0.08314388 -0.09842315 0.011999121 -0.15108252 0.16255568 0.14528984 -0.009063626 0.25060618 0.5102253 -0.019704135 0.11709093 -0.45901206 0.64165026 -0.045332536 -0.19335583 0.20871006 0.17685442 -0.03108135 -0.42897052 -0.1406521 0.10860238 0.31853753 -0.16617578 -0.41158164 -0.5497735 -0.5508612 0.11710552 -0.09774241 0.044202026 -0.34071878 -0.28814477 0.009913162 0.14962973 0.09249133 -0.12975852 -0.019404719 0.34912834 -0.091416284 -0.14606015 -0.051365692 0.08288575 -0.19095229 0.40194294 -0.074549 -0.35768428 -0.4976291 -0.08287014 0.7345434 0.035351988
poisoning -0.008322813 0.15478905 0.49242148 -0.12941313 0.7314025 0.104652874 0.2578061 -0.23191367 -0.13585116 -0.0947176 -0.17408209 0.038202025 -0.4946125 -0.27713647 0.14503029 0.40094313 -0.35880405 -0.04391065 -0.30883256 -0.5281059 0.45931748 0.086589776 -0.16998293 0.08020779 0.19562897 0.20217952 -0.42860803 0.15397775 -0.21310444 -0.012259819 -0.06002742 -0.055186357 0.026916364 0.11254047 -0.8239754 0.20990989 -0.27878138 0.4474334 0.12172226 -0.05572332 -0.024734998 0.3426367 -0.010541326 -0.29566097 0.24117072 0.17452626 0.16749525 0.15838291 -0.083408 0.9731447 0.21205904 -0.059175223 -0.23148325 0.2422961 -0.12534451 0.17415845 0.15759657 -0.010309024 0.30178946 0.6944018 -0.08181999 0.10691545 -0.53001314 0.5319532 -0.17391746 -0.3510593 0.48833764 -0.07998867 -0.11404858 -0.50759786 -0.28553626 -0.033531573 0.31996998 -0.37599695 -0.26407382 -0.5864173 -0.59182453 0.55469424 -0.26441276 0.043812096 -0.45187977 -0.34957665 -0.08878895 0.18977654 -0.016729353 -0.3745409 -0.037229415 0.5144647 0.1248862 0.03836663 0.040004604 0.16592921 -0.27215555 0.57947475 0.023443991 -0.36817276 -0.63706446 -0.1277017 0.7515498 -0.08888671
accident 0.060262784 0.3406827 0.89439446 0.1597968 0.63553685 0.18236792 0.28946576 -0.114966325 -0.32315746 -0.37872338 0.27222663 0.42811254 -0.47373348 -0.8103236 0.31480035 0.23088497 -1.213378 0.4693395 0.5314399 -1.2757455 0.23586333 0.6522186 -0.5590795 -0.3442054 0.28797927 0.4970359 -0.12149885 -0.7339046 -0.57192177 -0.45118767 0.24828674 0.051369697 -0.06637462 -0.40152976 -1.4848201 0.3573041 -0.007757139 0.9754186 0.39814788 -0.7439467 -0.45936462 0.19782293 0.03072344 -0.03206097 -0.10329246 0.30074558 0.23167261 0.60949117 0.36763823 2.4242215 0.82594115 -0.29761654 -0.9114201 0.25635555 0.14420861 0.5347956 0.052228082 0.55289865 0.6491884 1.0728637 0.057967346 0.034624413 -0.9440906 0.25087073 -0.65506697 -1.3020487 0.24713224 -0.30800882 -0.46588838 -0.7229929 0.48771337 -0.4461271 -0.28744784 -0.12719797 -0.718946 -1.1002227 -1.4263554 0.47342294 0.011767604 -0.35329363 -0.4853536 0.019516649 0.32005915 0.4883374 -0.8948779 -0.4944016 0.23476544 1.4279264 0.98990655 -0.42890093 0.7855063 0.41390833 -0.733977 0.54786766 -0.19735235 -0.7811278 -0.77602303 -0.3338017 0.6153462 -0.46823823
sites 0.3106956 0.16664119 0.72037786 -0.0347615 0.5184855 0.0014229997 0.28644022 -0.23648728 0.07031078 -0.12671117 0.08941035 0.11293402 -0.15301351 0.12937687 0.11403605 0.14638259 -0.12514485 -0.1959888 -0.3214524 0.16758728 0.36330995 0.17118986 0.17018446 -0.044328704 0.3892361 0.320539 -0.2893314 -0.20801707 -0.11639169 0.20261264 -0.12914968 -0.088974856 -0.11047719 0.43909293 -0.5050037 0.24674068 -0.21065955 0.5448594 0.5052892 0.30354422 0.21117762 0.31362256 0.15685414 -0.3657849 0.15028727 0.31117567 0.18093415 0.1091106 0.07455799 0.70542496 -0.19843856 -0.008785998 0.04257796 0.38092038 -0.29165402 -0.082454465 0.09647784 0.316973 0.26035655 0.6560825 -0.05706888 -0.0673454 -0.45304734 0.8415992 0.21250512 -0.45465016 0.35593492 -0.05614245 0.17110626 -0.60700244 -0.18477575 0.076696336 0.37936458 -0.4657705 -0.3157949 -0.36200047 -0.32417426 0.30774415 0.28329977 0.090502895 -0.3391938 -0.09784169 -0.14192536 0.28756195 0.26819703 -0.11343609 0.04107292 0.270856 -0.40754393 0.001094123 -0.011455947 0.38235772 -0.21414146 0.41456994 0.04445434 -0.428829 -0.49861997 -0.3156149 0.6069932 -0.14741682
disease 0.197945 0.18034515 0.32624352 -0.069483295 0.553874 -0.050812412 0.19188665 -0.29320312 0.023835741 -0.045828577 -0.009491536 0.046364922 -0.34707132 -0.10278884 0.2501103 0.31889015 -0.20869468 -0.04963111 -0.2782515 -0.20324261 0.36021537 -0.050494626 -0.019475807 0.07527504 0.11986403 0.27106342 -0.17506078 0.115170024 -0.10684429 -0.03053689 -0.05434897 0.014842992 -0.05567411 0.2739546 -0.6539213 0.18444629 -0.26083094 0.5490168 0.27849084 0.15053898 0.14585634 0.32436892 -0.06641111 -0.32569325 -0.050699547 0.031178858 0.21487242 0.06666584 -0.015109103 0.59393346 -0.05385485 0.027571993 -0.17023414 0.22019961 -0.17753561 0.107928246 0.096295044 0.12312586 0.24393813 0.63248473 0.017962584 0.07189137 -0.46941587 0.5395356 0.11114229 -0.30185568 0.20563601 0.042371016 -0.10426028 -0.47487292 -0.15003015 -0.010439765 0.27680957 -0.23860808 -0.27356076 -0.44021928 -0.5019494 0.09850893 -0.04181924 0.07479364 -0.34445748 -0.25622362 -0.024974607 0.059781767 0.101929456 -0.19649264 0.0073193796 0.24986394 -0.10804786 -0.14070307 -0.024636276 0.055290673 -0.27839047 0.30792645 -0.01750904 -0.32127792 -0.6452074 -0.028085507 0.62106323 -0.06940797
injuring -0.041684337 0.27090788 0.8827677 0.15763144 0.697426 0.2569173 0.294174 -0.19994383 -0.43732342 -0.39363262 0.19287798 0.43644053 -0.45571002 -0.9217146 0.31952128 0.26442698 -1.2809938 0.5094473 0.527738 -1.4244137 0.2428259 0.6454917 -0.61747485 -0.3282617 0.23601396 0.51854354 -0.14282984 -0.6858556 -0.6141112 -0.47734255 0.25672743 0.014954714 -0.019113507 -0.45254925 -1.503256 0.40723827 0.043088216 0.85962486 0.25247014 -0.8702698 -0.5481633 0.21492615 0.048166193 0.03165695 -0.018738076 0.3282074 0.22501077 0.6304103 0.28829443 2.5324717 0.9297066 -0.35857344 -0.94048905 0.25072372 0.14958058 0.5616297 0.11492152 0.52253336 0.6151381 1.0001777 0.040559847 0.019523146 -0.8966891 0.1613663 -0.7553293 -1.2952956 0.28172216 -0.4151873 -0.54202497 -0.6518768 0.50487244 -0.47839624 -0.27928722 -0.14892922 -0.7330046 -1.0550536 -1.4816338 0.5994277 -0.07869893 -0.36674947 -0.50855774 -0.032325238 0.32167983 0.465309 -0.9197299 -0.51773435 0.16843231 1.496525 1.111319 -0.40280014 0.7673982 0.40940738 -0.7108516 0.5346076 -0.12614803 -0.73644084 -0.6955525 -0.30739743 0.5999792 -0.46626547
chronic 0.3645967 -0.07067068 0.39593285 -0.15282644 0.44072798 -0.22985373 0.2971626 -0.2588245 0.19050387 -0.123061985 -0.009429869 -0.036868915 -0.23731841 0.08275257 0.15944283 0.27760905 -0.20264927 0.03551132 -0.19772375 -0.04986596 0.37381816 -0.025322413 -0.04065119 0.060158838 0.033470366 0.088257074 -0.15754575 0.19205932 -0.05434825 0.04825608 -0.019141804 0.027632287 -0.10394968 0.26740742 -0.5652841 0.035479285 -0.25227186 0.5621603 0.27272928 0.34351143 0.01814769 0.26336604 -0.08628828 -0.5422408 -0.3192904 -0.016200384 0.17103809 0.0935391 0.04519369 0.49006516 -0.19289358 0.14572313 -0.07429679 0.091762885 -0.25722197 0.08896947 0.0026497452 0.05154783 0.24940963 0.5468388 0.08305513 0.03505974 -0.6120288 0.67374754 0.08112632 -0.14218663 0.20450422 0.276255 0.08571412 -0.42784908 -0.32382366 -0.020109307 0.21714455 -0.20303121 -0.3810729 -0.59945077 -0.48166093 0.005693616 -0.09421487 -0.012985917 -0.26744282 -0.3093215 0.023244431 -0.03771053 0.029192405 -0.12532613 0.07115568 0.2938486 -0.25439602 -0.12491432 0.06977031 0.04132929 -0.15791732 0.33471978 -0.17365055 -0.41212356 -0.61377954 -0.17734432 0.83297396 -0.103276715
episode 0.6598904 -0.20914486 0.08805671 -0.3458116 0.8579512 -0.40156707 0.53545594 0.39417413 -0.2676354 -0.37635595 -0.467826 0.02550853 -1.0753179 -0.06862774 0.50080717 0.71895367 0.13870172 -0.22495994 0.007875742 -0.20013456 1.1025834 -0.09425691 -0.23715606 -0.041167434 -0.10481347 -0.44599476 -0.21078737 0.35706982 -0.15634234 -0.17137103 0.35198346 0.013189642 0.17833999 0.12167085 -1.0313185 0.017426422 0.35456115 1.3134434 0.39100975 -0.22098725 0.4437515 0.21922529 -0.218214 -0.17071071 -0.3836072 0.07777259 0.1893424 -0.329501 0.020533187 0.3875236 -0.77736783 0.36599258 0.29884633 -0.73434037 -0.10818851 0.6536258 0.5821567 -0.23086059 0.40901974 0.5477591 -0.15929347 0.55371875 -0.21456666 1.2581607 -0.06020168 0.07276706 -0.07806056 0.5866373 -0.17644 -0.44244194 0.50342333 0.68702775 0.9137432 0.3764465 -1.1846848 -0.78028595 -0.88075763 -0.4463544 -0.2259238 0.1448028 -0.24842605 -0.47839147 0.21050067 0.14590229 0.5763761 0.19196458 -0.10481712 0.29992253 -0.18440287 -0.59093416 -0.64814794 0.01924199 -0.33742914 0.30033663 -0.023042865 -0.19354706 -0.4487574 0.4288329 0.9130993 0.42450106
examination -0.5567737 -0.44492227 0.9205327 -0.55670315 1.216052 0.8522629 -0.35583913 -0.5713358 0.5120433 0.0004683522 -0.5632665 -0.63560826 -0.8423755 -0.016133362 0.17595205 0.60695434 -0.60632867 -0.4303516 -0.4426774 -0.65662277 0.77479464 -0.18716997 -0.852035 0.13214579 0.21312979 -0.25975546 -0.46435013 0.39009848 0.10982856 0.23713817 -0.28134325 0.046642922 -0.6384512 0.38710353 -0.7112205 -0.5360323 0.14490056 0.15420845 -0.32577783 0.14239882 -0.2731684 0.21620439 0.3493676 -0.22235821 0.86292547 0.58874 -0.1772452 0.47052982 -0.077178 0.813719 1.131418 -0.17042325 -0.39008284 0.66821223 0.1599435 0.15481853 0.83379245 -0.60146564 -0.44625962 0.7556889 -0.27188525 -0.41793948 -1.303011 -0.020786645 -0.5130381 -0.049637415 0.35745725 -0.084308244 0.1893426 -0.39456272 -0.7062677 0.11169621 -0.19837753 -0.62837756 0.036727592 -1.0172495 -0.30480388 1.2896447 -0.8041864 -0.11378241 -0.70861584 -0.8576874 -0.19795588 0.28392506 -0.08543377 -0.5287527 -0.49592 1.276308 0.49860942 0.8417577 -0.42159075 0.11613902 0.033677343 0.8827637 0.37364283 -0.7659564 -0.91142255 -0.68383586 1.2898643 0.12659468
skull 1.0647651 0.39072344 1.2447193 0.22297727 -0.005795493 -0.5983643 0.4381454 0.08062196 0.8484851 0.13686247 0.2747455 -0.14338605 0.013272349 1.1873755 0.18984629 -0.10363358 -0.1530622 -0.30196556 -0.057989206 0.8124973 1.0376267 0.1370024 -0.10549817 -0.14939705 0.52922326 0.08901841 0.5571846 -0.69031584 0.29685286 0.3349279 -0.6211454 0.7198863 -0.7275471 0.60621196 -0.82219756 -0.028284404 -0.18472846 1.1430112 1.344592 1.5172806 0.25227472 -0.002380378 -0.1362876 -1.2037889 -0.9124596 0.1835939 0.01669483 -0.06904579 1.2843844 0.31159946 -0.36357525 0.4212963 -0.35145974 0.1374335 -0.309607 -0.52323514 -0.27907842 0.36517212 0.18231359 0.80798197 -0.018497478 -0.16510771 -1.3366416 1.2082318 0.37137127 -0.25109115 -0.24251556 0.673458 0.5334113 -1.0057431 -0.5160273 0.06148719 -0.16515554 -0.2744826 -0.33503863 -1.6113797 -0.04873556 -0.25469628 0.759104 0.03477574 -0.46926913 0.5341157 0.13363433 0.4801439 -0.22125182 -0.058719065 0.36797872 0.671581 -1.0409776 -0.25020075 0.56436133 0.47595102 0.0043178317 0.89193606 -0.5194871 -1.0847219 -0.7728496 -0.49041593 1.0225159 -0.16754861
care 0.6477627 -0.09703565 0.1223436 -0.26063782 0.95490927 -0.29287517 0.5410221 0.4123314 -0.26446405 -0.43126515 -0.52631813 0.07806775 -1.104648 -0.12991025 0.41155916 0.73936343 0.14191455 -0.27094036 0.0091196615 -0.27889007 1.096705 -0.092864335 -0.35891706 0.016639076 0.014598961 -0.3959268 -0.25188124 0.32274947 -0.17020458 -0.12293149 0.33459267 -0.047267526 0.12817323 0.19908114 -1.1332778 0.0016031995 0.2989776 1.392399 0.43695945 -0.31438902 0.48851183 0.18258199 -0.20363638 -0.21399407 -0.28979835 0.12175106 0.17129184 -0.25004524 0.058635663 0.5146474 -0.71058804 0.28978148 0.28595448 -0.56400084 -0.05621922 0.58778673 0.6365236 -0.24339487 0.30483595 0.5680031 -0.15060967 0.50705546 -0.25088564 1.266284 -0.0707658 0.0064410255 -0.040261094 0.53521883 -0.17078221 -0.5577348 0.5104031 0.6727882 0.85249597 0.33253586 -1.155558 -0.8664421 -0.908299 -0.3441378 -0.15272309 0.031446464 -0.31676406 -0.44748583 0.17813055 0.15672357 0.53460443 0.049458154 -0.17930953 0.34641457 -0.1666018 -0.6364296 -0.64787644 0.076150276 -0.31114164 0.26980957 -0.000398223 -0.22618331 -0.39931574 0.33694705 0.88042605 0.34790277
site 0.35051402 0.13154048 0.5324551 -0.18947393 0.47133732 -0.16404136 0.3352323 -0.07580427 0.051973708 -0.11146457 -0.062372617 0.037526857 -0.18919177 0.1718662 0.065992855 0.19654456 -0.11660753 -0.14996418 -0.23279077 0.06406392 0.36211058 0.12178299 0.066836424 0.05602575 0.27166393 0.15870903 -0.24439645 -0.05348276 -0.15998894 0.26996744 0.003352208 -0.008642982 -0.028249642 0.32145655 -0.49088317 0.102506384 -0.29227233 0.50058144 0.40248093 0.30755663 0.1234278 0.2592386 0.051511485 -0.4499156 -0.018750299 0.110148266 0.10707438 -0.038138583 0.08858014 0.54865265 -0.3397694 0.124891914 0.04430916 0.13444911 -0.28800938 0.023366349 0.05923369 0.1316189 0.29131868 0.44663218 -0.13509779 0.0077323974 -0.46722126 0.82332313 0.070969895 -0.24404763 0.2961671 0.22107929 0.16787592 -0.52594185 -0.30819693 0.08134968 0.3659232 -0.3045069 -0.38330507 -0.3981795 -0.30643883 0.16445564 0.12264022 0.1050899 -0.21274433 -0.09549969 -0.057184804 0.12059413 0.23854059 -0.11547169 0.047436766 0.2656383 -0.2953903 -0.028636323 0.099441625 0.17243725 -0.12381797 0.37547684 -0.08249713 -0.35159048 -0.49285218 -0.18529792 0.64456177 -0.029395295
body 0.8931006 -0.17972592 0.7113483 0.20526741 0.1969861 -0.46978056 0.20522384 -0.33640704 0.5008016 -0.54474485 0.55009186 0.26049766 -0.29339132 0.22946182 -0.15980574 0.022647543 -0.085717164 0.007577451 -0.26017618 0.43506312 0.54084903 0.17727846 0.14509685 -0.38376725 0.42909315 0.20594868 -1.086075 0.021472339 -0.09783852 0.30089012 -0.12652694 0.30524585 -0.2339505 -0.033490665 -0.37127227 0.0414229 0.0044189184 0.5241051 0.90977424 0.2917089 -0.055574168 0.3352213 -0.064082116 -0.38166094 0.043397605 0.20239659 0.45348856 0.8772158 0.27401704 0.4729667 -0.32827938 0.19282913 0.11544438 0.62176144 -0.5071401 0.08763216 -0.2616056 0.25532302 0.33977827 0.9022836 0.36950368 -0.15423243 -0.13386536 1.4086246 0.4034648 -0.25404158 0.30130658 0.04113311 0.5505259 -0.272133 -0.33176923 0.36905372 0.287953 -0.7197748 -0.6101077 -0.5157827 -0.27356383 0.4377895 0.27879038 -0.32608747 -0.85192233 -0.24500094 -0.41540647 0.53378063 0.36149582 0.31141314 0.06899602 0.2856561 -0.690608 0.059276324 0.22300908 0.90100604 -0.069092706 0.33251032 -0.39009964 -0.7953756 -0.31457588 -0.79082185 0.7402488 -0.49856642
found -0.6258989 -1.0018395 1.5382057 -0.25998548 1.7107513 0.38712403 0.20493604 -0.6908402 0.53226686 0.30424547 -0.8413122 -0.45256346 -0.9750883 0.017036732 -0.051449034 0.6777838 -0.60439336 -0.35563222 -0.8854119 -0.7695348 1.7143644 -0.13099101 -0.7727119 -0.40186036 0.25441658 -0.6736296 -0.58025926 1.0821106 -0.015215312 -0.32283187 -1.0412145 -0.47600555 -0.8213934 -0.13471708 -1.52148 -0.31693247 0.3631594 0.48905247 -0.19745748 0.17693174 -0.61989564 0.026745081 0.16993025 -0.74279165 0.16707027 0.7474374 -0.07064351 0.7887602 0.4060231 1.5144341 1.7397695 -0.40273997 0.030685693 0.64258677 0.33912492 -0.2291726 0.53736615 -1.0878477 -0.44447327 1.2824969 -0.22555988 0.24340826 -1.5233647 0.4027902 -0.75205725 -0.23286904 0.46512023 -0.8593697 0.20491257 -0.68944246 -0.6479471 0.037813865 -0.26816666 -0.8048637 -0.24206772 -1.6426824 -0.79493666 1.835699 -0.9639198 -0.1945975 -0.25586656 -0.52408195 -0.43229905 1.0359393 -0.4300875 -1.120993 -0.22415276 1.0144835 -0.18504818 0.7388654 -0.59908503 0.32460567 -0.7268198 1.7936252 0.32187337 -0.5581072 -0.4055719 -0.77446455 1.7361419 -0.095208354
disorders 0.1338493 -0.07542163 0.4027899 -0.21964936 0.54263735 -0.060430523 0.27255884 -0.20819375 0.048030213 -0.14766 -0.12378427 -0.0098440405 -0.31020027 -0.0785504 0.117221214 0.3065865 -0.18763168 0.01043641 -0.23520245 -0.24594466 0.36325175 0.005141493 -0.09902802 0.074579865 0.060471468 0.03499017 -0.31818452 0.21388778 -0.10053704 0.02729694 0.017353438 -0.095056295 0.0052396017 0.22296794 -0.55877507 0.064447336 -0.16820003 0.49864647 0.13890408 0.06960818 -0.0144953085 0.23700525 0.04278413 -0.36252305 -0.05631674 0.14108132 0.12433661 0.10926343 -0.12245477 0.6400486 -0.016408544 0.053746086 -0.07536797 0.11658153 -0.172039 0.11114066 0.15607934 -0.040983424 0.21701288 0.46904978 0.042790998 0.051609 -0.49566463 0.5530356 -0.043211635 -0.1803284 0.28026018 0.08164067 0.025624147 -0.35514453 -0.19532485 0.015598678 0.26403153 -0.20405611 -0.35847506 -0.4695715 -0.5376434 0.19259198 -0.15791814 0.04865469 -0.26669586 -0.3823757 0.004521494 0.05235399 0.033929072 -0.16058937 -0.014791318 0.29077998 -0.043286778 -0.06428889 -0.07323619 0.056064256 -0.24977213 0.3705503 -0.03866423 -0.36369053 -0.5695418 -0.19370894 0.7506843 0.0024200904
multiple 0.35778248 0.17664932 0.63036174 -0.03468231 0.45554024 -0.10232197 0.22900556 -0.19894053 0.15087856 -0.084287174 0.15172231 0.14974903 -0.066742174 0.26880392 0.080536455 0.057202205 -0.05225083 -0.2260439 -0.31005728 0.24914484 0.33849084 0.12352381 0.18673927 -0.08348581 0.35400933 0.27157223 -0.2394834 -0.23147991 -0.09275999 0.27298704 -0.20148812 -0.06928649 -0.20441227 0.43264937 -0.4102916 0.15514544 -0.15090723 0.51610833 0.5652926 0.38708583 0.19172572 0.23474379 0.12560873 -0.33966616 0.017610906 0.27433175 0.16800211 0.09622978 0.13682121 0.50182784 -0.27456254 0.020919247 0.03059438 0.3975908 -0.30502415 -0.11767714 -0.0036190287 0.25574592 0.24613994 0.6031246 -0.045510832 -0.067255 -0.39944133 0.80474406 0.3247848 -0.38499516 0.24163702 -0.020270782 0.32955524 -0.60396373 -0.21054675 0.11705071 0.2914493 -0.42863274 -0.3212944 -0.28057295 -0.22074668 0.22829297 0.3302274 0.10164499 -0.3300193 -0.013981601 -0.12535691 0.24416761 0.29406542 0.044526096 0.051565602 0.21305123 -0.48080963 0.047077335 0.007080097 0.3451308 -0.1805776 0.32572758 -0.016013192 -0.38387796 -0.3932213 -0.29759204 0.53651965 -0.12540944
infection 0.16083479 -0.10556827 0.44468603 -0.29072416 0.5393468 -0.13104936 0.24449287 -0.21615642 0.1262715 -0.07324884 -0.16966294 -0.05036177 -0.23226656 0.08584828 0.06242904 0.2382839 -0.12555191 -0.049522925 -0.27278057 -0.12005626 0.34581912 -0.014496113 -0.047034763 0.12828192 0.09183057 -0.0058533405 -0.2629221 0.23596421 -0.07045005 0.13047458 -0.027319282 -0.097751066 -0.025212185 0.25990713 -0.45647603 -0.028094577 -0.19073111 0.48783457 0.19068079 0.25347087 0.0006745098 0.21474725 0.053420357 -0.49086896 -0.15436679 0.060294464 0.015596369 0.014236004 -0.066748515 0.48186198 -0.09649652 0.09272256 0.027236732 0.07505903 -0.22026294 0.021034906 0.09083326 -0.08955861 0.18774153 0.38537994 -0.026322884 0.020104224 -0.57055545 0.55280626 -0.0077857412 -0.092287414 0.2444807 0.1898759 0.16258751 -0.39314556 -0.33505413 -0.014323553 0.2582008 -0.2596839 -0.3384462 -0.43594375 -0.42345208 0.13860548 -0.15496396 0.07706599 -0.15011097 -0.30375403 -0.01993244 -0.004289216 0.060578343 -0.12686057 0.019650675 0.23197876 -0.17496128 0.03205347 -0.08359776 -0.035705585 -0.20051889 0.3758818 -0.06283063 -0.3260166 -0.55436295 -0.19104561 0.769439 0.033351798
vehicle 0.109370835 0.31418827 1.0108191 0.15106367 0.69315135 0.13427885 0.34191033 -0.10999766 -0.2907326 -0.44058427 0.32644522 0.5241602 -0.45836216 -0.8126507 0.33147484 0.20734559 -1.2715821 0.5551743 0.6072716 -1.3048782 0.25156245 0.7283867 -0.6414316 -0.39182043 0.30351013 0.46596852 -0.13573238 -0.80293643 -0.6039336 -0.434246 0.266053 0.043799937 -0.08264334 -0.42382422 -1.5957881 0.35283095 0.013029906 1.1296475 0.5068536 -0.73486364 -0.50928557 0.18327165 0.080041684 -0.07763801 -0.21296892 0.3357737 0.26213598 0.6175443 0.40091637 2.616195 0.817717 -0.3044722 -0.9211188 0.2296759 0.10816414 0.58182395 0.02943065 0.55721927 0.7062973 1.151303 0.10250424 0.018962245 -1.0323948 0.34234107 -0.67356706 -1.3751948 0.19090046 -0.23900269 -0.37163287 -0.81129605 0.5243504 -0.44917527 -0.292415 -0.13337651 -0.82087934 -1.1576684 -1.5474999 0.4609287 0.022225114 -0.43901333 -0.50285834 0.015728133 0.36874607 0.5033241 -0.95857066 -0.46564895 0.28186867 1.4994053 0.9584516 -0.48601192 0.8292974 0.42189878 -0.74454546 0.56022835 -0.23899624 -0.8950174 -0.8396315 -0.39135846 0.72649324 -0.5245913
postpartum 0.64943194 -0.5436347 0.20318511 -0.6553704 0.6028956 -0.72626185 0.32532367 -0.5244299 0.45549068 -0.41400996 -0.058327157 -0.15852086 -0.34132394 0.11817682 0.25145078 0.3495239 0.06052279 0.2905092 -0.22594206 0.001425472 0.3855955 -0.30781952 -0.002414387 0.3982727 -0.42541704 -0.27979088 -0.5520699 0.82354206 0.17112602 -0.01476883 0.1588081 -0.10831222 0.20667632 0.5412096 -0.45362386 -0.3736335 -0.1980031 1.2819772 0.37322775 0.3496075 0.12022489 0.3321683 -0.13727705 -0.93214667 -0.96808547 -0.16975127 0.081617616 0.10127173 -0.560495 0.17041934 -0.5940762 0.48023444 0.19884908 -0.30544952 -0.50727165 0.19799763 0.13145216 -0.27900344 0.4640686 0.42101434 0.5873751 0.009227942 -0.8377112 1.0891931 0.32226935 0.29749987 0.003764366 0.72413284 0.43276772 -0.3116012 -0.23135185 0.053537577 0.5402288 -0.024112506 -0.89752275 -0.6198421 -0.9707659 -0.7259468 -0.38817573 0.07459409 -0.27768207 -0.9880045 0.17879774 -0.4896401 0.08035957 0.3560526 0.18271625 -0.07741028 -0.34262082 -0.35342398 -0.5015081 -0.43615466 -0.41173613 0.12302595 -0.3680648 -0.65144956 -1.2461675 -0.25045028 1.464762 0.18462072
applicable 0.6615409 -0.22276036 0.21134977 -0.37508506 0.93873054 -0.29588377 0.48067215 0.3621094 -0.2826414 -0.393028 -0.50108063 0.027694767 -1.0981488 -0.066386946 0.4882189 0.66802526 0.123920694 -0.22274977 0.027588183 -0.25967845 1.1334407 -0.054790817 -0.20990062 -0.041397493 -0.10083158 -0.4730765 -0.25138652 0.29048556 -0.14187795 -0.14032315 0.2813729 0.00012785233 0.10696673 0.1403518 -1.1162441 -0.0043129153 0.3660606 1.3638515 0.4410628 -0.27427587 0.43962294 0.20901513 -0.14349814 -0.18010348 -0.35621822 0.1507977 0.20118627 -0.2840626 0.030215057 0.49822667 -0.7042036 0.37114283 0.26740208 -0.69037247 -0.0828102 0.6473304 0.61902815 -0.24982603 0.4109386 0.59622097 -0.1812541 0.5602845 -0.33219048 1.2728395 -0.03536788 0.023603523 -0.063074574 0.52672714 -0.117674224 -0.52978456 0.50986993 0.6953432 0.9141434 0.2814541 -1.2255522 -0.80607086 -0.9017969 -0.3338758 -0.21958065 0.1499051 -0.29555866 -0.51173925 0.15375786 0.19627422 0.59285563 0.1472951 -0.1293565 0.34705308 -0.1364352 -0.5645924 -0.6831784 0.049105328 -0.36116904 0.33668846 -0.004253832 -0.23694265 -0.52213186 0.3787003 0.98981863 0.43040615
pregnancy 0.46822193 -0.37561858 0.03439459 -0.48466846 0.64782465 -0.54546034 0.29684564 -0.28869292 0.1879786 -0.36640036 -0.15341869 -0.08514047 -0.46721256 -0.09297556 0.30096805 0.44886413 0.043335944 0.2003156 -0.11116952 -0.20751029 0.46434322 -0.28748918 -0.07618128 0.30811375 -0.40460056 -0.24398033 -0.47656545 0.73226804 0.08785816 -0.15739276 0.2370822 -0.07940509 0.25959226 0.38026625 -0.5633129 -0.18130992 -0.080960244 1.1376666 0.27244723 -0.008557251 0.15524513 0.29289204 -0.1439755 -0.5995917 -0.6804143 -0.08489157 0.13293916 0.030659989 -0.48149 0.23828533 -0.48302734 0.33001703 0.15684447 -0.32920843 -0.31390625 0.30065003 0.24540736 -0.2971392 0.40072107 0.38925663 0.45178235 0.17352436 -0.54025203 0.8803251 0.21635988 0.18025734 -0.008292684 0.52643234 0.15783758 -0.23131603 0.051559914 0.08793758 0.58040583 0.12845336 -0.8710251 -0.5261844 -0.96621674 -0.5725484 -0.37287334 0.08511061 -0.2846851 -0.86759067 0.17119333 -0.3281511 0.13424814 0.2498824 0.04438637 -0.08305251 -0.1033432 -0.4137007 -0.5103846 -0.37137383 -0.426609 0.106487185 -0.26048768 -0.43835172 -0.96296453 -0.026986599 1.1200697 0.23782784
upper 0.27061638 0.30480033 0.7633866 0.032233804 0.5398884 0.082457 0.19383845 -0.28128597 0.04282115 -0.083997175 0.16000484 0.20810276 -0.23159201 0.16917112 0.14399646 0.099614054 -0.06257761 -0.33241302 -0.36156002 0.13349393 0.45171425 0.23771015 0.16738746 -0.107869305 0.44161555 0.43812433 -0.31805298 -0.34982452 -0.16987416 0.12732749 -0.24457896 -0.13079728 -0.18034014 0.45867673 -0.54727507 0.25374335 -0.13317016 0.5207331 0.5405027 0.3200719 0.15203796 0.30651087 0.0928578 -0.34248975 0.2461164 0.4079722 0.24472693 0.20537342 0.22290267 0.7860987 -0.059969243 -0.15345833 -0.019165432 0.4639233 -0.25627792 -0.06150676 0.109364524 0.32589567 0.29409155 0.7872466 -0.0831269 -0.029054116 -0.44600353 0.7695718 0.1840082 -0.65626615 0.36386284 -0.15995087 0.22273038 -0.6863698 -0.30030924 0.14240462 0.31764707 -0.53406197 -0.23207664 -0.33190575 -0.35154957 0.4472577 0.28788188 0.110144615 -0.32898912 0.02144561 -0.18818821 0.4263886 0.2375866 -0.15486301 0.017819688 0.3091185 -0.3524757 0.10023174 -0.024205739 0.35733715 -0.1830785 0.48049447 0.17352131 -0.36432305 -0.45657796 -0.3341262 0.5380385 -0.22864354
elsewhere -0.3015977 0.40771013 0.57629967 -0.8150121 1.0678339 0.21702605 0.5948268 0.19729841 -0.50285804 -0.13416459 -0.71061665 0.30365628 -0.3937353 -0.0046232115 -0.0966393 0.5940891 -0.24193637 -0.3245072 -0.43629882 -0.5643943 -0.043970212 0.40344465 -0.15181348 0.30974624 0.5206529 0.31485862 -0.80240417 0.06285032 -0.76328266 0.5190885 0.17450924 -0.3913241 0.4414176 0.3501692 -0.74476016 0.169211 -0.6245548 0.30821207 -0.11250503 0.12441801 -0.027862417 0.37951964 0.43676805 -0.2999826 0.53695476 0.2653899 -0.1105186 -0.32849872 -0.64900017 1.1388091 -0.37122244 -0.049093276 -0.038690872 0.2018118 -0.5234615 0.31198153 0.23429355 0.051762864 0.56453604 0.14785728 -0.6385065 0.11038888 -0.290859 0.81477976 -0.4413849 -0.43517008 1.0655992 0.30325595 -0.05024867 -0.7402274 -0.5639031 -0.1911611 0.8601215 -0.6914851 -0.55154884 0.049704142 -0.46700484 0.6919629 -0.082393385 0.5058123 -0.05932495 -0.42722583 -0.02889546 0.051197737 0.4092845 -0.51318103 -0.1339306 0.18012597 0.22742975 0.1838938 0.00086764066 0.14455749 -0.29907218 0.568648 0.11799687 -0.049681474 -0.55549806 -0.10131811 0.85269845 0.30444956
bacilli -0.6491562 -0.8628645 1.3356348 -0.25203216 1.509468 0.50293255 0.033362456 -0.55516124 0.5418305 0.3002252 -0.7367897 -0.4891171 -0.8947292 0.052432958 0.011703077 0.54925674 -0.49607673 -0.40438452 -0.8024194 -0.63350123 1.4202826 -0.111469254 -0.7454239 -0.38118383 0.22264086 -0.6366657 -0.46569434 0.9006695 0.042194366 -0.21535172 -0.9199676 -0.4201091 -0.7812834 -0.111883216 -1.2294903 -0.36375397 0.34854972 0.37217888 -0.24706207 0.1274117 -0.5990955 -0.05943444 0.18518612 -0.580624 0.2319135 0.6547266 -0.10304117 0.67017716 0.32622516 1.2338347 1.5825965 -0.40842205 0.0018772496 0.6728852 0.3011421 -0.20608838 0.56569237 -0.9582948 -0.54157865 1.0663532 -0.26638505 0.0905494 -1.4127283 0.20058164 -0.6370121 -0.17909679 0.35741022 -0.74154574 0.23320685 -0.48766363 -0.6572079 0.018258614 -0.2939845 -0.7035847 -0.09776964 -1.415022 -0.6268731 1.672074 -0.90375596 -0.20788841 -0.2665743 -0.47678903 -0.39051816 0.88911855 -0.36322075 -1.0039848 -0.30340952 0.9345721 -0.12797146 0.8276742 -0.58922225 0.27243078 -0.5264651 1.5408286 0.35236898 -0.4591606 -0.3143813 -0.71722496 1.4717014 -0.053592563
effects -0.30518886 0.9502447 0.18746087 0.25165004 1.0015539 0.22672646 0.3777464 -0.5564507 -0.33219412 0.19696818 -0.05923961 0.088769265 -1.2085637 -0.90324277 0.23930265 0.858281 -0.42216837 -0.079642445 -0.67438483 -1.3474174 0.9019572 -0.33298188 -0.10952682 0.27935618 0.22286524 0.80091596 -0.8787135 0.63236856 -0.54802 -0.4876809 -0.20832953 0.531633 0.21212223 0.06313076 -1.7275437 0.6432651 -0.78859806 0.48614955 0.20758887 -0.40063292 0.09601959 0.8156713 -0.44587022 -0.33864114 0.65094066 -0.18187168 0.820001 0.21987247 0.06408736 1.0445917 0.6693535 -0.23543586 -0.7253755 0.3429011 0.16730657 0.34562668 0.008931605 0.10499514 0.5960244 1.2913525 -0.1692424 0.5357994 -0.52262014 0.31045493 -0.13907741 -0.4820156 0.74676496 -0.38870257 -0.7883177 -0.73527586 -0.3499502 -0.29802832 0.5471871 -0.5183961 -0.11146302 -0.97337925 -0.9538193 0.84086734 -0.4051502 0.32138467 -0.975653 -0.24160269 -0.18019801 0.51961756 -0.10454836 -0.86898094 -0.45155647 0.31133994 0.4932861 -0.042515628 0.19022952 0.1015308 -0.8557377 0.89436513 0.06294833 -0.5381691 -1.1155593 0.29803094 0.6628164 -0.20481108
tubercle -0.55714595 -0.7355119 1.1599317 -0.19100706 1.280873 0.3543023 0.11955608 -0.5132252 0.39644924 0.2692881 -0.6527422 -0.37641618 -0.73280865 0.043503664 -0.012377393 0.5337103 -0.43353394 -0.29556817 -0.6705722 -0.57329845 1.2969377 -0.121799275 -0.5917079 -0.31084353 0.21451804 -0.5121238 -0.3421748 0.7579413 0.07865124 -0.2017852 -0.8253298 -0.33906096 -0.6621436 -0.09029381 -1.0789717 -0.27643716 0.2683351 0.33508983 -0.16988751 0.13800402 -0.48175403 -0.022093529 0.17814513 -0.5328139 0.17703038 0.61783063 -0.105572745 0.57029563 0.32318532 1.0808115 1.3848765 -0.2938406 0.004004243 0.5082747 0.2802963 -0.18017495 0.47693947 -0.86263895 -0.408954 0.92256165 -0.18122528 0.14824715 -1.1568892 0.16888691 -0.60268843 -0.11402217 0.28825134 -0.6755 0.172992 -0.49172637 -0.4918545 0.0055836476 -0.28547865 -0.59272534 -0.10488987 -1.1966997 -0.5259941 1.4321594 -0.7161302 -0.13330933 -0.19307698 -0.39071122 -0.35377747 0.78232026 -0.33521533 -0.8258437 -0.23010004 0.8210853 -0.13182901 0.6173864 -0.5238669 0.2294409 -0.47584727 1.3367668 0.31175548 -0.41046953 -0.262247 -0.6226234 1.2750803 -0.025083391
bacteriological -0.57564354 -0.5080235 1.1903124 -0.54847926 1.4243408 0.82137597 -0.23186566 -0.6215677 0.6038434 0.042835556 -0.5839859 -0.63199145 -0.9909992 0.0064816573 0.2248385 0.732518 -0.67362225 -0.45573172 -0.5773992 -0.7131602 1.0404873 -0.15655112 -0.87989455 0.063195884 0.29931808 -0.25976372 -0.5085791 0.46867442 0.119046904 0.20654127 -0.43502846 0.03429241 -0.72368354 0.4186098 -0.9814744 -0.51033443 0.13860697 0.35309055 -0.19939792 0.24558721 -0.35648808 0.2251268 0.3787913 -0.39149043 0.77337676 0.68846273 -0.16422051 0.5741224 0.06541997 1.0687649 1.2478422 -0.23016198 -0.35522735 0.7557584 0.12886517 0.08779553 0.8446077 -0.656492 -0.44935414 1.016205 -0.24429509 -0.3816117 -1.559584 0.17607611 -0.55458224 -0.11369553 0.41772637 -0.15268508 0.2378111 -0.5360649 -0.7873425 0.07598549 -0.19422613 -0.734805 -0.08176388 -1.2961693 -0.4726556 1.4685298 -0.8781912 -0.10332759 -0.8030876 -0.8567832 -0.24449494 0.4482118 -0.15240164 -0.62192035 -0.51686466 1.4456749 0.3860774 0.9184666 -0.48128617 0.22268756 -0.06973289 1.1655428 0.38273698 -0.9137052 -1.0243785 -0.8398669 1.5954973 0.076224156
classified 0.018837864 0.4157698 0.7328072 -0.81508034 1.1929991 -0.037791286 0.5045181 -0.17295311 -0.3682125 0.049518216 -0.5501768 0.036980335 -0.2520661 -0.18887284 -0.289264 0.23778114 -0.3673258 -0.20230682 -0.2677962 -0.73619807 0.102122076 0.33031145 0.2404401 0.358874 0.29431581 0.25446662 -0.9021171 0.22024304 -0.48380804 0.48217586 0.46827152 -0.5185457 0.46192545 0.18610492 -0.5927873 0.31069535 -0.79905295 0.27939522 0.18349762 -0.23151743 -0.1419946 0.47734934 0.22299117 -0.4905488 0.7538036 0.10363521 -0.15090477 -0.113401726 -0.328587 1.3893552 -0.2860044 0.09784963 0.1961439 0.23432557 -0.26889092 0.024466079 0.29734072 -0.021807183 0.61081314 0.14153518 -0.6563627 -0.00025031046 -0.52196276 0.8230992 -0.36964434 -0.47476074 0.8609015 0.07608098 0.09106895 -0.6342408 -0.5549288 0.08780394 0.7919372 -0.29950684 -0.44319004 -0.21400543 -0.38068646 0.86077 -0.47787118 0.1322491 0.13292208 -0.1764373 -0.2331989 -0.21915215 0.45784244 -0.5787097 -0.079448245 0.40953642 0.2481787 0.34514505 0.25419116 -0.0985395 -0.44575414 0.6691472 0.006140134 -0.0093768425 -0.7598221 -0.024228498 0.7154607 0.19905038
lower 0.28437042 0.25400156 0.7393596 0.033236053 0.5556004 0.05487379 0.24503452 -0.28889412 0.098145835 -0.074208565 0.14305416 0.21212398 -0.25087115 0.19914292 0.112194166 0.14891255 -0.06225151 -0.33538675 -0.36134294 0.104916304 0.49457687 0.19583671 0.13931192 -0.108309194 0.40119433 0.4185469 -0.3417503 -0.3176772 -0.18332477 0.14230813 -0.23945461 -0.13706362 -0.1920094 0.4580171 -0.6242683 0.21976627 -0.1720962 0.5774855 0.5437983 0.3422357 0.1886873 0.30599338 0.08896679 -0.37905 0.21751584 0.4183298 0.27943584 0.18515904 0.2307224 0.7996845 -0.040597804 -0.14822416 -0.033306796 0.48632956 -0.26318622 -0.057467435 0.09873907 0.30554768 0.30525744 0.8315257 -0.081402525 -0.048988957 -0.45838073 0.8003163 0.19780448 -0.6583228 0.36006382 -0.15130836 0.22190048 -0.7292242 -0.33257413 0.12446482 0.35479867 -0.5257874 -0.2133246 -0.3447933 -0.35914615 0.43248123 0.29413858 0.0899659 -0.3897051 -0.014751159 -0.24156553 0.44415286 0.22186211 -0.15564664 0.047570854 0.29136965 -0.39242184 0.07751745 -0.011061081 0.3577778 -0.20385051 0.50122577 0.16453815 -0.4275741 -0.46627703 -0.30805692 0.5751911 -0.22852945
joint -0.034748882 0.22483085 0.65459526 -0.17800063 0.74125135 0.25897363 0.28629318 -0.18278475 -0.14020643 -0.11574853 -0.1478204 0.12484573 -0.31815904 -0.09537236 0.02806836 0.22486003 -0.2853754 -0.2582084 -0.35793152 -0.2707315 0.29397228 0.2272192 -0.0027435517 -0.014126657 0.36465186 0.2682833 -0.4364035 -0.12752463 -0.2816872 0.19000418 -0.039573163 -0.27977183 -0.07712574 0.27325037 -0.5947137 0.19067766 -0.22139247 0.37449452 0.19438486 0.0021824788 0.046852134 0.23892367 0.21266627 -0.19546142 0.3933236 0.3333995 0.14700294 0.08675105 -0.10045721 0.9647134 0.03575903 -0.12699677 -0.06575456 0.4008082 -0.15564887 0.024601141 0.19351192 0.15243605 0.27756685 0.5818025 -0.22536273 -0.014541861 -0.4353657 0.5843097 -0.10201402 -0.50411016 0.54043347 -0.22927207 0.03823381 -0.57633644 -0.21538216 0.054955438 0.37217638 -0.47797194 -0.2726722 -0.26258942 -0.36421567 0.64629924 0.04238592 0.14496756 -0.26539177 -0.20352487 -0.14654529 0.29765037 0.17925532 -0.30780655 -0.0834275 0.37302017 -0.06411557 0.12673293 0.030905066 0.28270388 -0.32395273 0.48084012 0.18137182 -0.3359194 -0.44929445 -0.20654032 0.5953585 -0.043979526
motor 0.10710559 0.30861375 0.8776634 0.103799716 0.63490427 0.13114443 0.2866928 -0.09407229 -0.23994203 -0.41693023 0.30575198 0.4387506 -0.41627297 -0.7081198 0.30049628 0.17656201 -1.1347338 0.46105322 0.5889366 -1.1563232 0.21717924 0.67683464 -0.5679449 -0.36136678 0.27898955 0.44648197 -0.108604774 -0.7756297 -0.54821044 -0.42055002 0.23026821 0.03147528 -0.06595591 -0.36033398 -1.4233193 0.31410626 0.028850744 1.0165571 0.48152423 -0.65896845 -0.43316746 0.19727872 0.06983663 -0.07355889 -0.20155202 0.30616182 0.19293825 0.56778955 0.37222624 2.3750603 0.74443895 -0.26283544 -0.86502343 0.2516524 0.12334081 0.480418 0.019541536 0.5318242 0.6347516 1.0373069 0.11594304 -0.014820053 -0.9429148 0.2836701 -0.6168182 -1.2784199 0.15420839 -0.21745898 -0.3572133 -0.7289186 0.4866733 -0.40445802 -0.31592295 -0.07545053 -0.75259393 -1.0559415 -1.4091655 0.371668 0.028590694 -0.3609851 -0.44247136 0.034660425 0.37671083 0.48029128 -0.8916734 -0.3960329 0.2966603 1.3516223 0.913552 -0.43238991 0.7729167 0.39575246 -0.65464497 0.52220345 -0.24159057 -0.7785106 -0.72708505 -0.39445567 0.6213486 -0.4778253
causing -0.27906382 0.7338602 0.20209318 0.13595243 0.88680327 0.2329693 0.30692247 -0.44902852 -0.31069446 0.1341218 -0.097020164 0.06751112 -1.0232886 -0.80823314 0.20441268 0.7491026 -0.44022524 -0.02242373 -0.54943705 -1.2106115 0.74827987 -0.24693683 -0.15198392 0.24797751 0.15934192 0.63101834 -0.6935543 0.5254154 -0.46976793 -0.4134368 -0.11585165 0.40066198 0.19193462 0.05155361 -1.4568111 0.50544393 -0.63529587 0.45263076 0.11531358 -0.41431355 0.004516176 0.6836938 -0.32312882 -0.28631878 0.52859735 -0.14046012 0.6429703 0.19549407 -0.028648486 1.0135807 0.60345525 -0.18215595 -0.62595916 0.2881128 0.14389245 0.34637728 0.056789674 0.09005373 0.5189025 1.0739272 -0.14529347 0.43558884 -0.49436602 0.23486614 -0.16461977 -0.42131126 0.6200987 -0.3153063 -0.66509557 -0.6017655 -0.26191938 -0.25670457 0.43181917 -0.4408656 -0.16027176 -0.8302463 -0.89158255 0.72161263 -0.3877548 0.24997018 -0.78915745 -0.27512845 -0.12447028 0.39494222 -0.16235895 -0.74407196 -0.3494111 0.3443828 0.51150614 -0.04753471 0.14761199 0.049570568 -0.7432657 0.7525029 0.049084656 -0.45087764 -0.96074694 0.22860813 0.61333084 -0.17994872
nodes 0.19849974 0.5919629 0.9469724 -0.0050512315 0.99641156 0.28013185 -0.09574868 -0.6077302 0.0078153815 0.12684616 0.27963653 0.20759545 -0.23747812 0.22401838 0.49686053 0.15555897 -0.15154316 -0.3814108 -0.4934187 0.16290131 0.4808902 0.021812843 0.06397869 -0.18395509 0.56326866 0.7045777 -0.02676893 -0.5586977 -0.0893926 0.080110736 -0.42376173 -0.25612417 -0.31335476 0.8102968 -0.7096515 0.31296477 -0.13817887 1.0002675 0.9329295 0.63585544 0.49702474 0.3736601 0.15528625 -0.290243 0.120030075 0.40268582 0.11026209 0.14784479 0.26061264 1.0989312 -0.08317099 -0.14831622 -0.17105931 0.7436665 -0.4594553 -0.31457 0.12508555 0.6306726 0.22289035 1.140181 -0.13631223 -0.19816487 -0.68609035 0.7553073 0.49068025 -0.98064834 0.1929189 -0.15000416 0.084370665 -1.1362052 -0.09497117 -0.0015156406 0.28732622 -0.6250177 -0.17000958 -0.33447096 -0.36203727 0.3898651 0.44288367 0.09463542 -0.6972895 0.032713994 -0.34612888 0.33916798 0.18951206 0.00043888425 0.0635683 0.4797863 -0.5552364 -0.08164456 -0.29240128 0.55292416 -0.54868066 0.44968718 0.1974075 -0.43618122 -0.857433 -0.106659144 0.56002563 -0.07125564
diseases -0.045315564 0.042138357 0.5333835 -0.42576435 0.8160361 0.049692083 0.35431394 -0.12310897 -0.12975559 -0.10553726 -0.34358367 0.07812407 -0.30589047 -0.09738126 -0.02140852 0.33913323 -0.25826973 -0.110191785 -0.2958506 -0.40632764 0.21756567 0.17363144 -0.083322994 0.10669884 0.2065136 0.094345436 -0.5521401 0.22950509 -0.31022254 0.18704821 0.07955913 -0.3166534 0.15647076 0.18281367 -0.5843425 0.113043666 -0.3074052 0.3815419 0.061477654 -0.020542787 -0.06635766 0.258386 0.18891032 -0.30255464 0.24240957 0.20163962 0.00632504 0.040397085 -0.27801076 0.92154074 -0.031348582 -0.00047942516 0.022678459 0.21034041 -0.23243639 0.14119111 0.22373044 -0.05724592 0.3133076 0.3676541 -0.19058429 0.074306585 -0.41883254 0.58501154 -0.2155548 -0.32651258 0.5434894 0.014774235 0.026327917 -0.4577088 -0.28172895 -0.006253453 0.43131873 -0.33978322 -0.38692537 -0.27822202 -0.49240533 0.4838091 -0.22153921 0.11718198 -0.113807924 -0.34768254 -0.06032114 0.05353687 0.13458095 -0.3232463 -0.04911631 0.2624524 0.0692378 0.09537477 -0.049885917 0.08188775 -0.3407807 0.46492413 0.06126847 -0.20760195 -0.5125902 -0.17604345 0.7119842 0.09014472
history -0.0193766 -0.06256179 0.46519187 -0.14352147 0.59413546 0.34544015 0.3831628 -0.31222323 -0.20627367 -0.19211581 -0.2386559 -0.06930041 -0.0779351 -0.43866625 0.13869311 0.43689725 -0.46155396 0.16356999 -0.35919073 -0.26315016 0.13799301 0.15501937 -0.0062051713 -0.04761122 -0.050081354 0.3081507 -0.10671946 0.38850948 0.09497171 0.07646032 -0.011094593 -0.24888685 0.037407193 0.326135 -0.55683 0.2951063 -0.38192168 0.114048064 -0.0742345 -0.24001506 -0.2548708 0.2103732 0.17098245 -0.039724424 0.20465358 0.3326419 0.3254512 0.15691051 -0.29676875 0.8700709 0.18043223 -0.054349013 -0.0037634287 0.391701 -0.07411094 0.3086901 0.3490105 0.069053 0.13835837 0.7127013 0.09177219 -0.11298292 -0.40003026 0.46015266 -0.13934574 -0.3992654 0.5656801 -0.37277016 -0.21388961 -0.2718609 0.020089202 -0.038737964 0.26746264 -0.2204905 -0.2757881 -0.28473866 -0.5550931 0.3838394 -0.13259524 -0.019824035 -0.2553489 -0.363164 0.22365901 -0.07053025 -0.15216433 -0.2169121 0.10022078 0.28235495 0.24688639 -0.09064575 -0.037987746 0.3237944 -0.18932366 0.37485278 0.1895655 -0.26644766 -0.59430903 -0.35974416 0.54780924 -0.17041221
type 0.39882088 0.1947113 0.24665773 -0.14891037 0.3370124 -0.2379733 0.27977204 -0.20027064 -0.025512982 -0.24086055 -0.0012715323 -0.06779692 -0.32698712 -0.1663359 0.21592951 0.2582997 -0.27364242 0.20933649 -0.13020061 -0.22732724 0.32721424 -0.09124996 -0.047085937 0.03203274 -0.018317632 0.22729117 -0.11346617 -0.062125858 -0.09395473 -0.08511793 0.15075898 0.077346854 0.0142411105 0.2966875 -0.69190764 0.17600654 -0.19814196 0.7392125 0.12942742 0.17823267 0.0031236527 0.27841341 -0.1187778 -0.44614235 -0.30379736 -0.053186722 0.31546113 0.056130458 -0.10298056 0.69588286 -0.30837724 0.060353987 -0.30859274 0.022009483 -0.3372886 0.09904328 0.038842123 0.302226 0.25406307 0.5822851 0.0883388 0.105130516 -0.51659596 0.6560097 0.15561211 -0.2775319 0.24363895 0.31060123 -0.12329029 -0.4339714 -0.19303337 -0.039316297 0.31354776 -0.08275419 -0.42003667 -0.5198921 -0.7260981 -0.041431908 -0.045597672 0.15271309 -0.46673593 -0.4490574 0.08276256 -0.105811335 -0.033120994 -0.07610295 0.062288556 0.3731503 -0.1032757 -0.32168165 0.1333524 -0.0012189236 -0.28843746 0.29794776 -0.22639397 -0.46739593 -0.6890209 -0.05706855 0.8690636 0.04236931
lymph 0.28479487 0.63279337 0.7437885 0.045308337 0.83057034 0.043948133 -0.048821427 -0.5896131 0.06337626 -0.038931586 0.26236254 0.24413042 -0.37075448 0.19960034 0.535026 0.09209491 -0.25865406 -0.38278562 -0.42375386 0.22431058 0.41624874 -0.012337596 0.014175143 -0.015044683 0.56169504 0.6921694 -0.0063597653 -0.62548304 -0.13534173 0.03014288 -0.40796134 -0.11907826 -0.36759147 0.6035988 -0.8879176 0.27266335 -0.23133002 1.0124071 0.9360559 0.40490755 0.5475252 0.5863874 0.1475692 -0.16392227 0.2172312 0.36290595 0.2938735 0.032357477 0.027061874 0.9660426 0.04975301 -0.23073493 -0.116780914 0.7509508 -0.49173552 -0.3018901 0.13593246 0.58403593 0.28720313 1.0880233 -0.22943562 -0.10122084 -0.77681196 0.83733445 0.4021136 -0.91938215 0.18881227 -0.3218703 0.21548606 -1.0048625 0.07655801 -0.04217847 0.3876507 -0.56133413 -0.22724535 -0.30063084 -0.5336789 0.19661057 0.4034199 0.136875 -0.6748619 -0.06507047 -0.17876086 0.37119222 0.34781393 -0.0044381274 0.20907286 0.33900315 -0.55066174 0.01733408 -0.2812806 0.32720798 -0.3036336 0.41134453 0.15898865 -0.38402116 -0.7249986 -0.06535728 0.5891901 -0.22288315
level 0.16201885 -0.17482889 0.70260006 0.12327257 0.5292272 -0.54290736 0.2703042 -0.5875205 0.56168956 -0.19825841 0.10704343 0.49269104 0.10100692 0.47335362 0.31178042 0.44801044 0.09087394 0.45337027 -0.12577017 0.08766695 0.6508184 -0.06797518 -0.5012052 -0.1104302 0.20709945 0.11952755 -0.16081233 0.28604534 -0.0878715 0.09055805 -0.13087542 0.18551274 0.03220658 -0.14221361 -0.5500494 0.36922938 -0.14380768 0.035273563 0.40603513 0.67911214 -0.3752611 0.5137853 -0.07770264 -0.61861044 -0.31433636 0.2158191 0.21888535 0.30320457 0.4837552 0.58598053 0.011102033 -0.20629433 -0.3713588 0.42949247 -0.60270774 -0.05975715 -0.2552256 -0.19921675 0.01913878 0.42891207 0.11394681 -0.08984681 -0.6460856 0.71801275 -0.35743442 -0.29978225 -0.12133426 0.43685418 0.37510538 -0.4587001 -0.6988078 -0.3542995 -0.29189306 -0.12504332 -0.105279826 -0.7466203 -0.6737398 0.21601969 -0.57549894 -0.47202528 -0.7287941 -0.14428039 -0.21116881 0.111463845 -0.12656265 0.0789522 0.23314491 0.24405985 -0.49876714 0.23945425 0.35370284 0.31470525 0.5370224 0.44003364 -0.50645953 -0.4406538 -0.037263732 -0.5038826 0.8189071 -0.38150153
region 0.1063276 0.21144879 0.713534 -0.12286147 0.7182967 0.09280401 0.23666166 -0.36442852 -0.029833714 -0.12686363 -0.042035375 0.14569141 -0.33801034 0.025439758 0.13921863 0.15445274 -0.23756735 -0.26799527 -0.41725078 -0.067306295 0.4353755 0.15430315 0.004689443 -0.06715776 0.34608638 0.32454988 -0.35798416 -0.16949022 -0.22173171 0.14966552 -0.16406235 -0.25937456 -0.13001993 0.37175465 -0.66584396 0.18721478 -0.19451779 0.58892864 0.4049978 0.19266576 0.147953 0.30245164 0.13221811 -0.32689342 0.20659427 0.34855682 0.22812763 0.14048235 0.01504394 0.96162194 0.010941882 -0.121559285 -0.034611423 0.43557727 -0.26189888 -0.012780629 0.12284507 0.22190556 0.30553183 0.77248526 -0.16009025 -0.067418836 -0.5633323 0.75497556 0.034356833 -0.61012775 0.47022912 -0.15236838 0.16230434 -0.7132485 -0.27952877 0.031352438 0.35024518 -0.5482317 -0.28092387 -0.32307574 -0.43191075 0.53310513 0.12955107 0.099510744 -0.36682954 -0.1733814 -0.15796296 0.36241382 0.21584566 -0.13851188 -0.010188653 0.39867616 -0.300308 0.102564625 -0.06801382 0.3245911 -0.251649 0.457355 0.0978978 -0.39290604 -0.52384984 -0.29410186 0.7068296 -0.12184789
third 1.3486809 -0.36746594 0.8405233 0.26538226 0.1804959 -0.7831452 0.25612953 -0.55112493 0.81741387 -0.83583117 0.9502032 0.398954 -0.47770673 0.35122237 -0.33856398 0.034254164 -0.0008745596 0.01923045 -0.48370412 0.7111973 0.7226528 0.117273785 0.20718336 -0.5101421 0.52762055 0.25532326 -1.7482961 0.20088577 -0.043386023 0.40895557 -0.18214667 0.5312358 -0.3391915 -0.17404103 -0.3120111 -0.06939871 0.07889965 0.53157514 1.307615 0.37469935 -0.05224442 0.4429457 -0.22791344 -0.53346074 0.099755205 0.16228311 0.70194227 1.3293965 0.29603717 0.20992334 -0.56287503 0.29343325 0.32518455 0.8680767 -0.75771385 0.120593205 -0.3766269 0.29007643 0.48363268 1.1341276 0.6192279 -0.2423193 0.060173836 2.1049256 0.6733352 -0.12028283 0.3607673 0.15842947 0.89137423 -0.1728185 -0.56768006 0.6635137 0.43937796 -1.0789813 -0.79386646 -0.55953944 -0.18279207 0.53056 0.31255162 -0.60607135 -1.2727439 -0.350438 -0.6974486 0.76321733 0.6800696 0.55075455 0.033921853 0.1736886 -1.1961054 0.1747959 0.3084538 1.3162302 0.055252198 0.29389513 -0.6610451 -1.0938662 -0.2079182 -1.0984107 0.8938182 -0.7226125
limb 0.18040043 0.3751914 0.6518664 0.122624956 0.6307508 0.1561822 0.14191651 -0.3647168 0.01778728 -0.11681132 0.09314367 0.27084342 -0.221307 0.12616992 0.16178633 -0.02717033 -0.10656443 -0.34907728 -0.38829878 0.12630908 0.35723844 0.14249063 0.17803754 -0.16019574 0.36075896 0.45304817 -0.22328378 -0.35726413 -0.13447498 0.20434661 -0.21354046 -0.19514787 -0.18996736 0.45933485 -0.451445 0.20116583 -0.15258618 0.5194871 0.64740723 0.32614207 0.32187262 0.28977144 0.090565056 -0.21435489 0.2625892 0.35954803 0.27835944 0.07825453 0.12115578 0.7057983 -0.117932335 -0.17861101 0.030594725 0.5212657 -0.29314435 -0.17904626 -0.05344222 0.37166256 0.19703828 0.7608972 -0.16532266 -0.08254885 -0.29259735 0.731022 0.3077202 -0.66248375 0.3899429 -0.2474946 0.2749994 -0.74818015 -0.17807677 0.06582772 0.35541636 -0.4906406 -0.17824298 -0.10525673 -0.22937655 0.4839251 0.3274225 0.09623587 -0.44860476 -0.0022495643 -0.26864988 0.42502135 0.31585887 0.031918265 -0.013132853 0.1925873 -0.5049114 -0.0025622589 -0.054895654 0.4623069 -0.2644136 0.3587181 0.10476028 -0.40200368 -0.39343604 -0.2216155 0.41770077 -0.13442521
deep 1.1854782 -0.41866997 0.7125427 -0.04445495 0.37962037 -0.5838523 0.07747208 -0.6998603 0.6616633 -0.7339569 0.90095747 0.34851563 -0.7107324 0.012321179 -0.4201325 0.18209396 -0.109986246 0.032899253 -0.6010223 0.21968098 0.6069436 -0.06338289 0.14753972 -0.45385793 0.30322465 0.29270065 -1.9527766 0.43078554 -0.09712813 0.31983268 -0.07454004 0.35163125 -0.2895523 -0.21652567 -0.29090354 -0.14860858 0.19745776 0.53862745 1.1056015 0.1261412 0.040036757 0.41594443 -0.24422325 -0.33287033 0.24633716 0.14637658 0.73567855 1.4085466 -0.02712647 0.24208543 -0.33190086 0.30614704 0.34024847 0.87320244 -0.6785721 0.24584119 -0.12685926 0.24183783 0.5559193 1.1617905 0.62516105 -0.14665638 -0.01927358 1.9574928 0.5721648 0.0005736978 0.5387075 0.048001993 0.6937917 -0.08286436 -0.4608095 0.73805004 0.55672705 -1.1294171 -0.72771287 -0.4836357 -0.29544488 0.5925858 0.044332292 -0.5655151 -1.3743714 -0.5875783 -0.6711766 0.73027116 0.5548134 0.464202 -0.05300929 0.114912696 -1.029277 0.16880591 0.2375263 1.1916648 -0.04487338 0.2012869 -0.5757471 -1.0407032 -0.31063062 -0.9519677 0.92414856 -0.56845975
use -0.15868361 0.7436729 0.32503325 0.15724221 0.99393564 0.16073985 0.3784988 -0.51270556 -0.2119767 0.12194069 -0.095827974 0.09639367 -1.0980747 -0.71309924 0.23888004 0.8102412 -0.4226337 -0.08834951 -0.6505286 -1.1592675 0.9145217 -0.28146836 -0.14904381 0.21018672 0.19957921 0.6401555 -0.7738558 0.56493545 -0.470026 -0.40576532 -0.18417637 0.43809962 0.11744671 0.113781914 -1.5979782 0.5195437 -0.6774383 0.5883899 0.25122598 -0.28446501 0.05907633 0.7557036 -0.37018844 -0.40811613 0.4772607 -0.1122024 0.7171923 0.25172308 0.06716594 1.0455959 0.54183716 -0.15683286 -0.5984261 0.3293953 0.094347335 0.33482632 0.071903154 0.08427752 0.5675358 1.236041 -0.12033342 0.42740497 -0.62736875 0.4522252 -0.101163715 -0.443173 0.65728366 -0.28404063 -0.5947627 -0.7257202 -0.35320213 -0.21451841 0.48793656 -0.5143833 -0.23385952 -0.9638578 -0.9939941 0.7551925 -0.35391527 0.2368488 -0.8931738 -0.31969583 -0.16998424 0.48032817 -0.111627355 -0.7261167 -0.34399715 0.35605562 0.340118 -0.008606071 0.12339224 0.12312775 -0.7859658 0.8700508 0.026361069 -0.59218454 -1.0782094 0.14805993 0.79823935 -0.1776313
associated 0.21166433 -0.17059432 0.3884698 -0.40098053 0.72558993 -0.16740525 0.3282948 -0.26285112 0.059557825 -0.2000779 -0.19181965 -0.02249827 -0.38552752 -0.100670666 0.13379209 0.3343658 -0.16043639 -0.018603235 -0.25544825 -0.30367544 0.38875106 -0.017775916 -0.024268264 0.15607499 -0.033259258 -0.010762924 -0.4770755 0.38710946 -0.11610895 0.023589648 0.058202222 -0.24415053 0.089399084 0.30051225 -0.6180412 -0.010254218 -0.18524185 0.7566075 0.19262058 -0.016461045 0.036583815 0.26577085 0.05017797 -0.46458074 -0.20307122 0.11648693 0.13757011 0.10276968 -0.27436283 0.6912774 -0.15689741 0.13466515 0.075283475 0.015761646 -0.21318929 0.18019737 0.2328777 -0.1069863 0.34399155 0.49826905 0.12584946 0.10918854 -0.5624356 0.74945414 0.0584243 -0.15782788 0.3043649 0.14409663 0.12665229 -0.40026575 -0.13979398 0.05535966 0.46297973 -0.2042012 -0.58334243 -0.47286725 -0.7131659 0.09314706 -0.20762604 0.10118404 -0.19032344 -0.55752933 0.04814782 -0.034663614 0.1069108 -0.088011526 -0.0022008454 0.17335455 -0.06268493 -0.12733188 -0.23637092 -0.04898825 -0.4441604 0.3457117 -0.030558567 -0.35693008 -0.7206029 -0.15660752 0.93826056 0.083538964
burn 0.8299642 -0.023728596 0.7967665 0.20565791 0.2984963 -0.35349903 0.2835857 -0.29911175 0.42432684 -0.49705958 0.50081193 0.26807493 -0.33576202 0.22659867 -0.06959615 0.024104305 -0.20267165 -0.096601814 -0.21306717 0.39155897 0.5995201 0.23807193 0.081117995 -0.36298516 0.48922944 0.19880469 -0.91834015 -0.13276899 -0.09421792 0.24877226 -0.1753716 0.32468632 -0.29773027 0.010692008 -0.5444037 0.053946096 -0.026936296 0.64753836 0.90915364 0.27553064 -0.049470156 0.27447334 -0.06055986 -0.4342115 0.03825379 0.21195774 0.43311465 0.7819828 0.35746297 0.6444129 -0.25478524 0.14433192 -0.016067812 0.55986524 -0.40803283 0.05281487 -0.18540035 0.30377504 0.3919979 0.95468354 0.24959615 -0.14068986 -0.27774018 1.3409755 0.3201431 -0.3770336 0.2802199 0.037536386 0.4898704 -0.40399262 -0.27588883 0.33314723 0.2200937 -0.6836428 -0.58165276 -0.6710393 -0.311507 0.43021455 0.33805475 -0.25984383 -0.8000182 -0.11962809 -0.34015906 0.5849278 0.3252838 0.18410282 0.060106542 0.45275897 -0.60761774 0.014770557 0.25379032 0.8701517 -0.13500388 0.43450168 -0.32326674 -0.8287834 -0.3840754 -0.69763076 0.733559 -0.45560846
syndrome 0.1787974 -0.015209464 0.4922998 -0.09901074 0.55421144 -0.11053076 0.24914724 -0.27015945 0.13880304 -0.12728107 -0.041820154 0.08793178 -0.27097493 0.036894985 0.17189932 0.30542997 -0.155472 0.024412982 -0.22824706 -0.174766 0.4495171 -0.003314997 -0.1580537 0.021349235 0.12790525 0.09751097 -0.25843716 0.14316808 -0.09152861 0.028992085 -0.072546296 -0.02441006 -0.04797967 0.17586038 -0.6130983 0.11633196 -0.14715256 0.46614283 0.27353618 0.21195646 -0.03407664 0.26301822 0.00069509534 -0.40263787 -0.095277466 0.15744646 0.156264 0.14776787 0.075868286 0.6491111 -0.0007122597 -0.0021520557 -0.13226466 0.20773165 -0.23056023 0.06742576 0.07075534 -0.005890317 0.19867001 0.54234296 0.022726169 0.028516933 -0.5517826 0.5895068 -0.050353933 -0.25152338 0.19803336 0.11294265 0.09462788 -0.43357176 -0.2625658 -0.022871828 0.15798475 -0.2452502 -0.306824 -0.5680734 -0.5251893 0.22761585 -0.16069938 -0.03247055 -0.37803596 -0.27251795 -0.04438184 0.12376474 0.008744954 -0.12424434 0.041370552 0.3272894 -0.16778629 -0.014824962 0.011768273 0.1345895 -0.13584171 0.41670313 -0.09340508 -0.3987615 -0.49981475 -0.23952807 0.732307 -0.088457175
hours 1.1073418 -0.25697267 1.0727361 0.3387586 0.28122097 -1.2226347 0.54805773 -0.4661671 1.1447036 -0.21876281 0.35259935 0.20192645 0.008765617 1.2298898 0.27294776 0.25786415 0.21349503 0.30269584 -0.18889824 0.86819196 1.2468117 -0.1861835 -0.34830582 -0.10645717 0.34787717 -0.012542094 0.02960007 0.21533474 0.15857823 0.33549443 -0.42934364 0.838057 -0.3061557 0.1613235 -0.71349764 0.16682884 -0.27102754 0.6001722 1.2613027 1.5646257 -0.20647782 0.56815904 -0.38482538 -1.4496715 -1.05217 0.029505925 0.21854739 0.19557102 1.16398 0.16760439 -0.55819684 0.22099803 -0.19263557 0.25139105 -0.8152352 -0.24445195 -0.7096942 -0.11492891 0.11654309 0.81555957 0.20518476 -0.26169834 -1.0618755 1.6658353 0.15630566 -0.13407671 -0.28619242 1.150258 0.8176897 -0.8208822 -1.1676095 -0.18211237 -0.18224265 -0.21754232 -0.47613817 -1.4100786 -0.519269 -0.1580844 -0.0043582157 -0.555748 -0.7514116 0.028253065 -0.22875972 0.2307975 0.028991874 0.3289087 0.31653163 0.36983475 -1.2482945 0.03694896 0.5032263 0.44573283 0.59469926 0.75299466 -1.0207292 -0.95929456 -0.4417365 -0.7990226 1.3889294 -0.51150006
histological -0.52220625 -0.41477194 1.0840516 -0.5784659 1.4034985 0.88194716 -0.39365914 -0.67255974 0.57980067 -0.044580303 -0.53733987 -0.6304195 -0.92569053 -0.0093876235 0.24908727 0.63804317 -0.631849 -0.53209233 -0.49421066 -0.6974749 0.9197918 -0.17764907 -0.9485522 0.16880849 0.2972566 -0.19628946 -0.53684324 0.36894003 0.14605528 0.3182579 -0.28845188 0.073902726 -0.6698187 0.48113647 -0.8315134 -0.51531726 0.13691427 0.20973241 -0.27952176 0.2318545 -0.23296624 0.26932162 0.40519962 -0.32238758 0.9301522 0.6277254 -0.15594186 0.5303042 -0.07132622 1.0195367 1.1581582 -0.1712985 -0.48202854 0.8035988 0.16679002 0.11420314 0.861382 -0.6435904 -0.39931637 0.8825376 -0.28836057 -0.47768947 -1.4889 0.004357131 -0.53493583 -0.05909981 0.3960425 -0.10536148 0.2402864 -0.50792325 -0.841071 0.07503339 -0.12739559 -0.74961007 0.031487186 -1.233663 -0.39595264 1.3724473 -0.82368314 -0.13605955 -0.8180768 -0.923902 -0.19982068 0.33420575 -0.09062973 -0.54589427 -0.55679727 1.4673955 0.48657188 0.84604925 -0.3857468 0.12622489 0.06324926 1.0337925 0.3020957 -0.9061285 -1.0839424 -0.72917426 1.4686245 0.047543343
part 0.7250302 -0.051924307 0.5420593 0.1779705 0.07921332 -0.40376437 0.16680269 -0.24966323 0.45953614 -0.3388042 0.46285713 0.18654625 -0.14303318 0.36146742 -0.12621848 -0.04042006 0.051272318 -0.11523089 -0.27546918 0.53636634 0.42315742 0.07839344 0.17333665 -0.24679916 0.34774467 0.17637543 -0.678268 -0.052382555 0.004310541 0.29688796 -0.1961387 0.28546572 -0.2430273 0.104272686 -0.17471837 0.021431724 -0.025345597 0.33523837 0.7354468 0.42407364 0.07682597 0.23004426 -0.08481567 -0.38817078 0.012227236 0.13084288 0.33850548 0.52367574 0.3033616 0.061763667 -0.38490704 0.16055149 0.14829434 0.44643122 -0.4016123 -0.05660265 -0.21295913 0.22992864 0.23035234 0.6167948 0.23261696 -0.15384395 -0.106870905 1.119249 0.41293913 -0.10963328 0.16589929 0.12152942 0.5094316 -0.25822708 -0.36497754 0.3187711 0.22122301 -0.5653325 -0.32638744 -0.34664166 -0.004641392 0.22673957 0.31638366 -0.21407256 -0.5971413 -0.045764934 -0.31656992 0.41536832 0.388099 0.2635453 0.04593643 0.079949856 -0.7624566 0.1004821 0.1781639 0.63223493 0.074555 0.2123219 -0.28921402 -0.5984329 -0.17025225 -0.5435576 0.4882085 -0.3434683
adverse -0.32206884 0.90547514 0.14860284 0.20360042 0.9763321 0.26140586 0.33613133 -0.49255854 -0.33753377 0.18694112 -0.11716447 0.088458374 -1.1728157 -0.885307 0.18523006 0.85417986 -0.43676764 -0.13007505 -0.6779173 -1.3195069 0.90693974 -0.31728745 -0.12672192 0.27028844 0.18980488 0.71047604 -0.8598848 0.608543 -0.5421232 -0.47550362 -0.17840424 0.46538493 0.2077473 0.04073856 -1.6160544 0.6135518 -0.74991894 0.4291203 0.13891496 -0.44312146 0.08645424 0.7909203 -0.42066774 -0.31837443 0.62372315 -0.1717794 0.76912874 0.23505941 0.036734533 0.99691254 0.66487163 -0.22633997 -0.64292014 0.3262727 0.21473165 0.37884513 0.053411204 0.101442896 0.57751405 1.2265836 -0.18350103 0.5078505 -0.49164322 0.25933188 -0.17250364 -0.3929601 0.74648225 -0.38066915 -0.7659808 -0.6477326 -0.3470161 -0.23105018 0.53720415 -0.51735854 -0.10755548 -0.8888849 -0.95376325 0.867722 -0.3840232 0.3328391 -0.90882957 -0.26587585 -0.22119604 0.5196398 -0.11726808 -0.83719105 -0.38798967 0.3135234 0.46174213 0.012134466 0.14924122 0.071868755 -0.8271897 0.84823716 0.08434858 -0.49090546 -1.0179464 0.25872877 0.6441123 -0.18870734
accidental 0.03371139 0.12576482 0.5092117 -0.09200918 0.6390446 0.09372636 0.32200092 -0.23646894 -0.0692194 -0.10451761 -0.12312443 0.050671373 -0.45765427 -0.20524241 0.1515351 0.3814972 -0.38652602 0.023770507 -0.25767967 -0.4852183 0.46690473 0.07396961 -0.19816937 0.07856003 0.2349539 0.16155288 -0.37218723 0.12622622 -0.1951465 -0.013488704 -0.012443746 -0.0037797636 -0.035935942 0.14404781 -0.78206134 0.16182119 -0.27265948 0.44492418 0.16951875 0.014157621 -0.057613976 0.28569257 -0.0123306895 -0.33011854 0.14446083 0.16113004 0.13744813 0.15594856 0.0011121779 0.9481461 0.1382865 -0.06104884 -0.21754356 0.2368994 -0.14225489 0.11322379 0.15308854 0.03630568 0.2724456 0.58013064 -0.14052285 0.07755261 -0.5374542 0.48440263 -0.18019734 -0.37777054 0.4012448 0.0077807903 -0.11724434 -0.48386464 -0.21007338 -0.02718332 0.2676479 -0.32323053 -0.31877103 -0.58368313 -0.60832226 0.42774275 -0.16960111 0.04781358 -0.38177657 -0.29915726 -0.042369388 0.18508348 -0.033861827 -0.33900312 0.0006783862 0.52910304 0.069086194 0.006872358 0.08582625 0.20988064 -0.21405913 0.578798 -0.05897431 -0.3671672 -0.5475284 -0.1669105 0.74071836 -0.10349969
therapeutic -0.292451 0.93158203 0.21259673 0.22011167 1.0216419 0.24390918 0.36332977 -0.5555878 -0.3014159 0.15744454 -0.0610219 0.061646838 -1.2276946 -0.89090395 0.2028499 0.8989446 -0.43626636 -0.09862298 -0.6909651 -1.3069369 0.9859213 -0.34877694 -0.13517804 0.29134506 0.23071595 0.74763197 -0.9041902 0.6625555 -0.5375261 -0.44227007 -0.19060846 0.5396277 0.22322188 0.07361157 -1.7216542 0.64711195 -0.74322325 0.48535284 0.19951051 -0.3977159 0.07098951 0.84022653 -0.40862566 -0.39323893 0.63229686 -0.14615564 0.81872284 0.2438349 0.05177394 1.0616254 0.67903674 -0.21949743 -0.7231093 0.3951702 0.17951201 0.35995403 0.019214544 0.10006551 0.5847427 1.3443904 -0.1632173 0.5052375 -0.5574129 0.35362983 -0.16574095 -0.42797324 0.75106823 -0.34800598 -0.76216704 -0.71780026 -0.3900809 -0.24634996 0.5474357 -0.542436 -0.1455839 -1.0115715 -0.98255354 0.88547385 -0.42804563 0.33426347 -1.020124 -0.26867774 -0.23239972 0.55392563 -0.1180111 -0.8706844 -0.40877697 0.33649898 0.44209227 -0.041146096 0.16983885 0.10384556 -0.81866026 0.88070434 0.048440054 -0.5613632 -1.0798305 0.24097985 0.7374484 -0.23817953
cerebral 0.8771506 0.038312733 0.88843435 -0.028454429 0.18684639 -0.60308725 0.39234984 -0.064832106 0.6487392 -0.013373599 0.063052095 -0.18373506 -0.13201217 0.8344972 0.17008515 0.083279625 -0.0063952417 -0.19660892 -0.1720295 0.511462 0.79581606 -0.07910771 -0.024324303 0.064502105 0.25587568 -0.06835926 0.23638107 -0.1942929 0.19303516 0.28331107 -0.39106056 0.46875924 -0.4225469 0.51258254 -0.6130932 -0.099903144 -0.13635741 0.9973498 0.9282731 1.122686 0.20320077 0.11080987 -0.12761314 -1.0433224 -0.8065086 0.012046714 0.048213147 -0.082504116 0.68728554 0.18792072 -0.4484133 0.41735142 -0.08057874 -0.06708293 -0.3227403 -0.2633754 -0.18113448 0.15582526 0.21987195 0.65299404 0.030308774 -0.095346704 -1.0081815 1.1480107 0.32725188 -0.009068203 -0.029874204 0.7103059 0.48338607 -0.7404756 -0.54178935 0.06317992 0.15801182 -0.21884514 -0.5004678 -1.1898812 -0.23472388 -0.30801368 0.3990333 0.05746459 -0.28598815 0.106343 0.05390476 0.14845537 0.01934413 0.04015505 0.21156277 0.39649287 -0.80979246 -0.22117406 0.1921506 0.111522816 -0.046940364 0.6471918 -0.4358735 -0.75990057 -0.7925622 -0.31184742 1.0425757 -0.10678519
face 0.7753664 0.43330237 0.991467 0.21543849 0.08519389 -0.25524727 0.1834413 -0.02016802 0.5544884 0.09703379 0.3522671 -0.04340105 -0.004848507 0.7887944 0.20402588 -0.115805924 -0.20613036 -0.29337022 -0.08085624 0.6950506 0.6326726 0.17416134 0.020307316 -0.22489022 0.57270265 0.1946051 0.30484173 -0.75470585 0.22137183 0.25999144 -0.485968 0.48463038 -0.56897974 0.553732 -0.5700342 0.019722573 -0.083574176 0.9502329 1.1174908 1.0193927 0.27572528 0.02768791 -0.026436059 -0.6576623 -0.46474364 0.23932616 0.06683296 0.08521323 0.80587345 0.42886898 -0.18780226 0.27872393 -0.2922364 0.3013407 -0.2442075 -0.4309627 -0.12148784 0.44299877 0.1898567 0.8238983 -0.012382447 -0.17160049 -0.91615826 0.9423994 0.40150768 -0.39673892 -0.1330576 0.27974182 0.38183993 -0.8388636 -0.18808056 0.07469136 -0.08482095 -0.36388877 -0.26249972 -1.0384581 0.024880903 -0.111111954 0.72202307 0.061599135 -0.47838786 0.36311466 0.06719324 0.39747438 -0.04869473 -0.014839384 0.25351268 0.552901 -0.7883242 -0.22126573 0.2832648 0.56047213 -0.17329788 0.61226964 -0.24992888 -0.8349864 -0.6624452 -0.37177128 0.68316317 -0.12656662
obstruction 0.5645537 -0.18068765 0.34843683 -0.18289766 0.24402675 -0.4461587 0.29652292 -0.23854035 0.40333858 -0.15810452 0.093582965 -0.08892273 -0.115708195 0.36589777 0.11320574 0.16288403 -0.07908208 0.056216516 -0.15277255 0.28670824 0.29942533 -0.09610107 0.020710055 0.12953511 -0.024852218 -0.019058859 -0.07007427 0.2051586 0.037760455 0.13881974 0.0026116436 0.15652277 -0.09365428 0.37212926 -0.36363637 -0.13939527 -0.27735513 0.6769938 0.4363059 0.6231994 0.049570315 0.24904324 -0.14482775 -0.75811064 -0.64387715 -0.15631285 0.09290644 0.006294979 0.12113844 0.10142182 -0.43285397 0.3091135 0.056652945 -0.06561671 -0.34687075 -0.025563926 -0.16190417 0.05413084 0.24830613 0.4274569 0.15442866 -0.018640814 -0.6793789 0.76263195 0.21374778 0.07015349 0.06714443 0.5640689 0.3582567 -0.41308856 -0.4454783 -0.05571757 0.17424315 -0.17191903 -0.39296195 -0.58680314 -0.34598514 -0.2788312 -0.00028734913 -0.034185972 -0.1760844 -0.22502574 0.022903766 -0.1679592 -0.010428848 0.12138136 0.13862062 0.15014239 -0.47744548 -0.12650192 0.06116613 -0.043154966 -0.05097885 0.23324914 -0.32710323 -0.49517423 -0.6354853 -0.22994225 0.856714 -0.09016989
complicated 0.32686356 -0.1591584 0.4840059 -0.05143552 0.26484197 -0.20748144 0.21346174 -0.27576536 0.20035577 -0.11693926 0.015608948 -0.04651091 -0.08659913 0.17493771 0.112848945 0.13072921 -0.06745741 -0.039121952 -0.27377805 0.0017474812 0.50570685 -0.032855645 -0.07032015 0.016142374 0.15309004 -0.01530381 -0.055589244 0.023465367 0.034466274 0.13133393 -0.129314 -0.038714584 -0.21697383 0.17474006 -0.3986251 0.056288823 -0.06796301 0.46053427 0.32015842 0.36095116 0.094619036 0.12378623 -0.028275602 -0.493815 -0.29736406 0.07137694 0.12974235 -0.0064195627 0.19180042 0.3165412 -0.1363977 0.12547731 -0.094662875 0.005705808 -0.20356002 -0.001681436 -0.034487415 -0.04646862 0.16161169 0.38810018 0.10954329 -0.061498757 -0.62892896 0.63549966 -0.013200887 -0.114513904 0.10997547 0.21775407 0.13924527 -0.40190277 -0.31047297 0.103651606 0.0751841 -0.25405633 -0.28120443 -0.5267424 -0.39533842 -0.047053743 0.023566926 -0.028631572 -0.2989958 -0.15045866 0.012275036 0.21298376 0.0625663 -0.021332612 0.10815246 0.31364113 -0.37924194 -0.007935701 0.03308024 0.00375153 0.0010032505 0.4034669 -0.17029372 -0.39928064 -0.42615536 -0.24608204 0.70192355 0.03743491
skin 0.5323734 0.0040290225 0.68849903 0.12534736 0.40456602 -0.24715045 0.2904367 -0.26933196 0.25699112 -0.31608763 0.2384293 0.17741482 -0.2545229 0.13528053 0.050293274 0.17708474 -0.123624586 -0.016210236 -0.3253165 0.16223894 0.56456167 0.11008021 0.04938752 -0.13755347 0.36127055 0.2646673 -0.5966334 0.061233558 -0.072575994 0.1898827 -0.16329393 0.18949664 -0.13580412 0.18113224 -0.5694174 0.17652087 -0.18723688 0.40788615 0.6100087 0.27231905 -0.019817915 0.374228 -0.058105353 -0.40979195 0.0863724 0.23042037 0.35337284 0.4230108 0.20894824 0.57641834 -0.16796955 0.039600484 0.015416434 0.4675728 -0.36513275 0.03207326 -0.09092422 0.18965672 0.28221378 0.81041497 0.13479109 -0.10834626 -0.32817712 1.0769583 0.21575382 -0.35539803 0.31809023 0.044535045 0.29011887 -0.4335593 -0.33748272 0.18165165 0.262589 -0.48667455 -0.43863136 -0.49779978 -0.36027005 0.38623518 0.13451818 -0.14776081 -0.60891855 -0.2019243 -0.2109875 0.35628504 0.25627732 0.028752645 0.024229294 0.2775908 -0.4849302 0.0307846 0.15275502 0.5498035 -0.058001116 0.41050074 -0.20636655 -0.62138194 -0.3954358 -0.53610224 0.6963783 -0.30110276
laceration 0.96491987 -0.010291325 0.92455846 0.08266392 0.16775516 -0.7233792 0.3954765 -0.11018885 0.7264172 -0.011471406 0.09553931 -0.16076158 -0.099675566 0.9501682 0.16364786 0.053043984 0.058359914 -0.17513011 -0.19875526 0.6499829 0.92300576 -0.084069885 -0.06937021 0.04784746 0.2634412 -0.09740326 0.21726587 -0.13575587 0.21881951 0.29575056 -0.4330201 0.5820212 -0.46189985 0.4522697 -0.6208465 -0.079049155 -0.12720965 0.9169598 1.0205983 1.2404941 0.18286167 0.13135824 -0.15108159 -1.0998362 -0.8281003 0.027507026 0.055643864 -0.05176769 0.80746233 0.108857 -0.48199937 0.4154507 -0.05107982 -0.019814499 -0.38387892 -0.2908771 -0.24304022 0.094744235 0.16714405 0.680981 0.0566473 -0.11588051 -1.0315318 1.2578903 0.358048 0.01371798 -0.12132889 0.78025407 0.5682153 -0.72852427 -0.6390537 0.11414557 0.10337401 -0.2477706 -0.47512063 -1.2361557 -0.21668898 -0.29459634 0.38938403 -0.037373282 -0.33831468 0.12745945 -0.013779539 0.18562433 0.061422154 0.090872586 0.19667156 0.3978184 -0.9427524 -0.18872124 0.2384152 0.16851512 0.09564041 0.65496695 -0.5163519 -0.7981014 -0.69750166 -0.402472 1.0974329 -0.15743051
congenital 0.10006313 -0.009812339 0.4470607 -0.07138532 0.47591716 0.0015184473 0.203745 -0.20592563 0.06900263 -0.08787319 -0.06413611 0.009237708 -0.27662107 -0.06046326 0.1296144 0.27079147 -0.22163333 -0.0030217776 -0.2151865 -0.19867969 0.37628883 0.033831418 -0.11961952 0.013364434 0.13920806 0.10199639 -0.23185936 0.12553334 -0.05812111 -0.0027954427 -0.07571304 0.0052299295 -0.060311362 0.16763122 -0.56257355 0.111922525 -0.13672523 0.3824741 0.18500566 0.09862105 -0.05023547 0.21431817 0.019177036 -0.29649016 0.018336438 0.16711612 0.13408294 0.16445316 0.038603246 0.6342506 0.11793254 -0.011245209 -0.13161883 0.22365102 -0.12374818 0.07338506 0.104810394 0.0080132205 0.15165739 0.52747303 0.015209995 0.0071777343 -0.4887365 0.4552234 -0.06478586 -0.24736007 0.23093122 -0.027863279 0.002839337 -0.35323864 -0.17431262 0.005693363 0.1442823 -0.23772034 -0.23904279 -0.49729255 -0.44833753 0.2757817 -0.11136478 0.004777243 -0.30600423 -0.25922573 -0.010622796 0.13707423 -0.03194759 -0.18575747 -0.005414245 0.34832737 -0.038641535 0.0059877927 0.0051565403 0.16184027 -0.19359626 0.4097895 -0.017842952 -0.36014462 -0.47477502 -0.22493097 0.634063 -0.091627285
benign 0.30965337 0.011222959 0.554911 -0.023909794 0.47179177 -0.15789124 0.33970693 -0.27799103 0.13350241 -0.115841195 0.0030644685 0.022984186 -0.22524339 0.019595226 0.13240579 0.27392566 -0.25109136 0.04471284 -0.27775863 -0.039764825 0.46170402 0.07570844 -0.011714068 -0.015342287 0.16987883 0.18265317 -0.24857144 0.11040423 0.0072901146 0.07778773 -0.050080527 0.06575387 -0.060064513 0.24526535 -0.6392389 0.16030718 -0.24140152 0.5042323 0.33149323 0.24998073 -0.008537044 0.29990298 -0.021795802 -0.41398865 -0.10364582 0.229662 0.25880045 0.16581546 0.1231078 0.64886767 -0.11525393 0.054034553 -0.08030151 0.20510568 -0.20489047 0.10755747 0.09809408 0.112357765 0.24293847 0.6573922 0.1234568 -0.056432694 -0.6078531 0.78793293 0.076675065 -0.31483144 0.2777202 0.043786887 0.11142564 -0.49312684 -0.20394263 -0.030711008 0.2160748 -0.26302338 -0.37677193 -0.61047596 -0.54255337 0.17405172 -0.013659416 0.046398077 -0.3772032 -0.24231245 0.026339937 0.11578048 0.0048937616 -0.13200587 0.06813137 0.32167134 -0.22208379 -0.09928948 0.098368555 0.17193663 -0.19347835 0.43271595 -0.08743926 -0.4828427 -0.6213254 -0.26648456 0.7700811 -0.111166514
dislocation 0.12092621 0.15043023 0.5887218 -0.0080525605 0.31229123 0.0003421794 0.15921105 -0.08956268 0.15394059 0.017646832 0.020162702 0.055822376 -0.103026055 0.17624956 0.04865105 0.07217397 -0.10009233 -0.14829715 -0.20541053 0.023463978 0.36774775 0.108245954 -0.021209657 -0.051556125 0.26955998 0.11278475 -0.0913187 -0.20389976 -0.041409425 0.13648134 -0.18661946 -0.0061753187 -0.25089878 0.27082068 -0.44324327 0.07141069 -0.13592783 0.33594593 0.28688008 0.31546623 0.07143406 0.11375406 0.11727218 -0.27796853 0.072819285 0.25086665 0.07749879 0.090382196 0.22292016 0.51398414 0.03203369 -0.004984935 -0.110987656 0.3181793 -0.11596374 -0.14423548 0.087006874 0.15832274 0.13148743 0.4089969 -0.0869173 -0.02409067 -0.49901637 0.45657986 0.039992854 -0.2422996 0.17009223 -0.05884667 0.17425774 -0.44359103 -0.2004376 0.052603748 0.050317764 -0.30424154 -0.07141645 -0.48824623 -0.13866344 0.29958367 0.13221796 0.094633125 -0.26378173 0.021818127 -0.039233953 0.278609 0.013190382 -0.19511397 -0.0048342473 0.31840396 -0.27942508 0.049036413 0.11361685 0.23800926 -0.12143741 0.43424743 0.037103336 -0.35340208 -0.33109945 -0.25771716 0.46700874 -0.08514552
eye 0.2722398 0.023477718 0.5912864 0.30905002 0.19575046 -0.005083044 0.15986219 -0.1456894 0.27223244 -0.085616976 0.12496487 -0.067703046 -0.13979861 0.17835687 0.08179717 0.11431349 -0.17964669 0.11798647 -0.19705203 0.06205946 0.5288411 0.11497098 -0.08737732 -0.07974985 0.3136752 0.10204883 -0.14174038 -0.023537185 0.07042925 0.08594309 -0.25458935 0.27259982 -0.0692274 0.04242689 -0.5066137 0.20563576 0.0135995485 0.19827893 0.4690569 0.35112682 -0.06847325 0.21648373 -0.05477096 -0.37256092 -0.08227231 0.17540866 0.06725996 0.22644001 0.35531837 0.6355526 0.09722935 -0.04760549 -0.21794543 0.36072597 -0.16316482 -0.13095628 -0.06477474 0.08241051 0.019912207 0.68973994 0.06351194 -0.05146817 -0.41882595 0.5822424 0.055020265 -0.21297693 0.10822218 0.05998419 0.043663226 -0.34887636 -0.26359305 0.0761611 0.028243298 -0.27874047 -0.105398834 -0.6431528 -0.24252425 0.32403433 0.09738083 -0.03311565 -0.44392738 -0.041054394 -0.03291385 0.2502901 -0.015506208 -0.104516245 0.0041863825 0.50377184 -0.22482534 0.078909226 0.10355885 0.42536658 -0.041889198 0.44520697 -0.105926 -0.42786667 -0.402999 -0.42447913 0.5906568 -0.21504904
affecting 0.3000569 -0.040546466 0.41758242 -0.334265 0.81812334 -0.16567887 0.35805053 -0.25895324 0.008174137 -0.25457755 -0.17659202 0.041820616 -0.6065356 -0.18573934 0.24456798 0.516261 -0.16750272 0.016885865 -0.36084604 -0.42150503 0.6183766 -0.035970263 -0.11888577 0.16912639 -0.010131113 0.08295353 -0.53617096 0.46967465 -0.16590858 -0.048218273 0.039154947 -0.053293444 0.10952166 0.2975362 -0.87020296 0.07671568 -0.2519061 0.85850376 0.31506205 0.044936664 0.06996597 0.3897896 -0.07708458 -0.44966748 -0.10212892 0.082230195 0.24095403 0.121194504 -0.23915513 0.79816717 -0.120499 0.10449544 -0.07636416 0.04881522 -0.24614777 0.2499374 0.225862 -0.062312163 0.3801163 0.68860704 0.053566106 0.20837916 -0.5832243 0.84507304 0.036107652 -0.21404944 0.34161776 0.17686135 -0.0021320994 -0.48342493 -0.1635443 0.09632092 0.52741545 -0.2293607 -0.61543375 -0.66727126 -0.88218987 0.15323761 -0.28129557 0.09944694 -0.41778463 -0.5832861 -0.013242548 -0.016957944 0.15173611 -0.13683641 -0.050702006 0.32681125 -0.024803577 -0.1707104 -0.21996184 0.005657633 -0.42599058 0.483809 -0.08274516 -0.4586621 -0.9320769 -0.13600358 1.079972 0.04796933
