1815 100
unspecified -0.7864081 0.6602126 0.07049958 -0.078081146 -0.08185663 -0.22049366 0.08663669 0.35256368 -0.11702377 -0.1719064 0.5319025 -0.38815978 0.44142845 0.46169722 -0.08631061 -0.1905929 0.15498942 -0.25700185 0.15922418 0.09206911 0.046942 0.008757063 -0.1033831 -0.11293604 -0.13247316 -0.33346513 -0.5189718 -0.3752182 -0.31034866 -0.24237539 -0.4917228 0.30865583 -0.0665397 -0.29924476 -0.27790204 0.008030408 0.08296257 -0.19134818 -0.2374604 -0.15796639 -0.22289407 -0.26237616 -0.093263164 -0.17812963 -0.11658669 0.019746473 -0.042901624 -0.24880521 -0.16862237 0.1415122 0.3495986 0.083629005 0.15307051 0.25070536 -0.016207332 0.25482067 0.03626025 0.22496603 -0.2526918 -0.3474545 -0.23305638 0.52108276 -0.0016426685 0.46349466 0.279757 -0.072884336 -0.17083788 -0.16351905 -0.15048802 0.033132628 -0.42515033 -0.3521274 0.06597952 -0.3803009 0.3885664 0.53520274 -0.07877712 -0.28997785 0.11476984 -0.4593852 0.6845283 0.05609462 0.2440192 -0.12384584 -0.008098279 -0.042276245 0.27270082 0.007818488 0.18768546 0.18983272 0.41260296 -0.15614134 0.1778833 0.2650914 -0.28822738 0.23712376 -0.1051732 0.3849563 0.45490035 0.2006067
without -0.95753497 1.2827444 0.39466497 -0.3916491 -0.36812857 -0.07256488 0.036224026 0.8900232 -0.13222861 -0.37540543 0.45627284 -0.6396853 1.1943771 0.76202947 0.35339323 -0.2653835 0.44542864 -0.16107549 0.19537191 -0.3039564 -0.20684752 0.4129994 -0.11661289 -0.28371865 0.12008769 -0.54842454 -0.5063836 -0.959652 -0.65203005 -0.4846944 -0.61164635 0.34750366 -0.57908833 -0.3933448 -0.7137405 0.11297797 0.61171204 -0.32901514 -0.7041913 -0.31153327 -0.45867774 -0.6093151 0.029693218 -0.11823918 0.33527106 0.09663812 -0.34547147 -0.021393329 -0.08761228 -0.4535433 0.92342037 0.17686546 0.22792421 0.4756969 -0.27849665 0.18501769 0.16217726 0.426928 0.047719233 -0.72743255 -0.3877409 0.753814 -0.07549252 0.5783837 0.020927243 0.28529808 0.27622405 -0.032494333 0.035884425 -0.21740536 -0.28474596 -0.60187066 -0.34057632 -0.0041109924 0.37763187 0.763771 -0.15586899 -0.5837221 0.23578374 -0.79442644 0.40036765 -0.12420037 0.45437777 -0.50961065 -0.6990239 0.19089228 0.49318743 -0.27045837 0.096346125 -0.21042475 0.75230944 0.09891567 0.24506882 0.13032666 -0.75181496 -0.09387565 -0.2746186 0.6994827 0.60243154 0.63597995
mention -0.9618819 1.4715008 0.41080827 -0.46237254 -0.498614 0.0068777073 0.063799724 1.0579573 -0.044424374 -0.5348899 0.5548213 -0.6852866 1.5193828 0.8363329 0.540682 -0.21965644 0.5871003 -0.23078455 0.15853758 -0.3780505 -0.3818454 0.45027336 -0.13970873 -0.29902223 0.15096001 -0.48554924 -0.46364096 -1.0181135 -0.7714415 -0.53745586 -0.64610004 0.16465503 -0.7194612 -0.45149317 -0.8764179 0.03514379 0.649074 -0.33519864 -0.8396873 -0.3406142 -0.57212335 -0.6329769 0.11712604 -0.17215085 0.4941626 0.011199329 -0.31036937 0.039795812 -0.08661023 -0.55206686 0.9384368 0.2642511 0.2974261 0.5270785 -0.2141281 0.39315256 0.18054765 0.56096196 0.24299856 -0.76657087 -0.30199832 0.8150182 0.09064656 0.44456476 0.017019764 0.26849377 0.41385132 0.02197555 -0.045602012 -0.35583693 -0.33878365 -0.70754904 -0.4521677 0.013651997 0.48667184 0.79525775 -0.014800277 -0.59996617 0.2705438 -0.80952203 0.36664048 -0.20906779 0.49679324 -0.57218 -0.7218997 0.22455381 0.5785109 -0.3081798 0.13274777 -0.10227516 0.85429186 0.085680924 0.26744765 0.19756131 -0.8132173 -0.1107894 -0.2866228 0.7678054 0.44030687 0.70100474
specified -0.5097996 0.35430875 0.07498001 0.2341292 -0.20547299 -0.26274005 -0.053499382 0.40083814 0.18947962 -0.17248148 0.27393937 -0.02987252 0.3373764 0.34477216 -0.11697599 -0.48128 0.31401062 -0.2022045 0.11038219 0.19294855 0.07177604 0.39781943 -0.39480752 -0.039985806 -0.07153803 -0.28438008 -0.41668493 0.18083349 -0.038967207 -0.25127378 -0.18041605 0.2462154 0.15227097 -0.030684596 -0.10625273 -0.123080984 -0.15498768 -0.09289609 -0.042222265 0.06557727 -0.54705757 -0.28132156 -0.32555223 0.062127683 -0.3404082 -0.1059794 0.35185724 -0.32358733 0.04971422 0.28775382 -0.10139526 0.06768413 0.19091453 0.2170654 -0.05610655 -0.25572088 0.08117803 0.052229792 0.0026265918 -0.28667054 -0.29166675 0.12694064 0.21653128 -0.16436611 0.3262651 -0.243644 -0.34675103 -0.47977594 -0.094522685 -0.17438447 -0.46337926 -0.24069121 -0.022179946 -0.2982047 0.42458388 0.33712256 -0.4558542 -0.020741377 0.29572377 -0.15226625 0.49278876 -0.1256062 0.26244408 -0.1497633 0.49505746 -0.23712939 -0.074823245 -0.028703615 0.15235484 0.0422026 0.22761106 0.08328822 0.1820814 0.370736 -0.46483544 0.21153736 0.03321973 0.10926918 -0.03638439 -0.022678215
open -1.5804464 1.0206175 0.1685316 -0.1597588 -0.28710103 -0.2065429 -0.059866086 0.60196745 -0.21578158 -0.23394951 0.5527406 -0.64209116 0.6080621 1.0331784 -0.17773108 -0.46902812 0.13006034 0.29023108 0.13196212 -0.08145756 0.21507195 0.13176903 -0.24923295 -0.23885311 0.16774023 -0.79122937 -0.8106648 -0.94547397 -0.687963 -0.40229565 -0.84593683 0.84945315 -0.2614763 -0.39313978 -0.30431765 0.2458625 0.55265373 -0.26203397 -0.72023785 -0.42511016 -0.40195453 -0.5580042 -0.27568853 -0.34419468 -0.28250128 0.71417403 -0.3981472 -0.3090102 -0.04854653 -0.017345196 1.0805087 0.19247444 0.1554618 0.7414991 -0.3482568 -0.13842541 0.2558627 0.18895073 -0.60224324 -0.9566408 -0.59371865 0.9881546 -0.42611676 1.0529842 0.104052305 0.21357867 0.33157563 0.032630965 0.34388718 -0.073413104 -0.3233172 -0.6062312 0.28729656 -0.29692924 0.4123023 1.1803432 -0.12098573 -0.6394966 0.01738571 -0.7122807 0.7567042 0.24774364 0.5648239 -0.5912582 -0.34056747 0.057997704 0.28210637 0.022245921 0.31759703 -0.01931408 0.7258686 0.12880646 0.19119798 0.02049195 -0.8091443 0.10034455 -0.41291386 0.827441 1.2809838 0.59654635
injury -1.0479891 0.6834686 0.21713461 -0.040174663 -0.19371621 -0.2519052 -0.040074967 0.38840175 -0.08023594 -0.21625781 0.30876946 -0.48428035 0.3944256 0.76061743 -0.15715922 -0.44480595 0.092684664 0.10540672 0.10158415 -0.008444971 0.1526404 0.17877916 -0.23129903 -0.10347838 0.01096188 -0.63593423 -0.5514215 -0.5424544 -0.42201093 -0.36662644 -0.5376844 0.5437692 -0.14217241 -0.30281517 -0.22668791 0.20616876 0.34952003 -0.10837191 -0.37186185 -0.30297506 -0.43476847 -0.43911046 -0.19578545 -0.19517978 -0.29183397 0.39500517 -0.23505338 -0.29042378 0.018864194 0.021277739 0.6029002 0.16481133 0.12756129 0.4814449 -0.27753744 -0.08024578 0.17426878 0.09774208 -0.37292668 -0.58531797 -0.37113586 0.6761773 -0.17762652 0.5986097 0.15856221 0.08820679 0.12661916 -0.054313403 0.16759571 -0.033072967 -0.24565674 -0.43401736 0.13263363 -0.23049496 0.37572673 0.80792665 -0.18513742 -0.46781933 0.009458634 -0.57209 0.53892213 0.11095366 0.39978 -0.2819014 -0.07169576 -0.049593538 0.19214784 0.042802107 0.28268936 -0.09448339 0.4790787 0.06527744 0.12728487 0.10079228 -0.4956568 0.114373386 -0.2001314 0.5338896 0.8819777 0.3387432
complication -0.28772148 1.3853515 0.38227546 -0.4308396 -0.5975008 0.08712238 0.20880339 0.9865429 0.17932948 -0.60413796 0.6161665 -0.57138646 1.7216723 0.66547173 0.6037869 -0.31307253 0.80681705 -0.64656657 0.06302193 -0.29243776 -0.5208604 0.557375 -0.13228375 -0.26985234 0.018321509 -0.27547365 -0.3998558 -0.580485 -0.61932623 -0.52048934 -0.43961444 -0.20325793 -0.71270865 -0.4079302 -0.9434019 -0.118644245 0.3781057 -0.28611624 -0.68962306 -0.2861707 -0.8647519 -0.6522124 0.061135832 -0.07716369 0.47201684 -0.3971465 -0.024442717 0.01607002 -0.083123006 -0.5377641 0.4835224 0.28798595 0.36505648 0.29085365 -0.14370115 0.549046 0.09337352 0.636234 0.7967907 -0.58492017 -0.18215229 0.7084506 0.5717909 -0.14636745 0.2850806 -0.025889192 0.20088126 -0.17032662 -0.46361667 -0.4594714 -0.5057893 -0.798187 -0.8265108 0.08871674 0.6810964 0.4762641 -0.025471224 -0.38277826 0.4338643 -0.7179832 0.33834013 -0.3921769 0.36821753 -0.37826827 -0.38915607 0.12996212 0.48162708 -0.09891208 0.17403632 -0.0350663 0.7840326 0.07339947 0.2889717 0.59545314 -0.65201914 -0.10330954 -0.23191993 0.61974293 -0.13714638 0.47671354
fracture -1.4138087 0.6106103 0.04074281 0.00870874 -0.21314463 -0.25289637 -0.06623182 0.31085786 -0.0874807 -0.08901669 0.41605246 -0.5346692 0.30980283 0.8823687 -0.30638227 -0.5488621 -0.004935883 0.4761373 0.19302493 0.03768855 0.26438248 0.039571382 -0.34424895 -0.16445981 0.09548913 -0.71539164 -0.6341457 -0.6946733 -0.4630672 -0.23927194 -0.79596376 0.90390724 -0.026997715 -0.3316726 -0.111105494 0.18119155 0.43578252 -0.17853639 -0.43703678 -0.42163885 -0.40578791 -0.54939365 -0.23192564 -0.34637985 -0.7157642 0.751032 -0.3046087 -0.3549149 -0.06341493 0.20298791 0.7153976 0.19691779 0.023050863 0.7427258 -0.35531262 -0.29611975 0.2395896 0.10665376 -0.6079152 -0.6980196 -0.5866638 0.8881646 -0.4854307 0.9160564 0.10547476 0.038841758 0.21210626 -0.0844328 0.36851197 -0.11217736 -0.2970091 -0.44312885 0.40267646 -0.19864173 0.34814942 1.1325064 -0.26424283 -0.501427 -0.042703647 -0.4582047 0.7125633 0.3091188 0.5451789 -0.42631057 0.03809703 -0.10741866 0.034930423 0.16862449 0.4383515 0.07605099 0.5674309 0.15868546 0.065931484 -0.062623434 -0.62195593 0.14830416 -0.29215997 0.74432194 1.1984876 0.27116218
loss -2.0295467 1.1228318 0.5942505 -0.30613175 -0.18736544 -0.5322642 -0.26952413 0.8866443 -0.39746353 -0.033022612 0.5554453 -0.54872274 0.90009564 1.030087 0.11402564 -0.9617241 0.27627167 -0.0850286 0.39418155 0.05399742 0.0652352 0.7187206 -0.61794275 -0.51926583 0.11918776 -0.95179194 -0.6004222 -0.95557404 -0.1697364 -0.5982931 -0.67421675 1.2197322 0.19598806 -0.30456963 -0.521192 0.25826976 0.51423365 -0.49484372 -0.74416065 0.18902268 -0.51684326 -0.86428136 -0.77323246 -0.047184017 -0.06638921 0.4382113 -0.3336694 -0.3287632 0.009131622 -0.4246524 0.7369456 0.32115114 0.5577657 0.8011963 -0.44404063 -0.31058064 0.28506804 0.18778706 -0.9009388 -1.0857091 -0.67179745 0.53752047 -0.54993063 1.1250939 -0.17943686 0.30954492 0.13201192 -0.38084066 0.4681324 0.34591794 -0.27183965 -0.5871183 0.08300344 -0.2690472 0.29112545 0.5858938 -1.1943389 -0.67012566 0.44305086 -0.74880844 0.91740525 -0.4286627 0.7193308 -0.68475235 -0.57559764 -0.120599955 0.29537308 -0.5893607 -0.012018018 -0.61214364 0.7704153 -0.086730674 -0.006870134 -0.13353953 -1.234809 0.25529882 -0.32836765 0.221572 1.0089115 0.8977617
condition -0.4381128 1.5488752 0.43298963 -0.4996023 -0.6568874 0.07253498 0.18174806 1.095281 0.14585179 -0.60597926 0.65403956 -0.56989974 1.8780429 0.72396016 0.6562151 -0.29560855 0.8535943 -0.64596754 0.035759144 -0.36318442 -0.49208647 0.5875424 -0.132277 -0.27723035 0.04671352 -0.28242877 -0.43376476 -0.6432313 -0.6195839 -0.5445896 -0.52147704 -0.15915373 -0.7558617 -0.48971424 -1.0394866 -0.18101501 0.42550686 -0.34931123 -0.7644251 -0.28955024 -0.8536658 -0.6831822 0.05794383 -0.1099634 0.53808403 -0.40855452 -0.055181973 0.021535775 -0.09262561 -0.60334295 0.5334948 0.25048146 0.41839898 0.36433455 -0.10581744 0.5627329 0.0599341 0.68633175 0.7972899 -0.6413073 -0.18531959 0.7247723 0.5499715 -0.10474219 0.2324067 0.015322214 0.23134427 -0.13470516 -0.4660377 -0.47505227 -0.51653695 -0.77687246 -0.8848738 0.118340634 0.70646274 0.46314442 -0.029851785 -0.4373705 0.42389774 -0.7804776 0.38170725 -0.43558687 0.4087656 -0.4954874 -0.44981897 0.15656719 0.50119656 -0.17747207 0.17642389 -0.072836585 0.8137974 0.048886605 0.25860286 0.53683066 -0.77649885 -0.10722137 -0.21077053 0.6396095 -0.091314405 0.49644125
neoplasm -0.5572126 0.5048689 0.07759993 0.18684788 -0.23764215 -0.09313155 -0.004126756 0.5623538 0.051223855 -0.2917211 0.47913817 0.098573625 0.2570381 0.39945176 -0.17717192 -0.47661322 0.28794688 -0.26736936 0.00045831228 0.26663572 0.16540691 0.49614418 -0.56767213 0.04743747 -0.074097805 -0.34000316 -0.66544944 -0.11703919 -0.11093208 -0.22530584 -0.12734944 0.43452272 0.19792226 -0.16031596 -0.23161295 -0.24520192 -0.23655996 -0.10415194 -0.24114852 0.03764561 -0.5275334 -0.28973508 -0.3470275 0.09288814 -0.31357598 -0.0649984 0.36108655 -0.33786812 -0.13340105 0.44826707 -0.12140732 0.10271747 0.1111059 0.34197667 -0.13094376 -0.292058 0.12857552 0.010422254 -0.11008911 -0.4725953 -0.19831912 0.24315171 0.031923234 0.07962477 0.3942905 -0.13779949 -0.19953856 -0.5284505 -0.10569081 -0.19311139 -0.62319475 -0.24829687 -0.072183415 -0.4467511 0.4612077 0.50359905 -0.4862396 -0.004681566 0.25484434 -0.01636608 0.7251139 -0.1554859 0.22224309 -0.40842384 0.49551022 -0.17856504 -0.079764105 -0.083848156 0.23056167 0.2714001 0.18408936 0.030089572 0.24060826 0.25641373 -0.544403 0.13462414 -0.024884123 0.31904227 0.16988583 0.22438978
malignant -0.55874825 0.40821433 0.10248143 0.15592436 -0.23867905 -0.14606485 -0.074031025 0.5463862 0.13001375 -0.11552867 0.48284128 -0.03059764 0.33007982 0.46393165 -0.18274054 -0.46001756 0.2864924 -0.101558596 0.15511774 0.2268616 0.023131046 0.46564677 -0.4395851 0.07081041 -0.065315306 -0.27102292 -0.48996958 -0.034574803 -0.01747893 -0.16300003 -0.068730585 0.31804243 0.13055156 -0.17024964 -0.081652924 -0.21376167 -0.25569326 -0.13402669 -0.1891055 0.10560684 -0.47176728 -0.13538907 -0.27194434 -0.056091554 -0.27074683 -0.02726515 0.36067483 -0.31652206 -0.122507855 0.3218816 -0.07329835 0.048892282 0.2079361 0.37362885 -0.24570599 -0.17642458 0.027117362 0.14864962 -0.055807173 -0.4078959 -0.33706817 0.2631044 0.1965306 -0.09286907 0.32082534 -0.32821086 -0.24426551 -0.52722186 -0.03095709 -0.09356138 -0.57434314 -0.23489806 0.026801657 -0.3011569 0.38337472 0.32659036 -0.48525783 -0.03682877 0.19651859 -0.0844168 0.66962427 -0.152115 0.22815442 -0.35541698 0.4359274 -0.069364816 -0.037385654 -0.005033301 0.10703182 0.10295003 0.17333929 0.07920733 0.28192407 0.22586112 -0.37966868 0.29296 -0.106958695 0.114343934 0.09101567 0.17046158
wound -1.4290613 1.0324689 0.2121971 -0.26557428 -0.27630225 -0.13330352 -0.0035880737 0.658047 -0.18526624 -0.26556084 0.51754045 -0.6302268 0.7614338 0.91043335 -0.041739743 -0.38765788 0.21734506 0.24046119 0.15428801 -0.21783821 0.04994523 0.24535415 -0.2220618 -0.27205053 0.2273667 -0.73438525 -0.7329577 -1.0677658 -0.7118831 -0.41418093 -0.8217884 0.7260537 -0.3260773 -0.37720272 -0.47036433 0.19443089 0.635123 -0.2554697 -0.7904582 -0.36010867 -0.4590145 -0.5637453 -0.18064792 -0.3513325 -0.08872668 0.5384737 -0.4252953 -0.13875486 -0.082874976 -0.11896111 1.0203232 0.22736384 0.18896064 0.6622768 -0.30861017 0.035461247 0.30258164 0.26630256 -0.4391952 -0.9139927 -0.57908887 0.9407192 -0.3631635 1.0209174 0.14799206 0.29250172 0.38024595 0.06045146 0.31506777 -0.06115188 -0.23901458 -0.6564442 0.11941582 -0.21003377 0.33912218 1.0298787 -0.099282406 -0.65695924 0.036183145 -0.699194 0.5982488 0.1771831 0.5648582 -0.5895265 -0.5041964 0.12957658 0.3757314 -0.055542156 0.316628 -0.02999711 0.7516159 0.14390758 0.22401334 0.00958041 -0.77368915 0.09229594 -0.3985694 0.80934125 1.1172903 0.6699403
antepartum -0.33230743 1.3914236 0.4212963 -0.45180893 -0.55067813 0.11189224 0.15461014 1.034761 0.11295298 -0.5675923 0.6407935 -0.6389712 1.7532618 0.6817337 0.61192244 -0.2630159 0.79473364 -0.6075485 0.0490815 -0.31346977 -0.4971736 0.599454 -0.08664285 -0.30715916 0.06371501 -0.3183598 -0.38572302 -0.6764919 -0.6232444 -0.51676387 -0.4672524 -0.16720718 -0.763402 -0.41391245 -0.99211246 -0.0754435 0.37281623 -0.33695132 -0.76380306 -0.306453 -0.819383 -0.6654469 0.13165267 -0.090131275 0.5457723 -0.33759326 -0.037214134 -0.021271162 -0.11913852 -0.61486125 0.54729545 0.29006544 0.3721107 0.33637214 -0.14454377 0.51473993 0.11288886 0.71193326 0.75136757 -0.62540716 -0.20122823 0.7428603 0.51011074 -0.07656986 0.1884022 0.05142209 0.16900674 -0.11777552 -0.45340535 -0.454529 -0.49968243 -0.78552 -0.8134878 0.120679446 0.64651763 0.48180032 -0.078483015 -0.3938943 0.46197563 -0.7602923 0.31937718 -0.41747364 0.4029661 -0.48474604 -0.51059043 0.12575655 0.46775508 -0.12786809 0.11615594 -0.08431038 0.8336006 0.06693051 0.3091591 0.51131266 -0.69485056 -0.13328153 -0.27362752 0.6006311 -0.057954144 0.52383333
due -0.4318565 0.45844024 0.17881496 0.29386202 -0.2302935 -0.27989936 0.004967725 0.36322737 0.2387865 -0.27341843 0.25010592 -0.21339619 0.42803928 0.41972837 -0.15022177 -0.4601811 0.32771125 -0.29057315 0.06778077 0.20635544 0.034228392 0.327844 -0.28597936 0.05591757 -0.1479363 -0.3778019 -0.46751943 0.15206246 -0.1877426 -0.3793165 -0.2065873 0.08541689 -0.05241527 -0.08588032 -0.16735458 -0.05898392 -0.063024275 0.026786365 0.01920091 -0.118619375 -0.6022894 -0.34197244 -0.23297839 0.033238653 -0.33546174 -0.12215417 0.2533963 -0.37709865 0.13697243 0.26024395 -0.004663636 0.11737592 0.17053851 0.2069811 -0.03315039 -0.09798621 0.06491946 0.08496152 0.13710518 -0.21595655 -0.23120557 0.28341255 0.3651168 -0.2286873 0.41265187 -0.26682812 -0.35298806 -0.36306655 -0.24494967 -0.2846908 -0.48062336 -0.33974916 -0.092261165 -0.33177322 0.5460253 0.4737284 -0.29859003 -0.14965066 0.23300841 -0.39076236 0.47405347 -0.060650107 0.26343602 0.008660026 0.52620655 -0.2680836 0.027292402 0.04351522 0.24374187 0.061003804 0.2698914 0.08084041 0.18124834 0.50132674 -0.3629114 0.18338262 0.07168048 0.2161867 0.06981542 -0.079302385
involving -0.8120918 0.69897723 0.25305668 0.33754927 -0.031209607 -0.8641741 -0.5704483 0.21965665 0.06393475 0.10665575 0.22141954 -0.23759261 0.1930148 0.96751726 -0.53465 -0.5351478 0.24314441 -0.28996426 -0.1342896 0.46656877 1.1196874 0.17283721 -0.25347558 0.07702287 -0.19756417 -0.7100884 -0.5593717 0.23809414 -0.06958592 -0.2820019 -0.33501926 0.40746126 -0.110565096 -0.148302 0.06926551 -0.34965754 -0.26454824 -0.16720253 0.26462734 -0.33688465 -0.29372552 -0.6173465 -0.36956733 0.18368265 -0.6471009 0.40983576 0.21742606 -0.91627485 0.37332565 0.40871358 -0.14195004 -0.27826405 0.47110114 0.61257195 -0.03766873 -0.35862324 0.036726434 -0.17348978 -0.3037686 -0.080386005 -0.19878875 0.5307963 -0.057069913 -0.4637783 -0.01127811 -0.2635249 -0.7665781 -0.20960589 -0.010815921 -0.15753593 -0.8002299 0.06187674 -0.2964981 -0.31123707 0.6510646 0.34233987 -0.48547772 -0.052118964 0.090697564 -0.72308415 1.1014593 -0.09780544 0.2620294 -0.18134472 0.7378846 -0.5867667 -0.3619098 0.06703273 -0.023456471 -0.11288444 0.21139997 0.031108385 -0.021806376 0.17713456 -0.801895 0.4995725 0.33812758 0.38927844 0.7141616 -0.35811087
tuberculosis 0.021814164 -0.26831892 -0.41394758 0.6536672 -0.36384687 -0.10834188 0.3560011 -0.43444255 0.44609812 -0.3697423 -0.126421 0.011356153 -0.040221114 0.2358023 -0.4228799 -1.0435269 0.45789152 0.24576737 -0.15433095 0.2843684 -0.19800968 0.13223292 -0.63508177 -0.337418 0.35140234 -0.6249431 -0.5985852 0.6468039 0.13765785 -0.17046778 -0.096705124 0.10256891 0.50285715 0.17192642 -0.092327684 0.27083144 0.20628314 0.47583535 -0.0985306 -0.24371813 -1.4389532 -0.61402196 -1.0122385 -0.3446384 -1.0349429 0.69454795 0.41516104 -0.46424383 0.53723854 0.29775137 -0.38788065 0.7322251 -0.10200156 0.13700335 0.036420364 -0.18881993 0.59757257 0.041503895 0.4166619 -0.7391162 -0.33599904 0.33130395 0.3385611 -0.7342715 0.89032525 -0.60013497 0.14925863 -0.5627204 -0.036913466 -0.41846746 -0.23956491 -0.8777147 0.21346705 -0.22710662 0.7199677 0.3904798 -0.0813895 0.031465527 0.51809955 0.13123587 0.2526618 0.14546749 0.58218676 0.055798315 0.95595366 -0.43974608 -0.2482137 0.76265424 0.3896245 0.5111641 0.598588 0.62346494 0.37702596 1.1190461 -0.82754457 0.37076807 -0.08391386 0.19514722 -0.2142155 -0.32999787
consciousness -1.8166945 1.1838058 0.66567457 -0.4478578 -0.18328726 -0.49630725 0.04062463 0.74879503 -0.34547922 -0.2348092 0.5567505 -0.86592114 0.75350845 1.3012317 -0.12753223 -1.0524487 0.08076572 -0.13152193 0.3521384 -0.022074884 -0.09913154 0.62434846 -0.5600239 -0.43331185 0.026974479 -1.0896866 -0.79777396 -1.0599242 -0.40475836 -0.8136628 -0.74901557 1.2428379 0.09880299 -0.51018745 -0.45593768 0.68838966 0.9837793 -0.21306951 -0.66545033 -0.16959149 -0.784031 -1.0100893 -0.7371397 -0.17885105 -0.15157548 0.5312214 -0.5820496 -0.3813288 0.0730793 -0.4594356 0.9142346 0.5576252 0.32499453 0.79587066 -0.69982105 -0.1223366 0.3120992 0.1219879 -0.93954766 -1.2102101 -0.75960565 0.9005054 -0.61869496 1.3719305 0.07537357 0.26427442 0.40179312 -0.24133883 0.28204164 0.42407498 -0.15232493 -0.9478112 0.15819202 -0.2110125 0.5422057 0.9436964 -0.94983435 -1.0891243 0.20117465 -0.9419991 0.82453835 -0.35686132 0.8033516 -0.46485913 -0.6392119 -0.12659927 0.54338014 -0.41531494 0.32535088 -0.7476787 0.9342265 -0.08020096 0.07089633 -0.0024095955 -0.9212598 0.2012283 -0.32431316 0.5247309 1.4333473 0.98517567
closed -1.1830558 0.5069686 -0.031012414 0.028793758 -0.12829427 -0.2011529 -0.10116861 0.20529361 -0.15386507 -0.029084003 0.37612787 -0.4036127 0.13960998 0.75670457 -0.3110628 -0.38201156 -0.07772303 0.3810572 0.08537408 0.099997595 0.36321577 -0.06908805 -0.25798216 -0.11827515 0.06958096 -0.5468064 -0.53729737 -0.4927431 -0.3568137 -0.16274798 -0.6182634 0.75911677 0.016630268 -0.25039995 0.03969569 0.15341872 0.26106447 -0.21025604 -0.3505845 -0.32527724 -0.19294935 -0.39945555 -0.2086398 -0.2799042 -0.57348204 0.70998263 -0.22588755 -0.3599423 -0.04481544 0.17373529 0.6438073 0.06285944 0.0075315796 0.6139596 -0.27939937 -0.3379985 0.14112519 0.050920747 -0.6230808 -0.5871485 -0.4540544 0.7167124 -0.43040034 0.7885956 0.0028627764 0.024385605 0.15135005 -0.0011707337 0.31100085 -0.030625155 -0.2531454 -0.3006321 0.4100518 -0.20991556 0.2589502 0.9218276 -0.15186985 -0.36426014 -0.06725926 -0.38195693 0.6240653 0.2708949 0.39367446 -0.3686418 0.031510696 -0.100359164 -0.016445594 0.14596684 0.30108023 0.029490348 0.43100852 0.08815587 0.03619836 -0.07892763 -0.5206334 0.13500091 -0.26389304 0.57124835 1.0311556 0.18166986
degree -2.3374746 0.9959806 0.3137568 0.0046563162 -0.26468563 -0.6333201 -0.67990613 0.96399546 -0.38692018 0.22921959 0.5683314 -0.063587405 0.9854865 0.7044703 0.24069361 -0.7503588 0.52124727 0.041079108 0.41685942 0.14873412 0.41722625 0.78334117 -0.6894268 -0.6572306 0.2604997 -0.59310174 -0.43218675 -0.6256434 0.10144838 -0.19436364 -0.7078605 1.18324 0.32950062 -0.008933078 -0.444141 -0.49322158 -0.2322638 -0.85904616 -0.75721896 0.5606987 -0.2137533 -0.60192454 -0.7006592 0.017994845 -0.17446963 0.2927586 0.28840533 -0.3796512 -0.07238646 -0.12047409 0.38129875 -0.11513894 0.8151418 0.79173243 -0.04485489 -0.5873161 0.21819898 0.294553 -0.7410127 -0.86132115 -0.61173564 -0.010701818 -0.4232129 0.7000521 -0.42460912 0.20035638 -0.3337272 -0.5235336 0.66451025 0.13214083 -0.61917484 -0.032022562 0.015068304 -0.3355509 0.07265546 0.28367212 -1.3798692 -0.0015896813 0.7013221 -0.42990416 1.0733577 -0.29764885 0.6701389 -1.020546 -0.20443492 -0.2154946 -0.10024022 -0.6911471 -0.37365684 -0.21302149 0.46534625 -0.102600984 0.051371574 -0.2701305 -1.7022783 0.3692291 -0.28206572 -0.107448004 0.29691926 0.5144795
intracranial -1.9938571 1.2948565 0.3963251 -0.28059748 -0.25657445 -0.36448774 -0.060889672 0.691573 -0.39663392 -0.26536375 0.6001925 -0.98557264 0.73736876 1.3338755 -0.208321 -0.6467708 0.08372362 0.26735306 0.20473808 -0.11828959 0.2514481 0.17158484 -0.28742844 -0.29350066 0.12884097 -1.1114519 -0.9448939 -1.3493356 -0.8208124 -0.60440063 -1.0532451 1.1072867 -0.3047641 -0.6134467 -0.48486513 0.45468137 0.83800954 -0.29070243 -0.82620925 -0.5630165 -0.4378086 -0.8496405 -0.37384242 -0.3629851 -0.24322656 0.88143444 -0.66463935 -0.38298395 -0.024927957 -0.20865032 1.3426291 0.30373958 0.23690677 0.89726603 -0.46493936 0.039479043 0.32968298 0.1670119 -0.8979436 -1.1218349 -0.69673514 1.2795509 -0.58247024 1.4321737 0.04016495 0.3102355 0.42451665 0.07760863 0.38008603 0.07418945 -0.2949715 -0.8088698 0.30347803 -0.34908524 0.52694404 1.3342608 -0.26381287 -0.9759684 -0.04119074 -1.0266757 0.9561781 0.19584799 0.7016368 -0.6113729 -0.60651183 0.0039616823 0.46213362 -0.095502526 0.35075024 -0.17933972 0.92043114 0.020485597 0.11399348 -0.034908555 -0.9334619 0.17526583 -0.4490995 1.0015348 1.7702327 0.8123869
hemorrhage -1.3494909 1.0637463 0.3352909 -0.2215377 -0.23433322 -0.19790357 0.05115731 0.5584236 -0.24927403 -0.284116 0.44699755 -0.7153363 0.7343082 0.8872051 0.0384431 -0.41842082 0.18919104 0.0676773 0.2183747 -0.09316822 -0.017200742 0.17625535 -0.24164315 -0.22843918 0.037854258 -0.74547154 -0.663497 -0.9327395 -0.5167266 -0.47239438 -0.7039485 0.6271082 -0.2280327 -0.46879905 -0.49374104 0.34208757 0.56161594 -0.22933431 -0.61728996 -0.36496785 -0.4005298 -0.6253521 -0.20167787 -0.2596335 -0.027209653 0.42205688 -0.42802733 -0.17412806 -0.080797516 -0.27199858 0.9235279 0.26730967 0.13103992 0.56994 -0.31417194 0.16208042 0.21419829 0.24663748 -0.47289112 -0.7473632 -0.42478526 0.8493461 -0.29999286 0.87646616 0.09926464 0.14990002 0.32575908 -0.048174 0.15272993 -0.0020440184 -0.23740807 -0.62986326 0.12500425 -0.23596337 0.39653468 0.90883553 -0.18785207 -0.6919359 0.10051518 -0.7285602 0.6301541 0.063454494 0.48576066 -0.40567988 -0.4771314 0.055158734 0.42895827 -0.121551044 0.20941521 -0.13012129 0.7450719 -0.03029814 0.13901 0.08883136 -0.6434436 0.11455638 -0.28463632 0.6653652 1.0014552 0.56490606
delivered -0.43187645 1.4069054 0.4053804 -0.40323442 -0.59885156 0.050365698 0.1872122 1.0090338 0.13940479 -0.5819947 0.5839613 -0.56516147 1.6883572 0.67572814 0.5863654 -0.31401163 0.76897615 -0.5749414 0.07039092 -0.30869558 -0.46600583 0.56675893 -0.13436137 -0.28141478 0.051058095 -0.32146254 -0.41257167 -0.6323554 -0.6002622 -0.52537996 -0.48421082 -0.11240915 -0.68521535 -0.4188506 -0.9414664 -0.10612561 0.42451578 -0.28987488 -0.7168186 -0.27527103 -0.8161124 -0.66354734 0.045943517 -0.07943036 0.44174185 -0.3190303 -0.050852627 0.015043249 -0.06817298 -0.5496562 0.53249043 0.2805117 0.35708517 0.32742983 -0.14758709 0.4727515 0.105629645 0.6128927 0.7031959 -0.61690843 -0.19935228 0.7196108 0.49665573 -0.06848389 0.2406265 0.033703674 0.21566266 -0.14641671 -0.4032223 -0.4493631 -0.48500752 -0.7595338 -0.771459 0.09120214 0.632306 0.51029027 -0.04398524 -0.42133343 0.41293323 -0.71141595 0.34878308 -0.37405014 0.39540568 -0.42377466 -0.4363969 0.14720188 0.48148808 -0.12108673 0.15877968 -0.08465778 0.76661277 0.08279619 0.2725223 0.5229724 -0.71224326 -0.108027175 -0.23470064 0.6162248 -0.044327576 0.5001478
acute -0.5781636 0.60850984 0.20019338 0.082618095 -0.21428223 -0.18697372 0.024990765 0.4369045 0.12548733 -0.26377538 0.2944558 -0.28675124 0.51076883 0.4177504 0.05360522 -0.38053182 0.28714973 -0.20078377 0.20098986 0.090541445 -0.10463539 0.27457902 -0.26172358 -0.04961272 -0.08223334 -0.36521742 -0.36190328 -0.15814506 -0.21057746 -0.33331496 -0.2670071 0.16780497 -0.13027656 -0.12632948 -0.2806718 0.020612227 0.12906183 -0.063516796 -0.18782116 -0.108710736 -0.4836121 -0.36332574 -0.14012866 -0.062168498 -0.15667452 -0.025521275 0.059224308 -0.17941861 0.026513241 0.053339038 0.25893217 0.16385151 0.11704589 0.20813693 -0.090070106 0.020791583 0.07811186 0.20197213 0.03705979 -0.341612 -0.22033238 0.31062442 0.15576261 0.0421494 0.2612333 -0.10399104 -0.08708076 -0.2826976 -0.1012247 -0.19988964 -0.36768898 -0.33534127 -0.08160165 -0.25331962 0.4037555 0.49158812 -0.26035997 -0.2215679 0.2505285 -0.40623757 0.4029924 -0.07057115 0.27101868 -0.13058218 0.12595998 -0.08948861 0.18059476 -0.06478656 0.11666462 0.029119985 0.3789241 0.05223545 0.20598054 0.34729096 -0.41938803 0.085239716 -0.004029915 0.24053651 0.1563713 0.09701515
disorder -0.55109584 0.503582 0.109707534 0.13525955 -0.20560117 -0.18259408 0.067142375 0.3436173 0.14502104 -0.22667308 0.42143303 -0.27872333 0.48374507 0.37302154 -0.040795144 -0.43023074 0.29294533 -0.29593334 0.16322793 0.15160438 -0.10463329 0.21761853 -0.2640896 -0.07017152 -0.14683199 -0.32954553 -0.40500402 -0.040326003 -0.17180867 -0.28289276 -0.29904136 0.13429424 -0.014550584 -0.12112954 -0.26197106 -0.058427658 -0.017088378 -0.06955089 -0.14890487 -0.07903558 -0.5446365 -0.31872284 -0.18516272 -0.092074215 -0.26530343 -0.11078757 0.17402121 -0.25283962 -0.024241637 0.14434497 0.09911198 0.17869641 0.18472633 0.15254562 -0.02208771 0.10216513 0.03151969 0.2489435 0.071498565 -0.3040548 -0.18827479 0.3176997 0.29792738 -0.010845461 0.39780027 -0.22284767 -0.23456514 -0.35373896 -0.27319145 -0.15435208 -0.4580233 -0.3650016 -0.0010689849 -0.35731712 0.49867484 0.43415076 -0.27423242 -0.16274746 0.2757935 -0.3578353 0.5479127 -0.08915589 0.2659224 -0.07465296 0.3150668 -0.16455641 0.12647475 0.094179526 0.20857523 0.19381952 0.33746502 -0.04223642 0.18877831 0.48767886 -0.34887335 0.16714793 -0.014208024 0.20339458 0.0858938 0.012052725
poisoning -0.5024841 0.36210606 0.12814043 0.53983265 -0.32849178 -0.24187301 0.047284964 0.31926063 0.3984304 -0.3359384 0.28439146 -0.19877099 0.33453614 0.40106174 -0.23468585 -0.68363965 0.37390685 -0.26779807 0.08439387 0.34825176 -0.08102097 0.4470096 -0.44265833 0.111714944 -0.2554814 -0.4727898 -0.434337 0.35287094 -0.05041819 -0.38346484 -0.1408898 0.100160755 0.07641384 -0.019354718 -0.17049125 -0.094921365 -0.22144368 0.0907745 0.040384956 -0.044080995 -0.8320503 -0.33808532 -0.32917538 0.02268276 -0.6655007 -0.16832128 0.42286232 -0.42348775 0.13514218 0.35345444 -0.13219112 0.23158936 0.11761182 0.092898 -0.0035903747 -0.1793131 0.025591064 0.15904553 0.21505274 -0.27067396 -0.17692313 0.21785894 0.5761265 -0.4602689 0.58933663 -0.4379505 -0.46079355 -0.5787682 -0.33284256 -0.37202123 -0.56732094 -0.3337772 0.018860813 -0.4578692 0.6352106 0.52846205 -0.40765476 -0.07896884 0.32474846 -0.3547832 0.5318178 -0.07439828 0.30596936 0.004279035 0.84358513 -0.3361588 -0.10206639 0.17678587 0.31121185 0.24687165 0.20905025 0.07583715 0.1974156 0.67502034 -0.37676382 0.18815105 0.08239695 0.052213117 -0.042483278 -0.24761793
accident -0.29547638 0.7434921 0.5146785 0.5980948 -0.050243337 -1.327169 -0.6541175 0.15522605 0.4660393 -0.034887467 0.18152463 -0.26684362 0.08794295 1.2266117 -0.8421405 -0.8445047 0.36035737 -0.9353935 -0.27602732 0.8326613 1.4072181 0.398096 -0.36623934 0.3123151 -0.59706956 -0.9962453 -0.68268776 0.92049396 0.008935081 -0.5528209 -0.008972488 0.07560944 -0.20500016 -0.09079362 0.1404671 -0.43546546 -0.49261174 0.16730708 0.82487386 -0.5423163 -0.8033773 -0.81717324 -0.56098574 0.4176466 -0.9322847 0.15426771 0.45040423 -1.3429583 0.75921494 0.7385455 -0.71206754 -0.2587491 0.628261 0.4699496 -0.0563993 -0.3221065 -0.03965143 -0.28947034 -0.042008605 0.17368987 -0.046366096 0.61997133 0.43215325 -1.3996897 0.33206874 -0.63671434 -1.2842915 -0.45420346 -0.4355707 -0.24095477 -1.2619023 0.055080883 -0.65082204 -0.5521527 1.1639478 0.2766055 -0.65616155 -0.07416137 0.16390574 -1.030373 1.3422511 -0.3565662 0.2132387 0.25798887 1.4345981 -0.9378648 -0.45568684 0.22862515 0.04199334 -0.2690718 0.114351496 0.038315617 0.006830035 0.7186602 -0.67780304 0.6869036 0.7645869 0.3279571 0.6486028 -0.80430007
sites -0.98485047 0.47251004 -0.13753755 0.06897744 -0.30315602 -0.18019956 -0.108807415 0.4890244 0.103537105 -0.039031673 0.48142326 -0.043727588 0.43277648 0.51983863 -0.18873824 -0.36272168 0.22747388 0.06703902 0.03231757 0.042504303 0.19021434 0.38635248 -0.34135893 -0.11511743 0.039915405 -0.2347072 -0.6386062 -0.06494711 -0.19835295 -0.15079756 -0.5458563 0.56920207 0.162157 -0.11195854 -0.027818015 -0.30540496 -0.21703629 -0.30044067 -0.3533172 0.0532258 -0.5158871 -0.18394338 -0.2569423 -0.20899805 -0.44591305 0.054608423 0.40662855 -0.26615784 -0.1987572 0.42267698 0.19707617 0.05695169 0.23387049 0.392794 -0.0804731 -0.41876918 0.13061202 0.21758589 -0.17800231 -0.51884496 -0.48030996 0.26075497 -0.038261525 0.29215926 0.29804832 -0.119881816 -0.22709247 -0.31245315 0.15539314 -0.10844231 -0.54971004 -0.26112 0.12881072 -0.30554914 0.3426062 0.5575735 -0.4106572 0.0008405956 0.13387358 -0.21255483 0.621454 0.10217046 0.43441388 -0.4731803 0.39791426 -0.042248722 -0.13210611 -0.00840503 0.2617744 0.14492835 0.26758358 0.09722448 0.28670618 0.13633402 -0.5885096 0.21509579 -0.19328412 0.2190379 0.28832936 0.12505719
disease -0.5465372 0.44246417 0.08719361 0.24214406 -0.3183478 -0.10625418 -0.024138682 0.3626638 0.28890622 -0.232144 0.41938806 -0.21570271 0.41666183 0.42831945 -0.06066983 -0.46936733 0.19148618 -0.20866656 0.0735846 0.22990356 -0.049382836 0.35035303 -0.28618634 0.11123537 -0.18741177 -0.2527392 -0.33524713 0.038232673 -0.125739 -0.20286742 -0.2135071 0.15387677 -0.085786864 -0.049302466 -0.2037092 -0.17413741 -0.15245238 0.0051802746 -0.15790562 -0.056403235 -0.5677778 -0.20053492 -0.13464579 -0.1639893 -0.47355115 -0.09657272 0.24428381 -0.20695646 -0.09111957 0.24084868 0.10222446 0.11440259 0.06686485 0.17808703 -0.07623622 -0.10002752 -0.01255143 0.18281719 0.14837961 -0.24029501 -0.19303069 0.28057444 0.34812346 -0.093347356 0.377303 -0.27598453 -0.12773241 -0.21057644 -0.21468703 -0.21816984 -0.46300003 -0.20618154 -0.0010251176 -0.2798713 0.43890113 0.4788448 -0.2908402 -0.09745789 0.16994153 -0.3439918 0.36146525 -0.03767644 0.26190382 -0.18885052 0.48883536 -0.11051344 -0.063442245 0.19797568 0.25533754 0.10965781 0.17638116 0.040564854 0.15943713 0.38480178 -0.2530251 0.058118455 0.00090477755 0.0604054 0.08284064 -0.14649367
injuring -0.12444591 0.683648 0.54165226 0.6461704 -0.03331173 -1.3339545 -0.60852426 0.08321032 0.546621 -0.058365256 0.16670638 -0.23375528 -0.019934706 1.1799904 -0.87968147 -0.9546277 0.37863344 -0.9908886 -0.28767607 0.91181564 1.3783493 0.46250504 -0.4105392 0.3337972 -0.643973 -0.9832797 -0.6742432 1.1217893 0.061253317 -0.59490657 0.11463192 -0.0036905908 -0.13915768 -0.045382027 0.16683842 -0.4224859 -0.5253502 0.24720159 0.9538445 -0.5501082 -0.92897683 -0.80933756 -0.67359686 0.4599776 -1.0077846 0.059844613 0.4884468 -1.3788935 0.8432231 0.8076878 -0.87158895 -0.25536755 0.61914426 0.39616963 -0.06404128 -0.33147717 -0.0032360698 -0.3011486 0.053950686 0.23925602 -0.0328731 0.5589625 0.51504105 -1.6089951 0.4065872 -0.7391511 -1.4101652 -0.569305 -0.5393405 -0.25386804 -1.2947816 0.072370775 -0.72393566 -0.57198566 1.2330542 0.2223763 -0.68768334 -0.028313061 0.21704191 -1.0197155 1.3392237 -0.44347292 0.18932073 0.3589816 1.600879 -0.9727739 -0.4898731 0.22695194 0.057333395 -0.27961662 0.08042889 0.10755361 0.015032569 0.8226475 -0.6012324 0.72718614 0.8630578 0.2696876 0.5061803 -0.87624127
chronic -0.6211259 0.64784664 0.20796561 0.11879544 -0.24300145 -0.17936723 0.036049332 0.49219033 0.16111037 -0.32443225 0.35110277 -0.2653448 0.5651724 0.44654584 0.04351362 -0.40950933 0.32598338 -0.21834467 0.22435325 0.10048532 -0.09334027 0.31025282 -0.33955643 -0.041331224 -0.06255966 -0.3883665 -0.43957892 -0.17292933 -0.21357183 -0.3550375 -0.29775068 0.18109147 -0.1347693 -0.13158448 -0.28846112 0.0067545567 0.122544 -0.04327534 -0.20843165 -0.10521716 -0.5591343 -0.37692896 -0.19956717 -0.073675476 -0.22306837 -0.0018312124 0.08247812 -0.1905381 0.02477788 0.09995867 0.28332514 0.15743943 0.10742071 0.25217804 -0.10335102 -0.021935232 0.08435241 0.19625288 0.04681827 -0.37147918 -0.26350346 0.3746644 0.20820548 0.046969842 0.30582553 -0.14837077 -0.07796872 -0.28173378 -0.13619524 -0.2485185 -0.4063491 -0.40132138 -0.06827238 -0.30267334 0.45007098 0.5740682 -0.2826748 -0.22075139 0.26839843 -0.4056237 0.42636916 -0.059756547 0.3223338 -0.16120371 0.18813796 -0.10482756 0.18250604 -0.02813603 0.19033298 0.018937942 0.4126466 0.068537995 0.22169001 0.38542825 -0.46255726 0.090250984 -0.003027871 0.24892217 0.13923371 0.10282699
episode -0.5894977 0.9129472 0.014793364 -0.2886973 -0.11144218 -0.15325752 0.51327974 0.27164197 -0.17182738 -0.25739175 1.1093395 -0.57652724 1.0765431 0.20241779 0.2214409 -0.15968037 0.42709717 -1.0941684 0.246261 0.2689996 -0.32989028 -0.20478566 -0.028628098 -0.467949 -0.35982552 -0.08658343 -0.413652 -0.34786797 -0.029989097 -0.113914505 -0.6191792 -0.011218054 0.023344338 -0.44161117 -0.7972978 -0.117528915 -0.1061128 -0.38916487 -0.32356977 -0.0676262 -0.4073657 -0.33302537 -0.14952014 -0.3895887 0.0768352 -0.5256549 0.14173882 -0.23171882 -0.40694934 -0.060223754 0.03621654 0.34379327 0.41097155 -0.16141905 0.2651486 1.1509678 -0.05770613 0.7033874 0.119099945 -0.3003939 0.088940784 0.5735796 0.4043048 0.38539654 0.56474864 -0.3270999 -0.36452806 -0.33921853 -0.7794906 0.24712898 -0.7381532 -0.6819441 -0.2540852 -0.45505854 0.6542697 0.14661333 0.03333935 -0.26662967 0.56740963 -0.50323707 1.0376838 -0.22172678 0.13271432 0.06744099 -0.06603696 -0.043297086 0.6393948 0.26315176 0.14430772 0.59946406 0.6917563 -0.5809328 0.2494913 0.8465497 -0.17558506 0.45788953 -0.13173427 0.20884757 -0.15881799 0.19634232
examination 0.1164105 -0.36053807 -0.42862839 0.7336453 -0.49215814 -0.23075633 0.51878035 -0.5913593 0.47314632 -0.39392918 -0.10303626 -0.03550542 -0.12009839 0.30596402 -0.62736464 -1.3029294 0.6236027 0.24006295 -0.19837321 0.3810892 -0.39193848 0.097298905 -0.6234235 -0.3741596 0.27279028 -0.8366081 -0.7514635 0.8559089 0.052687265 -0.20856394 0.09785317 0.19139445 0.44591 0.09094914 -0.16553639 0.31322828 0.33778992 0.5643213 -0.2746324 -0.4044381 -1.6806066 -0.8039739 -1.0026435 -0.2792777 -1.1070178 0.7029081 0.4985282 -0.57825994 0.6736787 0.47882506 -0.45884207 1.0051951 0.022561116 0.10171106 0.06893654 -0.006815172 0.77097106 0.28172046 0.63017875 -0.958253 -0.3188555 0.34616676 0.2829618 -1.023882 1.0490402 -0.7525735 0.20975254 -0.77553034 -0.14684008 -0.4280763 -0.35720924 -0.8606353 0.15539213 -0.2937152 0.81577724 0.4401978 -0.19437346 0.032227427 0.6526193 -0.10131075 0.42023495 0.011406714 0.69884044 -0.013991383 1.1348847 -0.4665971 -0.4116307 0.80261576 0.26186353 0.8302528 0.7665274 0.8651655 0.39982846 1.3262595 -0.9798101 0.34308842 -0.12866141 0.19660228 -0.15894255 -0.3964848
skull -1.9870458 1.1461313 0.18437481 -0.04164668 -0.22492263 -0.37025607 -0.13740613 0.48993704 -0.34330004 -0.106668934 0.5935918 -0.8829388 0.53670955 1.3385383 -0.3551221 -0.56444895 0.010337837 0.4838737 0.10091142 0.057981778 0.5576861 -0.028871078 -0.28951097 -0.19049212 0.09602425 -1.0525658 -0.91691697 -1.1397898 -0.710284 -0.39382356 -1.0695535 1.1213706 -0.24644932 -0.5649665 -0.27286926 0.24921322 0.55758834 -0.31979042 -0.7012063 -0.64126027 -0.2991089 -0.7933906 -0.22684921 -0.39193708 -0.6247009 1.0834658 -0.5380724 -0.5058319 -0.06896833 0.028176343 1.2071497 0.11180786 0.12961368 0.9796861 -0.44054958 -0.17559685 0.28555053 0.09950627 -0.92233217 -0.93799347 -0.64668864 1.3132756 -0.6461843 1.2889802 -0.02427361 0.13504738 0.3142286 0.12216966 0.40346697 -0.059429828 -0.41201118 -0.58141035 0.45258826 -0.32848 0.47679687 1.417775 -0.15621182 -0.7729654 -0.16598246 -0.90048945 1.0399944 0.38728753 0.6498923 -0.617619 -0.2699908 -0.11894867 0.18663064 0.13040961 0.3962716 0.013630245 0.80083525 0.058311284 0.045792785 -0.1624204 -0.88809663 0.2034745 -0.41291338 1.0596551 1.8161863 0.4373234
care -0.584954 0.96429086 -0.0567772 -0.29801187 -0.14816399 -0.166549 0.5273435 0.3001443 -0.16998921 -0.2715399 1.0783907 -0.56046826 1.0592605 0.2341346 0.1749113 -0.21811813 0.42683145 -1.0745571 0.22371991 0.25329554 -0.36907825 -0.17987427 -0.04571245 -0.47734717 -0.36672515 -0.10355479 -0.41608772 -0.32387862 -0.11779753 -0.09160086 -0.66547453 0.03971981 0.10465318 -0.38242817 -0.79593366 -0.11190536 -0.081832126 -0.35872468 -0.3323679 0.0030639893 -0.55968344 -0.31598732 -0.20209053 -0.41779828 0.016636277 -0.45074144 0.0941515 -0.25858516 -0.37482122 -0.013187577 -0.022358773 0.35858983 0.34709302 -0.103273205 0.268865 1.1009437 -0.0064369254 0.7147138 0.104392685 -0.41789868 0.013279336 0.6891652 0.44335878 0.35441735 0.68580467 -0.4056545 -0.28636643 -0.32420316 -0.80900484 0.21523483 -0.79635537 -0.75634116 -0.21094394 -0.5267577 0.7740636 0.17101017 -0.021872437 -0.31730056 0.5733103 -0.44099626 1.0819827 -0.17722307 0.25419232 0.07471731 -0.03989361 -0.0852678 0.64006555 0.27150974 0.107722126 0.6051429 0.7592949 -0.5723551 0.19394514 0.97964686 -0.24186718 0.48490146 -0.123843394 0.25433713 -0.23422015 0.18296775
site -0.77873534 0.47661635 0.0020175152 0.095784344 -0.19969562 -0.17044958 0.016940512 0.4400326 0.044076234 -0.14282535 0.37135306 -0.16019765 0.4505902 0.3191371 -0.095195666 -0.2050546 0.23834226 -0.041432362 0.12999153 -0.016889611 -0.00077357347 0.21923372 -0.212686 -0.09333871 -0.01501214 -0.2580056 -0.6309761 -0.1351538 -0.29588085 -0.26036653 -0.4740183 0.3409011 0.03157119 -0.18085292 -0.14880165 -0.12746935 0.00872364 -0.21776511 -0.2465453 -0.04131039 -0.34356079 -0.21913718 -0.1410395 -0.12973614 -0.21961161 -0.051964 0.23979737 -0.19937445 -0.11271215 0.25007713 0.28857303 0.06457197 0.15065782 0.24170092 0.019394789 -0.15172276 0.12613639 0.21078055 -0.084827386 -0.37957373 -0.3415728 0.28395957 0.04994902 0.2826263 0.28996274 -0.085448004 -0.20888098 -0.2990929 -0.020152414 -0.16882099 -0.3985668 -0.3154761 0.13052544 -0.3542732 0.34690082 0.53032285 -0.22482288 -0.12170038 0.17140748 -0.29347327 0.53212184 0.10465065 0.3210235 -0.22502245 0.2118421 -0.09592238 0.11004029 -0.08464668 0.22080038 0.16843274 0.3743468 0.030263849 0.21072382 0.20575117 -0.44271955 0.1534931 -0.1598517 0.2486605 0.22094828 0.15409294
body -1.6949453 0.87249875 0.318926 0.061385382 -0.2320361 -0.52251613 -0.5256973 0.78458107 -0.22322468 0.082047045 0.4629404 -0.10437932 0.8469213 0.6238897 0.18910427 -0.65418446 0.50561166 -0.06541557 0.32923684 0.18133907 0.27122417 0.6417607 -0.5308287 -0.4483684 0.087419115 -0.51262116 -0.38365015 -0.40982342 0.026723227 -0.22448881 -0.4746207 0.8237749 0.18741357 -0.041693114 -0.412749 -0.38278496 -0.17849068 -0.6220902 -0.5519271 0.36719647 -0.27361396 -0.50816727 -0.5008875 0.058038853 -0.17047238 0.16696216 0.2781446 -0.3409013 -0.02500753 -0.06706902 0.26570573 -0.07510323 0.6551842 0.602264 -0.05512836 -0.37776515 0.12653252 0.27219537 -0.42431188 -0.6335432 -0.43421677 0.05022978 -0.21918383 0.3412158 -0.20957975 0.10272627 -0.3459656 -0.4596126 0.37704378 -0.02808153 -0.550434 -0.06703768 -0.04877267 -0.29964092 0.16307394 0.27037463 -1.0574725 -0.020239534 0.58000284 -0.43672147 0.8557794 -0.29660502 0.5275533 -0.76451266 -0.05569428 -0.21474712 -0.10269749 -0.4915747 -0.28386307 -0.11785015 0.40849763 -0.040432047 0.09472617 -0.11127098 -1.3031893 0.28521624 -0.18061188 -0.03922819 0.19988905 0.36107326
found -0.36996463 0.15471414 -0.4951166 1.0173116 -0.5133445 -0.12754138 0.27726012 -0.053460408 0.85908407 -0.78938335 -0.09349367 -0.11884483 0.5251528 0.5092005 -0.17709708 -1.570676 0.7315673 -0.025432125 -0.09743041 0.32030138 0.083781816 0.5958474 -1.3622506 -0.5077025 0.7168336 -0.87300956 -0.95726883 0.62698144 0.33546543 -0.5499219 -0.77087647 0.0012439894 0.96291786 0.4654544 -0.19421434 0.52997077 0.17840604 0.7324796 0.35120222 -0.09205312 -2.4153938 -0.9552344 -2.0412302 -0.5646127 -1.6991078 1.0489005 0.60023445 -0.8563788 0.78651655 0.02549437 -0.58080655 0.7698176 -0.20607752 0.520976 -0.061047286 -0.7261199 0.69935864 -0.4227507 0.3353626 -0.8200667 -0.7048105 0.77589095 1.0260681 -0.8407171 1.4834698 -0.86450654 -0.037845314 -0.7637155 -0.06507771 -0.86126715 -0.35061175 -1.9037757 0.31244293 -0.33836418 1.2946627 0.82999647 -0.16454548 -0.14057218 0.7926526 0.43878734 0.23981616 0.34793654 0.8979082 0.3291561 1.4495928 -0.8726501 0.095672905 1.1801167 1.1649007 0.026225222 0.88619334 0.48676553 0.6605018 1.8515798 -1.3035899 0.8313332 0.13561864 0.3345142 -0.46152586 -0.37873444
disorders -0.3812776 0.43052465 0.05880883 0.1838807 -0.24945273 -0.14700128 0.05566905 0.36225846 0.22043118 -0.2610378 0.31342 -0.16052525 0.4949865 0.3499081 -0.026664082 -0.4528235 0.36167365 -0.23111495 0.095344245 0.12619977 -0.08824782 0.3215207 -0.32931212 -0.059041284 -0.044975925 -0.29551694 -0.4009794 0.06858296 -0.13188656 -0.29454258 -0.22496761 0.097116135 0.0013528242 -0.0894906 -0.22283652 -0.07407212 -0.018516215 -0.031180825 -0.12058308 -0.0636428 -0.63388497 -0.32962322 -0.25498608 -0.034233637 -0.27028954 -0.06423292 0.25723746 -0.25475422 0.054996952 0.15247792 0.0018937134 0.17025457 0.17339505 0.18646887 -0.027299682 -0.035587307 0.11008169 0.17174438 0.17544833 -0.3088006 -0.22174363 0.2621929 0.31372857 -0.17781872 0.37852266 -0.2354406 -0.21773784 -0.3809982 -0.21196586 -0.25777906 -0.4267871 -0.39068487 -0.10336828 -0.26160076 0.48318374 0.37866458 -0.26240593 -0.09163408 0.30744258 -0.24731469 0.42612702 -0.09551282 0.27475122 -0.09460524 0.3753187 -0.1988861 0.05670552 0.058157858 0.20288981 0.13351326 0.32389238 0.09277605 0.22270061 0.49212202 -0.42388484 0.16909449 -0.016467463 0.20010886 -0.032304086 0.0040226225
multiple -1.0290692 0.48364457 -0.13222305 0.040865563 -0.29093975 -0.18784569 -0.12727463 0.46097833 0.040902007 -0.033917464 0.42040822 -0.078039214 0.40770963 0.4852818 -0.124727994 -0.3094008 0.16264626 0.114401914 0.006733513 0.013006029 0.21825674 0.3365551 -0.24932237 -0.14906287 0.095646106 -0.18398488 -0.56253225 -0.18032357 -0.20978169 -0.10034438 -0.5520502 0.5592555 0.1014167 -0.0715409 -0.10336665 -0.21920522 -0.10618642 -0.37277377 -0.34958744 0.03840062 -0.37498978 -0.17516111 -0.1788054 -0.20799536 -0.40498465 0.1057125 0.2792112 -0.19171482 -0.1862501 0.26567158 0.26896393 0.0051867357 0.17955397 0.3718987 -0.06494122 -0.4180206 0.11301384 0.13697222 -0.21109258 -0.5129389 -0.4751388 0.30287153 -0.10694541 0.41141152 0.21745585 -0.01323384 -0.08632401 -0.22945482 0.19430588 -0.083109595 -0.40593526 -0.1548354 0.17450175 -0.22222297 0.29220998 0.5564878 -0.3202145 -0.066659674 0.11900978 -0.19076677 0.49373576 0.13917965 0.357296 -0.4644311 0.24746634 -0.033980016 -0.16953835 0.020059673 0.20819233 0.064559676 0.29811695 0.12116427 0.19035183 0.054037776 -0.5773386 0.13668573 -0.18062407 0.26666337 0.3769022 0.13288182
infection -0.4144793 0.39661074 -0.008826245 0.14407744 -0.24481593 -0.05237148 0.11720148 0.35092324 0.1698297 -0.25827205 0.2262752 -0.13046035 0.50032926 0.24670698 -0.008516209 -0.29586956 0.3377114 -0.07567497 0.07258181 -0.04001984 -0.1379423 0.2246266 -0.23119687 -0.13265695 0.08054373 -0.22560085 -0.4914071 -0.036751963 -0.23642832 -0.29310182 -0.3525193 0.11190824 -0.0030882475 -0.06888259 -0.21300761 -0.012185425 0.10727035 -0.04132827 -0.20287827 -0.064745516 -0.5606481 -0.2881995 -0.22434986 -0.10397238 -0.20701212 -0.033274207 0.20642719 -0.1725302 0.0319444 0.099524684 0.14721246 0.17299698 0.09991631 0.15899791 -0.003282086 -0.09223214 0.15484937 0.151715 0.17352264 -0.35976842 -0.2928 0.2811006 0.25432527 -0.0050439 0.38580438 -0.13735043 -0.091692306 -0.26655516 -0.10789372 -0.29175475 -0.27311444 -0.48198178 0.01312018 -0.20774321 0.38883963 0.42942932 -0.11436341 -0.09928575 0.23464017 -0.17480849 0.27638704 0.05357822 0.30894008 -0.10523112 0.23621146 -0.10798885 0.13193937 0.064030245 0.26062456 0.13414735 0.37027642 0.12397886 0.24816184 0.39562908 -0.4388864 0.10570574 -0.11052518 0.25420114 -0.026096191 0.113252945
vehicle -0.21464214 0.8306801 0.55431885 0.6237261 -0.07370224 -1.4630622 -0.7285025 0.15021303 0.502778 -0.044671033 0.19188729 -0.25527558 0.16729625 1.3755684 -0.9194508 -0.87241447 0.45405355 -1.1085927 -0.34859213 0.8896175 1.5820472 0.37263802 -0.38852638 0.33754212 -0.6571713 -1.036133 -0.7886154 1.0431397 0.033529177 -0.6235364 0.014417693 0.027431589 -0.23619094 -0.09295546 0.20288143 -0.48925823 -0.498734 0.17583475 0.93544817 -0.6038705 -0.8920167 -0.9057851 -0.6184059 0.4942084 -0.9699215 0.19152127 0.48826662 -1.5130613 0.85071295 0.8276424 -0.86728394 -0.328968 0.72621065 0.5567671 -0.03836436 -0.3823828 0.0060403603 -0.31247485 0.033816017 0.20704761 -0.03838837 0.69377285 0.45247728 -1.6028141 0.41914567 -0.70255613 -1.4477134 -0.48216867 -0.48301083 -0.29939613 -1.3802555 0.026690178 -0.79706204 -0.55342066 1.3413715 0.2297899 -0.70606863 -0.021577282 0.19921064 -1.102884 1.4838343 -0.42915088 0.25877377 0.28836903 1.5762333 -1.0719346 -0.48838037 0.26324642 0.03309331 -0.339522 0.16479458 0.090795726 0.03248172 0.8440583 -0.80165976 0.79678565 0.8954049 0.39864293 0.645684 -0.86668473
postpartum -0.23264284 1.3281751 0.3285165 -0.42065132 -0.561206 0.12675332 0.1679788 0.9780982 0.15105133 -0.5547942 0.62769675 -0.5370735 1.7147968 0.61618257 0.5776457 -0.2848637 0.8040634 -0.6006435 0.0082900105 -0.30907 -0.473851 0.574462 -0.12388426 -0.27471173 0.08651108 -0.25671956 -0.41707805 -0.5364336 -0.5768443 -0.46802104 -0.42224985 -0.19843203 -0.7163332 -0.38964376 -0.95277333 -0.15213154 0.32067037 -0.28712818 -0.71055603 -0.28970054 -0.8680433 -0.63071424 0.067149185 -0.10070079 0.49759516 -0.3455945 0.021337932 -0.032981236 -0.12403461 -0.52174264 0.44418535 0.24983174 0.3614216 0.31295824 -0.093244076 0.4835764 0.08800576 0.6936053 0.8131549 -0.5887927 -0.19967623 0.6854233 0.56146556 -0.17328581 0.26940778 -0.029043682 0.13095333 -0.16613151 -0.46762952 -0.48787674 -0.5129694 -0.7641718 -0.82879144 0.109732255 0.67879874 0.43600905 -0.050777774 -0.30960327 0.45389464 -0.68856484 0.34115487 -0.3931295 0.37586203 -0.47750682 -0.3782348 0.116393715 0.4035576 -0.07894379 0.14897656 -0.0043739835 0.78209704 0.12707321 0.3227578 0.5743899 -0.7146979 -0.11238405 -0.23042232 0.56651497 -0.18077314 0.42237392
applicable -0.66460186 0.95540947 -0.032258518 -0.24148999 -0.12985456 -0.18229449 0.48461387 0.2779893 -0.15219535 -0.2417619 1.1640382 -0.6043127 1.0597103 0.28659007 0.13266414 -0.30847096 0.4527255 -1.0971111 0.24288125 0.29525205 -0.34508377 -0.15603761 -0.1134661 -0.52767825 -0.3452921 -0.20927484 -0.527908 -0.34980515 -0.028559666 -0.13770695 -0.68262196 0.08728715 0.053054996 -0.4791167 -0.7846672 -0.09303 -0.12714395 -0.3539695 -0.29895872 -0.039189212 -0.5361205 -0.3387925 -0.2467732 -0.3710395 -0.05275223 -0.46631724 0.17276713 -0.336513 -0.39242122 0.00496447 -0.020739842 0.36586457 0.39951906 -0.06100699 0.27103713 1.0751314 -0.035679996 0.7420795 0.12391919 -0.40867895 0.01335733 0.64353675 0.47195378 0.35639206 0.64721483 -0.38700557 -0.3927807 -0.39522222 -0.82806355 0.26948136 -0.7996621 -0.7042845 -0.25725132 -0.50913 0.78684 0.18977855 0.004933931 -0.29980716 0.5947269 -0.56344587 1.1511108 -0.2079461 0.22267261 0.0028127283 0.0282129 -0.10827432 0.61514765 0.36154115 0.20076849 0.6361808 0.6797169 -0.576232 0.28459227 0.94619936 -0.32868055 0.46685597 -0.08904675 0.25312847 -0.10593674 0.11971123
pregnancy -0.18727113 1.0842607 0.2555164 -0.31767505 -0.48798314 0.051312137 0.27006587 0.7278853 0.15174271 -0.49647743 0.645283 -0.498984 1.4200675 0.4812638 0.4540294 -0.3479309 0.6132496 -0.7975156 0.035892874 -0.07883211 -0.46665725 0.39909482 -0.14034015 -0.21876553 -0.13993268 -0.1821747 -0.26151532 -0.3219281 -0.33742556 -0.3177428 -0.32673988 -0.2182502 -0.4466929 -0.3916141 -0.8323731 -0.15345496 0.14187391 -0.2237477 -0.467928 -0.18112981 -0.7328315 -0.4629499 0.010665288 -0.1359819 0.2919915 -0.43446806 0.08423321 -0.057534866 -0.14721031 -0.37071505 0.17876242 0.27357528 0.33221862 0.11260217 0.015832167 0.6558568 -0.01416482 0.622344 0.6643311 -0.4044523 -0.011655827 0.59181374 0.61261255 -0.17386611 0.37589982 -0.20131928 0.02452041 -0.2017842 -0.61359704 -0.2461046 -0.5315371 -0.6665454 -0.6759036 0.017747043 0.6905875 0.22160149 -0.031622525 -0.26619455 0.42434618 -0.5643449 0.449098 -0.43204096 0.27224797 -0.21983671 -0.13128246 -5.8632515e-05 0.36647353 0.08048568 0.14535314 0.13817698 0.5546266 -0.07894985 0.17238522 0.6819372 -0.44239914 0.01915038 -0.13412543 0.37373197 -0.24061675 0.24922173
upper -1.060598 0.34901965 -0.25942558 0.123393744 -0.30325842 -0.18682738 -0.12796207 0.39264667 0.21143161 0.044543967 0.45077422 -0.030201988 0.35237354 0.5535699 -0.15905556 -0.4245419 0.18317403 0.11302834 0.07329272 0.112042814 0.26303238 0.33873722 -0.41582066 -0.17444146 0.09954634 -0.2916888 -0.6533587 0.02384518 -0.11672995 -0.12819164 -0.56436044 0.6747612 0.19794281 -0.0315234 0.09284203 -0.31633958 -0.2378787 -0.3851752 -0.32663146 0.02882227 -0.53377366 -0.16054073 -0.27649373 -0.25577396 -0.6675108 0.19475289 0.41482842 -0.25435793 -0.20993719 0.34816656 0.17219566 -0.01161256 0.19819811 0.38765195 -0.11262322 -0.65460235 0.09232834 0.21684085 -0.22424918 -0.543563 -0.47312638 0.31859338 -0.09313394 0.3238832 0.30608863 -0.17534305 -0.1813635 -0.2622434 0.18920064 -0.10563653 -0.5297296 -0.14605927 0.28437334 -0.2903992 0.33011478 0.6534617 -0.5023377 0.09659781 0.16996782 -0.16487536 0.518358 0.18559335 0.44186014 -0.5305598 0.4761447 -0.06296672 -0.22667702 0.15167758 0.3310793 0.12491274 0.2334939 0.16086498 0.2132516 0.08849972 -0.6526127 0.13124938 -0.15585175 0.19561648 0.37786233 0.012296862
elsewhere -0.65285856 0.21024871 0.05550976 0.8079522 -0.4896726 -0.18378921 0.42545444 0.6918891 0.29303935 -0.44276276 0.41201398 0.18617354 0.7988155 -0.090795554 -0.20440802 -0.034173544 0.5826422 -0.14333534 0.03497905 -0.049304742 -0.4425901 0.2504665 -0.1850638 0.13579641 -0.11217017 0.098572865 -1.0478199 0.48936173 -0.43672517 -0.5214407 -0.5521547 -0.1268992 -0.060666315 -0.2709345 -0.10193622 -0.44018075 -0.05087886 -0.20914139 -0.024932943 0.06124487 -0.41068813 -0.07222179 0.16429101 0.1727651 -0.26595435 -0.7984789 0.8666186 -0.41749966 -0.05053252 0.62978405 -0.082136065 -0.01753767 0.19473183 -0.10084261 0.5031235 -0.46315926 0.17118883 0.10524527 0.49304676 -0.08528955 -0.44584754 0.23470932 0.69951934 -0.20751807 0.70540625 -0.50983304 -0.76775706 -0.6508094 -0.64019454 -0.71968 -0.47404674 -0.50277776 0.14839114 -0.5884355 0.5334348 0.41370326 -0.26649025 0.028101984 0.29107314 -0.17947091 0.6142953 0.24138123 0.31557354 0.26975313 0.900165 -0.38394034 0.003224178 -0.23289342 0.42188242 0.47939914 0.28773957 0.18894093 0.41682696 0.5239753 -0.33592054 0.16872454 -0.14694495 0.17342865 -0.499727 0.07063398
bacilli -0.17366269 -0.024725871 -0.48519844 0.9009353 -0.37609488 -0.1512208 0.25921738 -0.2048149 0.687527 -0.59635097 -0.17478877 0.007302061 0.30170295 0.41404486 -0.2566925 -1.3602594 0.60584414 0.05515521 -0.084582046 0.2960696 -0.013951609 0.43037882 -1.1325957 -0.47469193 0.67247117 -0.74183244 -0.80498576 0.63597906 0.27215812 -0.38775474 -0.55356395 0.035662342 0.8833419 0.36912104 -0.14036553 0.48231664 0.15791295 0.66324246 0.2402479 -0.11711554 -2.0330765 -0.7886555 -1.739583 -0.49651533 -1.4896268 0.98645914 0.48170367 -0.75095105 0.69577104 0.056965735 -0.543153 0.7004784 -0.22604378 0.42277718 -0.046845358 -0.5619973 0.63114244 -0.36605328 0.37524724 -0.77401567 -0.5562256 0.6128126 0.78741926 -0.74131393 1.3011684 -0.7458438 0.030043552 -0.6337476 -0.06388296 -0.6983437 -0.23862208 -1.5894674 0.2628219 -0.28578445 1.053088 0.63284546 -0.1172141 -0.052499436 0.642901 0.4553289 0.16645698 0.33395624 0.70547265 0.2957082 1.2034434 -0.73515093 -0.0036580383 1.0555983 0.9622815 0.09532423 0.7187127 0.44499308 0.5971794 1.5356109 -1.1140091 0.6809545 0.11361838 0.26284432 -0.34494987 -0.3083534
effects -1.2573717 0.25227287 0.29587835 1.4097738 -0.7284884 -0.1102136 0.015042354 0.48739696 0.8090377 -0.49726164 0.34874168 -0.7371791 0.32137275 0.66462684 -0.09978514 -1.2516967 0.29120967 -0.1752609 0.3560052 0.7776575 -0.6413851 0.85025513 -0.53931 0.6035535 -0.75079805 -0.97798115 -0.004071678 0.3189806 -0.26007864 -0.531108 0.01765497 0.044017956 -0.13928115 -0.022943145 -0.51570666 -0.15102458 -0.48673356 0.45644286 -0.12901098 -0.22464368 -0.9569534 -0.2230207 0.07938536 -0.014535873 -1.2796128 -0.3432199 0.72136796 -0.49855608 0.055985782 0.19635499 0.02939754 0.32927042 0.015882848 -0.024802314 0.032003626 -0.10487185 -0.39526182 0.43135542 0.5912262 -0.21243468 0.09868768 0.21016058 1.5126055 -0.62127185 0.7557525 -0.73369545 -0.5618175 -0.748494 -0.8405359 -0.6761574 -0.8035339 -0.014910356 0.5049699 -0.8090505 0.87405723 0.8836076 -0.75028116 -0.24056934 0.4794177 -0.5147041 0.37147552 -0.10970347 0.39906853 0.05107992 1.4318947 -0.47749737 -0.12920675 0.6949153 0.42306086 0.53314835 -0.35889286 -0.19050969 0.04687996 1.0317868 0.07274097 -0.32005355 0.010443018 -0.38923284 0.15569583 -0.71051943
tubercle 0.02735222 -0.19477038 -0.5600303 0.74964654 -0.34717616 0.03837528 0.33091044 -0.31547797 0.63578033 -0.5901528 -0.25216395 0.021209532 0.121406496 0.1621543 -0.18540087 -1.1295611 0.45146346 0.14973368 -0.18683378 0.20717856 0.026833974 0.27269238 -0.94664353 -0.37335876 0.6359873 -0.5498672 -0.6399151 0.5889212 0.3609376 -0.32100827 -0.45369014 -0.09535459 0.8175875 0.40625614 -0.037067246 0.4754009 0.22957584 0.6517241 0.3180385 -0.0639019 -1.7596997 -0.64522773 -1.5628033 -0.49953875 -1.267373 0.89429295 0.43297035 -0.5530478 0.6490073 0.01688393 -0.5115492 0.63959193 -0.23690186 0.30494967 -0.015609063 -0.49475703 0.5684058 -0.36338118 0.28273672 -0.5807417 -0.47138745 0.46637386 0.69305575 -0.676282 1.0959734 -0.634145 0.10652654 -0.47420874 0.048682306 -0.60233235 -0.07852124 -1.4289578 0.3145176 -0.16133098 0.8494953 0.48408383 0.018981153 0.00034566718 0.57538915 0.5741367 -0.03465771 0.35497347 0.6297791 0.31959268 1.0760456 -0.6073392 0.01999516 0.9784651 0.85642254 0.081090316 0.64607567 0.44894052 0.47402132 1.3698057 -0.8732231 0.6036143 0.04630302 0.1984007 -0.4542478 -0.33698338
bacteriological 0.08371745 -0.38295907 -0.5187639 0.8657126 -0.5494363 -0.23052165 0.54915446 -0.62965643 0.56321627 -0.48831275 -0.15592325 -0.0030459769 -0.0871567 0.34973177 -0.66633356 -1.5174719 0.66188776 0.33770478 -0.23791954 0.44102034 -0.31427577 0.15218729 -0.8075827 -0.4407438 0.3968097 -0.9224871 -0.8733686 0.94454473 0.10734587 -0.27502912 -0.0029823843 0.20031142 0.61785173 0.2043358 -0.13643034 0.35877326 0.38150775 0.6414155 -0.1961035 -0.3793006 -1.9278336 -0.9081063 -1.2738932 -0.41335934 -1.3373687 0.9140337 0.5831103 -0.6631034 0.77387327 0.4932823 -0.52144164 1.1098506 -0.019339575 0.15075003 0.07305442 -0.12708148 0.8621126 0.2078052 0.65832555 -1.0822053 -0.4375687 0.3974197 0.38186157 -1.0797805 1.2390434 -0.8438711 0.22446139 -0.78817296 -0.095558554 -0.53610545 -0.35792252 -1.1160018 0.2133794 -0.32180908 0.9357947 0.51806533 -0.22004743 0.0753226 0.7774864 0.031883597 0.43079397 0.08828094 0.84214723 0.0085686315 1.3064108 -0.55041456 -0.40388736 0.97216105 0.42801645 0.826444 0.8647821 0.94567263 0.5132963 1.5063081 -1.170639 0.45730543 -0.12249767 0.2637457 -0.19559154 -0.4381862
classified -0.2617503 0.27254367 -0.07072164 0.4972692 -0.1557542 -0.01845234 0.2179689 0.7396947 0.45115396 -0.22551164 0.24685507 -0.029260596 0.6292082 -0.3213277 -0.29487008 -0.112171575 0.5360603 -0.35851502 0.2115868 -0.17627782 -0.47119492 0.46824455 0.0027629992 0.0701869 -0.106320046 -0.07364684 -1.089985 0.62839895 -0.5873308 -0.72002596 -0.46420556 0.14681056 0.35365906 -0.1242765 0.01640302 -0.16978306 -0.12890428 -0.09863533 -0.0014351772 0.105967574 -0.54162836 -0.21634352 -0.16581216 -0.018598966 -0.30634832 -0.76802295 0.87377477 -0.22626607 -0.086869106 0.6999555 0.10199317 0.12427771 0.071928605 -0.009569539 0.41858265 -0.37878656 0.16716331 0.40232822 0.51470494 -0.22696659 -0.50138605 -0.089649275 0.7807523 -0.063472725 0.71979046 -0.29100907 -0.8596039 -0.8430762 -0.6437817 -0.77306485 -0.6941691 -0.66273236 0.37896428 -0.77352947 0.6044746 0.5295379 -0.21832857 0.12928745 0.24093549 -0.27831584 0.4673898 0.1084825 0.33559653 0.16828395 0.80723584 -0.5391642 0.3104502 -0.3090896 0.58963215 0.48144567 0.48110518 0.02605104 0.21653834 0.60401523 -0.37433216 0.032424908 -0.22138482 -0.068602 -0.49641928 -0.09038693
lower -1.0336403 0.3627502 -0.2604981 0.19670042 -0.3283342 -0.25321314 -0.15212424 0.41123557 0.25477073 0.01578956 0.4346829 0.028932769 0.3480002 0.55595493 -0.18779537 -0.44572175 0.22703668 0.089002125 0.063147895 0.1398761 0.28073877 0.3556241 -0.4329976 -0.16507155 0.091270246 -0.30517817 -0.69561845 0.15486024 -0.11451235 -0.15999748 -0.543649 0.6168244 0.21831533 0.0040663336 0.094502494 -0.3202797 -0.29669785 -0.34857532 -0.24086842 0.040312245 -0.5959824 -0.19973885 -0.32192218 -0.2232761 -0.7097871 0.17744935 0.47488034 -0.27758312 -0.20278083 0.4149804 0.06310447 -0.023071313 0.2018805 0.34973055 -0.07843983 -0.672749 0.10652856 0.2146903 -0.14475624 -0.5384926 -0.49435812 0.29556325 0.005247424 0.15099192 0.3536947 -0.20809592 -0.2451117 -0.33445898 0.15555152 -0.18391411 -0.60304886 -0.13653442 0.24788862 -0.3095331 0.38383314 0.634908 -0.5067733 0.13761766 0.23654708 -0.15489103 0.56630874 0.1908913 0.45732108 -0.50711215 0.5672057 -0.12445975 -0.26190713 0.16460618 0.32880288 0.18154451 0.2536398 0.15257962 0.20699245 0.18369342 -0.67872703 0.19472961 -0.14344509 0.15809143 0.30438668 -0.06654112
joint -0.6265484 0.18871199 -0.20840612 0.32193205 -0.2677063 -0.2226595 -0.048586816 0.35455266 0.24347149 -0.089408875 0.31778184 0.10083691 0.26670223 0.23805872 -0.2166065 -0.35105157 0.2866013 0.012573802 0.08284853 0.10179594 0.094845235 0.2589098 -0.35772303 -0.06650862 0.01514109 -0.16396548 -0.6440607 0.3400452 -0.13902225 -0.2014647 -0.39709175 0.3047021 0.22114679 0.053350903 0.058501203 -0.272871 -0.22979675 -0.15648188 -0.09307845 0.06688719 -0.52919155 -0.16239582 -0.29246435 -0.10501051 -0.5313157 -0.0320189 0.51061606 -0.28457248 -0.024177603 0.53008974 -0.06715512 0.03858549 0.17437163 0.22374123 0.11726997 -0.4705175 0.10028353 0.13533626 0.07902146 -0.318322 -0.42042118 0.13619685 0.2229916 -0.09107683 0.46940777 -0.27013442 -0.4389659 -0.48637876 -0.058167618 -0.29388356 -0.51404977 -0.22924829 0.20213313 -0.37978628 0.38431612 0.4812723 -0.32380858 0.15405576 0.29807565 -0.08750699 0.51825 0.11307131 0.329481 -0.19432704 0.6899962 -0.23420592 -0.17656235 0.07335199 0.2834181 0.30571616 0.2441848 0.16588166 0.25879386 0.40755573 -0.5158671 0.23177312 -0.049938273 0.07915745 -0.06500495 -0.113269836
motor -0.24216293 0.79383254 0.5006829 0.51627535 -0.04890427 -1.3677418 -0.66074395 0.17182653 0.43348673 -0.014370509 0.19612212 -0.23877624 0.16997959 1.2454832 -0.8063236 -0.7767804 0.39640653 -0.9798757 -0.29922584 0.8067939 1.435281 0.35537392 -0.37269312 0.29183742 -0.5814081 -0.95364904 -0.7156815 0.9430353 0.027636634 -0.518137 -0.022166802 0.05214239 -0.20687301 -0.11301509 0.15173562 -0.46209857 -0.4712048 0.13273191 0.8145091 -0.5445291 -0.83116746 -0.8422455 -0.5829302 0.39687178 -0.9000355 0.1610574 0.45335343 -1.3433725 0.77436787 0.69753313 -0.7614111 -0.27685246 0.6696914 0.49917486 -0.0631109 -0.3353512 -0.03129639 -0.30339214 -0.024721608 0.1402624 -0.054967932 0.66874605 0.3937929 -1.4418775 0.34955704 -0.6373317 -1.2795655 -0.42390624 -0.4353548 -0.20777768 -1.2632805 0.04261319 -0.7402781 -0.494617 1.1570376 0.23205195 -0.63785475 -0.073098704 0.21254656 -1.02564 1.3726258 -0.35286734 0.24148278 0.23966283 1.4200467 -0.91897553 -0.48686698 0.21077645 0.032708354 -0.2992642 0.16497122 0.059453875 0.03212426 0.7444875 -0.70422316 0.6986558 0.78652054 0.35707426 0.619261 -0.762643
causing -0.9665001 0.25554812 0.2708209 1.2040013 -0.6078272 -0.18110144 -0.011890217 0.41537777 0.74088943 -0.46683306 0.31237155 -0.6243896 0.31742156 0.6203906 -0.13464552 -1.1077094 0.3086786 -0.2531636 0.26746005 0.68683404 -0.47978672 0.7479853 -0.47174647 0.47396624 -0.6325527 -0.8926433 -0.06982697 0.3696565 -0.2287997 -0.4984386 0.026746634 -0.0041420823 -0.13854225 -0.035459843 -0.44491366 -0.15656802 -0.44178882 0.37453133 -0.04796997 -0.21533751 -0.90848327 -0.2598032 -0.0022345872 0.02416213 -1.1060538 -0.33325064 0.6566185 -0.5208095 0.1305446 0.21251376 -0.04402182 0.28794673 0.03762321 -0.0125589175 0.037783068 -0.070610926 -0.30654034 0.36277536 0.53591317 -0.1484352 0.08167423 0.21437882 1.3277931 -0.7098299 0.6680715 -0.668238 -0.59003645 -0.6725565 -0.7519034 -0.61740196 -0.7710544 -0.06014228 0.31506565 -0.67851406 0.82906646 0.71867883 -0.6398269 -0.19913052 0.425301 -0.5167179 0.40028587 -0.1720418 0.35120526 0.037568435 1.2949146 -0.45941234 -0.13980004 0.5980248 0.3217838 0.44866484 -0.22849199 -0.13580655 0.0843623 0.9545259 -0.01835086 -0.17710802 0.09424638 -0.30454373 0.1009134 -0.6623607
nodes -1.3138651 0.676305 -0.3631539 0.05871739 -0.54816467 -0.281604 -0.26073274 0.31056273 0.3480337 0.095369324 0.7698182 -0.24070908 0.38925293 0.9412189 -0.30214182 -0.6583903 -0.0035324711 -0.028135318 -0.39149362 0.23464876 0.53991246 0.46927106 -0.31879178 -0.008988707 -0.13515803 -0.05957564 -0.8356464 0.18265325 -0.15927167 0.016502986 -0.8004881 0.74254274 0.15672646 -0.101526044 -0.030025823 -0.5657369 -0.41231847 -0.39280185 -0.42574003 -0.08771187 -0.968925 -0.24943015 -0.30684146 -0.68865377 -1.2519869 0.24951893 0.5627079 -0.35642615 -0.46897298 0.6003449 0.11116115 -0.009902912 0.10410909 0.49450424 -0.2354796 -0.87293833 0.11849278 0.20514809 -0.15469813 -0.6440369 -0.55671805 0.5305558 0.057529062 0.24876577 0.5114309 -0.17650177 -0.117013745 -0.012918754 0.19275762 -0.10010847 -0.794351 -0.22479174 0.16773722 -0.16345236 0.5913703 0.75516087 -0.43383935 -0.050504494 -0.17748046 -0.41953778 0.7171387 0.1671722 0.48783085 -0.7764452 0.8208387 0.08236948 -0.63762885 0.5651022 0.46436217 0.045278784 0.16779524 0.15259978 0.33579358 0.16409159 -0.54873455 0.19253777 -0.13739362 0.14222309 0.5531965 -0.31819656
diseases -0.36871418 0.29809695 -0.006784359 0.37486362 -0.30452275 -0.101444945 0.16489808 0.49011517 0.30152804 -0.30889648 0.27788535 0.007453739 0.58088416 0.10595465 -0.09128428 -0.26851702 0.44149843 -0.20415418 0.063291 0.012887849 -0.19073056 0.33030617 -0.26072156 -0.0033530437 0.0057695024 -0.108805716 -0.6639681 0.29899815 -0.23145941 -0.3972296 -0.36110532 0.012623212 0.11555428 -0.09425038 -0.119275585 -0.17569642 -0.0647851 -0.05437072 -0.037928794 0.03257095 -0.59080094 -0.2231526 -0.19857812 -0.007555049 -0.30903664 -0.31968114 0.5173795 -0.29189384 0.01743581 0.35075507 -0.08447066 0.115862355 0.14130452 0.11635426 0.18456268 -0.2563523 0.16908321 0.13175708 0.31268355 -0.22256058 -0.3581159 0.19150423 0.48237783 -0.2214604 0.5276378 -0.32576138 -0.43605214 -0.4959944 -0.35625824 -0.4727914 -0.44380257 -0.49646077 0.05488115 -0.37452394 0.49240577 0.37601078 -0.2332271 0.008898935 0.3013426 -0.137167 0.41977867 0.03586 0.3028029 0.048286896 0.59970355 -0.31612357 0.08168584 -0.032610785 0.33067197 0.2339676 0.3195689 0.113024384 0.25780725 0.53191394 -0.42441463 0.18479618 -0.07619378 0.12374814 -0.3079389 0.0018295111
history 0.02788092 0.3464386 0.12919115 0.25239602 -0.22620957 0.037146807 0.14625677 0.5453757 0.19786115 -0.27312812 0.45224008 0.11467727 0.19080871 0.15515712 -0.09245686 -0.49533394 0.4136537 -0.32088825 -0.0044243694 0.2635112 -0.029503902 0.50755346 -0.6016153 0.1471577 -0.0634093 -0.25509807 -0.46299946 0.17894614 0.13282606 -0.18126737 0.27932706 0.14056446 0.2769477 -0.047422957 -0.05695382 -0.21532616 -0.28784102 0.07972476 -0.0063450965 0.17657566 -0.56354606 -0.12858294 -0.37704512 0.11022567 -0.20652752 -0.16885449 0.42473978 -0.2778919 -0.09152687 0.38383824 -0.42373982 0.20396557 0.15584251 0.20717847 -0.22352126 -0.13091993 0.06596205 0.031192282 0.21714267 -0.3256817 -0.09822937 0.16281866 0.3967319 -0.35655668 0.5653923 -0.39797443 -0.22274311 -0.6245381 -0.312188 -0.2787289 -0.5978395 -0.21955143 -0.17591757 -0.30326703 0.5026881 0.19592704 -0.49225584 0.04217343 0.31723586 0.04799499 0.62818986 -0.30596137 0.069390625 -0.11546495 0.67880154 -0.11089402 0.014377196 -0.05785111 0.15379508 0.2919413 0.1297555 0.10685975 0.3182753 0.4563728 -0.2790568 0.22726567 -0.0038078045 0.06667499 -0.27715817 0.100592166
type -0.54279715 0.70348907 0.1499521 0.1328761 -0.19750138 -0.36079293 -0.14244667 0.42630255 0.24073564 -0.29018325 0.3719429 -0.39229172 0.4039584 0.50326073 0.07174314 -0.52619886 0.14209352 -0.5263021 0.11128684 0.23256181 -0.08134085 0.40870377 -0.3601157 0.05703253 -0.28400916 -0.3503618 -0.24881898 0.09498423 -0.31120315 -0.41323897 -0.17855953 0.05214313 -0.26105785 -0.16146232 -0.27712345 -0.14229922 -0.0616341 0.0014574429 0.003002935 -0.31671998 -0.6531826 -0.43051434 -0.0433273 -0.053352766 -0.32691908 -0.06820177 0.16590782 -0.1821131 0.032655098 0.18429732 0.3281467 0.0013589241 0.14165765 0.13750981 -0.11351796 0.06609443 0.054864038 0.18199448 0.11182857 -0.22779037 -0.08134489 0.31020212 0.2786297 -0.1927956 0.2751981 -0.18944232 -0.31345877 -0.386146 -0.27229768 -0.24147747 -0.5245053 -0.17941974 -0.25285453 -0.27792558 0.56456083 0.4758835 -0.3776472 -0.21023948 0.090971656 -0.6798222 0.50818175 -0.1796078 0.14459394 0.06522446 0.32608402 -0.10309394 0.11159122 -0.043645408 0.049482986 -0.0146044055 0.21425956 0.056916352 0.2441292 0.4712048 -0.27878362 0.13107093 0.14065206 0.21142027 0.1974388 -0.2048139
lymph -1.3209785 0.7997128 -0.3051719 0.0988156 -0.5244062 -0.21300958 -0.24732642 0.28762636 0.3559666 0.1420373 0.831245 -0.30991638 0.54436386 0.9970212 -0.48905572 -0.64578867 -0.09988915 0.012258806 -0.380703 0.23264086 0.5326279 0.5094548 -0.3112831 0.073033765 -0.16345653 -0.069073424 -0.6793835 0.114823 -0.22104988 -0.007841659 -0.8040291 0.8409988 0.19744049 -0.06848283 0.0820367 -0.5364049 -0.5173287 -0.37300506 -0.30433986 -0.013678466 -0.84458184 -0.11540353 -0.2885816 -0.69407105 -1.2230041 0.1842474 0.50638264 -0.46918553 -0.5159967 0.6338098 0.3315824 0.06342178 0.0652162 0.41801655 -0.2890899 -0.76677203 -0.08417205 0.2698558 -0.16040142 -0.50820756 -0.5983049 0.5052592 -0.018106649 0.38617522 0.6837305 -0.30520937 0.015069489 0.036983885 0.1877968 -0.0028379303 -0.7028568 -0.10898555 0.09304215 -0.11632985 0.5974566 0.76204324 -0.5374494 0.026596311 -0.15983261 -0.52527565 0.7415826 0.25558186 0.59927523 -0.57433754 0.8507234 0.013391643 -0.63956267 0.6359032 0.41183385 -0.009940917 0.2756976 0.099203214 0.14034572 0.10110128 -0.52385724 0.23813678 -0.21485026 0.17002916 0.75122136 -0.3037347
level -0.5060377 0.47390804 0.43359515 -0.33786055 -0.08174701 -0.35721907 0.23810008 0.38060352 0.069570504 -0.21978705 0.33549255 -0.33845687 0.37305146 0.7138863 -0.16488962 -0.9901531 0.035241574 -0.39980704 0.33177024 0.11852312 -0.2707924 0.57140577 -0.5913646 -0.32301682 -0.062349003 -0.5517301 -0.3738242 -0.12264027 0.06496713 -0.6098337 -0.17291531 0.74904954 0.392812 -0.17187576 -0.066203974 0.596019 0.7125768 0.0027942501 -0.055291105 0.06638972 -0.9637113 -0.7330442 -0.6919556 0.026697839 -0.3582967 0.02330148 -0.20995347 -0.35455155 0.14005387 -0.19119531 -0.0054930933 0.58621603 0.085143834 0.40002063 -0.66689354 -0.34707838 0.18342723 0.01766664 -0.40272757 -0.6923091 -0.51700026 0.40593943 -0.31994632 0.52578396 0.24752049 -0.06466659 0.18409735 -0.4931375 0.012232305 0.2854831 -0.11573757 -0.76196057 -0.037768982 0.058468647 0.481789 0.47996432 -1.0016679 -0.656867 0.29205242 -0.360906 0.36537105 -0.5664092 0.5167971 0.016596083 -0.08210786 -0.24408986 0.24953662 -0.20104721 0.4213898 -0.80192196 0.62579757 0.05768698 0.058549296 0.23965703 -0.44118127 0.15303664 -0.047536988 0.17533831 0.46130508 0.51249707
region -0.94067186 0.4496283 -0.12684448 0.18453982 -0.3470761 -0.27489015 -0.06612844 0.43873578 0.2511686 -0.048147984 0.46727884 -0.04833285 0.42920592 0.51292664 -0.16844328 -0.45614937 0.2583762 -0.038857732 0.024151046 0.14041284 0.18745561 0.3690135 -0.41469386 -0.13348989 0.0040585985 -0.28006306 -0.72223747 0.17630391 -0.18599632 -0.23576473 -0.5228201 0.4685719 0.17135543 0.03694943 0.0037705644 -0.3145127 -0.24814115 -0.21502939 -0.22770984 0.07562035 -0.7101401 -0.24231377 -0.32899436 -0.22562285 -0.628887 0.061258994 0.5010146 -0.3191134 -0.10904916 0.44625047 0.083320774 0.041533113 0.2506321 0.29376575 -0.0631298 -0.49454245 0.083719686 0.17478827 -0.0010933339 -0.41034985 -0.47277087 0.30115938 0.15633026 0.06550878 0.51539314 -0.2353749 -0.33506718 -0.3959328 0.013845675 -0.24707581 -0.6320679 -0.26785564 0.16905157 -0.34124678 0.4704602 0.6038356 -0.4487272 0.060651332 0.27943903 -0.2207495 0.60896593 0.10032904 0.4629428 -0.40824303 0.6509293 -0.15128234 -0.22403327 0.17160714 0.32739082 0.19085012 0.2888658 0.16750172 0.26926064 0.3417704 -0.6031892 0.1968604 -0.07989688 0.11522871 0.17597044 -0.053508066
third -2.4730878 1.0839115 0.4489233 0.022725446 -0.31134742 -0.6247704 -0.7523814 1.128128 -0.39882007 0.18050389 0.5504677 -0.09452311 1.2359605 0.65285134 0.48024914 -0.9286479 0.6948439 -0.0132452035 0.5649277 0.19846532 0.25433496 0.9203163 -0.7499595 -0.7907381 0.26274002 -0.6566522 -0.2800407 -0.68989426 0.23832467 -0.21529032 -0.594821 1.1691461 0.3590756 0.014195326 -0.6599681 -0.47648895 -0.1803446 -0.91539246 -0.9023685 0.69940156 -0.23678188 -0.6729743 -0.7903742 0.15148374 -0.061010525 0.2607485 0.27486306 -0.36348483 -0.03776982 -0.29431486 0.38911602 -0.043777447 0.99391365 0.75699455 -0.02576882 -0.5497403 0.22406991 0.39628673 -0.668088 -0.92197436 -0.54732156 -0.1005452 -0.36114013 0.63699126 -0.49498308 0.28269765 -0.33259735 -0.68771267 0.6569951 0.06894978 -0.6091613 -0.01856564 -0.056080412 -0.33386636 -0.011536124 0.09704768 -1.6154226 0.02221712 0.96363723 -0.38814953 1.1059391 -0.4620749 0.7133382 -1.0991118 -0.3451865 -0.19681855 -0.08592148 -0.82678145 -0.55912614 -0.21430394 0.54226303 -0.044456568 -0.005347161 -0.2218765 -1.9119587 0.3381397 -0.2923125 -0.26845148 0.08291861 0.6239804
limb -1.164466 0.39184022 -0.2789011 0.11201531 -0.30189672 -0.21447583 -0.26384076 0.4294343 0.19951548 0.1816453 0.4499407 0.05302758 0.24675107 0.53766286 -0.24478932 -0.32843357 0.07831553 0.15583986 -0.043523796 0.10247839 0.39152494 0.37565896 -0.31790283 -0.17778595 0.024305971 -0.07317316 -0.5794197 0.09150286 -0.1462826 -0.08061389 -0.57338214 0.71418625 0.2700013 0.07856936 0.10024261 -0.36779696 -0.31734726 -0.40845108 -0.28006718 0.124783166 -0.40636533 -0.07929945 -0.20723377 -0.31377253 -0.714235 0.09772755 0.50537616 -0.1952031 -0.33222342 0.5172594 0.09186287 -0.035873108 0.19944242 0.34970742 -0.07845146 -0.7479209 -0.02781103 0.16946974 -0.24600112 -0.4929241 -0.54177237 0.156624 -0.04718893 0.32222283 0.2914634 -0.11323262 -0.20096107 -0.2503773 0.24236241 -0.02086206 -0.54968375 0.03620293 0.29969314 -0.1948971 0.21622413 0.58167267 -0.57515633 0.12688223 0.17535637 -0.1493688 0.51508534 0.16384226 0.41477785 -0.6386256 0.53548515 -0.044469785 -0.41266578 0.16410224 0.27641195 0.084994964 0.07182189 0.08128564 0.15892382 0.032897197 -0.5493902 0.08557662 -0.17298749 -0.015929295 0.30567786 -0.104555294
deep -2.2847235 1.0148342 0.41724357 0.16842505 -0.45181748 -0.6015288 -0.66504794 1.1446922 -0.19613588 0.090023816 0.52549195 -0.043523822 1.4337604 0.38662785 0.6215229 -0.9994902 0.739968 -0.20482533 0.64984465 0.26641053 0.0351927 0.84210026 -0.80409056 -0.7881397 0.22272763 -0.48860544 -0.052631486 -0.5271008 0.2771427 -0.16147573 -0.37757033 0.83471817 0.28953198 0.03648027 -0.755717 -0.50498796 -0.24185374 -0.78528893 -0.83869356 0.7396779 -0.40681633 -0.62350535 -0.749298 0.27507126 -0.20425665 0.09835669 0.28422335 -0.35853365 0.0014904195 -0.20475984 0.20949681 -0.0102671515 1.0730066 0.546322 0.077143125 -0.5835876 0.2815662 0.4948291 -0.30298278 -0.8203116 -0.31545544 -0.14569055 0.07213295 0.19269368 -0.45900282 0.13029979 -0.29661438 -0.73775476 0.4811204 -0.2083093 -0.69634145 0.025645142 -0.1845705 -0.3774994 0.02722289 -0.048752856 -1.538838 0.14102504 1.1364732 -0.32607266 1.0720344 -0.5429111 0.57800436 -0.97840255 -0.14216146 -0.23839079 -0.105696894 -0.59778404 -0.62783885 -0.025381047 0.4608177 0.10738725 0.01882077 0.05341317 -1.878046 0.27251232 -0.25482282 -0.43721026 -0.41792712 0.40747982
use -1.2520005 0.32293692 0.28400075 1.3153111 -0.7077005 -0.15706874 0.013671833 0.5105813 0.79011494 -0.51506037 0.42289892 -0.73425066 0.43467808 0.7316882 -0.11772031 -1.2956891 0.36088237 -0.20869514 0.33300227 0.74799013 -0.55652654 0.84484315 -0.5612682 0.5049486 -0.65526277 -0.99027056 -0.08407279 0.30747482 -0.2862532 -0.5506651 -0.06762116 0.120811805 -0.11783093 -0.06483197 -0.5235199 -0.1740036 -0.45020112 0.3873569 -0.15725154 -0.23361398 -1.0150644 -0.29025063 -0.048395418 -0.04314268 -1.2718081 -0.3057158 0.6887602 -0.53171676 0.09598524 0.18824175 0.028149942 0.34981126 0.051176973 0.024466025 0.0044179107 -0.145263 -0.31307712 0.45752883 0.5217003 -0.26718453 0.01690051 0.27676153 1.4107412 -0.60816073 0.7642309 -0.67567915 -0.5680948 -0.7474256 -0.7795349 -0.658466 -0.8510296 -0.097378366 0.43140525 -0.7640777 0.89247423 0.8588669 -0.7645669 -0.26288956 0.5020079 -0.5219986 0.45134407 -0.15747952 0.4735146 -0.023692546 1.377734 -0.49102315 -0.12661342 0.68051577 0.41549343 0.49878162 -0.2396082 -0.17471308 0.102408685 1.0417334 -0.08341865 -0.21490505 0.0077992505 -0.33788478 0.16910553 -0.65179056
associated -0.35911167 0.64882535 0.051276665 0.12050918 -0.36655828 -0.088935934 0.09591723 0.55801547 0.3161064 -0.34135398 0.40766427 -0.15789786 0.8646119 0.35615808 0.11959248 -0.38161084 0.53985614 -0.40060234 0.06604449 0.055338137 -0.12259039 0.40285566 -0.3191129 -0.10574892 -0.025335098 -0.19807272 -0.45850563 0.0960574 -0.21270274 -0.29919317 -0.33604246 -0.05488837 -0.08334731 -0.094388574 -0.35887268 -0.21821189 -0.11431505 -0.1108748 -0.16670659 -0.018528556 -0.7525367 -0.35253966 -0.21650483 -0.07019886 -0.16985363 -0.24449983 0.3879659 -0.24612534 -0.021146141 0.080993585 -0.047250926 0.107084855 0.24118161 0.19662143 0.09368266 0.045841016 0.090137355 0.2881678 0.44566703 -0.30954868 -0.25108582 0.31007898 0.5599906 -0.3063963 0.4610012 -0.3107986 -0.28675583 -0.3860957 -0.3516659 -0.368261 -0.56168014 -0.49623457 -0.2470256 -0.20886697 0.5877281 0.36806044 -0.19148216 -0.06697748 0.3808327 -0.28603548 0.42416716 -0.124880455 0.32462507 -0.15996067 0.41041076 -0.18294612 0.10932303 0.09741297 0.25098258 0.18161853 0.36495656 0.0616318 0.25256467 0.6385944 -0.4891917 0.1551112 -0.016450515 0.19747102 -0.28019038 -0.0033749137
burn -1.574087 0.8005053 0.24597247 0.15161547 -0.2154424 -0.52520394 -0.46771047 0.6499694 -0.14032699 0.086481266 0.45453277 -0.13149543 0.6888235 0.6682818 0.016980467 -0.65908754 0.45065612 -0.07158716 0.22744472 0.25498182 0.42163643 0.53867656 -0.51302314 -0.34876207 0.057781465 -0.5921216 -0.49383193 -0.2774939 0.038811784 -0.2020905 -0.52529377 0.7623608 0.18070515 -0.025100254 -0.31961825 -0.37438965 -0.2100451 -0.5524347 -0.43380353 0.24659558 -0.3143709 -0.51474714 -0.5063396 0.021754261 -0.30460158 0.22031556 0.30687633 -0.43974978 0.0030597628 0.039210726 0.21532944 -0.07224777 0.56509143 0.5839409 -0.02324911 -0.3736033 0.12962882 0.18425071 -0.41455513 -0.55599743 -0.42829847 0.17494641 -0.17343046 0.26630095 -0.08210737 0.0034641454 -0.41016164 -0.44712824 0.2936002 -0.044457953 -0.61839634 -0.07474368 -0.02270172 -0.34858274 0.2914161 0.34560746 -0.94093704 -0.010980049 0.4928082 -0.45616454 0.9043425 -0.19064456 0.51182383 -0.6371065 0.12628686 -0.27227867 -0.15642703 -0.3558309 -0.17767937 -0.06654105 0.40645447 -0.043520123 0.06777322 0.0004922591 -1.1891129 0.3425821 -0.10247364 0.05885976 0.32945478 0.21571998
syndrome -0.48498115 0.43659896 0.112534024 0.110876 -0.23724751 -0.20167659 0.06411897 0.33403695 0.18986197 -0.22592902 0.3116174 -0.20079944 0.4181516 0.45216724 -0.07801358 -0.54343736 0.2507742 -0.20754139 0.12438705 0.13751058 -0.05817092 0.33207807 -0.3567033 -0.100046 -0.058911826 -0.36517215 -0.41084015 0.03415907 -0.104713194 -0.31761074 -0.23692161 0.26250753 0.07506668 -0.08701918 -0.15897205 0.037244666 0.08800097 -0.028642192 -0.113808244 -0.057399254 -0.6609708 -0.37415713 -0.32100666 -0.060254835 -0.3783956 0.0070275916 0.1488325 -0.29308397 0.049717225 0.1293881 0.039252907 0.21967998 0.12109843 0.24282038 -0.16684844 -0.16163307 0.100789905 0.12630823 0.03183664 -0.38748276 -0.27902856 0.31919768 0.16292354 -0.009542465 0.341915 -0.1998324 -0.12277805 -0.34615916 -0.115762316 -0.14072172 -0.3801349 -0.4026317 -0.038048822 -0.20833257 0.45778707 0.46080762 -0.3942808 -0.18882565 0.26758564 -0.27918404 0.41358534 -0.13136518 0.3303586 -0.113533854 0.31966788 -0.18205433 0.043443676 0.07271422 0.25648963 -0.022936773 0.34041527 0.08493276 0.16358474 0.4002122 -0.40838724 0.13837707 -0.019387025 0.18132214 0.13530229 0.06472129
hours -1.7480755 1.2333103 0.72204316 -0.5519484 -0.1894971 -0.4665213 0.10150371 0.80893695 -0.3698757 -0.26462427 0.5761777 -0.87973756 0.8322363 1.3060023 -0.058105547 -1.060053 0.07956418 -0.16353488 0.35836226 -0.08604895 -0.17459165 0.6723584 -0.51607615 -0.44912532 0.04980295 -1.0776373 -0.79555863 -1.1120616 -0.45744583 -0.869461 -0.73512346 1.2202295 0.09056241 -0.5672277 -0.5142267 0.7496569 1.0779759 -0.2427877 -0.7135635 -0.17308843 -0.81153846 -1.0499382 -0.7351782 -0.19173741 -0.09001062 0.45721772 -0.6168267 -0.32887247 0.027180308 -0.5355405 0.9599861 0.5950908 0.28625107 0.8022179 -0.7294053 -0.13234878 0.2981643 0.14916305 -0.91645014 -1.2655915 -0.7900336 0.9542416 -0.6322457 1.4093711 0.05279486 0.31514266 0.51916903 -0.22212271 0.3026105 0.4236534 -0.10599123 -1.0225991 0.11604789 -0.10260264 0.48855138 0.91009855 -0.9776978 -1.1517748 0.21312888 -0.9948752 0.7593802 -0.45230004 0.82970184 -0.44658923 -0.7754838 -0.06777161 0.60707915 -0.4676937 0.3632027 -0.8754064 0.97872263 -0.10755839 0.057184156 -0.040951002 -0.9182903 0.17067067 -0.3617967 0.55383116 1.4512138 1.0828731
histological -0.052631546 -0.34279117 -0.45785126 0.77031106 -0.51920795 -0.2673357 0.5563807 -0.5868709 0.5206316 -0.47196904 -0.01640666 -0.09374982 -0.08875371 0.48038322 -0.7122383 -1.4854311 0.71711695 0.27445546 -0.14765997 0.44921133 -0.46272734 0.18521504 -0.6691478 -0.44189364 0.29282618 -0.9840834 -0.87335336 0.8908146 -0.043645866 -0.23568587 0.007892631 0.32630026 0.4128355 0.02925863 -0.24370271 0.29086578 0.30069306 0.5471948 -0.4171045 -0.47152424 -1.8440635 -0.87131023 -1.0337809 -0.2553942 -1.2726183 0.71707886 0.58551764 -0.6423933 0.71545607 0.5665485 -0.465953 1.0591892 0.06714019 0.16765167 0.057985395 -0.058910504 0.83100593 0.36230052 0.6049477 -1.0864041 -0.39664516 0.4731948 0.2882524 -1.0020753 1.0783099 -0.7639264 0.18676455 -0.90870184 -0.19242649 -0.47582483 -0.5282079 -0.87717336 0.1743873 -0.35880563 0.97121507 0.58513325 -0.3145062 -0.005282482 0.74577343 -0.14234318 0.56662947 0.029787356 0.8119228 -0.0695709 1.2192295 -0.52501607 -0.48459068 0.8269072 0.25521034 0.93561506 0.93142813 0.97404927 0.44871202 1.4294684 -1.1520991 0.33019993 -0.19760369 0.26775774 -0.0670585 -0.41330162
part -1.4067222 0.5566023 0.106450945 -0.05958465 -0.17358932 -0.26149336 -0.34919426 0.575646 -0.21921657 0.0960106 0.34999534 -0.0757846 0.5512412 0.4169901 0.15582034 -0.40671137 0.26358083 0.14760299 0.24566683 0.020187214 0.18176442 0.38819203 -0.37747085 -0.37859544 0.19543445 -0.3382088 -0.28309318 -0.44283938 -0.0050056246 -0.071559206 -0.46818477 0.72693956 0.16046958 -0.027813094 -0.2551858 -0.23484664 -0.053871267 -0.51658165 -0.5317905 0.2776715 -0.10262038 -0.3098713 -0.3494235 -0.04481398 -0.11740151 0.23317699 0.11462348 -0.14901368 -0.12014951 -0.05995159 0.35414892 -0.01656769 0.42642954 0.477114 -0.078650005 -0.36796176 0.13994251 0.20131247 -0.4344383 -0.570231 -0.3727379 0.07944605 -0.30270177 0.54268867 -0.21360138 0.17754611 -0.08205593 -0.2632531 0.4113057 0.045262314 -0.3099668 -0.0557294 0.10573713 -0.15436806 -0.004697959 0.27701753 -0.72689897 -0.031472728 0.36720103 -0.19890448 0.567219 -0.086802244 0.41254207 -0.6425754 -0.18509145 -0.04811297 -0.053425364 -0.34708533 -0.14300226 -0.07519167 0.2935469 0.006781385 0.038786784 -0.19656761 -0.93129355 0.14427435 -0.23234393 0.0135707725 0.2593223 0.36976084
adverse -1.2198472 0.17930803 0.32574716 1.4843062 -0.744133 -0.052536417 0.033961475 0.46358454 0.88143927 -0.5329231 0.34436566 -0.7422201 0.3293893 0.6434452 -0.10294363 -1.2894809 0.35625753 -0.16676767 0.36891988 0.810064 -0.6912003 0.86706394 -0.4738767 0.61261004 -0.7167079 -0.9906504 0.035174202 0.4289707 -0.27508432 -0.55452156 0.008215332 0.019838916 -0.109079316 -0.006502754 -0.4968316 -0.14707312 -0.50589615 0.47036505 -0.12298026 -0.20833117 -0.97905976 -0.23485246 0.062858626 -0.02523437 -1.336021 -0.38777748 0.73205686 -0.52537555 0.081412874 0.19707066 0.021964733 0.36101922 -0.032995332 -0.08979464 0.058078714 -0.15991142 -0.40151474 0.47440043 0.6256757 -0.18282208 0.076598495 0.15586014 1.5853902 -0.7166148 0.7519833 -0.70196056 -0.57634073 -0.78010267 -0.876312 -0.71810734 -0.80308366 -0.017375851 0.5422127 -0.8014191 0.8570222 0.8444918 -0.7428629 -0.24475947 0.4907149 -0.4683395 0.30840808 -0.12467057 0.43560588 0.054503884 1.4588127 -0.5015805 -0.17575887 0.7596722 0.4276701 0.53661305 -0.3733573 -0.2420142 0.08195431 1.0762752 0.06569998 -0.30618376 0.0075368574 -0.47888824 0.07306145 -0.757621
accidental -0.4349351 0.33461735 0.117520645 0.43798897 -0.23291893 -0.28329796 0.045180805 0.2875154 0.31550893 -0.27406704 0.2421983 -0.20005213 0.3472124 0.34994522 -0.22320904 -0.5927323 0.27790645 -0.26170754 0.060520925 0.26735237 -0.061560813 0.3526892 -0.38592458 0.053089365 -0.21461216 -0.40404606 -0.45100796 0.27000543 -0.121389546 -0.37717307 -0.17388244 0.11914043 0.063225515 -0.04784299 -0.14428128 -0.03118912 -0.12468408 0.056462437 -0.01216312 -0.08000731 -0.7178864 -0.37342912 -0.25217098 0.006959323 -0.5227277 -0.07004052 0.38355935 -0.3570875 0.16023299 0.34319565 -0.12249519 0.14361644 0.15325864 0.11441618 -0.053416803 -0.15597585 0.04579738 0.09498485 0.17495286 -0.2226834 -0.18247382 0.24069016 0.4725039 -0.34016547 0.45955288 -0.36183757 -0.4253535 -0.46431506 -0.313847 -0.27921954 -0.5459966 -0.34620643 0.015579453 -0.37137178 0.5662788 0.48296368 -0.3356056 -0.07961441 0.2582501 -0.29735488 0.50536036 -0.09921908 0.23813808 0.018336415 0.67953384 -0.2928416 -0.039665055 0.10424008 0.25379276 0.14758676 0.21544942 0.066466615 0.18770477 0.54233456 -0.39766234 0.193531 0.07579769 0.13898647 0.0010668108 -0.20556858
therapeutic -1.3770087 0.2793144 0.3485716 1.490436 -0.81734866 -0.10348484 0.010269681 0.56434155 0.8893117 -0.5696039 0.39702508 -0.79341406 0.40337795 0.76349705 -0.09649418 -1.3540704 0.36884424 -0.22400814 0.40238592 0.8079729 -0.7288966 0.94401973 -0.5333357 0.5652868 -0.7196655 -1.1134835 -0.048725065 0.3560331 -0.2933204 -0.5739362 -0.03615487 0.064025864 -0.106714696 -0.0103604905 -0.5633172 -0.13935055 -0.47320274 0.44357693 -0.20740692 -0.19292577 -1.0789946 -0.33572295 0.04389796 -0.053327553 -1.3549576 -0.35474214 0.7766968 -0.60201627 0.06554938 0.18358316 0.08118944 0.41237324 0.001063217 0.0044042957 0.053107288 -0.1139642 -0.41625258 0.5257845 0.6411347 -0.27227393 0.059989557 0.26076123 1.6167713 -0.6989663 0.76469517 -0.76934034 -0.5728725 -0.8297244 -0.8804719 -0.75473857 -0.8702784 -0.09001131 0.53624266 -0.8299498 0.93122506 0.9304183 -0.8193575 -0.27534425 0.534944 -0.5812198 0.41522592 -0.17564705 0.48000446 -0.032461308 1.4742254 -0.50550866 -0.15927939 0.7650226 0.40877196 0.54922193 -0.27793825 -0.22657424 0.09110965 1.1304345 -0.049382035 -0.29575568 0.022437384 -0.42794448 0.14636804 -0.7324088
cerebral -1.3274331 1.0002424 0.23732509 -0.063465334 -0.25553137 -0.20322466 -0.0022143507 0.56133753 -0.12831806 -0.24288467 0.5686437 -0.62337065 0.69677866 0.865482 -0.131164 -0.476494 0.18071976 0.07534517 0.1507629 0.02408567 0.116623804 0.19781902 -0.24795753 -0.20573519 0.10107412 -0.6981796 -0.6595292 -0.8161403 -0.582579 -0.4295091 -0.72164273 0.6778839 -0.23987207 -0.3459565 -0.35832694 0.15826751 0.5184361 -0.21715647 -0.5902484 -0.36395568 -0.41930032 -0.6259307 -0.24450338 -0.26251715 -0.24802119 0.52960104 -0.32807162 -0.3115645 -0.009714202 -0.055736996 0.8854149 0.2099627 0.18412822 0.6103589 -0.26359925 -0.014028753 0.21874802 0.22376871 -0.4311528 -0.82255274 -0.50382537 0.9099001 -0.22596973 0.80523574 0.107231274 0.07472315 0.20543568 -0.04997695 0.14255577 -0.11155728 -0.37500164 -0.57760435 0.13785666 -0.27456576 0.47107187 0.9514415 -0.15262488 -0.6146132 0.07900849 -0.7228844 0.71472937 0.114225686 0.5237363 -0.45172873 -0.27872902 -0.06744772 0.3137679 -0.0347496 0.27350256 0.021080848 0.66988724 0.0632436 0.12236723 0.14105168 -0.7438673 0.12207808 -0.29052225 0.6825834 1.0265402 0.4723869
face -1.6217363 0.87532747 -0.019165145 0.013055225 -0.2207872 -0.33906275 -0.2876496 0.3223532 -0.26866403 0.029561667 0.5617508 -0.54892665 0.42833248 1.0768114 -0.3926215 -0.43815574 -0.039259065 0.42049378 -0.07685861 0.13574153 0.648506 -0.0074755754 -0.2641949 -0.110472836 0.0586665 -0.6480095 -0.7109598 -0.7502658 -0.38393286 -0.16354266 -0.9355939 0.96022666 -0.09372451 -0.38491222 -0.15068161 -0.07545872 0.16046013 -0.42029426 -0.51400656 -0.34639832 -0.23387092 -0.53073835 -0.23229946 -0.41238272 -0.6724226 0.8391379 -0.18296072 -0.4779195 -0.17065747 0.14997421 0.7904106 -0.00972456 0.13031466 0.76981574 -0.24820727 -0.32543957 0.162843 0.09806657 -0.7453745 -0.6657206 -0.56144446 0.90453357 -0.498992 0.89965564 -0.031743784 0.0044448036 0.15877147 0.13077211 0.41121936 -0.0024346379 -0.42608237 -0.30981147 0.30322433 -0.22055006 0.41396597 1.015521 -0.20368364 -0.3585246 -0.12936836 -0.6288112 0.9335235 0.3433306 0.5032931 -0.5987313 0.0043341443 -0.12088544 -0.09440309 0.18762581 0.20194122 0.05928349 0.57026076 0.028674003 0.0474422 -0.20625435 -0.86233276 0.2320004 -0.33165404 0.74798095 1.3294941 0.15894318
obstruction -0.79608995 0.8371461 0.25948364 -0.09931631 -0.26160422 -0.13457419 0.011868836 0.59433544 -0.025702672 -0.28981587 0.27131566 -0.40197992 0.67647123 0.5302798 0.19516444 -0.24161132 0.28312644 -0.08311387 0.2247074 -0.09015023 -0.14688411 0.27242988 -0.17107578 -0.12996888 0.025907734 -0.43865877 -0.43192974 -0.522695 -0.38365978 -0.38727257 -0.41691482 0.25360188 -0.26029596 -0.2460116 -0.44407126 0.105120435 0.3472312 -0.17225988 -0.4024989 -0.16186705 -0.37152588 -0.41024464 -0.054878633 -0.09570281 0.075970404 0.05071878 -0.10913851 -0.07765959 -0.04730121 -0.19628459 0.5511698 0.18797445 0.1001468 0.3225089 -0.13987564 0.059403993 0.10556261 0.26952928 -0.04779972 -0.4554931 -0.251873 0.4632917 -0.013716244 0.3120931 0.11080957 0.10543859 0.122173145 -0.13099313 0.026559617 -0.17628221 -0.2597421 -0.3965021 -0.081939705 -0.17796925 0.32000294 0.6118788 -0.16618992 -0.3450823 0.22136982 -0.46590087 0.31930637 -0.030190757 0.33771643 -0.28464183 -0.27122065 0.073360875 0.309651 -0.18000352 0.07556914 -0.08308678 0.50296175 0.040467415 0.19648288 0.15575556 -0.48741603 0.0021218215 -0.113500275 0.40663108 0.38076422 0.34101298
complicated -0.58724517 0.5043735 0.09216158 -0.04800294 -0.15026356 -0.13165829 0.015009179 0.33515963 0.09520647 -0.23145242 0.34915322 -0.2100992 0.45130944 0.4940138 -0.08690021 -0.42442018 0.24337381 -0.02479418 0.15650395 0.015603344 0.059050545 0.19375993 -0.28864923 -0.10628081 0.011737076 -0.4050137 -0.44109112 -0.29682815 -0.26962626 -0.26999944 -0.30333328 0.2913119 -0.05437704 -0.062140334 -0.14875963 0.01976423 0.15785283 -0.09091911 -0.2881591 -0.09414876 -0.50404567 -0.33303913 -0.31918243 -0.077695295 -0.17675065 0.12463507 -0.049409628 -0.21158873 -0.045614723 0.09018493 0.2789305 0.18179472 0.19731718 0.23817164 -0.24220651 -0.010874469 0.12204027 0.13615069 -0.07811067 -0.3633117 -0.26387912 0.41066083 0.04818269 0.18311746 0.33343095 -0.06885161 0.027138213 -0.22935016 0.08290169 -0.09150059 -0.31669465 -0.4145624 -0.006927866 -0.2505605 0.36923802 0.51887804 -0.29744542 -0.18668991 0.23798391 -0.26978293 0.50017595 0.01648399 0.34752932 -0.26492795 0.10992031 -0.05413438 0.123595744 0.0384281 0.2464522 0.11485011 0.41682556 0.11894644 0.25784603 0.34676883 -0.50586843 0.10774264 -0.09751299 0.39073315 0.23617646 0.23951225
skin -1.1985123 0.51700044 0.12805328 0.18024082 -0.22122677 -0.30936453 -0.24737492 0.5555964 -0.02511216 -0.040081576 0.40468884 -0.08334228 0.51285285 0.5196976 -0.016036607 -0.5876134 0.30992386 -0.049407654 0.20896542 0.20369647 0.14619666 0.5278746 -0.50736594 -0.20445634 0.035703544 -0.44539282 -0.43379465 -0.17780297 -0.0006290367 -0.213201 -0.3717886 0.6401947 0.23133186 -0.06447571 -0.22654878 -0.20496017 -0.20268877 -0.3404626 -0.35487637 0.21981046 -0.4186735 -0.34753448 -0.43238103 -0.010850854 -0.334692 0.10999849 0.31745625 -0.3059943 -0.052656494 0.12414666 0.10677927 0.046507336 0.34143293 0.41558528 -0.11364044 -0.37027732 0.11837243 0.16227919 -0.3069192 -0.55020666 -0.378063 0.11574176 -0.028323807 0.2397132 0.073495485 -0.10781245 -0.27004078 -0.46961603 0.16462426 -0.008433342 -0.5014475 -0.1945849 0.06975058 -0.32176366 0.25968903 0.34789345 -0.7961138 -0.045830533 0.40485936 -0.23158754 0.6874695 -0.14198864 0.4179608 -0.5242348 0.2501977 -0.1878116 -0.08297098 -0.19669442 -0.0032451658 -0.006091836 0.25578174 -0.0084430715 0.11947121 0.11765421 -0.8528233 0.23288488 -0.116104774 0.03050729 0.18992424 0.19881451
laceration -1.4352373 1.012792 0.30127653 -0.15700454 -0.21594891 -0.22085692 -0.0018042484 0.5471412 -0.2198904 -0.19524373 0.5749019 -0.6581097 0.6562532 0.91541505 -0.112748615 -0.52512354 0.16576245 0.110394835 0.16710602 -0.006750183 0.08921224 0.20327397 -0.24952811 -0.29384565 0.15154377 -0.75043124 -0.6811093 -0.9463989 -0.53578573 -0.4032784 -0.7650717 0.8033793 -0.21370329 -0.35415843 -0.39936197 0.21713 0.5704249 -0.25384793 -0.6774185 -0.30024034 -0.38285547 -0.6246579 -0.34246257 -0.29091614 -0.22482516 0.6068821 -0.41497684 -0.2842309 -0.035631068 -0.12070641 0.930739 0.25000462 0.22726935 0.65925056 -0.29828402 0.0194509 0.24802393 0.17621882 -0.5660513 -0.9023742 -0.5407054 0.9248319 -0.34088093 0.992921 0.0647101 0.16319184 0.28675994 -0.026632642 0.19717824 -0.0111748595 -0.29975498 -0.63106394 0.18463211 -0.26418993 0.40837085 0.9230882 -0.20983812 -0.6827313 0.064999364 -0.6951711 0.71663225 0.08344601 0.5366123 -0.49003717 -0.40641928 -0.014748881 0.34305486 -0.104446284 0.22966263 -0.03407436 0.6897083 0.028453503 0.08037759 0.061243735 -0.78153074 0.13550857 -0.35057732 0.68610895 1.1371936 0.61030746
congenital -0.4439036 0.34855828 0.058128674 0.21724261 -0.21843429 -0.18026435 -0.0006648305 0.26515785 0.19282177 -0.18780547 0.26043943 -0.14771238 0.31160578 0.38333336 -0.09565336 -0.48953745 0.2503309 -0.15063223 0.06161414 0.20977387 0.030961895 0.28260916 -0.34856722 -0.030705538 -0.05196785 -0.33454296 -0.36031622 0.09502338 -0.06130676 -0.22452976 -0.18414773 0.17277598 0.06805972 -0.0562671 -0.13697252 -0.060581386 -0.062413543 -0.0073138257 -0.07675557 -0.056469098 -0.5678296 -0.2856186 -0.28836727 -0.054018606 -0.389965 0.05404043 0.21178707 -0.28933248 0.06853191 0.19076948 -0.02286752 0.13849814 0.12402651 0.22334217 -0.08153404 -0.12827791 0.09192801 0.09374539 0.043381855 -0.3016817 -0.2212811 0.24182297 0.21632664 -0.15369172 0.33421543 -0.24162458 -0.19378906 -0.33772412 -0.12291327 -0.18190841 -0.38918126 -0.29945764 -0.031274274 -0.23750088 0.43189454 0.38239086 -0.2927943 -0.084649555 0.23675123 -0.22036783 0.43008998 -0.07658989 0.24946344 -0.10718337 0.42420805 -0.1864177 -0.033097908 0.116086714 0.18755414 0.0944345 0.23853213 0.075596236 0.15682921 0.4110705 -0.40161258 0.17233597 0.007661585 0.15643892 0.07033231 -0.05468643
benign -0.6972154 0.53283715 0.15622836 0.17838877 -0.26809797 -0.2436026 -0.04288932 0.49814042 0.14807272 -0.21212146 0.40293077 -0.2039667 0.4956177 0.5575848 -0.13375267 -0.55843234 0.3351388 -0.13937734 0.17713946 0.19703689 -0.0033663712 0.40648007 -0.4200422 -0.044159405 -0.050352048 -0.4742656 -0.51429766 -0.08101513 -0.13075809 -0.2990051 -0.24452737 0.3260024 0.020216344 -0.15943742 -0.21266997 -0.080671355 -0.024229553 -0.085165 -0.22662404 -0.03278433 -0.6212927 -0.36470026 -0.3359494 -0.06987269 -0.32797855 0.06899631 0.22869223 -0.35387832 0.041015368 0.18075539 0.08160152 0.1467359 0.21673653 0.36936367 -0.17251863 -0.110136755 0.09337347 0.17246531 -0.025023978 -0.46686965 -0.3393967 0.40269026 0.20301794 -0.049328405 0.3204824 -0.26685798 -0.18764076 -0.43548545 -0.071149714 -0.16635223 -0.52399206 -0.38745683 -0.015984492 -0.30769393 0.49038795 0.49013504 -0.4239236 -0.16516007 0.2880789 -0.287724 0.63194823 -0.120654054 0.35875395 -0.2757043 0.37744266 -0.17131084 0.047148738 0.034063075 0.1853125 0.063384 0.34503776 0.09810156 0.23194826 0.37890834 -0.5324968 0.24322529 -0.07330806 0.22288832 0.20267318 0.12811513
dislocation -0.7200656 0.19193119 -0.10713207 0.15390575 -0.16015905 -0.19618444 -0.06638016 0.18961287 0.095318586 -0.050476 0.25641963 -0.104836136 0.1457446 0.3705051 -0.21183144 -0.35773802 0.08675123 0.21301281 0.1198709 0.071019664 0.15448506 0.12626156 -0.2988978 -0.10130554 0.032368034 -0.32379872 -0.4186182 -0.07815204 -0.17482674 -0.10831207 -0.4189063 0.4171797 0.1122039 -0.042457465 0.018799247 -0.06878415 0.013781796 -0.12788676 -0.15427996 -0.108536676 -0.351393 -0.23243104 -0.18840799 -0.16036044 -0.5212868 0.2694035 0.12513119 -0.24343982 0.0040951744 0.31836158 0.18428463 0.071223706 0.10045015 0.3321623 -0.07773205 -0.29988772 0.12421073 0.07201641 -0.18477684 -0.3433513 -0.3707946 0.30743438 -0.0974991 0.24791977 0.23548079 -0.09733528 -0.14194092 -0.21549326 0.12593178 -0.16068235 -0.32650086 -0.19431946 0.24657135 -0.24571005 0.270954 0.5533386 -0.22232665 -0.08329074 0.106947795 -0.1301716 0.42708558 0.18053016 0.3129276 -0.2259775 0.35683307 -0.12827271 -0.10580935 0.12257025 0.27962992 0.19144388 0.26960978 0.16650398 0.14048614 0.11662123 -0.39070773 0.1800943 -0.089555725 0.28583848 0.38933638 0.0069324006
eye -0.8270864 0.3860357 0.18779735 0.2181993 -0.11068333 -0.14333804 -0.080129184 0.22520627 0.03301065 -0.040345 0.29507768 -0.25267163 0.12733927 0.54030263 -0.20379998 -0.568623 0.10733185 0.08571514 0.0005815037 0.21117891 0.1461802 0.20195273 -0.51771533 -0.059291948 -0.12731628 -0.46917236 -0.32744163 -0.06291071 -0.009827993 -0.16412851 -0.26868838 0.50890505 0.21352805 0.009096664 -0.07599688 0.06567346 -0.04270978 -0.07044641 -0.20187303 0.08105607 -0.44172445 -0.43760478 -0.48219594 -0.008841618 -0.45785987 0.20536888 0.019255724 -0.3203768 0.10423871 0.14477679 0.22521058 0.268034 0.09611604 0.2284093 -0.1710356 -0.20880747 0.08323607 -0.07692408 -0.37779918 -0.36294976 -0.3380249 0.1631306 -0.087606266 0.28925872 0.13519351 -0.12389395 -0.18089254 -0.2146243 0.0031225737 -0.064035095 -0.21563968 -0.27179405 0.21359603 -0.26404136 0.4241806 0.48616558 -0.5140851 -0.15129654 0.11266165 -0.25743422 0.47869644 -0.10579749 0.28210142 -0.27775082 0.2697837 -0.26321515 -0.049210697 0.029766833 0.10165411 0.0083146235 0.264477 0.060800858 0.054575272 0.09909427 -0.5495041 0.14857887 0.029459404 0.15258001 0.49198636 0.08882718
affecting -0.66911906 0.7380311 0.1612573 0.25000432 -0.4510737 -0.14643896 0.09835867 0.579826 0.34873456 -0.4181584 0.57984215 -0.36271352 0.9338547 0.4649513 0.09101933 -0.56381494 0.5028098 -0.5034917 0.14755832 0.2028997 -0.2502273 0.4936335 -0.33672255 -0.0855271 -0.20344904 -0.41678673 -0.49679714 0.004813586 -0.2141884 -0.42307034 -0.38386503 0.04626383 -0.13288173 -0.16962935 -0.5096234 -0.15121017 -0.16319647 -0.13500291 -0.30060372 -0.08268978 -0.8558239 -0.41520402 -0.17127621 -0.11900445 -0.35048354 -0.30675447 0.38963848 -0.2811281 -0.04666593 0.1153204 0.07062528 0.22729117 0.25289553 0.1431988 -0.016262617 0.10895125 0.039386727 0.39541373 0.38723725 -0.38038266 -0.20991811 0.42205793 0.66491634 -0.25615773 0.5262348 -0.37631863 -0.32517433 -0.46836478 -0.47951388 -0.36124107 -0.6897115 -0.51154375 -0.16854045 -0.4052072 0.70997804 0.56171197 -0.33960038 -0.16467065 0.46347865 -0.46637544 0.6239215 -0.15754147 0.3565401 -0.17751098 0.51122284 -0.22119503 0.1232149 0.20437415 0.27809805 0.27166858 0.43095028 -0.059979074 0.26676473 0.73867923 -0.45826188 0.1570253 -0.09811019 0.19790249 -0.07822271 -0.048603438
