1815 100
unspecified -0.22401886 0.1816851 -0.080951706 0.15465961 0.75015473 0.0738865 -0.3131848 0.09665912 -0.091340505 0.08739292 0.08853036 0.0505293 0.082992665 0.05906189 -0.24284147 0.2562241 0.15986386 -0.047543924 0.51819205 0.16875808 0.76689065 0.5112023 0.43727925 0.47871816 -0.35188827 0.051376715 0.2731344 0.08364918 -0.009462844 -0.20037086 0.42150024 0.18250078 -0.12753347 -0.30774146 -0.04839973 0.18974075 -0.5905084 -0.18850031 0.17685889 0.85159785 0.041473676 0.10837953 0.110365786 -0.112773724 -0.30122152 -0.011608768 0.11103995 -0.13049552 0.12129499 0.32904074 0.077958256 -0.012196278 -0.40585673 -0.29622394 0.02565599 0.021056263 -0.20735224 0.08730307 -0.22147338 -0.2660729 -0.15251128 0.38503313 -0.07659951 -0.13652128 -0.3208436 -0.088184044 -0.11482051 0.26410154 0.0059479717 -0.1524185 0.10871353 -0.22064188 0.12738855 0.39558724 0.16663441 -0.4433371 0.024349293 -0.30384454 0.31350482 -0.57827026 0.24398018 -0.25780183 -0.027246846 0.21734075 -0.2372601 -0.026537392 0.17734307 0.4529951 0.2030977 0.15171354 -0.13513686 0.29503655 0.23929863 -0.44977623 -0.14191826 0.18576969 -0.3149165 0.285197 -0.3938701 0.50278765
without -0.2055001 0.028657665 -0.058841575 0.6290755 1.12975 0.3154384 -0.093226716 -0.24652763 -0.18616536 0.1892744 0.4429807 0.19973181 0.16528273 0.33846855 -0.7401855 0.48887572 0.20632607 -0.33911285 0.75493133 -0.12527849 1.6536292 0.64477706 0.9323931 0.74033505 -1.008081 -0.15713145 0.14240706 0.3775449 0.68175113 0.10888046 1.1827272 0.20746309 0.118086986 -0.09619952 -0.4629828 0.22318754 -0.7374017 0.2696419 0.6920538 1.6018642 0.094558574 0.17318231 0.3646979 0.015766656 0.11427306 -0.19888647 0.2976406 -0.5950709 0.6446885 0.50651073 0.09683779 -0.23295693 -0.53296596 -0.5923721 0.3490595 -0.11027587 0.07692362 -0.07382038 -0.68788826 -0.028582582 -0.29414615 0.3626866 -0.6565864 -0.3619412 -0.38142344 -0.22970334 -0.006009848 0.1718008 -0.13204058 -0.47605425 0.24159582 -0.30094528 -0.40241432 0.49740225 0.04024785 -0.51464653 0.113340445 -0.29919302 0.21375343 -0.857758 0.2191878 -0.5392995 0.60709953 0.3535353 -0.20026259 -0.17853726 -0.04456538 0.8529284 -0.02739487 0.15411894 -0.04253139 0.37480953 0.5523049 -0.6535598 -0.54447514 -0.353366 -0.63611066 0.56475246 -0.5776439 0.85016346
mention -0.21771644 0.0485695 -0.119131535 0.651829 1.178277 0.36454225 -0.1013072 -0.30906692 -0.16677114 0.2505319 0.54646724 0.3083665 0.33528575 0.41010097 -0.8734222 0.49525246 0.19598195 -0.3829584 0.7558461 -0.21196848 1.8121263 0.64727896 1.0846056 0.8777424 -1.0635722 -0.1637261 0.12578642 0.4381596 0.79434645 0.07739129 1.3426546 0.19175406 0.12440597 -0.025830353 -0.5738942 0.29266542 -0.81539774 0.43084744 0.7403593 1.7579597 0.13809136 0.29348156 0.4773983 -0.038335666 0.19820797 -0.27184194 0.36844844 -0.72623134 0.6940534 0.4798581 0.035326503 -0.24370554 -0.5632905 -0.65342826 0.43933976 -0.06836117 0.070179224 -0.06673993 -0.81270283 0.03549479 -0.36944813 0.3325848 -0.65879625 -0.30023602 -0.45865548 -0.22790357 0.02005669 0.14032575 -0.2069183 -0.56613606 0.291506 -0.30894226 -0.43086106 0.5090374 0.06811522 -0.5705561 0.10135493 -0.24959145 0.21386777 -0.9495102 0.12169845 -0.6170465 0.69179654 0.43523774 -0.19356002 -0.28325933 -0.0070963376 0.87911165 -0.039563034 0.123291306 -0.016123157 0.40316817 0.63685983 -0.59873563 -0.6595012 -0.50110304 -0.7441045 0.66773325 -0.5756431 0.9429375
specified -0.18492143 0.18919389 0.14266273 -0.00263214 0.121286966 0.18203403 -0.24493848 0.3414305 -0.045307048 0.52637976 0.078286625 0.24936211 -0.2226534 -0.20250651 0.087084316 0.18805811 0.388949 -0.15346691 0.18960187 0.22354311 0.26125595 0.35629287 0.19318001 0.29450926 -0.22992334 0.20400867 0.46702182 -0.11494018 -0.35618612 -0.11174718 0.24293458 -0.091830865 -0.5486465 -0.14498751 0.02579976 -0.16063859 -0.55390394 -0.1339781 -0.07155877 0.50105536 0.070250206 0.33543724 0.06857274 -0.19765279 -0.37458324 0.050495766 0.057864975 -0.10296724 -0.049743682 0.06545335 9.485698e-05 -0.03729323 -0.2767245 0.006574401 -0.20206216 0.22919892 -0.09286294 0.34214228 0.013164029 -0.016217003 -0.008412056 0.2707719 -0.13452117 -0.19079873 -0.5465263 0.46040353 -0.045666616 0.15292954 -0.06255902 0.13639334 -0.047393113 -0.19287299 0.23985438 0.3558111 -0.07448334 0.09015785 0.123446204 -0.35496464 0.51793206 -0.10372315 0.35232353 -0.0015786522 -0.22960493 0.5647013 -0.5553559 -0.35211056 0.061734624 0.4181398 -0.00033453488 0.12495492 -0.41548583 0.1293248 -0.22476703 -0.3410098 -0.0097896 0.0552775 -0.398744 -0.19792107 0.07847253 0.613787
open -0.12910858 0.14626779 0.0116647985 0.43194434 1.5015185 0.31631637 -0.11825288 0.33138368 -0.03914635 -0.3292079 0.1282459 -0.17346822 -0.32309872 -0.0446883 -0.2630806 0.40842175 0.15669574 -0.094456054 0.76152617 0.12684684 1.4692487 0.7981209 0.8449536 0.10028423 -0.74353355 -0.2553717 0.5122204 0.010840822 0.37552804 -0.029522218 0.62314296 0.33314154 0.23286124 -0.62114036 -0.10759923 0.17155874 -1.203498 -0.7024452 0.58240885 1.3285689 -0.02576709 -0.29242843 0.29344735 0.08553776 -0.27831408 -0.35041064 0.10627583 -0.2798781 0.4722879 0.7372594 0.209425 -0.38130483 -0.7319714 -0.3836128 -0.31392464 -0.3899391 -0.035011195 0.20227388 -0.631934 -0.17540964 -0.07718492 0.96819556 -0.2783039 -0.25478205 -0.024149716 -0.39162144 -0.1776901 0.5964176 0.06855622 -0.17159161 -0.18458825 -0.31062543 -0.21143134 0.67659503 0.086923905 -0.5594286 0.32565564 -0.7288892 0.44300523 -0.44650733 0.6211966 -0.6286076 0.5771983 0.26290718 -0.10409752 0.31497946 -0.17703097 0.8786803 0.4665297 0.49888632 -0.038362417 0.79617304 0.381219 -1.2988803 -0.28307343 0.27456418 -0.44396356 0.31088623 -0.9156819 0.7628554
injury -0.12830423 0.22411358 0.05926648 0.2695584 1.1804355 0.24679828 -0.07227832 0.28933156 -0.0660806 -0.13201658 0.06938155 -0.14394093 -0.32707766 -0.03225587 -0.12146762 0.32606104 0.16766146 -0.1554095 0.51625824 0.10010409 0.96333843 0.59540397 0.5138962 0.115862854 -0.5304165 -0.0629835 0.45895904 0.01825728 0.1445182 0.05340805 0.49540192 0.20552671 0.12026513 -0.5460898 -0.10032174 0.17226286 -0.91322595 -0.49551228 0.42853242 0.9989813 0.030213878 -0.1530044 0.24626607 0.02326831 -0.25655386 -0.1658039 -0.023949219 -0.17123665 0.4566046 0.5397406 0.2669827 -0.24848178 -0.5764874 -0.18940549 -0.21435633 -0.31557235 -0.13173085 0.1514907 -0.4672675 -0.19272348 -0.013759043 0.67948526 -0.38681844 -0.1892011 -0.01506904 -0.29362166 -0.119427785 0.46218145 0.16391711 -0.063439436 -0.03968354 -0.26866338 -0.094574235 0.5465259 0.083694875 -0.35581484 0.15788059 -0.5834783 0.46571898 -0.39250228 0.52704805 -0.4272807 0.26604933 0.31650415 -0.24859214 0.2213894 -0.030085925 0.75010645 0.38855612 0.38317898 -0.13735704 0.60243905 0.15539975 -0.84722775 -0.1816176 0.22884981 -0.34847808 0.1302506 -0.6383733 0.66881764
complication -0.17648602 0.23781495 -0.05533236 0.46823797 0.6433643 0.38042748 -0.17195903 -0.21894993 -0.24256782 0.6594303 0.589974 0.53257215 0.409389 0.3892471 -0.7595644 0.44626445 0.23603314 -0.5610189 0.49202436 -0.22851877 1.3334084 0.29050758 0.9305384 1.2058532 -0.93114513 0.120178476 0.038802527 0.4509165 0.39193577 0.028621044 1.4060521 -0.051183 -0.22385116 0.2552293 -0.67678237 0.33239362 -0.64810044 0.99967444 0.41337162 1.5129651 0.3398035 0.76446885 0.39176738 -0.20967604 0.07381194 -0.14046688 0.33261284 -0.6575468 0.6358752 0.11849538 0.06047203 -0.0157153 -0.39744753 -0.48464054 0.7140782 0.19415098 -0.13475429 0.07436062 -0.64576066 0.12225448 -0.36883548 -0.0089388685 -0.70002174 -0.25798398 -0.8114232 0.033804815 -0.023860259 -0.19372258 -0.30486694 -0.5710342 0.49139124 -0.31301606 -0.32019925 0.29990113 0.063536994 -0.14209802 -0.046160486 -0.19081798 0.3943993 -1.0350846 -0.06482727 -0.43306738 0.3083201 0.79062706 -0.46678934 -0.75166535 0.22416352 0.7986694 -0.14203781 -0.11418995 -0.2567063 0.08229376 0.2750392 -0.053649046 -0.7167245 -0.7544701 -0.86581653 0.5053468 -0.13574995 0.9452879
fracture -0.10747997 0.18350014 0.14948453 0.19192314 1.243502 0.25468698 -0.1331769 0.6129668 0.049813412 -0.33398655 -0.084569566 -0.33321837 -0.503924 -0.17490102 0.075359255 0.20883837 0.15504159 -0.07659872 0.54586536 0.26539162 0.9700629 0.76522315 0.6218882 -0.058212083 -0.4362155 -0.16619672 0.6952544 -0.1489658 0.1036348 -0.049183015 0.27927822 0.30097884 0.18543968 -0.76690507 0.076800734 0.04302175 -1.2112076 -0.9931441 0.34306648 1.0508702 -0.023159672 -0.3611159 0.18807699 0.16848329 -0.5054886 -0.2601835 -0.026702708 -0.04749641 0.3264825 0.6841625 0.22393699 -0.31049582 -0.7064592 -0.2263342 -0.42983308 -0.35541195 -0.097413376 0.42005804 -0.51907456 -0.099970624 0.09110962 0.9956024 -0.14663401 -0.08304004 0.012113301 -0.31759116 -0.27363577 0.573018 0.20498894 0.024972655 -0.28481808 -0.25873092 -0.035447467 0.55018884 0.070286386 -0.4372613 0.3401794 -0.743833 0.6273755 -0.16956802 0.7151132 -0.4716164 0.33122128 0.27758905 -0.2590596 0.33623022 -0.17883585 0.68308103 0.5403821 0.6439317 -0.18127632 0.80391836 0.09737649 -1.2954415 -0.06673609 0.53194344 -0.31204575 0.059002776 -0.79087436 0.6988392
loss -0.369942 0.015667837 0.08858916 0.6089236 1.1022019 -0.0042568683 -0.032669812 0.08092939 -0.008808812 -0.18237975 0.39890093 -0.11850114 0.24400741 -0.028415626 -0.24367474 0.55227196 0.6982434 -0.1289023 1.0393443 0.20715985 1.2970196 1.4919685 0.8782068 0.33740884 -0.81127405 0.050011147 0.6180455 -0.008125906 0.42514542 0.4080473 0.31684926 0.023039013 0.048639096 -0.48058513 0.17815258 -0.36199388 -0.7724484 -0.9547513 0.9521738 1.9126997 -0.2698363 -0.44273746 0.22067502 -0.24160397 0.21030478 0.23300433 0.24421264 -0.70951533 0.68645114 1.3065616 0.47746497 -0.27931574 -0.50744045 -0.44482172 -0.25626495 -0.54435515 0.23454823 -0.24849585 -0.32097137 -0.6401326 0.041817516 0.90908104 -0.49818504 -0.72291315 -0.3312456 -0.030825065 0.10711833 0.5208149 0.20484255 -0.45355347 -0.44553265 -0.27452895 -0.100951016 1.0405234 0.16102906 -0.5876026 0.35415703 -0.58276945 0.22273107 -1.0041528 0.930785 -0.61791456 0.5277368 0.030100143 -0.5437599 0.33908045 -0.10396842 1.3242446 -0.44957727 0.44768873 -0.35661235 0.38153687 0.7326653 -1.0682673 -0.22786242 0.3644174 -0.57208943 0.15129428 -0.43688256 1.0017244
condition -0.2352798 0.21854478 -0.10153856 0.48423436 0.6127756 0.37820292 -0.19384795 -0.25428277 -0.26899427 0.70718277 0.64956224 0.61678386 0.49545994 0.40649915 -0.8298256 0.5007271 0.3342641 -0.65695244 0.531796 -0.24236919 1.4497435 0.3628658 1.0079147 1.3260702 -1.0510356 0.15622127 0.03730314 0.49675348 0.42789036 0.0638207 1.496495 -0.07315554 -0.30694756 0.31616992 -0.6935165 0.27188045 -0.6670919 1.0478317 0.45802635 1.6584291 0.40832585 0.8155522 0.42241535 -0.31864297 0.075629435 -0.13945699 0.36671528 -0.69866985 0.69376653 0.13808697 0.10807899 0.008490197 -0.45595077 -0.53858495 0.70535433 0.22461404 -0.12669589 0.12668368 -0.67024785 0.15823598 -0.37244555 -0.010852803 -0.7598383 -0.31106785 -0.8773436 0.03882014 -0.008749282 -0.19256306 -0.3565991 -0.61522144 0.47527683 -0.30796325 -0.31523666 0.3430914 0.08537029 -0.16294996 -0.02618325 -0.1745508 0.42720136 -1.146226 -0.079357326 -0.45777774 0.30493224 0.85496634 -0.563657 -0.83156115 0.22809139 0.8712339 -0.25627086 -0.13182646 -0.31939352 0.06378213 0.2939746 -0.0712511 -0.7724725 -0.8000591 -0.9777676 0.5206818 -0.1038048 1.0566343
neoplasm -0.05045815 0.14396979 0.21701488 0.14861956 0.34075892 0.1755224 -0.20698912 0.68335795 0.1758127 0.48806763 -0.048611585 0.26281518 -0.0010897419 -0.5613231 0.18559265 -0.0361758 0.33476073 -0.22392644 0.12229572 0.38288996 0.5592639 0.3578156 0.36457404 0.38155767 -0.11607177 0.14953728 0.5899053 -0.18465644 -0.3332663 -0.12838958 0.23625219 -0.05848432 -0.39922523 -0.14098522 0.02248983 -0.009993735 -0.5876126 -0.34747705 0.10859597 0.6456347 -0.09319624 0.2965517 0.18317334 -0.2381673 -0.5448979 -0.1171884 -0.025773088 -0.13728884 -0.19685578 0.28401336 0.11304813 -0.030167194 -0.37551436 0.05114328 -0.42252147 0.089031935 -0.047131263 0.4211362 -0.041774917 0.0068224063 -0.034071393 0.36376646 0.13132484 -0.3409531 -0.41879272 0.36936355 0.0829073 0.3642032 -0.22078194 0.1409123 -0.34265172 -0.14718027 0.24123071 0.35699272 -0.09539663 0.03881343 0.13872659 -0.51934004 0.54621935 -0.031293266 0.6105379 -0.2183777 -0.13589875 0.48724166 -0.2789856 -0.38886824 -0.1535463 0.5245602 0.33806503 0.3338104 -0.5619206 0.26637864 -0.26497358 -0.50433505 0.017655825 0.04279704 -0.576877 -0.15276864 -0.2077708 0.5850728
malignant -0.16597603 0.24369268 0.28107935 -0.041153196 0.24661419 0.16198574 -0.12774749 0.68262035 0.12364878 0.5297503 -0.0058342526 0.18704775 -0.050183147 -0.4610209 0.24205786 0.018763755 0.47017816 -0.1762798 0.04554122 0.31070825 0.31661436 0.44580212 0.39383772 0.30939957 -0.12812625 0.14370474 0.5756415 -0.21531223 -0.3441132 -0.04792999 0.19682282 0.046416786 -0.48947412 -0.123099715 0.12758452 -0.1931593 -0.71684384 -0.19222085 -0.051706083 0.5922114 -0.24022298 0.31414312 0.10260754 -0.3154361 -0.41127127 -0.15811467 -0.005293248 -0.22419831 -0.24719752 0.275294 0.059520643 0.019188052 -0.51292 0.1136701 -0.39610758 0.10922713 0.04568787 0.31913537 0.04751056 0.11523666 0.017783621 0.4575349 -0.035167232 -0.26728788 -0.4179803 0.55188733 0.04941221 0.22012746 -0.19459943 0.1865613 -0.3280799 -0.1582724 0.18430136 0.25699466 -0.05502417 0.20292327 0.16202019 -0.5303525 0.49035186 0.047895275 0.50776774 -0.09810756 -0.18821321 0.62629217 -0.40268666 -0.2428278 -0.12539305 0.45906466 0.32470638 0.2619381 -0.4793164 0.15279299 -0.32375833 -0.45392326 -0.03663383 0.013941706 -0.5362075 -0.13496456 -0.13289896 0.44664887
wound -0.13657562 0.17794794 0.0077379216 0.4876871 1.3698932 0.30428737 -0.0789534 0.17263564 -0.04463417 -0.27589077 0.17830831 -0.12732638 -0.17401557 0.049426492 -0.34466743 0.34518382 0.16356122 -0.097169764 0.74872875 0.10892321 1.4749577 0.8137101 0.8736707 0.21950425 -0.76592416 -0.19792813 0.4589522 0.094234936 0.43988636 -0.039562594 0.7085969 0.2718733 0.28664848 -0.5631874 -0.19666775 0.2534319 -1.0453086 -0.5551532 0.6510052 1.3934447 -0.05928993 -0.23422517 0.35940647 0.12345307 -0.17564915 -0.22496296 0.11971401 -0.3609718 0.45221364 0.7149829 0.19061789 -0.3680859 -0.68060726 -0.45869341 -0.16177563 -0.3891904 0.060719322 0.09467807 -0.6587673 -0.19463746 -0.07156002 0.8623356 -0.35266024 -0.29943976 -0.009763539 -0.37943387 -0.13779391 0.48813933 0.03031884 -0.26265776 -0.101765335 -0.25286257 -0.24501795 0.62301624 0.098999776 -0.6338631 0.2829946 -0.611279 0.36135364 -0.61237824 0.4893498 -0.6004318 0.5537344 0.20734318 -0.1192955 0.23784445 -0.088672034 0.83475375 0.4122712 0.4927553 0.02119179 0.70965564 0.45304945 -1.148154 -0.29597765 0.17061116 -0.43533248 0.41712466 -0.84797174 0.7326186
antepartum -0.21003687 0.20246229 -0.02822479 0.5461074 0.7317046 0.35109225 -0.15580335 -0.23623136 -0.24594235 0.6766938 0.596944 0.58253753 0.48153368 0.43819055 -0.8498417 0.47394806 0.30170643 -0.60073364 0.5988151 -0.1821768 1.4854234 0.40984872 1.0274193 1.2554623 -1.0152198 0.053429414 0.08183068 0.46325794 0.5139579 0.11857137 1.5246001 0.013539554 -0.24171533 0.25996742 -0.6881698 0.3255982 -0.727245 0.9795408 0.53021795 1.7294699 0.29746112 0.72875565 0.42528638 -0.22770722 0.14408724 -0.15739197 0.35284957 -0.7445194 0.73083586 0.197726 0.080593586 -0.062371615 -0.42324153 -0.56803066 0.7142181 0.1752512 -0.09950789 0.07426217 -0.7129453 0.11864205 -0.40354356 -0.015355319 -0.7995738 -0.3295053 -0.8297518 0.049824443 -0.01768151 -0.18121338 -0.32480302 -0.6054548 0.44458842 -0.32267237 -0.33930877 0.38225517 0.037850276 -0.21533982 -0.01570265 -0.20789507 0.38317415 -1.1061338 -0.046847448 -0.50060177 0.41037813 0.80664426 -0.4826515 -0.7713877 0.20885432 0.9110957 -0.18456568 -0.098613285 -0.28230682 0.11760657 0.3667857 -0.14058633 -0.7779791 -0.78570074 -0.94672835 0.5622466 -0.1913759 1.021193
due -0.18715836 0.25342295 0.043494195 -0.04023174 0.38487634 0.269196 -0.23552865 0.24631527 -0.15895092 0.54335046 0.051181972 0.19766724 -0.35908616 -0.023645831 -0.045371033 0.33590955 0.3204063 -0.31408343 0.17559253 0.109535806 0.278811 0.23560503 0.10602761 0.29934102 -0.29072526 0.25945634 0.39350942 -0.053061113 -0.32955015 -0.05736146 0.45688364 -0.07184171 -0.52004397 -0.22229025 -0.15613793 -0.032251257 -0.55617565 0.020433871 -0.052959327 0.53024495 0.24133737 0.38790292 0.08440402 -0.18774542 -0.39964733 0.032188404 -0.03416492 -0.033178203 0.20112288 -0.08849404 0.08848473 -0.03743041 -0.29650187 0.022794556 -0.06830288 0.2216001 -0.25600663 0.29830512 -0.101443194 -0.0002686757 -0.021575697 0.22643234 -0.39924234 -0.10055578 -0.4988412 0.29205623 -0.10190224 0.20500115 0.04382598 0.108695425 0.1577871 -0.22868516 0.19613156 0.36292604 -0.044426385 0.07668414 0.0341672 -0.30173308 0.6244224 -0.18368539 0.27584782 -0.018432055 -0.2638212 0.6643006 -0.6099321 -0.36449686 0.16756044 0.50908756 0.058847256 0.07759857 -0.37262225 0.18736562 -0.23521487 -0.25760365 -0.077274956 0.027243951 -0.3854437 -0.18792672 0.040579945 0.7206541
involving -0.30850923 -0.11639866 -0.23371486 -0.5465319 0.85219795 0.0755731 -0.22798 0.536963 -0.40543592 0.32368264 -0.40929458 0.037609212 -0.9061616 -0.24284056 0.03217432 0.6513723 0.82289517 -0.6571745 0.50228256 0.41080642 0.6645779 0.8384068 -0.12100826 -0.4287768 -0.24575174 0.14296725 0.6685988 -0.21015897 -0.12865375 0.084717125 0.11733842 -0.04379044 -0.542941 -0.20691207 -0.110390946 -0.47115812 -0.9622867 -0.7185312 -0.21903086 0.7572145 0.26903138 0.2277751 0.06908711 -0.10062963 -0.8579863 0.1492337 -0.3436239 0.3578645 0.21000747 0.37995064 -0.039399777 -0.3731521 -0.40051907 -0.19315246 -0.5465862 0.43769336 -0.07415574 0.6212254 0.019993003 -0.029491013 0.11840463 0.7213807 -0.39693648 -0.22629866 -0.23798585 0.22211342 -0.0004543574 0.8408483 0.015958017 0.3066234 -0.000741293 0.08260448 0.45591024 0.48904073 -0.39823642 -0.24806054 0.056938004 -0.54888564 0.7236988 0.100253426 0.6581229 -0.23429923 -0.18179339 0.33497757 -0.7319559 0.26761273 -0.24364552 0.8557302 0.012624166 0.13614 -0.6621152 0.4004815 0.028697709 -0.8635436 -0.17647365 0.5789269 -0.5509528 -0.24929516 -0.41367275 0.49913442
tuberculosis 0.25307116 1.0795329 0.4055739 -0.24383606 -0.01289412 0.760934 -0.29433006 1.1231899 0.17903736 -0.19125745 0.41654018 -0.42055812 -0.8673152 -0.23523095 0.3869693 0.30000836 0.2702967 -0.60328984 -0.24386162 0.104543574 -0.48906967 -0.6232923 0.29884735 0.09426272 -0.45176688 0.7074829 0.1500022 -0.32466894 -0.8273327 0.22049896 0.24438198 -0.8389718 -0.19160032 -0.6311397 -0.18559262 -0.0032446617 -0.588416 -0.2557335 -0.1030911 0.41253218 0.61373615 0.50571126 -0.022045221 -0.17485084 -0.8495661 0.29961193 -0.11072167 -0.14381592 0.45726478 -0.2719662 0.7396064 0.0884381 -0.17877322 0.29046258 0.30904114 -0.39613327 -0.6382966 0.4935261 -0.53543687 -0.031690456 0.73224556 0.80778193 -0.36724734 -0.036119815 -0.620301 0.11847471 -0.18732741 -0.26751164 0.23916739 0.032501776 0.19863494 -0.2954132 -0.09405772 0.09878672 0.0030679381 0.7569291 0.2649233 -0.8070532 1.1353254 -0.69927233 0.32326293 -0.35932052 -0.703655 1.07498 -0.9952931 -0.64681727 0.35847187 0.98586345 -0.09950469 0.19431567 -0.74645317 0.6226542 -1.1180303 -0.3333043 0.29228425 -0.07286222 -0.28752246 -0.98945165 0.104882896 1.1062938
consciousness -0.26492602 0.27612695 0.10626827 0.86564916 1.8827994 0.03641173 -0.044745088 0.16646649 -0.05715467 -0.23191258 0.25478664 -0.29024062 0.102945864 -0.014024056 -0.23561996 0.6894902 0.4402858 -0.18808849 1.0888005 0.1766175 1.4304432 1.4641472 0.93436134 0.41485384 -0.8564671 0.05199084 0.7538224 0.19354868 0.43510318 0.46883413 0.5875286 0.22656932 0.29998657 -0.93219346 0.06742939 0.13947521 -1.0832722 -0.96913844 1.0994397 1.8979398 -0.15806612 -0.52615196 0.44802248 -0.20063466 0.20429525 0.07935607 -0.049942926 -0.62909585 1.13912 1.2831095 0.7618715 -0.36351833 -0.8261353 -0.34991065 -0.3599804 -0.89084023 -0.103319936 -0.32653835 -0.552144 -0.6690079 0.0022086971 1.0561063 -0.86399364 -0.6051342 0.0715677 -0.42236838 0.048774187 0.65209943 0.4249547 -0.28057238 -0.18593232 -0.44456792 -0.23638275 1.1245351 0.3636404 -0.60943085 0.17100179 -0.7705793 0.43352416 -1.1329505 1.1508876 -0.7147489 0.5106665 0.30636087 -0.49480408 0.5484402 -0.011073939 1.4449733 0.07201612 0.60049105 -0.35753375 0.71897805 0.66399205 -1.1252209 -0.29525363 0.4684768 -0.49392968 0.2378493 -0.8767904 1.1019734
closed -0.08838611 0.10868611 0.07017068 0.03108903 1.0369241 0.19172859 -0.18845044 0.59415007 0.015904525 -0.25755465 -0.10574884 -0.22643144 -0.55922455 -0.22789471 0.11748873 0.27625135 0.19765389 -0.098426685 0.46199697 0.2599146 0.7994092 0.61140454 0.4765899 -0.16316718 -0.3414413 -0.15993333 0.5800604 -0.22884688 -0.010574539 -0.04595447 0.16066252 0.24241519 -0.011562238 -0.5551507 0.11089587 -0.09585161 -1.09686 -0.8643563 0.18437104 0.8291977 0.019597672 -0.2605335 0.077378586 0.066222906 -0.5524638 -0.26653513 -0.03904661 0.021878093 0.228917 0.5440689 0.20104587 -0.25439265 -0.57036734 -0.14912523 -0.4564176 -0.209999 -0.123732366 0.4692354 -0.34239686 -0.053726707 0.059327953 0.89278036 -0.06389781 -0.0641731 -0.06382158 -0.18155697 -0.22891863 0.52933556 0.11852341 0.085533254 -0.29720107 -0.25670585 0.036902927 0.48419797 0.007631338 -0.25445133 0.29478103 -0.6650773 0.5945683 -0.014839743 0.6566971 -0.38907126 0.2402858 0.28949288 -0.2145636 0.31071648 -0.21803227 0.601699 0.38210547 0.4587138 -0.24972197 0.6642038 0.025793882 -1.1375647 -0.09431381 0.49326184 -0.33486494 -0.022431226 -0.63965505 0.59602916
degree -0.5125537 -0.28884584 0.04540672 0.1771269 0.04332067 -0.07227353 -0.21254227 0.33913115 0.11490121 0.006426034 0.51263493 0.16619593 0.21439452 -0.21897246 -0.0664819 0.3878061 1.0885286 -0.12281945 0.96801054 0.49395338 1.2165335 1.5762669 1.02265 0.25389603 -0.8093005 0.073847085 0.6462522 -0.42824832 0.27024686 0.14145373 -0.009087746 -0.29470918 -0.56930196 0.092336796 0.34960896 -1.132331 -0.76943773 -1.0085367 0.5933533 1.9885774 -0.36978534 -0.18849275 -0.06382079 -0.24178256 -0.104828574 0.3279017 0.6409334 -0.6800069 -0.0637069 1.2985306 -0.016306162 -0.21687622 -0.27685565 -0.6667859 -0.34684572 0.040094398 0.62671137 0.28135636 0.0012620826 -0.5159315 0.0528629 0.9738972 0.111107446 -0.7922967 -1.0619801 0.6265447 0.079974666 0.3997761 -0.13106203 -0.6150006 -0.85415107 -0.086136445 0.17952639 1.0180745 -0.23132424 -0.46710008 0.69665027 -0.56293553 0.20328146 -0.6182414 0.70157367 -0.5434757 0.39541098 -0.11334041 -0.8223724 -0.05107588 -0.27225918 1.1021011 -1.0445014 0.27181682 -0.5784545 0.056638 0.6701197 -1.3261055 -0.14564812 0.1711285 -0.85936713 -0.0020620003 0.11977729 1.0914978
intracranial -0.25311065 0.15949906 -0.07258092 0.50390375 2.0514665 0.2738836 -0.10174407 0.31694874 -0.11253151 -0.47553697 0.07704514 -0.3141568 -0.30775288 0.06184075 -0.42569506 0.5548108 0.251281 -0.22302864 0.9743581 0.14627407 1.7715316 1.0940475 0.9117956 0.13223763 -0.8459668 -0.207773 0.6512051 0.056240503 0.49584353 0.09858166 0.6879233 0.37798232 0.36877134 -0.8904301 -0.17252661 0.25934196 -1.3560331 -0.9689921 0.7734039 1.6730778 0.0033728103 -0.4030112 0.3839757 0.10118274 -0.28264296 -0.2389299 -0.026922239 -0.30612785 0.7503596 1.0217581 0.37703604 -0.42426574 -0.8621775 -0.49401933 -0.34135363 -0.5820927 -0.078799285 0.068246804 -0.7485087 -0.38024065 -0.034515217 1.1689926 -0.55210567 -0.32795578 0.12646207 -0.6635449 -0.13582 0.8572259 0.19985285 -0.18339863 -0.109192036 -0.3374006 -0.21651351 0.85739195 0.19725846 -0.8530661 0.2895732 -0.8278424 0.50980264 -0.7520799 0.82189596 -0.7854341 0.6378207 0.19542488 -0.16736098 0.5463356 -0.10661455 1.2341282 0.55550253 0.61239773 -0.034184694 0.99758166 0.6133282 -1.4508363 -0.30279878 0.47337174 -0.5025088 0.36975485 -1.1564951 0.9111545
hemorrhage -0.21895364 0.096462995 -0.08792245 0.4376006 1.4086825 0.22342947 -0.13186015 0.013129202 -0.10373462 -0.1431236 0.21630113 -0.04519493 -0.0071345875 0.19977558 -0.5062496 0.44027442 0.18496878 -0.19057171 0.72264564 0.014630512 1.4415822 0.7512763 0.7486484 0.4330908 -0.74874246 -0.0771248 0.3526645 0.17378648 0.471385 0.07542128 0.7329357 0.25894964 0.22409706 -0.46887434 -0.27337825 0.2465436 -0.8751637 -0.32312584 0.63181317 1.388336 0.06821752 -0.12775375 0.3122736 0.01695365 -0.086368844 -0.16103613 0.11274204 -0.37968636 0.59617853 0.6765445 0.27111802 -0.24025065 -0.62396914 -0.45299712 -0.02122275 -0.33748776 -0.076188214 -0.025906961 -0.57873553 -0.26555985 -0.1579514 0.6689418 -0.49018362 -0.25349537 -0.11020903 -0.42670017 -0.01575902 0.44574603 0.045749307 -0.25452435 0.07922292 -0.28075477 -0.22822143 0.60299987 0.18516989 -0.63642466 0.12597007 -0.44366556 0.3012105 -0.7550409 0.45964584 -0.57184374 0.44722548 0.20768434 -0.1525994 0.20698087 0.003958707 0.8778368 0.21934368 0.276902 -0.04365128 0.58712476 0.48886856 -0.850458 -0.3051189 0.10782767 -0.46633473 0.398085 -0.7720556 0.77369994
delivered -0.21470581 0.2233119 -0.052701246 0.50472546 0.675374 0.37759545 -0.19768251 -0.20664075 -0.2407097 0.61634624 0.59815323 0.51427263 0.4096147 0.39322245 -0.76521623 0.4678722 0.2716031 -0.5623219 0.5199408 -0.21737131 1.388635 0.3212784 0.9719402 1.2167691 -0.99994564 0.10562782 0.04779359 0.45575872 0.39854786 0.033138733 1.415161 -0.040326566 -0.2320205 0.2360874 -0.66058 0.30483508 -0.6564417 0.9528248 0.46935803 1.5771227 0.33450142 0.73007655 0.36951423 -0.23215464 0.05464148 -0.1599845 0.34642482 -0.67360604 0.662046 0.15789086 0.11027958 -0.00016127306 -0.44133633 -0.505487 0.6693217 0.1657837 -0.11999621 0.08165193 -0.6683749 0.115508765 -0.3610656 0.033261724 -0.72531587 -0.30237964 -0.7938965 0.010741542 -0.02549142 -0.15803172 -0.32477924 -0.5679946 0.45229918 -0.32058764 -0.3307138 0.35882708 0.07312607 -0.17197715 -0.010650296 -0.20964527 0.39525777 -1.0732682 -0.04613177 -0.43075818 0.3265334 0.7881828 -0.49102074 -0.74036056 0.22808675 0.85515034 -0.18029782 -0.087806135 -0.2673529 0.10873214 0.26404765 -0.12583539 -0.705754 -0.74335146 -0.88089985 0.49504873 -0.16992575 1.0174413
acute -0.18629384 0.19198836 0.0692614 0.08541136 0.45209596 0.23520453 -0.23689216 0.16352154 -0.0857826 0.35295263 0.16166647 0.10370053 -0.15000436 0.039137956 -0.13112631 0.20650877 0.20377363 -0.17788269 0.2636761 0.11236127 0.5164178 0.29099795 0.3165896 0.40462342 -0.44270775 0.140068 0.25230566 -0.004032397 -0.13540773 -0.032844767 0.48128772 -0.0030680557 -0.28103596 -0.1496136 -0.14966826 0.0135311 -0.48646906 0.023305058 0.113466226 0.7089347 0.111862026 0.27351344 0.10647136 -0.067556426 -0.25184923 0.012536046 0.14225169 -0.16674682 0.19489937 0.13019106 0.099515095 -0.004314665 -0.31820503 -0.14699516 0.054739837 0.08356859 -0.17709325 0.18233334 -0.15246095 -0.0723151 -0.10122706 0.28753218 -0.2731258 -0.11578147 -0.4836806 0.16444567 -0.042284753 0.15268552 -0.009384781 -0.07102685 0.13365106 -0.22028813 0.025882024 0.33743402 0.0014720047 -0.0885056 0.06402595 -0.2578412 0.44914326 -0.3257375 0.23841676 -0.13881761 -0.054469638 0.42508644 -0.44512087 -0.25749347 0.14541139 0.46580535 0.0034313954 0.08025261 -0.2551999 0.18006125 -0.034987357 -0.3172911 -0.086341545 -0.023176426 -0.39386544 0.00961076 -0.07766779 0.6798957
disorder -0.24585694 0.25178903 0.032507513 0.06276915 0.41491053 0.15206589 -0.31661832 0.2109099 -0.106095344 0.38154045 0.1439474 0.11579437 -0.051973585 -0.015149972 -0.07132912 0.18940063 0.22050524 -0.14131936 0.30488437 0.17269084 0.38850558 0.32642895 0.2905438 0.54077315 -0.32428265 0.18593824 0.31086645 0.026423024 -0.303903 -0.14140147 0.42210218 -0.02568008 -0.38809636 -0.21968055 -0.05211049 0.07269041 -0.5395354 0.025383804 0.028825134 0.7098557 0.14914499 0.29066998 0.10567939 -0.17423715 -0.3426704 0.06846256 0.10567981 -0.06175067 0.086374454 0.13297784 0.12324514 0.0822548 -0.28520453 -0.13119401 0.059728358 0.12069545 -0.3048631 0.27033925 -0.10237163 -0.15910172 -0.11027505 0.27879336 -0.17257795 -0.095090695 -0.5444044 0.1663866 -0.13314778 0.15948221 -0.012651329 -0.06618172 0.15005001 -0.25098196 0.17009862 0.33744863 0.08326712 -0.085962884 0.05230658 -0.28165555 0.5382908 -0.41540948 0.2380564 -0.09486826 -0.19255427 0.49166787 -0.52382255 -0.30774423 0.27897254 0.46204102 0.06556452 0.07104186 -0.29411915 0.11525787 -0.06389478 -0.27128962 -0.06534639 0.032428697 -0.4058183 0.041562002 -0.024799688 0.672111
poisoning -0.28317618 0.4095934 0.19778782 0.013475234 0.28210044 0.35164455 -0.3389395 0.4943019 -0.055756442 0.6219558 0.10209168 0.1609355 -0.39449766 -0.052772302 0.11535684 0.16331059 0.2777348 -0.21957865 0.064768724 0.24656135 0.1004465 0.13318771 0.14034644 0.44999227 -0.33455586 0.32955998 0.4886371 -0.19808963 -0.62371475 -0.086644486 0.4278351 -0.16076094 -0.61794406 -0.33022806 -0.085605845 -0.027761646 -0.63323915 0.047491234 -0.08250637 0.5393674 0.23449548 0.4502582 0.02118175 -0.24757981 -0.45661172 0.047675814 0.047838107 -0.06235222 0.15913355 -0.10589472 0.2313095 0.12950708 -0.3070797 0.14175369 -0.025492461 0.1688879 -0.39880463 0.43915454 -0.08241234 -0.017706748 -0.008519099 0.27835038 -0.34224173 -0.07598697 -0.636094 0.43471193 -0.13192967 0.11608439 0.04369663 0.12447827 0.08119483 -0.3424978 0.20949844 0.4090225 -0.018704869 0.2810213 0.12662116 -0.36784843 0.8413638 -0.19315082 0.35769048 0.060680386 -0.3908564 0.8502838 -0.83196163 -0.50632334 0.25851783 0.5357331 0.09460219 0.14338039 -0.44394395 0.162551 -0.46125332 -0.23940845 0.05282661 -0.040053107 -0.4999528 -0.33405977 0.17601998 0.9490428
accident -0.44584054 0.09015337 -0.22759616 -0.910314 1.0381666 0.18325837 -0.34274456 0.6766055 -0.71324736 0.9872142 -0.66078746 0.12649967 -1.4160559 -0.2952138 0.16649015 0.86484253 1.0716475 -1.1284976 0.2629492 0.41998616 0.1475662 0.5864571 -0.76131934 -0.45294696 -0.11446258 0.5007624 0.81179947 -0.075396486 -0.61346585 0.2045773 0.35097057 -0.21527305 -1.0122038 -0.27527934 -0.2831464 -0.26873767 -1.0124061 -0.4336166 -0.59494776 0.45454633 0.697757 0.74026847 0.13354908 -0.2209693 -1.215927 0.2997375 -0.82217133 0.75824267 0.49221233 0.04589748 0.09743551 -0.3449844 -0.4086006 0.19775571 -0.5968799 0.66134316 -0.5644832 0.8052804 0.20999321 0.08138063 0.14312677 0.47683653 -0.9177538 -0.2121772 -0.30004317 0.42054492 0.06620285 1.0501366 0.17720869 0.7836094 0.48496783 0.09897349 0.7460442 0.42946225 -0.5573707 0.07874397 -0.19308622 -0.6473879 1.2626508 0.24918553 0.7751729 0.065515056 -0.7011693 0.821165 -1.2654647 0.11350023 -0.062425092 1.11969 0.1385177 -0.06452259 -1.1040081 0.37153515 -0.44130307 -0.41563103 -0.17114177 0.6186896 -0.6210976 -0.635547 -0.25037572 0.6422529
sites -0.2498432 0.059807546 0.14488706 0.07653792 0.22540008 0.07647814 -0.24571985 0.50751907 -0.055566195 0.3867819 0.09438459 0.262405 -0.17995171 -0.442344 0.25433108 0.07074293 0.42810133 0.12211111 0.40124187 0.42145163 0.59475166 0.68022627 0.5260215 0.17036082 -0.32606137 -0.074617706 0.6806394 -0.2579207 -0.30794808 -0.23847014 0.2521403 0.07106985 -0.5848805 -0.1222917 0.17461841 -0.29540476 -0.8721523 -0.43933174 0.02363175 0.743438 -0.2007347 0.06512842 0.08410678 -0.10797072 -0.38130954 -0.14760587 0.20405698 -0.22421351 -0.29217383 0.3539083 -0.1429301 -0.14220858 -0.4539496 -0.18158819 -0.49724153 0.19476011 0.110517174 0.51969016 -0.030710643 -0.0037489738 -0.06886491 0.52262217 0.14643374 -0.22748062 -0.46456224 0.5018963 -0.15496208 0.26650116 -0.13760972 0.016369756 -0.4092566 -0.14080045 0.21879734 0.5480346 -0.1746534 0.002815969 0.31532538 -0.56069857 0.5135267 0.066113286 0.40682754 -0.07212581 0.023873683 0.5023814 -0.4056796 -0.14361139 -0.10880437 0.3297518 0.20837708 0.27735355 -0.34908858 0.14755107 -0.050229076 -0.7957176 -0.09422749 0.12050862 -0.5033338 -0.010727494 -0.170971 0.6135317
disease -0.25555718 0.25945976 0.16604297 0.053000163 0.39276463 0.14493088 -0.1117931 0.4298675 -0.07219928 0.5097819 0.032076325 0.16301867 -0.21111676 -0.09472008 0.14310195 -0.09973199 0.1585534 -0.061632298 0.118555084 0.27162313 0.3631613 0.20746952 0.3567093 0.44858995 -0.42017218 0.054402817 0.38614932 -0.10607489 -0.42464614 -0.084107496 0.5315717 0.0625894 -0.39878368 -0.04732542 -0.16910902 0.013056968 -0.62982106 0.16467959 -0.0006871447 0.5687054 0.01816468 0.27197224 0.13198276 -0.083924115 -0.3605951 -0.11952232 0.15959646 -0.13558412 0.06400829 0.084702455 0.15826274 0.0762167 -0.3682142 -0.030263614 -0.09153843 0.049070623 -0.2726729 0.3597455 0.009775756 0.0002005863 -0.14265381 0.2882077 -0.17367524 -0.0026623409 -0.4148994 0.21874073 -0.14883919 0.15772042 -0.0177464 -0.03298088 -0.0164569 -0.19782116 0.055399664 0.35763156 -0.047702007 0.14123517 0.08867475 -0.3704345 0.6694439 -0.05803503 0.30000672 -0.057955936 -0.06867675 0.62456435 -0.5749646 -0.25979567 0.19291286 0.42731825 0.30679265 0.14954825 -0.28991044 0.08098421 -0.20503815 -0.25834662 -0.08642565 -0.102967 -0.5435296 -0.026743682 0.029284487 0.68032664
injuring -0.4457289 0.14684615 -0.27961123 -1.008664 0.9650399 0.18473779 -0.36217096 0.7088623 -0.74666286 1.085674 -0.69095945 0.07901161 -1.5013751 -0.3509178 0.2028403 0.93326145 1.1026837 -1.1564006 0.20764466 0.44095704 -0.0149146095 0.53910285 -0.9528749 -0.49836123 -0.026810855 0.6154766 0.8027072 -0.04784724 -0.6805453 0.22605295 0.35104948 -0.28442124 -1.0460908 -0.25780866 -0.30971414 -0.2755479 -0.9443856 -0.38383517 -0.7081301 0.327685 0.7136199 0.818727 0.16881564 -0.22533727 -1.2334613 0.38535693 -0.9064749 0.86386555 0.46193528 -0.05119027 0.07574544 -0.29082543 -0.38079754 0.25657982 -0.60025847 0.7598113 -0.6097225 0.7633762 0.2959012 0.09379083 0.18293475 0.43210974 -0.92139834 -0.21005033 -0.33624932 0.5367857 0.0901688 1.0786396 0.17419092 0.8905061 0.5719314 0.15173551 0.81963515 0.3530903 -0.5753082 0.118344046 -0.2726367 -0.6188337 1.2700598 0.27747282 0.78923833 0.09089588 -0.8510422 0.8662872 -1.3522661 0.0464723 -0.037584953 1.1094483 0.15728974 -0.11666822 -1.1714662 0.31381598 -0.51708037 -0.28945187 -0.13846722 0.6478235 -0.55926335 -0.7380981 -0.15446098 0.59216547
chronic -0.20751928 0.19296537 0.08366601 0.12148647 0.5248255 0.2401129 -0.21497196 0.19787997 -0.08935581 0.41083798 0.15406483 0.13555627 -0.18409526 0.029771708 -0.12712474 0.18176405 0.24147208 -0.1863018 0.27190363 0.1276004 0.60221934 0.30770645 0.3700199 0.42091045 -0.4955718 0.13254409 0.30639985 -0.009026659 -0.12570703 -0.029670974 0.5696346 0.004942232 -0.29816064 -0.13669127 -0.20346674 0.008211667 -0.5712014 0.032571357 0.12219155 0.7749187 0.093053855 0.2821584 0.14844851 -0.073235035 -0.27610102 -0.025122123 0.15120068 -0.1977967 0.2071146 0.13512617 0.11976084 -0.05396954 -0.3597072 -0.15036528 0.022623366 0.09068145 -0.15051122 0.19022836 -0.16988912 -0.04666511 -0.12030635 0.3143248 -0.3036663 -0.14664726 -0.4847758 0.17732567 -0.05138072 0.20108846 -0.035331395 -0.069510505 0.11560897 -0.21151318 0.009043338 0.3731727 -0.0073675346 -0.082033776 0.07162872 -0.3001096 0.49849483 -0.30668235 0.29004204 -0.16428228 -0.031045822 0.49629202 -0.48276857 -0.2625487 0.11526653 0.50640833 0.04258892 0.102360904 -0.26486278 0.20500503 -0.036764033 -0.34647638 -0.10277966 -0.059480436 -0.44950387 0.012843285 -0.09429846 0.73628575
episode -0.48366278 0.47962776 -0.3396475 -0.05341164 0.6113164 -0.2636926 -0.8568626 0.08755375 -0.29359725 0.30528772 0.2209123 0.16363928 0.8419326 0.15381968 -0.33931783 0.2596765 0.41589218 -0.08654993 0.82224077 0.4159242 0.7462554 0.5516007 0.58887917 1.3811419 -0.34704584 0.2450492 0.15538214 0.38302216 -0.4557244 -0.5004594 0.58104223 0.11454094 -0.47555432 -0.040071875 0.02165489 0.45271176 -0.5493013 0.44041094 -0.043002132 1.1928122 0.26056314 0.54314685 0.05706904 -0.440807 -0.56994873 0.3571105 0.20620081 -0.07673055 0.015591603 0.40464792 0.21911632 0.55851066 -0.40876514 -0.6074221 0.5268959 0.2659332 -0.7925439 0.20083794 -0.013037935 -0.58048123 -0.41809705 0.20945527 0.18311739 -0.07260041 -0.9215981 -0.058653906 -0.23948269 0.06810959 -0.13546461 -0.45818287 0.5260785 -0.28794459 0.51965636 0.3974413 0.40928012 -0.59552425 -0.2671464 -0.20836563 0.5053713 -1.3926017 -0.07155176 -0.20489568 -0.5302948 0.24427694 -0.5852862 -0.32464096 0.8802314 0.5648885 -0.069344535 -0.1477153 -0.34877965 -0.062025044 0.3076059 0.024474647 -0.2382974 0.14540754 -0.54362375 0.604244 -0.23596665 0.6458418
examination 0.26661727 1.2215836 0.43370867 -0.20560618 -0.116241775 0.86942685 -0.415586 1.2382884 0.22489886 -0.20552157 0.49428818 -0.37838823 -0.9532212 -0.29008713 0.38000834 0.43651447 0.26789215 -0.768008 -0.2581603 0.11229636 -0.5712819 -0.784296 0.4342931 0.25634703 -0.5805507 0.81458026 0.1026367 -0.29780453 -0.99245316 0.2833263 0.2996454 -1.0008516 -0.22256565 -0.8360781 -0.22581834 0.03051811 -0.7131759 -0.15455532 -0.10130144 0.35214028 0.8332248 0.62495726 0.02094057 -0.2315401 -0.9961211 0.46429414 -0.19983913 -0.28910497 0.60609263 -0.3040451 0.86163163 0.18393436 -0.13195506 0.32881358 0.55141085 -0.4543388 -0.8365241 0.6062982 -0.74206007 -0.011755308 0.974878 0.93995816 -0.5335546 0.051389065 -0.73511475 -0.014401204 -0.10780097 -0.37375438 0.29195997 0.07228051 0.35873887 -0.42027232 -0.23417844 0.1623357 0.04399969 0.88441724 0.32453868 -0.84163177 1.3734646 -0.90312445 0.38751936 -0.37091368 -0.9135568 1.3314972 -1.1590024 -0.7628073 0.41954136 1.1293169 -0.23071696 0.113011315 -0.99242854 0.7445491 -1.2461264 -0.2629541 0.26760802 -0.1668908 -0.33886376 -1.2198017 0.05349352 1.3836364
skull -0.23897699 0.057050504 -0.0640931 0.20260313 2.0351071 0.26250124 -0.15085222 0.6204926 -0.08585786 -0.56726164 -0.14713153 -0.34193513 -0.63863385 -0.06561809 -0.20429033 0.49966645 0.27023748 -0.23093475 0.85476786 0.26735234 1.7482588 1.048318 0.8655296 -0.18352918 -0.680937 -0.3070782 0.79363835 -0.17831923 0.38481683 -0.0026475878 0.46635494 0.4593904 0.29686722 -0.91001624 -0.10641262 0.0738231 -1.6455991 -1.2363412 0.5587702 1.5555176 0.06600696 -0.42365703 0.2291104 0.16848382 -0.66942424 -0.36897317 -0.07015647 -0.07468864 0.56884426 0.97452044 0.31715596 -0.46467647 -0.92967415 -0.4463402 -0.5669952 -0.43450102 -0.08691416 0.46814898 -0.70215446 -0.16589668 0.0020444684 1.362295 -0.34557244 -0.109465495 0.14778844 -0.62736595 -0.22753151 0.98022467 0.16628113 -0.035325035 -0.3133192 -0.31204978 -0.056030266 0.80751514 0.06263664 -0.7773953 0.36716273 -0.9114793 0.7227237 -0.32361865 0.9026565 -0.733418 0.6116917 0.22326899 -0.16011506 0.6734854 -0.31122532 1.1153847 0.67207485 0.6867047 -0.13990559 1.1306019 0.4472727 -1.7641017 -0.25670105 0.65952224 -0.52798104 0.27602237 -1.2542934 0.84366095
care -0.4314059 0.48656446 -0.32520893 -0.04643841 0.6157437 -0.28614682 -0.8578198 0.04892832 -0.29926693 0.30779603 0.2376477 0.22145116 0.8475329 0.09260001 -0.34026438 0.23840775 0.37442502 -0.07778291 0.7905923 0.38279784 0.6409896 0.4297235 0.6163014 1.3731021 -0.3595524 0.32705915 0.10470771 0.3636421 -0.3961135 -0.43634307 0.6828356 0.0825433 -0.4480599 -0.04392717 0.012620517 0.4896235 -0.47491768 0.386916 -0.097402506 1.2495775 0.2145446 0.60138303 0.019295337 -0.51276934 -0.6098041 0.34194046 0.17384997 -0.13352571 -0.03667765 0.29826227 0.2196186 0.5487944 -0.47185618 -0.6088542 0.6088921 0.25419283 -0.75918823 0.2586975 -0.05249984 -0.5215266 -0.3962716 0.16467997 0.19883761 -0.06444676 -0.8282867 -0.110269666 -0.22679526 0.07509808 -0.15616412 -0.48637977 0.48191318 -0.28067017 0.49269247 0.3864605 0.41034868 -0.58551854 -0.2916543 -0.1818501 0.5057173 -1.4405385 -0.09863457 -0.2790106 -0.59198904 0.32304662 -0.50478613 -0.323719 0.8729297 0.4822479 0.0040145703 -0.14670664 -0.41240886 -0.0826566 0.27879614 0.07091639 -0.2101652 0.13880228 -0.5510824 0.5950575 -0.15153359 0.5693694
site -0.27893668 0.027119158 0.0132216485 0.19573577 0.3661879 0.09483039 -0.3352115 0.22279118 -0.07128621 0.37141106 0.13273732 0.25692394 -0.076123565 -0.13471217 -0.047690053 0.20887649 0.3115167 0.07214073 0.424315 0.2621317 0.69163525 0.530203 0.4762313 0.33856001 -0.34796792 -0.020214459 0.5139797 -0.12075059 -0.17190978 -0.24157792 0.3360275 0.07958368 -0.49322775 -0.2324582 0.03935305 -0.070201375 -0.69287604 -0.20104322 0.04617634 0.7323479 -0.035993747 0.13164732 0.09878091 -0.13323227 -0.28151318 -0.0958566 0.22633904 -0.20431356 -0.06755975 0.16708495 -0.12620987 -0.119636916 -0.3787575 -0.1840376 -0.3156122 0.19044834 -0.003782417 0.33136562 -0.14629234 -0.039778247 -0.14409892 0.39845136 -0.010887992 -0.16134119 -0.48750004 0.29354447 -0.12335492 0.2436963 -0.10759991 0.0058968286 -0.1698587 -0.22290853 0.17574814 0.5179356 0.040637728 -0.18469112 0.17296816 -0.37324762 0.41455752 -0.15723257 0.2613484 -0.04881886 -0.013712895 0.46876687 -0.32208776 -0.21934447 0.06329257 0.35828418 0.08965003 0.20805858 -0.14579768 0.1771497 0.08403756 -0.6013441 -0.05307644 0.106851764 -0.39197797 0.06797733 -0.14107428 0.6573243
body -0.38443714 -0.14766341 0.071338795 0.108616605 0.13243642 0.01444347 -0.18821552 0.29233292 0.10005388 0.049886886 0.3710491 0.16740765 0.040973403 -0.17756537 -0.07370232 0.32222122 0.8038803 -0.18743654 0.7193775 0.3401288 1.0052481 1.1334506 0.79352653 0.26477215 -0.6911855 0.06181173 0.4927268 -0.33356923 0.19614081 0.09304423 0.1218083 -0.22208472 -0.4438537 0.044502966 0.18343432 -0.8385837 -0.7023283 -0.70460564 0.43706045 1.5636568 -0.18046738 -0.010760737 -0.035921037 -0.19599515 -0.19853102 0.23965266 0.4319062 -0.5121536 0.009304207 0.90246034 -0.022115242 -0.17890109 -0.24672066 -0.4941176 -0.18636148 0.07789022 0.4392123 0.2535133 -0.05882216 -0.3004466 0.04965432 0.7310583 -0.018355196 -0.57140446 -0.8642655 0.48174214 0.024296504 0.3239509 -0.13842401 -0.44743907 -0.57964194 -0.12551919 0.10783746 0.78839517 -0.18176779 -0.3400434 0.47434258 -0.43092263 0.270985 -0.4883173 0.5099312 -0.45247278 0.2706153 0.025314063 -0.6867885 -0.12149598 -0.20756508 0.8630959 -0.74689025 0.20509623 -0.47209057 0.12447106 0.44464502 -1.009661 -0.16647598 0.10478927 -0.70745665 -0.021791706 0.07527574 0.91606754
found 0.3857473 1.8343313 0.80403554 -0.6060908 0.38548222 1.3019861 -0.29038104 1.6890303 0.13862659 -0.1332221 0.7307893 -0.92357504 -1.3241104 -0.15025827 0.55290484 0.55684835 0.74863094 -1.0159296 -0.27217698 -0.0497011 -0.7551764 -0.83441913 0.19546948 -0.03220253 -0.678955 1.4128817 0.3717414 -0.4574957 -1.0806279 0.32297257 0.6672784 -1.2304653 -0.3018336 -0.66269505 -0.41117722 -0.09218727 -0.5927489 -0.54494375 -0.16307957 1.288832 0.8739053 0.94013256 -0.27161425 -0.3004788 -1.2955267 0.2679051 0.02798132 0.18429393 0.8567722 -0.5770768 1.3262159 -0.13298853 -0.5319874 0.3947381 0.35582453 -0.5577536 -0.8516251 0.6114143 -0.5414403 -0.1553685 0.7585081 1.0827227 -0.6576174 -0.39333543 -1.2475601 0.55542934 -0.6488455 -0.28106856 0.39496738 -0.16906041 0.23829082 -0.33995384 0.22417976 0.15872481 -0.12160191 1.1664486 0.21953182 -1.4608396 1.5822744 -1.1834283 0.26676577 -0.7326084 -0.9728195 1.5653208 -1.7478745 -1.0927297 0.6442237 1.7650636 -0.27764133 0.5011219 -0.9191021 0.84702003 -1.795227 -0.68959594 0.48881376 0.07276345 -0.43135077 -1.3093262 0.5869368 1.6872329
disorders -0.16008793 0.29185206 0.11406903 0.01226871 0.23506667 0.27039877 -0.2676576 0.27625415 -0.06697226 0.4570006 0.1794368 0.17481287 -0.16566928 -0.05022322 -0.0425729 0.21951869 0.28835726 -0.25069523 0.16486464 0.11835373 0.3086337 0.19199029 0.2691046 0.44181222 -0.32735634 0.25269434 0.30654463 -0.046652403 -0.3074811 -0.0601222 0.4342231 -0.12754369 -0.44923726 -0.14296979 -0.1043853 -0.0092961285 -0.49903855 0.06838422 -0.010521505 0.62556195 0.18113907 0.39980808 0.08403367 -0.18353459 -0.33977237 0.03131735 0.08538361 -0.12818708 0.11038644 -0.0005456111 0.094690256 0.02875161 -0.26264465 -0.050003886 0.05288634 0.16013409 -0.20574573 0.29623178 -0.14236677 -0.02026393 -0.029288769 0.24474877 -0.25494626 -0.11281468 -0.57666725 0.2784064 -0.094759256 0.074051954 -0.047707826 -0.021817565 0.12877673 -0.21862273 0.120332785 0.28562066 -0.007308863 0.0956039 0.08978258 -0.31206292 0.551453 -0.32357156 0.22295275 -0.08455793 -0.20725136 0.60461897 -0.5600458 -0.43355885 0.17738406 0.47392228 0.0033654012 0.061675634 -0.36476475 0.13895044 -0.22081104 -0.23700283 -0.07508611 -0.06819251 -0.4251128 -0.120891586 0.060472444 0.6876983
multiple -0.2243313 0.051327962 0.15580238 0.14027338 0.2777298 0.011994692 -0.1874612 0.45496523 -0.024350427 0.25391975 0.108673595 0.2319639 -0.12402618 -0.360477 0.16679323 0.013806092 0.34793124 0.22518286 0.4969877 0.380573 0.7362919 0.6762084 0.57428926 0.20983875 -0.3818406 -0.20983186 0.6130755 -0.14750178 -0.1578178 -0.2748162 0.25043416 0.18058103 -0.40552855 -0.10324767 0.12276461 -0.18695207 -0.8971213 -0.366954 0.0725428 0.7436769 -0.18946779 -0.001101102 0.10292271 -0.0767627 -0.33039325 -0.21952546 0.25468054 -0.23954569 -0.23130997 0.3733983 -0.1555342 -0.16854395 -0.47245073 -0.28619003 -0.4829374 0.0911313 0.08944004 0.48626167 -0.023728475 -0.047991954 -0.109596245 0.52756894 0.16341251 -0.21307877 -0.40800416 0.39723706 -0.13525093 0.24187993 -0.13857189 0.0120507255 -0.35377768 -0.15704498 0.19934079 0.55298454 -0.1462987 -0.08021982 0.28241205 -0.5506587 0.4136348 0.035076536 0.37401783 -0.14072564 0.1785097 0.40668383 -0.34531417 -0.07859839 -0.07064701 0.39088923 0.22654675 0.31746763 -0.20429058 0.20823888 0.023215294 -0.83150035 -0.13593848 0.12714337 -0.46554264 0.100557126 -0.18223459 0.55926394
infection -0.09530598 0.26903957 0.10302246 0.110147335 0.21241516 0.29053622 -0.25668368 0.2196042 -0.0384982 0.279451 0.23686522 0.13557008 -0.19884308 -0.03866146 -0.059976358 0.22933975 0.22452931 -0.107936636 0.21013372 0.06313977 0.3558327 0.15240899 0.34505513 0.3030489 -0.35029757 0.1649589 0.287063 -0.060312767 -0.20370677 -0.13048744 0.40428296 -0.118487656 -0.3558071 -0.20655547 -0.092624016 0.009101981 -0.4673127 0.0039381576 0.024228284 0.5761839 0.1605941 0.26973203 0.04006073 -0.13058068 -0.27234578 -0.050467808 0.14569856 -0.15773916 0.12158371 -0.08691324 0.040222816 -0.08787293 -0.2718274 -0.06851699 -0.040287636 0.090986215 -0.12572171 0.2608457 -0.24418783 0.015110225 -0.009180971 0.29541853 -0.17774442 -0.13332467 -0.50374687 0.24277008 -0.15141201 0.017952485 -0.040920764 -0.036150135 0.05028277 -0.21671802 0.067417875 0.30396226 0.028348176 0.07755878 0.118443556 -0.3440182 0.4243779 -0.30619594 0.123639144 -0.0982902 -0.13629493 0.5599363 -0.40214136 -0.38183087 0.1286665 0.3992357 -0.01405155 0.12734665 -0.19734691 0.19855772 -0.17680663 -0.35543522 -0.049292177 -0.06438191 -0.30063668 -0.10552411 0.023147224 0.6365611
vehicle -0.47250843 0.09019535 -0.2886738 -0.9708376 1.219566 0.22582078 -0.41616273 0.7654682 -0.7973633 1.0620017 -0.7039641 0.19018799 -1.5382571 -0.33363527 0.17798644 1.0173336 1.2317929 -1.2842151 0.41309863 0.49159378 0.31735033 0.75089914 -0.7631237 -0.49097493 -0.23558111 0.50749046 0.96511024 -0.07256081 -0.5888396 0.221924 0.43704525 -0.22945736 -1.1149534 -0.29412907 -0.35390124 -0.30991158 -1.200111 -0.5414731 -0.6652587 0.58007485 0.7888217 0.8266432 0.21160835 -0.26273966 -1.3725079 0.35209453 -0.88101155 0.76393545 0.54037035 0.10395864 0.0909663 -0.43466267 -0.52256715 0.10900735 -0.6971605 0.76884925 -0.6311271 0.91775197 0.18571037 0.048916154 0.1748333 0.6293133 -1.0314251 -0.31828758 -0.35794476 0.44522506 0.05500215 1.1713053 0.1569614 0.78282887 0.51953197 0.13606602 0.8349879 0.5653379 -0.62520885 0.010607854 -0.22924487 -0.7294335 1.4038395 0.20338076 0.91827273 0.016980791 -0.71732223 0.9414538 -1.4080766 0.090368524 -0.06681697 1.3070194 0.13579933 -0.065100886 -1.2444504 0.4234902 -0.43335825 -0.56284916 -0.24371801 0.6967376 -0.75099385 -0.6438297 -0.37755176 0.77116024
postpartum -0.16024692 0.2539992 -0.05128503 0.3761104 0.46047625 0.31361216 -0.23041335 -0.1698881 -0.24666394 0.66315603 0.56339693 0.557612 0.4951101 0.35465774 -0.72999436 0.4360387 0.33200568 -0.5859911 0.47608393 -0.14853881 1.227911 0.29641396 0.8987697 1.229507 -0.8848093 0.17351684 0.016482247 0.428181 0.33323112 0.061860558 1.361775 -0.08710531 -0.3130246 0.29940563 -0.6348425 0.2834334 -0.62259185 0.959983 0.3596476 1.5183674 0.3511777 0.8022303 0.36694863 -0.29796058 0.015620095 -0.06030461 0.32214856 -0.6364101 0.56608707 0.09352354 0.08413263 0.030433454 -0.37580064 -0.5078073 0.7151643 0.2387367 -0.1624716 0.1609059 -0.58791816 0.11149783 -0.30763248 -0.051793948 -0.64983624 -0.27961174 -0.87394524 0.1082272 -0.03325833 -0.24539435 -0.31215382 -0.5505362 0.4844501 -0.27176276 -0.22040187 0.26530147 0.038871307 -0.11656262 -0.054611407 -0.18381536 0.39689076 -1.1006658 -0.09631704 -0.45152625 0.19407316 0.7926615 -0.5163936 -0.81595176 0.26221463 0.7995686 -0.2197364 -0.16386665 -0.3553078 0.04945018 0.22682627 -0.019344486 -0.6886409 -0.7267843 -0.8832203 0.4671888 -0.071450636 0.87203604
applicable -0.4094512 0.47842413 -0.2910475 -0.06635958 0.5674115 -0.2740889 -0.79816943 0.14679118 -0.28097737 0.33086833 0.18445344 0.1588993 0.81316435 0.14835842 -0.295028 0.2623136 0.3452912 -0.06077487 0.76470715 0.411884 0.6885255 0.53382057 0.615037 1.3937875 -0.39289024 0.24618174 0.124653466 0.33818743 -0.49370462 -0.49405277 0.58551574 0.14734237 -0.4954804 -0.032623716 -0.06758112 0.41982323 -0.55225873 0.48825037 -0.027085919 1.2480386 0.2894402 0.5836624 0.06096563 -0.4849391 -0.6123521 0.30248398 0.18874332 -0.043780416 -0.011218854 0.35095853 0.19898821 0.5271614 -0.37355387 -0.59158695 0.5362306 0.24792582 -0.83275783 0.21284296 0.00961134 -0.5783458 -0.44435728 0.16160372 0.17849979 -0.07023494 -0.92562234 -0.028932212 -0.2138134 0.017138178 -0.16719562 -0.44782382 0.52799225 -0.29590473 0.52519035 0.37137967 0.36210826 -0.59816045 -0.27478182 -0.25827128 0.4973095 -1.4318337 -0.04779676 -0.19881567 -0.5979394 0.2914892 -0.61794376 -0.30082333 0.8616581 0.58965796 -0.047481347 -0.16695431 -0.43464196 -0.042076267 0.25212553 0.02201829 -0.285954 0.14914636 -0.5363082 0.58987665 -0.2461799 0.6578007
pregnancy -0.215085 0.32898328 -0.07804611 0.2318121 0.34547737 0.12737915 -0.28958312 -0.07022126 -0.23513901 0.600141 0.43728057 0.39452526 0.57507145 0.28894702 -0.49991056 0.26825637 0.2620854 -0.47935978 0.32422328 -0.048326574 0.7946429 0.17445767 0.6500084 1.2132443 -0.61213815 0.24428974 0.0019315911 0.39330795 0.0061237006 -0.06141859 1.0415744 -0.09437187 -0.3547694 0.23291469 -0.43116027 0.31345224 -0.44613165 0.8781648 0.16985181 1.1745381 0.3303118 0.7499885 0.23074423 -0.37206832 -0.08708357 0.015371 0.23734508 -0.44817752 0.38754025 0.062181186 0.18630375 0.21741585 -0.31427658 -0.34474385 0.6457497 0.17989914 -0.33362073 0.17188887 -0.3382058 -0.022076614 -0.3249832 -0.11382637 -0.47536027 -0.15803286 -0.78453714 0.075746045 -0.04376337 -0.20865285 -0.2447107 -0.43703547 0.457217 -0.24846035 -0.057470564 0.18471569 0.16826405 -0.047502883 -0.14343634 -0.14106844 0.41228235 -1.0142812 -0.09816854 -0.25758183 -0.038705688 0.68369776 -0.5397124 -0.67602015 0.42907006 0.66548234 -0.17234963 -0.20202029 -0.34645388 -0.07259172 0.09713774 0.20467576 -0.49371204 -0.57306004 -0.7713425 0.36716327 0.035258416 0.71011466
upper -0.23539938 0.08093791 0.23671901 0.031319946 0.15435776 0.20357895 -0.25056165 0.6009349 -0.08496758 0.31020448 0.050413392 0.11359071 -0.25122333 -0.52677804 0.31842133 0.022324584 0.38756394 0.13854364 0.47271734 0.450147 0.5641992 0.61673397 0.583354 0.054326814 -0.41358083 -0.1976193 0.6737978 -0.29656819 -0.34698534 -0.22302128 0.22508708 0.11497102 -0.6221112 -0.16042858 0.22472857 -0.21111979 -0.93261427 -0.42416367 -0.017210584 0.649156 -0.14248487 0.0026183906 0.10794944 -0.053335052 -0.5377596 -0.2389245 0.2634701 -0.08696873 -0.25965685 0.43120039 -0.108883314 -0.120353244 -0.5225348 -0.27611065 -0.562354 0.06378364 -0.03377828 0.6856654 -0.021963913 0.027550522 -0.029145543 0.60238093 0.19462769 -0.23311451 -0.4649648 0.4110847 -0.26708144 0.24482554 -0.046972692 0.07093177 -0.3852089 -0.11393173 0.22673099 0.4476067 -0.22479472 0.18729112 0.34169954 -0.60147774 0.6315102 0.19046849 0.34921193 -0.112662226 0.050355196 0.5213436 -0.49256024 -0.19669455 -0.062934674 0.35653022 0.23962568 0.38421863 -0.29645243 0.15507826 -0.19409783 -0.92311645 -0.09215971 0.16900575 -0.4524513 0.0066300025 -0.18404697 0.7037268
elsewhere -0.6013078 -0.04951711 -0.07460682 0.3713614 -0.11324885 0.012847945 -0.84101117 -0.10569044 -0.26961115 1.1978315 0.21090256 0.8649686 -0.08902696 0.109881595 -0.18039508 0.44070992 0.44731778 0.26570192 0.37023255 0.23829783 0.59538406 0.42037994 0.40273064 0.46635807 -0.2411071 0.27068397 0.8565848 -0.12687565 -0.6192541 -0.5701891 0.42601135 0.12878302 -1.3875165 -0.2993388 0.04717273 -0.18237206 -0.69114596 0.06985616 -0.2562451 0.61387736 0.15115802 0.44425467 -0.25035915 -0.22763745 -0.33722353 -0.13795047 0.39276513 -0.261462 -0.34440362 -0.7566887 -0.49075818 -0.17156102 -0.13313848 -0.12254965 -0.49678218 0.7208642 -0.12067719 0.44082233 -0.064866304 0.30511573 -0.18066575 0.19337669 -0.37239814 -0.019479522 -0.89245725 0.8050755 -0.495302 0.10394232 -0.25177065 0.28420213 -0.16122149 -0.4871547 0.36166775 0.81165576 0.3355763 0.04871321 0.13955769 -0.07053222 0.56620795 -0.2625889 0.049715027 0.5338849 -0.4135257 1.1374828 -0.49570918 -0.96418756 0.43753502 0.032016434 -0.009528601 -0.041195534 -0.06996139 0.07442534 0.065212384 -0.45054886 0.026075406 -0.07569191 -0.26093262 -0.10305631 0.42733696 0.9293783
bacilli 0.4022793 1.6099755 0.6746052 -0.5080907 0.18397722 1.1369648 -0.24596538 1.5137638 0.15500818 -0.2932621 0.6738631 -0.87673014 -1.1763135 -0.14563704 0.548471 0.48671392 0.56898326 -0.8093889 -0.3471787 -0.05828611 -0.75013196 -0.87591803 0.13475381 -0.043057155 -0.56605697 1.1834886 0.24669026 -0.4293803 -0.9798614 0.32098597 0.43446454 -1.1085607 -0.15780582 -0.63114077 -0.36369115 -0.07162466 -0.50562555 -0.51104605 -0.13387315 0.91694623 0.7840579 0.75930715 -0.25268483 -0.27180874 -1.1065501 0.24062105 -0.065006144 0.118700005 0.73390573 -0.52039 1.1754397 -0.05771933 -0.42044714 0.3672826 0.31001663 -0.53661764 -0.77805114 0.48358554 -0.5470547 -0.08933738 0.80484354 0.99900174 -0.5253659 -0.24120249 -0.94541883 0.40545875 -0.46609598 -0.34271464 0.3343686 -0.09742931 0.20327434 -0.24942964 0.058786552 0.07949259 -0.02774035 1.0841633 0.21994835 -1.2130159 1.3164705 -1.0314226 0.24833848 -0.61566 -0.898962 1.3243636 -1.4744884 -0.9568844 0.52835554 1.5114745 -0.18462528 0.36929795 -0.8511174 0.73917323 -1.6173621 -0.52347237 0.4637041 0.02299793 -0.28968525 -1.2457428 0.43203253 1.383859
effects -0.86608225 0.27274016 0.28844085 0.27342585 0.64595556 0.5028782 -0.074244246 0.635993 0.02749002 1.2630038 0.029003449 0.20609772 -0.36211193 0.4383491 0.09478861 -0.45689952 0.008926091 -0.5092867 -0.33624282 0.27127373 -0.03578936 -0.046199534 0.13009562 1.1103355 -0.42554465 0.25495496 0.67786855 -0.37606502 -1.1452311 -0.18967746 0.74129903 -0.05345508 -0.99970365 -0.3455377 -0.11176939 0.0746046 -0.59001684 0.8145835 0.11703259 0.8635505 0.20735373 0.67111164 -0.11547873 -0.21295406 -0.5805831 -0.45649692 0.19577153 0.037665304 0.34477854 -0.1859344 0.5768879 0.4777432 -0.110425174 0.4502355 0.12874223 -0.08320425 -0.84620535 0.8752927 0.24740551 -0.06853631 -0.53379405 0.020435618 -0.7324162 0.28266436 -0.98395926 0.48024562 -0.2364017 0.1291862 0.07341915 0.03192188 -0.23294953 -0.6054328 0.18522987 0.46709785 0.06742115 0.5924515 0.22492906 -0.37288025 1.5365982 0.22232246 0.30306014 0.42183703 -0.1415099 1.4075572 -1.4287906 -0.93481505 0.7310648 0.97400564 0.41500777 0.21037236 -0.36464915 -0.041275613 -0.7429187 -0.07461524 0.17926167 -0.45357987 -1.1025863 -0.3286251 0.70668477 1.8210267
tubercle 0.40226623 1.42253 0.64397603 -0.4479536 0.1333205 0.98718494 -0.1823599 1.3328273 0.18115088 -0.25502726 0.53501844 -0.7645002 -1.0346323 -0.2014411 0.52365774 0.35322452 0.4344248 -0.7243132 -0.30230033 -0.044550456 -0.7528771 -0.7934199 0.15635797 -0.09769851 -0.4933553 1.0490649 0.19638707 -0.3749557 -0.854492 0.222524 0.39239004 -0.9703458 -0.10430541 -0.54479426 -0.28955308 -0.026756758 -0.387388 -0.38575643 -0.15528993 0.75761306 0.6502242 0.634245 -0.18074536 -0.23119317 -0.9311196 0.22462487 -0.007135384 0.09233353 0.6059544 -0.469351 1.0012875 -0.072970204 -0.32596707 0.33640447 0.32180512 -0.48701975 -0.65945727 0.4115634 -0.46496347 -0.11094757 0.6862474 0.83555377 -0.40767616 -0.21184957 -0.84800845 0.30668542 -0.4782591 -0.28378105 0.32152778 -0.108839825 0.1875488 -0.27424696 0.08097369 0.058835573 -0.088268235 0.9652548 0.21204934 -1.0916752 1.1603627 -0.86031705 0.19231573 -0.5121418 -0.7700791 1.161709 -1.2486864 -0.80244184 0.4785073 1.208492 -0.19548248 0.34559906 -0.6787868 0.65902907 -1.434327 -0.45477688 0.40082932 0.026055096 -0.22292538 -1.0961679 0.42667508 1.2168927
bacteriological 0.3772473 1.413214 0.5319261 -0.27959338 -0.064270064 1.0313977 -0.4155546 1.4690038 0.21777026 -0.2842334 0.5376899 -0.5730498 -1.1608274 -0.3265107 0.48164657 0.44480085 0.31563613 -0.866008 -0.300255 0.09139899 -0.6931328 -0.91084695 0.41726917 0.14737955 -0.64446336 0.9483194 0.14151332 -0.3600923 -1.0874789 0.28850532 0.30975184 -1.13054 -0.20717122 -0.89971495 -0.24061154 0.028196983 -0.74056256 -0.29592973 -0.13106622 0.47214416 0.8703928 0.69033164 -0.012529233 -0.26956084 -1.1182089 0.4688391 -0.22572836 -0.22915898 0.6867197 -0.32757494 1.0089501 0.14890043 -0.20127492 0.36311388 0.53250283 -0.55606836 -0.89251465 0.66076964 -0.7974069 -0.029806715 1.0709207 1.080146 -0.5786324 0.014455171 -0.84578437 0.034730356 -0.1865798 -0.3662084 0.32817864 0.06907188 0.35148722 -0.4166608 -0.22596842 0.1579445 0.028620064 1.0329648 0.37313274 -1.0362464 1.4990503 -0.9862426 0.4543366 -0.46065366 -0.96411127 1.4644393 -1.3591996 -0.860595 0.48992112 1.3376489 -0.21660705 0.17443958 -1.0545667 0.83910704 -1.4867085 -0.37285787 0.32317105 -0.13632329 -0.3789265 -1.3744631 0.14496042 1.5228254
classified -0.4668419 -0.053843983 -0.11713159 0.41029784 -0.1709808 0.30666217 -0.6546682 0.03193344 -0.097568855 0.98724836 0.28784096 0.7574859 -0.15596125 0.081670836 -0.25411177 0.51308274 0.22100013 0.081979506 0.4540903 0.19015068 0.4482234 0.2971226 0.32699344 0.63567626 -0.24696362 0.03565816 0.69248796 -0.40828368 -0.49148735 -0.6831366 0.40653852 -0.13422424 -1.2578291 -0.38712326 0.065905795 -0.23258547 -0.62270147 0.3013648 -0.42837438 0.28794023 0.30141884 0.5528788 -0.0071544778 -0.5080587 -0.20964453 -0.1961486 0.4891457 -0.20922054 0.0034032054 -0.65195245 -0.5131733 -0.24394152 -0.31194973 0.13798898 -0.51517177 0.79245067 0.03873454 0.68126875 -0.22751987 0.18661785 -0.30611733 0.052158065 0.017591588 -0.015090743 -1.0717261 0.78335494 -0.15511745 0.022176014 -0.1465753 0.2569263 -0.124990135 -0.41148096 0.57606745 0.77645653 0.1405404 0.00963961 0.24211276 -0.2305745 0.55691564 0.073395126 -0.1570882 0.558384 -0.3929424 1.1722691 -0.4892789 -0.78669834 0.2444582 0.11560297 -0.25446576 0.3420956 0.007507709 -0.06441332 -0.22409587 -0.479605 0.0650427 0.16964081 -0.35551643 -0.15733609 0.42650467 1.1479863
lower -0.28720278 0.14579304 0.21709456 -0.040049724 0.19341819 0.21385539 -0.29124212 0.64784324 -0.07579587 0.33726013 0.039277297 0.11698103 -0.27275467 -0.5269098 0.31101623 0.038274705 0.39737797 0.0836085 0.46927622 0.4831274 0.5765237 0.61098087 0.6083127 0.08382969 -0.41081452 -0.16083336 0.7270678 -0.3253442 -0.39923853 -0.24820954 0.26015303 0.07382789 -0.67221886 -0.15365443 0.21783128 -0.19465797 -0.94537574 -0.4233085 0.0045430725 0.72650295 -0.12165826 0.060171857 0.1139904 -0.096936755 -0.59281343 -0.2534497 0.24601828 -0.07349526 -0.24134806 0.44319656 -0.05024864 -0.124293365 -0.54737806 -0.2669076 -0.5442716 0.07196821 -0.061170705 0.73636913 -0.050324075 0.006294243 -0.06422404 0.6034112 0.14037822 -0.24622911 -0.55097145 0.4680093 -0.2623087 0.2688119 -0.053767484 0.09395951 -0.3621449 -0.124402046 0.22476912 0.46442637 -0.20278457 0.21453206 0.3311762 -0.6488248 0.6793057 0.16714755 0.38016993 -0.108577065 0.029477833 0.5576249 -0.60399956 -0.2656917 0.00020241598 0.39315823 0.20868237 0.40561488 -0.36786047 0.15755081 -0.20872988 -0.9134156 -0.08418024 0.1817304 -0.5018103 -0.0031331766 -0.14210337 0.76807195
joint -0.20294048 0.18081516 0.14100197 -0.03784284 -0.018286167 0.24861121 -0.41139382 0.46079424 -0.036686573 0.46329087 0.119241945 0.24281006 -0.4146475 -0.28045288 0.2257914 0.1594802 0.38297588 0.031080194 0.23479071 0.29441604 0.19427559 0.3417178 0.27322853 0.14506206 -0.20816249 0.11146431 0.56231236 -0.26232186 -0.49586183 -0.30134535 0.16660294 -0.11033677 -0.7611539 -0.23413415 0.14722176 -0.23294136 -0.69113046 -0.2842847 -0.1967303 0.43937784 0.08434395 0.2611711 -0.024249393 -0.14451168 -0.53090554 -0.0986223 0.15962087 -0.01954198 -0.19729537 -0.057092328 -0.10551037 -0.10421677 -0.32758674 -0.028490894 -0.39594126 0.29883024 -0.07152351 0.602047 -0.04351949 0.04310641 0.01042027 0.40426308 0.0449283 -0.12734346 -0.6724861 0.59345716 -0.20378503 0.1413685 -0.08816179 0.15803394 -0.17345291 -0.19905324 0.296662 0.3959545 -0.07212846 0.17955866 0.25545967 -0.45551872 0.6100293 0.07340403 0.2587868 0.06148462 -0.28032324 0.6690105 -0.54964256 -0.4357183 0.064667664 0.26138613 0.021071555 0.2193706 -0.3488169 0.15336676 -0.3421067 -0.60229367 0.039928608 0.10173109 -0.3262404 -0.24844742 0.11484154 0.6892492
motor -0.3901643 0.07311163 -0.25560582 -0.871612 1.0506015 0.1825697 -0.37326556 0.64935464 -0.727925 0.99028903 -0.6366229 0.14102952 -1.3719748 -0.3419063 0.14843166 0.9167434 1.1055421 -1.1546537 0.3552003 0.39832553 0.28260446 0.6437434 -0.70565784 -0.42125896 -0.15796147 0.5022735 0.8200153 -0.05628307 -0.5406144 0.2093112 0.369388 -0.19021861 -0.9801801 -0.28951418 -0.32710427 -0.32838932 -1.0263542 -0.46455288 -0.57505685 0.54761916 0.70908767 0.74281955 0.13107577 -0.2617054 -1.2137349 0.27923983 -0.7911312 0.70632315 0.49975967 0.069359906 0.07564221 -0.42526403 -0.47126216 0.104829006 -0.60083836 0.7096925 -0.5077027 0.828001 0.14026189 0.10319923 0.121195234 0.5139055 -0.9172606 -0.26547337 -0.3552484 0.3917728 0.045348387 1.0507804 0.16038658 0.71289414 0.48820442 0.07059358 0.7542235 0.49222592 -0.55702806 0.060754735 -0.18407375 -0.6791355 1.2365375 0.19421586 0.77773005 -0.022162702 -0.6787455 0.83746076 -1.243223 0.10331823 -0.06467058 1.1632211 0.12314871 -0.05144143 -1.1171218 0.4458381 -0.39831865 -0.48492903 -0.23686245 0.6123539 -0.6285327 -0.59551215 -0.3271478 0.64507097
causing -0.75031424 0.25163725 0.19608048 0.14736128 0.4754335 0.43725586 -0.09428522 0.5151832 -0.0007641763 1.1490331 0.018656293 0.23422831 -0.343573 0.38580975 0.025722 -0.31876203 -0.00192858 -0.4762051 -0.3145886 0.24696666 -0.07131362 -0.10981541 0.0294189 0.91986436 -0.33998427 0.2817838 0.55157614 -0.30058885 -0.98652905 -0.17129558 0.6633065 -0.07043327 -0.909724 -0.24830957 -0.13720082 0.082419306 -0.47284517 0.7655282 0.015918108 0.6266638 0.23569238 0.65739614 -0.10009471 -0.20996864 -0.51804566 -0.3104721 0.12295609 0.07493905 0.30476815 -0.24003352 0.46496898 0.4215661 -0.07835166 0.40690032 0.122037314 0.019483974 -0.7454879 0.7222818 0.22876479 -0.027651576 -0.43222317 -0.027840437 -0.66647065 0.23538691 -0.84108055 0.44373652 -0.17344911 0.120542094 0.03990274 0.103992924 -0.107181124 -0.4789629 0.18231271 0.3766387 0.047856268 0.49335393 0.17056657 -0.2696624 1.2816377 0.18689097 0.19335185 0.37667894 -0.19813375 1.2383307 -1.2464011 -0.83817214 0.6065625 0.78892356 0.32160243 0.1416623 -0.32384697 -0.054889232 -0.6651351 0.028870976 0.13605489 -0.39449197 -0.94057655 -0.31815106 0.6088919 1.4897578
nodes -0.24233513 0.39362168 0.3099754 -0.22337657 0.4570637 -0.09466199 0.021195594 1.2552572 -0.2142719 0.4174603 -0.13307926 0.11129405 -0.4950255 -0.9200975 0.924733 -0.26103643 0.35014805 0.47256985 0.4820036 0.88202107 0.65999115 0.65088457 0.7823364 0.12225048 -0.49306312 -0.45061123 0.89864224 -0.37764457 -0.7996946 -0.16425852 0.54802305 0.2855613 -0.6451247 -0.014188331 0.052374862 -0.20507582 -1.5300424 -0.2811757 -0.11247278 0.573029 -0.35262477 -0.018904705 0.26128194 -0.0777115 -0.7119628 -0.4529423 0.24067372 -0.1952538 -0.23679456 0.3762573 0.025818644 0.00043087392 -0.9292431 -0.32056752 -0.8572132 -0.048051566 -0.30151242 0.91373754 0.10536412 0.18395531 0.05360005 1.0072057 0.31246975 0.14087178 -0.2044435 0.45872256 -0.45044968 0.26000813 -0.028071018 0.15479751 -0.3800926 -0.07341761 0.21121292 0.71612036 -0.5090147 0.5204883 0.2104992 -1.0505438 1.0971146 0.33740348 0.6448278 -0.1480078 0.068694904 0.90178776 -0.70588946 0.10435386 0.13834663 0.51583195 0.9638522 0.46295112 -0.49174654 0.20186621 -0.52155054 -1.0705594 -0.29587156 0.21296458 -0.63708174 -0.03895458 -0.33204523 0.6854205
diseases -0.26273736 0.2174027 0.06743845 0.11050419 -0.068212226 0.24765769 -0.45929223 0.18086411 -0.107859455 0.71541137 0.22350039 0.4392358 -0.17328289 -0.01630726 -0.0758075 0.30428845 0.35039985 -0.10750503 0.18458804 0.12189201 0.25050834 0.13499488 0.27579063 0.42605704 -0.24942258 0.29611617 0.4581453 -0.16033894 -0.45938066 -0.27793515 0.400424 -0.16327618 -0.8386978 -0.1631456 -0.055809017 -0.11028228 -0.49794492 0.15802754 -0.22281125 0.49512324 0.22552602 0.50302947 -0.048926555 -0.26960644 -0.3310985 -0.035293296 0.2347555 -0.15423334 -0.011649445 -0.41146803 -0.13158162 -0.06907012 -0.21129496 0.02373866 -0.17387818 0.39712 -0.12628873 0.4337838 -0.128099 0.14628278 -0.09000083 0.15967737 -0.2122793 -0.094432 -0.7833777 0.56219393 -0.21728265 -0.019393135 -0.1177288 0.098379105 0.019603198 -0.28902724 0.29100803 0.42067918 0.08467462 0.18515159 0.12156673 -0.273759 0.5626872 -0.24209511 0.039870992 0.16925792 -0.36619255 0.8874721 -0.5359588 -0.6954239 0.24544927 0.28985754 -0.118717514 0.06827365 -0.26210243 0.06980969 -0.2622156 -0.2874458 -0.017278126 -0.064082064 -0.3487617 -0.19374748 0.2925349 0.78915364
history 0.029080404 0.34029874 0.24378812 0.0036454007 0.105019666 0.3728263 -0.097353555 0.6834992 0.22781746 0.6803051 0.007265372 0.18001443 -0.060530227 -0.47368002 0.14397667 0.040120248 0.2717359 -0.42443845 -0.21194078 0.24929374 0.14013086 0.04862216 0.16999516 0.46264064 0.020640181 0.30622807 0.34338698 -0.23707849 -0.5172705 0.045935392 0.29075867 -0.22805509 -0.5263829 -0.080042325 0.010171839 -0.1084225 -0.3328066 0.07185977 -0.072353356 0.26136154 -0.030518731 0.5988682 0.074169084 -0.40211487 -0.4574227 -0.11911517 -0.075374074 -0.16953343 -0.22476427 -0.15186904 0.1495298 0.16775322 -0.37490743 0.18179461 -0.16696386 0.15076962 -0.068781264 0.22718218 0.032465987 0.21214011 0.02262613 0.19977745 -0.06562127 -0.274423 -0.5655753 0.49926987 0.10750672 0.110045195 -0.20484455 0.21116285 -0.098986804 -0.19205591 0.17239559 0.093368284 -0.070534825 0.4247373 0.08249599 -0.29737544 0.5755621 -0.011115767 0.53417397 -0.13229707 -0.42933536 0.76584053 -0.4283556 -0.6479005 0.04141777 0.47916526 0.19714564 0.10721783 -0.59065473 0.11183442 -0.62130976 -0.11367349 0.11485316 -0.1370618 -0.42088076 -0.38047305 0.16048144 0.48681793
type -0.3312036 0.23450823 0.08199253 -0.015442777 0.62532353 0.27057493 -0.21626654 0.19301149 -0.26003298 0.67712843 0.117114216 0.12251397 -0.26641232 0.029351076 -0.021470549 0.26468903 0.17873296 -0.1174291 0.32890302 0.23800735 0.504788 0.48248535 0.28040385 0.5185762 -0.45656505 0.13264795 0.34704718 -0.01896339 -0.36277667 0.010930916 0.58159405 0.110813834 -0.46899644 -0.129568 -0.090858765 -0.013439441 -0.66538656 0.081813574 -0.031122386 0.6566484 0.047315698 0.3800065 0.23019758 -0.019539364 -0.34703404 0.071610354 0.19884919 -0.11024243 0.10056029 0.20354404 -0.0075000785 0.12979537 -0.36797032 -0.18780991 0.11177822 0.31622642 -0.27729362 0.21787597 0.07857907 -0.117216244 -0.20323357 0.31455028 -0.3831509 0.035960637 -0.61105525 0.24446398 -0.009023207 0.22396699 0.14149001 -0.013112179 0.29550785 -0.29965937 0.09075057 0.39357477 -0.12095656 -0.008534604 -0.019438146 -0.18474688 0.68589854 -0.19914773 0.36997637 -0.12986097 -0.050331242 0.48441464 -0.6596724 -0.27534556 0.19324496 0.46816012 0.22530489 0.18506864 -0.3688251 0.0014465295 0.10057146 -0.24498037 -0.16242945 0.16176504 -0.5197258 0.04470933 -0.015984507 0.68686974
lymph -0.27407494 0.40571418 0.30491424 -0.20579816 0.4209446 -0.19281682 -0.108818986 1.2616812 -0.19290031 0.48511612 -0.07021194 0.19339223 -0.44921505 -0.92584425 0.97876316 -0.3279926 0.27305427 0.5631039 0.41852742 0.9308576 0.75748074 0.7376952 0.82087344 0.060794406 -0.5957796 -0.5187693 0.97648907 -0.39935195 -0.7939694 -0.31264755 0.5454207 0.37053677 -0.50123596 0.16579792 -0.0324603 -0.09197607 -1.5999637 -0.3435932 -0.2625646 0.79362786 -0.34128308 0.030080857 0.27065504 0.04426432 -0.5764757 -0.4098939 0.1820058 -0.20461263 -0.3744187 0.44131848 -0.006580208 -0.16573185 -0.93430626 -0.26112127 -0.8711004 0.105477065 -0.12736855 0.9891696 0.1986599 0.109027885 -0.17924677 0.89762485 0.3145994 0.12893899 -0.16097946 0.5721918 -0.42154503 0.27347985 -0.10681884 -0.0017467068 -0.54238063 -0.2599977 0.36728555 0.7692213 -0.35529482 0.509023 0.36075535 -0.86849266 0.99185985 0.34847844 0.46684778 -0.24874356 0.15610102 1.0250686 -0.6306812 0.10649119 0.03478418 0.34413844 1.0711534 0.44844893 -0.6376255 0.04387264 -0.266037 -0.9563893 -0.4420074 0.14770722 -0.8421365 0.071686186 -0.38849145 0.5463452
level 0.0074098883 0.48945522 0.44124556 0.5371838 0.82880974 -0.04014132 -0.091237955 0.30060446 0.03795127 0.25358844 0.17222056 -0.26280394 -0.050984666 -0.2826209 0.38695225 0.44979268 0.3613912 -0.16937767 0.48498744 0.15957937 0.06695772 0.8420028 0.35697776 0.36328346 -0.3125297 0.31746703 0.62540984 0.2285586 -0.17951773 0.5551146 0.29794443 -0.0068428144 0.015112662 -0.6464025 0.2961106 0.0268504 -0.58277094 -0.5148175 0.54956776 0.96825355 -0.07771769 -0.27830583 0.29927868 -0.2990323 0.18398936 0.2560699 -0.17657201 -0.37296972 0.9414732 0.74727464 0.7736761 -0.13532528 -0.5166399 0.22369172 -0.24386874 -0.62991804 -0.36895368 -0.22278814 -0.14703295 -0.3736598 0.14259215 0.48386765 -0.6631466 -0.4255744 -0.10744987 0.055225544 0.0011060571 0.10929058 0.506186 -0.0052706045 -0.024518633 -0.48089468 -0.05661645 0.6446297 0.34427592 0.22631459 -0.04599442 -0.5078946 0.58823586 -0.6780054 1.0179033 -0.19217274 -0.09849493 0.6241644 -0.724676 0.15495747 0.0137672555 0.8538527 -0.10087552 0.39258158 -0.6604268 0.26947644 -0.09260461 -0.29384926 -0.06578478 0.44494563 -0.16559784 -0.29674757 -0.21192549 0.8229596
region -0.23096548 0.21124229 0.19297354 -0.0077118445 0.15494677 0.24148183 -0.3236674 0.5734629 -0.056597546 0.5045371 0.13929535 0.16062249 -0.36716896 -0.43642536 0.3300889 0.057999473 0.40015635 0.11498738 0.3665654 0.3975826 0.43914378 0.4932052 0.4418697 0.17130898 -0.42511955 -0.039214056 0.6495054 -0.2472198 -0.45429564 -0.25073922 0.34742734 -0.047593743 -0.7140586 -0.18694271 0.11220408 -0.15211917 -0.9001083 -0.30012858 -0.10316107 0.67674786 -0.052955005 0.20302615 0.09365078 -0.062285766 -0.5290346 -0.12819347 0.19535203 -0.08989144 -0.1526024 0.16149548 -0.08418255 -0.10472887 -0.47095135 -0.18730928 -0.49239102 0.17369351 -0.08477215 0.6808812 -0.036474142 0.03249228 -0.07220444 0.57813865 0.054983594 -0.16449821 -0.64061004 0.60144407 -0.24988213 0.22549422 -0.04422112 0.06252704 -0.16293517 -0.22295342 0.26488835 0.4997198 -0.19730307 0.25317547 0.25567627 -0.621318 0.6919825 -0.013243091 0.32911536 -0.11072453 -0.074624896 0.71668166 -0.65402657 -0.33889642 0.010418173 0.38908476 0.2207015 0.28818843 -0.41484526 0.12183753 -0.30998144 -0.788742 -0.0894065 0.05849729 -0.44226012 -0.080721214 -0.048685443 0.7557239
third -0.52938294 -0.32977897 0.046399783 0.23284568 -0.099228516 -0.0014161917 -0.1514444 0.21326032 0.21745776 -0.07558819 0.64576054 0.09564616 0.29823986 -0.08539911 -0.124325804 0.36429062 1.097946 -0.20586075 0.96757656 0.41588885 1.3009756 1.5106543 1.1480187 0.3654123 -0.9713721 0.14875741 0.4730528 -0.4863326 0.37034956 0.2334803 0.03028295 -0.4458029 -0.5475065 0.2228059 0.29667085 -1.2364669 -0.6103664 -0.9895219 0.69426817 2.2179818 -0.33997566 -0.1263055 -0.0822624 -0.29139227 -0.025648817 0.48741674 0.71872103 -0.8549763 0.06304 1.3502911 -0.011353937 -0.22719388 -0.18994687 -0.68677187 -0.13159423 0.052443556 0.69754106 0.15713091 0.004219705 -0.52082413 0.04482719 0.93538517 0.061289124 -0.8852768 -1.2393378 0.6487193 0.12795876 0.3601072 -0.1108434 -0.83074504 -0.86322385 -0.10744566 0.03591912 1.0972427 -0.2273462 -0.47765812 0.72149044 -0.44820502 0.12035134 -0.8343043 0.6774944 -0.63056606 0.44212383 -0.16765629 -0.8605992 -0.13808344 -0.24662025 1.2376649 -1.34595 0.2330127 -0.58091265 -0.058965325 0.7359061 -1.3061309 -0.21173929 0.1067873 -0.8705845 -0.06517875 0.31830204 1.216057
limb -0.23076737 0.0753538 0.18081295 0.008795251 0.141657 -0.0412192 -0.25724268 0.7336032 -0.03734763 0.34111238 -0.012058754 0.18074098 -0.2825779 -0.6484558 0.5150385 -0.1797079 0.3602175 0.37613845 0.38448653 0.5138205 0.48449662 0.7222157 0.50917685 0.048430312 -0.32127985 -0.30700544 0.7546918 -0.26807877 -0.40652722 -0.32535994 0.09009352 0.16326295 -0.5673053 -0.078709915 0.30814043 -0.22495535 -0.9539044 -0.48291013 -0.040491197 0.49227494 -0.35266632 -0.027181579 0.035765592 0.000462227 -0.39409056 -0.3489045 0.1698065 -0.09873696 -0.33787632 0.45712113 -0.16853894 -0.101261 -0.5682402 -0.1541266 -0.7102685 0.058588102 0.04837192 0.74574196 0.06512214 0.011069794 -0.050422087 0.5764542 0.30247757 -0.14599203 -0.43427962 0.5427179 -0.21577947 0.22859205 -0.16360688 0.055951063 -0.45329332 -0.08051103 0.28961745 0.48936015 -0.18003003 0.1293449 0.31648275 -0.6383952 0.5111025 0.3217482 0.41325486 -0.08036387 0.14952143 0.46177217 -0.47295997 -0.09190741 -0.16684014 0.22961533 0.33866462 0.35806525 -0.34571192 0.1465869 -0.09279711 -0.84334373 -0.095368005 0.103447594 -0.44251004 0.03000514 -0.18705475 0.5127111
deep -0.4851952 -0.23298061 0.12284497 0.06503542 -0.35845724 0.14078002 -0.19279444 0.2510494 0.25756893 0.061541647 0.765734 -0.004796524 0.2711166 0.043638986 -0.060524493 0.26274124 0.97721976 -0.4444109 0.75283927 0.27251494 1.1425301 1.042224 1.0953212 0.46773463 -1.0861183 0.25473058 0.25637642 -0.5733451 0.18923123 0.23017636 0.18182729 -0.6927038 -0.57775736 0.42167816 0.16862135 -1.2585669 -0.45588863 -0.65647805 0.52271795 2.1383233 -0.12416682 0.0829017 -0.095835425 -0.27760765 -0.092109255 0.53660357 0.8239124 -0.8324303 0.13668144 1.128028 -0.035237886 -0.07277404 -0.06435066 -0.6477515 0.23445319 0.1596387 0.4185393 0.22589277 -0.03077675 -0.2861093 0.06428688 0.8225912 0.023962943 -0.7742016 -1.4819759 0.7124583 0.14432918 0.20755263 -0.15275638 -0.9639936 -0.674976 -0.101606935 -0.049184818 1.0066814 -0.28743112 -0.22917563 0.7398947 -0.28239575 0.20355336 -0.91650367 0.5604203 -0.56681585 0.3932288 -0.0223282 -0.99294585 -0.40487373 -0.06516014 1.2925322 -1.4781781 0.051673368 -0.5636858 -0.22850998 0.4563776 -1.1031245 -0.21147169 -0.014749546 -0.8658426 -0.20184162 0.7299889 1.3685261
use -0.8348094 0.2679575 0.25903708 0.2569996 0.5784409 0.49492612 -0.092719875 0.579846 0.040857054 1.1811455 0.10008641 0.19435576 -0.29664513 0.4153577 0.020720944 -0.39035907 0.0015460469 -0.49497834 -0.2730211 0.23712488 0.055970736 -0.021617485 0.17115943 1.0895655 -0.4223457 0.2932031 0.6170583 -0.3150195 -1.023608 -0.18243466 0.78882116 -0.061315823 -0.9317621 -0.2909665 -0.12893417 0.090246364 -0.5831745 0.78641796 0.14399602 0.8984107 0.20420928 0.6727887 -0.10590377 -0.21699814 -0.5520524 -0.4042848 0.20154831 0.008034705 0.37058216 -0.1436347 0.5934771 0.4457679 -0.15496379 0.37845233 0.13977422 -0.08773577 -0.8006966 0.79418296 0.18182616 -0.10149141 -0.48451772 0.048537426 -0.6898752 0.22203597 -0.959984 0.44106063 -0.2085078 0.10844235 0.06464084 0.018616686 -0.18526717 -0.57300997 0.15695597 0.44196373 0.0917528 0.5305597 0.2230465 -0.37445033 1.4250587 0.11388255 0.27842864 0.33501467 -0.14169542 1.3469247 -1.3558722 -0.8926655 0.6674031 0.92053825 0.35260814 0.21996298 -0.3717301 -0.0065612765 -0.6959443 -0.087588206 0.13353522 -0.4495768 -1.0863315 -0.27426624 0.6262978 1.7177062
associated -0.19907838 0.31145167 0.06446268 0.09595257 0.14386572 0.3054564 -0.34686354 0.20330311 -0.16370213 0.62048036 0.30393147 0.37101746 0.03616182 0.03928258 -0.19391996 0.26489455 0.36368513 -0.29419884 0.27531937 0.0728685 0.49697027 0.18011403 0.46760303 0.7115081 -0.4558969 0.24420476 0.31570494 0.032908157 -0.27723372 -0.18024619 0.7241063 -0.11759507 -0.58115846 0.04105946 -0.22136913 0.034706395 -0.57226074 0.3716284 -0.018690225 0.8337471 0.22597066 0.62716514 0.09155588 -0.24934682 -0.35393974 -0.043236353 0.25148603 -0.23157457 0.11797352 -0.09104585 0.053904302 0.041048586 -0.31243178 -0.1937331 0.14766689 0.30367556 -0.19377613 0.40365756 -0.2066002 0.04000073 -0.16250809 0.1274816 -0.26822427 -0.17330585 -0.7954183 0.41006666 -0.13818505 -0.05409199 -0.17911454 -0.14406851 0.16211864 -0.26057312 0.15785098 0.29432276 -0.019792445 0.129284 0.04105815 -0.35637444 0.57144094 -0.5031557 0.033647064 -0.09889959 -0.19142051 0.77489233 -0.63298875 -0.65188766 0.25582096 0.4835981 -0.075055405 0.03018191 -0.37760562 0.07610747 -0.19080015 -0.21997447 -0.23077106 -0.26497015 -0.5974437 0.050926365 0.13214843 0.81388175
burn -0.38652158 -0.12019672 0.038444348 0.016129674 0.20037766 0.020438151 -0.22231853 0.38544062 0.013837184 0.08522152 0.2910236 0.14249602 -0.087561175 -0.19539514 -0.017212544 0.34911853 0.84843665 -0.13887802 0.7125018 0.40369037 0.9052565 1.1149131 0.7132719 0.18860768 -0.6303745 0.06759735 0.52948004 -0.2997283 0.062544614 0.03550534 0.09492396 -0.17861074 -0.52960014 -0.035800535 0.17132932 -0.77790165 -0.7988613 -0.71641475 0.32050654 1.4844532 -0.14297411 -0.003081826 -0.030834435 -0.17342633 -0.3531602 0.22163862 0.3802166 -0.37912214 -0.021374993 0.8072235 -0.014059305 -0.18599376 -0.304796 -0.45696145 -0.28397933 0.14457324 0.3384239 0.3686421 -0.013387015 -0.31155184 0.056070354 0.76294076 0.011246876 -0.5224833 -0.8237863 0.46856683 -0.03354808 0.36913812 -0.08826689 -0.34386423 -0.5108028 -0.1323128 0.20532854 0.75064737 -0.20921002 -0.33803374 0.4237697 -0.5058283 0.39905468 -0.41999933 0.52187073 -0.40159276 0.14536367 0.100297965 -0.71830255 -0.06262532 -0.17208526 0.8483062 -0.62253886 0.24754822 -0.49837515 0.1493474 0.3470654 -1.0344907 -0.14637847 0.21113627 -0.69124115 -0.03725501 0.01442477 0.89003026
syndrome -0.14043313 0.32338598 0.17401578 0.087253764 0.42748874 0.21507478 -0.20431113 0.35867754 -0.03900915 0.3296026 0.1280899 0.043740645 -0.2268368 -0.1114947 0.081881896 0.2203879 0.2883279 -0.19888444 0.24726367 0.15927345 0.32340372 0.3347443 0.32977808 0.34105718 -0.3558058 0.18628974 0.4081681 -0.034543168 -0.27644455 0.023316896 0.39185163 -0.04867126 -0.30327883 -0.26302233 -0.016844964 -0.006338467 -0.593469 -0.13252695 0.100467645 0.69246256 0.098577134 0.20325683 0.1147082 -0.15421622 -0.2968696 0.0012574308 0.03283353 -0.1508739 0.26791173 0.20494525 0.24115963 -0.028231414 -0.36779648 -0.021859843 -0.07867562 -0.035159342 -0.23973729 0.2594976 -0.15862742 -0.06746529 -0.00303596 0.37281543 -0.28862783 -0.16672555 -0.42928967 0.20354378 -0.121950746 0.12112405 0.07145807 -0.0026743005 0.016908433 -0.2607441 0.06853541 0.37899724 0.03429055 0.09918204 0.09155115 -0.41977695 0.5841859 -0.30496588 0.40450382 -0.15261942 -0.1268334 0.5734595 -0.5761932 -0.23093025 0.1164183 0.5448336 0.052084435 0.19288437 -0.39069045 0.22788294 -0.20274484 -0.37431875 -0.08077379 0.070731856 -0.3795413 -0.13846293 -0.07112232 0.7145139
hours -0.26624027 0.26530385 0.12201877 0.91963124 1.8817182 0.013357305 -0.007490648 0.10702525 -0.060695734 -0.14644274 0.29397312 -0.2542329 0.15104707 0.012855357 -0.2615448 0.7086957 0.42258772 -0.213101 1.1066608 0.14580175 1.4276993 1.440327 0.94057685 0.47448027 -0.8813794 0.045600154 0.74999404 0.249816 0.43467614 0.51163274 0.6764486 0.26362672 0.35633826 -0.9225118 0.043136295 0.2023995 -1.074986 -0.8711247 1.1370832 1.9178747 -0.16953841 -0.53993213 0.48249996 -0.21671635 0.25495493 0.05109278 -0.011857228 -0.7089394 1.2381003 1.3007506 0.7875679 -0.3556076 -0.8375277 -0.31912535 -0.3402666 -0.92752236 -0.107464954 -0.40195596 -0.5448971 -0.66421163 -0.015834538 0.9980921 -0.9363825 -0.6120238 0.09507806 -0.43923938 0.042299956 0.59570366 0.45660108 -0.2985851 -0.1741059 -0.51281154 -0.2760843 1.098545 0.43644685 -0.5456081 0.15865095 -0.73506933 0.42277214 -1.1998539 1.1607049 -0.6984122 0.5455032 0.38602406 -0.51695174 0.5494282 0.012344306 1.4581577 0.07029497 0.5842386 -0.38807628 0.6839448 0.6559093 -1.0589042 -0.31969157 0.44910794 -0.4718959 0.25190273 -0.8931195 1.1295812
histological 0.31328905 1.3562905 0.4405756 -0.1988142 -0.151616 0.8990774 -0.43872634 1.3494625 0.27335447 -0.24535707 0.5267621 -0.39009863 -1.0885983 -0.3622797 0.43309775 0.45549172 0.2549778 -0.8620136 -0.3424486 0.111036666 -0.6620962 -0.9213608 0.50361454 0.27119517 -0.5545857 0.880348 0.07222765 -0.3721219 -1.083841 0.3493596 0.25207692 -1.1190219 -0.24451964 -0.9356836 -0.24284093 0.07102226 -0.7629943 -0.19826217 -0.0747109 0.3425887 0.90734696 0.5929168 0.0070728464 -0.20257086 -1.1052879 0.5391637 -0.27526852 -0.30292264 0.63911206 -0.32349294 0.90198684 0.1847954 -0.16432014 0.41422033 0.5703422 -0.5112031 -0.9315748 0.6826158 -0.8100796 0.01471916 1.1185327 1.0075647 -0.56320536 0.064253494 -0.7907591 -0.032470703 -0.122713126 -0.38630468 0.32255074 0.09101324 0.37631384 -0.46259543 -0.26522106 0.12845744 0.06430539 0.98383474 0.3426783 -0.94093686 1.5299184 -0.93353343 0.48517463 -0.3456725 -1.0261497 1.4139621 -1.2587482 -0.78851366 0.4416953 1.2400995 -0.19041365 0.17816296 -1.0884299 0.82624644 -1.3587178 -0.31563133 0.37373638 -0.21594457 -0.33161393 -1.3896252 -0.0073908153 1.4896352
part -0.23038486 -0.18882483 0.05663455 0.16212803 0.07496844 -0.01111929 -0.116300344 0.20989624 0.12654388 -0.102066316 0.2628791 0.036162738 0.096984155 -0.16635074 0.0012026484 0.11176259 0.49478075 0.048081093 0.5366042 0.2746561 0.74476427 0.84947705 0.66515505 0.11056525 -0.4641737 -0.09409925 0.3641962 -0.25605312 0.1869002 0.006452657 -0.005571009 -0.078109056 -0.24343556 0.011131666 0.23038876 -0.5534171 -0.5131244 -0.6335592 0.3528034 1.0677897 -0.2648747 -0.18814443 -0.009166541 -0.06893045 -0.070079796 0.07488019 0.37674874 -0.38703164 -0.10199707 0.7408976 -0.072714835 -0.1566725 -0.22824864 -0.38300675 -0.24240497 -0.024029063 0.3785506 0.20166074 -0.064569406 -0.220778 0.0031089615 0.5945453 0.17543854 -0.4122595 -0.5217717 0.29212028 -0.0028313429 0.23136476 -0.08853288 -0.3592588 -0.53381354 -0.068745315 0.02596604 0.54630697 -0.11327213 -0.29756463 0.40632212 -0.35108232 0.09422981 -0.2605806 0.39015839 -0.3319432 0.30396506 -0.07698918 -0.3239028 0.02045643 -0.20876643 0.5122793 -0.4424812 0.23276894 -0.2189229 0.07673485 0.36786935 -0.85753155 -0.099786565 0.12960348 -0.41627944 0.0597691 -0.021962624 0.5458803
adverse -0.94273907 0.25558296 0.26784727 0.25618175 0.50623035 0.50690234 -0.07773005 0.5822071 0.028582508 1.2607365 0.08121909 0.24504493 -0.33303055 0.4973188 0.019915476 -0.5200846 -0.09107563 -0.51475555 -0.3785933 0.23677407 -0.14351799 -0.14992091 0.035956543 1.1561385 -0.34972078 0.30505675 0.6333341 -0.3307139 -1.1981547 -0.22786523 0.7589064 -0.07238723 -0.9829949 -0.26854503 -0.12496793 0.12822343 -0.47600552 0.9091713 0.11081066 0.76488775 0.24765766 0.7226546 -0.17723432 -0.21696474 -0.5486703 -0.46654582 0.19589554 0.08818426 0.35478142 -0.27028048 0.62398446 0.53160745 -0.04360995 0.49317354 0.1613946 -0.087454624 -0.87858415 0.81022435 0.25944266 -0.05874318 -0.582902 -0.05509789 -0.69409263 0.32677233 -0.9729352 0.48629016 -0.21974666 0.051258396 0.10159152 0.05143378 -0.24600339 -0.59730774 0.19808276 0.4239758 0.10570971 0.6364076 0.25014773 -0.27651858 1.5133098 0.29103333 0.20489913 0.5000238 -0.16400243 1.3922967 -1.4224656 -0.97595865 0.7336462 0.87678975 0.40896773 0.2014049 -0.30284944 -0.08279576 -0.8113543 -0.0015745845 0.17358023 -0.51059705 -1.0960937 -0.34136355 0.7692849 1.7749181
accidental -0.23508485 0.37323418 0.1584207 -0.018167721 0.3000852 0.33213273 -0.26987574 0.44198406 -0.05180395 0.56148005 0.09292673 0.17360435 -0.36683804 -0.07749261 0.08975922 0.2361768 0.31686994 -0.28172195 0.13593659 0.23230217 0.21182232 0.24277888 0.15553698 0.34361938 -0.3187517 0.3227062 0.47896558 -0.1649488 -0.5479166 -0.06624242 0.40004373 -0.17493784 -0.5916287 -0.29355747 -0.10952496 -0.09518804 -0.6244198 -0.056800287 -0.10573367 0.573845 0.18481979 0.42380625 0.043312535 -0.20306909 -0.47330698 0.064768605 0.051630136 -0.05330452 0.15702818 -0.044489797 0.15479328 0.048231807 -0.29997283 0.057751786 -0.12091737 0.17153029 -0.36383417 0.361515 -0.079436734 -0.017539958 0.021158442 0.3074357 -0.35383365 -0.08110676 -0.5585074 0.38981378 -0.1129668 0.21407805 0.058343276 0.13841175 0.100362636 -0.27453512 0.24117662 0.42186895 -0.02706579 0.16406251 0.09228743 -0.3517201 0.73447996 -0.19364925 0.33547583 -0.006170532 -0.3469864 0.77510613 -0.74558204 -0.44135994 0.2102235 0.5305313 0.11325706 0.115106255 -0.46175656 0.15323576 -0.36736622 -0.32209894 -0.021891158 0.021031192 -0.420308 -0.26373357 0.10980704 0.87766105
therapeutic -0.95063627 0.30635893 0.2784988 0.28754404 0.6028413 0.49416983 -0.08240544 0.6472551 0.02836158 1.2543612 0.08495469 0.2607138 -0.3070475 0.49503547 0.018509183 -0.5083726 -0.08143955 -0.5532412 -0.34131262 0.29408833 -0.07265418 -0.12929183 0.12258047 1.2079775 -0.41448483 0.26509422 0.66704077 -0.32314128 -1.2002227 -0.22241944 0.7542589 -0.07378725 -0.9834455 -0.28510314 -0.10219367 0.124253094 -0.5331698 0.8826575 0.14508422 0.8298051 0.25247645 0.7015917 -0.15467377 -0.23424366 -0.5665867 -0.46591067 0.216667 0.05792513 0.3959211 -0.18183342 0.6352902 0.5353484 -0.049973957 0.48207247 0.18968381 -0.12698835 -0.87504894 0.8534266 0.2690839 -0.030752216 -0.6030909 0.01397826 -0.7482642 0.3078552 -1.0123147 0.46903908 -0.23665792 0.071928464 0.09034672 0.014535824 -0.26531166 -0.6114898 0.18844803 0.49195808 0.110138886 0.59151375 0.28525817 -0.30780065 1.5365227 0.24856059 0.22457458 0.44456723 -0.10338889 1.4225141 -1.4547908 -0.97287244 0.7538559 1.0011448 0.4207829 0.21764699 -0.31420237 -0.08039068 -0.77707905 -0.063363954 0.13747235 -0.48642159 -1.1540422 -0.34164196 0.7142908 1.8343258
cerebral -0.2324735 0.16075106 -0.040128194 0.30889902 1.3296554 0.2903991 -0.193783 0.2685077 -0.05073148 -0.16958554 0.13507299 -0.09610561 -0.15884599 0.10543107 -0.3395801 0.41329762 0.20014122 -0.22610651 0.6955592 0.15727402 1.3425366 0.6906541 0.7725347 0.2559402 -0.6841541 -0.1412311 0.42812636 0.0011980501 0.27351496 -0.05425824 0.62303126 0.23860027 0.117132865 -0.5133362 -0.12942643 0.1443115 -1.0099373 -0.49833596 0.4665834 1.3130003 0.060974482 -0.070390545 0.21445143 0.035226073 -0.28433824 -0.19313389 0.09319465 -0.25976533 0.4439295 0.5796649 0.19880807 -0.22964975 -0.59291273 -0.42828926 -0.11996427 -0.22491197 -0.104903154 0.22860952 -0.53262 -0.13612355 -0.073442906 0.81315005 -0.3484821 -0.20816259 -0.15373014 -0.2982705 -0.16770267 0.50303686 0.027414154 -0.18830478 -0.036360502 -0.29555446 -0.10298033 0.60149556 0.066383414 -0.545144 0.27272373 -0.5365244 0.47295895 -0.5554642 0.50322753 -0.5133132 0.44192848 0.2463207 -0.24266285 0.13536024 -0.054857794 0.8520226 0.26938966 0.41981965 -0.11587469 0.66620904 0.37356162 -1.075535 -0.26182184 0.21237314 -0.47878343 0.31444418 -0.74972457 0.78468835
face -0.19925174 0.062798835 0.046868186 -0.00082560105 1.2387631 0.055892084 -0.06974395 0.7583808 -0.043334294 -0.2985511 -0.15362312 -0.16333668 -0.50946766 -0.30385602 0.13401085 0.19568658 0.30589545 -0.09261836 0.616878 0.3990228 1.1870885 0.9062067 0.6991324 -0.15494175 -0.49386823 -0.263224 0.69367194 -0.28501898 0.07346981 -0.006386269 0.2328033 0.3196022 0.06361639 -0.45646027 0.03602484 -0.14333731 -1.3888688 -0.92983973 0.251343 1.1177789 -0.11264088 -0.24461824 0.16339579 0.09377753 -0.5926681 -0.2681293 -0.006904027 -0.055176955 0.13127139 0.71295846 0.17943062 -0.26113543 -0.72439516 -0.3548684 -0.5875189 -0.22326595 -0.06501356 0.5261006 -0.31505927 -0.07247302 0.08332589 1.1188264 -0.019394703 -0.040002197 0.06378353 -0.18655384 -0.23553362 0.63390005 0.027903331 0.026700297 -0.36066324 -0.20313947 0.06798081 0.6104494 -0.16353618 -0.3546668 0.30885187 -0.7507074 0.6445734 -0.12904008 0.6931826 -0.500058 0.41252893 0.2695594 -0.23539062 0.45303327 -0.20627536 0.7508784 0.6171119 0.5317767 -0.2580224 0.7067153 0.17283991 -1.3087338 -0.14940855 0.4904778 -0.5303834 0.12872894 -0.829574 0.58486515
obstruction -0.19879733 0.045890395 0.013614371 0.30750176 0.7401595 0.23237053 -0.15001503 -0.050011955 -0.08814456 0.22292988 0.22675991 0.11311653 -0.012282524 0.14641653 -0.40919852 0.28322333 0.17641665 -0.20547386 0.45864183 0.0030281 0.9936199 0.45545045 0.50796586 0.45988604 -0.6055263 -0.045212664 0.24050769 0.13773485 0.27917317 0.028953329 0.691823 0.10900779 -0.059798952 -0.1687375 -0.23891881 0.11821087 -0.5361466 0.04932199 0.3972535 0.9874897 0.050017018 0.15271352 0.20494087 -0.012768588 -0.051502384 -0.15301804 0.17206408 -0.3113908 0.37032488 0.32751334 0.079594426 -0.13495494 -0.40830615 -0.2954359 0.07427712 -0.03628816 0.00872989 0.039037134 -0.37633246 -0.05093589 -0.20902951 0.28795227 -0.41265744 -0.22522922 -0.35431942 -0.011638074 0.03360779 0.22836629 -0.08136672 -0.1649192 0.10950359 -0.22524041 -0.14364026 0.39484617 -0.0020259875 -0.33032307 0.10098867 -0.2541367 0.26538092 -0.4208209 0.24153815 -0.28518423 0.28642708 0.31933665 -0.2449202 -0.13167827 0.02161919 0.59699225 -0.009669636 0.13000992 -0.09054907 0.3015099 0.21671939 -0.48920274 -0.2401774 -0.13201404 -0.45117188 0.23497456 -0.35593152 0.73810834
complicated -0.10440933 0.26645193 0.13211599 0.11459124 0.4526543 0.3263271 -0.11629319 0.15775687 0.04729691 0.17837682 0.2160711 -0.009753677 -0.28779384 -0.08117526 -0.049086276 0.19734797 0.15959743 -0.19986159 0.31660593 0.05214833 0.51264423 0.37491786 0.28637233 0.25461265 -0.38955742 0.17033802 0.23093057 0.06801633 -0.03326372 -0.03783496 0.37884557 -0.110624686 -0.104453996 -0.32211998 -0.05537328 0.07241308 -0.54971826 -0.24124034 0.17400292 0.72044617 0.101526454 0.13689569 0.21007182 0.014279939 -0.26782334 0.035300415 0.1019195 -0.061633356 0.1559071 0.21582383 0.08756642 -0.15666766 -0.285567 -0.035137966 0.050892416 -0.028748475 -0.12840143 0.15823044 -0.2191979 -0.124420725 0.061095353 0.48714617 -0.17907207 -0.20748505 -0.44592008 0.109133914 -0.17479716 0.18555337 0.10665528 -0.13921708 0.09592506 -0.24910168 0.026098229 0.3007157 -0.0037318256 -0.0681023 0.13902652 -0.3570463 0.40124542 -0.3380228 0.4038419 -0.28781435 0.02216455 0.3590714 -0.4631542 -0.16021474 0.0051268325 0.49702746 0.10411131 0.07318494 -0.27769926 0.2484928 -0.050099503 -0.4529915 -0.06784253 0.087607585 -0.21140869 0.012990353 -0.10410065 0.5691343
skin -0.30526537 0.067131676 0.13831608 0.15573248 0.25798842 0.069267765 -0.16669162 0.4353274 0.03688117 0.25194645 0.17768592 0.14363322 -0.020984298 -0.2829905 0.09195253 0.16380616 0.5277696 -0.055374622 0.46320418 0.38319227 0.6541399 0.8284731 0.5584527 0.29696307 -0.41503522 0.0754263 0.57747567 -0.23609616 -0.15222584 -0.019274144 0.13100289 -0.038533438 -0.42799354 -0.12262378 0.19288455 -0.36074156 -0.67916954 -0.52751577 0.24267752 1.0418727 -0.20011218 0.037221137 0.055646576 -0.19556513 -0.27759323 0.04166806 0.24455774 -0.33654138 -0.057270013 0.60203797 0.091426656 -0.07340721 -0.35273713 -0.2124168 -0.32197353 0.010281075 0.12375796 0.29504687 -0.030037967 -0.23424025 -0.027764179 0.58215183 -0.009480008 -0.36184308 -0.5935042 0.3922401 -0.04694724 0.29451895 -0.06851338 -0.11974494 -0.4309054 -0.16941687 0.17546089 0.60816085 -0.085565485 -0.12454164 0.3347984 -0.49309734 0.42133594 -0.24550264 0.55614233 -0.24970438 0.06982059 0.3227158 -0.5404472 -0.16772349 -0.07739208 0.66231155 -0.14294079 0.29038262 -0.43336836 0.16238484 0.08365334 -0.73317766 -0.062037524 0.097668506 -0.5731723 -0.059370395 -0.054297745 0.7782322
laceration -0.22246449 0.16227661 -0.048249245 0.41999125 1.4523337 0.22612952 -0.1302791 0.27478674 -0.041862343 -0.27335674 0.14487244 -0.15485308 -0.11209915 0.07463493 -0.35885927 0.43654287 0.22048886 -0.19603273 0.76965714 0.18163496 1.4181702 0.82702196 0.83204263 0.23796627 -0.7254488 -0.1303909 0.46814066 0.025949758 0.35605162 -0.015701788 0.6147911 0.21607994 0.2079869 -0.59443593 -0.09712685 0.14451262 -1.0411007 -0.61295897 0.59953547 1.4907289 -0.01311761 -0.18556905 0.25040194 0.00034644938 -0.22256882 -0.13247557 0.11156228 -0.34402102 0.5196911 0.7170221 0.2877253 -0.27350277 -0.63118 -0.4677072 -0.15633875 -0.38308868 -0.06773245 0.14667949 -0.5745151 -0.23475187 -0.07095641 0.87685364 -0.38412958 -0.28986043 -0.11641011 -0.34511894 -0.13800421 0.55665433 0.048150424 -0.29342583 -0.12395176 -0.29558456 -0.12229509 0.67988676 0.12227759 -0.60012126 0.2968247 -0.5995944 0.45508927 -0.6925736 0.5903602 -0.59819126 0.49906 0.21709178 -0.23433413 0.2134192 -0.03393902 0.970419 0.24562442 0.48976964 -0.10291916 0.70696425 0.4825475 -1.1504893 -0.25251865 0.24794397 -0.48672518 0.35583326 -0.81016034 0.8074958
congenital -0.12621298 0.28826714 0.14833297 -0.015116555 0.2812511 0.26859355 -0.17756583 0.37770003 -0.024126403 0.34432554 0.10523882 0.06142769 -0.25777563 -0.108498245 0.058322217 0.1567148 0.27123952 -0.24985518 0.10611923 0.14326158 0.22670016 0.18652728 0.21893495 0.27904278 -0.28108302 0.20197731 0.31950253 -0.10976305 -0.32096756 -0.007977167 0.32587552 -0.12009958 -0.35411263 -0.19005285 -0.06794825 -0.06615061 -0.50082713 -0.07257987 0.005683257 0.5350988 0.1421853 0.29315057 0.07429704 -0.14358696 -0.36553305 0.025142137 0.019401966 -0.075780444 0.11536226 0.052528296 0.16495703 0.0100743845 -0.27499822 0.017225424 -0.032552097 0.05295363 -0.19305435 0.2895788 -0.11690436 -0.009579333 0.024979685 0.30460095 -0.2240085 -0.10668218 -0.45832086 0.2468828 -0.09645716 0.11350849 -0.0070431144 0.028983738 0.015146259 -0.1857546 0.11518734 0.2630355 -0.025257587 0.14133878 0.115201004 -0.34971955 0.560303 -0.2000721 0.29580492 -0.10327516 -0.1891992 0.54627556 -0.5400391 -0.3190344 0.11160605 0.48758626 0.051936522 0.13031375 -0.35420057 0.19169489 -0.28568035 -0.3049043 -0.015290363 -0.00066967553 -0.36679274 -0.19064361 0.023678353 0.6454098
benign -0.17798568 0.28219324 0.17962636 0.030619932 0.42597905 0.25721595 -0.20009062 0.49757257 0.028324746 0.37731782 0.105452955 0.0903847 -0.19401336 -0.19969977 0.063746125 0.18206549 0.41942155 -0.2769796 0.20156491 0.21375509 0.43266565 0.39543054 0.399692 0.3356623 -0.3570979 0.20909956 0.48042375 -0.120740145 -0.26364866 -0.01079844 0.36220494 -0.05999607 -0.3996944 -0.22141312 -0.02565908 -0.10910652 -0.6967577 -0.18825503 0.06305896 0.8004779 0.0028489896 0.29842508 0.09744269 -0.21764895 -0.41090533 -0.04150024 0.033230938 -0.180621 0.0759152 0.25184938 0.17778672 -0.03582506 -0.4347721 -0.0055634733 -0.1585183 0.032634538 -0.12133067 0.30227578 -0.11867796 -0.024809808 0.026759988 0.47165143 -0.23557569 -0.23880261 -0.5030528 0.3335411 -0.054209705 0.21588652 -0.06822705 0.04190907 -0.123885885 -0.21234646 0.11225073 0.36200818 -0.0049537355 0.06979716 0.15187852 -0.5015362 0.56646955 -0.24164371 0.44648248 -0.18519542 -0.12237677 0.6012482 -0.5593072 -0.26196533 0.010909136 0.62834877 0.12895463 0.22171289 -0.4316756 0.25613937 -0.21726066 -0.47762567 -0.057243865 0.008469405 -0.50946754 -0.14125374 -0.114076294 0.70965713
dislocation -0.089067556 0.16034663 0.15614833 -0.042073317 0.26976293 0.24734414 -0.19514933 0.44338116 0.027115615 0.033927895 -0.0005529223 -0.10354568 -0.420251 -0.20790988 0.17599481 0.0910256 0.20870595 -0.062148135 0.19355112 0.18088794 0.2396288 0.2664242 0.22950031 -0.016751299 -0.19718373 0.045441743 0.41075498 -0.16877972 -0.22738658 -0.11082414 0.11712423 -0.018767674 -0.23351766 -0.3547335 0.09526161 -0.09276947 -0.6178535 -0.4865482 -0.014594219 0.42750406 0.06994179 0.0080626365 0.042183414 0.02593429 -0.44722813 -0.050983086 0.035848748 0.057692353 -0.016377352 0.17508419 0.041860964 -0.13358608 -0.28648978 -0.053075287 -0.24971569 0.008502493 -0.06543616 0.41265526 -0.1898627 0.005507879 0.10617629 0.4755758 0.013227269 -0.048329774 -0.27561837 0.14677729 -0.189686 0.22514588 0.054624528 0.10842508 -0.13391885 -0.11379774 0.09794553 0.25211444 -0.042165443 -0.017401855 0.24216051 -0.43949586 0.4767283 0.011252643 0.3191452 -0.10936251 -0.05796585 0.32078785 -0.34385931 -0.098950975 -0.034160934 0.3038187 0.17771158 0.3049213 -0.24102302 0.31656012 -0.20528384 -0.6443551 0.05833494 0.20578834 -0.19323029 -0.16181776 -0.14201397 0.4673142
eye -0.2956707 0.2608866 0.2559565 0.090282105 0.4837255 0.11375626 -0.08588025 0.34388775 0.038901407 0.13689049 0.05558702 0.010010346 -0.16328873 -0.23399328 0.09335362 0.119657025 0.30051517 -0.112515286 0.32435644 0.14213997 0.3513954 0.67785573 0.26962578 0.25234023 -0.28220344 0.03512662 0.48820624 -0.12029268 -0.16851303 0.050726343 0.14892007 0.122723736 -0.23702385 -0.32857656 0.2183479 -0.29624122 -0.74177665 -0.5291444 0.21997997 0.60641783 -0.012207843 0.041404057 0.11434849 -0.07577405 -0.24366184 0.12654205 -0.0715592 -0.086988114 0.023080714 0.4523284 0.25945705 0.04521222 -0.44376972 -0.056625932 -0.2511534 -0.11842955 -0.13277268 0.19776878 -0.033887472 -0.058257964 0.041020386 0.51549196 -0.12240595 -0.116150744 -0.3588635 0.2224651 -0.16538322 0.31824586 -0.0763442 0.072236605 -0.1972354 -0.23224026 0.10301773 0.42615885 -0.07426563 -0.032091033 0.16593131 -0.32857826 0.45980397 -0.16865745 0.5471952 -0.10246934 0.10390308 0.27842632 -0.4615446 -0.0093267625 0.0401498 0.5607443 0.16245022 0.386369 -0.25582227 0.35825142 -0.06412592 -0.61669767 0.1034999 0.28234696 -0.42053005 -0.15352012 -0.17356189 0.6247047
affecting -0.3305691 0.4005056 0.0940515 0.100430645 0.37417057 0.32921997 -0.36086163 0.27837133 -0.12831657 0.75622374 0.2753924 0.3876672 0.041360036 0.0929199 -0.24710432 0.17174996 0.32194513 -0.34584555 0.29133964 0.17406173 0.58141214 0.24165282 0.5077887 0.91949564 -0.6185563 0.25325093 0.33378148 0.01691786 -0.40762946 -0.14373381 0.8457197 -0.067236885 -0.6530484 -0.009664976 -0.22732261 0.11859295 -0.63731563 0.50571615 0.011645625 0.9655135 0.25678104 0.6338184 0.14837335 -0.32860935 -0.32697347 -0.041208014 0.2203945 -0.27940828 0.2389357 -0.021951282 0.112214535 0.14354779 -0.3589972 -0.1658053 0.26878995 0.2754892 -0.38442665 0.3773655 -0.18848982 -0.03568258 -0.27689326 0.11683939 -0.3688594 -0.14554575 -0.9272462 0.31021687 -0.17077391 0.0060473233 -0.18499763 -0.19916822 0.20540227 -0.31298792 0.11472484 0.38263294 0.08629189 0.056153025 0.054571673 -0.30821714 0.751374 -0.5701119 0.10630377 -0.096216924 -0.178403 0.87764376 -0.8447394 -0.7475525 0.37227255 0.6472224 -0.002251258 0.030966671 -0.3758369 0.02410922 -0.15694566 -0.09097278 -0.23846504 -0.30129853 -0.73195475 0.07553568 0.18996349 1.0660839
