1815 100
unspecified 0.22706096 0.22427393 0.05659185 0.31255594 -0.22063966 -0.24264511 0.08527065 -0.4738693 -0.2789951 0.030898068 0.1853514 0.26686308 -0.22475979 -0.19258007 -0.09443951 0.14299722 -0.22315782 -0.1655318 -0.13982315 0.1782292 0.06648956 -0.101830736 -0.1822425 0.13963 0.25424716 0.13257138 0.1697951 -0.19452168 0.35584277 -0.03648449 0.3725561 -0.62681323 -0.15354894 -0.06392355 0.6943393 -0.15208854 -0.1861113 -0.46279636 0.23963593 -0.06424156 -0.119098365 0.0021192224 -0.07062882 -0.2085965 -0.02698405 0.28699765 -0.15856972 -0.08855351 -0.67008984 0.022366798 -0.004243673 0.07030603 -0.08579075 -0.09112641 0.119369954 -0.43942922 -0.21849108 -0.109451495 0.6376423 -0.24839321 -0.21211632 -0.23596297 0.5186589 -0.12860708 -0.5876618 -0.1846418 0.2682175 0.3591938 -0.3647973 0.01657225 0.25463688 -0.099358015 -0.37264815 0.005193247 0.5320684 0.008169483 0.15930064 -0.12490612 -0.1266707 -0.5939861 -0.65519124 0.12054086 0.09927139 0.23833565 0.013387705 -0.37763357 -0.13108802 -0.35233045 0.27244073 0.4444364 0.21980244 -0.13055032 0.2413992 0.35086992 0.0977222 0.053699948 0.25401777 -0.01503857 -0.41458067 0.12208584
without 0.12616459 0.18100421 0.25870743 0.29434606 -0.67595166 -0.7393595 0.52170753 -0.76019216 -0.5892342 -0.07258883 0.30808 0.5025123 -0.36918768 0.022936443 0.20781611 0.3902888 -0.47085115 -0.08600567 -0.053951524 0.009957775 0.40654045 0.31862494 -0.69959575 0.085094534 -0.12963392 -0.3694675 0.60749215 0.049293194 0.6110822 0.15167648 0.44414282 -0.88753563 -0.33653322 -0.26328972 1.5296731 0.014418017 -0.251887 -0.8582545 0.54665005 -0.14561602 -0.40877366 0.3782976 -0.5932199 -0.3533378 0.7018337 0.06650198 -0.7217276 -0.46239913 -0.6048652 0.60476804 0.058766395 0.33936292 0.016304709 0.068957046 0.5689687 -0.373251 0.34164125 0.22513863 1.0903821 -0.6064491 -0.16356057 -0.55756485 0.8406143 -0.08910004 -0.8981816 0.08307376 0.50913125 0.1925534 -0.98911244 -0.11525561 0.04279403 -0.010348785 -0.6580508 0.37062305 0.84381783 0.42861974 0.24431005 -0.22502826 0.21304476 -0.90235376 -0.7066571 0.2633405 -0.35511237 0.69894284 0.088904075 -0.549799 -0.26499587 -0.63103753 0.38757706 0.14479418 0.11040172 0.33878392 -0.15953594 0.6958525 -0.17194372 -0.0908958 0.6701298 0.1238262 -0.3215928 0.041652463
mention 0.13400656 0.19895908 0.34334078 0.3185929 -0.7171724 -0.80855155 0.7002268 -0.8531877 -0.55138713 -3.7041507e-05 0.32030827 0.513147 -0.3701207 0.02880536 0.29983035 0.44496292 -0.45050457 -0.021616604 -0.08116842 0.08053204 0.40023285 0.41125953 -0.7734096 0.12844151 -0.029909667 -0.4346191 0.6648354 0.0020979673 0.6655492 0.20199169 0.47873685 -0.8730636 -0.2933308 -0.35853383 1.6249942 -0.003098795 -0.35650703 -0.8217886 0.6295356 -0.19380191 -0.4345826 0.56186604 -0.7289435 -0.45286036 0.7634409 0.039488006 -0.7566506 -0.44795963 -0.6014338 0.74183273 0.19278614 0.43311623 0.14724882 -0.0018895309 0.58118063 -0.29120547 0.52094066 0.3083913 1.1591288 -0.6118754 -0.1514227 -0.45821556 0.83850837 -0.102383286 -0.8833333 0.0891172 0.57925016 0.10812922 -1.2081757 -0.14963229 0.08370938 -0.12480792 -0.58797336 0.45681053 0.91350853 0.5677276 0.37397808 -0.27264637 0.33589157 -0.85867935 -0.645196 0.29550377 -0.4017759 0.69713295 0.082045965 -0.6060064 -0.30901143 -0.63903546 0.36869887 0.18604606 0.1794532 0.3921564 -0.09723484 0.69087833 -0.24618965 -0.035985105 0.7167761 0.14705823 -0.3335511 0.106955096
specified -0.14045116 0.29212022 -0.03453008 0.07431305 -0.2377969 0.15253587 -0.020692294 -0.32492515 -0.4336723 0.16303976 -0.062341698 0.07601666 -0.14357078 -0.3253385 -0.052341226 -0.095961176 -0.037958745 -0.051416732 0.035910953 0.28117087 -0.21953928 -0.05677026 0.28719682 0.19531167 0.05710343 0.036548138 -0.4413435 0.032298535 0.15484688 0.05816104 0.21430092 -0.56165045 -0.39959228 0.018439647 0.15273076 -0.22089009 -0.11664661 -0.32243755 0.14849244 0.03103381 -0.13803904 0.18551598 0.36222705 -0.34304738 -0.31501833 -0.08070628 -0.0387663 0.033425923 -0.626868 -0.4434594 -0.30297065 0.37934235 -0.34275976 -0.0065281447 0.42536113 -0.46575916 -0.41948578 0.18252127 0.054363452 0.11322389 -0.14201525 -0.4026408 0.48944238 -0.023183633 -0.056812886 -0.4508511 0.4115855 -0.004847817 -0.10836532 0.37497264 0.2530375 0.04146405 -0.27695423 -0.27522296 0.009220961 0.07630759 0.11439757 0.016225372 -0.026610868 -0.34206903 -0.8383479 -0.30857408 -0.20175576 0.018095488 0.038242515 -0.2539132 0.16210689 -0.27605963 0.5722 0.17992352 0.07699497 -0.06531801 0.46396953 -0.008484765 -0.15822205 -0.14579941 0.09932406 0.1997469 -0.46857038 0.11217692
open 0.6253949 0.12461668 0.3233752 0.49667817 -0.6446057 -0.44575727 0.21379982 -0.51181936 -0.5882681 -0.7621718 0.46373746 0.59809077 -0.3291652 -0.05508726 -0.34691358 0.3139987 -0.2618003 -0.19714911 -0.18169373 0.101414524 0.73001635 0.05856131 -0.73776954 0.043497168 -0.19265383 0.2259767 0.86169004 -0.104379 0.48564672 -0.4382107 0.43300077 -0.8681633 -0.5533009 0.014796975 1.5283678 0.34485146 -0.028347697 -0.9094612 0.111090764 0.20228656 -0.20592652 -0.33516344 -0.19803117 -0.097840376 0.2535165 0.79809254 -0.59358555 -0.47432277 -0.83264625 0.19101977 -0.32654306 -0.043467782 -0.21181127 -0.114099145 0.32926247 -0.6580074 -0.59874064 -0.18455294 1.3953061 -0.75560313 -0.3893079 -0.65853244 0.8409774 -0.2151925 -1.2206229 -0.10588163 0.43920425 0.5608573 -0.41876075 -0.08935801 0.19261892 0.06418441 -0.7346438 0.17885743 0.88513833 0.020441657 0.4003569 -0.3002493 -0.15526684 -1.427072 -0.87008125 0.48075518 0.24977578 0.5979181 0.05348431 -0.76041406 -0.21964984 -0.5234179 0.63762766 0.5437687 -0.008143564 0.007760699 -0.22219084 0.729211 0.19792682 -0.16458929 0.34383535 0.03624504 -0.19048555 -0.04421667
injury 0.35086256 0.15576826 0.17137404 0.3045013 -0.45135787 -0.21626115 0.17607112 -0.49347565 -0.43040252 -0.3760888 0.2794127 0.46214512 -0.3337355 -0.048506975 -0.23492116 0.17147745 -0.10534755 -0.16563138 -0.15547544 0.11590539 0.32889986 -0.009493759 -0.39595082 0.08188432 -0.09745256 0.21844664 0.49872524 -0.12727168 0.36175358 -0.15279518 0.34703612 -0.6922869 -0.38681394 0.1084966 1.0751418 0.13208894 -0.0779171 -0.6696711 0.16047986 0.19005586 -0.14347543 -0.26349878 -0.13025533 -0.1961518 0.06741893 0.45549121 -0.32085058 -0.27007717 -0.66877156 -0.012173652 -0.30784604 0.049144506 -0.1760961 -0.103871144 0.25509784 -0.57376087 -0.4596213 -0.09740434 0.93693846 -0.49392807 -0.30336615 -0.46553862 0.7640987 -0.117240325 -0.8162207 -0.22153223 0.35505888 0.38467228 -0.27650765 0.03325258 0.21460691 0.13574861 -0.6455332 0.0392358 0.57591796 -0.032822356 0.30080092 -0.17047058 -0.17017268 -0.95978206 -0.7470869 0.2533792 0.15842251 0.41840324 0.052902624 -0.5374791 -0.11195111 -0.38578063 0.5182585 0.3945186 0.024350189 0.0020760342 0.0033031008 0.45490482 0.09378705 -0.061465126 0.25893253 0.0036790378 -0.252001 0.048054192
complication -0.31658912 0.2791023 0.26372653 0.23788768 -0.5070047 -0.6330971 0.6009907 -1.0791408 -0.6654172 0.54296887 -0.031951204 0.38772994 -0.34877312 0.1677239 0.40973023 0.32317448 -0.26764295 -0.059338212 -0.04694634 0.14564654 0.05447554 0.37289366 -0.3561645 0.12552375 0.22904524 -0.5435523 0.27424622 -0.072464176 0.57123613 0.4462386 0.3575839 -0.724105 -0.1994208 -0.5206885 1.2725524 -0.39532372 -0.45339525 -0.6368555 0.69657993 -0.026986247 -0.4286616 0.90491384 -0.54942113 -0.7248024 0.5201333 -0.34600312 -0.5311006 -0.22754149 -0.7050061 0.53335506 0.28195187 0.7004733 0.20279253 -0.046571273 0.55918103 -0.28032857 0.78879344 0.43929935 0.69059104 -0.22404934 -0.00044646443 -0.1934498 0.833609 0.09313458 -0.63256294 0.05599434 0.6698606 -0.14277413 -1.1894288 -0.18086442 0.13531512 -0.039989058 -0.50305474 0.35837802 0.5649308 0.78646916 0.50292397 -0.22882174 0.35801786 -0.4394854 -0.5337231 -0.14807212 -0.48783347 0.4869324 -0.041632164 -0.45798835 -0.22058292 -0.5863759 0.37706318 0.083529875 0.17782953 0.41847274 0.22791766 0.27984822 -0.54382247 0.082677215 0.5970769 0.20212245 -0.5507652 0.3001921
fracture 0.5234602 0.15927216 0.14570986 0.36094746 -0.46134183 -0.098372415 -0.1018267 -0.3874748 -0.48738125 -0.7080557 0.2817288 0.5327538 -0.2304285 -0.22070326 -0.48436618 0.12462413 -0.20019217 -0.27632692 -0.18205062 0.21726187 0.46384612 -0.090009 -0.4755848 -0.01617331 -0.22391787 0.40324396 0.54499924 -0.11964993 0.3679698 -0.4180888 0.3907523 -0.75827146 -0.64701277 0.20786014 1.1370646 0.29544872 -0.005602507 -0.737128 -0.06905127 0.3527957 -0.060328953 -0.52585447 0.100641064 -0.17746477 -0.045886014 0.7577578 -0.4408017 -0.40512896 -0.7597715 -0.11358533 -0.41013497 -0.115801945 -0.35701793 -0.17938548 0.1103513 -0.73243165 -0.8844141 -0.2545692 1.1313475 -0.5465752 -0.30260444 -0.6687267 0.7106512 -0.26206136 -0.9410513 -0.33594552 0.38152838 0.39866525 -0.111182146 0.0001325237 0.25016594 0.1816332 -0.5678475 -0.021217534 0.57635283 -0.058389757 0.3291732 -0.17219236 -0.16328526 -1.270125 -0.877761 0.34682944 0.24497445 0.4104597 0.11422976 -0.6949263 -0.030352917 -0.37620115 0.63655347 0.5380754 -0.1000851 -0.12268648 -0.00917094 0.5217375 0.24489318 -0.14886552 0.21944994 -0.008215487 -0.22421886 -0.018043859
loss 0.32269758 0.01425054 -0.01628851 0.71860254 -0.84201413 -0.6639893 0.010372896 0.05461695 -0.9586493 -0.7033912 0.15232025 0.37630212 -0.46606475 -0.5176625 -0.008180429 0.37302345 -0.8123923 -0.20337768 -0.07334267 0.18216848 0.8719666 0.15683424 -0.29192412 0.16154566 -0.102915525 0.06874885 0.5919422 0.06752578 0.55703425 -0.21324985 0.41409737 -1.438132 -0.8273762 -0.08014832 1.3374782 0.11159765 -0.02377304 -1.3183875 0.30619812 -0.100429416 -0.41498527 0.0011104591 -0.27151543 0.12034968 0.74935913 0.51752424 -0.9617513 -0.56064093 -1.0348248 0.36835384 -0.12162115 -0.32881862 -0.61427855 0.5143559 0.8559947 -0.53313667 -0.23342966 0.11579494 1.5598983 -0.6039569 -0.25525048 -1.0477316 0.9466487 -0.2956967 -0.7791429 0.1302099 0.24607354 0.5460521 -0.8380048 0.29995674 0.23146015 -0.012199927 -0.9547686 -0.004602735 0.9287739 0.55608404 -0.08668497 -0.15391882 -0.01001023 -1.5816101 -1.3761636 0.052182782 -0.35849628 0.5119518 0.21290411 -0.71033967 -0.22110337 -0.7625068 0.8331579 0.16963616 0.04700324 0.031458043 -0.7168382 0.9911962 0.43089154 -0.46756998 0.7886053 0.270889 -0.18480222 -0.3613522
condition -0.38546655 0.31518325 0.3106642 0.24469492 -0.62117404 -0.7531299 0.6973496 -1.1345438 -0.7264736 0.5932478 -0.019628756 0.41813615 -0.35200217 0.16025765 0.508074 0.371776 -0.3762112 -0.05304283 -0.044514384 0.19121377 0.051695067 0.4554103 -0.46676338 0.13585086 0.23417886 -0.64156514 0.30810922 -0.09293398 0.6381959 0.48902476 0.38540548 -0.8416188 -0.25763777 -0.5541738 1.4317328 -0.39547902 -0.5090243 -0.7249305 0.7916207 -0.046491947 -0.51565325 1.0162016 -0.624204 -0.7892947 0.63597095 -0.41686547 -0.6403641 -0.26875162 -0.77744246 0.6485685 0.28331488 0.7552221 0.2147587 0.01860822 0.6605435 -0.29927522 0.9240498 0.5184362 0.7760573 -0.2810168 -0.025790459 -0.23892578 0.9280827 0.06952625 -0.6541485 0.080328956 0.7084786 -0.16200611 -1.3695298 -0.18198407 0.16435136 -0.050291106 -0.52328223 0.4049925 0.6396702 0.88141567 0.51037085 -0.2594371 0.42105058 -0.5348532 -0.61732703 -0.15217274 -0.5842703 0.56508034 -0.02805924 -0.517168 -0.20611589 -0.65558445 0.4318673 0.07138421 0.18117866 0.46787518 0.22209832 0.32077983 -0.6211264 0.07567953 0.699643 0.24448161 -0.5586619 0.2988957
neoplasm 0.15528382 0.32419032 0.12462242 0.003841315 -0.36766675 0.017798495 0.046939224 -0.25179207 -0.7447125 0.06375248 -0.08715766 0.14814083 0.017051555 -0.23244293 -0.10502498 0.13671058 -0.0018620461 -0.07794156 -0.132929 0.34734765 -0.09712814 0.14318891 0.25748447 0.33414826 0.16710958 0.047260817 -0.15064552 -0.15702611 0.19776596 -0.10790501 0.23754475 -0.5543489 -0.48093507 -0.018758614 0.5288029 -0.28538904 -0.15329233 -0.21866836 -0.017623696 -0.12460988 -0.16691306 0.13973725 0.27021217 -0.4915376 -0.20207094 -0.13738374 -0.012368377 -0.07143558 -0.73211503 -0.2408905 -0.45221776 0.3250562 -0.39514446 0.0012589311 0.26169574 -0.44829717 -0.5040019 0.3008473 0.39202678 0.032522917 -0.09964612 -0.37757888 0.6939881 -0.039134305 -0.14247993 -0.40698317 0.6029071 0.1439623 -0.3273548 0.11163946 0.3515564 -0.088322364 -0.30462027 -0.21546936 0.052296225 0.14739223 0.2673752 -0.04279781 0.16597657 -0.3521219 -0.86431813 -0.24876077 -0.13614656 0.16209869 0.03107012 -0.32721275 0.18093799 -0.30789083 0.65437174 0.19059035 0.15050733 -0.13770527 0.40016177 -0.06050881 -0.029493418 -0.23762576 0.32007167 0.33392882 -0.61608803 -0.059336115
malignant 0.13276781 0.19268031 0.06182287 0.05193779 -0.38282207 0.2245917 0.0030617246 -0.36747754 -0.6229856 0.08759776 0.058407616 0.22026579 0.028389148 -0.2438188 -0.15549636 0.008850605 0.013428019 -0.25713664 0.04502676 0.34064594 -0.11011381 0.111649774 0.12197902 0.27436036 0.12089262 0.050447285 -0.32797322 0.061696224 0.15366061 0.004324611 0.041952934 -0.51032895 -0.42024696 -0.07802162 0.38238576 -0.26998973 -0.033372123 -0.2488179 -0.026416808 -0.1373405 -0.11768397 0.19771011 0.17936933 -0.35231286 -0.15075946 -0.25347754 0.047636364 -0.013169607 -0.59301144 -0.24186897 -0.34482163 0.18381636 -0.312317 -0.08719849 0.32843947 -0.37337714 -0.491985 0.25174794 0.35952324 0.0688147 -0.10598947 -0.2638967 0.53195006 0.016465629 -0.10387633 -0.47908926 0.5994875 0.028802175 -0.31642643 0.23296775 0.277112 -0.033744145 -0.25074583 -0.19437213 0.02809474 0.07081115 0.23597829 0.004913514 0.1345403 -0.30429664 -0.81899995 -0.23862015 -0.17216903 0.097429186 0.053771053 -0.35719636 0.13960025 -0.28508636 0.68914735 0.27931887 0.033002432 -0.07910785 0.47508726 0.043943197 -0.14808439 -0.08318811 0.29400402 0.32631686 -0.60819143 0.0071764537
wound 0.5636952 0.13060877 0.34636393 0.39111263 -0.6238546 -0.46456766 0.3077904 -0.5756031 -0.5803494 -0.6586541 0.45396742 0.5797185 -0.361232 -0.077667646 -0.22648785 0.3807527 -0.22142838 -0.18672043 -0.16966182 0.11169384 0.6502146 0.16139816 -0.7768045 0.045690022 -0.19726706 0.10928933 0.78680223 -0.055427182 0.53743327 -0.34450668 0.4179708 -0.7953514 -0.48533922 -0.005099418 1.4796976 0.3264709 -0.031682964 -0.83662015 0.18746139 0.033086702 -0.14463069 -0.21513477 -0.3261974 -0.17860271 0.28846878 0.65358603 -0.64606637 -0.47614124 -0.79808897 0.22845748 -0.20411333 0.061783753 -0.17460015 -0.102616556 0.35367653 -0.54445213 -0.4359688 -0.059625268 1.3012549 -0.74109656 -0.32066154 -0.608051 0.7788103 -0.20824121 -1.080255 -0.11079466 0.42525265 0.48303425 -0.5100731 -0.1289789 0.18610363 0.017365905 -0.6053971 0.17054744 0.85283387 0.10562136 0.40593982 -0.30480924 -0.055952687 -1.238201 -0.78181005 0.5215713 0.13050935 0.53673404 0.08671283 -0.6892114 -0.22810447 -0.48049998 0.4990679 0.48515776 0.0003966392 0.053639747 -0.19387643 0.6176808 0.1566699 -0.09903205 0.36601347 0.01666973 -0.20661578 -0.022802996
antepartum -0.33118823 0.2959683 0.23446274 0.22351629 -0.5556336 -0.73469007 0.6237697 -1.1535231 -0.73346514 0.58815646 -0.02285509 0.41468164 -0.35086107 0.17627904 0.46013638 0.31815267 -0.37801674 -0.047079843 -0.06301112 0.15492783 0.111438476 0.3990518 -0.45965612 0.13567671 0.21477635 -0.6358148 0.3390449 -0.040001743 0.63184863 0.4739593 0.41113445 -0.8291419 -0.30251527 -0.5664436 1.4687097 -0.39047584 -0.45265812 -0.7048998 0.78864944 -0.08237137 -0.5293422 0.958322 -0.5860558 -0.75542384 0.65860087 -0.3723275 -0.6742064 -0.33401448 -0.7885811 0.5947144 0.31355947 0.75820476 0.14877696 -0.023374282 0.62730926 -0.33911815 0.8573741 0.4774711 0.80788696 -0.3068841 -0.019540856 -0.27644187 0.9450333 0.09829857 -0.7215164 0.07372196 0.76571834 -0.14558 -1.3593558 -0.13888878 0.15054889 -0.067271754 -0.54694426 0.41373408 0.7130633 0.87457716 0.48309797 -0.21529546 0.35525447 -0.5817971 -0.6562795 -0.16106579 -0.5804229 0.58650947 -0.004909789 -0.5854101 -0.27313724 -0.68944794 0.4055835 0.0657095 0.18009734 0.49710727 0.22698706 0.3491086 -0.5590428 0.05634138 0.7224178 0.24294677 -0.5742641 0.30631638
due -0.15228653 0.3693938 -0.02548199 0.032811195 -0.26526824 0.10624276 0.15163885 -0.5672072 -0.22489902 0.30403912 0.005695643 0.18281962 -0.24235092 -0.13570338 -0.01720647 -0.109801434 0.0069006453 -0.04132326 -0.0070893886 0.18757828 -0.33663902 -0.1752223 0.12586449 0.21518257 0.101828404 0.0627128 -0.25679833 -0.10817707 0.19835946 0.21941395 0.2654559 -0.5633191 -0.21791269 0.14924882 0.36881667 -0.24692386 -0.25026146 -0.307153 0.2821027 0.19536388 -0.16532305 0.10916437 0.21582648 -0.4042429 -0.32482895 -0.10889605 0.10969283 0.07814615 -0.5771484 -0.40155676 -0.3668569 0.50190026 -0.19371732 -0.11163677 0.25870207 -0.5860681 -0.33678743 0.09021929 0.092728935 -0.04019044 -0.23760213 -0.3013536 0.6519661 0.009476452 -0.21189246 -0.4897368 0.47291595 0.074579254 -0.118820295 0.37394187 0.27028558 0.17001887 -0.48017833 -0.17378713 0.1992556 -0.059136845 0.16649295 0.009388248 -0.15701781 -0.36157858 -0.8119476 -0.27742994 -0.08906317 0.15522273 0.035608567 -0.29500547 0.12226249 -0.28879136 0.53618276 0.21359171 0.13643111 0.0012512181 0.6079523 0.028633764 -0.21916555 0.013265093 0.14638384 0.08094511 -0.517109 0.2734412
involving -0.25768805 -0.0447787 -0.21327226 0.16840535 -0.20646171 0.06949199 -0.28260738 -0.47692743 -0.18745497 0.44279483 -0.063216835 0.34836847 -0.034061097 -0.3882589 -0.21289009 -0.29738593 -0.60617244 -0.19798079 -0.39956886 0.55349034 -0.42928407 -0.45685813 0.07175023 -0.05323678 0.2797315 0.09707848 -0.20289765 -0.38726816 0.6315805 0.22644663 0.46124008 -0.9225156 -0.21029486 0.4047872 0.3014758 0.15141618 -0.23819344 -0.2917641 0.16643941 0.74883235 -0.14337221 -0.20630868 0.7092964 -0.52296686 -0.5556021 -0.039272267 0.2994731 0.17372757 -0.41697115 -0.9205427 -0.47841832 -0.13417654 -0.4303444 0.29902884 -0.10465497 -1.2864367 -0.5132782 -0.035778098 0.10836223 -0.45125964 -0.48678225 -0.26374343 0.79656416 -0.26291525 -0.21903446 -0.6496315 0.42508397 0.6791966 0.3928447 0.5230669 0.6343657 0.15967041 -0.3598233 -0.270602 0.61028284 -0.40721783 -0.24964765 0.17546995 -0.5740997 -0.7792013 -1.2853283 -0.3228344 0.17396112 0.15201366 -0.08838472 -0.59063005 0.5447935 -0.2779424 0.6006551 0.4009605 0.04064536 -0.26751852 0.6297232 0.017576678 -0.3641453 0.02045781 0.6091179 0.3430345 -0.33686832 0.0029859366
tuberculosis -0.5448693 0.19216543 -0.13250303 0.0505705 -0.28240728 0.37330556 0.11948946 -0.84207964 -0.78282547 -0.085669406 -0.7455979 0.060156766 -0.53111595 0.18165034 -0.15894325 -0.059866488 0.94722635 -0.29442108 -0.14840639 0.52239454 0.2966698 -0.38375524 0.6309942 0.037450653 -0.3147504 0.10816303 -0.3489397 -0.02911316 0.36671028 -0.028653225 -0.07279515 -0.34229952 -0.7601179 -0.034561507 -0.042753547 0.007032404 0.07424706 -0.7762411 -0.021874437 1.0660506 0.31112772 -0.21432719 1.0907376 -0.5194976 -0.9273215 -0.025940374 -0.470776 -0.08162483 -0.9932626 -0.9658654 -0.47864297 0.80684745 -0.40531325 -0.4034997 1.0513588 -0.22505987 -0.65428936 0.06937061 -0.11059199 0.40647423 0.14109996 -0.43905818 0.69649315 0.42251927 -0.5032535 -0.08318196 0.4432687 -0.4637934 0.19283034 0.22726819 0.4353042 0.37408164 -0.58926445 -0.61285967 -0.40620273 0.70272285 1.2157638 -0.09643057 -0.40831926 -0.45946464 -0.48913687 -0.25479075 0.06437003 -0.39353576 -0.25304663 -0.5253597 0.30205673 -0.13679856 0.8862011 0.05849915 -0.12786055 -0.045135945 0.12884907 -0.46008596 -0.3937819 -0.24401614 -0.7078897 -0.034013685 -0.07789071 0.27138382
consciousness 0.55485845 0.10491629 -0.008486347 0.8885163 -0.99895823 -0.6325665 0.12656209 -0.2744804 -0.9043294 -0.7212232 0.24690218 0.6076035 -0.68852526 -0.24244915 -0.2623512 0.43890148 -0.5404301 -0.37878162 -0.0675527 -0.048464216 0.9153836 0.008293662 -0.27578402 0.13673483 -0.122509144 0.40020216 1.0363833 -0.12507847 0.3807792 -0.24714085 0.4224029 -1.3913515 -0.74051875 0.12446555 1.6875855 -0.013758838 -0.12321466 -1.5417017 0.2427773 0.19870774 -0.46988064 -0.45877656 -0.5582895 0.085631005 0.7188603 0.725643 -0.7856576 -0.68301696 -1.1746023 0.46156502 -0.3955117 -0.298528 -0.5326089 0.2409828 0.6739995 -0.64679325 -0.4037044 -0.11674112 1.9342288 -0.69819623 -0.48316264 -0.9296669 1.2759155 -0.13872546 -1.2571322 0.23458089 0.2659437 0.69571114 -0.8371835 0.16616522 0.28610322 0.27765965 -1.5176717 0.13048238 0.9215252 0.3805919 0.2671318 -0.19763671 -0.18042712 -1.8468064 -1.250591 0.25345686 -0.007075172 0.63617253 0.23451515 -0.709405 -0.3476972 -0.7384777 0.9882283 0.372644 0.17915477 -0.019835372 -0.7457026 1.1230711 0.5608166 -0.33863163 0.62015927 0.016268434 -0.17885992 -0.33493268
closed 0.43881506 0.0872348 0.13031086 0.35790926 -0.3279283 -0.06651707 -0.17801864 -0.19205773 -0.33201674 -0.64213514 0.24357009 0.40361178 -0.124117985 -0.14909352 -0.43600652 0.028914081 -0.18086733 -0.18615082 -0.19138344 0.16030937 0.39715698 -0.1639834 -0.33888063 -0.027758775 -0.15001614 0.38104698 0.4351171 -0.14468668 0.2424089 -0.402359 0.31754878 -0.60357296 -0.52681786 0.19508047 0.8431831 0.30916935 0.016218249 -0.57121927 -0.1452129 0.40560982 -0.09344506 -0.5101027 0.23133165 -0.06278878 -0.0854493 0.6833676 -0.27314398 -0.2725769 -0.5815889 -0.1817407 -0.41791376 -0.16183043 -0.30817315 -0.106706694 0.055003807 -0.64665985 -0.80028784 -0.28439763 0.84432524 -0.43014526 -0.27916798 -0.5369012 0.54131883 -0.21364768 -0.79906934 -0.27003196 0.27830914 0.40987593 0.0038843562 0.065294646 0.17105955 0.1283743 -0.5111208 -0.030722376 0.5063664 -0.15367205 0.24256559 -0.117180236 -0.26269633 -1.1095529 -0.7631365 0.20639937 0.31715578 0.35605642 0.06792789 -0.5779941 0.020666754 -0.3070013 0.5919609 0.45285136 -0.10627919 -0.11220714 -0.015014831 0.4487607 0.19490631 -0.17486374 0.19029953 0.044798218 -0.15183073 -0.03779011
degree -0.20788038 0.024674771 -0.06722346 0.34517825 -0.475944 -0.5625112 -0.30678716 0.40967834 -1.0949376 -0.5038508 -0.04701408 0.083724916 -0.04181575 -1.0616263 0.37109897 0.26709777 -1.1712731 0.046493374 -0.06173684 0.7116096 0.5188507 0.37538114 -0.14520879 0.28397337 -0.0036121337 -0.37389243 -0.38173932 0.32037258 0.80666465 -0.1401053 0.49720594 -1.4871413 -1.0289896 -0.29116192 0.65098476 0.13241181 0.13404089 -0.8853688 0.43098202 -0.5238589 -0.39584032 0.76696414 0.36898163 0.0064012487 0.5261639 0.14365016 -1.0744221 -0.2973402 -0.90925825 -0.07149454 0.18573807 -0.19391645 -0.780209 0.77987367 1.1279497 -0.574523 -0.102633156 0.58868897 0.74092835 -0.27869806 0.09434691 -1.1874685 0.4935521 -0.40608433 -0.008060201 -0.2419647 0.3716326 0.16359444 -0.84083545 0.66451293 0.14999107 -0.4294049 -0.030128172 -0.3253484 0.7464738 0.6852574 -0.56408775 -0.06494838 0.26924923 -1.0730836 -1.6846194 -0.4420485 -0.8781794 0.3154117 0.1933251 -0.7293646 0.046842527 -0.75054437 0.7769249 -0.07036909 -0.13780594 0.05802473 -0.31025243 0.6278047 0.13757756 -0.75527716 1.0736418 0.7344994 -0.30867377 -0.27812687
intracranial 0.71707493 0.10164095 0.2730337 0.668917 -0.79539686 -0.6042679 0.24481085 -0.71556383 -0.6975188 -0.8286138 0.4863498 0.76376605 -0.51896346 -0.07840109 -0.34494054 0.43624726 -0.4316157 -0.33104488 -0.33849034 0.20609102 0.8447924 -0.09762446 -0.90816545 0.032907166 -0.16684026 0.33220613 1.139798 -0.2850465 0.74619645 -0.38276187 0.6265473 -1.2216386 -0.6066736 0.14255877 1.9703574 0.39252034 -0.0658036 -1.2145536 0.24833022 0.32895127 -0.1975256 -0.53449875 -0.32551575 -0.15985318 0.324669 0.949725 -0.6733103 -0.55932546 -1.0750389 0.21834996 -0.36427754 -0.21085854 -0.3052895 -0.039757904 0.31200436 -0.87407297 -0.63748527 -0.26297227 1.8228225 -1.0320939 -0.5372777 -0.74772125 1.185082 -0.33369586 -1.5548787 -0.066505864 0.43825504 0.85829824 -0.54666406 -0.10127152 0.379636 0.10549205 -1.0692528 0.1722684 1.2404492 0.03603159 0.43142128 -0.31430462 -0.32645527 -1.8697966 -1.1761639 0.6316439 0.34343213 0.7568277 0.058322888 -1.00192 -0.2564962 -0.6842637 0.7251002 0.6978358 0.045651462 -0.029602591 -0.34347 0.91964686 0.33684984 -0.1088058 0.56674504 -0.0207966 -0.19134313 -0.071401626
hemorrhage 0.40900597 0.10734952 0.1859562 0.45871565 -0.592013 -0.56166714 0.3184813 -0.58183485 -0.50247866 -0.4235966 0.31906173 0.5101316 -0.40134683 -0.04150908 -0.08736354 0.38012338 -0.29773155 -0.22784539 -0.24332815 0.15044694 0.5584442 0.022566522 -0.61126286 0.11364504 -0.092551924 0.09504278 0.7316453 -0.1673633 0.55041057 -0.10352915 0.4547588 -0.8971914 -0.4189241 -0.040918037 1.4804953 0.13846982 -0.124942645 -0.9223683 0.3081556 0.07783031 -0.20833655 -0.20224811 -0.3717702 -0.19000441 0.3833852 0.51425964 -0.5821062 -0.37743232 -0.7829821 0.3124856 -0.09661175 -0.048941523 -0.12028607 -0.027263174 0.37692258 -0.47434944 -0.245444 -0.096032776 1.319494 -0.67361647 -0.30059025 -0.5226794 0.85562617 -0.17888656 -1.1038203 0.0103703085 0.322128 0.47818273 -0.67890465 -0.092631176 0.18100731 -0.024878355 -0.77819204 0.18830565 0.8981455 0.18252195 0.35776556 -0.24957214 -0.12739356 -1.2018514 -0.79962313 0.43566784 0.10441659 0.5755734 0.07721999 -0.6572118 -0.23827362 -0.5475355 0.44558692 0.3924481 0.06893814 0.07371855 -0.2601876 0.71881676 0.13832036 -0.06760773 0.48616585 -0.035795312 -0.2174315 -0.024379479
delivered -0.30537304 0.29250333 0.29976308 0.23640126 -0.57627445 -0.7036179 0.668593 -1.110761 -0.6860151 0.50795203 0.018461395 0.42646447 -0.36319834 0.19420357 0.45511237 0.3539762 -0.3039298 -0.05040826 -0.058725636 0.13696013 0.098782904 0.40959615 -0.47042206 0.121870495 0.17564683 -0.5677874 0.359484 -0.075468205 0.59522825 0.4445373 0.38093928 -0.7706581 -0.20881198 -0.5141051 1.4114039 -0.35082987 -0.4537148 -0.6971349 0.7360746 -0.020356776 -0.46446636 0.9065241 -0.621848 -0.7130176 0.6181668 -0.3439369 -0.5871817 -0.28204748 -0.70651436 0.6277297 0.25333476 0.7278309 0.21232526 -0.05517878 0.6230344 -0.28742644 0.8339155 0.45108557 0.767173 -0.31028882 -0.037453663 -0.22916321 0.8861567 0.09437858 -0.6836919 0.074637815 0.6667063 -0.15762524 -1.2718765 -0.20506829 0.11107867 -0.03363103 -0.5638447 0.4035293 0.636497 0.80033064 0.52032 -0.25120047 0.36781973 -0.5210224 -0.54773515 -0.10528332 -0.50431085 0.5483914 -0.02864858 -0.48307174 -0.22763471 -0.61193556 0.38649684 0.08163307 0.17178418 0.45611805 0.18439874 0.321469 -0.5490103 0.06599634 0.64168465 0.1789837 -0.5302939 0.30263278
acute -0.05743422 0.27125713 0.013459963 0.088636264 -0.29053834 -0.1282849 0.25049803 -0.45146233 -0.28460294 0.11309712 0.046130035 0.24163504 -0.21218118 -0.1200742 0.058011185 0.06851165 -0.06270595 -0.069632426 -0.05693543 0.15643026 -0.081553794 -0.023003425 -0.05564742 0.19731769 0.0029800804 -0.050183933 -0.069665276 -0.03192274 0.28576687 0.18678476 0.3029919 -0.5893977 -0.24455221 -0.043834813 0.5821617 -0.1617075 -0.19930497 -0.42506915 0.2655895 -0.0025177635 -0.14842956 0.15554568 0.003883114 -0.34316456 -0.0108865285 -0.026050955 -0.14666313 -0.042631052 -0.48986706 -0.069641 -0.13052607 0.34994867 -0.11237458 -0.037205506 0.36567008 -0.35464844 -0.1080717 0.09744609 0.36136982 -0.15553588 -0.13999662 -0.3464313 0.58793825 -0.028472919 -0.33884886 -0.30534858 0.38263598 0.032118503 -0.37381786 0.17388383 0.13677074 0.04139815 -0.48397404 -0.033722613 0.2729931 0.121751755 0.19662446 -0.100145236 0.032913685 -0.4078996 -0.6621813 -0.08064963 -0.19107565 0.23213975 0.035380837 -0.28994173 0.011245137 -0.33414972 0.4151585 0.1840142 0.086171225 0.08022348 0.28893209 0.22939888 -0.14475375 -0.06048233 0.23393765 0.058054086 -0.40299052 0.14031526
disorder -0.10616068 0.32204223 0.009005773 0.1515608 -0.19024596 -0.05285534 0.12834787 -0.4609989 -0.32718256 0.2048206 -0.044631705 0.17170012 -0.26535138 -0.18057407 0.021819513 0.021941062 -0.0030513164 -0.08633398 -0.052457962 0.23818175 -0.14507161 -0.118162036 0.14417799 0.24371698 0.21338238 0.094352745 -0.19945998 -0.13532925 0.2559945 0.13088867 0.3007375 -0.60359186 -0.24281411 -0.06619996 0.4450598 -0.31356925 -0.21897197 -0.40210378 0.26844978 0.020271253 -0.11490067 0.14554182 0.11134218 -0.33261037 -0.18456578 0.0021730568 -0.06453334 0.02426519 -0.6952355 -0.17727122 -0.09262066 0.3713774 -0.1818 -0.12860647 0.27248165 -0.40184903 -0.15444462 0.045298785 0.28336555 0.0020742281 -0.13348643 -0.34020114 0.56248665 0.018476875 -0.26927215 -0.32695824 0.410106 0.015794046 -0.33717403 0.22189826 0.20528492 0.0331401 -0.46643123 -0.1400656 0.25045872 0.13465317 0.2319209 -0.050675344 -0.048382424 -0.36078787 -0.7322379 -0.27035123 -0.13159464 0.10108791 0.002784613 -0.28495678 -0.03787645 -0.334859 0.45627293 0.28511804 0.13376053 -0.023006257 0.40374994 0.10325727 -0.026558764 -0.026968589 0.1640401 0.03778493 -0.5421109 0.24657682
poisoning -0.24502183 0.49644867 -0.010869704 -0.025453236 -0.20520894 0.22526811 0.1772968 -0.49077442 -0.34333122 0.17236462 -0.10140273 0.13797805 -0.28747275 -0.12911892 -0.0040503424 -0.14169261 0.20862627 -0.046999983 0.01093375 0.2456118 -0.357165 -0.14789616 0.2831945 0.3376446 0.06912083 0.12522145 -0.47801846 -0.103757076 0.07216474 0.2051618 0.22831088 -0.5752581 -0.3611241 0.12989488 0.31704277 -0.340368 -0.19095805 -0.34598514 0.25378463 0.12926245 -0.06255619 0.10130419 0.35032758 -0.36518097 -0.39882737 -0.15216304 0.06580862 0.085770294 -0.7479887 -0.47126463 -0.4361985 0.63242215 -0.29566902 -0.21327409 0.4271022 -0.49458918 -0.42970577 0.0988551 -0.027857164 0.14461379 -0.1370658 -0.4556756 0.7631351 0.10067656 -0.07818767 -0.5968496 0.55356574 -0.14161102 -0.20376505 0.4588905 0.22026658 0.21414633 -0.5563857 -0.29792166 0.053499226 0.061976705 0.3050281 0.009969626 -0.110058345 -0.3551885 -0.91405433 -0.47082955 -0.17738287 0.077797666 -0.017266212 -0.2762952 0.05209301 -0.25879222 0.7142527 0.2516832 0.033318225 0.097263 0.64791614 -0.12143124 -0.12725666 -0.07011375 0.06806399 0.06722386 -0.6444443 0.41888097
accident -0.7024737 0.17531304 -0.44065377 0.058193773 -0.13749814 0.39764735 -0.17803057 -0.96560663 -0.080959655 1.2323794 -0.39552397 0.4626269 -0.18795149 -0.27899206 -0.2237655 -0.57312894 -0.28519583 -0.32251677 -0.5096162 0.6508033 -1.1477807 -0.79006314 0.6083888 0.06781073 0.54193735 0.20681685 -0.4844017 -0.6664536 0.65654576 0.6769455 0.56323504 -1.1241248 0.06254138 0.72088903 0.1290289 -0.27111548 -0.5824184 -0.24258517 0.3191677 1.1911168 -0.09660696 -0.26729667 0.926098 -0.98999393 -1.1174804 -0.5218502 0.9369315 0.53751636 -0.49316424 -1.4225826 -0.8128027 0.20014888 -0.4952334 0.16724369 -0.17602347 -1.7156637 -0.42968714 -0.026036503 -0.268702 -0.36521387 -0.758461 -0.07286769 1.3635483 -0.04809953 -0.06802643 -1.0450374 0.66719466 0.7024754 0.6560774 0.81143755 0.96016 0.46113804 -0.96197593 -0.45041898 0.41351873 -0.6615404 -0.13272995 0.325364 -0.8773648 -0.55254847 -1.6417277 -0.8244038 0.22136652 0.0576413 -0.2236299 -0.54197466 0.79784226 -0.32742926 0.885938 0.46241114 0.19351833 -0.3107633 1.3104438 -0.3464163 -0.69222003 0.2458559 0.56917536 0.36681864 -0.7337966 0.20509663
sites 0.07563781 0.32101694 0.04112457 0.1623349 -0.2997814 0.04036224 -0.100281656 -0.18178368 -0.5033917 -0.24381186 0.21804522 0.25341675 -0.06507387 -0.5013443 -0.0846467 -0.0032968167 -0.25997698 -0.07708113 0.063578516 0.26591825 0.015707316 0.18353672 -0.060356185 0.16076559 0.08399338 0.07178501 -0.2549215 0.1326725 0.21407834 -0.28547364 0.25042707 -0.6314489 -0.59058887 -0.039359704 0.52073175 -0.098018356 -0.06635403 -0.4381496 0.15556578 -0.13774067 -0.17061411 0.19598141 0.2955567 -0.20499374 -0.0733756 0.21007395 -0.2227324 -0.121548824 -0.7253608 -0.2783992 -0.24908502 0.25186083 -0.4412574 -0.012031235 0.43874425 -0.6002616 -0.5636878 0.2057807 0.40935957 -0.054168705 -0.21798636 -0.5197892 0.5201711 -0.17744367 -0.20923023 -0.50607777 0.44869533 0.09521777 -0.23158976 0.33109778 0.07729288 -0.12930523 -0.06562644 -0.123426095 0.12120078 -0.021289887 0.10414973 -0.10767044 0.091663785 -0.617006 -0.9603677 -0.21949281 -0.18947195 0.16141482 0.12857798 -0.31873408 0.036152925 -0.29738894 0.6054737 0.3306707 -0.04508044 -0.03928459 0.35631174 0.21821254 -0.026464349 -0.24942087 0.3414204 0.34670836 -0.4976067 0.07515723
disease -0.090254985 0.47578245 0.05163601 -0.054674502 -0.04740006 0.10855335 0.19316003 -0.28386852 -0.22387123 0.040904876 0.027790284 0.26209715 -0.1369923 -0.10491779 0.10240491 -0.05940916 0.12831095 -0.010810177 0.026766416 0.105943464 -0.30499268 -0.04457218 0.020331906 0.2117915 0.08928159 0.2000388 -0.20940344 -0.07494223 0.06432635 0.13657792 0.20382868 -0.444651 -0.28742284 0.04932435 0.5274071 -0.2806964 -0.13313432 -0.27433896 0.25820154 0.01640501 -0.060376987 0.14848687 0.052649982 -0.3042083 -0.06759629 -0.020762563 0.07886556 0.10182472 -0.57260406 -0.19314109 -0.24405609 0.34001556 -0.17043777 -0.16052587 0.23686495 -0.41282868 -0.20123632 0.023720358 0.23420696 -0.006915101 -0.11726386 -0.29696736 0.6249387 0.006245798 -0.17798387 -0.55591685 0.47146997 -0.18907999 -0.34133276 0.23659845 0.00031808644 0.04104282 -0.43525654 -0.076727055 0.042543873 -0.0021105355 0.27589262 -0.1451983 0.11274393 -0.28654638 -0.74035877 -0.38320452 -0.22300722 0.18386547 -0.007069416 -0.22208013 0.0020268112 -0.25295419 0.44587752 0.303697 -0.06699415 0.14232405 0.46099037 -0.0011256003 -0.059612047 -0.08038101 0.17802976 0.08757938 -0.53280455 0.37911317
injuring -0.76638156 0.17411694 -0.47184995 0.0037503063 -0.094618015 0.44071838 -0.15021968 -0.9475471 -0.10737203 1.3041439 -0.47737193 0.42839545 -0.19128056 -0.26692387 -0.25780246 -0.5819084 -0.24117011 -0.2934465 -0.46044895 0.59712404 -1.1765898 -0.7792424 0.767434 0.12037897 0.53145105 0.18253142 -0.570369 -0.61850023 0.5583717 0.722774 0.48695368 -1.0742435 0.100535 0.6754857 -0.07442549 -0.32683298 -0.5864209 -0.20788163 0.33315626 1.1482109 -0.122550674 -0.187519 0.98545533 -1.0402931 -1.2088983 -0.60107654 0.9618531 0.58500594 -0.45367643 -1.4961656 -0.8344214 0.29086247 -0.5042482 0.15474185 -0.12802601 -1.6820631 -0.408217 0.0148464795 -0.36862022 -0.2652682 -0.7053227 -0.035103086 1.3385631 -0.008278049 0.041590463 -1.0534968 0.6643934 0.63037074 0.69150215 0.8335709 0.98097783 0.5074776 -0.9368744 -0.5220893 0.32197368 -0.6664653 -0.15503325 0.3131818 -0.8623398 -0.4295977 -1.566194 -0.8925876 0.13704379 0.002220113 -0.20471011 -0.45991513 0.8522068 -0.29587293 0.9002192 0.4206831 0.16865614 -0.30809966 1.3468946 -0.40911028 -0.7518029 0.22055069 0.48481092 0.39496174 -0.6937586 0.1843034
chronic -0.007613469 0.30559108 0.015186853 0.07846835 -0.30389932 -0.118334 0.28488237 -0.4637734 -0.32059786 0.08562458 0.058356903 0.2917967 -0.22455443 -0.10459445 0.044979863 0.079444945 -0.04157246 -0.08113701 -0.045699023 0.13824673 -0.094916105 -0.010354277 -0.09794139 0.2121117 -0.035361703 -0.013899515 -0.036911573 -0.019722668 0.29468286 0.17235878 0.3075312 -0.64950466 -0.2958444 -0.052510183 0.6824009 -0.13266696 -0.17514828 -0.45144093 0.26231533 0.018333081 -0.1628475 0.16383526 -0.017647725 -0.3863983 -0.0037700012 0.008710109 -0.12399936 -0.021139761 -0.5400251 -0.061680656 -0.19899084 0.36060932 -0.13647954 -0.03861426 0.39249966 -0.3914628 -0.14522344 0.1090389 0.4514076 -0.18419226 -0.15905002 -0.35754594 0.6593427 -0.03966814 -0.38587525 -0.36834022 0.45665193 0.029487414 -0.40637913 0.15212016 0.15494527 0.043823108 -0.5563327 -0.02900791 0.2977724 0.109017 0.2047601 -0.11631115 0.0784532 -0.46071628 -0.7492585 -0.043772534 -0.21608655 0.27864027 0.025158094 -0.3161255 0.027928544 -0.3855877 0.46688065 0.2186618 0.088226326 0.105242714 0.28179187 0.26503912 -0.14646673 -0.09437729 0.21518202 0.06169837 -0.42801714 0.12087216
episode -0.15167119 0.39328343 -0.17477632 0.6608176 -0.016274689 -0.5086581 0.0913476 -0.79805225 -0.5314505 0.79364705 -0.19202581 0.12934464 -0.41262177 -0.3445212 0.2387122 0.31126058 -0.30425483 -0.3228617 -0.33752906 0.4431718 -0.13478787 -0.15287113 0.31289893 0.3334259 1.1108079 0.10224728 -0.044419385 -0.5613213 0.6503149 0.25732383 0.6509445 -0.96506363 0.10230139 -0.6489834 0.6485532 -0.9319304 -0.48415792 -0.6833497 0.6321877 -0.27959988 -0.15736713 0.42264846 -0.20496757 -0.4380622 -0.008325604 0.08007083 -0.23994824 0.10611288 -1.2950326 0.17704765 0.67857414 0.086909845 0.07903598 -0.1326676 0.2079706 -0.26765594 0.5913741 -0.151448 0.8055773 0.07007574 -0.028530885 0.14641114 0.6102064 0.020885762 -0.6800998 0.056221277 0.22030172 0.24183796 -1.076401 -0.18231708 0.45341966 -0.3746887 -0.47056478 -0.057289455 0.63287514 0.6031646 0.3412643 -0.20002721 -0.15279351 -0.33301875 -0.6878037 -0.26791686 -0.06181295 -0.10454139 -0.12584649 -0.3552999 -0.39277625 -0.511508 0.03659999 0.74456465 0.56403315 -0.3792071 0.328122 0.26028487 0.21291137 0.2704816 0.291311 -0.120028034 -0.8332745 0.4379407
examination -0.6869938 0.2850406 -0.14209914 -0.05346741 -0.36201236 0.43966508 0.32175004 -1.0188817 -0.83070266 0.051720414 -0.9907958 0.19569708 -0.468502 0.15517424 -0.073558874 0.080841824 1.0593973 -0.47082055 -0.29673973 0.6864324 0.16517857 -0.46667123 0.79490304 0.07580396 -0.20628038 0.18810728 -0.34430388 -0.19433333 0.4909677 0.14317428 -0.15130413 -0.39743868 -0.7780202 0.027378462 0.03523209 -0.12676702 -0.058749173 -0.9358982 0.081716835 1.2608854 0.36167675 -0.3099067 1.2273959 -0.54081833 -1.0460355 -0.12153363 -0.5922911 -0.194969 -1.0756203 -1.1362827 -0.51632845 1.0030799 -0.34452245 -0.5325917 1.2478265 -0.3520274 -0.7773939 0.05282189 -0.10298538 0.5697173 0.24955265 -0.5209246 0.86596465 0.48771864 -0.7180797 0.041205317 0.4850373 -0.47327238 0.14010827 0.28936237 0.4793168 0.34401745 -0.80312645 -0.7317589 -0.45510575 0.8365554 1.5797637 -0.22498173 -0.54348034 -0.44530103 -0.52814174 -0.505729 0.09568743 -0.4632204 -0.26082495 -0.72330374 0.22958314 -0.15943511 1.0009893 0.033846762 -0.032781985 -0.11099445 0.1963676 -0.5681425 -0.46500954 -0.18795557 -0.6747225 0.015854374 -0.157562 0.4023078
skull 0.7173687 0.034139615 0.245153 0.6042151 -0.5743547 -0.35812438 -0.025992796 -0.5782165 -0.5172864 -0.89406794 0.4501538 0.7469596 -0.34363568 -0.12956457 -0.4998757 0.24703307 -0.3831885 -0.34101832 -0.4117802 0.28730905 0.7044639 -0.2258943 -0.82778233 -0.04946909 -0.17328374 0.49110782 0.9385524 -0.3585414 0.6519471 -0.45658523 0.5863702 -1.0356905 -0.66032666 0.29056114 1.6924356 0.52380985 -0.025743393 -0.97446644 -0.0026734853 0.567155 -0.104922906 -0.7442015 0.008901043 -0.15218447 0.08706137 1.0040643 -0.4819369 -0.445417 -0.9381025 -0.0603852 -0.47149014 -0.35871127 -0.3333414 -0.08289323 0.049464535 -0.9634885 -0.94726807 -0.3898662 1.5431796 -0.93758684 -0.49138147 -0.7111699 0.98675203 -0.3460832 -1.4508541 -0.23228472 0.3994029 0.8055176 -0.23766594 -0.04838989 0.34724244 0.099129155 -0.8475271 0.085653596 1.1210539 -0.1726968 0.4033672 -0.2405275 -0.44632217 -1.8134855 -1.1422929 0.54825944 0.51488733 0.67155355 0.08004386 -0.9819093 -0.086923294 -0.57780385 0.6905755 0.7064919 -0.12628767 -0.086879924 -0.15465865 0.7834085 0.29937223 -0.1069449 0.50113183 -0.0332782 -0.14619617 -0.055503346
care -0.19701314 0.44179085 -0.16516984 0.7063292 0.053760905 -0.5266821 0.057701394 -0.8915365 -0.4769475 0.828748 -0.23809786 0.21739693 -0.4621942 -0.399522 0.29914773 0.2683241 -0.23906548 -0.3923238 -0.2877352 0.46302316 -0.13315584 -0.188745 0.39109775 0.4034533 1.0906422 0.16827898 -0.14992918 -0.5950628 0.6462322 0.19232196 0.5663498 -1.0193534 0.12230278 -0.66683495 0.49347997 -0.91943353 -0.5418346 -0.7635002 0.6230689 -0.2347863 -0.17722434 0.52143615 -0.12071306 -0.47202775 -0.049661335 0.14427805 -0.22179735 0.16592932 -1.2972789 0.20623371 0.7012903 0.08666538 0.12843218 -0.22778428 0.16638094 -0.26064283 0.59317714 -0.10108088 0.72341883 0.118642434 -0.11406471 0.07572018 0.55522966 0.006110759 -0.7364327 0.028650248 0.29013878 0.17167279 -0.9936202 -0.20201035 0.46130875 -0.3670602 -0.37142327 -0.07562054 0.64675343 0.6191924 0.3406628 -0.15027834 -0.21085711 -0.26131037 -0.66709775 -0.3224009 -0.026906809 -0.03065396 -0.07990882 -0.34684527 -0.34588766 -0.44854635 0.16295336 0.6869324 0.6049629 -0.4042724 0.37324703 0.29033843 0.17673519 0.24158314 0.31337115 -0.12715003 -0.92112225 0.46021214
site 0.14799662 0.30625784 0.06213474 0.13984653 -0.284804 -0.0915141 0.12331259 -0.33675057 -0.32184196 -0.07088673 0.25972 0.15662988 -0.2008101 -0.34196705 -0.010967394 0.054833893 -0.18392257 -0.059978593 0.019462831 0.21543519 -0.029598013 0.002428241 -0.13299102 0.18343148 0.09668279 0.033429522 -0.083222404 -0.008871441 0.21309373 -0.12825847 0.2796132 -0.5459396 -0.35200724 0.035450764 0.5689187 -0.10972951 -0.1302675 -0.40747744 0.22527355 -0.12786002 -0.16691887 0.098275885 0.09937276 -0.17663585 -0.09196882 0.20321736 -0.18834981 -0.1371017 -0.6463788 -0.11548351 -0.17505267 0.3120345 -0.22316101 -0.11588025 0.33571586 -0.48361388 -0.42538193 0.08253657 0.39556465 -0.084458925 -0.18399467 -0.43988416 0.42844296 -0.12470709 -0.3565606 -0.35603783 0.3361648 0.1465666 -0.3177867 0.24830376 0.12368887 -0.092696995 -0.23736192 -0.07482937 0.3108361 -0.060461637 0.12789868 -0.07493297 -0.0015381462 -0.5487937 -0.7615746 -0.042625964 -0.08001295 0.20463973 0.11829638 -0.30114105 -0.03780608 -0.30605292 0.40931588 0.27007136 0.13738997 -0.021126289 0.3277776 0.24581432 0.007012776 -0.1315825 0.23209931 0.11568982 -0.4134599 0.15009545
body -0.18125147 0.035249576 -0.037602104 0.2735908 -0.4258713 -0.4513917 -0.18873957 0.13791808 -0.9003473 -0.3506565 0.015663413 0.1251122 -0.045148347 -0.8245042 0.2738853 0.18614922 -0.9456613 0.037748855 -0.07052892 0.54629374 0.33813536 0.29220614 -0.16857186 0.1997334 -0.03588434 -0.3079765 -0.2965663 0.2523064 0.7162245 -0.048220694 0.429935 -1.1850684 -0.8426161 -0.18864357 0.6129989 0.12315739 0.07307511 -0.7062277 0.32787192 -0.3686521 -0.32153758 0.6070869 0.26584518 -0.114666484 0.37696695 0.0822182 -0.80833757 -0.27173305 -0.7136306 -0.06166091 0.047877103 -0.0860625 -0.62965804 0.54817766 0.8694593 -0.5328644 -0.09366319 0.44500065 0.59927386 -0.24389169 -0.003012425 -0.9383881 0.5193321 -0.2971195 -0.09892859 -0.2648471 0.4073251 0.15052459 -0.65799314 0.5172067 0.16460653 -0.2937709 -0.1077191 -0.21291225 0.6679841 0.532245 -0.406305 -0.015307414 0.19863057 -0.88850164 -1.3999219 -0.3417567 -0.6913713 0.31620395 0.13672718 -0.6246447 0.040329956 -0.64690715 0.69042236 -0.04083771 -0.1095088 0.07104599 -0.18727353 0.4975857 0.0552011 -0.55781966 0.89595944 0.54587466 -0.32146093 -0.16427234
found -0.7428338 0.23506398 -0.29319325 0.51384354 -0.5536356 0.29479682 -0.21947494 -1.4847548 -1.3312671 -0.06867033 -0.7950387 -0.15993725 -1.2391052 0.40827814 -0.4879311 -0.43191853 1.2642866 -0.042435024 -0.00020380577 0.5871523 0.66325915 -0.582622 0.75584817 0.055047084 -0.6934975 -0.11629348 -0.77571756 0.20494781 0.5375008 -0.20870377 0.28684556 -0.96587664 -1.2998382 -0.3745354 0.06918509 0.1964824 0.3494712 -1.2022438 -0.043544833 1.5997702 0.2330701 0.10501252 1.566464 -1.1494231 -1.4380146 0.18866289 -0.49625987 0.18764326 -1.9032531 -1.4479243 -0.80936384 1.253325 -0.93519264 -0.27928856 1.595631 -0.37230948 -0.8345783 0.38455173 -0.08638189 0.21077563 -0.17251411 -0.7340005 1.1788746 0.54719627 -0.6051287 -0.49127343 0.91412497 -0.75506246 0.19531149 0.32721254 0.96427 0.94601494 -0.8987536 -0.82885 -0.38747358 1.1011868 1.1810127 0.13208652 -0.51181096 -1.1350051 -1.2469172 0.09885697 -0.08764953 -0.38871992 -0.35490206 -0.59361345 0.757726 -0.43458107 1.4748646 0.2922218 -0.24992247 0.10017814 0.27844948 -0.42979035 -0.6268114 -0.53887004 -1.2482175 -0.26615056 -0.22080076 0.19614749
disorders -0.15575022 0.28487888 0.01973196 0.08627696 -0.26684582 0.005428996 0.12760144 -0.5148572 -0.40496945 0.19211963 -0.06744419 0.16313443 -0.21413627 -0.12423372 0.0028806056 -0.0120267505 0.051107876 -0.07872934 -0.018634614 0.21277238 -0.11910526 -0.026654864 0.10684901 0.17259873 0.0981288 -0.02088874 -0.21643877 -0.025710354 0.227441 0.12906823 0.23468187 -0.52061874 -0.3075077 -0.06766722 0.42328832 -0.21916044 -0.17745243 -0.38345116 0.21107784 0.0937242 -0.13523293 0.21487875 0.2037347 -0.40548578 -0.19762155 -0.08271755 -0.10367264 -0.02350563 -0.63742995 -0.23247407 -0.20053896 0.46774486 -0.20029706 -0.10937796 0.36722913 -0.39721182 -0.2008901 0.15488712 0.20020936 0.016817013 -0.11193512 -0.33069664 0.5645841 0.04260381 -0.22256541 -0.3363812 0.44256866 -0.03412631 -0.28228775 0.21274659 0.22084944 0.08588749 -0.38213533 -0.12203145 0.14036861 0.19160685 0.27132803 -0.03983661 0.008995371 -0.35601708 -0.6944521 -0.24164258 -0.17008188 0.10130513 0.0077195796 -0.2949247 0.058076296 -0.3060827 0.5228429 0.18326938 0.07826063 0.03739019 0.41810632 0.055730674 -0.19274156 -0.07427346 0.13038504 0.1120597 -0.47966614 0.18585555
multiple 0.16758987 0.24578804 0.11890508 0.18133956 -0.23747541 -0.010965412 -0.1257441 -0.051712878 -0.46455655 -0.38191032 0.27682137 0.22679827 -0.0730057 -0.5267711 -0.1464466 0.035073295 -0.3302462 -0.024007022 0.08762018 0.22779772 0.11732 0.15305653 -0.10073293 0.07187554 -0.004034825 0.10308684 -0.14093891 0.15328246 0.22031307 -0.33115658 0.27331322 -0.5656603 -0.59183615 0.00015815905 0.56956196 0.04590427 0.055056047 -0.4714862 0.08126244 -0.15170687 -0.18926361 0.11684726 0.18361522 -0.11031477 0.055287186 0.34960878 -0.34347537 -0.17815788 -0.6882209 -0.23063768 -0.19886033 0.08452054 -0.38055354 0.0489515 0.38965312 -0.5081074 -0.51421773 0.12829192 0.47666848 -0.10220554 -0.1991467 -0.54011035 0.39388257 -0.20518123 -0.3275394 -0.363285 0.3789483 0.082456045 -0.22039574 0.22751886 0.02503003 -0.17972483 -0.03788717 -0.09492357 0.18639769 0.0028331366 0.069182895 -0.16324311 0.100208215 -0.7203338 -0.86411273 -0.067640856 -0.16681407 0.19440639 0.14406343 -0.34015355 0.013107321 -0.29846394 0.502127 0.33498743 -0.0963404 -0.042629965 0.20119967 0.27871773 0.034441713 -0.24896817 0.28828824 0.30470482 -0.3308842 0.05485538
infection -0.05781064 0.26773334 0.06763887 0.09403213 -0.2858477 -0.06371826 0.19342454 -0.51688415 -0.36657006 0.05621411 0.056775536 0.11284716 -0.274976 -0.08632102 0.010468839 0.022945674 0.07137474 -0.047655012 0.02836141 0.18515404 0.010193922 -0.017950423 -0.037306428 0.14175789 -0.0063646957 -0.079342 -0.11882432 0.03510366 0.21225943 0.019950822 0.2002986 -0.44110915 -0.31462896 -0.048358202 0.44168228 -0.105001286 -0.13620661 -0.3880005 0.22421205 0.091932446 -0.13114703 0.16481142 0.16318709 -0.30396006 -0.18009286 0.021544239 -0.20429683 -0.081009105 -0.5744985 -0.15535349 -0.16634488 0.49778506 -0.14529951 -0.14101402 0.4320079 -0.3175023 -0.24985096 0.14458276 0.20188935 0.0033197545 -0.1062121 -0.35510188 0.42534447 0.023298666 -0.30960342 -0.24120389 0.36676338 -0.042291574 -0.26602215 0.16890565 0.16788913 0.059923515 -0.28456602 -0.09400881 0.1419112 0.15393429 0.31473944 -0.064476244 -0.01028368 -0.3694155 -0.54392457 -0.05259342 -0.11406173 0.11078725 0.042534802 -0.2669113 0.0108506195 -0.25563297 0.41256303 0.1508677 0.10845678 0.056442175 0.28687537 0.08684122 -0.16952403 -0.09333465 0.030347995 0.043577727 -0.32924476 0.17982985
vehicle -0.7468285 0.20594865 -0.4580233 0.10293581 -0.24337167 0.3698715 -0.16019332 -1.0668211 -0.12711221 1.3475183 -0.3891471 0.5181936 -0.19977096 -0.31316566 -0.25347692 -0.6016978 -0.36203757 -0.3749386 -0.486105 0.68833196 -1.1864554 -0.8137148 0.62729305 0.024822963 0.6057095 0.18925132 -0.48842832 -0.70104027 0.77121323 0.71322864 0.61065686 -1.2688718 0.018457325 0.6671873 0.21195415 -0.2700307 -0.6787274 -0.3432649 0.38107604 1.26267 -0.17919472 -0.23248011 0.9557208 -1.060759 -1.1001643 -0.5217005 0.9242113 0.54490185 -0.6385112 -1.5342078 -0.85184443 0.27038693 -0.5014188 0.24210301 -0.14030436 -1.892451 -0.40230525 -0.0096193375 -0.22760314 -0.42034185 -0.84715366 -0.14996746 1.4738208 -0.07649979 -0.15566291 -1.0949693 0.75850403 0.77038604 0.6525292 0.83749145 1.0275863 0.5061704 -1.029539 -0.45536143 0.4852622 -0.63573796 -0.129291 0.34707364 -0.91883284 -0.67732185 -1.8211924 -0.84803444 0.20120348 0.07129781 -0.23699148 -0.629451 0.87529814 -0.36630395 1.0021207 0.5359641 0.22349037 -0.35551354 1.3942143 -0.32886553 -0.81406105 0.24690567 0.67289585 0.4601447 -0.8104366 0.1783123
postpartum -0.38652807 0.30501303 0.20368913 0.2151539 -0.48265782 -0.6490717 0.56921107 -1.126717 -0.7050105 0.6505639 -0.115644015 0.35297176 -0.3052398 0.17932414 0.44839036 0.31552055 -0.30668384 -0.076194234 -0.046738524 0.17004225 0.041255835 0.38172048 -0.32962632 0.14211693 0.2742207 -0.5996931 0.20648709 -0.06321802 0.58784217 0.4667196 0.3588141 -0.76207036 -0.25331777 -0.58263147 1.2715207 -0.43782184 -0.43467528 -0.63237274 0.7166175 -0.067097925 -0.48045984 0.95150125 -0.500777 -0.7773409 0.5123156 -0.39675164 -0.59995437 -0.25236407 -0.79561496 0.4942961 0.29850265 0.7425944 0.18057434 -0.03538262 0.56527394 -0.30451143 0.8374293 0.4645983 0.68425006 -0.19125521 0.022399718 -0.18762277 0.86419594 0.10433079 -0.6362945 0.09234586 0.72795683 -0.15977609 -1.2628613 -0.17489755 0.18235466 -0.05753961 -0.4607639 0.35750788 0.5476726 0.8526927 0.47476953 -0.21589191 0.3384616 -0.42685604 -0.56331176 -0.19374964 -0.5547501 0.48967764 -0.026814573 -0.51030743 -0.21183541 -0.6056418 0.3964711 0.062018037 0.179543 0.4338799 0.26232132 0.23472176 -0.5888412 0.07782696 0.60241705 0.22852992 -0.5628135 0.28386027
applicable -0.20192723 0.41643018 -0.17896613 0.60120636 -0.025263933 -0.49776983 0.11130158 -0.906887 -0.54291946 0.79343957 -0.23259814 0.12187198 -0.45572874 -0.30538753 0.25674632 0.2871436 -0.2614623 -0.35010222 -0.36063996 0.44587192 -0.12617098 -0.17121516 0.3834496 0.29924336 1.0777355 0.07897646 -0.12574293 -0.5320932 0.6783963 0.28785634 0.64569634 -0.95704013 0.052058507 -0.6600943 0.636634 -0.87932414 -0.5030597 -0.74383897 0.6399768 -0.18644792 -0.12172728 0.4399161 -0.18380302 -0.4369944 -0.1321605 0.023074077 -0.21391791 0.16320561 -1.3272707 0.06059764 0.65570086 0.12736653 0.08435584 -0.12905549 0.30251846 -0.36338973 0.56814134 -0.12961474 0.7646544 0.13192315 -0.06607168 0.11102762 0.6266791 0.04473026 -0.7046631 0.04696303 0.3222417 0.20516321 -1.042512 -0.19032925 0.4823145 -0.36966872 -0.45916376 -0.06641387 0.57496053 0.6444779 0.41794246 -0.21693094 -0.1357617 -0.36638725 -0.7825748 -0.25014278 -0.030424485 -0.12950845 -0.19061302 -0.41077185 -0.3501089 -0.48150915 0.08725805 0.7603436 0.53687483 -0.33725902 0.3868152 0.23868953 0.12731111 0.28655273 0.24449643 -0.054479115 -0.816087 0.4418655
pregnancy -0.40396395 0.3441284 0.11060023 0.28273672 -0.26965594 -0.48401037 0.40660703 -0.9207376 -0.61600494 0.6861814 -0.21923614 0.26879692 -0.311969 0.10270699 0.42178598 0.26535878 -0.21418089 -0.1109774 -0.1185017 0.19819964 -0.098090306 0.24586482 -0.014081677 0.19900909 0.48103195 -0.26564717 0.088306256 -0.20693956 0.45778048 0.4209116 0.31824967 -0.69104195 -0.1270472 -0.49798527 0.9515442 -0.6040363 -0.4490291 -0.5572995 0.5863332 0.0075626103 -0.35663804 0.79790485 -0.42440045 -0.65625906 0.321684 -0.37531894 -0.3231635 -0.08331642 -0.83052593 0.414235 0.31728047 0.5447345 0.16482452 -0.08655787 0.4178882 -0.24242973 0.79714835 0.29990345 0.62178767 -0.009007203 0.03122954 -0.03890325 0.7177079 0.1208487 -0.45305455 0.05280866 0.56728446 -0.13441974 -1.1124649 -0.14293674 0.23058951 -0.078152135 -0.48319355 0.22620906 0.39458153 0.77186036 0.43746924 -0.21148689 0.2211874 -0.2684946 -0.51591116 -0.32471105 -0.4005263 0.27947482 -0.087580934 -0.36114436 -0.18739627 -0.50109774 0.3110615 0.19502959 0.22149141 0.23816618 0.26604322 0.1132691 -0.35297653 0.14188704 0.47599438 0.13686919 -0.6044806 0.33976376
upper -0.0032196187 0.25602245 -0.07087851 0.18494801 -0.16857703 0.20049809 -0.3183953 -0.06506782 -0.4454961 -0.37800777 0.15067442 0.31724852 -0.057740327 -0.53476834 -0.19450088 -0.14012039 -0.20622718 -0.095101744 0.041170713 0.28067666 0.04526864 0.11241768 0.09664973 0.12878048 -0.018397829 0.1527257 -0.25398412 0.052682757 0.19900712 -0.3932467 0.2593599 -0.58442694 -0.6534957 0.05771155 0.52491605 0.016097805 -0.030399268 -0.536977 -0.0073878216 0.03800265 -0.17341806 0.0055576875 0.47759035 -0.20816399 -0.11561325 0.314322 -0.20467876 -0.14126918 -0.781327 -0.4205835 -0.27627352 0.19160298 -0.50824845 -0.0572826 0.458911 -0.64198095 -0.6358454 0.06813687 0.40178275 -0.023452 -0.20361088 -0.55294675 0.56648254 -0.09235251 -0.17775044 -0.5870627 0.40579072 -0.0713051 -0.063317955 0.33246973 -0.029720478 -0.0049802065 -0.09914778 -0.19388314 0.06853261 -0.0127652455 0.09523473 -0.21101375 0.06290533 -0.73603 -0.97116685 -0.2056556 -0.13693608 0.11964803 0.17666467 -0.23282953 0.10306112 -0.31720337 0.7110646 0.4104914 -0.12798886 -0.07015445 0.33592212 0.20816658 0.026944498 -0.3402426 0.20338306 0.30222404 -0.38526124 0.12622507
elsewhere 0.093022354 0.7691313 0.19091758 -0.0867449 -0.1685286 0.10865963 0.18526769 -0.7409373 -0.115454406 0.5428622 0.527574 -0.19110711 -0.42101878 -0.5629545 0.32373026 -0.17067847 -0.069647714 0.1612343 0.3645343 0.14691187 -0.6492979 -0.29168466 -0.073634595 0.52824616 0.32086706 0.056896564 -0.58562297 0.27389002 -0.043918498 -0.042958472 0.012275033 -0.4192446 -0.45203993 0.30507156 0.25518316 -0.4610545 -0.5391094 -0.39405793 0.68226004 -0.2631099 -0.2640036 0.12756424 0.5053779 -0.19004159 -0.57880074 -0.19890325 0.21627903 -0.1310881 -0.95003086 -0.18800753 -0.5075612 1.2138381 -0.4299603 -0.3928478 0.27670383 -0.6328621 -1.0276582 0.18308963 -0.40002215 0.5365559 -0.44166008 -0.6881613 0.03871571 0.020776875 0.014662179 -0.5750335 0.3807484 -0.1004366 -0.0743143 0.80939114 0.03154334 -0.16807263 -0.05644874 -0.35212213 -0.14061569 -0.40441805 0.2534051 0.061278913 -0.0021055215 -0.47020382 -0.81010914 -0.28081378 -0.05499923 0.039292768 0.34003735 -0.140479 -0.05132636 -0.22648928 0.28709313 0.055921506 0.60655826 -0.06363701 0.994177 0.16544701 -0.11331632 -0.037408967 0.19680606 -0.09576616 -0.7532201 0.7797598
bacilli -0.7129808 0.15573162 -0.26900172 0.34445718 -0.47907785 0.41802004 -0.18674539 -1.291347 -1.2183286 -0.17693739 -0.83670455 -0.096207716 -1.0900941 0.36995426 -0.44742715 -0.3400189 1.2653005 -0.115224585 -0.010285212 0.56329083 0.65944135 -0.51699007 0.78383654 0.030587783 -0.691643 -0.03622693 -0.6926541 0.18923485 0.47339424 -0.2072606 0.1461229 -0.7278236 -1.1824044 -0.3478382 -0.07653802 0.17223804 0.2846435 -1.0560848 -0.047253076 1.6015468 0.25765413 -0.01692689 1.5428255 -0.94943154 -1.4047042 0.07554007 -0.52444494 0.11158144 -1.6342742 -1.3960172 -0.7510035 1.1278466 -0.76454645 -0.25061727 1.5118032 -0.16324317 -0.75102407 0.35404813 -0.13040504 0.32715693 -0.078653954 -0.5994831 0.95863336 0.58009744 -0.49805394 -0.28117853 0.77591455 -0.791027 0.31067532 0.221372 0.8601856 0.81685966 -0.7615048 -0.8711758 -0.56216383 1.0768256 1.2938732 0.12240207 -0.47653967 -0.9211355 -0.9191327 0.07034359 0.011605523 -0.4420752 -0.35399976 -0.48739645 0.65161806 -0.30921066 1.2683662 0.15447782 -0.26350006 0.034849815 0.10047285 -0.548303 -0.60037476 -0.44844908 -1.2488909 -0.25748047 -0.02785358 0.1525676
effects -0.42012054 1.1057677 0.23761505 -0.52220196 0.11860122 0.5063977 0.48529786 -0.39300674 -0.16457076 -0.17105566 -0.025449049 0.023611147 -0.4738873 0.15932354 0.34936216 -0.41045514 0.78157896 0.42243078 0.020660209 0.38970852 -0.9350714 -0.40235278 0.14177051 0.6483224 -0.012628914 0.6628479 -0.6876364 -0.50082546 -0.20294212 0.35733882 0.36589113 -0.49587062 -0.5378213 0.66887707 0.8296955 -0.78420275 -0.23006639 -0.13659453 0.50681585 0.21008758 0.21321703 -0.0072273035 0.1972444 -0.3181722 -0.3794649 -0.32668635 0.5992137 0.2304405 -1.1324227 -0.47879007 -0.76166 0.99294215 -0.4762624 -0.71314925 0.3790511 -0.75882936 -0.5815109 -0.22286104 -0.14617313 0.15246722 -0.09170495 -0.91695476 1.2523097 0.28744897 0.3936775 -1.5132555 0.94029015 -0.83749163 -0.5522731 0.9154552 -0.19460745 0.3808777 -1.2499297 -0.40914726 0.038419034 -0.07144692 0.663642 -0.1196376 -0.07768877 -0.41718534 -1.6709831 -1.2097063 -0.29911804 0.22188881 -0.061110474 -0.42929006 -0.22860634 -0.49145314 1.0257188 0.45953575 -0.39285043 0.5557686 1.2164321 -0.54943556 0.45749393 -0.17270672 0.07712037 -0.13443157 -1.2387698 1.197493
tubercle -0.6131601 0.13676704 -0.24775538 0.36009783 -0.35744688 0.2854093 -0.13034579 -1.111564 -1.0294219 -0.13286921 -0.65620035 -0.08050147 -0.895596 0.35864937 -0.41429836 -0.2918629 1.0961972 -0.13424549 -0.055483934 0.46281824 0.5346843 -0.42498308 0.6646472 -0.023824645 -0.5597358 -0.026290135 -0.54207325 0.15263647 0.36478978 -0.15085316 0.12614974 -0.5894994 -0.95531505 -0.2762226 -0.062256336 0.161305 0.28740132 -0.9130942 -0.11150882 1.2886751 0.27038747 -0.03306144 1.2626874 -0.8170824 -1.1836427 0.14994785 -0.412635 0.076649405 -1.3926765 -1.1455117 -0.58099693 0.98413116 -0.67004395 -0.2733792 1.2733116 -0.22753826 -0.724798 0.23041724 -0.1068087 0.25312847 -0.047235757 -0.5054302 0.83470386 0.46897358 -0.50880265 -0.27952725 0.62428135 -0.6099952 0.2413963 0.19971004 0.70907617 0.7418045 -0.6160441 -0.6699608 -0.44329384 0.88413537 1.0371064 0.027931117 -0.4492203 -0.79655683 -0.77660143 0.06533619 -0.012039054 -0.37937075 -0.3173326 -0.46088642 0.5895414 -0.2668368 1.1135751 0.20521444 -0.21730644 0.03250461 0.1607298 -0.44087714 -0.5133335 -0.408541 -1.0617523 -0.18883885 -0.08066874 0.14819731
bacteriological -0.74739885 0.30614263 -0.17484643 0.021272926 -0.43799627 0.44534847 0.27019182 -1.1646138 -1.0311348 -0.05082531 -1.0098851 0.22673641 -0.61842555 0.17568982 -0.15974133 0.029905496 1.1997675 -0.48997876 -0.28886664 0.76248264 0.2850775 -0.46498075 0.8457914 0.082704626 -0.31778693 0.21091197 -0.3661745 -0.16113724 0.5670381 0.07796632 -0.052747317 -0.54521525 -0.9575671 0.01356847 0.077972606 -0.09627323 -0.02057881 -1.1067934 0.08379138 1.4563916 0.35577324 -0.30267385 1.4063615 -0.64739037 -1.1705844 -0.07262293 -0.68278635 -0.20401661 -1.3348752 -1.2742076 -0.6109009 1.1036785 -0.5028878 -0.50901365 1.4362816 -0.42256173 -0.9302926 0.10418951 -0.04145554 0.55765784 0.17462069 -0.66414356 1.0320066 0.5412446 -0.80111825 -0.056086313 0.62573045 -0.5806946 0.1834865 0.3231124 0.5703227 0.47173688 -0.9053344 -0.8537257 -0.5085605 0.95368236 1.7160445 -0.22470842 -0.6171016 -0.66627544 -0.7044823 -0.44299155 0.09483234 -0.44912943 -0.29948694 -0.78014225 0.31282613 -0.23945133 1.1910583 0.109189995 -0.109691635 -0.082730204 0.22413044 -0.6306977 -0.516827 -0.25683084 -0.77411866 0.015862571 -0.17691822 0.40939936
classified 0.03446659 0.9329962 -0.07419154 -0.084806256 -0.52106607 0.14936487 0.5173956 -0.5782744 -0.16920996 0.28138554 0.45593864 -0.32868382 -0.5312846 -0.5409458 0.1003003 -0.3264928 -0.11496035 0.10278665 0.46666846 0.23711604 -0.7068384 -0.12643479 -0.00062818924 0.26745152 0.16169502 -0.31191576 -0.87479126 -0.123909906 -0.2399299 0.028217984 0.33061883 -0.45191535 -0.16199084 0.26502296 0.10553645 -0.30287552 -0.19265164 -0.04777327 0.413305 -0.21186827 -0.4088907 0.5795911 0.24838203 -0.11871678 -0.6185727 0.1795852 -0.07091039 -0.006998254 -0.81557405 -0.4975326 -0.28172773 1.3510746 -0.13533765 -0.58363634 0.61907095 -0.5713505 -0.90891594 0.3284321 -0.34148443 0.41002306 -0.07251637 -0.7081773 0.32167903 -0.20076302 -0.21602248 -0.7572286 0.5607772 -0.16459784 -0.5289094 0.7085994 0.3679933 0.0026080622 -0.08777496 -0.15145358 0.21965359 -0.26753187 -0.02292766 0.21758945 -0.1112463 -0.07179132 -1.0107428 -0.30090424 -0.3877075 0.10540507 0.401919 -0.15058367 0.0466376 -0.38647842 0.5790332 0.13238224 0.56903654 0.15592581 1.2168683 -0.009244919 -0.20790634 -0.24220514 -0.25118232 -0.10393785 -0.7823255 0.48985535
lower -0.007854714 0.28460208 -0.06656595 0.21965468 -0.16927198 0.18475606 -0.31153297 -0.06188282 -0.4750811 -0.3763688 0.18711244 0.28905725 -0.036144942 -0.5735086 -0.16704485 -0.13875712 -0.21811385 -0.09638534 0.050709423 0.31473836 0.056807924 0.13071582 0.126554 0.12273091 0.0198984 0.16958329 -0.27305636 0.049986344 0.17705399 -0.39168614 0.24537525 -0.66787 -0.728379 0.047912512 0.5496082 -0.021080479 -0.051973265 -0.54670155 0.018887829 0.019332487 -0.20150499 0.042679165 0.49930978 -0.23293194 -0.12530479 0.33974344 -0.19762816 -0.15290834 -0.8623436 -0.4533521 -0.30204222 0.24497654 -0.55237675 -0.08190844 0.4990965 -0.6473849 -0.64032584 0.09823949 0.41928947 -0.014363972 -0.21630341 -0.6041776 0.5897361 -0.114389166 -0.18561493 -0.58128816 0.42321292 -0.06192201 -0.09348712 0.37429446 -0.021069461 0.00031760923 -0.079556085 -0.21747763 0.052802112 0.00013185809 0.1191359 -0.21001923 0.05833844 -0.7637392 -1.0240726 -0.23877932 -0.12828861 0.138039 0.18134592 -0.24797662 0.107533984 -0.3568099 0.7551744 0.43138763 -0.10626862 -0.030271433 0.370238 0.17949487 0.014980368 -0.33785012 0.21354088 0.29348585 -0.44702858 0.16238034
joint -0.08035898 0.38674104 0.013336635 0.014692111 -0.20508689 0.20013806 -0.07917583 -0.27782288 -0.39174086 -0.015531683 0.10127663 0.06486128 -0.101817586 -0.4241082 -0.12331 -0.16432986 -0.00488346 -0.017937902 0.09328099 0.3038392 -0.21225797 -0.047566585 0.15462595 0.18645173 0.048879445 0.041634593 -0.5143199 0.11261156 0.09089267 -0.15721028 0.22472605 -0.5197191 -0.51094687 0.039851792 0.21629357 -0.14568922 -0.08925129 -0.29745877 0.124691285 0.0052006836 -0.14232518 0.16222341 0.5666573 -0.2853475 -0.4275532 0.13480483 -0.06554658 -0.03147177 -0.7137597 -0.5104329 -0.33701706 0.5677954 -0.4056352 -0.17348741 0.46997815 -0.5609508 -0.67669725 0.15475169 -0.0014966386 0.17614514 -0.16656901 -0.55686873 0.38761854 -0.048734516 -0.0608839 -0.5848681 0.43922716 -0.039399706 -0.008994608 0.42974925 0.1734349 0.035420362 -0.10968246 -0.28598827 -0.029569056 -0.043046635 0.1513398 -0.029764099 -0.0016142064 -0.3860786 -0.8518159 -0.2669583 -0.12388852 0.0035569228 0.10486156 -0.2730793 0.14906968 -0.26086658 0.605294 0.24030207 0.0632762 -0.051043205 0.6027132 0.0038585544 -0.13092725 -0.19894807 0.041935872 0.19583176 -0.5354123 0.21244258
motor -0.6967978 0.11702837 -0.40873328 0.11285363 -0.19282934 0.29632252 -0.18569535 -0.94770217 -0.13783945 1.2054077 -0.37182206 0.47983813 -0.17346543 -0.26271215 -0.24249558 -0.5215875 -0.3832591 -0.32791176 -0.4777149 0.6010734 -1.0415537 -0.7242666 0.5617241 0.012721069 0.52158433 0.120561704 -0.45226088 -0.6288211 0.6934463 0.6364342 0.5606559 -1.1639277 0.024264153 0.6140104 0.19328657 -0.22393987 -0.58473706 -0.32688567 0.31611508 1.1777266 -0.15474638 -0.20750578 0.8861237 -1.001523 -1.0171095 -0.48649672 0.80799145 0.5062556 -0.51714635 -1.3444585 -0.724783 0.20446707 -0.45059165 0.24665743 -0.12750925 -1.6515589 -0.33834675 0.025291601 -0.15371922 -0.37435505 -0.74820524 -0.07925129 1.3291748 -0.050388508 -0.13587293 -0.92285126 0.6701796 0.7162103 0.60364527 0.71342963 0.92262256 0.43450412 -0.87140244 -0.37280348 0.444037 -0.55093324 -0.093588986 0.31788182 -0.81808335 -0.60805327 -1.5706034 -0.72894305 0.18429859 0.08951982 -0.24198057 -0.5589693 0.7864943 -0.34724805 0.88537914 0.48472777 0.23927826 -0.30032414 1.2209314 -0.2548182 -0.7496073 0.2387941 0.57353395 0.35938877 -0.71676344 0.15847524
causing -0.42240852 0.9270749 0.16622283 -0.4341959 0.09525627 0.44085985 0.41995403 -0.4326812 -0.1772049 0.0039864983 -0.08383994 0.03467171 -0.40771922 0.14590855 0.2921044 -0.35512173 0.6826327 0.36209252 -0.0042233393 0.34578624 -0.8251683 -0.3976954 0.17830029 0.5456944 0.0244176 0.523705 -0.6361515 -0.4234758 -0.13688724 0.33304706 0.31661162 -0.4353236 -0.43985587 0.54400593 0.66512406 -0.6908664 -0.22547874 -0.12665813 0.46768412 0.21199317 0.16174473 0.061582346 0.19625817 -0.35215414 -0.36817223 -0.3703722 0.50368464 0.22588725 -0.97075474 -0.44912788 -0.63605946 0.8974807 -0.37414205 -0.5965646 0.3842303 -0.65832543 -0.44841933 -0.14346278 -0.16124015 0.14800428 -0.10177504 -0.7327744 1.0977105 0.30228356 0.32698965 -1.2558346 0.797124 -0.70695674 -0.45230708 0.79169905 -0.1322174 0.3212068 -1.0763277 -0.3655254 0.019140678 -0.02257022 0.59951514 -0.075926304 -0.0867903 -0.29776555 -1.3758919 -1.0466383 -0.26571697 0.18220377 -0.0711017 -0.34817806 -0.1312528 -0.40848076 0.8670332 0.39296645 -0.30232546 0.4503562 1.0746074 -0.51494664 0.2745643 -0.09594719 0.059779726 -0.07641517 -1.0198437 1.0228086
nodes -0.09589671 0.6038324 0.06352516 0.35593608 0.0013614643 0.25661722 -0.38369945 -0.01751958 -0.41904625 -0.6216909 0.2898548 0.696598 -0.07432294 -0.7323977 -0.12637998 -0.093418084 -0.1603475 -0.28589454 0.16458364 0.19779997 0.06498904 0.048835043 0.0708069 -0.10952453 0.21679763 0.5077984 -0.14889671 -0.03343535 0.042153995 -0.46917 0.29131064 -0.70076984 -0.85208595 0.1081775 0.8638003 -0.048665524 -0.006244163 -0.90742654 0.21196373 0.25278193 -0.19815998 -0.11830242 0.3172514 -0.14827213 -0.10762891 0.6146 -0.1135445 -0.052807216 -1.1007912 -0.6721871 -0.438565 0.024223777 -0.44838172 -0.17299365 0.34195533 -0.8967568 -0.6985789 0.018306697 0.7120906 -0.046418555 -0.41983804 -0.5693586 0.9180066 -0.07615799 -0.6862673 -0.6925169 0.52396095 -0.047765367 -0.26176885 0.28730163 -0.06391685 0.017219182 -0.07303464 -0.1391171 -0.2696494 -0.30362436 0.51925737 -0.3371226 0.082578205 -1.0050746 -1.1853464 -0.5804664 -0.01479275 0.21089919 0.08294793 -0.3316523 0.14568545 -0.04611518 0.6796199 0.71954626 -0.44139707 -0.025008015 0.42360517 0.10796903 -0.118181564 -0.29193112 0.49466407 0.42769784 -0.42508176 0.46244398
diseases -0.09615964 0.47873953 0.013010647 0.009776736 -0.2702154 0.090447284 0.16062464 -0.54888046 -0.3290261 0.2952278 0.13355647 -0.049993705 -0.3065715 -0.292985 0.09407311 -0.1499467 0.025757454 0.02906131 0.18473494 0.19266981 -0.33918366 -0.12966436 0.09470227 0.25178874 0.12662596 -0.08141786 -0.46614444 0.059201278 0.04651989 0.036931016 0.15858386 -0.46990007 -0.3316375 0.035328023 0.21713689 -0.28321812 -0.21922667 -0.29353917 0.3001571 0.0061158207 -0.21453722 0.26901996 0.36750346 -0.31522623 -0.4077421 -0.07872191 -0.0008808401 -0.01364315 -0.7224878 -0.32084134 -0.28119588 0.7958404 -0.2793607 -0.22897562 0.42680076 -0.4356458 -0.5261679 0.21831 -0.10278141 0.25464165 -0.18085271 -0.44184974 0.33966774 -0.0015775661 -0.11498815 -0.46124926 0.43132123 -0.10608289 -0.22950613 0.41661885 0.24003334 0.040522084 -0.18931688 -0.1938106 -0.004594327 0.0010710778 0.19301295 0.056192752 0.0014672757 -0.2965152 -0.73919046 -0.2472682 -0.17354475 0.028609104 0.15568025 -0.20307146 0.08040989 -0.2738009 0.47692606 0.11748672 0.2777601 0.022090463 0.6552416 0.023764381 -0.20695 -0.11469032 0.010288689 0.025174357 -0.55483025 0.3539619
history -0.08589217 0.3621585 0.04121161 -0.19530623 -0.33942768 0.28087562 0.03720833 -0.4061149 -0.6975098 0.44180545 -0.1524123 0.065227486 0.10655971 -0.053471856 -0.07438184 -0.06271701 0.32882127 -0.2746851 0.022822179 0.31858408 -0.17489684 0.039856922 0.5555193 0.27872673 0.2628481 -0.011726375 -0.47381923 0.009868413 0.1414927 0.09972198 -0.028734565 -0.36387533 -0.29803178 -0.078698486 0.044432327 -0.35474136 -0.05364862 -0.15647355 -0.024086576 -0.017402902 -0.01295962 0.18974103 0.3845707 -0.6115273 -0.37067753 -0.5568034 0.23265012 0.1857146 -0.607243 -0.32038227 -0.42138097 0.41896325 -0.20173934 -0.13226002 0.21206993 -0.15641478 -0.45402637 0.43872708 0.022512628 0.37561855 -0.084979974 -0.076482 0.6009502 0.16679262 0.1201505 -0.48984823 0.73417467 -0.13272169 -0.2646967 0.10857667 0.42834663 0.011555478 -0.23229924 -0.30929315 -0.1831889 0.18661845 0.35054743 0.058745224 0.12924965 0.025226427 -0.5233572 -0.38742015 -0.27354965 -0.035742052 -0.05963812 -0.27722505 0.24330744 -0.11829261 0.7422571 0.1451908 0.059257682 -0.18760917 0.49878353 -0.27473727 -0.29800355 -0.16875622 0.13696575 0.2558314 -0.6861094 0.017720789
type -0.110779025 0.34278575 0.0316442 0.15678208 -0.152628 -0.05658719 0.28471395 -0.5286617 -0.08824603 0.2551232 0.02214427 0.32009345 -0.23102798 -0.15110882 -0.041405544 0.13643324 -0.051633116 -0.12870751 0.025393175 0.045492433 -0.27891633 -0.122371025 -0.053968024 0.15106851 0.21930102 0.084903516 -0.20110694 -0.09166903 0.33478418 0.29720122 0.49101838 -0.5794828 -0.12868774 0.07261102 0.6075056 -0.2434596 -0.28036302 -0.4953762 0.29276374 -0.08390188 -0.04423627 0.22531295 -0.103764705 -0.4549227 -0.015277525 -0.07242814 0.08206012 0.022927992 -0.54570264 -0.06904944 -0.18483354 0.35433334 -0.06682406 -0.09275761 0.17302145 -0.45236745 -0.08315983 0.040247638 0.25002936 -0.19993965 -0.13249552 -0.35428786 0.84435254 0.01398314 -0.33673313 -0.3828957 0.39867586 0.06463659 -0.29865414 0.2064171 0.11274809 -0.0068505476 -0.5949802 -0.04856084 0.34023786 -0.11968196 0.12181072 -0.18446109 0.15154919 -0.40190488 -0.8703099 -0.27193442 -0.26378968 0.3575953 -0.0035809777 -0.3246706 -0.016863592 -0.38546792 0.45020577 0.30364686 0.14871399 0.14829765 0.59963095 0.33560658 -0.15195684 -0.0150011005 0.4613538 0.0512455 -0.56552935 0.17471874
lymph -0.06610286 0.53405976 -0.15130273 0.3899107 0.025787663 0.3013485 -0.34935546 -0.028995525 -0.3055474 -0.57219166 0.17843567 0.6946925 -0.22427784 -0.6675752 -0.31516907 -0.036105935 -0.15461965 -0.3052527 0.03621944 0.20966274 -0.08664519 0.20205612 0.14645012 0.08342895 0.3077397 0.470072 -0.3092458 0.00659661 0.19896835 -0.5262584 0.10005576 -0.62872547 -0.7462535 0.16945165 0.8755469 -0.2245889 0.037390344 -0.8018047 0.28504708 0.17700967 -0.10782543 0.005511629 0.24408951 -0.16980092 0.016648317 0.5759221 -0.18642509 0.09602849 -0.9269709 -0.7277229 -0.2954724 -0.10460871 -0.5301765 -0.12100829 0.23023576 -1.0409796 -0.7901151 -0.11713252 0.50633955 -0.2081586 -0.29269886 -0.45045272 1.0124165 -0.24651678 -0.6934824 -0.49630037 0.5529896 -0.13623546 -0.21517186 0.38218436 -0.31893134 -0.16948952 -0.1146759 0.0605616 -0.18673772 -0.30585462 0.465082 -0.4591468 0.017968394 -0.99074775 -1.0357573 -0.6547176 -0.19035912 0.32253852 0.15353829 -0.20842843 -0.0021606078 -0.10062952 0.8255568 0.7279984 -0.4207333 0.091202036 0.4974436 0.17684194 -0.13336486 -0.3348196 0.53763217 0.3384713 -0.6039933 0.3502053
level 0.10819276 0.2118272 -0.3236345 0.62171537 -0.74643296 -0.0026060182 -0.16499104 -0.045390684 -0.61445266 -0.120919205 -0.14738162 0.36251515 -0.4957341 -0.20368883 -0.36211213 -0.010791993 -0.18645208 -0.33555573 0.15547243 -0.23874864 0.28407654 -0.07908588 0.6084732 0.07841253 -0.076499276 0.36262286 0.328201 -0.00708473 -0.1981664 -0.0014697743 0.046474714 -0.8638681 -0.5811276 0.14379723 0.5491859 -0.43066928 -0.28710017 -1.0368904 -0.04199736 0.4029646 -0.47038916 -0.37802625 -0.19942237 -0.096545264 0.2949303 0.12576698 -0.3208528 -0.42136624 -0.7155229 0.036709704 -0.52953124 -0.05785897 -0.47017893 0.14099069 0.5058714 -0.44197664 -0.3231325 -0.050035097 0.9747024 -0.012054282 -0.2653313 -0.63374645 0.95272994 0.13084108 -0.47326064 0.073487446 0.21958075 0.16761099 -0.3184387 0.32797167 0.22683628 0.5992035 -1.30475 -0.060822435 -0.028815422 0.28585732 0.18411109 0.052316044 -0.0617875 -0.95168674 -0.82035863 -0.22542547 -0.18788978 0.17887633 0.22282697 -0.13534573 -0.032067355 -0.36382353 1.0040739 0.07828081 0.21142 -0.09503486 -0.3270861 0.63733065 0.23586094 -0.3329637 0.12626591 0.047161203 -0.29382437 -0.32243755
region -0.10702176 0.45208192 -0.049890097 0.12921384 -0.2689039 0.16501875 -0.13015412 -0.27936336 -0.48726282 -0.16630705 0.08993781 0.266135 -0.17518295 -0.5049235 -0.121548064 -0.12045001 -0.06280454 -0.106592275 0.0570623 0.30481145 -0.11557385 0.012974426 0.17685091 0.21192668 0.034919757 0.06771381 -0.40905744 0.11996478 0.20563155 -0.21787503 0.25613946 -0.67707646 -0.60055906 0.004628148 0.5023364 -0.15042691 -0.10904011 -0.5066908 0.21812373 -0.005426683 -0.22644265 0.189436 0.45851725 -0.3540992 -0.29849046 0.1860463 -0.12481922 -0.040002495 -0.83918875 -0.500777 -0.2747167 0.46664408 -0.4709021 -0.11394329 0.5172788 -0.6597819 -0.6054723 0.19382583 0.21982855 0.013443035 -0.2005015 -0.6335935 0.6607054 -0.030569652 -0.17975861 -0.61998266 0.5441101 -0.07453741 -0.16662128 0.4516455 0.1094929 0.0641975 -0.20688833 -0.18586014 -0.01935867 -0.009607669 0.23955096 -0.15812206 0.017393148 -0.63318783 -1.0292677 -0.35389936 -0.199752 0.13186584 0.10554069 -0.27466074 0.16387834 -0.33405483 0.71122265 0.34677127 -0.06263156 0.0474063 0.54927504 0.108007975 -0.12524581 -0.28249368 0.19998334 0.24629033 -0.6038491 0.22692947
third -0.34880185 -0.008919807 -0.07827536 0.3648907 -0.5171389 -0.67738944 -0.2262247 0.47132072 -1.2540483 -0.4788886 -0.13716069 -0.004930695 -0.12037951 -1.0998752 0.53333074 0.26800033 -1.288173 0.11973872 -0.03647244 0.75586957 0.58373183 0.44326085 -0.14219403 0.33047628 -0.048215162 -0.51894164 -0.4167646 0.3717007 0.9560225 -0.01881922 0.5296835 -1.6688111 -1.099352 -0.4229095 0.6730091 0.11955343 0.10890842 -0.98858243 0.5672147 -0.6323594 -0.47084743 0.9647002 0.3000774 -0.013999011 0.64398104 0.056676466 -1.2619904 -0.33597007 -0.9485113 0.07220577 0.27752942 -0.16311741 -0.8045699 0.8863875 1.3204935 -0.4884965 0.11889134 0.69675094 0.793365 -0.2982478 0.1660837 -1.3816099 0.47226462 -0.4577051 0.0722601 -0.17206664 0.42863938 0.0174101 -1.035071 0.68845356 0.12040093 -0.4718463 -0.051330175 -0.3191241 0.8135849 0.9787451 -0.5683315 -0.03121917 0.3327656 -1.0716923 -1.7792289 -0.5507964 -1.0881709 0.35095978 0.19885273 -0.801905 0.034977328 -0.8750003 0.81893075 -0.18249898 -0.17758502 0.15977772 -0.46216205 0.6581837 0.19625358 -0.83410436 1.199396 0.7271943 -0.33552068 -0.30799422
limb 0.09172766 0.33045954 -0.028771421 0.11144667 -0.03957274 0.08410587 -0.39473477 0.15122613 -0.38024676 -0.46778217 0.20700192 0.24801224 0.051031265 -0.65905595 -0.149914 -0.039171677 -0.2399955 -0.10084253 0.063430354 0.21599269 0.027434543 0.18035895 0.037121773 0.13137878 0.076949574 0.14093482 -0.23338099 0.15682632 0.04461438 -0.3920133 0.25498024 -0.6031168 -0.65493745 0.061208025 0.5751177 -0.06414355 0.08991795 -0.4409166 0.057214156 -0.15800154 -0.21495973 0.1250115 0.3809154 -0.08761448 0.004242037 0.37195814 -0.12226292 -0.09500147 -0.6849131 -0.34666967 -0.18033405 0.10581477 -0.5012732 0.014015651 0.37610918 -0.6431806 -0.57235974 0.11788986 0.4052311 -0.11348013 -0.2583467 -0.5636965 0.4779126 -0.16244803 -0.12970439 -0.5046667 0.37250352 0.034408353 -0.12774128 0.3249544 -0.07401927 -0.06035915 0.042104837 -0.106557086 -0.024009667 -0.09196243 0.030829959 -0.18566756 0.12948976 -0.65078014 -0.9412095 -0.3060939 -0.13481553 0.22179939 0.098646544 -0.2629286 0.091429844 -0.22357924 0.538141 0.38943535 -0.16101517 -0.0149638085 0.3568195 0.22313632 0.025024109 -0.27294967 0.3443809 0.4032886 -0.4820707 0.12927435
deep -0.6119268 0.20479037 -0.053127535 0.15355235 -0.38711694 -0.5739499 -0.08098609 0.40237594 -1.2438903 -0.3117251 -0.41955516 -0.018245423 -0.16935508 -0.9766158 0.68142253 0.18745196 -0.9978162 0.19896418 -0.036206987 0.8326834 0.31337252 0.36736605 0.08022687 0.4697747 -0.04349697 -0.6967012 -0.5789749 0.33492398 0.9254765 0.23680797 0.5285916 -1.6923946 -0.9453973 -0.50559515 0.522012 -0.025745386 -0.005346077 -0.8698936 0.7226734 -0.5997658 -0.42968988 1.1227326 0.38297093 -0.1908798 0.40429422 -0.17028594 -1.2052212 -0.12929626 -0.87745684 -0.054264486 0.38383576 0.14932708 -0.66606027 0.6636372 1.345118 -0.37742135 0.351968 0.7759304 0.4359089 -0.17576714 0.33058602 -1.4366401 0.49108967 -0.37073165 0.24284641 -0.25877085 0.5704436 -0.39208925 -1.0895251 0.62009096 0.13923337 -0.33569404 -0.0976287 -0.39456913 0.52140224 1.0391322 -0.3540202 -0.023311637 0.34678888 -0.76959026 -1.6248993 -0.7429326 -1.2913754 0.2536002 0.21022145 -0.7224455 0.07905662 -0.8026509 0.77946866 -0.28571093 -0.20865825 0.2946482 -0.1807087 0.38628712 0.042227153 -0.8816714 1.1234732 0.6300137 -0.45812324 -0.05733829
use -0.39584875 0.9952395 0.23995908 -0.44848627 0.050399628 0.44001538 0.4149224 -0.4124129 -0.24648301 -0.13714553 -0.06991356 0.057540942 -0.47628382 0.10694403 0.32422796 -0.34451696 0.70439446 0.3934243 0.0025336817 0.4255606 -0.8135236 -0.3754489 0.14019111 0.6034943 8.483538e-05 0.5949905 -0.6168039 -0.46207353 -0.12678114 0.3010853 0.34605366 -0.5569086 -0.55833834 0.56577003 0.8422833 -0.71594024 -0.19875865 -0.2083284 0.5072564 0.18777727 0.17395316 0.04827062 0.208967 -0.3244712 -0.321596 -0.31265736 0.46502066 0.18245351 -1.1355654 -0.42214337 -0.6837642 0.9159045 -0.45793664 -0.65049756 0.44472647 -0.71381885 -0.55857736 -0.18547991 -0.02870864 0.12907198 -0.10584364 -0.8695493 1.233081 0.3027189 0.30769828 -1.3460741 0.90126944 -0.79239047 -0.56620294 0.844243 -0.17683014 0.3354477 -1.1925836 -0.36598465 0.03046778 0.04145485 0.66986734 -0.120542385 -0.054543875 -0.42405665 -1.6049764 -1.1036576 -0.31323925 0.21915255 -0.08287273 -0.4123933 -0.19081914 -0.49188095 0.9908105 0.47180158 -0.35452685 0.5161974 1.1095202 -0.48963287 0.39270586 -0.16841158 0.088445514 -0.076393224 -1.117905 1.0776627
associated -0.31878713 0.36387852 0.020471424 0.08666079 -0.24215204 -0.07151245 0.16204764 -0.669596 -0.4818435 0.3854123 -0.090667926 0.11234956 -0.26263714 -0.121999785 0.17751662 -0.029212255 -0.009322243 0.0034225485 0.038622726 0.2670861 -0.17982277 0.0498581 0.10224166 0.20932157 0.14227821 -0.18633121 -0.34526753 -0.024132557 0.28638595 0.18614124 0.26548663 -0.5930395 -0.33194417 -0.23352805 0.45456833 -0.32418245 -0.2349956 -0.37305364 0.35098767 0.035736516 -0.20182198 0.53416175 0.16716614 -0.53530234 -0.15806866 -0.19754422 -0.15020745 0.010731509 -0.7303965 -0.1882141 -0.08037803 0.64659566 -0.1553975 -0.10603648 0.5032303 -0.38325563 0.0009898674 0.31341127 0.13487788 0.069591306 -0.08752687 -0.27018374 0.5609421 0.040956505 -0.16149288 -0.33217883 0.5325641 -0.16818368 -0.48230836 0.19171287 0.26607332 0.038441077 -0.27494574 -0.056872297 0.1026991 0.36589473 0.26993832 -0.043070253 0.11515312 -0.29674357 -0.73533636 -0.28524205 -0.308494 0.11011909 -0.020794053 -0.28626668 0.06496497 -0.37564215 0.47484878 0.16688645 0.1125999 0.11568634 0.50490534 -0.026633848 -0.3518931 -0.060710534 0.12212237 0.17625953 -0.5408102 0.290493
burn -0.18918136 0.03370498 -0.06826094 0.30703324 -0.36849955 -0.30971384 -0.17772919 -0.046251427 -0.74958014 -0.19019075 -0.00058345695 0.15370381 -0.111418664 -0.71786886 0.13446708 0.08172261 -0.7593035 -0.048722412 -0.1168966 0.55459404 0.19077802 0.1120895 -0.09924775 0.17702885 0.041525684 -0.14991525 -0.3644565 0.09935763 0.6703083 -0.06587777 0.4419144 -1.1141261 -0.76479983 -0.09531193 0.5681809 0.062534034 0.0026329972 -0.70443875 0.30230746 -0.12020023 -0.2171559 0.42612797 0.42526135 -0.21548454 0.095647834 0.10465026 -0.5871614 -0.16232508 -0.79923314 -0.28219965 -0.0728829 -0.008233373 -0.5858098 0.4240758 0.75716627 -0.6857624 -0.26931846 0.3146078 0.52203727 -0.2216383 -0.09179651 -0.82403916 0.59977114 -0.25033912 -0.1333063 -0.40924782 0.44164807 0.1852889 -0.47500038 0.5397516 0.23089181 -0.21355477 -0.16732965 -0.28276 0.63593686 0.37881362 -0.25823227 -0.027750134 0.022350613 -0.87657464 -1.4270324 -0.36937886 -0.44889972 0.23126957 0.04393647 -0.60332596 0.1339956 -0.5776543 0.70363677 0.11555199 -0.07432263 -0.017105913 0.028201817 0.3729597 -0.0020908918 -0.4037606 0.70961183 0.47731334 -0.37306032 -0.061253898
syndrome -0.08618107 0.28747395 -0.0423388 0.1950743 -0.32090703 0.01621892 0.054447588 -0.39154094 -0.4290493 0.044134393 -0.05283661 0.23108883 -0.25702426 -0.1465479 -0.07336686 -0.023871142 0.014236016 -0.12247441 0.0007689126 0.14048249 -0.03582023 -0.046208017 0.17522064 0.15946811 0.026136361 0.1069309 -0.082067944 -0.047839146 0.14222062 0.06374933 0.20679037 -0.601023 -0.39558372 -0.00259364 0.47384182 -0.23751934 -0.17917424 -0.51875806 0.16375123 0.16911036 -0.17336118 0.04350507 0.14754084 -0.31985453 -0.11882835 0.022205377 -0.14083989 -0.08747513 -0.65182406 -0.20937593 -0.28622594 0.3275673 -0.25834867 -0.08313258 0.399019 -0.42203337 -0.27796537 0.08281035 0.36737183 -0.010962933 -0.14047866 -0.39427865 0.6401974 0.048377696 -0.29922745 -0.3095642 0.3895374 -0.008378308 -0.26827577 0.2309622 0.20146547 0.1977297 -0.55560625 -0.12738901 0.113783896 0.17688319 0.28108367 -0.05328423 -0.027784502 -0.5139506 -0.7354958 -0.2208147 -0.1452028 0.1330412 0.036220476 -0.288006 0.040696368 -0.31161502 0.60384405 0.20685318 0.063005865 0.022079432 0.2457497 0.15637408 -0.07814763 -0.13377708 0.113925405 0.07727423 -0.41897437 0.11795988
hours 0.5523419 0.12600902 -0.01956325 0.8477882 -0.9916291 -0.6165307 0.12002097 -0.24630089 -0.8765012 -0.73955137 0.23499534 0.6047681 -0.6808301 -0.21299739 -0.29392943 0.4076127 -0.53550136 -0.3901752 -0.06389529 -0.078956015 0.9174947 0.014392544 -0.3032578 0.109010816 -0.14038731 0.3764366 1.0704573 -0.13366434 0.35156786 -0.26650003 0.39813197 -1.3306115 -0.74772257 0.13651659 1.7004986 -0.004548559 -0.14792813 -1.5341505 0.23799129 0.23831044 -0.482987 -0.4649595 -0.5860906 0.061964013 0.76054174 0.7139608 -0.7873151 -0.6892501 -1.1607403 0.50039357 -0.37770137 -0.31225917 -0.51089096 0.25021037 0.6913497 -0.62830806 -0.39470276 -0.124258645 1.8875333 -0.7023692 -0.5072435 -0.9056193 1.2873696 -0.16473787 -1.2705489 0.2575383 0.2623107 0.698524 -0.83054733 0.15420243 0.29431245 0.25135553 -1.4965576 0.14618301 0.91490895 0.3875823 0.25144196 -0.18389148 -0.13066575 -1.8367848 -1.2157261 0.30077806 -0.030100916 0.641925 0.24200396 -0.6847284 -0.3270854 -0.74335 0.97658676 0.364936 0.19434819 0.010949769 -0.7551189 1.1416398 0.5267466 -0.30760315 0.6303882 0.008121161 -0.1804502 -0.34562698
histological -0.7279767 0.36601967 -0.1259159 -0.0013199904 -0.44601727 0.5072894 0.34371883 -1.0835161 -0.9431449 0.008719368 -1.0445775 0.25910622 -0.52881235 0.14641279 -0.10419264 0.0748413 1.0915434 -0.48821655 -0.34547505 0.7597009 0.17216346 -0.50678104 0.8162918 0.13099581 -0.19217207 0.22778866 -0.38739967 -0.2509694 0.49828446 0.09610459 -0.17682515 -0.5095105 -0.9381647 0.09632215 0.15203397 -0.07624032 -0.14716882 -1.0590451 0.13292474 1.3120983 0.34578803 -0.4136209 1.3619828 -0.629267 -1.1444428 -0.13033098 -0.6444421 -0.1929335 -1.2182235 -1.2881067 -0.6230788 1.0693221 -0.34797662 -0.5899413 1.3351698 -0.5067783 -0.87524635 -0.003377227 -0.04285012 0.60485333 0.29723886 -0.66225374 1.0068519 0.50056094 -0.76989573 -0.069724366 0.5706298 -0.42160916 0.15624523 0.43249837 0.57191634 0.36034673 -0.91790867 -0.7949007 -0.39839906 0.7753476 1.7384431 -0.25886205 -0.59365803 -0.57417524 -0.6966005 -0.59450245 0.15904249 -0.52200735 -0.30769208 -0.85949576 0.27225763 -0.18193646 1.1202158 0.03753435 -0.011195963 -0.14527947 0.28447917 -0.56190574 -0.5087616 -0.22274618 -0.5991211 0.10151835 -0.18556187 0.418695
part 0.036974214 0.007847953 0.039853975 0.2236694 -0.28913048 -0.3392853 -0.16568215 0.25304678 -0.617082 -0.47303703 0.084308416 0.083451636 -0.017632417 -0.56604046 0.108363174 0.19253619 -0.62588423 0.0094011305 -0.0066651828 0.33543223 0.4241915 0.2525975 -0.21799831 0.12586115 -0.0944155 -0.1555834 -0.07025521 0.22817056 0.42458975 -0.22189188 0.2752681 -0.78180397 -0.62694734 -0.17723876 0.5367904 0.14212061 0.10166421 -0.5513767 0.17554836 -0.3297873 -0.2197168 0.311626 0.1366085 0.066543214 0.34920502 0.2555063 -0.6857365 -0.27044496 -0.51359123 0.06607945 0.076827236 -0.121887535 -0.4204539 0.34410992 0.61123264 -0.296911 -0.15038948 0.25312632 0.60027725 -0.22949007 0.05084113 -0.7377353 0.24876665 -0.2628663 -0.119696975 -0.14254229 0.23019494 0.082586564 -0.49385062 0.28818792 -0.008554614 -0.2494029 -0.019887805 -0.1220424 0.45945126 0.37663698 -0.2158551 -0.088588946 0.19201368 -0.6987221 -0.88283706 -0.13904846 -0.41401076 0.23898076 0.13378385 -0.4233836 -0.054678008 -0.4309571 0.42461365 0.023608945 -0.123977035 0.035718933 -0.26509944 0.4517558 0.16790852 -0.42905533 0.5500063 0.36689365 -0.16369432 -0.16572681
adverse -0.4119495 1.0834413 0.27027595 -0.60649455 0.16457468 0.54415774 0.4611647 -0.3295168 -0.12038908 -0.2090067 -0.033976443 -0.045709137 -0.47918126 0.19261305 0.38660544 -0.4102085 0.87118495 0.51552504 0.0017590708 0.38835752 -0.9450354 -0.43471524 0.15701869 0.64234984 -0.0438333 0.68154633 -0.6930075 -0.4908981 -0.2706289 0.3352718 0.29538605 -0.3551777 -0.51101995 0.64800423 0.7363958 -0.7698559 -0.16159143 -0.018737001 0.50748825 0.105220005 0.25622594 0.027189452 0.2110907 -0.22316119 -0.33146146 -0.38416097 0.59905493 0.21853516 -1.0729047 -0.40481567 -0.7133273 0.99456203 -0.4419297 -0.7467063 0.36364722 -0.5842839 -0.59192944 -0.24178176 -0.24005707 0.17921065 -0.0660056 -0.85615987 1.1372788 0.370118 0.48910353 -1.4561294 0.874319 -0.9418711 -0.533169 0.89504874 -0.30027515 0.32320753 -1.1565847 -0.3630651 -0.07261963 -0.0235688 0.7145948 -0.1294254 -0.044649724 -0.24943602 -1.5369728 -1.2102251 -0.32647365 0.1888495 -0.0846305 -0.3261387 -0.26457524 -0.43879902 0.92492414 0.42592824 -0.4234701 0.59092206 1.1896493 -0.65487945 0.50244355 -0.15006565 0.013832969 -0.14570062 -1.154437 1.2163581
accidental -0.16656834 0.36377588 -0.0014473291 0.053407434 -0.20330785 0.18358386 0.16953479 -0.45630157 -0.30462798 0.19375029 -0.062761866 0.12394448 -0.25912872 -0.13308068 -0.009550019 -0.09917779 0.15341166 -0.06872533 0.015018879 0.21924542 -0.30340117 -0.17392667 0.16617739 0.24619806 0.04130815 0.0863493 -0.34940043 -0.13336647 0.11329422 0.15484904 0.24937035 -0.5561003 -0.351098 0.12076245 0.35661566 -0.31300503 -0.21683396 -0.36475638 0.27776155 0.13271439 -0.063013785 0.082450084 0.26885387 -0.39360732 -0.38304257 -0.10813396 0.0801407 0.07150684 -0.69137025 -0.4529316 -0.35851097 0.47614658 -0.2738855 -0.15474167 0.3837539 -0.5252305 -0.422152 0.07340622 0.09834164 0.037867785 -0.1599333 -0.41684178 0.6733722 0.048526328 -0.15288648 -0.50517833 0.47716966 -0.054570623 -0.18349746 0.43698528 0.18003179 0.17395246 -0.48972043 -0.26015204 0.07416334 -0.02162394 0.26046392 0.0064286343 -0.13433239 -0.4523877 -0.851751 -0.3670768 -0.11410136 0.0582713 0.036209613 -0.2722925 0.11755505 -0.27132067 0.62516344 0.24759631 0.020750845 0.012304519 0.54192895 -0.048704732 -0.1444554 -0.11081921 0.11718753 0.038591024 -0.51508564 0.355288
therapeutic -0.4340577 1.1058433 0.21724193 -0.5022033 0.094569124 0.48987612 0.4755318 -0.43854338 -0.29187354 -0.20752546 -0.042101093 0.0650935 -0.50900656 0.14875767 0.33164036 -0.3778369 0.8014832 0.46040043 -0.049462862 0.42291465 -0.88811874 -0.44604933 0.17324933 0.63877845 -0.03709144 0.6900118 -0.70053524 -0.4946625 -0.15438083 0.29603016 0.38303554 -0.5436993 -0.63719374 0.6310964 0.91212255 -0.7912185 -0.20523371 -0.19646908 0.5170492 0.21714339 0.19639179 0.03237794 0.23048611 -0.3425457 -0.34172946 -0.35928735 0.5202387 0.20149888 -1.2331781 -0.47789317 -0.7482479 1.0359885 -0.51891035 -0.69934386 0.4889066 -0.7374074 -0.59427345 -0.16977915 -0.081019826 0.1105694 -0.098770134 -0.98229885 1.2786889 0.3562761 0.35155454 -1.4986693 0.9393623 -0.8518249 -0.5661318 0.92185134 -0.20955913 0.3295149 -1.2919959 -0.41734767 0.031245606 0.018531406 0.7764554 -0.14330906 -0.093154706 -0.46686158 -1.696627 -1.249094 -0.3424215 0.24025846 -0.06923507 -0.46856216 -0.21571787 -0.5349532 1.0721841 0.46820736 -0.42367628 0.5428852 1.1735749 -0.5783168 0.4572089 -0.17442136 0.09945986 -0.09064779 -1.2229072 1.2042598
cerebral 0.4279123 0.16549377 0.23393133 0.46010643 -0.54047954 -0.4212727 0.21923485 -0.59146446 -0.5512071 -0.5088394 0.30175498 0.53843665 -0.3483561 -0.11773399 -0.19596711 0.23909484 -0.27223778 -0.2117886 -0.1896181 0.17854258 0.5337116 -0.03805982 -0.61125344 0.1042734 -0.07530709 0.1714965 0.6412141 -0.21051034 0.5453132 -0.21504048 0.43955848 -0.8934652 -0.44972363 0.008861918 1.3645575 0.2236626 -0.10675818 -0.8849345 0.1852258 0.22900158 -0.14086714 -0.2153093 -0.10728103 -0.17008659 0.16766219 0.60932016 -0.4985008 -0.3657013 -0.8583468 0.1487475 -0.2531523 0.04216064 -0.18825532 -0.10099192 0.28526726 -0.6134404 -0.44799402 -0.15916304 1.1816734 -0.6417078 -0.34044507 -0.58570975 0.8210639 -0.19344877 -1.0654507 -0.12166292 0.45463854 0.43488514 -0.48753285 -0.032099962 0.2384473 0.09099218 -0.7539955 0.13074166 0.87973577 0.11692238 0.38500646 -0.20521924 -0.14421505 -1.2843758 -0.9320483 0.3113525 0.108019575 0.46739733 0.07327058 -0.7339637 -0.13180622 -0.51606005 0.60324824 0.5334962 0.045387343 0.015053848 -0.0872504 0.5986127 0.15151027 -0.11396924 0.3657468 -0.017242225 -0.25702503 0.10583164
face 0.45699924 0.06337749 0.19835559 0.4504199 -0.38694325 -0.13751481 -0.18365099 -0.3772655 -0.43101078 -0.7507463 0.32227373 0.61810756 -0.21464445 -0.32230133 -0.36004448 0.15559259 -0.38439846 -0.29981157 -0.29587552 0.3250104 0.47603023 -0.08709871 -0.59020966 -0.083559275 -0.10968849 0.37123844 0.45453873 -0.25709662 0.5282853 -0.48056313 0.46939233 -0.79933923 -0.6266199 0.18889748 1.2005254 0.4266076 0.06959098 -0.7889985 0.0007746887 0.4758182 -0.026637582 -0.47979984 0.18206315 -0.10987924 0.0024511658 0.79973555 -0.43266013 -0.28138986 -0.77015275 -0.28372025 -0.3953162 -0.3711003 -0.36608157 -0.021890728 0.083214074 -0.9079459 -0.84409285 -0.2698772 1.1086063 -0.68577206 -0.34769046 -0.5562033 0.82506937 -0.3363142 -1.038736 -0.26401532 0.35867944 0.5597113 -0.12865706 0.022173604 0.20878948 0.0029364843 -0.3717366 -0.019945404 0.6950222 -0.14881961 0.28134808 -0.17630424 -0.28648823 -1.4061152 -1.0565574 0.23209698 0.33461198 0.4910871 0.054878335 -0.78459024 0.06570048 -0.33577004 0.6148963 0.61118144 -0.17770144 -0.06852829 -0.00038290082 0.4783913 0.09626481 -0.15393718 0.51177204 0.10641526 -0.1254415 -0.011104867
obstruction 0.09886865 0.17981042 0.11138376 0.13907792 -0.41090062 -0.38377854 0.32649678 -0.4837922 -0.32474327 -0.064915776 0.2290735 0.31025714 -0.23855408 -0.0803659 0.105212025 0.20844826 -0.214307 -0.047739528 -0.10237076 0.10606218 0.16124366 0.07395107 -0.36655003 0.14422037 -0.09109425 -0.15535726 0.28990063 0.0058965953 0.38687405 0.10100659 0.312661 -0.6090105 -0.27636686 -0.037539512 0.9828355 -0.051718168 -0.18073387 -0.53722197 0.32328564 -0.08516195 -0.23141041 0.10962837 -0.2434419 -0.26078427 0.27553082 0.08459792 -0.34413132 -0.24705261 -0.42933163 0.22066146 -0.0817998 0.23366298 -0.049594674 -0.004294073 0.4252613 -0.32699284 0.0073659318 0.09256333 0.6695069 -0.39386722 -0.18173695 -0.3677423 0.60833824 -0.07336705 -0.5415478 -0.11119381 0.3417864 0.1298898 -0.5541293 0.04076019 0.043261774 -0.010778153 -0.5114578 0.12726803 0.51492816 0.13907458 0.22971956 -0.16211185 0.07802331 -0.6153235 -0.5816494 0.18192263 -0.1528745 0.4041533 0.08080029 -0.3621959 -0.10579758 -0.42590103 0.3170084 0.14903155 0.07923384 0.14986734 0.052355036 0.40435836 -0.109942645 -0.07312783 0.38461962 0.06283921 -0.2757448 0.05194215
complicated 0.05765203 0.19798641 0.1247739 0.18233715 -0.45260015 -0.1088073 0.15528102 -0.337339 -0.44003534 -0.19380745 0.06556755 0.2814284 -0.23856813 -0.061902475 -0.11280284 0.1255918 -0.05562208 -0.04781039 0.022941744 0.18449879 0.18686159 0.047447152 -0.038102124 0.19967042 -0.06448694 -0.007379672 0.080422595 0.0009324455 0.319729 -0.06779958 0.18940558 -0.6057515 -0.3226314 -0.1049697 0.6210047 -0.07032971 -0.1496121 -0.43477163 0.17226315 0.009617139 -0.17223941 0.028604174 0.054888375 -0.32424292 -0.12054274 0.15268846 -0.33246106 -0.12099131 -0.5239022 -0.11753072 -0.11483382 0.22936855 -0.17620154 -0.06010525 0.2873056 -0.36322278 -0.28243628 0.06681265 0.5210787 -0.20292982 -0.09806835 -0.52208173 0.5675769 0.00827967 -0.40567836 -0.24583122 0.43533152 0.15039782 -0.27208343 0.13489574 0.19638179 0.11998804 -0.4701635 -0.0445399 0.27359062 0.13846369 0.28271005 -0.134699 -0.07092892 -0.4510406 -0.63942415 0.03714426 -0.10760909 0.19534735 -0.025101794 -0.3316782 -0.08228344 -0.3226882 0.5903827 0.19264439 0.060982503 0.08658105 0.13873088 0.1697234 0.037023343 -0.13935432 0.108860984 0.1588366 -0.33175415 -0.031119617
skin -0.060025204 0.1889143 -0.02281396 0.19325335 -0.33752444 -0.07615769 -0.12440045 -0.05102858 -0.7041643 -0.2020634 -0.036677297 0.1113996 -0.11638774 -0.4817728 0.06588048 0.062712274 -0.34674653 -0.06964788 -0.02262007 0.37592757 0.14856161 0.13061522 0.08804659 0.20897935 0.023641806 -0.017401988 -0.2913643 0.0819813 0.31943464 -0.09550042 0.27083755 -0.81398404 -0.64940995 -0.0645599 0.48064625 -0.0744471 -0.002717987 -0.5415035 0.17023759 -0.16337551 -0.20018591 0.30509278 0.27242798 -0.18101121 0.07448514 0.06079515 -0.38947815 -0.12759434 -0.7574773 -0.20217189 -0.18081173 0.1415071 -0.49381846 0.22467323 0.621025 -0.47911245 -0.34199172 0.25813854 0.47309044 -0.06940975 -0.057141446 -0.66816795 0.524013 -0.13107891 -0.11761931 -0.33427033 0.39220142 0.080082335 -0.4222636 0.37647554 0.17031968 -0.1051242 -0.2263065 -0.24569994 0.2975518 0.291159 -0.003254525 -0.05421358 0.120204315 -0.65232724 -1.0891675 -0.339342 -0.35479483 0.16626672 0.09407853 -0.43096444 0.084746815 -0.45095655 0.6597535 0.14189868 -0.030146806 0.01148373 0.12771592 0.24983427 0.05172443 -0.3514524 0.45016596 0.37284905 -0.39917612 -0.044818785
laceration 0.47724053 0.09525149 0.25130865 0.51360816 -0.60609436 -0.48936513 0.18960021 -0.51179004 -0.6260679 -0.58786184 0.2818891 0.5057861 -0.3757098 -0.12140692 -0.18674487 0.30054075 -0.32462364 -0.21424693 -0.18783736 0.15929794 0.6546654 0.0336861 -0.6197195 0.095782734 -0.09485961 0.16179341 0.7164661 -0.17894125 0.5436284 -0.27574572 0.4344847 -0.96141654 -0.4938108 -0.03968877 1.3872755 0.25939092 -0.051391166 -0.9455381 0.16541702 0.17607708 -0.13154924 -0.20758338 -0.19610061 -0.10717308 0.24337834 0.66675997 -0.5793888 -0.39295322 -0.89202595 0.22155595 -0.20761485 -0.029728945 -0.22257079 -0.009969334 0.3677203 -0.5935615 -0.3819183 -0.12247174 1.277486 -0.67655593 -0.35040775 -0.6076422 0.8419255 -0.1943005 -1.0892134 -0.059455983 0.42700103 0.49088976 -0.5320751 -0.046766195 0.24417146 0.046626136 -0.71824807 0.14916974 0.9309173 0.20583333 0.3339868 -0.20579547 -0.10991412 -1.3445083 -0.92418575 0.34031245 0.081940405 0.47614008 0.042091846 -0.7408414 -0.1667697 -0.5355833 0.603376 0.4676219 0.042759173 0.030298417 -0.24741115 0.647126 0.23140956 -0.16416039 0.4158844 0.013871693 -0.22017486 0.008720033
congenital -0.12144418 0.25171286 0.016274417 0.0903609 -0.23867232 0.06759627 0.064267226 -0.39490014 -0.40585485 0.08426155 -0.09236905 0.1796258 -0.17374186 -0.115282305 -0.054020777 -0.03208041 0.08448599 -0.09950834 -0.029196186 0.21521966 -0.09669133 -0.05619656 0.13719037 0.16825083 0.028166054 0.06802711 -0.19650091 -0.049316086 0.18276156 0.07869019 0.18725316 -0.50603163 -0.33986413 0.0026067018 0.3582987 -0.17308547 -0.12239855 -0.36712387 0.15065646 0.16050643 -0.081575215 0.08300819 0.23913458 -0.34858844 -0.22187792 -0.042530064 -0.068507195 -0.011156751 -0.5893507 -0.2947265 -0.27863142 0.35216948 -0.2470454 -0.08214807 0.35123104 -0.4136546 -0.29789904 0.09293304 0.2048765 0.00762824 -0.121754095 -0.32886305 0.57186913 0.03168442 -0.20947728 -0.34504366 0.41418323 -0.017345008 -0.184726 0.22267483 0.20936707 0.124746464 -0.40000853 -0.17603908 0.08666716 0.14440031 0.26494747 -0.028783174 -0.050066248 -0.38782158 -0.69102997 -0.24777669 -0.1191852 0.075176544 -0.008414335 -0.2946075 0.09414068 -0.25558951 0.54831135 0.19197711 0.00304415 0.0048538493 0.3330903 0.016920798 -0.14604487 -0.102653265 0.11558647 0.12030934 -0.4110536 0.15733863
benign 0.027938243 0.21503048 0.03541714 0.12538747 -0.38638976 0.04557009 0.1005237 -0.5070089 -0.58293474 0.060245845 -0.010594044 0.2509155 -0.16608037 -0.16581182 -0.08849422 0.017338298 -0.017649706 -0.19330393 -0.050402198 0.33615687 -0.027744113 0.009834758 0.035145864 0.22075425 0.0403321 0.035801563 -0.1639147 -0.021260228 0.28213897 0.05407112 0.19778521 -0.6680463 -0.43320718 -0.040393487 0.55266535 -0.18240915 -0.10392532 -0.43192184 0.12021488 0.081535846 -0.124456495 0.13422981 0.18842758 -0.39293656 -0.17267644 -0.09729397 -0.120127454 -0.054412074 -0.6891844 -0.2399756 -0.321645 0.28451526 -0.30667055 -0.07014477 0.42839935 -0.47238898 -0.37289357 0.17013523 0.4466996 -0.060149807 -0.13769765 -0.37256128 0.660143 0.001382412 -0.29113418 -0.42006814 0.54332525 0.06408777 -0.32858288 0.24087049 0.29699323 0.07706093 -0.46224636 -0.17884152 0.21741667 0.17420426 0.28521276 -0.03108358 -0.015832534 -0.528446 -0.89845407 -0.17872632 -0.14720775 0.16154177 0.010844088 -0.44112557 0.100626625 -0.3713055 0.671872 0.275557 0.052889757 -0.008158819 0.3694986 0.11495279 -0.1367604 -0.09472038 0.22991066 0.21166088 -0.5112273 0.08433349
dislocation 0.10870674 0.164861 0.034176406 0.11100754 -0.2171109 0.08772379 -0.1259339 -0.24146996 -0.31649017 -0.2793618 0.057329655 0.20985737 -0.11483802 -0.24937938 -0.28101572 -0.057449464 -0.0146549735 -0.12378465 -0.047032338 0.19554684 0.07996709 -0.043924134 -0.03605396 0.031665068 -0.07484233 0.18598585 -0.0455825 0.03552628 0.18570761 -0.22104293 0.19224524 -0.41222396 -0.45867646 0.08401799 0.34494215 0.08169003 -0.01506671 -0.3300751 -0.04063547 0.18004969 -0.02515401 -0.1515559 0.3174179 -0.19676036 -0.27143574 0.3130334 -0.1702811 -0.14515351 -0.5213533 -0.30706438 -0.27430123 0.18190931 -0.32533732 -0.12700978 0.20492965 -0.45762622 -0.5966334 -0.018406864 0.35332978 -0.073289625 -0.15020026 -0.43912718 0.36441702 -0.11378876 -0.2910937 -0.38679394 0.30693644 0.074511185 0.051926445 0.16539827 0.18437088 0.114853874 -0.20694332 -0.17472185 0.11839681 -0.017996615 0.19578941 -0.048960157 -0.07186804 -0.56335896 -0.617544 0.01028534 0.03112224 0.08621875 0.05875966 -0.31943372 0.10565091 -0.22859712 0.44784597 0.2835809 -0.07037491 -0.10082411 0.2487457 0.14185801 0.039779115 -0.121987626 0.03837115 0.08250591 -0.28918025 0.059185375
eye 0.06072572 0.08731575 0.15387101 0.26320943 -0.32704124 0.097780146 -0.036395587 -0.20231187 -0.36235932 -0.22473545 -0.042134065 0.18691945 -0.1341357 -0.12993957 -0.15207179 0.10121018 0.031436857 -0.15664096 -0.14734603 0.18771625 0.089873016 -0.04744737 0.15167163 0.08082297 -0.08020321 0.20846966 -0.19235626 -0.056516934 0.16488639 -0.14461605 0.28025648 -0.62131125 -0.371535 0.062359303 0.3183247 0.06758823 0.012053787 -0.46580735 -0.007583198 0.2503359 -0.029656405 -0.20789191 0.14676857 -0.14348997 -0.1444191 0.30494002 -0.14085728 0.013945521 -0.570182 -0.37857267 -0.4149508 0.09572706 -0.43072918 0.018790679 0.30871573 -0.44038853 -0.5543875 0.0037630943 0.45278952 -0.048890274 -0.2714403 -0.40601942 0.57946336 -0.04559687 -0.21507484 -0.28119004 0.29922506 0.19004254 -0.021017162 0.30754316 0.14227626 0.135841 -0.44196883 -0.28360942 0.15561837 0.13849345 0.16963786 0.006591049 -0.22844495 -0.6451428 -0.7443152 -0.25040352 -0.049735878 0.03316003 0.09713994 -0.33919415 0.04539533 -0.22599283 0.6628129 0.17733316 -0.06795526 -0.06057622 0.043965038 0.110172145 0.031984173 -0.15673687 0.12585299 0.073537394 -0.28438175 -0.042376224
affecting -0.29268497 0.5016836 0.024447635 0.09429609 -0.23809409 -0.060979962 0.26495272 -0.7087746 -0.4671955 0.40191272 -0.08329368 0.19101867 -0.32139626 -0.1142458 0.21984997 -0.012162187 0.02827212 -0.0572022 -0.01622868 0.29837656 -0.2996046 -0.04927438 0.1011426 0.30811504 0.28381053 -0.027276935 -0.29907048 -0.1359799 0.25913495 0.32120085 0.34501436 -0.68111587 -0.37767553 -0.12142546 0.69732296 -0.47594127 -0.32175052 -0.4877174 0.4871487 0.0184634 -0.22005361 0.47425666 0.09578325 -0.51957595 -0.110709965 -0.19251679 -0.088389084 -0.035254095 -0.9304743 -0.12673567 -0.08774605 0.6600453 -0.21022345 -0.16274664 0.5085181 -0.4715167 0.01863641 0.20006067 0.283268 0.04953984 -0.098924965 -0.33550236 0.8068808 0.0585757 -0.28967723 -0.5029337 0.5990349 -0.18227492 -0.67465395 0.27681634 0.19192435 0.05966027 -0.547386 -0.111731134 0.30351028 0.35023588 0.4386544 -0.12562875 0.07699526 -0.45632672 -0.954775 -0.46495214 -0.264582 0.14807618 -0.025580622 -0.40485463 -0.08997788 -0.46623284 0.5984492 0.32476246 0.08992163 0.15694816 0.6230661 0.0054145847 -0.22600149 -0.034137446 0.28559196 0.1306358 -0.7403073 0.47268772
