1815 100
unspecified -0.12088208 0.5806034 -0.15816157 0.1794565 -0.02070283 0.11936645 -0.1668755 -0.16284549 0.08377177 -0.18866143 -0.029452754 -0.16310038 -3.6697442e-05 0.117024176 0.46497795 -0.12967566 -0.036933634 -0.008659833 0.19258963 -0.13693215 -0.085690476 -0.16517761 0.16617434 -0.26916838 -0.325457 0.02011229 -0.13011105 0.018717028 -0.112166405 -0.0065301005 0.023421608 -0.7850645 -0.2467183 0.035109974 -0.21832994 0.3642586 -0.14440536 0.023357308 -0.23226778 -0.2844105 -0.2568194 -0.24862419 0.0943169 -0.28131753 -0.025016408 -0.032902084 -0.057596717 -0.3620411 0.3562436 0.13730997 0.09473511 -0.39243326 -0.1682736 -0.45035192 0.2292983 -0.006682582 -0.3529136 0.0359451 0.30638123 0.13635282 -0.14988403 0.1844023 -0.317705 0.08349954 0.6266705 0.19792433 0.42209125 0.150273 -0.5138369 0.2639448 -0.027749747 -0.13747859 -0.21499172 -0.11506259 0.4430728 -0.30392566 0.35360116 -0.23606585 -0.119738154 0.2279517 -0.2262942 0.36342216 0.42317367 0.27671468 0.15743746 -0.12775904 0.47069123 0.36321098 -0.14819856 0.08664207 0.04283817 -0.7544657 0.39047474 -0.46566647 -0.089777604 0.35206056 -0.23980092 -0.44203517 0.071828246 0.05333148
without -0.099215195 0.75325346 0.19070299 -0.12431371 0.28712904 -0.009878163 -0.1997625 0.16879988 0.082027905 -0.8215613 0.04118288 -0.3107676 -0.061199747 0.7545273 0.39764425 0.045640882 0.3126608 -0.036742013 0.54008996 -0.38273636 -0.7583819 0.33259714 -0.083810605 -0.1169341 -0.6335799 -0.056781504 -0.22581543 0.13724299 0.023217421 0.031660248 -0.024213072 -1.1039217 -0.011693214 0.19734874 -0.3960287 0.29436564 -0.39696437 0.287952 -0.19204232 -0.30469042 -0.4236794 -0.61645377 0.06828762 -0.7721729 0.13002889 0.14407648 0.10220432 -0.18251704 1.0037937 0.081948295 0.38180667 -0.6833838 -0.00103077 -0.86776865 0.8058152 -0.49333677 -0.20438118 0.7022797 0.35312238 0.22445363 -0.26418862 0.5783563 -0.9789554 0.13184138 0.76955134 -0.08505915 0.20127632 0.00027199867 -1.6111084 0.19641148 -0.044782247 -0.20097171 -0.12378679 -0.2853403 0.63148785 -0.8443326 -0.32983598 -1.0595295 0.17576823 0.36297083 -0.43666396 0.49596107 0.50508416 0.42000756 0.027543413 -0.6710981 0.7510219 1.0294085 -0.0708732 -0.11867978 0.3554493 -1.453846 0.72219414 -0.98542786 0.0022708683 0.8814907 -0.21015379 -0.27963543 0.18902753 0.14863172
mention -0.16191415 0.7392124 0.18079022 -0.17254247 0.32190955 -0.037512884 -0.119930334 0.19311737 0.06602752 -0.84965056 0.011865604 -0.32506132 -0.20643032 0.77656645 0.32726276 -0.0039432696 0.22173752 -0.008897788 0.47799224 -0.37162456 -0.7692298 0.31339422 -0.038273264 -0.035884216 -0.61800635 -0.05076082 -0.26786047 0.14013495 -0.011928006 0.07905606 -0.12186068 -1.1018115 -0.011817278 0.12734 -0.44822225 0.22990534 -0.3972193 0.3196718 -0.1952115 -0.33333516 -0.426022 -0.64626956 0.06821135 -0.81835085 0.14178804 0.18865724 0.09741902 -0.18456522 0.99322164 0.04825948 0.39469543 -0.67375875 0.13931015 -0.8799042 0.8018274 -0.58868957 -0.27865207 0.6583728 0.38848114 0.23765989 -0.32329684 0.54571146 -0.95342433 0.1398219 0.8474542 -0.05050444 0.20701802 0.039158978 -1.6740507 0.20904663 -0.08218128 -0.15149483 -0.12058854 -0.25756177 0.7648824 -0.9132433 -0.40180185 -1.1049644 0.1829111 0.34039992 -0.3676113 0.52481294 0.46298236 0.38610813 -0.016827272 -0.5912012 0.8620007 1.0539757 -0.11988325 -0.08535431 0.41235876 -1.4475938 0.70577574 -1.0088252 0.01579861 0.8908649 -0.25027025 -0.29251415 0.14570932 0.24993691
specified 0.06994907 0.4671234 -0.10350878 0.40869868 0.13327177 0.16912112 -0.313263 -0.6312435 0.11679049 -0.074244045 -0.39196634 -0.30639806 -0.26374933 -0.214739 0.46783733 0.017257188 -0.047803305 -0.2647004 0.10484943 -0.121461354 0.09725715 -0.17743409 0.17971112 -0.21492547 -0.2678382 -0.04923613 -0.07199594 0.07340563 -0.10590414 -0.2865102 -0.45917022 -0.5221179 -0.08599327 -0.039427783 -0.11452189 0.419996 -0.13319087 0.16710503 -0.046994876 -0.15796053 -0.38561043 0.06621206 -0.062390067 -0.18262637 -0.0026413444 0.06771667 -0.058331963 -0.05107516 0.09581996 0.22935788 -0.51639146 -0.2408275 0.24593526 -0.05938278 -0.006918435 -0.15024665 -0.21474537 -0.43456167 0.3499002 0.29091752 0.22544426 -0.007947386 -0.34899813 -0.13554764 0.66690195 0.111104734 0.4382967 -0.04262618 -0.21036315 0.13231196 -0.07775825 0.14570747 0.018618546 -0.051180296 0.21316066 -0.27211735 0.27194232 0.25794122 0.0292372 0.16089824 -0.046257965 0.14398243 0.17855094 0.090172485 0.150798 0.013138706 0.33317366 0.04410599 -0.33821285 -0.018887537 -0.23656647 -0.35440728 0.05857944 -0.7377732 0.0010785777 0.038130607 -0.1484648 -0.72455645 -0.16175185 -0.09781059
open 0.25026062 1.0104024 0.56824166 -0.08943138 0.45521167 0.06207994 -0.30838913 -0.19991389 0.4907353 -0.47649825 -0.25102043 0.10905695 -0.25469935 0.4099062 0.5613934 -0.13578533 0.061358515 0.41696197 0.41316602 -0.4060382 -1.0431025 0.008137955 -0.33872625 -0.6609723 -0.55812556 0.20423386 -0.07159079 -0.027571592 -0.2548974 0.054754466 0.44701695 -0.9588854 -0.20710108 0.635794 -0.4802302 0.43190402 -0.40137383 0.27246916 -0.46473837 -0.25932053 -0.25267348 -0.30756986 -0.045459412 -0.6994877 -0.17925213 -0.10237684 -0.03528684 -0.15095992 1.2320515 0.62909794 0.13594516 -0.93166006 -0.2918126 -0.96251786 0.72474265 -0.26465857 -0.21132489 0.31347567 -0.02722155 -0.041313455 -0.5108181 0.38147303 -0.69730437 0.009569781 0.62392604 -0.17289014 0.6891218 -0.02781552 -1.1511244 -0.16052805 -0.17232165 -0.09090494 -0.13428849 -0.23822151 0.3118347 -0.6056942 0.84688985 -0.65622926 -0.20200841 0.16256174 -0.1370944 0.4673655 0.3630944 0.17790446 0.680135 -0.8341035 0.54748666 0.7790025 -0.11457063 0.13069151 0.12127488 -1.3329833 0.7253076 -1.0212328 0.13253762 0.7451321 0.15689689 -0.38875034 0.34053922 -0.0062340614
injury 0.24885888 0.7219323 0.27045965 0.032517605 0.27601665 0.07794129 -0.24846487 -0.2494153 0.3655905 -0.3385959 -0.23270866 0.09743791 -0.045739394 0.16185623 0.5620192 -0.052759826 -0.015669629 0.20580226 0.32070068 -0.2845729 -0.50612706 -0.11975488 -0.27489474 -0.5290667 -0.4498207 0.12055278 -0.051853932 -0.051605973 -0.18567318 -0.10215238 0.17626347 -0.7454232 -0.154908 0.44531173 -0.34591207 0.47962177 -0.37820822 0.21870972 -0.24210218 -0.11300508 -0.26569048 -0.17199144 -0.06633176 -0.49957475 -0.14338322 -0.012365632 -0.015272272 -0.102988794 0.6395987 0.46355104 -0.03724358 -0.71485764 -0.27882063 -0.6071243 0.4267733 -0.10390511 -0.17508991 0.19980487 0.075670145 0.004519462 -0.1888529 0.09280851 -0.5435584 -0.044128515 0.5174543 -0.076251514 0.5520959 0.09924973 -0.7979442 -0.04031381 -0.13289848 0.0030886603 -0.06330243 -0.18329738 0.2571736 -0.46219683 0.6375118 -0.4064998 -0.11082778 0.085793085 -0.22190018 0.38559797 0.37675175 0.16457808 0.465207 -0.60476893 0.34538004 0.5731428 -0.0051201764 0.11915636 0.039546024 -0.9964712 0.5045852 -0.8336025 0.044123936 0.54537016 0.14138749 -0.40490237 0.27536827 -0.023960995
complication -0.36648443 0.30402282 -0.55221283 0.19784516 -0.11422085 0.16266477 0.062317453 0.15140286 -0.018582586 -0.8866535 -0.049601533 -0.72814643 0.098608464 0.79045266 0.39104638 0.017551389 0.15474208 -0.40884292 0.4796093 -0.33376807 -0.14505857 0.25555903 0.2646645 0.28156936 -0.57420397 0.0042446614 -0.33434534 0.2933109 0.19561942 0.040352877 -0.69878453 -1.085014 -0.033881437 -0.47945648 -0.37749717 0.24725011 -0.21780564 0.071252644 0.015338953 -0.24632618 -0.59426045 -0.6688973 0.14747737 -0.70708895 0.2820182 0.4238913 0.094905 -0.1797037 0.5771461 -0.40759405 0.20438933 -0.3283522 0.33772537 -0.6233573 0.760754 -0.64421725 -0.30554485 0.46556526 0.7149481 0.3509085 0.02687083 0.47302115 -1.2967633 0.25283843 1.0585395 0.38065943 -0.07769745 0.04310485 -1.4599732 0.3761479 -0.03659927 -0.36450186 -0.14858814 -0.3014472 1.2754506 -0.89587337 -0.96373093 -0.9919903 0.41855586 0.503574 -0.30174902 0.6068757 0.42487293 0.643517 -0.4766245 -0.26183164 1.1298653 0.84262764 0.014601053 -0.165948 0.2836342 -1.4005197 0.48724648 -1.0377791 -0.0184501 0.717813 -0.62667155 -0.34509015 -0.09061974 0.093903415
fracture 0.33651596 0.963668 0.42104578 0.104192585 0.40612537 0.05114388 -0.28974384 -0.5524112 0.5442268 -0.2993838 -0.4152075 0.09057267 -0.22855714 0.051131632 0.6323137 -0.06667358 -0.016901674 0.39186794 0.29853985 -0.44224054 -0.8527976 -0.13580625 -0.2055401 -0.8172489 -0.3384543 0.28323233 0.11323597 -0.11612183 -0.24840236 0.015204294 0.39590597 -0.89591265 -0.30850443 0.78185153 -0.41403806 0.4818052 -0.3475952 0.3299364 -0.46824965 -0.1434065 -0.18706094 -0.11155607 -0.13184087 -0.5876292 -0.1247642 -0.14338142 -0.10188693 -0.120831415 1.0293884 0.7938461 -0.21094257 -0.86793596 -0.23683536 -0.8660712 0.6292779 -0.1408359 -0.32082424 0.013826195 -0.0082486 -0.16639672 -0.43794343 0.15397263 -0.46868262 -0.090571284 0.7023229 -0.015467351 0.75529706 -0.015798055 -0.77923447 -0.15501727 -0.16725926 -0.060902927 -0.019268446 -0.20876397 0.21017364 -0.5089879 1.0959305 -0.3716727 -0.25834927 0.18735173 -0.013441432 0.27851835 0.23448077 0.064991295 0.8821658 -0.7529114 0.37493548 0.52505517 -0.19275504 0.18415932 -0.038639802 -1.177332 0.55669415 -0.84958553 0.1348053 0.5205803 0.24924932 -0.51103693 0.31732914 -0.12037077
loss 0.39691293 1.6729313 0.86913973 -0.23808762 0.9159406 0.026566746 -0.9342936 -0.50741863 0.01949621 -0.6573285 0.040264893 -0.22635417 -0.45581374 0.36837405 0.7312297 0.048733283 0.19560035 -0.2833607 0.6171801 -0.20759882 -1.3491164 0.071027644 -0.13781448 -0.43612617 -0.97248715 -0.16840479 -0.68925804 0.08437716 -0.03990481 -0.1559263 0.22345898 -1.13643 0.033279713 0.6356469 -0.4391635 0.11612093 -0.57006764 0.50977856 -0.38021955 -0.86314535 -0.16943292 -0.2519072 -0.2808773 -0.6531996 -0.16540621 -0.10897833 -0.09164157 -0.08100235 0.76540947 0.595694 0.14524706 -1.0948665 0.060389094 -0.62658095 0.573961 -0.48904377 -0.1671054 0.26833156 0.116469316 0.4143827 -0.34412205 0.6300315 -0.7995592 -0.16905636 0.7198566 -0.48225394 0.9402617 0.0870619 -1.0777518 -0.045245387 0.03688199 0.45672953 0.07957438 -0.41477317 -0.5858283 -0.772349 0.7437315 -0.437533 0.16458254 0.17570978 -0.5928738 0.3417625 1.0366949 -0.06706088 0.6285898 -0.68472576 0.07224516 1.1294087 -0.008058159 -0.37586144 0.1670206 -1.0283494 0.9746494 -1.2648687 -0.24049494 0.8551159 0.13037437 -0.8803683 0.81570286 0.1535988
condition -0.4211097 0.39770013 -0.4922823 0.19420566 -0.04594791 0.12521775 0.02802355 0.17329392 -0.0015795219 -1.0165976 -0.017895684 -0.80698776 0.05649735 0.90690476 0.470104 0.06988161 0.19227345 -0.47858474 0.5643329 -0.3530834 -0.2540061 0.31514454 0.3158476 0.27348322 -0.6566979 -0.038921084 -0.42613095 0.3573705 0.2248491 0.051778503 -0.7257214 -1.270914 -0.0007167423 -0.532276 -0.46444649 0.2240479 -0.25637215 0.10888911 0.048601042 -0.2967748 -0.63624495 -0.7416654 0.1354878 -0.81397116 0.33706412 0.43949494 0.07047566 -0.18871903 0.7108636 -0.41334385 0.22520995 -0.4306091 0.42332953 -0.7103142 0.83665127 -0.77964723 -0.36629906 0.507823 0.76511985 0.40716007 -0.0020594704 0.5637522 -1.4294305 0.22322786 1.1688226 0.40792605 -0.10543571 0.057367697 -1.657607 0.39602917 -0.034895122 -0.39172944 -0.132161 -0.33368835 1.3605276 -1.0582544 -1.0654126 -1.0675972 0.48310316 0.551548 -0.29383206 0.642013 0.46607786 0.7138291 -0.54828745 -0.309645 1.2188537 0.91379356 -0.052691862 -0.23422396 0.33318835 -1.5381786 0.5608388 -1.2098395 -0.050447833 0.80782855 -0.6952229 -0.3999375 -0.06285174 0.12998791
neoplasm 0.11765696 0.5152648 0.102864206 0.42192775 0.098448336 0.12763228 -0.39287126 -0.7536391 0.15652375 -0.12377709 -0.47144958 -0.34026694 -0.5698912 -0.041601688 0.3291123 -0.016242487 0.091058806 -0.27671665 0.1563623 -0.2654456 0.039575253 -0.20387594 0.032855034 -0.20589519 -0.42895073 0.056058392 -0.083817676 0.11087075 -0.129853 -0.28394803 -0.31718066 -0.66836375 -0.065137066 0.026121968 0.01994061 0.4194153 -0.2000606 0.28938866 -0.104766354 -0.004686932 -0.44529903 -0.078949675 -0.057186123 -0.32967737 -0.068613015 -0.06772871 -0.07451087 -0.00456986 0.38401678 0.35984978 -0.60593283 -0.5329504 0.33653232 -0.04339561 -0.008694324 -0.09915381 -0.14214478 -0.3466092 0.37865746 0.13728474 0.046331566 0.08581627 -0.23877822 -0.0034198302 0.7032399 0.020952879 0.77146506 0.09401623 -0.3319923 0.12269798 0.09008146 0.03262466 0.009047473 0.008192239 0.43186563 -0.53842914 0.48291427 0.12913406 -0.060662936 0.07774378 0.21400607 0.18123353 0.33263478 0.32960865 0.12929626 -0.08029729 0.3565638 0.077145346 -0.48743266 0.06147722 -0.32491773 -0.43949935 -0.035262488 -0.7816186 -0.037865743 0.0439156 -0.22073978 -0.834924 -0.16931812 -0.08504103
malignant 0.008091505 0.46947953 0.054597452 0.3378148 0.09638162 0.20842288 -0.37262744 -0.67887807 0.29147646 0.0027694723 -0.52674514 -0.22406265 -0.42672727 -0.1703012 0.44138312 -0.099036604 0.004254543 -0.22260864 0.2102499 -0.2679176 0.015678067 -0.26630777 0.04196659 -0.22618078 -0.2864029 0.026827253 -0.013829838 0.10495748 -0.104604006 -0.2139741 -0.34148678 -0.5672021 -0.1135375 -0.011063199 -0.07751751 0.5102809 -0.12937576 0.21647765 -0.18256247 -0.072640285 -0.343564 -0.027284373 0.05878685 -0.20145093 0.015455621 -0.06833241 0.055631038 0.086978845 0.16542433 0.3777949 -0.5631439 -0.42258757 0.3444111 -0.11608781 -0.06322287 -0.17925504 -0.16336542 -0.40957534 0.24530305 0.2005412 0.12180651 -0.036918364 -0.25942856 -0.049667995 0.7482857 0.09453233 0.70069134 0.019299898 -0.25652614 0.17725746 0.04327356 0.1476628 -0.06277903 0.066034585 0.3518439 -0.36554298 0.3726614 0.23014559 -0.067773536 0.16449751 0.11471508 0.11278355 0.2683859 0.2291845 0.17462939 -0.10090482 0.39489627 -0.025525343 -0.46211255 -0.014507288 -0.44189575 -0.30347362 0.02589765 -0.7590468 -0.033631057 0.11098711 -0.08683258 -0.8110858 -0.26957327 -0.22159883
wound 0.13126291 0.86971164 0.38856828 -0.085075654 0.36751586 0.05564535 -0.20376946 -0.12384234 0.3853921 -0.57530934 -0.20779257 0.07419437 -0.22286613 0.50790656 0.4671019 -0.108465716 0.13337243 0.3392794 0.40889338 -0.34277225 -0.873815 0.058544483 -0.30253032 -0.5238692 -0.5591049 0.1520508 -0.045215767 -0.026976682 -0.17963602 0.06951158 0.34517303 -0.93946964 -0.208666 0.47007602 -0.4892496 0.38059837 -0.3371328 0.2718172 -0.39305705 -0.20155257 -0.2800349 -0.3600812 -0.04003389 -0.70630056 -0.09682175 -0.050054904 0.032851037 -0.14881568 1.1227707 0.44415772 0.19541274 -0.79042184 -0.21012108 -0.8883322 0.70810497 -0.29016462 -0.24825445 0.3652438 0.028867627 0.0017869915 -0.43121058 0.3770977 -0.73273623 0.051637333 0.6216303 -0.16126677 0.57681835 -0.040654924 -1.196866 -0.033154033 -0.12809129 -0.14405535 -0.10400803 -0.242486 0.381625 -0.5775509 0.49578992 -0.761588 -0.107777536 0.2055975 -0.18733506 0.45486352 0.36246708 0.30341685 0.53435075 -0.74717736 0.64463615 0.7968733 -0.119414106 0.08158456 0.14251527 -1.3170993 0.704414 -0.88474673 0.096802555 0.7319363 0.060338292 -0.32844096 0.24738926 0.017583787
antepartum -0.33911535 0.32253742 -0.48686412 0.1746168 -0.07466504 0.15863815 -0.011969968 0.15398479 0.0122125195 -0.8996326 -0.031110687 -0.74766916 0.051962677 0.8250866 0.41691107 0.018660525 0.16639988 -0.4164023 0.53172034 -0.3803399 -0.21936773 0.25470465 0.24633144 0.2734856 -0.6190377 -0.033350702 -0.34044346 0.29570544 0.20666483 0.07386826 -0.6922179 -1.1213007 -0.025577655 -0.4369853 -0.40323398 0.2757376 -0.211004 0.13329679 0.013367954 -0.26156297 -0.5830154 -0.66864645 0.13629746 -0.72151226 0.2639682 0.45000932 0.08453799 -0.16650128 0.58078974 -0.38143343 0.20332678 -0.36179128 0.38171417 -0.7097538 0.78646153 -0.71337646 -0.30478764 0.49064788 0.72929794 0.39041126 -0.011971425 0.49061218 -1.324513 0.20268452 1.1043005 0.34043387 -0.029935861 0.029207734 -1.5240722 0.36048967 -0.06411716 -0.34007183 -0.11779384 -0.2940065 1.2205528 -0.9497371 -0.9511273 -1.0243448 0.4204375 0.5113385 -0.2830268 0.5929102 0.43746412 0.60327506 -0.45059997 -0.30047128 1.1181811 0.89536256 0.01152228 -0.17267576 0.321279 -1.4492214 0.51895577 -1.0805721 -0.025755677 0.7649049 -0.609145 -0.36682618 -0.061468802 0.106404655
due 0.13182768 0.41576058 -0.25303423 0.4631299 -0.024941467 0.1890239 -0.24187766 -0.5475737 0.20944554 -0.10655913 -0.419975 -0.21457046 0.00022513092 -0.24502304 0.5300236 0.048013367 -0.10990897 -0.15168338 0.0815389 -0.14779809 0.20447974 -0.19175638 0.060334425 -0.30862752 -0.24783018 0.029839095 -0.023742469 0.050761923 -0.14928946 -0.3434518 -0.46313587 -0.59478146 -0.14513355 -0.016863888 -0.17872198 0.6205579 -0.27217007 0.1350633 0.015706016 -0.06087069 -0.37262005 0.025245786 -0.0015722079 -0.23676196 -0.030176098 0.14333563 -0.059934754 -0.08015142 0.005000623 0.21359414 -0.48407736 -0.2956086 -0.0059781102 -0.1636878 0.062157214 -0.051004637 -0.23640504 -0.2523466 0.37723374 0.18232562 0.28735405 -0.1675197 -0.45312515 -0.14640135 0.71556973 0.23013282 0.3418969 0.032275856 -0.3411088 0.12980884 -0.1809256 0.06286935 -0.01240563 -0.09046357 0.3664625 -0.2931242 0.2516193 0.13814862 -6.383149e-05 0.18425792 -0.16751751 0.2331439 0.16759346 0.17870171 0.124571905 -0.118959606 0.3479568 0.15510093 -0.14796165 0.06343776 -0.13919157 -0.59025013 0.13695559 -0.7940823 0.024835706 0.11209208 -0.1344866 -0.6097604 -0.11728793 -0.08340015
involving 0.20593502 0.6936991 -0.06755909 0.67537755 -0.055066925 0.14284638 -0.6021088 -0.9871308 0.28504655 0.0648723 -0.4096674 -0.30464786 -0.29231068 -0.7210306 0.99652773 0.22192855 -0.15856668 -0.08045013 0.30130792 -0.52587306 -0.12956448 -0.45844996 0.46005157 -0.5673052 -0.05119522 -0.1879572 -0.23392983 0.18041319 -0.16514811 -0.2975481 0.14143148 -1.0500304 -0.21742778 0.28228408 -0.25091296 0.676275 -0.3055453 0.22866203 -0.30022168 -0.7175389 0.23999968 0.14492483 0.27179685 -0.01912693 0.19081363 -0.00072340923 -0.48668787 -0.5526576 0.2107255 0.76207775 -0.8073451 -0.73582447 -0.1552105 -0.5453599 0.3296182 -0.2968561 -0.57968765 0.11573314 0.7572139 -0.124783635 0.47193363 -0.15949632 0.07223341 -0.35024393 1.209524 0.2675663 0.2402315 0.20565856 -0.022998938 -0.053099398 0.009121286 -0.00097586034 0.33051932 -0.08894384 -0.19630012 -0.53180015 1.1924624 0.69607323 -0.32944772 -0.06503342 -0.008624493 0.14396526 0.4634751 -0.3131534 0.10906058 -0.40867054 0.06119603 0.2156034 -0.260398 0.17601942 0.13310191 -0.72879934 0.45242253 -0.94845504 0.17870343 -0.045876767 0.31343654 -0.87320423 0.49306932 -0.44828695
tuberculosis 0.5799934 0.13328063 -0.47718605 1.2184896 -0.13241795 0.36937013 -0.1600392 -1.1285956 0.5085204 -0.1879571 -0.93609387 0.12713504 0.2873037 -0.20463218 0.6137873 -0.07660102 -0.29001567 -0.3397642 0.098527126 -0.19663277 0.20544961 -0.5630402 -0.6157758 -0.632557 -0.40294155 0.33432028 -0.057153635 -0.08595894 -0.17147654 -0.2667136 -0.61072 -0.14642283 0.09956197 -0.30834967 -1.1061516 0.38662696 0.035895113 0.062310398 0.01214237 0.6276389 -0.33820003 0.53097624 -0.6632545 0.04201341 -0.5685658 0.25942925 0.36996314 0.22573957 -0.20268752 -0.1054115 -1.2869726 0.15977333 0.12692645 0.060565483 0.24272701 -0.279352 -0.32520664 -1.1776794 0.23988515 0.40330562 0.49474028 -0.17781171 -1.4640745 -0.17601137 0.49189642 0.21825583 -0.021581916 -0.6483141 0.44843575 -0.23962884 -0.6216822 -0.018934505 0.15076628 -0.37479174 0.21941373 0.10748418 0.6851874 0.30465266 -0.05575637 0.18702038 0.24092284 0.16000259 -0.25317973 0.26349774 0.692238 -0.1269996 0.2933443 0.15298963 0.2309486 -0.20675366 -0.49730313 -0.65577054 -0.36218357 -1.448937 0.1412554 0.0036048833 -0.1545043 -0.68905634 0.015298853 -0.36260495
consciousness 0.49843922 1.7677929 0.84563154 -0.19167967 0.8006752 0.0475412 -0.8147887 -0.41678324 0.32559296 -0.7750029 -0.036998224 0.07631988 0.018737169 0.4913436 1.0140582 -0.07055096 0.1342587 0.018253379 0.6369727 -0.30859068 -1.3516495 0.016475646 -0.5548413 -0.7984765 -1.1257788 0.05566863 -0.59843284 0.0134496195 -0.059799027 -0.22892939 0.27868664 -1.3431712 -0.14489102 0.77331436 -0.64306426 0.45254079 -0.85106385 0.3960853 -0.3132547 -0.6087648 -0.40345165 -0.32490322 -0.27097479 -0.77401394 -0.39973745 -0.107407294 0.05507006 0.07240372 0.80503327 0.7207639 0.17793703 -1.3396564 -0.39424545 -0.92880124 0.827947 -0.1569474 -0.11042286 0.50574577 0.005052998 0.17763154 -0.39020756 0.3397034 -1.2481313 -0.08824481 0.66501206 -0.4690878 1.245251 0.24352112 -1.4121393 -0.13857959 -0.15435322 0.3521926 -0.11104272 -0.53600323 -0.23581688 -0.88377756 1.0749633 -0.82566744 0.11633201 0.22027302 -0.75450736 0.6347213 1.1091366 0.23824278 0.84074825 -1.0782412 0.18640691 1.4154897 0.19645046 -0.22693843 0.06543325 -1.579084 1.013803 -1.5799278 -0.26060978 1.1142964 0.27739346 -0.8643569 0.90233773 0.1392451
closed 0.27372628 0.8122212 0.43336985 0.07267969 0.3397381 0.048512984 -0.30481404 -0.41301093 0.45747802 -0.1536836 -0.30498296 0.052884206 -0.24709195 0.023717115 0.49982288 -0.056349 -0.07034287 0.31721574 0.24100517 -0.36566886 -0.73834974 -0.12507106 -0.093129635 -0.65018004 -0.25207207 0.20531318 0.016419752 -0.06675951 -0.24623854 0.010249069 0.3886286 -0.6950228 -0.2217914 0.62409043 -0.28504774 0.35915995 -0.27484953 0.23867889 -0.39545068 -0.21702337 -0.054581713 -0.06719825 -0.03935029 -0.43373764 -0.12656355 -0.16286436 -0.17425653 -0.14163032 0.85391545 0.7106406 -0.14560431 -0.7428946 -0.21523283 -0.69682276 0.4603721 -0.13140607 -0.2423479 0.01089983 -0.021840747 -0.13280992 -0.38092035 0.1636633 -0.2655486 -0.08025821 0.5549393 0.003991382 0.57308805 0.0139949545 -0.520498 -0.1953128 -0.10080717 -0.03511675 -0.037970375 -0.16344543 0.11264149 -0.3971115 1.0067724 -0.17771481 -0.24437559 0.07112104 0.052332975 0.20371659 0.20319562 -0.035595052 0.6710667 -0.58391625 0.2391765 0.37390772 -0.18258391 0.15979522 -0.018064551 -0.83197004 0.45245695 -0.6998753 0.11645115 0.37171507 0.2205068 -0.4079382 0.30280444 -0.0905632
degree 0.17246082 1.5616443 0.62926453 -0.0329616 1.0553057 0.104990825 -1.0820312 -0.9433389 -0.3041825 -0.48712444 -0.16454317 -0.8341009 -1.3460289 0.16324402 0.5149503 0.2596061 0.30169606 -0.90002376 0.60942495 -0.10149953 -1.1141019 -0.087136 0.7158899 -0.012883581 -0.6727361 -0.37052566 -0.7302695 0.12202234 -0.12650838 -0.11449291 -0.30001312 -0.9750835 0.25694185 0.2561936 -0.24744922 -0.17453295 0.053835426 0.73218656 -0.4078967 -1.0663524 -0.011664274 -0.050612457 -0.4046148 -0.46379963 0.24619055 0.038382366 -0.29487845 -0.35412687 0.8038788 0.4206841 -0.31181324 -0.6514652 1.0795163 -0.12641945 0.28634414 -1.080908 -0.4891211 -0.5709831 0.47914502 0.8855067 -0.20061779 0.9634942 -0.3246275 -0.39885616 1.1337932 -0.2799268 0.6229665 -0.2599741 -0.56136596 0.18968247 0.31235772 0.57988954 0.40556043 -0.15798679 -0.71592325 -0.614837 0.26694506 0.35937893 0.27689186 0.23667182 -0.23209532 0.037418954 0.764842 -0.3231974 0.38321275 0.0260285 0.24577667 0.5896433 -0.6692386 -0.5730444 0.19277376 -0.328341 0.87981546 -1.0961851 -0.22183533 0.44719562 -0.17418139 -1.2555541 0.47868404 0.13788263
intracranial 0.38510627 1.4552797 0.7332953 -0.21510817 0.5358668 0.056525588 -0.46975666 -0.27021387 0.5513013 -0.6422026 -0.16349484 0.22708124 -0.1067706 0.5015783 0.8325781 -0.14107426 0.07558704 0.49754477 0.55641 -0.53376323 -1.343961 -0.0370761 -0.49065766 -0.893332 -0.76835877 0.2303681 -0.24998914 -0.03615956 -0.2874414 0.045531675 0.7556945 -1.3313322 -0.34285465 0.8948999 -0.6363258 0.5682206 -0.6843719 0.3470653 -0.5695879 -0.45725077 -0.15139484 -0.46123928 -0.049189717 -0.87283444 -0.24518383 -0.16198377 -0.11654416 -0.24920394 1.3300931 0.8200074 0.3392755 -1.3613863 -0.58834517 -1.282581 0.9411066 -0.21654673 -0.27577692 0.6920642 -0.00690669 -0.16517848 -0.5977842 0.38196218 -0.88799244 -0.0107285855 0.76154417 -0.24708414 0.9065546 0.15954594 -1.4891782 -0.11214577 -0.16886485 -0.09412044 -0.16103654 -0.36648223 0.15935735 -0.8233534 1.1972252 -0.9628432 -0.26378763 0.19961335 -0.4004768 0.6290825 0.7568658 0.20827107 0.85923964 -1.1885605 0.46186516 1.2357907 0.11561589 0.14865147 0.29508156 -1.7887286 1.0970443 -1.2350177 0.013117551 1.0785456 0.27335984 -0.4647264 0.7483005 0.041144576
hemorrhage 0.14391087 0.9531078 0.2924567 -0.063146226 0.2868648 0.026032241 -0.26413032 -0.06997457 0.25018886 -0.5333489 -0.06681163 0.028738001 -0.008216749 0.4937624 0.56056607 -0.051492944 0.09761747 0.18009132 0.44245195 -0.35432157 -0.7636976 -0.0063919686 -0.24639629 -0.4435038 -0.6283391 0.09928307 -0.22825764 9.5579446e-05 -0.18594086 0.037837107 0.29787493 -1.002869 -0.24729586 0.42873973 -0.49044207 0.39828566 -0.43943524 0.23301405 -0.3246702 -0.28651166 -0.25422236 -0.46419734 0.0014989378 -0.6648274 -0.12300044 -0.010661179 -0.0010966707 -0.2360855 0.86229086 0.33524472 0.3097592 -0.8752183 -0.3218754 -0.8422525 0.6529145 -0.23365527 -0.29395854 0.5216331 0.13653216 0.035511065 -0.36274397 0.31864423 -0.7606214 0.08660561 0.6446168 -0.076872505 0.51788604 0.13626032 -1.1548245 0.085443445 -0.10253103 -0.12726922 -0.17975502 -0.2994885 0.40193027 -0.66844964 0.49688783 -0.8337352 -0.07856878 0.19305158 -0.41265053 0.5385403 0.56193125 0.30336922 0.3746958 -0.7253818 0.49960807 0.9730668 0.07206093 0.04828318 0.21003751 -1.3346186 0.70761406 -0.9184666 -0.049480297 0.8565405 0.0035510247 -0.36317357 0.40833324 0.15910037
delivered -0.33943233 0.38920566 -0.45472088 0.18698302 -0.020410586 0.13454588 0.0024685273 0.103287935 -0.008507565 -0.91470325 -0.063651 -0.6939539 0.053527843 0.8235862 0.41667047 0.047551617 0.16992474 -0.44292152 0.52540666 -0.3445847 -0.22736989 0.26806107 0.23242934 0.2310554 -0.6250714 -0.018928932 -0.3442191 0.29834923 0.19182552 0.013921565 -0.66984326 -1.1303326 0.021378174 -0.42393675 -0.4307724 0.23731475 -0.24047059 0.13154304 0.014102428 -0.2451045 -0.5873863 -0.669017 0.10306666 -0.7501279 0.26526424 0.40457603 0.087886564 -0.14781453 0.65027267 -0.36662495 0.17746727 -0.3909012 0.3474159 -0.6490348 0.7772355 -0.68912774 -0.30392677 0.4576311 0.70169526 0.37637484 0.013321156 0.5052318 -1.3367382 0.21772312 1.065257 0.31763574 -0.07644461 0.02440977 -1.5263859 0.37262735 -0.042162597 -0.32775402 -0.124272734 -0.32688674 1.2145537 -0.93393904 -0.9407711 -0.98598784 0.4212348 0.49420094 -0.30867854 0.6142679 0.43728584 0.65476793 -0.43011 -0.30038363 1.1008999 0.87031126 -0.03894425 -0.21878666 0.29541373 -1.4479983 0.51450455 -1.1390117 -0.025738856 0.750322 -0.6181214 -0.3803886 -0.05114115 0.098277375
acute 0.02934577 0.42639866 -0.11332502 0.26759282 0.0699755 0.11567223 -0.21011454 -0.30676776 0.12752289 -0.22070648 -0.24769573 -0.18916784 -0.06691976 0.019928746 0.40943256 0.033500306 0.023840401 -0.13943174 0.18613133 -0.18894038 -0.014858328 -0.12136374 0.033371776 -0.19644476 -0.32626048 -0.010902555 -0.052244246 0.019746566 -0.10677562 -0.19206558 -0.31603542 -0.6255579 -0.073784456 0.040028173 -0.2437309 0.44897795 -0.21418864 0.19133732 -0.061271336 -0.056017514 -0.3607749 -0.106048316 0.0045770635 -0.3570461 0.027944392 0.105790414 0.055008348 -0.13069147 0.23297398 0.14589325 -0.21652783 -0.33632913 0.080700345 -0.22743647 0.17503433 -0.16261934 -0.25368166 -0.11379781 0.3587047 0.25895268 0.114775084 0.025488857 -0.43597227 -0.03972372 0.6284914 0.123317085 0.26517922 -0.00944184 -0.5031946 0.17133588 -0.07817533 0.019790808 -0.030480659 -0.114075474 0.44174063 -0.38354588 0.08658618 -0.16170973 0.058944043 0.16487344 -0.22868752 0.28594872 0.25565398 0.2214245 0.12714827 -0.18035308 0.39032072 0.31379783 -0.15912187 0.008690549 -0.0671122 -0.6712674 0.17294721 -0.7023479 -0.000113427006 0.2970992 -0.1239186 -0.5159272 -0.07172794 0.043958012
disorder 0.01244203 0.4840937 -0.33462387 0.35556749 -0.04582628 0.2401424 -0.18111877 -0.37893087 0.1306191 -0.19456284 -0.25713375 -0.24201192 0.004989831 -0.04975748 0.5231637 -0.03890313 -0.0814301 -0.18924545 0.13276511 -0.13994537 0.16904962 -0.26140857 0.16054766 -0.221322 -0.34395692 0.07472107 -0.10421923 0.00554445 -0.14902134 -0.17016378 -0.38150474 -0.68339676 -0.1583175 -0.06990329 -0.24414025 0.47695708 -0.15490602 0.08067517 -0.053087376 -0.11424547 -0.39744198 -0.110478625 -0.013799562 -0.28879026 -0.036587633 0.09271947 -0.013027103 -0.1850168 0.07806886 0.08689802 -0.20572463 -0.30020508 0.0230895 -0.19375336 0.12850083 -0.079362445 -0.30697677 -0.24179094 0.37104678 0.23171893 0.08179739 0.059907667 -0.5147195 0.0076945713 0.7065058 0.2821365 0.3500089 0.060477834 -0.40513748 0.24126518 -0.06472522 -0.023058312 -0.11932743 -0.117543265 0.48310086 -0.3087815 0.16776796 -0.06508232 0.04058685 0.21753076 -0.18548043 0.3288143 0.35119516 0.25893736 0.102912806 -0.035955086 0.48655775 0.25454777 -0.13280143 0.017822713 -0.11409304 -0.6211275 0.20867415 -0.6471505 -0.058420077 0.2549203 -0.29634425 -0.59949225 -0.061105322 0.020075059
poisoning 0.177625 0.38973936 -0.43365484 0.5903396 0.020057522 0.31469738 -0.27645054 -0.8208193 0.24052536 -0.022886556 -0.5571587 -0.27147305 0.028407667 -0.39156765 0.6580468 0.038990352 -0.15744881 -0.2869214 0.050934922 -0.12873508 0.43704337 -0.43579626 0.05112527 -0.39361832 -0.2626672 0.044478938 0.051884536 -0.062570915 -0.26738465 -0.39795277 -0.7058635 -0.5336092 -0.102142416 -0.0028046856 -0.25593984 0.7803647 -0.2661969 0.14878526 0.106191404 0.10611249 -0.5400532 0.11083198 -0.10463245 -0.29372236 -0.07917818 0.15306114 -0.016598629 0.021631919 -0.22050838 0.24980141 -0.6671546 -0.2809146 0.15644287 -0.028627675 -0.1409346 -0.021741925 -0.28825256 -0.6795376 0.45764536 0.28300527 0.3698605 -0.29032457 -0.4588046 -0.17161772 0.7662917 0.31634706 0.4514007 -0.02645774 -0.23192464 0.17556915 -0.22072382 0.18476082 0.044296965 -0.10898336 0.45167086 -0.2601163 0.28777704 0.26590878 0.09057781 0.18840754 -0.11323167 0.30586338 0.17329063 0.18151796 0.23658442 0.008664805 0.4315197 -0.00837154 -0.27179074 0.08831554 -0.26932275 -0.47746223 0.00022996633 -0.83113384 0.01311515 0.0577368 -0.22834961 -0.82932186 -0.23729673 -0.044816855
accident 0.29569405 0.42577162 -0.58604485 1.2125461 -0.48572314 0.30237672 -0.6103436 -1.2705501 0.38866875 0.26230136 -0.5378384 -0.36952588 0.12822752 -1.2913213 1.49595 0.30730006 -0.39108008 -0.25502425 0.2848543 -0.67385304 0.72267276 -0.76183355 0.470418 -0.61401314 0.06658997 -0.23990722 -0.24366972 0.29033387 -0.13075496 -0.7463206 -0.27143905 -1.186417 -0.25072518 0.10445027 -0.17381865 1.212978 -0.5781111 0.11725946 0.038074512 -0.6219675 0.082456686 0.38844427 0.4380632 0.19933088 0.26107016 0.1951376 -0.5044962 -0.5495072 -0.4703079 0.82232875 -1.2574139 -0.7152799 -0.41596833 -0.32322508 0.059399158 -0.0100773815 -0.6025781 0.13974972 1.1780881 -0.20583947 1.1742684 -0.76517814 0.13491058 -0.5063616 1.4708958 0.4700643 0.10593029 0.43450838 0.3263981 -0.03277706 -0.068372786 0.058837615 0.47496358 -0.007645738 0.049435284 -0.6099784 1.3034337 1.1357319 -0.33923227 -0.25240287 -0.1667653 0.26437157 0.59315354 -0.3491175 -0.19201252 -0.37058976 -0.025567435 0.01806339 -0.17884006 0.3133626 0.017492618 -0.754134 0.2216681 -1.2185717 0.18924582 -0.37548482 0.38962632 -1.2052236 0.45658928 -0.7210483
sites 0.07051594 0.6077157 0.1294324 0.30197546 0.5000942 0.114142396 -0.36921862 -0.69998366 0.21517886 -0.13828723 -0.46017334 -0.28861287 -0.7363988 -0.032822363 0.46475345 0.026324641 -0.004888271 -0.16201478 0.19601333 -0.12952967 -0.3020111 -0.1420338 0.33882895 -0.31078872 -0.32026607 -0.06871745 0.050851826 0.011327202 -0.1747779 -0.18735833 -0.28610915 -0.6456221 -0.080632254 0.16974378 -0.10671339 0.349991 0.026025591 0.23169605 -0.23849511 -0.25051218 -0.4002193 0.05073629 -0.083606556 -0.3129226 0.048491687 -0.016509404 -0.10798468 -0.06276883 0.56519467 0.44861636 -0.44685778 -0.3832897 0.35272032 -0.19440298 0.12702005 -0.32991105 -0.25015482 -0.6409987 0.19654505 0.33052835 -0.029483484 0.17880593 -0.19333105 -0.187955 0.7241232 -0.02028764 0.7169429 -0.12244142 -0.31413084 -0.0670561 -0.030660754 0.1877525 0.032213833 -0.07991087 0.2558444 -0.3013031 0.511034 0.22961287 -0.032027993 0.10293319 0.023066817 0.18041256 0.058795217 0.07083178 0.3719542 -0.052828908 0.5181858 -0.020892356 -0.5966147 0.03974166 -0.23458707 -0.39134198 0.27215245 -0.6578022 0.12272684 0.12448301 -0.03980148 -0.7556939 -0.22312452 -0.18884146
disease 0.046121694 0.22739725 -0.2404366 0.22814886 0.07098044 0.25083354 -0.19652396 -0.34193927 0.2533874 -0.1280308 -0.4031199 -0.1671865 -0.12569389 -0.14900304 0.4676725 0.068300836 -0.043595344 -0.17574333 0.13108118 -0.16110124 0.21455365 -0.34571815 0.086087435 -0.2003934 -0.21553898 0.08018905 0.08225754 -0.059009887 -0.110072844 -0.26596943 -0.51884305 -0.516707 -0.046958428 0.05288914 -0.10554893 0.57020056 -0.08812636 0.15454155 -0.026442999 0.13066798 -0.44630453 0.007962678 -0.028735507 -0.36968607 0.051360834 0.06898771 0.08804741 0.030069431 0.08952239 0.1854571 -0.31662315 -0.31717694 0.17946753 -0.118361734 0.07250096 -0.14191759 -0.22810249 -0.41919065 0.37601718 0.26637095 0.15340467 -0.19636737 -0.3096444 -0.105035126 0.61474574 0.17029431 0.3663416 0.04156027 -0.35926005 0.12018598 -0.067285135 0.14796712 0.027473724 -0.046977267 0.64923024 -0.35631305 0.15067582 0.10247978 0.13688777 0.062067322 -0.11915681 0.354179 0.17205153 0.27452317 0.11714138 -0.06632604 0.4430801 0.032417137 -0.21130553 0.034673717 -0.21696474 -0.525658 0.09228495 -0.5429687 0.07218211 0.22466643 -0.058905836 -0.6180762 -0.16630225 -0.022267161
injuring 0.27227256 0.36030665 -0.6172255 1.3389491 -0.57670784 0.24209024 -0.6277174 -1.3378406 0.37909433 0.3308668 -0.54280657 -0.3428504 0.21420892 -1.3646066 1.5458235 0.28526852 -0.367863 -0.29751006 0.33365253 -0.71121776 0.82208383 -0.7540623 0.4681168 -0.64610416 0.09111408 -0.31262988 -0.29891405 0.33234334 -0.06765694 -0.7900085 -0.3328432 -1.2070409 -0.24006245 0.03951307 -0.17042936 1.259101 -0.5880844 0.13516776 0.07807372 -0.63876235 0.07434126 0.5233358 0.47055027 0.2575179 0.20341551 0.20759031 -0.44338235 -0.5340781 -0.62259805 0.8181293 -1.4016976 -0.67283404 -0.44892198 -0.24165116 0.049715403 -0.0056995545 -0.5384399 0.1384517 1.2786258 -0.2008586 1.2987485 -0.8204124 0.08606628 -0.5021439 1.485353 0.50319093 0.08693363 0.48292735 0.4535527 -0.029338513 -0.10267848 0.052595474 0.56539774 -0.0022248805 0.011445503 -0.6162389 1.3578178 1.2824268 -0.33216912 -0.28544724 -0.2026668 0.25792608 0.62576246 -0.4128662 -0.21777137 -0.38531977 -0.07560825 0.0014822275 -0.16771889 0.29079205 -0.07033836 -0.7547675 0.07710795 -1.3394557 0.15634584 -0.44732523 0.47911656 -1.2980412 0.48300913 -0.80681777
chronic 0.05290149 0.46118122 -0.08004106 0.2731983 0.0476817 0.1281452 -0.23111852 -0.32009244 0.15165274 -0.24848557 -0.30403697 -0.17548542 -0.080438875 0.016383119 0.40374926 0.05315348 0.055019 -0.1322663 0.19151913 -0.2182471 -0.04808048 -0.1142671 0.0031702467 -0.18422727 -0.34003323 -0.005695998 -0.051492825 0.027832398 -0.09485716 -0.2325854 -0.32714272 -0.6284255 -0.06814956 0.039528415 -0.26830176 0.46200034 -0.1977979 0.21538472 -0.0674163 -0.011775555 -0.36855695 -0.086767584 0.01241716 -0.39171258 0.030555867 0.101768315 0.09867632 -0.090674356 0.26507816 0.14754748 -0.24825689 -0.35343623 0.12063362 -0.23492973 0.20208433 -0.20686013 -0.26891539 -0.11053633 0.4021533 0.2706182 0.14174798 0.019838732 -0.4871143 -0.033832412 0.66752094 0.1121792 0.3094756 -0.027752263 -0.5298012 0.16206636 -0.086955465 0.038500678 -0.011504004 -0.10935751 0.45900175 -0.41901222 0.09963469 -0.13072191 0.07407196 0.17553966 -0.2361269 0.29016092 0.24432938 0.265649 0.14187908 -0.1985838 0.40318704 0.32702273 -0.17820746 -0.010556217 -0.08976595 -0.730401 0.12482541 -0.76250035 0.012330025 0.33103067 -0.11119999 -0.57311606 -0.08172738 0.05203802
episode -0.50341433 0.5728146 -1.1554855 0.6132817 -0.63571584 0.42975113 -0.07510525 -0.13623334 -0.15683135 -0.26124153 0.19489919 -0.47697103 0.48935875 0.33658245 0.7676763 -0.43862435 -0.31200626 -0.54327667 0.24455898 -0.076294325 0.6010587 -0.56994593 0.5009897 -0.07737634 -0.61402893 0.14721014 -0.4421618 -0.017577501 -0.040530406 0.24076615 -0.31056604 -1.1662574 -0.3674448 -0.68415934 -0.5710057 0.33518296 0.13008328 -0.32011274 -0.26606286 -0.45607403 -0.37567854 -0.50610375 0.120776325 -0.15792277 -0.15393592 0.014670559 0.057867214 -0.7011819 -0.14783667 -0.54735076 0.30402136 -0.14049909 -0.28545195 -0.4360382 0.29475293 0.1388469 -0.82251453 -0.25427303 0.7269082 0.42462596 -0.16007425 0.36892024 -0.87136686 0.3699267 0.9944356 0.803868 0.35054383 0.36695537 -0.27795357 0.81018424 0.08894919 -0.3698196 -0.5538028 -0.31938818 1.0802115 -0.19524841 0.0703791 -0.38378328 0.007216239 0.5024131 -0.3546741 0.77590144 0.9638169 0.8062363 -0.06510549 0.34924695 0.84295744 0.41301486 0.016076477 -0.14228088 -0.025731556 -1.0388079 0.3655916 -0.42702124 -0.405403 0.52866536 -1.0110576 -0.77035075 0.16061327 0.16232046
examination 0.66250855 0.028075388 -0.58129627 1.4676641 -0.07345546 0.51590544 -0.08232708 -1.3641566 0.6570552 -0.17470872 -0.8773892 -0.032679994 0.56627655 -0.4190016 0.6986373 -0.23524004 -0.21839249 -0.3525386 0.20574275 0.0024027654 0.48849368 -0.779703 -0.851304 -0.9077817 -0.14692135 0.36585763 -0.038223818 -0.0583953 -0.22224307 -0.27208382 -0.9024685 -0.16983615 -0.02796298 -0.7018722 -1.1686835 0.5653567 -0.02231313 -0.053045236 -0.055574693 0.7103347 -0.43733844 0.5324289 -0.9066268 0.32324216 -0.77929074 0.4074793 0.4760569 0.14814621 -0.18415107 -0.2585101 -1.6344795 0.2459298 0.102900155 -0.13736548 0.2102231 -0.27153733 -0.22565655 -1.3850461 0.35893607 0.7107326 0.41606766 -0.3287071 -1.8847717 -0.30069858 0.49685147 0.14833684 -0.20376739 -0.61875814 0.5102575 -0.12588136 -0.91119707 -0.0016813498 0.2601829 -0.40728155 0.38137048 0.11817895 0.69358236 0.35374737 -0.107726954 0.29488948 0.32401374 0.035185356 -0.3714903 0.099692404 0.77001035 -0.08977478 0.2263524 0.45334172 0.541332 -0.23164746 -0.49404708 -0.9063661 -0.26386592 -1.7726833 0.0070355083 -0.0953354 -0.21955533 -0.8043672 -0.036235 -0.3522664
skull 0.3775208 1.3064088 0.6419101 -0.039618246 0.41360447 0.034910023 -0.40702638 -0.45115316 0.689553 -0.37550583 -0.35407773 0.20965177 -0.2730989 0.23356065 0.8088806 -0.0946714 -0.05635848 0.5893128 0.4474373 -0.6174119 -1.2301239 -0.21841978 -0.29207575 -1.01383 -0.47765023 0.31125668 -0.05057346 -0.10605674 -0.39787298 0.11572428 0.8603183 -1.2321646 -0.41647914 1.0143307 -0.584118 0.6130483 -0.509272 0.31895542 -0.69107586 -0.38497153 0.03895499 -0.3439155 0.036217693 -0.78633076 -0.12399621 -0.2126937 -0.28521037 -0.36209112 1.3842742 1.0292044 0.08435907 -1.3441951 -0.55567455 -1.3114212 0.9212666 -0.22533804 -0.44997314 0.48447558 0.0058689187 -0.35503006 -0.6103613 0.26041847 -0.49914843 -0.056506433 0.89308137 -0.013136108 0.77547264 0.15527076 -1.1161047 -0.17951313 -0.13990124 -0.23081921 -0.09006605 -0.28667003 0.2281031 -0.7152103 1.5341028 -0.6544075 -0.4156735 0.12732774 -0.090719335 0.4856562 0.48345676 0.05433556 0.9218209 -1.1257062 0.46606278 0.9068949 -0.07515237 0.30453256 0.2615478 -1.6062987 0.97995865 -1.0305687 0.14597467 0.8232923 0.36081216 -0.46253738 0.6809267 -0.05739197
care -0.55141693 0.50403255 -1.2363415 0.6711014 -0.64700586 0.42177948 0.0027635512 -0.053803004 -0.16817401 -0.32540566 0.2280723 -0.4451511 0.51999307 0.3152588 0.712503 -0.4456126 -0.32329157 -0.5333311 0.27899298 -0.039570943 0.6373279 -0.5687087 0.5038628 -0.14376123 -0.5617736 0.16829965 -0.48166442 0.018105604 -0.015945807 0.1693364 -0.3425709 -1.1859313 -0.3178084 -0.6568316 -0.5546656 0.2213162 0.26197332 -0.30241236 -0.29008543 -0.35622892 -0.33848718 -0.4039674 0.0059105847 -0.099257916 -0.093755946 0.0589509 0.10188867 -0.7234923 -0.23849691 -0.54660386 0.31051213 -0.09295666 -0.3004933 -0.3664485 0.2339132 0.10886716 -0.80465835 -0.22220276 0.7113128 0.43381375 -0.07751046 0.38296136 -0.90486425 0.400678 0.9127372 0.8422948 0.34553182 0.3583212 -0.3513142 0.8382875 -0.040419333 -0.45079064 -0.55623174 -0.2556579 1.0899484 -0.15554915 0.0877783 -0.29704535 -0.020924238 0.5573956 -0.21873878 0.7920889 0.908776 0.8813005 -0.08934476 0.3963137 0.8796335 0.42553335 0.044391446 -0.13202453 -0.054877948 -0.9347274 0.37689814 -0.49766997 -0.38067704 0.49102363 -1.0057482 -0.6956511 0.071831904 0.067505755
site 0.03407323 0.5988095 -0.057741642 0.29709196 0.23044726 0.15874298 -0.22257645 -0.47442442 0.12342257 -0.12601134 -0.3613733 -0.19736046 -0.3632054 -0.040977523 0.39100063 -0.02120971 0.012330989 0.0014390321 0.031422626 -0.062115856 -0.12028761 -0.08016065 0.23849355 -0.30925292 -0.22322762 -0.0061077275 0.06331367 0.0020774708 -0.2421047 -0.18604797 -0.26617825 -0.6591325 -0.22524115 0.06149814 -0.111246005 0.41739815 -0.05752196 0.13190438 -0.18126118 -0.17664635 -0.38318992 -0.07083897 -0.015287629 -0.23883352 0.01133046 0.005879947 -0.061634164 -0.14990903 0.39071652 0.2708513 -0.2405437 -0.3086196 0.11007079 -0.251844 0.111659266 -0.1417834 -0.27570778 -0.38525605 0.22918074 0.22395535 -0.049800433 0.10624512 -0.24288408 -0.07927094 0.65792066 0.07702832 0.5709354 -0.06394076 -0.47269648 0.11697811 -0.12011521 0.08796475 -0.1596158 -0.09063436 0.3228286 -0.19905427 0.29412436 0.05289368 -0.09785279 0.21934277 -0.13791369 0.23220573 0.051518664 0.18314853 0.24565531 -0.047842164 0.5200746 0.12515622 -0.39384088 0.07852944 -0.10627046 -0.5087957 0.27834937 -0.54983443 0.07160149 0.16224329 -0.17449021 -0.5572927 -0.25985292 -8.9561596e-05
body 0.1438626 1.1356534 0.40362275 0.052182503 0.75672185 0.14104545 -0.8459138 -0.7700324 -0.20250188 -0.41462955 -0.20743239 -0.66768414 -1.0097929 0.092859715 0.43822035 0.19304228 0.21043783 -0.68538994 0.47872093 -0.13527338 -0.7952862 -0.051397126 0.5395693 -0.05471319 -0.5330643 -0.29610896 -0.5170808 0.11264105 -0.14606486 -0.11769429 -0.29759547 -0.81534463 0.1641846 0.16273151 -0.23758662 -0.017604565 0.024320314 0.59545654 -0.25519088 -0.77449524 -0.048484895 -0.019799266 -0.27996877 -0.36513186 0.19078897 0.061876867 -0.21515693 -0.27828452 0.63755745 0.32629454 -0.35300583 -0.52088624 0.81709284 -0.13436219 0.26230043 -0.85653603 -0.4083036 -0.4146887 0.45253518 0.6264843 -0.10414517 0.6745131 -0.386304 -0.29584202 1.0017062 -0.12808953 0.42165437 -0.21360876 -0.53167087 0.1593341 0.19885044 0.40153524 0.30158007 -0.15878077 -0.4237046 -0.54032105 0.18665761 0.27493408 0.18881011 0.21873063 -0.15413241 0.038166735 0.580561 -0.19850059 0.28581947 -0.02834026 0.24224693 0.49477473 -0.5256674 -0.37984157 0.11613448 -0.37766555 0.63030803 -1.006521 -0.12270519 0.37418872 -0.17436647 -1.0403799 0.30351996 0.07994421
found 0.97723675 0.6042891 -0.80570185 1.8573029 -0.3835281 0.5108305 -0.4801075 -1.6408968 0.624728 -0.5286409 -1.7796704 0.37106478 0.17168596 -0.005125097 1.1122957 0.16017051 -0.63789386 -0.6659679 0.020990683 -0.74197906 -0.1689667 -0.5628256 -0.6510106 -0.6631226 -1.2923262 0.50440425 -0.2793655 -0.124890275 -0.13969819 -0.5914749 -0.7579821 -0.45998842 0.42328385 0.07414974 -2.009878 0.47231707 -0.048228662 0.39264128 0.29035568 0.8568204 -0.42032233 0.92277265 -0.7047968 -0.44867817 -0.68802303 0.37362358 0.42246914 0.4664097 -0.49654102 0.09373953 -1.8092424 0.05971446 0.169138 0.3118348 0.621836 -0.6006107 -0.8523903 -1.6192843 0.3530975 0.21776761 1.2219267 -0.009366157 -2.2278218 -0.1604466 1.1314262 0.60578775 0.18190432 -1.1780374 0.5519271 -0.5408658 -0.71162987 0.02038799 0.10815703 -0.659992 0.22752008 -0.02480691 1.1183459 0.469102 0.027029665 0.33776382 0.22185041 0.5039559 -0.20843665 0.7782216 1.0541625 -0.3919212 0.7061535 -0.08827648 -0.03876533 -0.4119577 -0.78449327 -0.9916108 -0.8037274 -2.4382725 0.5727115 0.3217668 -0.26963252 -1.2684209 0.15060477 -0.70829976
disorders 0.07101544 0.36136422 -0.27991495 0.43782926 0.016153824 0.2117236 -0.20174849 -0.49559554 0.16751502 -0.20113097 -0.37683007 -0.2696656 -0.078646384 -0.052448716 0.4482797 -0.0021810972 -0.067515396 -0.23483442 0.12001666 -0.15599471 0.13835537 -0.16753285 0.10106845 -0.19895388 -0.3149929 0.053465206 -0.067813136 0.051146626 -0.10838026 -0.22541386 -0.4937685 -0.55941683 -0.076129034 -0.10556044 -0.24893782 0.44714233 -0.14822042 0.11793716 -0.0062164282 -0.016633414 -0.4068262 -0.018231101 -0.06354916 -0.29260975 -0.026287168 0.14509064 0.017522993 -0.055049207 0.10345152 0.08941422 -0.4270547 -0.2114062 0.17464976 -0.13474785 0.11861524 -0.18717876 -0.24986172 -0.36514613 0.34792137 0.24468553 0.18641168 0.005804081 -0.5582558 -0.038442243 0.6751648 0.23301394 0.28668588 -0.07671571 -0.34126025 0.14138617 -0.12666959 0.0049410616 -0.025353901 -0.11309999 0.4323602 -0.29962197 0.10233532 0.004841278 0.06634707 0.2151662 -0.08436083 0.23174435 0.16231014 0.22830436 0.11634711 -0.052764606 0.46689525 0.1697149 -0.1733611 -0.023163026 -0.16205214 -0.54707366 0.06952986 -0.7540027 0.020042911 0.16937634 -0.24547043 -0.59077746 -0.16509083 -0.07463898
multiple -0.012165609 0.531934 0.17374143 0.13121702 0.50856024 0.08600854 -0.31468642 -0.5022186 0.17477867 -0.13761653 -0.3729326 -0.2809692 -0.6973406 -0.0069704107 0.4269164 -0.045478214 -0.013800095 -0.085657895 0.1423612 -0.13623434 -0.38454142 -0.13449743 0.29688826 -0.25931013 -0.23896694 -0.046881285 0.042544324 -0.0053755436 -0.14468719 -0.06591534 -0.21423604 -0.6074367 -0.11427452 0.20333213 -0.07903288 0.2646632 0.10321198 0.18298678 -0.27704743 -0.29769504 -0.3515868 0.05001932 -0.110242516 -0.28923455 0.084305264 -0.060347382 -0.12729551 -0.07404617 0.65606403 0.43976173 -0.28570724 -0.36610076 0.3276421 -0.2618968 0.20706242 -0.33553162 -0.21840817 -0.54522353 0.11141082 0.28291824 -0.13404585 0.2477837 -0.14957409 -0.17439638 0.5926188 -0.093486086 0.6325856 -0.102688715 -0.37770352 -0.03726827 0.012233853 0.17354727 -0.0047134534 -0.054183643 0.23730387 -0.2622536 0.47351873 0.16958925 -0.07460833 0.08662422 0.10021231 0.19967832 0.057528056 0.060843766 0.37026963 -0.068226725 0.47267747 0.013994225 -0.57563865 -0.012066328 -0.16890767 -0.36498967 0.29447109 -0.5754087 0.17251453 0.1220296 0.008604735 -0.65183634 -0.1618886 -0.15874751
infection 0.040875133 0.3917613 -0.14590472 0.33558056 0.108857445 0.14848046 -0.12091117 -0.34111944 0.12030364 -0.24269417 -0.36956906 -0.18626393 -0.1137312 0.07228842 0.3292069 -0.02093476 0.007845803 -0.06258585 0.06980089 -0.07497518 -0.07038492 0.005460466 0.047520634 -0.21879147 -0.27581617 0.040728636 0.022115078 0.043461926 -0.12676853 -0.17396921 -0.34218788 -0.4921432 -0.10712745 -0.057152424 -0.24333325 0.3534974 -0.12055679 0.098357625 -0.06603725 -0.013118424 -0.3909798 -0.063709565 -0.06752524 -0.2586375 -0.037921928 0.120471865 0.033621352 -0.03450608 0.29405543 0.09424257 -0.27802342 -0.18424743 0.093272574 -0.22699413 0.19948235 -0.18058474 -0.2039606 -0.24871743 0.2235072 0.20843215 0.069944456 0.089774795 -0.5411438 -0.03495288 0.57058185 0.09698146 0.30301097 -0.15369312 -0.49400428 0.06008774 -0.19007392 0.0045151217 -0.118204735 -0.1501764 0.39090985 -0.2135393 0.046006396 -0.11206463 0.02035735 0.2486626 -0.117268264 0.22884354 0.008434798 0.25458676 0.16023628 -0.112905726 0.5112024 0.19758022 -0.2070013 0.0015925436 -0.078549184 -0.57244194 0.15170951 -0.6755617 0.08753359 0.21284762 -0.1970373 -0.40721643 -0.2133825 -0.028476939
vehicle 0.3027473 0.51661944 -0.6095108 1.396445 -0.5644711 0.29941 -0.6837149 -1.3708731 0.38772136 0.27790678 -0.5337678 -0.4283484 0.11672679 -1.4114817 1.6852043 0.33586803 -0.43510976 -0.21142393 0.35485852 -0.7815474 0.6341402 -0.73582155 0.5882995 -0.70628434 0.0497693 -0.319355 -0.35113084 0.37267894 -0.06511126 -0.78388923 -0.19129613 -1.4085463 -0.29195976 0.0852873 -0.21695338 1.2632003 -0.63010055 0.102814876 -0.02168946 -0.8315165 0.17882341 0.4052297 0.51567173 0.30533314 0.33293772 0.15416163 -0.5461297 -0.7011391 -0.3881204 0.93612474 -1.4421511 -0.8373204 -0.50119245 -0.4332255 0.17791624 -0.082516864 -0.7227029 0.27112755 1.3353301 -0.23671709 1.3351934 -0.75717735 0.14962214 -0.54888594 1.6882535 0.46607414 0.11778726 0.47328666 0.38113225 -0.09380316 -0.12945876 -0.016517425 0.52275044 -0.0661783 -0.032546043 -0.700413 1.4869453 1.2564205 -0.39812097 -0.2765606 -0.16529158 0.24298808 0.71788305 -0.40666494 -0.25381702 -0.5052 -0.052490596 0.12117151 -0.20302932 0.27780434 0.07779012 -0.9057223 0.26752284 -1.3847269 0.2659291 -0.42289805 0.46261862 -1.3364675 0.5747266 -0.8698823
postpartum -0.34918094 0.29607165 -0.541853 0.27425706 -0.1433853 0.17681147 0.002736772 0.091155514 0.038415894 -0.8464944 -0.067337245 -0.74238324 0.07265385 0.75376797 0.46586123 0.005979694 0.13391303 -0.43158603 0.4766742 -0.35068327 -0.11014512 0.19373943 0.2906213 0.22733554 -0.59118587 -0.031599667 -0.35047057 0.31000975 0.1841271 0.06619183 -0.731397 -1.1239738 -0.06557485 -0.5263189 -0.41342068 0.28473178 -0.16175885 0.08610727 0.00824719 -0.23230425 -0.60507846 -0.62002456 0.12818213 -0.6691548 0.25347897 0.44883925 0.08287203 -0.19869861 0.5294785 -0.40517196 0.098772235 -0.32161182 0.36451063 -0.6341437 0.7234587 -0.66940373 -0.3648251 0.36041224 0.73027253 0.4205026 0.030629 0.4803489 -1.3231468 0.19196299 1.1100242 0.42262572 -0.02641024 0.0085059535 -1.3748025 0.37249878 -0.05837489 -0.3661579 -0.13716353 -0.279456 1.2703717 -0.90228933 -0.86668557 -0.909134 0.39434153 0.5139322 -0.22818848 0.562797 0.40301502 0.62678427 -0.44822398 -0.22395597 1.1242678 0.8038861 -0.0065951436 -0.18000913 0.23995677 -1.3806375 0.455574 -1.0939423 -0.05198073 0.7001381 -0.64301926 -0.427818 -0.12575829 0.09119513
applicable -0.45718116 0.54531765 -1.1395617 0.6266655 -0.61614275 0.43477425 -0.053459022 -0.22296603 -0.09279254 -0.22207597 0.12701213 -0.41150162 0.45054427 0.29863158 0.764099 -0.38750488 -0.29747802 -0.5590374 0.19859603 -0.08409007 0.5794818 -0.6075909 0.51711863 -0.062161077 -0.5938497 0.17527437 -0.4603686 0.027033972 -0.002079004 0.23008716 -0.30628088 -1.0838755 -0.34763837 -0.6795543 -0.58887374 0.3410494 0.17324269 -0.32736275 -0.20695873 -0.44704765 -0.3592625 -0.43517503 0.10663795 -0.14903057 -0.15714206 -0.009783524 0.043467905 -0.6798707 -0.18606481 -0.52827597 0.22214213 -0.10599309 -0.24999794 -0.4028269 0.22929655 0.12645626 -0.8406574 -0.35687032 0.7348217 0.4399129 -0.14786819 0.38941005 -0.8343062 0.328894 0.99412227 0.8019431 0.34718758 0.35039118 -0.1568083 0.7226387 0.073861025 -0.36218175 -0.53587556 -0.30914298 0.9997174 -0.18289757 0.19949882 -0.25723734 -0.015819337 0.4880729 -0.2879975 0.70950633 0.9413975 0.7956356 -0.08789306 0.37196445 0.83842844 0.380823 0.014274994 -0.115735985 -0.051173262 -0.9637342 0.3144588 -0.43664515 -0.4209433 0.47507375 -0.9891883 -0.76638114 0.20260264 0.12346192
pregnancy -0.32128724 0.29728547 -0.6499444 0.24175887 -0.19525948 0.2560963 0.0022240856 0.00959838 -0.014481824 -0.6639983 0.0182453 -0.60807115 0.20287305 0.5371061 0.48297653 -0.033072907 0.0063072196 -0.50117797 0.37752372 -0.23348056 0.11450094 0.02311085 0.3120846 0.18905835 -0.52240133 0.038057536 -0.3644071 0.23177326 0.14261356 0.06828068 -0.6865974 -0.95723695 -0.033206645 -0.55039144 -0.32422164 0.2104599 -0.113636084 -0.015611351 0.040741805 -0.23725434 -0.52788866 -0.5271038 0.09350385 -0.48971027 0.16979909 0.3390153 0.056755513 -0.18675362 0.18779363 -0.3972687 0.10317193 -0.27658778 0.21976674 -0.4095821 0.5266433 -0.42775482 -0.36658776 0.15296845 0.64853716 0.36278608 0.077187814 0.31823266 -1.1107477 0.2289458 0.9446139 0.47925776 0.07310175 0.10866492 -0.9321004 0.41893002 0.0151124215 -0.2601039 -0.17132907 -0.26836506 1.0973529 -0.6997999 -0.61984706 -0.6314462 0.37618157 0.41311592 -0.21765023 0.5407202 0.49950626 0.6231158 -0.3397568 -0.02959654 0.8879323 0.58981776 0.0699018 -0.208483 0.11663551 -1.0607344 0.37779158 -0.8610825 -0.17641568 0.539707 -0.6573959 -0.48727882 -0.039123796 0.05923103
upper 0.070187144 0.53121114 0.17038184 0.26648214 0.6265206 0.1320769 -0.34508985 -0.739779 0.29614696 -0.14903969 -0.45480123 -0.35942376 -0.7348544 -0.14003985 0.5948159 0.07508274 -0.023934906 -0.19914141 0.20694642 -0.13040067 -0.34443298 -0.15659891 0.31876174 -0.38422546 -0.21273525 0.013302137 0.15839435 -0.08570076 -0.175163 -0.25097603 -0.3638094 -0.7052197 -0.096832305 0.32701117 -0.025991151 0.4261353 0.066398725 0.22781442 -0.20660432 -0.17500046 -0.43560204 0.2284278 -0.21574585 -0.29336917 0.12563227 -0.059596643 -0.13509668 -0.08248834 0.5704326 0.57762855 -0.4978604 -0.3208693 0.34497377 -0.217524 0.13047515 -0.33767223 -0.17586836 -0.7613392 0.21804549 0.31217676 -0.055834834 0.07840227 -0.15682924 -0.22128801 0.7780959 -0.041965 0.8020977 -0.05562114 -0.2374825 -0.13822633 -0.11113871 0.2253011 0.0797712 -0.09351437 0.30068213 -0.30681342 0.5711127 0.3583889 -0.04010946 0.038251743 0.055197883 0.14047125 0.059806745 0.019695908 0.48819125 0.033467226 0.49485457 -0.031922862 -0.6479105 0.047444828 -0.29591674 -0.44704786 0.28098243 -0.6533551 0.23115234 0.068270765 0.014285761 -0.8699064 -0.25582248 -0.29898036
elsewhere -0.17209528 0.7720151 -0.5671915 0.96642363 0.0031389683 0.4387273 -0.099401586 -0.8548239 -0.1706996 0.09733824 -0.849463 -0.56329644 -0.28802836 -0.34065193 0.51274204 -0.22884868 -0.1099397 0.08699741 -0.5071775 0.37469387 0.68693227 0.17411841 0.52767444 -0.3306012 0.057186827 0.037727125 0.36664644 0.10084982 -0.41518402 -0.49634734 -0.9764935 -0.6410215 -0.5321201 -0.250618 0.26204032 0.99136615 -0.30053887 -0.06959616 0.15507743 -0.23214847 -0.8756478 0.081055656 0.111448064 -0.10421866 -0.045916144 0.19366798 -0.36273193 -0.06358881 -0.07670762 0.43359292 -0.43931195 0.043796763 0.1409385 -0.3087637 -0.19938356 0.025903279 -0.36033008 -0.7484821 0.22274375 0.37220186 0.42431957 -0.17922145 -0.21636985 -0.31703585 1.2564621 0.54609305 0.6631629 -0.417027 -0.5504763 0.19648767 -0.56585217 0.15949064 -0.5304236 -0.2091165 0.52711797 0.18149813 -0.1905087 0.28612563 -0.028143626 0.62092346 -0.21147443 0.009150353 -0.5485819 0.47262228 0.17404036 0.1758444 0.8871241 -0.30621085 -0.69495517 0.15072104 0.010929217 -0.22467233 0.17122719 -0.4591015 0.27412292 0.00059145555 -0.59183645 -0.7303067 -1.1059109 0.11686058
bacilli 0.82588565 0.37410337 -0.7107625 1.6078048 -0.27159196 0.4347932 -0.3720245 -1.4100155 0.52614194 -0.37882048 -1.4746677 0.41493636 0.27148527 0.045455348 0.881596 0.13515373 -0.5777567 -0.5481412 -0.016605034 -0.5227241 -0.06892403 -0.5518469 -0.6787614 -0.6098522 -1.0171348 0.45876366 -0.2626271 -0.13354512 -0.10453491 -0.48185778 -0.6507971 -0.23261347 0.39773178 0.0086448295 -1.7815758 0.36985835 0.052050512 0.25472698 0.20869568 0.8562243 -0.36342642 0.81897956 -0.69047946 -0.28053093 -0.69572484 0.28591043 0.45042288 0.47065645 -0.41797018 -0.038829587 -1.6239936 0.17928542 0.14509673 0.26493677 0.51821953 -0.4398351 -0.6696353 -1.4560857 0.19657508 0.22778876 0.9655455 -0.053176418 -1.90298 -0.15476502 0.812154 0.4475659 0.027310736 -1.0305759 0.60152936 -0.5623225 -0.6624615 -0.009758144 0.09045197 -0.62889564 0.09138571 0.09808182 0.9494062 0.4197897 -0.016257904 0.21434608 0.27898908 0.3651123 -0.22279437 0.6233222 0.946037 -0.25132042 0.4808623 -0.0963805 0.06128137 -0.3536476 -0.7393007 -0.7470675 -0.7479894 -2.0095117 0.4336262 0.14793415 -0.23917997 -0.92809975 0.09311238 -0.60623497
effects 0.4486861 0.45089692 -0.7069187 0.26531056 0.23847228 0.94505894 -0.30312648 -1.1285776 0.6190659 -0.07220077 -0.892701 -0.08466416 0.10510837 -0.78407997 1.0667868 0.26174456 -0.4932169 -0.6518105 -0.13375829 -0.10634782 1.3492215 -1.2187234 -0.046955828 -0.4469656 -0.36349446 0.5609491 0.33810967 -0.37606227 -0.6565493 -0.7441803 -1.4192219 -0.50032336 0.20281442 0.5783187 -0.09633205 1.5044442 -0.6238988 0.27714816 0.48175538 0.6372988 -1.0855212 0.007324849 -0.28765503 -0.8635214 -0.17922215 0.3196157 -0.13516437 0.42228848 -0.97839874 0.50953746 -0.6928933 -0.73572767 0.15622655 0.3032341 -0.47988492 0.25129607 -0.4089356 -1.351021 0.5240701 0.24303892 0.57216626 -0.89995414 -0.31970686 -0.39189973 0.99463814 0.63881654 0.5947711 0.29177287 -0.52456164 0.3694072 -0.13511986 0.65647435 -0.061904825 0.009943782 1.0143193 -0.53556067 0.103823595 0.24750337 0.37735298 -0.053921632 -0.17849377 0.56239575 0.4932563 0.19902341 0.26164854 0.2794483 0.40666968 -0.32628235 -0.3263332 0.24826363 -0.4645207 -0.4143853 0.14826486 -0.81281394 -0.09664312 0.12065274 -0.40897778 -1.1542214 -0.3633002 0.121437974
tubercle 0.78778666 0.2780651 -0.62878096 1.4137436 -0.28244042 0.3911754 -0.25099048 -1.1757275 0.54362595 -0.3363665 -1.302001 0.3485452 0.21909845 0.0137196 0.711816 0.057708483 -0.501499 -0.4685469 -0.052110538 -0.44500074 -0.081543796 -0.44026834 -0.643336 -0.54241735 -0.85466766 0.3933969 -0.12972637 -0.11884995 -0.052409843 -0.3630317 -0.54493934 -0.08475469 0.32700908 -0.053183068 -1.5737119 0.2818694 0.05137558 0.20845558 0.23120502 0.8199048 -0.2793232 0.792639 -0.64029044 -0.21813273 -0.6050735 0.26912102 0.43709514 0.37915197 -0.4150133 -0.04213473 -1.4503103 0.19537142 0.112579845 0.2645167 0.4199957 -0.42306486 -0.54508567 -1.3039055 0.17533457 0.16400757 0.86338437 -0.046434533 -1.7727107 -0.121002644 0.5827718 0.39037687 0.0021680263 -0.94192064 0.5827491 -0.47676304 -0.6059904 -0.03405736 0.11361212 -0.5187601 0.12935981 0.11524895 0.86092347 0.33031777 -0.018436518 0.26041356 0.24846333 0.25247583 -0.32343268 0.545386 0.86994886 -0.2646536 0.4641148 -0.09826904 0.12721962 -0.35242993 -0.6375451 -0.6678312 -0.6836705 -1.7700365 0.42263913 0.20134814 -0.19271165 -0.8009995 0.123031944 -0.5335273
bacteriological 0.740775 0.21297641 -0.67968255 1.6371602 -0.069404975 0.5844105 -0.21747185 -1.5574871 0.73089075 -0.2813893 -1.0702754 0.0075260415 0.4931274 -0.37115029 0.886635 -0.18184347 -0.30149028 -0.44636416 0.22394004 -0.13877793 0.3935374 -0.84926516 -0.85855407 -0.9952547 -0.34960777 0.42851484 -0.11512259 -0.087573074 -0.2227559 -0.35572237 -0.9361404 -0.32174647 0.039647657 -0.57962376 -1.3980849 0.643994 -0.037316706 0.06524768 -0.024109073 0.73258114 -0.52275836 0.6123009 -0.91670316 0.1563521 -0.8452352 0.37767854 0.5071198 0.18043037 -0.16493219 -0.14634094 -1.8226221 0.13677296 0.09075969 -0.13291848 0.32861146 -0.3728387 -0.35268885 -1.529185 0.40979582 0.71290374 0.5450412 -0.3014818 -2.0799835 -0.30296585 0.6939518 0.21846846 -0.12064571 -0.6953165 0.4789449 -0.21455094 -0.94522023 0.029812401 0.22326843 -0.480842 0.41288254 0.036413267 0.9087403 0.38071215 -0.118425235 0.29342842 0.30261555 0.11524064 -0.29414067 0.23934282 0.93833274 -0.18483403 0.38066995 0.43215472 0.4645245 -0.29220247 -0.58746576 -1.0612217 -0.28358445 -2.0507536 0.07565351 0.0049516475 -0.22607704 -0.999656 0.017698657 -0.4624167
classified 0.2184699 0.7606295 -0.4655528 0.6581885 0.2557044 0.46139383 -0.016916744 -0.9656732 0.19439626 -0.016455872 -0.8869388 -0.25993472 -0.26661375 -0.5530342 0.19457218 0.2339636 -0.049858462 0.1311099 -0.5280308 0.32629135 0.23313367 0.21585609 0.53632075 -0.45115477 -0.05095338 -0.1314706 0.43097964 -0.04694114 -0.51356685 -0.732127 -1.0484858 -0.6831178 -0.33628616 -0.2867809 0.04129009 0.7222924 -0.053258225 0.0784667 0.07806753 0.10420198 -0.7157068 -0.1418059 -0.03349768 0.01915266 -0.0051220553 0.19394287 -0.06367665 0.0007501665 0.029237745 0.06443808 -0.79745054 -0.04595813 0.32082954 -0.015317823 -0.23255506 0.08129184 -0.37664646 -1.0772312 0.46603703 0.101430535 0.2516724 -0.29062885 -0.43517104 -0.19388388 0.8642246 0.1998494 0.80165124 -0.28559443 -0.73141026 0.21342511 -0.5730939 0.3349293 -0.5426225 -0.063990034 0.44427586 0.19431 -0.046973113 0.55247986 -0.15474628 0.61804736 -0.34575433 0.29802927 -0.5996094 0.1913215 0.021537557 0.42044368 0.9917997 -0.13429166 -0.65995944 0.17991571 -0.15835053 -0.50093985 0.16040725 -0.78280663 0.029197402 -0.32110918 -0.6683111 -0.5869445 -1.1032004 0.07446541
lower 0.101042196 0.5911092 0.19061583 0.3013735 0.6356489 0.13837709 -0.3699839 -0.7568249 0.30823237 -0.0932357 -0.46202555 -0.3081189 -0.79416275 -0.14743389 0.60544807 0.07992012 0.002581414 -0.17267223 0.20737489 -0.14756922 -0.35725918 -0.20099854 0.32254806 -0.4290328 -0.19343479 0.033972543 0.16264509 -0.08967403 -0.17846988 -0.23937932 -0.35803026 -0.7244212 -0.12020933 0.3384436 -0.039581437 0.4123415 0.054629147 0.25819784 -0.24071133 -0.1725526 -0.43225974 0.21569276 -0.21767148 -0.31521383 0.103548884 -0.04410809 -0.1555892 -0.06339537 0.636881 0.5938972 -0.5485522 -0.36205485 0.31196237 -0.22109126 0.13109007 -0.3018305 -0.21039376 -0.82177263 0.1670513 0.3454011 -0.09914779 0.13311756 -0.13298447 -0.18812783 0.80197716 -0.040575184 0.79856336 -0.0796654 -0.22259246 -0.12986428 -0.115114555 0.21479206 0.07376677 -0.095139004 0.2732393 -0.30891174 0.6049817 0.38601875 -0.079562694 0.050535508 0.081841275 0.13329916 0.057932474 -0.008043289 0.48929098 0.017067913 0.52460355 -0.043864433 -0.6498754 0.022505986 -0.32472822 -0.45897946 0.26387846 -0.6925075 0.23575632 0.029416313 0.024481386 -0.8672795 -0.2551181 -0.29554254
joint 0.14455767 0.5278914 -0.13749413 0.5538186 0.2940547 0.25152743 -0.30978388 -0.78000176 0.19752826 -0.0430524 -0.58858114 -0.27754462 -0.4849711 -0.28920168 0.48264334 0.01712759 -0.093757406 -0.12047085 0.006664051 -0.07575537 0.032707863 -0.13857289 0.31929937 -0.36438593 -0.1744357 0.027785204 0.139784 0.03257257 -0.2250425 -0.30552655 -0.5190162 -0.55053073 -0.15549007 0.04436239 -0.14485474 0.49880204 0.008114392 0.18763876 -0.1262162 -0.10712602 -0.47836852 0.19296296 -0.0977897 -0.17463696 -0.005956124 0.051827792 -0.09468825 -0.057309028 0.3219432 0.35612327 -0.6949472 -0.15446226 0.26855344 -0.11282272 0.02458331 -0.17986806 -0.334992 -0.83664876 0.26654804 0.32543242 0.15240589 0.019036816 -0.28334564 -0.18858786 0.78901327 0.16489296 0.54267496 -0.25796196 -0.17239682 -0.0075078686 -0.2041268 0.1679795 -0.042237498 -0.057158075 0.29026744 -0.1377371 0.4006413 0.4257412 -0.08538181 0.20711885 0.0387951 0.10260508 -0.10132209 0.08837583 0.35436362 0.08253423 0.51476014 -0.12276203 -0.5226472 0.051073253 -0.29372692 -0.3536248 0.06837213 -0.7533014 0.1571166 -0.07776396 -0.14815414 -0.755937 -0.41569334 -0.20436166
motor 0.27486718 0.45617956 -0.5886774 1.2608787 -0.469172 0.2554595 -0.61042714 -1.2387128 0.4094601 0.23795052 -0.51913667 -0.4172611 0.13468902 -1.2681994 1.5271153 0.3232585 -0.3587351 -0.2230239 0.32835886 -0.68945795 0.61090785 -0.73336995 0.51170844 -0.64618623 0.04703135 -0.2702199 -0.25331995 0.36532742 -0.048794907 -0.7301085 -0.20012735 -1.3179787 -0.31796002 0.07645704 -0.19724448 1.1930625 -0.5573468 0.07552437 0.00047706475 -0.7194273 0.14015602 0.332138 0.47565222 0.23504317 0.313897 0.19121112 -0.5259855 -0.63611406 -0.33344674 0.8547826 -1.2492121 -0.739409 -0.46471927 -0.45407894 0.15782565 -0.05204162 -0.6466481 0.27883926 1.1906823 -0.2187954 1.192412 -0.6789162 0.1273188 -0.519936 1.5563967 0.42757195 0.13183276 0.4352209 0.2917059 -0.08874094 -0.06828 -0.020959435 0.4366306 -0.03854274 0.032119166 -0.674707 1.3694535 1.1195517 -0.37329847 -0.20786351 -0.16600794 0.2730941 0.6169125 -0.31142896 -0.22061683 -0.41382825 -0.047495596 0.09802202 -0.19630134 0.29918265 0.060088698 -0.87418985 0.29099104 -1.2849085 0.2344997 -0.35830808 0.44505644 -1.1863095 0.5128521 -0.78672147
causing 0.3309292 0.37845322 -0.6839447 0.35899484 0.0987075 0.79897994 -0.266991 -0.99624753 0.4962536 -0.07565678 -0.75400656 -0.147753 0.112932 -0.693915 0.9280431 0.2463423 -0.4217912 -0.5629128 -0.08774674 -0.13272215 1.1828012 -1.0263141 -0.013818601 -0.3584543 -0.304286 0.42430034 0.24783216 -0.28060278 -0.51872283 -0.63916206 -1.2314478 -0.47511277 0.15122406 0.3928368 -0.09177391 1.294178 -0.5583983 0.20990016 0.44548127 0.49618813 -0.91344446 0.025007632 -0.20429888 -0.68961704 -0.15843838 0.2898428 -0.131983 0.30636057 -0.85256475 0.37402222 -0.6312725 -0.5817565 0.14077893 0.2277443 -0.3801271 0.16876099 -0.3667851 -1.1132697 0.50609916 0.22324467 0.5357082 -0.78087205 -0.3332595 -0.30435783 0.8992313 0.5966846 0.42560634 0.23269051 -0.4266485 0.33444518 -0.14245605 0.48197293 -0.024259953 0.005599499 0.8640065 -0.46276328 0.07616024 0.26520425 0.3080504 -0.022272836 -0.15986714 0.48413676 0.41283453 0.17444655 0.17245853 0.2090219 0.3852385 -0.23794685 -0.26977664 0.22919145 -0.37496588 -0.39518142 0.12297153 -0.78039926 -0.10167435 0.08931952 -0.3609888 -1.0158098 -0.29693696 0.075652674
nodes -0.0009668442 0.36529925 0.050553206 0.3599235 0.69642645 0.2410151 -0.42480478 -0.73176336 0.56485313 -0.13073556 -0.76200014 -0.23666912 -0.92742234 -0.055414733 0.9753014 0.12594296 -0.18402284 -0.040883247 0.3660687 -0.38669246 -0.37418458 -0.6856531 0.38919052 -0.60007656 -0.28431025 -0.09895829 0.1733513 -0.1606807 -0.07671877 -0.12613739 -0.42636654 -1.0277748 -0.034457296 0.4613999 -0.04275107 0.64969903 0.29793876 0.100703806 -0.53048366 -0.11745681 -0.48706502 0.14404444 -0.17994149 -0.3554359 0.05554125 -0.20484374 0.031251185 0.0031106337 0.9065236 0.80939686 -0.5942728 -0.68603736 0.33260658 -0.3228514 0.3805347 -0.3511475 -0.26685166 -1.0490775 0.098488204 0.341229 -0.09868948 -0.052639652 -0.0918431 -0.3780418 0.86479294 -0.031982575 0.9377968 0.105747566 -0.19322294 -0.4090276 0.017067287 0.3399378 0.061921973 -0.17017588 0.905968 -0.39439693 1.1679553 0.4054563 0.018009475 -0.18754572 0.28065997 0.5945824 0.060495514 0.23400073 0.4534758 -0.28936425 0.7793608 -0.21653454 -0.6821862 0.15793526 -0.3395366 -0.5545001 0.5206791 -0.57205474 0.39257985 0.19845077 0.45540857 -0.8872968 -0.18789773 -0.5650153
diseases 0.07982338 0.43210685 -0.3789281 0.64941686 0.030832846 0.28727466 -0.13278425 -0.6567881 0.07402704 -0.07065075 -0.62730944 -0.29686603 -0.17668068 -0.20555738 0.3382357 -0.001051794 -0.08290815 -0.11248168 -0.18756881 0.06395767 0.25478676 0.045600265 0.26088798 -0.23924842 -0.18147562 0.02296033 0.14265524 0.046410453 -0.2251811 -0.3773527 -0.6983465 -0.4755331 -0.2020875 -0.20930734 -0.084133275 0.5397633 -0.10883194 0.0694699 0.08197392 0.0026499638 -0.5186677 0.034135967 -0.014285145 -0.1438426 -0.015847987 0.16707435 -0.06024517 0.022570552 -0.008752816 0.12904935 -0.5552664 -0.048669126 0.20228046 -0.0833086 -0.018152175 -0.09300458 -0.28413227 -0.6243123 0.29240888 0.2089635 0.29839364 -0.10662696 -0.46449944 -0.13288076 0.7966758 0.271729 0.42153335 -0.2624341 -0.34814534 0.12920685 -0.32844865 0.120977804 -0.22028501 -0.131019 0.4181817 -0.04757396 -0.017748786 0.23883335 0.017860238 0.373549 -0.07938624 0.15458874 -0.2510935 0.31229252 0.11350891 0.12206866 0.62981796 -0.08975324 -0.36293465 0.031217763 -0.15805882 -0.36702928 0.022903137 -0.66457 0.12202137 -0.012720308 -0.3890886 -0.5635002 -0.56794804 -0.062790856
history 0.050195787 0.15710495 -0.14265221 0.5471602 -0.20100461 0.28882986 -0.26095262 -0.83842695 0.20801242 0.05933759 -0.59377205 -0.23471755 -0.28051937 -0.20567207 0.19493291 -0.032050952 0.069237635 -0.34835035 0.032946967 -0.30306515 0.33372137 -0.3262912 -0.08625532 -0.09205803 -0.33574706 0.0077911923 -0.0777991 0.1510035 -0.17275068 -0.37285623 -0.5271072 -0.29485133 -0.004657969 -0.2868056 -0.096647836 0.5338147 -0.10465465 0.21874183 -0.029943122 0.16082811 -0.32169223 -0.058588922 0.058690913 -0.036744814 -0.13772374 0.032701924 0.1923975 0.11422355 -0.16324095 0.15617493 -0.8737117 -0.31061825 0.4324392 0.21532676 -0.1736058 0.049514502 0.0041263187 -0.3997827 0.3347418 0.11147787 0.33431748 -0.17518649 -0.3732792 0.09925927 0.589415 0.09031172 0.5166312 -0.05500865 0.04550617 0.2960937 -0.06285361 -0.0129612805 -0.0014118387 0.1526305 0.51047194 -0.3206032 0.19989614 0.34089383 0.014760667 0.1199965 0.23959035 -0.019323288 0.20253226 0.42454264 -0.059048735 0.13054219 0.23368767 -0.1521037 -0.2672608 0.045554116 -0.5517439 -0.12660138 -0.3368609 -0.81402075 -0.14185695 -0.11987032 -0.33801946 -0.7391061 -0.40917724 -0.19288835
type -0.08277259 0.46792302 -0.19774638 0.25457293 -0.08589033 0.13836041 -0.17022724 -0.21025951 0.11186415 -0.26255408 -0.19848378 -0.317221 0.030496856 -0.07009861 0.5630614 0.085131474 -0.05877312 -0.15333673 0.237236 -0.32970023 0.19580841 -0.23035608 0.18442675 -0.19731466 -0.33353928 -0.12124298 -0.18594919 0.043409456 -0.116291024 -0.30141053 -0.452431 -0.8898153 -0.17497411 0.09145577 -0.112227686 0.6411093 -0.34537622 0.11316233 -0.0781454 -0.081107065 -0.5001772 -0.13854524 0.13584195 -0.56124216 0.16798824 -0.0051124557 0.13256276 -0.282019 0.17924261 0.2419157 -0.07834587 -0.41656712 0.060902223 -0.21405333 0.14440311 -0.03866229 -0.19601092 -0.027715791 0.4714479 0.2773544 0.19223505 0.014144012 -0.2636229 0.012240341 0.7627383 0.30756757 0.2895183 0.18846409 -0.62716705 0.29461905 0.038184907 -0.09202786 0.024699962 -0.038508903 0.5918104 -0.505598 0.08045081 -0.27818272 0.06475936 0.13510777 -0.3715107 0.33213747 0.42878756 0.2229328 -0.029210689 -0.15943968 0.58096385 0.2922347 -0.21445827 0.2399131 -0.032035712 -0.75832176 0.1644358 -0.68091726 0.030974204 0.34650272 -0.08497464 -0.61784065 -0.18733054 0.049084097
lymph -0.10950548 0.16103134 -0.13258415 0.28114447 0.7392025 0.12591201 -0.22541776 -0.546223 0.51644254 -0.2023362 -0.65803677 -0.26666638 -0.8729421 -0.13445917 0.9386542 -0.070372805 -0.16556284 -0.1560358 0.37569752 -0.41854241 -0.22815894 -0.6796521 0.42765757 -0.5939201 -0.11992847 -0.14740503 0.25739184 -0.14427991 -0.15969856 -0.06706091 -0.39873 -0.96394575 -7.2354465e-05 0.26668748 -0.07424517 0.6358375 0.28306517 0.17963873 -0.40710607 -0.21809448 -0.5056191 0.17787515 -0.07907693 -0.44593105 0.08131973 -0.055982202 -0.07791941 0.10489695 0.6738146 0.7652195 -0.4892064 -0.5809139 0.22498266 -0.44065446 0.4261506 -0.42886615 -0.2961648 -0.9822245 0.3443302 0.3228844 -0.14847076 -0.010039932 -0.13282852 -0.41239855 0.76148593 -0.0568852 0.9680092 0.21666022 -0.26685455 -0.45285413 0.032188434 0.2777219 0.03878483 -0.17668362 1.0171512 -0.55075115 1.1289868 0.4224325 0.005066596 -0.22430046 0.06388705 0.68007374 -0.048749045 0.12335355 0.5376025 -0.24617338 0.8021525 -0.034650933 -0.7245576 0.025184883 -0.45347536 -0.57957053 0.53887194 -0.5556946 0.45083743 0.1556989 0.44467086 -0.8591191 -0.046911303 -0.45776686
level 0.42212978 0.97214544 0.4441325 0.1949374 0.44176534 -0.034808263 -0.56456465 -0.46251875 0.17172298 -0.44736484 -0.081824206 -0.022130521 0.39942 0.043923832 0.7651194 -0.015465741 0.027255401 -0.21077922 0.27281395 -0.07505337 -0.62118125 0.06896007 -0.45641306 -0.5595953 -0.7242136 0.04437644 -0.3327335 0.05317724 0.23732199 -0.47059432 -0.30936003 -0.689197 0.014712129 0.39257672 -0.30570003 0.22062422 -0.6663752 0.22556885 0.048925802 -0.14240687 -0.57478034 0.10876567 -0.34437966 -0.2851646 -0.4082878 -0.050548505 0.2679554 0.4484933 -0.025145032 0.47321135 -0.33899358 -0.6395673 -0.28141847 -0.2508102 0.37081867 0.13337108 0.11413282 0.055833735 -0.020030783 0.25517988 0.043974757 -0.030018575 -1.0550079 -0.09091231 0.15505414 -0.3042241 0.91573644 0.1943822 -0.50426555 -0.2598002 -0.23188864 0.47613958 -0.0955229 -0.47644514 -0.27593827 -0.5496987 0.6917073 -0.2650672 0.33823448 0.14475277 -0.55510604 0.25357512 0.68810785 0.13310768 0.60198146 -0.61948365 -0.18309847 0.687786 0.1693077 -0.35235313 -0.4478829 -0.7328339 0.11187207 -1.2286612 -0.23037837 0.40935045 0.22365339 -0.79321814 0.51070976 -0.014850477
region 0.08793785 0.47859415 -0.16705947 0.5071711 0.4385492 0.22104456 -0.3518967 -0.73411065 0.2605976 -0.15420116 -0.5988716 -0.33902255 -0.5985318 -0.17143957 0.63761955 -0.012585558 -0.0625419 -0.21857004 0.1483229 -0.16633953 -0.06795462 -0.28673702 0.32855934 -0.41219857 -0.23269603 -0.013612326 0.14339164 -0.026155984 -0.17865188 -0.32495636 -0.50816876 -0.72032833 -0.08863889 0.10151825 -0.17338802 0.5585136 0.07199894 0.21297295 -0.19818808 -0.13588592 -0.53914243 0.20243773 -0.15412605 -0.25804454 0.000314173 0.03467582 -0.05697579 -0.036062844 0.45419735 0.470334 -0.63587475 -0.27549416 0.2790643 -0.1348587 0.11364255 -0.29816058 -0.34090388 -0.88136554 0.30149132 0.4160938 0.107135415 0.074650876 -0.36798978 -0.22415951 0.82707506 0.06738169 0.6837357 -0.16837193 -0.25090355 -0.11271548 -0.16666503 0.22007181 -0.01822164 -0.13375203 0.4919551 -0.3225958 0.5161986 0.3731932 0.018622901 0.11892997 0.04703118 0.29738823 0.031772878 0.114984795 0.3864925 0.020348148 0.64311606 -0.012989728 -0.6278903 -0.01603734 -0.3731422 -0.48256776 0.20902543 -0.8480718 0.211209 0.01030564 -0.00069399475 -0.9064082 -0.3111977 -0.2699985
third 0.2342752 1.7048512 0.67907095 -0.1108092 1.1612217 0.18896924 -1.2476413 -1.0012885 -0.42502424 -0.6180486 -0.14318359 -0.92174006 -1.4292749 0.25291017 0.5262735 0.3204049 0.32567176 -1.1096492 0.6750857 -0.10540162 -1.1849579 -0.111715145 0.7240311 0.05630656 -0.81325245 -0.47037756 -0.86536354 0.15675719 -0.13165347 -0.08885098 -0.39208046 -1.0709273 0.41768888 0.23411551 -0.300578 -0.2575102 0.0024268895 0.8630126 -0.34723693 -1.1940674 0.06894323 -0.09627644 -0.45379394 -0.5528035 0.21197017 0.041940175 -0.27457783 -0.3049275 0.72506857 0.3811973 -0.35705197 -0.746062 1.2651705 -0.09841222 0.26040497 -1.2556053 -0.5119405 -0.50604403 0.53595895 1.0015899 -0.16635591 1.1198231 -0.5106666 -0.43863425 1.2997077 -0.28281265 0.51750845 -0.27172837 -0.6956648 0.24917965 0.36164203 0.6923192 0.490168 -0.2255385 -0.8432071 -0.7178546 0.12082708 0.36226773 0.4257702 0.21307833 -0.25918883 0.022054495 0.9609409 -0.31876874 0.38619852 0.050130136 0.18365045 0.7439014 -0.57845074 -0.7500059 0.22652684 -0.33789912 0.90124726 -1.2561859 -0.31457976 0.57822406 -0.29181007 -1.3783075 0.5893119 0.21784425
limb -0.021053541 0.5020169 0.13499594 0.21772522 0.67536324 0.17748804 -0.45817026 -0.6091414 0.2373172 -0.049860843 -0.51907605 -0.35316578 -0.8669028 -0.21933945 0.5139945 0.02885803 -0.01860555 -0.15714833 0.15581651 -0.11223124 -0.32034448 -0.29874188 0.47259614 -0.31824785 -0.17477627 -0.0035885677 0.1975966 -0.015908182 -0.11549142 -0.20879741 -0.34100443 -0.6518105 -0.022355463 0.32427287 0.036603447 0.3939124 0.10480007 0.20437515 -0.27718914 -0.26503026 -0.46261206 0.19749384 -0.12757684 -0.30922174 0.06594327 -0.053728245 -0.17187403 0.02726956 0.6555569 0.5775193 -0.43206674 -0.31781417 0.4057162 -0.20030446 0.16828652 -0.26067272 -0.2819215 -0.889392 0.077600054 0.39093223 -0.073491395 0.16355002 0.04303209 -0.21835516 0.7126035 -0.106183834 0.8501975 -0.12222647 -0.22431853 -0.16410977 -0.00067412644 0.34161237 0.03685581 0.0006457049 0.41320547 -0.31553 0.5763407 0.40689543 0.0026277679 0.055966336 0.09558145 0.2947885 -0.007942263 -0.03690402 0.47576666 0.006056338 0.5097239 -0.14900775 -0.7670191 -0.060646042 -0.31925452 -0.252247 0.24165861 -0.5244777 0.2667494 -0.07637962 0.18771856 -0.7308761 -0.25331953 -0.25155187
deep 0.23155595 1.48177 0.24701594 0.0100315595 0.97078717 0.30486178 -1.1124665 -0.9722715 -0.43654275 -0.57695824 -0.20134535 -0.92863536 -1.2772461 0.24437767 0.44038025 0.326672 0.2747224 -1.2628338 0.6099156 -0.1830703 -0.8109098 -0.28139943 0.7765658 0.16688825 -0.7556953 -0.40522745 -0.7852862 0.08705912 -0.11322905 -0.11379054 -0.7962038 -1.003919 0.5554467 0.08474395 -0.20259845 -0.23287635 0.03921032 0.90203184 -0.21330994 -0.9253413 -0.005839043 -0.14364478 -0.54284936 -0.61206937 0.2490865 0.17855032 -0.14713188 -0.25242853 0.50001854 0.2355381 -0.48693946 -0.5737715 1.4708377 0.09081908 0.20253241 -1.2675531 -0.5365808 -0.6271102 0.7100069 1.1366993 0.04660054 1.024782 -0.57208073 -0.41828623 1.3989121 -0.11938223 0.13315256 -0.29011792 -0.683717 0.3436857 0.3242562 0.7215134 0.5374299 -0.17231604 -0.5066812 -0.7073188 -0.21283928 0.41463876 0.63079387 0.12930444 -0.15673292 0.05296124 0.9903255 -0.23221712 0.15198939 0.18351509 0.2939272 0.6932114 -0.51253116 -0.7748486 0.24351282 -0.26934326 0.68336564 -1.1418144 -0.3696708 0.48860162 -0.4544953 -1.4005462 0.4447755 0.2777799
use 0.38400602 0.51665896 -0.6638101 0.3333902 0.21550429 0.89317656 -0.3272469 -1.092696 0.56507 -0.15826537 -0.8573969 -0.17018467 0.052365094 -0.6772298 1.0424148 0.23993544 -0.43756795 -0.6537455 -0.05222208 -0.14810975 1.1487869 -1.1246427 -0.021654377 -0.39923096 -0.46198124 0.50136924 0.24220888 -0.34067765 -0.57886654 -0.69819075 -1.3378575 -0.5733724 0.1928092 0.48121542 -0.16380851 1.3609173 -0.59333265 0.30430472 0.43631986 0.5431469 -1.0237709 0.0018651702 -0.2862651 -0.8466318 -0.19596188 0.31800425 -0.115241036 0.350477 -0.8321503 0.4416738 -0.6948586 -0.7189918 0.20696415 0.19865516 -0.29609585 0.12617424 -0.43782526 -1.268925 0.529887 0.30428088 0.50285834 -0.7408469 -0.47830868 -0.323961 1.0093873 0.6127178 0.53607565 0.23960426 -0.5343406 0.3360524 -0.166286 0.5652842 -0.028414177 -0.023147507 0.96669245 -0.5409685 0.13150924 0.22875842 0.36778516 -0.003042367 -0.16997658 0.5472775 0.5220126 0.23689222 0.2508409 0.20088716 0.45893082 -0.18146443 -0.31768632 0.20363367 -0.46466395 -0.50247043 0.18447255 -0.92216915 -0.10261391 0.17469233 -0.40890324 -1.1673965 -0.3029661 0.10162506
associated -0.07094724 0.30141705 -0.5367081 0.5329957 -0.073389985 0.24747635 -0.1170216 -0.41234174 0.07169954 -0.2977876 -0.37909332 -0.4292111 -0.11993029 0.093570895 0.41508764 0.019464124 -0.068328 -0.36560658 0.088516094 -0.15531369 0.19840337 -0.06499022 0.3432057 0.004372257 -0.37571335 0.021789074 -0.131837 0.11688238 -0.035865948 -0.20434149 -0.69766027 -0.6567453 -0.07432263 -0.3449548 -0.2970479 0.35231793 0.0055884034 0.0815328 0.03871236 -0.079181775 -0.49996108 -0.13891722 0.00512553 -0.30301434 0.08748944 0.22630942 -0.013648301 -0.101620495 0.05518656 -0.110809654 -0.3522556 -0.051828623 0.28808865 -0.12833746 0.19946657 -0.302317 -0.35053578 -0.42430696 0.48518458 0.32559663 0.2820305 0.11840812 -0.73072207 0.0044839005 0.8821185 0.3830501 0.20949577 -0.14611788 -0.40924114 0.27037033 -0.13634266 -0.044363473 -0.11857852 -0.11538252 0.7016929 -0.3437977 -0.21232702 0.012930084 0.14867795 0.35636473 -0.050276477 0.3248646 0.09061898 0.39528957 -0.09533453 0.13380355 0.7287482 0.092847146 -0.24916787 -0.091294885 -0.13670354 -0.635767 0.07759372 -0.79787534 0.03518312 0.14294533 -0.49125183 -0.59729594 -0.32653004 -0.08082004
burn 0.15087557 1.1513261 0.30916563 0.22638994 0.6327752 0.16843396 -0.8340271 -0.9023 -0.09297203 -0.31589225 -0.3269993 -0.6444123 -0.9492505 -0.08540129 0.60786176 0.19685346 0.10068465 -0.6143835 0.39830792 -0.19307452 -0.6606458 -0.20823935 0.5498811 -0.21062922 -0.47253528 -0.24003148 -0.46889347 0.104642205 -0.22978666 -0.15044117 -0.21694109 -0.9143026 0.05852486 0.15117325 -0.32435074 0.1445592 0.03143596 0.5216625 -0.3474015 -0.7945631 -0.024707641 0.0421387 -0.20165604 -0.3348003 0.1593743 0.04169921 -0.2726582 -0.35769236 0.57083637 0.4225624 -0.48941466 -0.56828487 0.6468986 -0.21985938 0.2331332 -0.7910148 -0.50617594 -0.4938707 0.5075896 0.56622624 -0.0059207953 0.56108004 -0.34327823 -0.33715552 1.1152618 -0.018942032 0.48219755 -0.1740924 -0.39667195 0.1499968 0.15693226 0.34873566 0.3088347 -0.16515158 -0.36639428 -0.49386698 0.4827552 0.39561203 0.095215894 0.20128977 -0.12944989 0.10197214 0.51901907 -0.19068761 0.35631102 -0.03325586 0.28390244 0.3733663 -0.52961385 -0.2953752 0.04836502 -0.44620413 0.6142929 -1.0435187 -0.05235611 0.3030966 -0.1417786 -1.0876287 0.31363294 -0.02059786
syndrome 0.13184913 0.4612787 -0.1163684 0.3737397 0.12499269 0.1647003 -0.26707926 -0.47071406 0.20006229 -0.21150494 -0.3241213 -0.19180773 -0.0072428137 -0.07004029 0.51322395 0.01599616 -0.04936659 -0.19100402 0.15458758 -0.16426232 -0.027890544 -0.16328222 -0.018294523 -0.30960643 -0.35556546 0.06814893 -0.0711657 0.016650919 -0.056614786 -0.24535131 -0.39398402 -0.5707488 -0.059081517 0.05370096 -0.25793183 0.4128672 -0.23013209 0.16589507 -0.015711162 -0.021391936 -0.41439366 0.026073014 -0.109760016 -0.28388435 -0.10893151 0.08623933 0.03401169 0.026171288 0.12229482 0.20060825 -0.4056389 -0.32074 0.07046357 -0.18884026 0.16385661 -0.11069358 -0.20766309 -0.30687433 0.28241614 0.23076278 0.13243647 -0.01986377 -0.57287323 -0.07429895 0.5833336 0.1198965 0.41359565 -0.018632121 -0.337996 0.046058398 -0.15102698 0.121629916 -0.024497317 -0.16796018 0.31317168 -0.33934557 0.27271652 -0.0017256958 0.09500367 0.170703 -0.14199801 0.2570338 0.2389866 0.18985526 0.24932803 -0.1756723 0.30681583 0.22991453 -0.13644771 -0.06764173 -0.21013433 -0.6030325 0.105990574 -0.8148194 -0.0031244054 0.19979486 -0.09051109 -0.62685484 -0.018637668 -0.08097788
hours 0.50205356 1.6836951 0.8581354 -0.2288367 0.7477011 0.021516284 -0.7383389 -0.32845736 0.34808022 -0.8205293 -0.015882151 0.10573272 0.122405544 0.53378874 0.970839 -0.090232536 0.14906698 0.03940717 0.5930879 -0.2806461 -1.3971457 0.09103364 -0.62804115 -0.7615389 -1.1265244 0.044008642 -0.5557856 0.045412563 -0.01933456 -0.20388702 0.28192574 -1.2977985 -0.14035884 0.7840952 -0.60510796 0.40242395 -0.8927151 0.34190026 -0.29209197 -0.5609464 -0.42705494 -0.36688986 -0.2607734 -0.7872771 -0.41344473 -0.12508202 0.08073331 0.1466405 0.7869774 0.6771711 0.28443912 -1.2950128 -0.509129 -0.9745546 0.85094696 -0.118181564 -0.040861554 0.5871148 -0.020609338 0.15764388 -0.41885588 0.3580098 -1.2758044 -0.041549005 0.56357735 -0.49958402 1.2067574 0.22323306 -1.4289508 -0.16739325 -0.16720057 0.30113056 -0.18824464 -0.5750597 -0.17754646 -0.940418 0.98396486 -0.9316545 0.1290472 0.23221256 -0.7776548 0.6025881 1.08346 0.26058817 0.8041738 -1.082155 0.17866002 1.4429973 0.27522898 -0.20418495 0.02712204 -1.61086 0.97129667 -1.5446925 -0.24238496 1.1072979 0.28625062 -0.74497813 0.8711922 0.12894383
histological 0.6445826 0.104120575 -0.59006554 1.5681411 -0.047873132 0.55612534 -0.17803796 -1.4882225 0.7862727 -0.13257 -0.9347232 -0.07586777 0.5018793 -0.43469855 0.85299635 -0.24842808 -0.26903898 -0.3579706 0.19630884 -0.039587494 0.45736468 -0.8256952 -0.7972534 -1.0093265 -0.14329702 0.38978204 0.03364671 -0.08146002 -0.21343283 -0.30732113 -0.98951507 -0.33804035 -0.10009679 -0.68300205 -1.1567062 0.7034945 -0.072043635 -0.026569024 -0.12747352 0.67615175 -0.5597525 0.5539556 -0.9441312 0.311656 -0.7584839 0.45656416 0.4533801 0.10357084 -0.10993931 -0.17443639 -1.7644935 0.1095661 0.13451494 -0.24174565 0.25932938 -0.32771537 -0.22773366 -1.4273677 0.46958137 0.69447196 0.47679326 -0.3793371 -1.896162 -0.30294737 0.6038058 0.12576959 -0.07271876 -0.645398 0.4112358 -0.11303934 -0.9343537 -0.013400876 0.26779914 -0.4180978 0.45763233 0.057062794 0.78449214 0.34607953 -0.11399417 0.3121123 0.29065254 0.15233389 -0.33826414 0.07929109 0.7651827 -0.15188925 0.3213465 0.52258027 0.46910644 -0.16763912 -0.55827427 -1.0336889 -0.18398485 -1.925481 0.0049818354 -0.073722556 -0.17329216 -0.9667596 0.001770924 -0.3499925
part 0.08961653 0.92338085 0.45084333 -0.105532244 0.69322306 0.06909426 -0.5930454 -0.48623326 -0.112121366 -0.3097003 -0.10842841 -0.4415243 -0.8253124 0.16641347 0.27052423 0.108846515 0.18703929 -0.4205605 0.32902148 -0.082768984 -0.7253456 -0.011671657 0.36097398 -0.067483954 -0.3860214 -0.17865427 -0.30989665 0.04649507 -0.11695476 -0.00035538257 -0.099982396 -0.5809691 0.11897989 0.24122871 -0.12452516 -0.0886164 0.035650745 0.4399757 -0.27700752 -0.5873746 -0.030610824 -0.062095847 -0.21444453 -0.3342432 0.110428885 -0.05470739 -0.14865296 -0.16751799 0.62598276 0.30972725 -0.13392508 -0.42895418 0.5954311 -0.18026215 0.21593755 -0.61478174 -0.23537186 -0.30222034 0.17513713 0.4697618 -0.24331431 0.60097605 -0.18213311 -0.21502759 0.6432116 -0.20744914 0.41370153 -0.15677233 -0.45101747 0.06342415 0.17591032 0.3080674 0.20357332 -0.100349054 -0.32860744 -0.37534443 0.18699668 0.10030653 0.13948709 0.13628365 -0.08565516 0.020131454 0.37732393 -0.14149582 0.317127 -0.042324435 0.19262527 0.34668523 -0.43729743 -0.27816844 0.062379673 -0.27909702 0.51889443 -0.6000323 -0.08532301 0.30015898 -0.06696948 -0.6852167 0.21128505 0.07841754
adverse 0.42883795 0.42151904 -0.74805015 0.294713 0.22575414 0.96153456 -0.26139838 -1.0799795 0.566415 -0.0774808 -0.91211 -0.09019812 0.1065394 -0.8177331 1.0532061 0.27332878 -0.5199107 -0.6516725 -0.16320737 -0.05934979 1.3376167 -1.2063701 -0.072510414 -0.39592636 -0.42690364 0.572955 0.31443554 -0.40704602 -0.6316998 -0.7668721 -1.4573941 -0.45946497 0.2057714 0.54675144 -0.089495845 1.4250557 -0.6329795 0.29083246 0.56008863 0.6706353 -1.0374868 0.022264313 -0.3264162 -0.82256186 -0.2445418 0.3442936 -0.16885285 0.43073773 -1.0383844 0.44535303 -0.71156687 -0.6706048 0.21202157 0.32013285 -0.4192117 0.24209924 -0.37815803 -1.3754773 0.4950525 0.3016893 0.55098486 -0.86418355 -0.38341957 -0.39027497 0.936943 0.6335103 0.5276018 0.24222903 -0.4866115 0.33007452 -0.18363568 0.6607229 -0.04507856 0.024353476 0.9706364 -0.47763228 0.04082417 0.26379925 0.39757994 -0.033786815 -0.19119954 0.52506566 0.48952863 0.21870469 0.2275884 0.2907377 0.42180088 -0.2950308 -0.32314837 0.25877282 -0.49145183 -0.36364824 0.14259273 -0.8130557 -0.13022871 0.14130563 -0.42142043 -1.124659 -0.3672663 0.16189517
accidental 0.14815705 0.4059273 -0.30154887 0.51144344 -0.01017985 0.24322014 -0.24269503 -0.6945526 0.23871723 -0.035798915 -0.493744 -0.24568179 -0.017461993 -0.25546986 0.5919429 0.017973673 -0.15812819 -0.21133323 0.11299807 -0.13268444 0.30560973 -0.32732967 0.08541052 -0.33929542 -0.27144685 0.010507536 -0.026295487 -0.052051447 -0.17466967 -0.36269277 -0.56523246 -0.58193755 -0.10975517 0.025812669 -0.19297253 0.6240625 -0.2577856 0.13202299 0.0039700065 0.02203008 -0.42002907 0.08791662 -0.06698025 -0.21129766 -0.05662167 0.15509224 -0.040768225 0.00872178 -0.063768595 0.22389835 -0.56628984 -0.2895047 0.10960881 -0.115344614 -0.040586364 -0.02120337 -0.25368682 -0.46323416 0.40183625 0.23957641 0.32594207 -0.25001347 -0.47175488 -0.14674874 0.69337803 0.24835554 0.3506163 0.0029991167 -0.22852731 0.1268738 -0.1990948 0.10792505 0.01150376 -0.07599152 0.3789827 -0.29469246 0.30923104 0.1920696 0.050417125 0.15140739 -0.1534967 0.26166067 0.16471854 0.1343804 0.21878225 -0.040162686 0.3426271 0.10680706 -0.1885647 0.013871993 -0.2033188 -0.49420518 0.07808462 -0.8224586 0.0033666794 0.08729719 -0.13046034 -0.7580057 -0.11464015 -0.04393394
therapeutic 0.45812184 0.5384017 -0.7575332 0.3415448 0.25111887 0.9985762 -0.33220664 -1.1775358 0.60218227 -0.15277426 -0.94747615 -0.11874992 0.054621596 -0.80174375 1.1501337 0.31275016 -0.53611016 -0.67915267 -0.10383207 -0.12403579 1.2757945 -1.251866 -0.06132607 -0.46266985 -0.45689586 0.5787392 0.27556533 -0.35646427 -0.6393207 -0.7598387 -1.4640303 -0.621946 0.1913291 0.58249795 -0.16338243 1.4813497 -0.66485417 0.29282013 0.51509744 0.60750467 -1.0945749 0.01022248 -0.33000463 -0.86085504 -0.22976682 0.3299159 -0.17643729 0.39627534 -0.9349161 0.47928494 -0.7257668 -0.7278809 0.20220807 0.26455432 -0.40986192 0.17215098 -0.41745666 -1.4059145 0.5325914 0.31363842 0.5358353 -0.8486535 -0.44947037 -0.40383077 1.0971209 0.64971346 0.6091636 0.21508457 -0.58145875 0.34476355 -0.13676357 0.6692384 -0.061155044 0.014971027 1.0194402 -0.59545547 0.112447776 0.2338554 0.39882898 -0.021079117 -0.20489655 0.5824497 0.5337709 0.20423138 0.295906 0.2571946 0.49809736 -0.25158483 -0.34021083 0.21585175 -0.45516837 -0.5137172 0.2140106 -0.98150533 -0.1390422 0.20122015 -0.42494926 -1.2587407 -0.32175004 0.14209752
cerebral 0.1993344 0.9903493 0.29685664 0.025363725 0.28300953 0.1016303 -0.30953604 -0.3060768 0.42409506 -0.44924906 -0.25691542 -0.048892614 -0.120214514 0.28455442 0.62982166 -0.14319807 0.027554564 0.26873276 0.35533214 -0.40958413 -0.79199827 -0.052807868 -0.18999398 -0.6402973 -0.53207153 0.18619396 -0.14159429 -0.061103806 -0.20424041 0.057882193 0.3201152 -1.076797 -0.23914003 0.5228191 -0.5071863 0.51412696 -0.39678666 0.25399768 -0.399898 -0.3095507 -0.20391555 -0.3509693 -0.008537189 -0.68763405 -0.09715838 -0.061431974 -0.07572561 -0.2409836 0.9575675 0.48596138 0.1365701 -0.90225464 -0.28227463 -0.96310526 0.6652388 -0.21120018 -0.32647806 0.27518696 0.15988098 -0.06699151 -0.37808487 0.2895694 -0.72148514 -0.0073066377 0.8110105 0.02812529 0.60378385 0.03788694 -1.1018547 0.035364978 -0.12908365 -0.09464894 -0.12489692 -0.26460323 0.37548533 -0.6145093 0.69236064 -0.6333995 -0.14428753 0.29064608 -0.1936653 0.49990678 0.49995342 0.2491979 0.5785546 -0.70680165 0.58455944 0.81848264 -0.03935578 0.073503576 0.1765463 -1.3721567 0.7384104 -0.94667715 0.00094032596 0.7225856 0.018114578 -0.46215835 0.35362804 0.05459365
face 0.19554582 0.8712407 0.49548864 0.036202196 0.42130676 0.05066676 -0.3786896 -0.53705645 0.5678744 -0.23922104 -0.46382478 -0.01700132 -0.5399613 0.10963098 0.736448 -0.022024222 -0.0405155 0.35969585 0.40809432 -0.50631374 -0.93235046 -0.34768012 0.060617864 -0.71716356 -0.27674505 0.15676704 0.0053320443 -0.030720597 -0.3458566 0.09283399 0.5835667 -0.9389419 -0.30037314 0.68656945 -0.43235308 0.4553253 -0.12874436 0.260735 -0.6139266 -0.40531883 0.08099976 -0.12170618 -0.002708148 -0.5320972 0.03124424 -0.21436912 -0.2816074 -0.32642135 1.1432546 0.85598177 -0.20658459 -0.9414563 -0.11009236 -0.8830501 0.66462207 -0.40008968 -0.4219911 0.054833066 0.09353489 -0.15383586 -0.37540293 0.1964076 -0.25802967 -0.19508412 0.8291104 0.015491249 0.6298323 0.07494038 -0.6859719 -0.20808376 0.028456705 -0.10661174 0.047731873 -0.23425235 0.24489385 -0.49577615 1.3548325 -0.22354956 -0.3485516 0.038096514 0.12819485 0.37953883 0.23593579 0.0044546262 0.68601424 -0.7566063 0.45419753 0.46375653 -0.2522459 0.20839624 0.11313213 -1.0516284 0.7992362 -0.74714434 0.19457391 0.58479834 0.33135146 -0.46101657 0.42897525 -0.14232072
obstruction -0.021144293 0.55237055 0.10188983 0.07842878 0.20264198 -0.0024938511 -0.17792968 -0.096988395 0.07974412 -0.43540156 -0.13528962 -0.12738183 -0.1325735 0.33762676 0.35353336 0.04578597 0.14370182 -0.04530808 0.27458644 -0.26629964 -0.356089 0.04792923 -0.031903427 -0.15499318 -0.40795586 -0.060384016 -0.07694134 0.044672653 -0.10717509 -0.07432474 -0.09070741 -0.73543835 -0.05491049 0.17582455 -0.3022799 0.34412172 -0.27641696 0.25962272 -0.1414309 -0.13101639 -0.316247 -0.32258406 0.03831617 -0.4818985 0.017908113 0.10158374 0.07600686 -0.13574843 0.5938435 0.14121696 0.07989458 -0.4898235 -0.002231602 -0.47401404 0.43285224 -0.26963595 -0.24717905 0.2522895 0.27840367 0.20148034 -0.06643069 0.25155526 -0.5227005 0.041314006 0.59003633 -0.065284826 0.21523964 0.005069823 -0.9217452 0.12555718 -0.049207028 -0.029252931 -0.100459196 -0.18195577 0.48731574 -0.54504824 -0.006478008 -0.52509207 0.017850315 0.18032378 -0.2844163 0.3539523 0.26687443 0.23624714 0.09543957 -0.3679942 0.4844281 0.5945024 -0.17053875 -0.017729307 0.13540146 -0.93277884 0.39022094 -0.7401465 0.028820477 0.4858468 -0.11077766 -0.33574417 0.069010004 0.09045959
complicated 0.11036774 0.5032026 -0.053112656 0.2210914 0.053736527 0.16264057 -0.1959218 -0.3593659 0.19868925 -0.3218084 -0.29141608 -0.15078847 -0.08783306 0.12715025 0.45807275 -0.02655305 0.095586434 0.0045609865 0.1844028 -0.16180877 -0.20340785 -0.17694278 -0.010894861 -0.30161256 -0.3435598 0.12728015 -0.06274188 0.035522643 -0.13450353 -0.11159942 -0.13756536 -0.55913264 -0.14744526 0.065568574 -0.32046193 0.35943383 -0.14193434 0.2058679 -0.18263544 -0.06899499 -0.3720416 -0.11876186 -0.09746193 -0.37638626 -0.09614434 0.14515565 0.060482092 -0.12252364 0.4693035 0.18669713 -0.27574572 -0.28999984 0.05617587 -0.24985918 0.23945993 -0.24888483 -0.24620393 -0.08189979 0.2175749 0.24434319 0.0034446376 0.21597044 -0.61898935 -0.02254635 0.52731806 0.039701346 0.33905262 -0.043710668 -0.55433786 0.03636105 -0.05813572 -0.07115097 -0.024321454 -0.17379713 0.37403062 -0.3635763 0.28104982 -0.13838239 0.06311282 0.110018834 -0.11414281 0.27104393 0.30937415 0.16258743 0.24776503 -0.2963186 0.47720817 0.37791395 -0.13149261 -0.044553712 -0.1891557 -0.6664771 0.24441141 -0.76967365 -0.019253183 0.3027773 -0.12506156 -0.59008265 0.042459086 0.047495935
skin 0.1667288 0.87449896 0.26108825 0.19943468 0.5414441 0.1592441 -0.6367804 -0.76194364 0.08262711 -0.19920889 -0.35876763 -0.44060317 -0.66206264 -0.052224163 0.50514984 0.072736695 0.06337058 -0.45925325 0.31246766 -0.11511199 -0.3905174 -0.21652956 0.239111 -0.24010222 -0.45687908 -0.09168661 -0.28882614 0.027863361 -0.13314684 -0.22350083 -0.35087273 -0.6822538 0.04521859 0.18162861 -0.17618014 0.25358093 -0.106063664 0.3649105 -0.19256546 -0.41240078 -0.26486582 0.042711988 -0.2307187 -0.3611861 0.026354557 -0.018891579 -0.13545589 -0.086301 0.3851936 0.39211506 -0.43584585 -0.4976986 0.51243037 -0.0933299 0.06746717 -0.41024178 -0.2651918 -0.5392531 0.2792427 0.46634048 -0.030495716 0.27690953 -0.32977986 -0.24990119 0.7889631 -0.093176134 0.66203576 -0.0689086 -0.34264696 0.11550135 0.042130668 0.32648075 0.11960392 -0.08780852 -0.075342596 -0.41740245 0.42786953 0.22520658 0.09701346 0.13409278 -0.082649596 0.15280315 0.41955295 -0.015635394 0.3337 -0.03980926 0.26309332 0.23894352 -0.44661218 -0.22185352 -0.17199484 -0.37203526 0.36290196 -0.8713485 -0.09543742 0.24292934 -0.08913605 -0.91336554 0.066176794 -0.015684767
laceration 0.2082177 1.0647826 0.38565686 -0.04243944 0.34930882 0.11510839 -0.37712574 -0.25687397 0.39645967 -0.4773432 -0.19279845 0.0028237016 -0.13058956 0.34955484 0.5684328 -0.15978776 0.056291163 0.26351148 0.37791854 -0.3442464 -0.9159208 -0.0077583324 -0.27013236 -0.62725234 -0.61538595 0.19302979 -0.20782836 -0.06642328 -0.20121309 0.10075376 0.36595756 -1.0372391 -0.19913127 0.52511686 -0.5511493 0.38515693 -0.39893323 0.25478578 -0.4347701 -0.3661548 -0.15104458 -0.34418505 -0.047580574 -0.67935705 -0.09157369 -0.09413088 -0.040823143 -0.2004463 0.96756846 0.50470144 0.20438056 -0.9248724 -0.26262042 -0.9398718 0.7078293 -0.24805172 -0.32194197 0.30579802 0.09329259 -0.018277086 -0.4536245 0.3789063 -0.739257 0.015465099 0.69982994 -0.052728586 0.6218244 0.006771538 -1.0879881 0.012833981 -0.092795216 -0.06899327 -0.11295661 -0.2686172 0.21904041 -0.6197601 0.75173134 -0.6546508 -0.09190074 0.27306482 -0.19960886 0.47554076 0.5578912 0.21053666 0.6417266 -0.7138733 0.5127373 0.8423498 -0.012406318 0.014066231 0.16925962 -1.3456662 0.7929917 -0.9463745 -0.032581843 0.77891415 0.030285742 -0.46064994 0.46580127 0.06580842
congenital 0.11725177 0.3634745 -0.18396036 0.39938927 0.030288756 0.19029433 -0.2504565 -0.5158227 0.21160074 -0.12642911 -0.3741967 -0.19225806 -0.09309991 -0.11949008 0.44945267 0.005634982 -0.07870682 -0.2109725 0.12723249 -0.17215504 0.089622915 -0.22161579 0.027920054 -0.24495646 -0.29004645 0.051895887 -0.059437804 0.02091313 -0.12529893 -0.21733928 -0.3616609 -0.49357808 -0.04650105 -0.008417569 -0.2542586 0.43359149 -0.14462586 0.1464342 -0.027737357 -0.017908474 -0.31495416 0.031670902 -0.07114223 -0.2506584 -0.045695484 0.07032228 -0.0012622834 -0.035056397 0.07392186 0.16449319 -0.44453418 -0.26472765 0.12824364 -0.1336985 0.08597248 -0.1277493 -0.23227982 -0.3477211 0.3100442 0.19688146 0.1735859 -0.041629408 -0.4739974 -0.07364624 0.61102116 0.16320886 0.30973566 -0.034179505 -0.22570767 0.09824881 -0.10002953 0.057866022 0.015916824 -0.09673565 0.33066058 -0.28168717 0.26044965 0.09586537 0.03262109 0.14699972 -0.051838893 0.20110208 0.18633823 0.18132557 0.17211236 -0.07382301 0.32512465 0.12944847 -0.17152275 -0.017056407 -0.18484642 -0.4824069 0.0708218 -0.7306042 0.009206812 0.1497119 -0.14537449 -0.5909717 -0.06617787 -0.0961275
benign 0.094314456 0.5732141 -0.0136945825 0.35115907 0.10011365 0.1982451 -0.35005668 -0.6167754 0.2488366 -0.14022227 -0.44482335 -0.21361989 -0.22468446 -0.1034418 0.51272243 -0.021047777 -0.027428854 -0.20189655 0.21868977 -0.23319706 -0.072307386 -0.21374226 0.022140112 -0.28285486 -0.3603463 0.064130604 -0.07416296 0.083318934 -0.121513486 -0.22393253 -0.33614936 -0.6434255 -0.09602756 0.05122678 -0.24422966 0.4888031 -0.21390332 0.23144351 -0.10858296 -0.10591278 -0.3411716 -0.030206935 -0.017656693 -0.29297164 -0.00928818 0.037889276 0.011996916 0.0001451819 0.18565962 0.30084658 -0.4650258 -0.4295598 0.20128553 -0.2156216 0.09715288 -0.21888219 -0.2581852 -0.28554666 0.316741 0.22680998 0.15004146 0.009340833 -0.48030722 -0.07171115 0.77397853 0.12760127 0.526931 -0.032234523 -0.4077657 0.14600815 -0.05742933 0.10768455 -0.015030132 -0.058189854 0.29859656 -0.40193155 0.33506426 0.069817394 -0.011271124 0.19150643 -0.051428884 0.19340993 0.3090103 0.19506393 0.23789266 -0.19031468 0.38459593 0.1832286 -0.27886447 -0.030360462 -0.2572257 -0.57451326 0.14548483 -0.89132 -0.020831201 0.23821144 -0.124648616 -0.7610078 -0.08384665 -0.120359294
dislocation 0.17999752 0.47371453 0.051465515 0.2859037 0.25012517 0.117185235 -0.19681019 -0.5377031 0.2790693 -0.083262496 -0.3666015 -0.04293819 -0.29377666 -0.10896921 0.37910327 -0.039156333 -0.05020776 0.07019546 0.099705115 -0.17030431 -0.2505864 -0.12007659 0.032721993 -0.38997242 -0.14090481 0.09364826 0.1086745 -0.06368283 -0.17019953 -0.107724264 -0.06864519 -0.43079144 -0.13113165 0.28416866 -0.2247882 0.3032252 -0.06028765 0.20360002 -0.17911917 -0.04046583 -0.2296796 0.09927263 -0.1364149 -0.22593173 -0.055086896 -0.021690266 -0.08069084 -0.056301508 0.43777546 0.41359776 -0.38313377 -0.27268004 0.07103119 -0.2604812 0.19496216 -0.13681068 -0.23217362 -0.39204675 0.06666345 0.06998769 -0.05890893 0.054199256 -0.24317078 -0.09234407 0.5182124 0.056428526 0.4178043 -0.15716031 -0.20084548 -0.079233624 -0.14473352 0.026301684 0.014239688 -0.07636976 0.120496094 -0.16734149 0.5439469 0.10928036 -0.14095242 0.12420531 0.05935178 0.057576947 0.03141682 0.0091728885 0.4823109 -0.18603078 0.28683287 0.09635885 -0.29330978 0.0726424 -0.14433861 -0.47888735 0.1619063 -0.5350329 0.11678703 0.09320568 0.045936164 -0.5097491 -0.06705303 -0.1549085
eye 0.18613134 0.6408786 0.27462974 0.17569637 0.21945117 0.12836806 -0.45216763 -0.65003985 0.26225132 -0.10540866 -0.4107358 -0.041037455 -0.25747338 -0.019186005 0.5303756 -0.009799951 -0.041650202 -0.10382925 0.24599114 -0.2692599 -0.18730381 -0.2895972 -0.030183842 -0.34811634 -0.46349737 0.06487168 -0.16594426 -0.0062567424 -0.24425183 -0.10059403 -0.057230167 -0.38217065 -0.017519433 0.26931015 -0.35604373 0.3674812 -0.20155834 0.24161936 -0.19767165 -0.12132728 -0.23485115 0.15207621 -0.1649779 -0.36261952 -0.124303035 -0.14970244 -0.009579204 -0.04187303 0.28031412 0.3795927 -0.3675215 -0.5247254 0.14438598 -0.13319504 0.10776813 -0.19971803 -0.16689567 -0.18274014 0.11329299 0.14020438 0.08677502 -0.013896332 -0.5652928 -0.13718316 0.5251028 0.012235782 0.4494032 -0.008503551 -0.2546112 0.083022624 -0.018092856 0.116023555 0.17779575 -0.16773313 -0.10012164 -0.0781062 0.60003203 0.031954437 0.036920555 0.11232232 -0.060564518 0.06784676 0.32029065 0.021203173 0.4590303 -0.26511517 0.07432465 0.26636258 -0.15001509 -0.034434795 -0.20426647 -0.42922157 0.15570742 -0.7407895 -0.06084713 0.32533705 0.023983497 -0.5882736 0.14968273 0.01935529
affecting -0.1409459 0.37351376 -0.58363247 0.41370746 -0.03681345 0.29570383 -0.15222079 -0.42375544 0.15301025 -0.33366698 -0.29946348 -0.5440917 0.004394801 0.08607986 0.6167128 0.026067806 -0.08644644 -0.4327386 0.23777507 -0.19081914 0.33596095 -0.29173294 0.2468458 -0.06435241 -0.4025886 0.09427795 -0.11778034 0.020689175 -0.060924556 -0.17888913 -0.7188522 -0.82881576 -0.10474666 -0.22200333 -0.2821599 0.62049496 -0.15202346 0.11520243 0.094142735 -0.032376964 -0.5727834 -0.2054027 -0.021631157 -0.46291426 0.077210695 0.21848406 -0.026750758 -0.10119816 0.08134908 -0.034694105 -0.25937974 -0.2858361 0.26745754 -0.28307474 0.14650305 -0.2487987 -0.36368948 -0.35921037 0.58638924 0.40227264 0.21597527 -0.019917132 -0.76220644 -0.027173098 0.9551746 0.4108467 0.29775667 0.015975876 -0.673376 0.35733265 -0.15084244 -0.08402509 -0.112456165 -0.17584197 0.85694563 -0.48552084 -0.23476091 -0.14702599 0.19121335 0.34888124 -0.17836405 0.5184543 0.34748933 0.44313374 -0.059422944 0.047424816 0.7517406 0.2732528 -0.22354516 -0.012796158 -0.06313009 -0.85280716 0.25257137 -0.8401395 -0.05986036 0.33516908 -0.48371863 -0.7258896 -0.14732248 0.038189154
