1815 100
unspecified -0.2021028 -0.19141293 -0.030852031 -0.08586308 0.037028745 -0.26052332 -0.038447402 0.1779485 -0.23318131 0.3950761 -0.013223652 0.17322327 0.26708 -0.27079013 -0.24543545 -0.6038026 -0.2680695 -0.72179943 0.07792838 -0.0040947627 -0.54086834 -0.4587363 -0.17271242 -0.04355569 -0.1947099 -0.24637516 0.56550944 -0.10144764 0.09345386 -0.23595087 -0.13520181 -0.17044882 -0.01758407 0.14488302 -0.0127150845 -0.19301702 -0.07784243 0.038196236 -0.15876736 0.19374761 -0.2045765 -0.23490225 -0.00045592897 -0.3207881 -0.8576824 0.13447745 0.08663457 0.024115808 -0.08749735 0.21448763 0.3943007 0.24655852 0.16907328 -0.5685674 -0.114020884 -0.4643313 0.3576924 -0.20233692 -0.090331875 0.039087508 0.2515936 0.11628981 -0.11681166 0.15579243 0.001184848 -0.028049111 -0.14562152 -0.45787776 -0.49352667 -0.09639386 -0.09099188 0.36831796 0.03417811 0.20629737 0.33654684 0.058876533 0.5938438 0.44691205 -0.11298902 -0.40165272 0.0876118 -0.1633625 0.12838106 0.09332411 0.1248898 -0.20706095 0.21745935 -0.070101835 -0.13878773 0.1654125 -0.2746201 -0.5314748 0.08294618 -0.08619013 0.26628888 0.52447224 0.01213019 0.039405324 -0.59002674 -0.030174034
without -0.15195653 -0.6930649 -0.33880186 0.21549937 -0.47683188 -0.3839189 -0.009836733 0.1973422 0.26887342 0.2943011 0.24705386 0.6043217 0.4999539 -0.1480648 0.39133364 -1.5224509 -0.74718183 -1.561611 0.12718372 -0.25460684 -0.28574172 -0.35133666 0.17121322 0.012832438 -0.73083043 0.37416947 1.0622612 -0.22811255 0.21331133 -0.43881333 0.042596236 -0.4678719 -0.2484891 0.45559704 0.4608027 0.10451237 0.4083375 0.4395989 0.12248964 0.034148693 -0.39869246 -0.5764229 0.3312096 -0.048802514 -0.8098896 -0.10250149 -0.0852195 0.5594022 -0.18189502 -0.3782096 0.60680324 0.03273774 -0.04167168 -0.96178275 0.1553833 -0.4878697 0.34698552 -0.570332 -0.2638375 -0.072450854 -0.258086 0.19886671 0.17959645 -0.006217628 -0.35794535 -0.11312949 -0.6762708 -0.7384221 -0.4045014 0.18685907 0.3508334 0.600113 -0.007643005 0.45797637 0.6458285 -0.4707965 0.18427503 0.6920113 -0.51772165 -0.11323905 0.83770347 -0.29959553 -0.14950429 0.06193461 0.09871309 0.24402383 -0.0009572191 -0.47029424 -0.71948475 0.43484458 -0.38634226 -0.59562373 0.5794233 0.28727636 0.1709915 0.9318364 -0.06881265 0.008469107 -1.6185904 0.11380553
mention -0.057543024 -0.7885668 -0.37272558 0.21541677 -0.5097874 -0.4579318 0.0037737244 0.20416692 0.3887054 0.30605212 0.3030107 0.6709717 0.5918978 -0.18232898 0.49648833 -1.7107177 -0.86157733 -1.4851184 0.093373 -0.24324238 -0.25806272 -0.27575684 0.16938458 -0.06729537 -0.8814184 0.45396492 1.320507 -0.35755944 0.2463125 -0.5228949 -0.014279313 -0.5215748 -0.2544668 0.46835047 0.48219946 0.14515561 0.51240844 0.57307726 0.21133156 -0.05878536 -0.5221104 -0.79588145 0.39704058 -0.015973747 -0.7972337 -0.0061963196 -0.2628507 0.41292566 -0.09886816 -0.3862049 0.7375311 -0.059649672 0.027912471 -1.0512202 0.2447861 -0.51827276 0.29575002 -0.66302747 -0.29098544 -0.06773266 -0.2535317 0.14595662 0.20976137 -0.062141746 -0.4380504 -0.25430545 -0.80385613 -0.8604976 -0.5140145 0.2656369 0.38365623 0.6777228 0.039374642 0.4371077 0.6030441 -0.6370258 0.232401 0.6969334 -0.7122517 -0.063136704 0.93059385 -0.39543778 -0.24856296 0.12034627 0.20689309 0.31198594 0.08429932 -0.44414073 -0.8144633 0.43692032 -0.2787726 -0.5687141 0.65929747 0.3622169 0.16087945 1.1572721 -0.041722603 0.01822511 -1.6836014 0.1375079
specified -0.17041041 0.02773753 0.04746387 -0.25660995 -0.3035765 -0.2811932 -0.08645649 0.17317037 -0.082477495 0.22739075 0.10085658 -0.5372163 0.25612497 0.11603001 -0.20005731 -0.38793176 -0.29579985 -0.22292838 0.41433784 -0.27657285 -0.554049 -0.31084624 0.13099827 0.08063934 -0.35249734 -0.46279338 0.1085164 -0.047632735 0.01900224 0.028583491 -0.048710965 0.12734796 0.036244094 0.38054198 0.2608786 0.16050707 0.16784613 -0.030343808 -0.21675599 0.35456672 -0.33635736 -0.1739569 -0.031639542 -0.32099333 -0.8148696 0.1967777 0.16407268 0.02985048 -0.3915599 0.06368529 0.38716948 0.055291552 0.052164495 -0.45097178 -0.1956417 -0.5124712 0.119464226 -0.06794062 -0.21718231 0.07446859 0.06293466 -0.15593396 -0.08259719 0.12928812 0.10390571 0.12985106 0.3264681 -0.49065942 -0.30474344 0.083122015 -0.28928173 0.25774822 0.18036316 0.12002771 0.20054942 0.32692787 0.30511144 0.2779668 0.47747877 -0.14463137 -0.09586198 0.029430877 0.26287818 0.06587752 0.07851961 -0.31627977 0.06856894 -0.621182 0.46076813 -0.09131195 0.0127998125 -0.42518145 0.1468022 -0.38192776 -0.023135059 0.25697052 -0.058752008 0.013711805 -0.17535631 0.042467497
open -0.45920634 -0.41548225 -0.34450224 0.019319586 -0.6601226 -0.38840887 0.055395234 0.2547262 -0.03908508 0.44520637 0.021745719 0.34218642 0.5995861 -0.17336185 -0.26814353 -1.0597811 -0.3807931 -2.0723352 0.12098292 -0.43829805 -0.37986094 -0.69828063 -0.22667976 0.22746186 -0.6933694 0.033694778 0.78290945 -0.02290794 0.3921793 -0.43506002 0.33933938 -0.6022089 -0.36249992 0.32154396 0.14467122 0.047064766 0.18000758 0.42040667 -0.3090589 0.29387522 -0.037804104 -0.38153014 0.23878959 -0.27002084 -0.9521978 -0.48822892 0.37139824 1.1230798 -0.26576513 -0.17420182 0.6429546 0.33493373 -0.23400854 -0.99494886 -0.26770243 -0.5110246 0.5801014 -0.44456533 -0.13088603 0.06391678 0.13355534 0.5865466 0.25913242 0.2955903 -0.25897488 0.05401125 -0.27558023 -0.56336176 -0.26644176 -0.075152874 0.48476362 0.840927 -0.16627097 0.3358295 0.8005315 -0.19971722 0.3475308 0.55854124 0.04176233 -0.47191188 0.83074343 -0.2997074 0.18938312 -0.37223879 -0.1497621 -0.16938935 -0.20843732 -0.29300952 -0.7780941 0.5453333 -0.81518745 -0.8623558 0.32153058 0.13805015 0.49226645 1.0732474 0.011394171 0.5318991 -1.6137763 0.21794549
injury -0.29116204 -0.21709122 -0.20976686 -0.039086133 -0.46719858 -0.30267575 -0.0009668188 0.15014328 -0.1549372 0.37982646 0.028509494 0.17142299 0.47348148 -0.081225656 -0.21997589 -0.7201408 -0.2511085 -1.3811256 0.20825393 -0.2857132 -0.35885218 -0.4523125 -0.15859017 0.17455666 -0.4329542 -0.09156386 0.5211604 -0.10100085 0.2633173 -0.31657663 0.11060332 -0.41076753 -0.20782062 0.27476576 0.07303608 0.06328805 0.065896325 0.26173747 -0.24985865 0.29865712 -0.14533627 -0.29000592 0.15259728 -0.2274604 -0.75482976 -0.33454165 0.24952447 0.74470276 -0.20113727 -0.08596863 0.35195237 0.1591056 -0.06706586 -0.6045899 -0.16624191 -0.46031287 0.506295 -0.29341674 -0.110253215 0.16538234 0.13371739 0.3806264 0.18045337 0.26517853 -0.10467568 0.16292515 -0.16905612 -0.4858395 -0.28849944 -0.019856688 0.2424905 0.65446794 -0.08525139 0.2471513 0.67071646 0.0063819927 0.28255326 0.4661964 0.16243495 -0.27093968 0.37140992 -0.14438558 0.24546267 -0.15920381 0.013230275 -0.078427285 -0.11788894 -0.2621253 -0.35009575 0.33485243 -0.54483694 -0.67087495 0.22624956 0.036225125 0.3539459 0.69746596 -0.017410517 0.26984125 -1.04464 0.10235297
complication 0.11695503 -0.7431455 -0.20708695 0.060060285 -0.41139337 -0.61949354 0.038147133 0.19512294 0.4026209 0.3881174 0.23345734 0.47561303 0.51014245 -0.15647504 0.83728546 -1.5560547 -0.8502665 -0.9088299 0.19791126 -0.15698735 -0.23594528 -0.06600279 0.32698435 -0.21137692 -0.78021085 0.24073856 1.5141149 -0.5388098 0.13396604 -0.4408986 -0.35518414 -0.36681753 -0.12254799 0.53297126 0.6290914 0.20509344 0.70451415 0.45263666 0.38275594 -0.0029023064 -0.6511559 -0.8681943 0.30621508 -0.079199955 -0.66829664 0.26533127 -0.33068505 -0.11636391 0.05904089 -0.2255426 0.66420966 -0.41730177 0.35299245 -1.0124303 0.43643206 -0.6380003 0.18659222 -0.7667223 -0.30804628 -0.093384415 -0.3137853 -0.16567463 0.06321815 -0.27266377 -0.3170456 -0.26028946 -0.7035285 -1.196157 -0.38782313 0.3272477 0.15945584 0.5450388 0.17310901 0.42510784 0.503005 -0.5103992 0.34160835 0.6309627 -0.78893733 -0.015976269 0.5999438 -0.30750746 -0.25686532 0.47079572 0.2911524 0.3205593 0.1704801 -0.6272142 -0.45370907 0.12825471 -0.043059044 -0.59434146 0.642165 0.1462303 -0.052282535 1.1059945 -0.06890077 -0.21986216 -1.3014934 0.041704148
fracture -0.30812794 -0.17810842 -0.2850166 -0.18618877 -0.5733735 -0.22897117 0.00618756 0.15909047 -0.3234208 0.53943264 -0.10155432 0.06687776 0.5623029 -0.27592894 -0.47653753 -0.4776907 -0.2832585 -1.6633304 0.13988136 -0.39045244 -0.27729404 -0.70313734 -0.29315597 0.35040924 -0.49293694 -0.13124287 0.4042995 0.08514201 0.24605922 -0.27747017 0.33253023 -0.5685762 -0.31495288 0.21262899 -0.028832052 0.041584667 0.044970583 0.33397073 -0.41486323 0.3354986 0.00064426777 -0.39621797 0.2752977 -0.29902497 -0.94665575 -0.4704403 0.4611857 1.0059224 -0.27278966 -0.05342299 0.43599966 0.29924104 -0.23698388 -0.6615217 -0.45615053 -0.4168433 0.5780275 -0.23361602 -0.17358702 0.08131759 0.2803126 0.45859706 0.31169033 0.40646747 -0.11265854 0.16731118 -0.04693245 -0.48293054 -0.2860557 -0.08620966 0.30751416 0.7190644 -0.20804298 0.2776701 0.5575326 0.0509583 0.27032903 0.3576802 0.35909188 -0.58691555 0.5801949 -0.12603396 0.35746634 -0.4796914 -0.21990307 -0.33463684 -0.16391037 -0.20409992 -0.34532496 0.4790748 -0.67562085 -0.965612 0.05147921 -0.089164734 0.5118274 0.83937806 -0.0025205035 0.587054 -1.1754142 0.26205677
loss -0.57895714 -0.68840533 -0.5966955 0.58037263 -0.61838466 -0.3638814 -0.20342353 -0.3918967 -0.23207198 0.2464323 0.19559065 0.19693117 0.7299607 -0.039813075 -0.4890219 -1.4396831 -0.8948309 -2.1685014 0.64439094 -0.41310003 -0.92235583 -0.47965625 0.40517446 0.3556 -0.8641003 0.49500299 0.17271557 0.17760439 -0.21722302 0.029675558 0.5433237 -0.14151984 0.008509604 0.545445 0.45357102 -0.020090615 -0.059732858 0.22334929 -0.41798738 0.27576238 -0.4300716 0.026340278 0.2101643 0.11919158 -1.6441412 -0.31555635 0.5362211 1.2659165 -0.21706566 -0.4318353 0.6099523 0.60055095 -0.59603876 -0.754833 -0.18242168 -0.9651675 0.59938884 0.16458389 -0.24813308 -0.01790178 -0.073514275 0.35172486 0.21093863 0.36874592 -0.43022665 0.5912577 -0.45895797 0.031166803 -0.81757134 0.09955006 0.48906162 0.8942179 0.015998947 0.095233224 1.1640681 -0.25496647 0.48605236 0.99690336 0.25728977 -0.7193549 0.87978303 -0.10504966 0.05089354 -0.023356423 -0.20133103 -0.31826928 -0.37014672 -0.5422902 -0.29287443 0.76711655 -0.6160682 -0.6508315 0.3610846 0.33340386 -0.16286792 0.40497893 -0.08235143 0.14261399 -1.7237345 -0.08555758
condition 0.1081903 -0.8161825 -0.22914 0.06968882 -0.4300233 -0.6549885 0.03499956 0.19407476 0.43241343 0.43094134 0.23329239 0.4174587 0.6137619 -0.13124585 0.8697061 -1.6673363 -0.9920103 -0.94440526 0.27635604 -0.20158076 -0.2502694 -0.11345045 0.42939997 -0.24479106 -0.9334598 0.26503164 1.5683283 -0.59325325 0.08448448 -0.4073872 -0.40558907 -0.36832026 -0.14131688 0.594853 0.71021235 0.27782804 0.7776892 0.47916552 0.3827437 -0.009718944 -0.7739679 -0.94306856 0.26602483 -0.029453244 -0.821005 0.30187276 -0.3346491 -0.102429986 0.07723371 -0.2822025 0.74855065 -0.421785 0.33357906 -1.1250092 0.38991004 -0.72912157 0.18433748 -0.75279045 -0.3900772 -0.14648685 -0.36576104 -0.202422 0.066751726 -0.23307909 -0.39007202 -0.28363907 -0.7369522 -1.2689604 -0.41780153 0.39328566 0.16315831 0.64962107 0.17744914 0.4395309 0.5474476 -0.5502178 0.3990179 0.6870978 -0.85451484 -0.04715887 0.6770286 -0.2767475 -0.29349363 0.5040954 0.2954899 0.26837635 0.17183372 -0.7235634 -0.4153086 0.14880271 0.012117186 -0.6254003 0.70389044 0.16279505 -0.089275256 1.1825982 -0.07471866 -0.21398611 -1.4395394 0.061317682
neoplasm -0.34082383 -0.022928828 0.108926415 -0.065057814 -0.5511331 -0.24312288 -0.0010477885 0.2796837 -0.064401306 0.19766949 -0.010354023 -0.6508879 0.45199353 0.19034375 -0.36832437 -0.49424368 -0.2315985 -0.501811 0.37175724 -0.34819666 -0.5579945 -0.45267496 -0.078797795 0.2966334 -0.5287167 -0.41110113 0.20192939 0.004962381 0.1220083 -0.10851612 0.022194002 0.088822275 -0.07049657 0.40213335 0.11816482 -0.0081187505 0.15980227 0.10224077 -0.18959436 0.3950167 -0.29108226 -0.30016652 -0.12477244 -0.5138312 -1.0731844 0.10768653 0.21966982 0.1042055 -0.4730745 -0.10875173 0.47895136 -0.0028748792 0.075295135 -0.45879164 -0.3765518 -0.63430476 0.32186934 0.091028124 -0.18230401 0.10252539 0.076909184 -0.20763345 -0.20570417 0.112314254 -0.07501441 0.2772333 0.25768024 -0.336101 -0.3167449 0.17592685 -0.4194476 0.31323224 0.13353992 0.12122399 0.17960876 0.1275531 0.31097543 0.110478096 0.5533875 0.03517903 -0.041123614 0.014591266 0.16995639 -0.081171595 0.20666388 -0.32084778 -0.10368858 -0.59509856 0.36085197 0.13986044 -0.10047275 -0.5311587 -0.11929481 -0.17739436 0.07582917 0.2134882 -0.22342017 0.05843122 -0.48723698 0.16746219
malignant -0.30033213 -0.009231498 0.027008818 -0.19922547 -0.4093264 -0.3192143 0.009125245 0.3114941 -0.0996146 0.33093828 0.027788348 -0.7045339 0.3170076 0.20038459 -0.23813967 -0.4030117 -0.25831783 -0.41689643 0.36557323 -0.22593233 -0.43474248 -0.29030007 0.029223537 0.27728194 -0.4241979 -0.510371 0.080616705 -0.07034094 0.05361842 -0.02337285 -0.060775425 0.100370415 -0.028998056 0.50075305 0.26533973 0.085746594 0.19770466 -0.0008713051 -0.25702876 0.45608306 -0.3188877 -0.22314177 -0.0109195225 -0.36182606 -0.8982501 0.18116459 0.2913337 -0.013324345 -0.49497503 0.023978323 0.29684258 -0.08697478 0.120729975 -0.39267987 -0.2844785 -0.5590627 0.28133246 0.046063766 -0.22179355 0.165748 0.034089588 -0.30237502 -0.12614521 0.0718624 -0.11332206 0.16620205 0.26461425 -0.44401813 -0.2407906 0.14122513 -0.35567227 0.37211823 0.11923573 0.1416477 0.0812707 0.20157246 0.22348453 0.10718271 0.44297445 -0.07790629 -0.029162541 0.11198595 0.20576677 -0.021822425 0.14171904 -0.37759852 0.02551943 -0.630985 0.36297432 -0.040240217 -0.057068788 -0.5007681 -0.0017710823 -0.26543117 -0.012542231 0.32915255 -0.16123027 0.15981223 -0.4402247 0.020630576
wound -0.34247053 -0.42492783 -0.35981178 0.16013257 -0.5388322 -0.36220935 0.009828912 0.21637633 0.027391143 0.43288416 0.043053664 0.37858033 0.5706327 -0.19816342 -0.13967307 -1.0959998 -0.45224637 -1.8863204 0.0662296 -0.34854087 -0.28099877 -0.5943209 -0.2065715 0.14143327 -0.6222364 0.09560994 0.8049281 -0.091217585 0.37754956 -0.4198096 0.22805107 -0.6092918 -0.33426303 0.31157878 0.22597046 -0.032238055 0.22446968 0.40813383 -0.20166427 0.22989896 -0.07371925 -0.48091277 0.2897473 -0.2359491 -0.8931428 -0.4235065 0.26921925 0.9858859 -0.19634843 -0.23456791 0.6384467 0.2858594 -0.21930704 -0.9083084 -0.184967 -0.4356198 0.4692191 -0.48656607 -0.1665254 0.037998665 0.11880542 0.49766606 0.23389427 0.25674272 -0.32330805 -0.025565382 -0.34559512 -0.5706337 -0.29507902 -0.0045369864 0.52010363 0.7253658 -0.18868785 0.39602444 0.6897356 -0.23519953 0.31791285 0.59766793 -0.0729761 -0.36033842 0.87727827 -0.21555516 0.16060592 -0.330227 -0.08444947 -0.032802995 -0.13761726 -0.24143271 -0.74625814 0.54817766 -0.6993939 -0.7783591 0.28949633 0.17176539 0.42813885 1.0335982 -0.02517274 0.46312287 -1.5604509 0.15800661
antepartum 0.12132283 -0.7927159 -0.27554008 0.0045945975 -0.42701688 -0.6664836 0.01266585 0.17411152 0.3863666 0.39729634 0.22034135 0.47549334 0.5142185 -0.19385828 0.82627106 -1.6481347 -0.88605654 -0.9696809 0.259182 -0.20522799 -0.26083973 -0.11138952 0.400625 -0.19779837 -0.85772675 0.25372568 1.5723745 -0.5842 0.10604103 -0.43601274 -0.4037333 -0.38165206 -0.13209538 0.6063412 0.6538942 0.1937735 0.7110232 0.4734201 0.39894924 -0.017993946 -0.6666923 -0.907152 0.30512217 -0.067609064 -0.74974585 0.27751207 -0.3149674 -0.0790583 0.044302873 -0.24677324 0.7127351 -0.41251224 0.30392364 -1.0757886 0.41156566 -0.70019984 0.22281353 -0.7651954 -0.35592428 -0.09448411 -0.29840672 -0.17322454 0.06955464 -0.2459222 -0.3646602 -0.24389437 -0.7672545 -1.2086879 -0.45866105 0.34049395 0.1335684 0.591681 0.18555848 0.43407735 0.5500189 -0.5270086 0.37764883 0.6744193 -0.8129152 -0.0638279 0.6344247 -0.28221118 -0.279185 0.4746351 0.2986415 0.3060227 0.13267787 -0.6646297 -0.4164802 0.19346826 -0.013785579 -0.62926584 0.67103684 0.115092665 -0.046995874 1.1517644 -0.110090174 -0.21067117 -1.3937521 0.012790533
due -0.070233054 0.03163066 0.086452276 -0.32159874 -0.28939334 -0.32646644 -0.10031928 0.1912453 -0.07221272 0.2760756 0.14556718 -0.320664 0.2982985 0.09419319 -0.07623882 -0.45700258 -0.2788424 -0.26872718 0.37855363 -0.22351189 -0.5109287 -0.29252383 0.078975394 -0.06326265 -0.31901923 -0.45099422 0.36522236 -0.20807487 0.12531126 -0.09688914 -0.21054517 0.010969088 -0.006863074 0.34586933 0.24080677 0.20485766 0.16611624 0.024418859 -0.17730133 0.35059676 -0.38881585 -0.2686685 -0.023774307 -0.3194894 -0.7392967 0.18548822 0.0359599 -0.016338311 -0.32329822 0.09191647 0.27922288 -0.0025161193 0.14860235 -0.47153437 -0.064840935 -0.50372154 0.21862467 -0.25179625 -0.21419144 0.1598378 0.067798674 -0.096226536 -0.067888014 0.15408215 0.18201695 0.07779223 0.18002144 -0.6979403 -0.31571546 0.035349533 -0.25621146 0.3249172 0.18221387 0.18329383 0.32347417 0.34423715 0.36382416 0.4035439 0.3106825 -0.042732194 -0.16582364 -0.009502412 0.21945126 0.19605589 0.2510147 -0.12279709 0.14202878 -0.58191776 0.38200596 -0.07142227 -0.010739577 -0.4098842 0.27642414 -0.37114537 0.11918139 0.3807937 -0.07508858 -0.08720929 -0.25580937 -0.017515
involving 0.060174145 -0.13640061 -0.1400112 -0.7711343 -0.4508019 -0.34173733 -0.42626667 0.12733023 -0.9309213 0.42986283 -0.116059594 -0.42641452 0.24998933 0.035939563 -1.2350969 -0.3118774 -0.32308286 -0.1579185 0.729905 -0.2537271 -0.6979799 -0.56242037 0.08608726 -0.16253303 -0.43616137 -0.30424353 0.034738094 -0.15454964 -0.057176087 0.4760489 0.022815514 -0.18954234 -0.031194374 0.17010088 0.1144466 0.55351496 -0.44021684 -0.44166294 -0.81169456 0.49513257 -0.3775061 0.14744835 -0.2635817 -0.24453428 -1.4807615 -0.23169251 0.19653375 0.18354742 -0.60772055 0.38773623 0.58624583 0.682847 -0.060686987 -0.6055035 -0.4317829 -0.4602723 0.38682848 0.08349642 -0.60203505 -0.06144061 -0.03668318 -0.18840933 0.020168584 0.46540958 0.29074132 0.33135098 0.3396002 -0.49423346 -0.5245487 0.0617061 -0.35585904 0.29477558 0.20242979 0.0460067 0.44497347 0.83152395 0.57249045 0.62121475 0.8368566 -0.41776446 -0.02484237 0.21092135 0.26856807 0.04456939 0.05820539 -0.5979525 0.011809137 -0.4922991 0.76375496 0.22854038 0.044897053 -0.26868704 0.074979104 -0.6658936 0.34195775 0.56915486 -0.53488284 0.11642771 -0.6483029 0.1112172
tuberculosis -0.20416246 -0.048153296 0.014412992 -0.75603116 -0.7724423 -0.40726367 0.025559118 0.22905764 0.312941 0.322888 0.1327501 -1.0741316 0.38718173 0.26904342 0.6905174 0.2775977 -0.1779871 -0.21494758 0.8913167 -1.0180973 -0.045780517 0.15363163 0.23279245 -0.24672413 -0.13482904 -0.6981103 0.27607885 -0.4064232 0.411647 0.28264073 -0.60877234 0.30768135 -0.09072222 0.820746 0.62290955 0.4430366 0.9449299 -0.020807194 0.009744441 0.79612875 -0.08852335 -0.6578473 -0.2924868 -0.1838891 -0.19152866 -0.16372909 0.7702886 0.5942926 -0.12646504 -0.16466345 0.070263796 -0.36527255 0.25549036 -0.5960938 -0.02000125 -0.5644151 -0.12762041 -0.44490898 0.015244356 0.17053092 0.3478886 -0.47558922 0.25345433 0.14681512 -0.029362503 0.29359993 0.9505785 -1.1919068 0.68761617 -0.06570672 0.61832756 0.37215596 0.19446096 -0.11447825 0.70211244 0.58951735 0.44211766 0.2779002 1.1846018 -0.48819664 -0.09251874 0.19248529 1.0018897 0.3856053 -0.31774953 -0.2402049 -0.5167459 -0.90432554 0.45445758 -0.5660856 -0.18059234 -0.4209336 0.24394546 -0.7146713 0.03445885 0.44826314 0.2271924 0.119371116 0.09032891 -0.23703368
consciousness -0.6033719 -0.6519101 -0.516172 0.48873436 -0.81065625 -0.5062693 -0.01118449 -0.20335355 -0.3485634 0.5166128 0.17461747 0.62030077 1.0739397 0.040278763 -0.27275234 -1.508137 -0.6745219 -2.8292005 0.61819077 -0.40201515 -0.90113455 -0.45999077 0.14625794 0.528909 -0.76520634 0.42879346 0.6598197 -0.08635581 0.09094623 -0.4090474 0.3400285 -0.57254577 -0.12962843 0.55747235 0.24337015 0.082908444 -0.16452521 0.45441222 -0.39618766 0.420213 -0.3850953 -0.18539226 0.29526135 -0.04513554 -1.4872466 -0.6307533 0.583485 1.5041248 -0.024059316 -0.379742 0.37162116 0.36051372 -0.2819707 -0.7278174 -0.003074565 -1.1138687 1.0961367 -0.13674355 0.0208388 0.37657437 0.05500115 0.7609498 0.23318578 0.43058005 -0.34481016 0.68352103 -0.6504834 -0.25586182 -0.7932886 -0.054303057 0.6197584 1.4112066 -0.09422075 0.35667518 1.6878525 -0.243516 0.5675595 0.980978 0.14944392 -0.5882436 0.63358206 -0.19764346 0.3512308 0.043922246 -0.028896354 -0.09866021 -0.43845198 -0.46272415 -0.61833876 0.77335644 -0.9784972 -1.0181798 0.44442564 0.46843344 0.23561217 0.8437442 -0.019710282 0.20137993 -1.9799644 -0.11950454
closed -0.3059731 -0.15541646 -0.20896609 -0.24264856 -0.48312166 -0.17500976 0.059739575 0.16218612 -0.27058688 0.36975235 -0.13599715 0.0067331092 0.35374525 -0.2134299 -0.47202915 -0.30531698 -0.167984 -1.3444017 0.15319207 -0.32563797 -0.21620406 -0.60053176 -0.24070375 0.28362268 -0.42072064 -0.09569885 0.25251263 0.13503924 0.19942394 -0.16450371 0.35173357 -0.39748782 -0.26071358 0.14148062 -0.07301333 0.10391536 0.005699701 0.23605777 -0.38522884 0.24519175 0.066742636 -0.1730251 0.15221927 -0.22612013 -0.7227512 -0.37486708 0.40597653 0.87656176 -0.26518944 0.012329502 0.3511197 0.31585795 -0.2321007 -0.5759434 -0.42839602 -0.33395964 0.44258985 -0.12684411 -0.11401053 0.019142335 0.21749963 0.40318868 0.23181675 0.3615751 -0.038190115 0.1651413 0.017292544 -0.3166033 -0.1424549 -0.11487034 0.20199767 0.54278386 -0.1383256 0.14123006 0.44309774 0.056537822 0.18892974 0.22179076 0.3475178 -0.5389292 0.46538946 -0.13957874 0.21562059 -0.42285806 -0.2529808 -0.39267907 -0.20288977 -0.15009712 -0.2835446 0.36731315 -0.5696617 -0.69590116 0.058723733 -0.098966666 0.44807938 0.6440659 0.0027125557 0.5150391 -0.931149 0.2665365
degree -0.54795676 -0.5518541 -0.51573485 0.4045109 -0.32495958 -0.232233 -0.38759285 -0.35492957 0.022377364 0.034045815 0.15580674 -0.6106686 0.2964423 -0.1888746 -0.7905693 -1.176687 -1.1679573 -1.146937 0.65221506 -0.5564494 -0.95911324 -0.6828583 0.63461244 0.05902631 -1.0725676 0.1974001 -0.27827814 0.5868189 -0.4301918 0.56171817 0.7384143 0.3766442 0.21638939 0.6045319 0.6534715 -0.14499995 0.25327992 -0.032875836 -0.36870548 0.2031859 -0.53717536 0.13462326 0.006512046 0.07299285 -1.8846202 0.20619234 0.5221623 0.9126359 -0.707292 -0.4391535 1.0345364 0.84808826 -0.90538645 -0.9508873 -0.64396673 -0.7692908 -0.14778936 0.42897418 -0.72826034 -0.54701084 -0.13158989 -0.26751247 0.11645767 0.27471256 -0.39909583 0.2671055 0.08456876 0.14486146 -0.73553467 0.25434422 0.11372459 0.18490383 0.23034286 -0.15077795 0.35040528 -0.1284547 0.48548338 0.8652697 0.46358827 -0.918528 1.2188452 -0.04221135 -0.22845225 -0.18015797 -0.44052026 -0.7856758 -0.121999644 -0.78459376 0.3160155 0.6105 -0.069245964 -0.44568002 0.27577302 -0.20409158 -0.5427453 0.08911767 -0.16593759 0.2355575 -1.1768782 0.12852247
intracranial -0.5152428 -0.5704983 -0.4378003 0.09278309 -0.62888086 -0.4458101 -0.006127545 0.15679199 -0.35648996 0.6277647 0.0016514604 0.64116603 0.8110605 -0.30144495 -0.51464075 -1.2865872 -0.47984236 -2.7192085 0.17327628 -0.4219094 -0.5363553 -0.8180376 -0.3244478 0.25013328 -0.7541709 0.24166773 0.9068843 -0.10503936 0.41039366 -0.56493175 0.2930782 -0.8290672 -0.38055006 0.34114596 0.047308113 0.002375916 -0.05437577 0.4699247 -0.45778129 0.38513762 -0.041691273 -0.33163038 0.2809439 -0.24816662 -1.2866683 -0.724869 0.4569456 1.4960343 -0.16502166 -0.18857712 0.601539 0.51445436 -0.2837017 -0.9982648 -0.2764995 -0.67979664 0.9551454 -0.4604559 -0.16522054 0.17343095 0.22698484 0.8337931 0.33093777 0.5392361 -0.33153477 0.23377411 -0.4965651 -0.5183955 -0.512056 -0.110367686 0.6528612 1.1200743 -0.2199727 0.4057516 1.22566 -0.18298088 0.52962935 0.86226094 0.07870175 -0.6794675 0.89199626 -0.30367437 0.28793964 -0.35688844 -0.10989535 -0.07358873 -0.31518418 -0.1351559 -0.94055337 0.86158085 -1.0887909 -1.0581058 0.39748672 0.27542433 0.70439583 1.19398 -0.076198146 0.51262486 -2.0880415 0.15173322
hemorrhage -0.3504222 -0.53812224 -0.32784572 0.1309124 -0.46718192 -0.3384972 -0.003952575 0.14171612 -0.07901418 0.46040523 0.108148456 0.5883663 0.5979802 -0.24793725 -0.059974357 -1.2089319 -0.51630217 -2.0302515 0.1660044 -0.21541406 -0.40223575 -0.52852106 -0.17280129 0.15102945 -0.6397569 0.24300385 0.85471904 -0.1656258 0.26554018 -0.46716172 0.06919645 -0.5439649 -0.2659779 0.39406666 0.13882487 -0.015890585 0.066629745 0.37979263 -0.17366266 0.22719517 -0.20776047 -0.43240193 0.2873072 -0.14749989 -0.96844155 -0.31762668 0.2086994 0.91522586 -0.09092086 -0.20866627 0.45280057 0.28773 -0.07888726 -0.8537343 -0.0397277 -0.59517366 0.66419077 -0.4135218 -0.1125352 0.13216217 0.080039784 0.47441727 0.19562578 0.3136766 -0.30308408 0.1263023 -0.5109698 -0.5015898 -0.49264395 -0.032381684 0.4088975 0.8211592 -0.093020655 0.39566797 0.90708745 -0.25954372 0.39970192 0.7225622 -0.15794383 -0.37751925 0.63666594 -0.26813388 0.12199537 -0.06772909 0.05664845 0.044127423 -0.1649148 -0.20261176 -0.73161346 0.58339596 -0.7518097 -0.7709828 0.40244433 0.29514793 0.42723113 0.91591847 -0.016290035 0.16517423 -1.6495914 0.064356685
delivered 0.07353961 -0.74789745 -0.24240796 0.06309372 -0.4266574 -0.610873 0.028243737 0.18147548 0.40498328 0.38640946 0.24307333 0.43460804 0.5405305 -0.13293745 0.79007214 -1.5731378 -0.8931241 -0.9869014 0.2471397 -0.2149883 -0.25618514 -0.12105308 0.34702694 -0.21714418 -0.8210569 0.25824586 1.452411 -0.52766347 0.13007885 -0.40305892 -0.34513274 -0.35708156 -0.1306283 0.5773563 0.6545682 0.22846013 0.69830996 0.44544843 0.34702677 0.0036434322 -0.67273015 -0.837642 0.27503854 -0.04433111 -0.7448443 0.2178407 -0.27539387 -0.017209368 0.037543986 -0.25825754 0.68436027 -0.36793867 0.3017723 -1.0398144 0.368299 -0.67299426 0.20439094 -0.7195347 -0.3213905 -0.117724404 -0.31633288 -0.14684242 0.088032685 -0.22130835 -0.34569216 -0.22517662 -0.6998445 -1.173891 -0.4013302 0.32517296 0.17748605 0.5865161 0.16596492 0.41805527 0.5509967 -0.49772698 0.34330532 0.6669716 -0.74974453 -0.03711138 0.6489574 -0.29123676 -0.23653719 0.4565321 0.2686214 0.29111522 0.11871449 -0.66209733 -0.45591053 0.1548436 -0.059148535 -0.58832574 0.660993 0.15427783 -0.031032046 1.0878795 -0.06557285 -0.18637164 -1.3564075 0.05268683
acute -0.15950103 -0.14053153 -0.05443506 -0.12644087 -0.26280585 -0.24524792 -0.06663075 0.14013505 0.07062211 0.27482563 0.1501802 -0.05696719 0.30153078 -0.019465113 0.082496755 -0.59897673 -0.38003585 -0.5723558 0.2621662 -0.17643122 -0.3797437 -0.32920498 0.035919126 0.009813279 -0.39896038 -0.1955249 0.4407655 -0.13530083 0.11950441 -0.21458995 -0.120200455 -0.07490303 -0.039620746 0.35193235 0.1983171 0.09283949 0.2500323 0.07878484 -0.060873188 0.21334465 -0.34051782 -0.31282455 0.052066535 -0.20920573 -0.65083605 0.10887179 0.011192105 0.15004686 -0.22264846 -0.059416134 0.27365717 0.003962979 0.08492514 -0.52962947 0.0035345028 -0.4281579 0.19987571 -0.2325537 -0.18122561 0.12279159 0.02712479 -0.06322837 0.0018139614 0.09802798 -0.0034301372 0.06840864 -0.04141358 -0.5129545 -0.31030688 0.06635639 -0.08972068 0.35922375 0.11390345 0.20557089 0.3613069 0.065004975 0.26994324 0.38265544 0.094229415 -0.066637725 0.08857158 -0.11090418 0.13526037 0.10640984 0.16362548 -0.022615789 0.12934005 -0.4514307 0.003471909 0.028389491 -0.1503681 -0.40981004 0.2717661 -0.11685988 0.11659005 0.4007514 0.012097072 -0.060361236 -0.561093 0.028444927
disorder -0.13800037 -0.067616425 0.029760575 -0.17619532 -0.11700953 -0.30743068 -0.076577626 0.09133195 -0.048877645 0.3454293 0.046897803 -0.16959244 0.30365482 -0.0969603 0.021048965 -0.52146715 -0.34807628 -0.38997018 0.30399552 -0.12015713 -0.52904373 -0.35758707 0.01662284 -0.028178073 -0.2709282 -0.39403206 0.52661663 -0.15513468 0.06514522 -0.18460268 -0.26613173 0.029071944 0.07399913 0.31326455 0.15261112 -0.023743188 0.19979742 0.0046522073 -0.044872317 0.31405488 -0.40696862 -0.2988626 -0.0523891 -0.31716108 -0.75473225 0.20812455 0.11493671 -0.05444079 -0.09674275 0.14201853 0.33001703 0.0103012705 0.24278732 -0.5320949 0.0053840857 -0.59160745 0.21458718 -0.2163353 -0.16610597 0.11556817 0.20597683 -0.08179985 -0.11861845 0.08550503 0.06235302 0.08452423 0.037103668 -0.616822 -0.37943244 0.006510984 -0.14575568 0.4252716 0.10472313 0.16098078 0.38861477 0.19031474 0.49557167 0.42036042 0.10527632 -0.29932806 -0.08478648 -0.093393855 0.1894969 0.29672638 0.22092739 -0.15708172 0.1666667 -0.4571838 0.19455223 -0.028057666 -0.13129425 -0.51648194 0.21119732 -0.24197397 0.06204626 0.36138892 0.09086917 -0.0855285 -0.36464038 -0.0682135
poisoning -0.21315017 0.18258592 0.1506312 -0.46303958 -0.27374902 -0.3318532 -0.06831403 0.1400513 -0.059319895 0.3133553 0.14335148 -0.6239243 0.29100347 0.16879001 -0.06142857 -0.3542603 -0.27705213 -0.16721965 0.5003543 -0.33618096 -0.5906606 -0.41149062 0.12700506 0.036996417 -0.3566778 -0.7201045 0.2509926 -0.22710773 0.14283293 -0.18473385 -0.33791223 0.13070585 0.058183197 0.50932324 0.27130857 0.22258924 0.33747572 -0.078885116 -0.112210765 0.51408064 -0.47499835 -0.3033751 -0.12965527 -0.390865 -0.80942684 0.21179874 0.12688237 -0.0074648247 -0.37853822 0.12816457 0.17224418 -0.12607943 0.24991482 -0.4793577 -0.12906078 -0.66225064 0.23674943 -0.23381747 -0.22716881 0.26572207 0.13502751 -0.16217278 -0.06836348 0.19086105 0.22959556 0.15045886 0.38847837 -0.8116026 -0.29195744 0.047575567 -0.3958133 0.38579386 0.21265177 0.13863061 0.38037962 0.5093664 0.34514225 0.32608345 0.58388036 -0.07826032 -0.37711495 0.050143607 0.37263465 0.2860456 0.28185326 -0.19403192 0.1042988 -0.8431359 0.6507764 -0.20289963 -0.005352643 -0.53920674 0.33677226 -0.59499 0.06527768 0.22864692 0.07628476 -0.056765 -0.035812538 -0.0031391936
accident 0.1969436 0.06884721 0.10342273 -1.2804357 -0.50666153 -0.572551 -0.5429296 0.24480978 -1.2858776 0.56702113 -0.056802217 -0.75105965 0.34357825 0.3479437 -1.315429 -0.19246902 -0.24113505 0.6537639 1.2132285 -0.22675899 -1.0208586 -0.4673616 0.120920315 -0.23383267 -0.26539764 -0.7541084 0.10290062 -0.56990147 -0.09140715 0.49408087 -0.50705737 -0.06070148 0.11701229 0.26931724 0.14258392 0.9605426 -0.59263813 -0.8139509 -0.9616196 0.8007032 -0.72690785 0.22884643 -0.59797144 -0.41198656 -1.791566 -0.1383046 0.0899012 -0.3579179 -0.7163024 0.6878995 0.43785614 0.49862522 0.39480862 -0.49288037 -0.18132156 -0.69565535 0.5675321 0.048818775 -0.664096 0.28572792 -0.11210385 -0.49445412 -0.16136959 0.49559096 0.68447274 0.54689014 0.56234145 -0.9162692 -0.6497478 0.13220063 -0.78968084 0.45826724 0.411092 0.125251 0.7032982 1.4070042 0.81443703 0.71321917 1.2117158 -0.054280743 -0.8505067 0.39225584 0.59483075 0.47155473 0.47754553 -0.50855297 0.2136556 -0.82994425 1.4480823 -0.2128126 0.3431096 -0.26440147 0.13857265 -1.1065923 0.3931072 0.49798006 -0.5940927 -0.23575129 -0.1990698 -0.08920995
sites -0.4281892 0.07440379 -0.1439011 -0.14416422 -0.39402452 -0.25194183 0.013347159 0.18013775 -0.022244854 0.1591299 0.028520731 -0.5725449 0.23878366 0.014193192 -0.36338654 -0.44594955 -0.36397374 -0.596247 0.2890825 -0.2725967 -0.5208621 -0.56241024 -0.04716478 0.2403762 -0.5264572 -0.5372518 0.093333535 0.23895559 0.08332549 -0.01569048 0.270135 -0.05218342 -0.015318739 0.38577327 0.21934544 0.03060659 0.28673348 0.1058729 -0.32431093 0.33640447 -0.18971363 -0.17693925 0.11831377 -0.3823536 -0.9256823 0.13907273 0.30928057 0.2483087 -0.53699577 0.04278575 0.57625026 0.16853352 -0.1726454 -0.6632123 -0.49128285 -0.5277186 0.13057572 -0.028292976 -0.24086212 -0.044571947 0.117715485 -0.05838984 0.012655053 0.0958114 -2.6660055e-05 -0.00644312 0.31871924 -0.40908566 -0.2861544 0.02910079 -0.31102476 0.3264268 0.08078651 0.16280879 0.08805292 0.12163874 0.23947866 0.22778057 0.3679553 -0.32301888 0.29948187 0.021103954 0.15293281 -0.17578126 -0.14645341 -0.61928654 0.06457426 -0.6728229 0.25234118 0.100502506 -0.14276963 -0.62688047 -0.008753249 -0.3677555 -0.06437734 0.42462903 -0.014270568 0.30966246 -0.45686677 0.23491651
disease -0.23565018 0.12276276 -0.02255012 -0.3060251 -0.23676078 -0.29499415 0.013903633 0.096701585 0.049038857 0.31251764 0.038554795 -0.3700589 0.2738802 0.010588239 0.1132586 -0.27414727 -0.21823564 -0.31090555 0.32059592 -0.108371906 -0.29500863 -0.41341376 0.0059524914 0.078045554 -0.43225187 -0.5354979 0.42215922 -0.15870033 0.13623202 -0.2698042 -0.24286993 -0.07042103 0.07354361 0.3673745 0.17584303 0.14753416 0.3654476 0.06122596 -0.10708372 0.26719022 -0.3390808 -0.28206474 -0.03732762 -0.33956835 -0.56260556 0.12506197 0.06911738 -0.035730783 -0.20261012 0.035224836 0.20453669 -0.19164385 0.19867888 -0.526052 -0.0015307739 -0.45679566 0.17344108 -0.14429635 -0.26139566 0.225113 0.09095142 -0.16847363 -0.06713588 0.05522849 0.11943992 0.103396006 0.08932928 -0.55631185 -0.22619745 0.10166373 -0.36789328 0.44020924 0.1690351 0.17073098 0.25463143 0.15785158 0.23956478 0.19122213 0.118169025 0.033128355 -0.11029786 -0.042625204 0.14547266 0.14279671 0.22958161 -0.12989646 0.2454304 -0.6260336 0.26225814 -0.16924027 -0.033784747 -0.52700734 0.24733135 -0.30329606 0.040918272 0.35981083 0.08962331 0.0065621757 -0.2828722 0.042634994
injuring 0.19237103 0.07471657 0.15563485 -1.4203036 -0.57883656 -0.63208944 -0.59736204 0.32078925 -1.3017113 0.65042657 -0.040734865 -0.8979646 0.36318317 0.46035987 -1.3363662 -0.19677728 -0.23728456 0.7282503 1.3300112 -0.32406652 -1.0852398 -0.40252012 0.21737489 -0.23515902 -0.24096021 -0.8813351 0.08444351 -0.60736215 -0.09412546 0.5141347 -0.6068058 0.012687839 0.1565017 0.334845 0.16945751 1.0110048 -0.60925 -0.91113734 -0.99297667 0.9132985 -0.7990476 0.19498146 -0.6791989 -0.45877883 -1.9096273 -0.115280464 0.15608944 -0.3916481 -0.72504663 0.74986416 0.4719826 0.45012578 0.47750854 -0.5759469 -0.16742033 -0.74075055 0.569703 0.033026416 -0.6597885 0.34878832 -0.08706795 -0.6067115 -0.19322039 0.5020308 0.7594667 0.6030776 0.65313107 -1.0386081 -0.6671328 0.1881691 -0.80484986 0.47307682 0.43959782 0.13562673 0.7757598 1.5581101 0.89452815 0.74858576 1.358899 -0.07800534 -0.9877996 0.40351626 0.68441534 0.5601398 0.5384492 -0.5441528 0.20906387 -0.9693687 1.621427 -0.30915496 0.39718157 -0.28211007 0.16074012 -1.2229275 0.4008717 0.49272686 -0.6503587 -0.331732 -0.19851057 -0.14574826
chronic -0.2095331 -0.12338568 -0.051710248 -0.168451 -0.30777642 -0.30201203 -0.070665024 0.13640305 0.07869022 0.3295468 0.14244209 -0.11289028 0.357984 0.0189333 0.08694755 -0.58213997 -0.36469305 -0.6245295 0.3093258 -0.18982793 -0.38957426 -0.36735797 0.042898215 0.017996065 -0.44157773 -0.24689685 0.46956456 -0.16276552 0.13242248 -0.21505915 -0.14472368 -0.08987573 -0.05113937 0.40302607 0.2364338 0.118187234 0.26062438 0.07691659 -0.10535513 0.23586524 -0.33849004 -0.33784372 0.034118436 -0.24065225 -0.70922494 0.10200218 0.034292687 0.16802207 -0.26678327 -0.07077175 0.3082644 -0.005147511 0.10034535 -0.6032808 -0.0144912675 -0.45359156 0.19162072 -0.23885721 -0.23543702 0.16212489 0.023182673 -0.1004055 -0.0068025813 0.105233654 0.0085971225 0.09230957 -0.012169839 -0.55673146 -0.334047 0.09838835 -0.13252747 0.41074744 0.1596779 0.23552074 0.37933815 0.098357886 0.30674475 0.40342176 0.1331139 -0.042223204 0.09986026 -0.10565099 0.16688879 0.09535373 0.20273298 -0.025568584 0.14629407 -0.5215282 0.028445652 -0.017661419 -0.1556294 -0.44859236 0.28445902 -0.13671099 0.12125011 0.45794463 0.012964353 -0.044239383 -0.6182285 0.03464806
episode -0.1477269 -0.43750408 -0.035222813 -0.028422663 0.5396468 -0.41184163 0.024755854 0.02297439 -0.19613308 0.6906517 -0.047135204 0.36167333 0.34039438 -0.59000885 0.31118262 -0.9277452 -0.5879693 -0.4427741 0.19972856 0.22042012 -0.86625856 -0.41802534 0.012413423 -0.30740324 -0.015290197 -0.39891824 1.2664683 -0.36651373 -0.18826224 -0.26720303 -0.78166413 0.07833685 0.3880373 0.29873142 0.11730176 -0.62121737 0.081224464 -0.09328525 0.32611647 0.18868078 -0.62450284 -0.5349282 -0.20774098 -0.35544702 -1.0571574 0.6287041 0.084893465 -0.7152194 0.48984274 0.5046869 0.5085401 -0.02001342 0.8026906 -0.8198843 0.24532826 -1.0091205 0.30556837 -0.12412091 -0.012450909 -0.03162239 0.52353156 -0.28305545 -0.45632264 -0.11539226 -0.1667791 -0.031916585 -0.43578056 -0.8186029 -0.82380027 -0.08211591 -0.14963411 0.60989565 0.18086898 0.095593005 0.5638765 -0.10793031 1.4090194 0.80471313 -0.7456666 -0.9325696 -0.15192856 -0.3253905 0.0963957 0.89771944 0.30941015 -0.2885214 0.5244628 -0.02043661 -0.13163757 -0.035585172 -0.09861264 -0.7922636 0.03628391 0.03906305 0.016841197 0.5236381 0.3064229 -0.37468305 -0.50332814 -0.44516164
examination -0.19943589 -0.33766177 0.0625329 -0.7989739 -0.9449769 -0.5657624 0.053041875 0.38659608 0.28892866 0.42910853 0.24858716 -1.1173662 0.35180217 0.22891447 0.9745721 0.23362227 -0.30813763 -0.34103197 0.9271707 -1.1809548 -0.146808 0.21172205 0.22009246 -0.39855048 -0.17423703 -0.6718172 0.32781312 -0.55617094 0.6773376 0.31187347 -0.6648378 0.49881813 -0.1824858 0.79210526 0.837896 0.4317156 1.0442406 0.06221122 -0.043519888 0.94206494 -0.15914637 -0.8073401 -0.5182806 -0.17966987 -0.28365684 -0.22841883 0.910549 0.5202654 -0.14768925 -0.19173945 0.1447682 -0.33356312 0.5076964 -0.61383283 0.05258092 -0.54984766 0.0716164 -0.5816883 0.058586385 0.19066074 0.43201467 -0.37385735 0.16604926 0.13693145 -0.115915656 0.24298531 0.91568977 -1.4985136 0.8330962 -0.18505144 0.85480666 0.45742375 0.11731887 -0.22196935 0.9743563 0.7406368 0.5537197 0.23058636 1.2635366 -0.52244973 -0.15482664 0.20601653 1.2833772 0.46855158 -0.23451792 -0.1286121 -0.5439267 -0.9976102 0.51536036 -0.6952596 -0.07029778 -0.4549767 0.38896215 -0.9173124 0.21336748 0.4562956 0.23497136 -0.03560165 0.062212385 -0.41345888
skull -0.42061862 -0.40482694 -0.41848654 -0.2094806 -0.6251703 -0.28575903 0.01354896 0.21338359 -0.5418117 0.6452564 -0.1875147 0.40419346 0.630695 -0.4389959 -0.77722794 -0.7670048 -0.3294199 -2.426996 0.13645053 -0.3747109 -0.31750053 -0.9351258 -0.44822437 0.32191008 -0.70221156 0.12164454 0.64322764 0.022296552 0.39699435 -0.39658108 0.40883684 -0.860931 -0.46684828 0.21413878 -0.12071142 0.08109492 -0.12525257 0.39987934 -0.57820916 0.36483544 0.084261924 -0.32052034 0.2834288 -0.27537948 -1.22189 -0.702733 0.49612686 1.4388776 -0.2761907 -0.061172474 0.5210634 0.58836925 -0.3388847 -0.8898466 -0.5467068 -0.4841087 0.885857 -0.36320585 -0.2345346 0.07159517 0.3070208 0.7608924 0.38873047 0.6236072 -0.18981275 0.21463092 -0.28741196 -0.45713273 -0.35940513 -0.1827044 0.48786956 0.9456796 -0.25389808 0.3503426 0.89014477 -0.0006935966 0.38678348 0.57322747 0.25698015 -0.8015574 0.8421744 -0.21052447 0.26447296 -0.59703135 -0.24393894 -0.3312936 -0.34287083 -0.024498958 -0.7143488 0.82597524 -1.0129641 -1.0519972 0.19930895 0.055091053 0.8428348 1.1652329 -0.10998639 0.7327162 -1.853232 0.329779
care -0.13768905 -0.33640072 -0.014778662 -0.041584592 0.47524545 -0.48995593 -0.00777513 0.063015535 -0.16855441 0.70091224 -0.016618721 0.34318432 0.45094168 -0.570461 0.2927158 -0.8770653 -0.564983 -0.4443595 0.32801366 0.17596544 -0.86606425 -0.40231618 -0.030179009 -0.31564254 0.044824533 -0.5094877 1.2941084 -0.3037753 -0.17117369 -0.30159193 -0.8033823 0.1031372 0.34636208 0.30432755 0.04252139 -0.6026453 0.040207624 -0.04169247 0.25925538 0.31821823 -0.58907753 -0.49889845 -0.12406318 -0.38080674 -1.0937167 0.666942 0.06017106 -0.674107 0.4557716 0.5195113 0.52955705 -0.05699794 0.76486063 -0.7954705 0.26883075 -1.0887797 0.28607965 -0.18594687 -0.050804842 0.024250844 0.58854765 -0.30321133 -0.42888144 -0.06513323 -0.13148703 -0.066834256 -0.37803796 -0.87418354 -0.7571176 -0.100977086 -0.20647274 0.6303113 0.1923165 0.08369542 0.6202473 0.037392512 1.3674439 0.67543 -0.6776847 -0.9682394 -0.17546184 -0.2685447 0.041998 0.87450397 0.2831986 -0.32686022 0.50099844 -0.09360176 -0.00018355915 -0.14001282 -0.10339542 -0.7661829 0.0940058 -0.026829533 0.012813676 0.5666275 0.3581227 -0.22424613 -0.5181354 -0.433033
site -0.26601705 -0.035885997 -0.021370828 -0.11133714 -0.12842372 -0.23653378 -0.038465127 0.21187256 0.0048753796 0.2275528 0.14412408 -0.19848944 0.2164253 -0.07205436 -0.18295658 -0.5521088 -0.2632685 -0.600129 0.13077869 -0.13047887 -0.52420944 -0.47511542 -0.09405496 0.058215395 -0.30970815 -0.37530404 0.29474637 0.043842204 0.101466365 -0.14529105 0.03569583 -0.048532054 -0.02337061 0.3388772 0.1538745 -0.048449177 0.13554686 0.08928287 -0.19487265 0.25329933 -0.18239167 -0.24416515 0.08947848 -0.33681008 -0.7546324 0.23724541 0.10441056 0.09024766 -0.3467974 0.066491544 0.43913686 0.2053285 0.0048247823 -0.58806264 -0.27268437 -0.5198476 0.18429884 -0.18389383 -0.12673587 0.01806853 0.15843402 0.05553227 -0.07820177 0.17192091 0.04695855 -0.049162325 0.14530063 -0.48824826 -0.42802972 -0.03127796 -0.24141636 0.28701624 0.064895205 0.2595966 0.19175605 0.12656166 0.34177554 0.37968856 0.14295429 -0.26172158 0.12207561 -0.121753275 0.1479778 -0.015267001 0.057803147 -0.30283546 0.13794789 -0.45699605 0.09353998 0.09772854 -0.18669501 -0.5092445 0.15904793 -0.22299725 0.13854496 0.44260642 0.014981996 0.113882706 -0.40853116 0.08220203
body -0.41296324 -0.40065575 -0.39249873 0.22014499 -0.35276967 -0.24385782 -0.32157046 -0.23643196 0.07635029 0.0936786 0.16568927 -0.5106001 0.2858806 -0.109531105 -0.55635667 -0.98181164 -0.9044761 -0.9389813 0.54609644 -0.4798335 -0.7987294 -0.5500861 0.51774657 0.03377494 -0.8914383 0.051598478 -0.06909828 0.3538225 -0.27237958 0.3840228 0.49911362 0.25507694 0.07839019 0.5267581 0.5571865 -0.05720367 0.27775726 0.023829298 -0.2619739 0.20405485 -0.45988813 -0.0026493683 0.023080204 -0.009306396 -1.4862939 0.16992375 0.40588692 0.6976347 -0.5853353 -0.31782043 0.8291203 0.57991356 -0.6145505 -0.8450252 -0.50393695 -0.6750687 -0.081340596 0.25498322 -0.59845483 -0.38959894 -0.09967235 -0.23045146 0.11914424 0.19236954 -0.2867465 0.22734265 0.08985029 -0.048030365 -0.5687926 0.21258618 0.029469967 0.19338806 0.15987913 -0.0912314 0.32591167 -0.044334736 0.38674322 0.69530374 0.41772467 -0.66079664 0.9201501 -0.007832663 -0.114597306 -0.10859544 -0.26690814 -0.5785154 -0.057626862 -0.7431273 0.298558 0.41752613 -0.067859784 -0.41448775 0.300498 -0.19529933 -0.402525 0.18417452 -0.13094804 0.17686562 -0.95682955 0.14246531
found -0.2695243 0.4779891 -0.1159712 -1.239911 -1.0673517 -0.48125085 -0.22446613 0.047353543 0.5852816 0.3548283 0.027072217 -1.5725757 0.93349475 0.5744591 0.46841785 0.1886016 -0.14018999 -0.359563 1.6418997 -1.4336045 0.18647884 0.10015782 0.5340924 -0.13269381 -0.082153246 -1.2531326 0.7708958 -0.50645846 0.11626694 0.43302935 -1.139825 -0.050903663 0.027398769 1.6829641 0.7156518 0.8719518 1.4010923 -0.24442841 0.21055417 1.1241661 -0.14225373 -0.9581089 0.021078542 -0.19798069 -0.33223882 -0.133062 0.8581928 1.2951971 -0.15224144 -0.2941532 0.046109196 -0.6981293 -0.12450665 -1.2550173 -0.051368188 -1.278285 -0.5613391 -0.72153246 -0.17086785 0.3577448 0.37657666 -1.0980567 0.70781606 0.3058575 0.15954733 0.6859946 1.7258481 -1.6143109 0.6907027 0.2785721 0.652542 0.5376179 0.5394409 0.19615255 0.7297207 0.7894746 0.7231446 0.8950371 1.8779976 -0.9698897 0.016410472 0.17995238 0.9770733 0.5758779 -0.75677717 -0.5727157 -0.79753476 -1.5087992 0.5469067 -0.5503116 -0.6979341 -0.6880922 0.26070705 -0.75300956 -0.25323108 1.0585006 0.3360615 0.49427098 -0.095394894 -0.0087301
disorders -0.12814285 -0.03960819 0.021881087 -0.23776914 -0.3031977 -0.3108741 -0.05622014 0.17431772 0.0347208 0.257611 0.10276554 -0.3870306 0.29252177 0.04371795 0.044285793 -0.48324826 -0.34410667 -0.30801782 0.3461114 -0.2543337 -0.44932625 -0.26270303 0.103738286 -0.008716944 -0.36706832 -0.3872463 0.3812585 -0.13823363 0.07940518 -0.07633548 -0.18753603 0.038486242 0.002097238 0.4163702 0.2822397 0.12626275 0.32893196 0.065904535 -0.09889669 0.33829483 -0.3562157 -0.35437757 -0.0055450723 -0.2933337 -0.719172 0.19814812 0.11289885 0.031323295 -0.27343753 0.0327502 0.35344627 -0.04524097 0.107979625 -0.52296114 -0.07267065 -0.54143095 0.12470697 -0.23321712 -0.1987978 0.07699768 0.08061418 -0.15508798 -0.039348193 0.08685024 0.06605968 0.07486012 0.2014664 -0.6731056 -0.24309129 0.07832184 -0.17916542 0.32369348 0.14708805 0.15730903 0.2669715 0.20030156 0.32792023 0.35309887 0.28188673 -0.16475286 -0.01700861 -0.02373667 0.20368026 0.18383104 0.12304982 -0.19766006 0.078029804 -0.5935379 0.29350495 -0.079616494 -0.048707463 -0.46516562 0.21078746 -0.32195285 0.005358334 0.4010679 0.0047464217 -0.033101413 -0.29449013 0.023154706
multiple -0.35758016 -0.022679003 -0.19092287 -0.13789429 -0.35617062 -0.20133631 0.026552228 0.23371415 0.0206362 0.17883511 0.01739168 -0.4204729 0.22814475 -0.06646488 -0.30551916 -0.4523675 -0.3035063 -0.65655816 0.18814817 -0.2796558 -0.35885468 -0.508921 -0.025860239 0.21132717 -0.48832956 -0.42012855 0.16722901 0.19535096 0.055652637 -0.026807228 0.33407813 -0.09174939 -0.029094629 0.28964972 0.21273088 0.05457439 0.2272458 0.11992002 -0.2786974 0.23093574 -0.088031374 -0.13640103 0.14680141 -0.29271695 -0.74906564 0.0003579067 0.28557393 0.30702975 -0.4102355 0.023051491 0.5947421 0.18255527 -0.19813234 -0.65653527 -0.40391922 -0.41631508 0.06030401 -0.048929855 -0.22087224 -0.08126712 0.123524636 0.040573686 0.022783734 0.11999076 -0.07877629 -0.047107108 0.26370636 -0.34344733 -0.21980166 0.05770444 -0.122243024 0.27173156 0.047821473 0.18535036 0.076612614 0.05105881 0.17650776 0.16081904 0.24324556 -0.35385934 0.41047025 -0.055992946 0.16386516 -0.2886207 -0.23443244 -0.5365842 0.047141235 -0.55342925 0.08014603 0.09967806 -0.19716606 -0.5786961 0.03362494 -0.23360595 -0.04537756 0.48410505 0.04730635 0.40167084 -0.50535315 0.20486648
infection -0.111054145 -0.05685329 -0.0031243642 -0.16184834 -0.25250757 -0.27638945 -0.0235884 0.22091985 0.16427329 0.19288313 0.16597022 -0.18442789 0.27286896 0.012762579 0.13532048 -0.52652586 -0.26864985 -0.45645186 0.19501278 -0.24151666 -0.32465824 -0.25583807 0.021715792 -0.0479721 -0.29618686 -0.2918322 0.48213243 -0.115969345 0.16726005 -0.13734813 -0.116675064 -0.07113474 -0.07499447 0.40095133 0.29324144 0.087519236 0.33865806 0.15596813 -0.036282714 0.24448548 -0.2027764 -0.3783164 0.09979151 -0.24334323 -0.48783943 0.15364838 0.057418857 0.12323568 -0.23208416 -0.04678785 0.3445814 -0.0024344148 0.05408255 -0.5663892 -0.07010896 -0.43084985 0.053693444 -0.3651588 -0.10472239 0.014737224 0.07203553 -0.04449771 0.01721241 0.07744993 0.026752006 -0.071729854 0.15061276 -0.6665001 -0.16947916 0.027807953 -0.025366358 0.26295185 0.096907355 0.24014904 0.22421126 0.08746944 0.2725655 0.35638958 0.115476385 -0.14446923 0.16344269 -0.110883676 0.17018476 0.09398326 0.047110867 -0.10537054 0.04214392 -0.49724162 0.015017218 -0.03320953 -0.13295603 -0.40708745 0.24639489 -0.20055181 0.08418982 0.51633084 0.028690929 0.072703406 -0.35924953 0.04776569
vehicle 0.25316995 -0.0284342 0.08524692 -1.3879832 -0.6365482 -0.6431364 -0.5891244 0.3139607 -1.3812027 0.6354763 -0.04865978 -0.744199 0.43841434 0.37681288 -1.3920535 -0.3064397 -0.27591947 0.69662106 1.3584678 -0.26759547 -1.1216865 -0.45607707 0.13353461 -0.2609771 -0.26633528 -0.78995585 0.1944867 -0.63760716 -0.07874593 0.6138611 -0.53016376 -0.09643081 0.11708468 0.3050749 0.21293978 1.0847201 -0.6184567 -0.85620034 -1.0886306 0.87473726 -0.78855246 0.18370926 -0.6263473 -0.4612753 -1.9826465 -0.14891735 0.10965116 -0.44270337 -0.79774654 0.7360544 0.6196858 0.57143456 0.43411836 -0.6402352 -0.22476766 -0.79930884 0.58591014 -0.0023950927 -0.7162384 0.27723214 -0.17133513 -0.59666276 -0.15992446 0.51552916 0.71796054 0.5415635 0.6098188 -1.1216342 -0.7171667 0.12710041 -0.80439824 0.48220426 0.4557099 0.12356331 0.7540839 1.5415238 0.9551792 0.8201987 1.282886 -0.10230717 -0.86814547 0.404013 0.67720526 0.54911137 0.4940642 -0.5877349 0.24485573 -0.91093373 1.5380336 -0.21875569 0.36740008 -0.23482466 0.12619121 -1.1615254 0.38256067 0.6680841 -0.672383 -0.23114328 -0.30031422 -0.051891007
postpartum 0.1197367 -0.7614019 -0.20774022 -0.019060742 -0.3765696 -0.6446302 0.014140716 0.20807 0.37078592 0.39057675 0.2045211 0.36214545 0.48853403 -0.1765808 0.83034825 -1.511113 -0.84559226 -0.7981817 0.27500436 -0.18490462 -0.27079353 -0.076316215 0.4154945 -0.22352578 -0.7957648 0.1871938 1.4874785 -0.5559183 0.08618628 -0.36063352 -0.43241465 -0.28946668 -0.12874444 0.57227004 0.6564706 0.1915211 0.7143719 0.4177705 0.37954724 0.039319996 -0.6581951 -0.8903388 0.21966782 -0.10051424 -0.73597556 0.354634 -0.30057654 -0.19264403 0.016312689 -0.21853419 0.7040503 -0.40120843 0.33094615 -1.0435623 0.36808518 -0.6716455 0.15740475 -0.73119956 -0.34265083 -0.114636555 -0.2865528 -0.25458932 0.019120878 -0.25257313 -0.33163318 -0.25174564 -0.6429718 -1.2325187 -0.3871254 0.33611488 0.12498496 0.52776533 0.19428256 0.40260464 0.48485726 -0.43557194 0.44344842 0.6256052 -0.7521221 -0.10018732 0.56741875 -0.24999486 -0.21083054 0.50349385 0.27943134 0.24625395 0.16050309 -0.68197167 -0.3134016 0.10437693 0.03461077 -0.59680545 0.60142016 0.03603056 -0.08813562 1.064761 -0.10593671 -0.24617444 -1.2497513 -0.0069218683
applicable -0.16654202 -0.4459754 0.013969565 -0.07595724 0.4680502 -0.44825232 -0.0077810027 0.038599417 -0.19746724 0.68213636 -0.048423465 0.27169657 0.3711224 -0.5926038 0.33013734 -0.8616823 -0.5356219 -0.41058892 0.28243837 0.18011431 -0.87876385 -0.41803095 0.010630776 -0.29108068 -0.03240289 -0.48675746 1.2991028 -0.39920458 -0.12897095 -0.21869859 -0.81976765 0.12601085 0.39671367 0.33514884 0.13852148 -0.57359076 0.117820285 -0.07368622 0.30991545 0.27756137 -0.63703513 -0.55848503 -0.2505003 -0.3799421 -1.1015172 0.6633991 0.16790727 -0.69984376 0.4819365 0.5343242 0.47851345 -0.049715426 0.8288548 -0.8754221 0.18786952 -1.0632741 0.3434485 -0.2092277 0.022079458 0.011908899 0.5874807 -0.33383605 -0.40030205 -0.094367765 -0.13136165 0.0010126655 -0.3647249 -0.94580305 -0.81050885 -0.07746832 -0.11343802 0.6156567 0.21901649 0.13419123 0.62322605 -0.034770645 1.4681703 0.8279236 -0.6512117 -0.97709346 -0.19542456 -0.29246902 0.17487085 0.89058876 0.32053337 -0.33035332 0.46879408 -0.12179973 -0.051638365 -0.07797458 -0.12207554 -0.86061615 0.035035703 -0.09179012 -0.0023433627 0.6089914 0.3005769 -0.3778883 -0.4403128 -0.4434856
pregnancy 0.07951673 -0.58382696 -0.12037049 0.007049215 -0.1587989 -0.56159 0.048724897 0.062344972 0.20658064 0.42323205 0.09187685 0.28179926 0.48007938 -0.19690518 0.66618824 -1.1454017 -0.69893473 -0.5987974 0.30832535 -0.060038794 -0.34752482 -0.07807379 0.33338124 -0.18212703 -0.5611172 0.054254234 1.2863786 -0.4864408 -0.0036692752 -0.34123242 -0.51978785 -0.17602609 0.0135836005 0.4693828 0.44191715 0.08791358 0.48371875 0.2718327 0.33351055 0.060149416 -0.6492757 -0.66887856 0.092977874 -0.12573364 -0.69323117 0.37705684 -0.20139438 -0.2993594 0.20107003 -0.015181423 0.47841233 -0.39227653 0.4366727 -0.7810327 0.3572571 -0.73011744 0.24243468 -0.4934516 -0.24794294 -0.0056734616 -0.0897842 -0.2626516 -0.079195604 -0.21454664 -0.24491216 -0.11702959 -0.58558995 -1.0237488 -0.4555906 0.2625113 0.021966476 0.5319623 0.17754287 0.25339904 0.5084014 -0.34300703 0.55772036 0.53354603 -0.68913746 -0.2084951 0.27751634 -0.21970814 -0.14263594 0.5728233 0.32288784 0.14489453 0.21683116 -0.49420702 -0.18343432 0.009664337 0.029557329 -0.5986501 0.41622674 0.05777274 -0.10631559 0.7746301 0.0111683775 -0.28088272 -0.923546 -0.0954061
upper -0.5575253 0.07170538 -0.12485697 -0.20568568 -0.50368303 -0.27550396 0.06010678 0.13878044 -0.030517982 0.19171514 -0.10747879 -0.6896462 0.25740674 0.04072895 -0.37970105 -0.35831785 -0.2808686 -0.5285027 0.37643147 -0.32395583 -0.42140967 -0.5207388 -0.041093063 0.27144808 -0.5118463 -0.65282744 0.040141005 0.24192342 0.02733818 0.086205654 0.37420973 -0.0836562 0.08029154 0.4672447 0.20132358 0.09902766 0.31500843 0.07458689 -0.3473032 0.30516908 -0.11680687 -0.1393347 0.117340155 -0.35298425 -0.93927574 0.09477307 0.44088748 0.21474415 -0.48653585 0.067742184 0.5245037 0.14985476 -0.21833082 -0.7484324 -0.54759645 -0.53868276 0.08476939 -0.054313313 -0.19128986 -0.07518214 0.13600303 -0.07292557 0.063937515 0.14900248 0.08883598 0.029934926 0.44983098 -0.40873376 -0.23026498 0.050698433 -0.24993138 0.2860038 0.112251244 0.090809956 0.15405643 0.17222606 0.14497615 0.10871159 0.3882996 -0.3900383 0.37513033 0.035697065 0.18055947 -0.2982757 -0.33572942 -0.73078877 0.013231891 -0.8112388 0.34827933 0.035846435 -0.13966389 -0.6741033 -0.045074485 -0.41134486 -0.013551185 0.5415344 0.07829336 0.4496617 -0.33955547 0.1971079
elsewhere 0.06409618 0.32272503 0.20843434 -0.3553454 0.14890414 -0.31081864 -0.24338509 0.57437944 0.3206057 0.0069443244 0.66936105 -0.36334786 -0.0039835 0.11611567 -0.113744564 -0.5936192 -0.31723276 0.00068393897 -0.008416773 -0.055961147 -0.9827806 -0.5284534 0.18005095 -0.37802753 -0.1789887 -0.75008565 0.38383198 -0.09703529 0.12827505 -0.17363518 -0.13848045 0.21039587 0.032942824 0.40240943 0.553312 -0.05545607 0.44512796 0.3283986 -0.38809553 0.49419135 -0.28110301 -0.39131737 0.02754131 -0.42987692 -0.81511474 0.9943616 -0.09737381 -0.5990635 -0.82175714 0.14985295 0.37282568 0.28324294 0.033519313 -0.38324368 -0.34143192 -0.8535723 -0.06317253 -0.69778925 0.09572342 -0.043142132 0.34765103 0.1263416 -0.3682294 0.15504721 0.65401727 -0.4308496 0.64807606 -1.1975634 -0.6875605 -0.21494861 -0.8096233 -0.023613833 0.21122125 0.52000505 -0.19595145 0.39866617 0.3883845 0.64946973 0.23681118 0.019072557 -0.34410733 -0.3572104 0.35014513 0.22940673 0.47303396 -0.09955852 0.43816158 -1.0535135 0.50542074 -0.09524182 0.24985898 -0.43483087 0.42689535 -0.7623984 0.3548807 0.525645 0.10299351 -0.11922981 0.54525477 0.0112962425
bacilli -0.2716367 0.34803087 -0.040407687 -1.0269843 -0.98275876 -0.41279924 -0.09417047 0.070122324 0.5455535 0.3530335 -0.00780777 -1.3909487 0.7367415 0.4563465 0.53369576 0.26955995 -0.12430687 -0.25551262 1.425764 -1.3164551 0.18457414 0.22870483 0.44779095 -0.16169189 0.014199611 -1.020325 0.59908706 -0.47496828 0.22293094 0.38908648 -1.0120348 0.027670853 0.0059101316 1.3968731 0.65441996 0.78436345 1.1714833 -0.16943626 0.2380267 0.9772253 -0.076785065 -0.8473036 -0.041451946 -0.18465257 -0.16131784 -0.18077214 0.8550133 1.1617646 -0.09654297 -0.24138355 -0.018148195 -0.584391 -0.011022941 -1.0144953 -0.057288095 -1.0116975 -0.47796285 -0.639678 -0.056446806 0.26831344 0.3400148 -0.8191388 0.62071735 0.21869637 0.026782509 0.53846693 1.5020195 -1.4382715 0.79884106 0.14022662 0.6542793 0.43491465 0.3575943 0.08152504 0.6905628 0.7352159 0.56844664 0.6755609 1.6528273 -0.7861956 -0.0069400207 0.19031511 1.0108714 0.55159587 -0.70753664 -0.43722656 -0.7448559 -1.1971837 0.40832323 -0.51828295 -0.53952575 -0.5634536 0.22107191 -0.66046894 -0.1969838 0.83897936 0.34147066 0.38844723 0.022650192 -0.01858807
effects -0.24611071 0.9796784 0.24744605 -0.94875723 -0.17440201 -0.53799623 -0.13245101 -0.17073134 0.016254306 0.4595227 -0.037756864 -1.2107531 0.42375493 0.05583758 0.062230285 -0.13273159 -0.26674056 0.026833447 0.76479864 -0.3489776 -0.6353226 -1.2721319 0.022196408 0.17745225 -0.89252716 -1.4429493 0.5270263 -0.37963057 0.25417465 -0.9020732 -1.051318 0.020442754 0.28894657 0.8443261 -0.04396222 0.42254227 0.8239769 -0.09962949 -0.013299647 0.7293829 -0.94071794 -0.33118042 -0.2039199 -0.79094857 -0.93057054 0.34209365 0.0646936 0.0009619421 -0.23166479 0.13352811 -0.17861892 -0.6152575 0.544677 -0.4915404 -0.12949985 -1.0897726 0.67137843 -0.33510318 -0.68099725 0.7257973 0.40906966 -0.007050748 -0.1425602 0.43544674 0.47449827 0.4384576 0.35148728 -1.0846268 -0.41021428 0.069566175 -1.1792381 0.901936 0.1782317 0.12063079 0.67451817 0.6393407 -0.009262034 0.21217749 0.59396803 0.42173922 -1.126374 0.033645213 0.29871732 0.44206902 0.8979138 0.087969266 0.45753482 -1.4918743 1.1635464 -0.26559624 0.10278385 -1.103045 1.0210918 -1.0284123 0.06906967 0.048116527 0.32676834 -0.10529203 0.40970093 0.031441618
tubercle -0.19369498 0.25804487 -0.094412826 -0.9696273 -0.8826716 -0.3982529 -0.090541534 0.10313287 0.43313482 0.2870388 0.01610016 -1.2487304 0.6380081 0.42144415 0.50778204 0.28296953 -0.0927777 -0.30424908 1.216898 -1.1211427 0.1673402 0.16674346 0.37516284 -0.16860403 -0.018507328 -0.95644903 0.536644 -0.38045987 0.19608806 0.39841038 -0.8799395 0.0922576 -0.037897635 1.2233467 0.5793457 0.6428401 1.1426516 -0.104711555 0.12790063 0.90502775 -0.029025834 -0.7373924 -0.029346686 -0.14914197 -0.14754607 -0.1747848 0.78410435 0.9709783 -0.07881508 -0.19646488 0.040945783 -0.5439915 -0.025010552 -0.90891147 0.011460826 -0.85016674 -0.39893132 -0.54588956 -0.08235814 0.23395884 0.32718202 -0.8152007 0.53635836 0.19866985 0.095456935 0.48112628 1.3584106 -1.2791215 0.6683997 0.15449883 0.66158265 0.42417312 0.36390048 0.05247938 0.6211146 0.6125097 0.55865705 0.5397946 1.4690657 -0.7432216 -0.010478671 0.1684591 0.89850456 0.40687257 -0.60843885 -0.41353828 -0.65438175 -1.1380788 0.40491694 -0.5306021 -0.46406767 -0.47204578 0.21820632 -0.6503284 -0.13479386 0.75825274 0.2715079 0.33477312 0.0020884885 -0.037812274
bacteriological -0.2823453 -0.30519506 0.03694185 -0.93765116 -1.0930393 -0.61329216 0.06259943 0.3697298 0.3737584 0.48997408 0.2804587 -1.3449572 0.44698524 0.26414216 1.0001532 0.21832718 -0.3330991 -0.46196976 1.1016784 -1.3427092 -0.16735129 0.19212382 0.2917777 -0.41710246 -0.21349701 -0.79722923 0.42304358 -0.55839807 0.6958263 0.33366558 -0.76267433 0.5069683 -0.20889406 0.9911605 0.92388517 0.53122264 1.2202951 0.08750442 -0.0586863 1.0771834 -0.18651514 -0.88131887 -0.45105022 -0.22399847 -0.3753245 -0.28420377 1.0538414 0.72428185 -0.20118864 -0.21205473 0.189941 -0.3757331 0.4438883 -0.8046027 0.027662013 -0.7074226 0.02015691 -0.63889325 0.025447821 0.19423783 0.44740978 -0.44996333 0.2901733 0.15296459 -0.09199142 0.33247834 1.0870986 -1.6513548 0.9153712 -0.17170645 0.936209 0.56523865 0.17660052 -0.19960096 1.0645123 0.76909375 0.6052208 0.33925518 1.4446155 -0.62449074 -0.12392157 0.23462906 1.410035 0.51254743 -0.344623 -0.25723937 -0.6184427 -1.1971507 0.5363542 -0.69773436 -0.13372086 -0.55987567 0.45354092 -0.97597927 0.15526736 0.5463984 0.25371322 0.044445302 0.04011122 -0.33384708
classified 0.009733436 0.5107894 0.4705024 -0.34959662 0.19194831 -0.3674822 0.16602243 0.2935293 0.32465336 0.15141276 0.6309557 -0.5911399 0.2391694 0.095593594 0.053232048 -0.52960163 -0.0469176 -0.21318813 -0.006129044 -0.2144547 -1.0546445 -0.6577073 -0.21192798 -0.05944574 -0.09912051 -0.7929146 0.27765578 0.12359391 0.3556676 -0.270596 -0.20489344 0.17145637 -0.10276178 0.649659 0.3630843 -0.051799893 0.24305396 0.045394737 -0.11799453 0.2213804 -0.21803403 -0.64034927 0.31777886 -0.72626275 -0.7588569 1.0117831 -0.34290418 -0.4017828 -0.6506688 0.0055971653 0.5774523 0.3017887 -0.047469124 -0.6765381 -0.52664816 -0.769915 0.05919935 -0.48639748 -0.084243655 0.017519228 0.19520156 0.22016278 -0.2945445 0.4944869 0.36864758 -0.2063595 0.3648176 -1.099198 -0.6617217 -0.3388864 -0.8223955 -0.041598022 0.33402073 0.6256201 -0.05353049 0.6382653 0.42147008 0.49465722 0.2808878 -0.012186319 -0.33614564 -0.14591388 0.19263718 0.16590126 0.2064819 -0.3855136 0.22158249 -0.6640486 0.7228318 -0.15748343 0.012349899 -0.5443557 0.5676031 -0.6548769 0.23546053 0.35285214 -0.10736942 0.11629034 0.5980541 0.23183116
lower -0.56365955 0.056686986 -0.15510178 -0.2606646 -0.52416635 -0.27948093 0.05485144 0.13751927 -0.00058836053 0.21073543 -0.10393336 -0.7505916 0.28906533 0.01116566 -0.3784495 -0.41106063 -0.32066384 -0.528214 0.43456915 -0.34212306 -0.44836956 -0.5522717 -0.04053326 0.2899507 -0.54547936 -0.6560545 0.060237892 0.24633479 0.035086833 0.07754637 0.37024406 -0.07102905 0.09120774 0.49614784 0.26253167 0.14804655 0.361865 0.096106164 -0.3416485 0.3395005 -0.19919457 -0.14925116 0.07721046 -0.36570564 -1.0364815 0.100095674 0.39143458 0.20898284 -0.50206184 0.085815944 0.5619746 0.12766457 -0.19321682 -0.8201963 -0.5433283 -0.57697093 0.07955542 -0.024996331 -0.21749972 -0.052095376 0.13211115 -0.06521448 0.026532684 0.16342852 0.09146358 0.023759574 0.4337428 -0.44492638 -0.24875022 0.08293661 -0.27602834 0.32008436 0.10564504 0.122116126 0.15730429 0.18480764 0.14328243 0.10324221 0.44033843 -0.40826195 0.34809604 0.055629473 0.18776913 -0.25123987 -0.29053816 -0.7584153 0.0015154566 -0.8799815 0.40077856 0.027979925 -0.15316516 -0.68077385 -0.015596237 -0.42838204 -0.03590918 0.54020554 0.07527814 0.4100121 -0.38112605 0.19172722
joint -0.2843843 0.20357953 0.03239012 -0.33043566 -0.29746896 -0.28038853 -0.009511881 0.26135114 0.10902536 0.1777875 0.1405399 -0.73472404 0.19149451 0.058838528 -0.21941115 -0.2923148 -0.26205948 -0.18909582 0.3109112 -0.3167124 -0.5706581 -0.4764581 -0.018846601 0.09535308 -0.3340689 -0.6803229 0.103468716 0.127135 0.07676902 0.05096169 0.0758125 0.11606366 0.017123353 0.40382183 0.2897523 0.10672685 0.35424182 0.03450893 -0.28643695 0.33413377 -0.22410731 -0.24555464 0.0604676 -0.39814728 -0.7942735 0.3032677 0.21842721 0.027616438 -0.5012016 0.09601019 0.5257444 0.14956722 -0.0584374 -0.6675977 -0.40402538 -0.5445783 -0.0453955 -0.13828555 -0.20587388 -0.038674414 0.20184478 -0.11572051 -0.08088003 0.16558924 0.1700173 -0.054849215 0.5606357 -0.6598347 -0.24375516 -0.00616363 -0.38013455 0.13044812 0.1324832 0.20497906 -0.029755855 0.31675556 0.27849126 0.24674578 0.5228225 -0.27315602 0.024924692 -0.055204123 0.27754986 -0.07946992 -0.06260487 -0.55600995 0.12760463 -0.76016146 0.46752855 -0.14611217 -0.058753844 -0.53892696 0.10534651 -0.55943227 -0.013082198 0.3458175 0.060744226 0.17622234 -0.026721306 0.15816157
motor 0.2243297 0.0023784584 0.083757 -1.2613636 -0.57126015 -0.5943911 -0.48652998 0.2512786 -1.1972528 0.57857364 -0.032856297 -0.6911041 0.3699803 0.34001142 -1.2417428 -0.2671839 -0.28364325 0.61813176 1.1826773 -0.21763371 -0.957099 -0.42397228 0.16150169 -0.24979685 -0.2796873 -0.6923687 0.18045051 -0.56021774 -0.07483049 0.5621011 -0.44512203 -0.042349823 0.1104458 0.25361583 0.19710906 0.96216995 -0.5578307 -0.78195935 -0.9628142 0.7793024 -0.70463717 0.17577374 -0.4939749 -0.38356292 -1.7705649 -0.13758858 0.05144591 -0.40081087 -0.73229545 0.64292824 0.51611793 0.50970346 0.33666828 -0.5705662 -0.1537099 -0.6935532 0.48341408 0.013299044 -0.6361384 0.22021219 -0.15707462 -0.50121063 -0.17333622 0.43167496 0.6437771 0.45226634 0.54268676 -0.9817236 -0.6606348 0.15744345 -0.7027721 0.43078116 0.41936922 0.15737869 0.62452 1.3653617 0.8516688 0.7269303 1.0893269 -0.11997401 -0.7322286 0.36217988 0.5535173 0.4921387 0.42405975 -0.51920605 0.1887344 -0.83831555 1.3738552 -0.206735 0.34136343 -0.23854242 0.12487934 -1.0469086 0.37771085 0.56776416 -0.6234022 -0.22615941 -0.23540458 -0.074751176
causing -0.16715623 0.7852661 0.22904684 -0.82208455 -0.14267717 -0.48307157 -0.11361651 -0.083694786 0.0022688953 0.4189629 -0.015276847 -1.0537429 0.34434137 0.104264 0.06240314 -0.14553134 -0.24811353 0.08689094 0.6611997 -0.316388 -0.58959013 -1.0002433 0.047883578 0.12056972 -0.7008699 -1.2421143 0.4538132 -0.37135196 0.20065202 -0.711866 -0.94998986 0.038107 0.22867101 0.7428189 0.015116441 0.3798544 0.6846225 -0.10044737 -0.012844189 0.6545243 -0.82538456 -0.31060624 -0.19856101 -0.6704543 -0.83544254 0.29821998 0.049775727 -0.07676991 -0.20428205 0.14606301 -0.13541366 -0.52671295 0.5168829 -0.45868057 -0.07084242 -0.9426414 0.5458324 -0.32573158 -0.5768265 0.59858894 0.33063102 -0.08038919 -0.16913967 0.36041573 0.42444608 0.36678946 0.36312416 -0.9842814 -0.3402207 0.073090665 -1.001817 0.74763846 0.18810712 0.09289875 0.55921763 0.59012187 0.039606735 0.2009198 0.545115 0.34344134 -0.97025615 0.043412898 0.27922153 0.46959767 0.7780935 0.084606044 0.38218638 -1.2688277 1.0223234 -0.2698912 0.14111704 -0.8872574 0.8598206 -0.89869744 0.09242214 0.098892935 0.25013718 -0.11485621 0.33683008 -0.014157624
nodes -0.6908473 0.26094896 -0.53865427 -0.5726679 -0.84323174 -0.24935679 0.30039966 0.32858154 -0.27441654 0.26126948 -0.12625901 -0.8137369 0.32776105 -0.039758906 -0.22554846 -0.17604725 -0.274552 -0.80196744 0.531712 -0.15611711 -0.30643 -0.6272457 -0.22747232 0.5809826 -0.7262948 -1.0331004 0.30455902 0.20057708 0.19649273 -0.21296336 0.37470356 -0.4261041 0.18415911 0.37939408 0.19073945 0.2918667 0.5332862 0.27750006 -0.5201919 0.5030437 -0.11050998 -0.070368744 0.10417682 -0.5030991 -0.96941984 -0.16154231 0.60345834 0.23050778 -0.5821096 0.22545034 0.53865355 -0.094802305 -0.013476183 -1.0061561 -0.4211978 -0.7047775 0.3298785 0.0008966276 -0.19173473 0.14343055 0.13363884 -0.08270836 0.16982178 -0.08166394 -0.06450653 0.101328455 0.3861955 -0.72440356 -0.06983234 0.09749105 -0.4941047 0.78637564 0.18657926 0.21707448 0.23019433 0.27324978 0.19852649 -0.100733496 0.29576784 -0.4595148 0.32946676 0.14716694 0.32230768 -0.21667719 -0.3214698 -1.0557824 0.13881627 -1.1148727 0.35343105 -0.042399902 -0.086601906 -1.0382141 -0.12822574 -0.64579725 -0.19918448 0.8613043 0.2679548 0.65322846 -0.68897957 0.35524553
diseases -0.037147127 0.17999987 0.14362147 -0.30404508 -0.11803339 -0.29498103 -0.07947184 0.26852453 0.18485254 0.15555178 0.31033877 -0.4658985 0.21033205 0.1203609 0.018771105 -0.44901216 -0.22954372 -0.122600645 0.23630483 -0.20721129 -0.5984917 -0.3108052 0.11737394 -0.120076396 -0.25342417 -0.54092306 0.35250798 -0.09710586 0.0925772 -0.07051544 -0.21437849 0.10130628 0.0062539205 0.48017487 0.38371325 0.103329696 0.35659552 0.104928605 -0.14060773 0.36144793 -0.29791695 -0.41167203 0.07485962 -0.36173347 -0.67214394 0.5270864 -0.031672798 -0.17993592 -0.45696494 0.039730247 0.34979743 0.036539454 0.021147756 -0.49384418 -0.2129313 -0.64948803 -0.014254041 -0.36696708 -0.08347586 0.044577062 0.12984225 -0.120105185 -0.11692395 0.16638184 0.26178357 -0.07932319 0.40041435 -0.8368508 -0.37382466 -0.024369437 -0.4219939 0.1310928 0.22214124 0.3155068 0.034305103 0.32053718 0.34021768 0.42881438 0.30686203 -0.10266139 -0.13370502 -0.12572101 0.21956456 0.19354466 0.1828997 -0.20998803 0.14547202 -0.7299826 0.42730394 -0.12109655 0.033641227 -0.40683842 0.26826498 -0.4625635 0.0876837 0.42540398 0.01543224 -0.015775079 0.105973445 0.0685304
history -0.21112856 0.124377884 0.22974004 -0.13940619 -0.50231206 -0.19263563 0.07267041 0.35731485 0.009140213 0.23584014 0.098939784 -0.83663845 0.3393669 0.323096 0.007022475 -0.2636039 -0.07737673 -0.13622941 0.3260892 -0.31452823 -0.4516269 -0.05708816 0.034930732 0.18403174 -0.38840124 -0.42156196 0.036400184 -0.21728823 0.16396856 -0.017622912 -0.18689808 0.30775288 -0.049819596 0.4081936 0.27908784 -0.01425156 0.24975455 0.076772116 -0.084226176 0.5018929 -0.25263378 -0.3651093 -0.11691184 -0.43127578 -0.81289774 0.19770959 0.26218897 -0.24492389 -0.3925618 -0.044842068 0.17374691 -0.17969395 0.21044752 -0.18175961 -0.116340086 -0.51449794 0.30485344 0.086512394 -0.05077403 0.2514251 -0.022257177 -0.47916237 -0.22489774 -0.0075968425 -0.1364703 0.26082668 0.4102021 -0.41719496 -0.102029145 0.13506092 -0.4415122 0.294265 0.14448288 0.047399174 0.00094257016 0.31306174 0.34357682 0.01874405 0.5144825 0.14037777 -0.3579031 0.20503883 0.15769137 0.22686335 0.26439443 -0.27210686 -0.10016009 -0.6194537 0.59245205 -0.07227396 -0.035530053 -0.26166576 0.01690374 -0.3422164 0.04503877 0.08098419 -0.25447512 -0.17546904 -0.2111035 -0.07655294
type -0.13974205 -0.24331746 -0.028925328 -0.1436248 -0.1840457 -0.2373241 -0.030228386 0.21098863 -0.19949855 0.3602862 0.05218302 0.0274315 0.2812953 -0.0851833 0.06497623 -0.7665489 -0.58181274 -0.5266182 0.20756198 0.0056640017 -0.5557357 -0.2673389 0.059063584 0.062058005 -0.40649724 -0.2347059 0.64602226 -0.21604274 0.18082035 -0.4736701 -0.1558308 -0.11469887 0.0428552 0.21447465 0.14605287 0.06687277 0.335275 0.0696489 -0.032915443 0.30645534 -0.585232 -0.35864303 -0.018655507 -0.33257347 -0.88501126 0.17462118 -0.08924179 -0.14624476 -0.2863998 0.07183217 0.3168129 -0.08618559 0.25006735 -0.58166826 0.20170099 -0.4977484 0.36592674 -0.3291467 -0.2792189 0.2903342 -0.051781695 -0.13009511 -0.120390624 0.06154264 0.05448402 0.10681263 -0.16668853 -0.6050399 -0.41041258 0.08702346 -0.27032796 0.5381003 0.16225286 0.23023865 0.47030103 0.07749113 0.25867787 0.4055609 0.04353644 -0.07356797 -0.122102015 -0.101491645 -0.004098551 0.2784472 0.39627233 0.026565114 0.438831 -0.48666564 0.15067647 0.04716742 -0.086868145 -0.6017036 0.42120972 -0.21871607 0.0567916 0.46741036 -0.013358619 -0.22251105 -0.67565817 0.08515665
lymph -0.6578172 0.34821573 -0.53117585 -0.6571233 -0.7893457 -0.2898377 0.23077257 0.24654496 -0.20396134 0.31593502 -0.291714 -0.64464736 0.14511059 0.033716768 -0.33242568 -0.14559577 -0.3373322 -0.76985997 0.57766944 -0.17699777 -0.2651805 -0.77885365 -0.093597494 0.58788174 -0.62273633 -1.044099 0.39934945 0.3035165 0.17777124 -0.1112038 0.36144358 -0.3538621 0.010336653 0.33222085 0.216181 0.2050979 0.57268256 0.07117757 -0.5586243 0.58355016 -0.0638943 -0.25491863 0.1865902 -0.5745178 -0.79853415 -0.21803649 0.502194 0.10442153 -0.62074053 0.23807287 0.56814086 -0.19921947 -0.038997445 -0.94640803 -0.5295067 -0.581469 0.28238058 -0.018326772 -0.2862804 0.23497772 0.2398245 -0.2036371 -0.012187282 -0.1619257 0.07992784 0.054679252 0.26813275 -0.6704753 -0.04215525 0.04603926 -0.51659155 0.7834538 0.048143305 0.26968548 0.27279785 0.099794924 0.23135933 -0.1103813 0.3250657 -0.37985617 0.18450263 0.1520058 0.19783565 -0.16408785 -0.32964078 -0.95215446 0.1343593 -1.1742123 0.42230174 -0.18367663 -0.032043517 -1.062462 -0.079479486 -0.59230673 -0.18638663 0.71719193 0.16586463 0.73298275 -0.69272697 0.41673666
level -0.254476 -0.23182207 -0.24719699 0.15381858 -0.8204867 -0.33121657 0.046525817 -0.26899555 -0.31619033 0.35562322 0.146048 0.070356354 0.80813974 0.37700945 0.1594865 -0.6357388 -0.34372288 -1.2267579 0.870026 -0.3123818 -0.6663314 0.08419842 0.4341483 0.6381307 -0.286868 0.037847444 0.105596215 -0.1127895 -0.20432124 -0.046904147 0.1863695 -0.123534024 0.046771456 0.45416504 0.24093571 0.31651172 -0.1562235 0.20037165 -0.20555483 0.39784077 -0.54057175 -0.16213155 0.2055404 -0.0070801317 -0.829863 -0.27799147 0.40988222 0.6496163 0.010660372 -0.1731676 -0.05115176 -0.1872086 0.08133028 -0.12356692 0.14538318 -0.9705313 0.66380954 0.08246604 0.20015264 0.5014398 -0.051463254 0.26881167 0.13355303 0.067753956 0.06029605 0.9011182 -0.319608 -0.31416398 -0.5114837 0.096975386 0.17373441 1.0648416 0.05261874 0.1358649 1.232818 0.06482487 0.26647183 0.42231953 0.46387687 -0.19278695 -0.16312405 0.036284756 0.46114942 0.298821 0.06373905 -0.17566651 -0.28778142 -0.64775944 0.17042033 0.034640167 -0.37082165 -0.742989 0.15144289 0.18378158 -0.09510279 0.19964622 0.121291116 -0.050891854 -0.7289232 -0.18207446
region -0.4213515 0.15512279 -0.09809724 -0.27317843 -0.48745868 -0.3370203 0.017179584 0.27818903 0.06376305 0.22515646 0.063370645 -0.74236315 0.2536543 0.07808705 -0.20373248 -0.48921597 -0.37294242 -0.38302356 0.4009309 -0.29592928 -0.5583928 -0.53635055 0.034699813 0.25323278 -0.4923152 -0.68179 0.23515989 0.13488083 0.097463705 0.015587506 0.15707149 -0.05399589 0.06794576 0.4820955 0.30058604 0.13665447 0.43843293 0.07229472 -0.34634632 0.40733087 -0.2764538 -0.2736512 0.05162703 -0.4732618 -0.972763 0.19069035 0.2876245 0.05230653 -0.5474643 0.09613092 0.6050919 0.10989793 -0.03717117 -0.80751014 -0.37697408 -0.61819 0.03444659 -0.20143582 -0.22647588 0.0051998785 0.12217204 -0.11328681 -0.06923638 0.042868607 0.1403766 0.024074826 0.44356835 -0.73140067 -0.31173754 0.051838644 -0.35275054 0.36031184 0.12189406 0.2601162 0.09909362 0.26911372 0.26711592 0.2407326 0.3648526 -0.32841378 0.16865717 -0.017042559 0.21772546 -0.08521972 -0.10962385 -0.61608976 0.17810051 -0.8871575 0.37638512 -0.12171814 -0.06879327 -0.68672824 0.108014785 -0.52247995 -0.10407773 0.5602383 0.115582116 0.27818 -0.3183626 0.18528959
third -0.54730487 -0.7005763 -0.5842867 0.5162783 -0.3104098 -0.23323733 -0.53302115 -0.51730084 0.14061031 0.0015933437 0.2581725 -0.6112408 0.35260642 -0.22059843 -0.6858703 -1.3705307 -1.3626204 -1.2564981 0.7559998 -0.6006374 -1.0641782 -0.64774686 0.8881159 0.0048436415 -1.1700068 0.3988742 -0.26887587 0.5968313 -0.58258003 0.6421746 0.7312724 0.47062194 0.22974296 0.68604505 0.8210055 -0.2027805 0.34484503 -0.02627794 -0.32242906 0.23020741 -0.654115 0.13905986 -0.03898065 0.19132063 -2.0228093 0.2264025 0.5256942 1.0771024 -0.7276346 -0.596217 1.1288064 0.8434799 -1.0092909 -1.015312 -0.6117108 -0.8489179 -0.26222068 0.5100471 -0.8463959 -0.6249307 -0.20946606 -0.4020062 0.1476611 0.21561301 -0.51492715 0.3778328 -0.0009252625 0.18909317 -0.841425 0.34402573 0.23196264 0.15649268 0.25358692 -0.2849248 0.40449336 -0.16584565 0.5267428 1.0654 0.4749603 -0.9609313 1.3935534 -0.066057324 -0.3074211 -0.032568704 -0.45912227 -0.74765766 -0.11184836 -0.8967122 0.34449828 0.66892713 -0.016041243 -0.373478 0.3914839 -0.14630282 -0.7026552 0.024933223 -0.20742218 0.15098807 -1.3377721 0.10709735
limb -0.5615044 0.24523342 -0.22454213 -0.17788328 -0.47208956 -0.12705573 0.07819452 0.19962497 0.016207438 0.1326071 -0.08138205 -0.6555832 0.22118074 0.028611887 -0.47523132 -0.29975522 -0.32580405 -0.4689152 0.29499996 -0.18806912 -0.41964397 -0.62104875 -0.14448114 0.46170038 -0.5805938 -0.65732175 -0.015629286 0.343516 0.019588318 -0.03495264 0.4183272 -0.13477795 0.1307479 0.32975882 0.13877505 0.0492759 0.3219358 0.07672083 -0.42426974 0.26339343 -0.10967267 -0.03870428 0.1782718 -0.36516112 -0.9070305 0.07469081 0.35398012 0.19933741 -0.49274796 0.09810131 0.6269846 0.14729357 -0.22947358 -0.7512242 -0.50278735 -0.48489442 0.11986742 0.11134709 -0.21506691 -0.071679644 0.15176858 0.0657498 -0.0356424 0.010795671 0.065739766 -0.07181313 0.4098752 -0.3328723 -0.26908576 0.053529356 -0.4127097 0.31663138 0.016676107 0.1734875 -0.06379192 0.051598098 0.10541392 -0.038780138 0.2650145 -0.39646864 0.26805702 0.0017293529 0.15269725 -0.318124 -0.2625406 -0.78644294 0.1694359 -0.73184365 0.2452344 0.058729853 -0.15051463 -0.71816075 -0.10487443 -0.38397533 -0.1720572 0.44588575 0.075902924 0.4576116 -0.4102878 0.2925987
deep -0.43190393 -0.6512029 -0.5983274 0.2862178 -0.285576 -0.27302504 -0.5646813 -0.50999 0.26136696 0.040575784 0.29433376 -0.7370125 0.33341378 -0.25378633 -0.4151005 -1.3135746 -1.3296151 -0.7627269 0.85141265 -0.63518816 -1.0317584 -0.7217149 0.96848816 -0.07277633 -1.1272769 0.27789432 -0.056510426 0.45401633 -0.6223041 0.5697223 0.46267927 0.6617145 0.38184232 0.7240109 0.99169487 -0.22655281 0.71168 -0.07040272 -0.206985 0.29371125 -0.8318892 0.0012991368 -0.27493322 0.20833567 -1.9310352 0.41351718 0.36249912 0.90236056 -0.7911268 -0.6895432 1.0836866 0.71527195 -0.94920844 -1.0544696 -0.5014804 -0.83694637 -0.42082295 0.38546973 -0.9325864 -0.5733532 -0.23036148 -0.65275997 0.19126877 0.14959031 -0.50255543 0.30803877 -0.031075263 -0.15055911 -0.67819893 0.4848748 0.21908915 0.083674006 0.37148046 -0.36096835 0.30952287 -0.043821782 0.59779245 1.0207531 0.47610456 -0.8560121 1.3045092 -0.114174604 -0.29145122 0.17273849 -0.26791748 -0.54342693 0.04598223 -1.150267 0.4951721 0.4087636 0.25655058 -0.2863089 0.57667744 -0.37690312 -0.7059806 -0.06254743 -0.059506364 0.07152705 -1.0363334 0.10410995
use -0.2107585 0.82776856 0.20187321 -0.84868354 -0.23382941 -0.55025244 -0.12330406 -0.13698587 0.03111801 0.4705726 -0.013033307 -1.1425152 0.4349448 0.075915165 0.064311534 -0.21529362 -0.3240651 -0.061966125 0.7650539 -0.36835915 -0.6605989 -1.1605592 0.033996318 0.16855863 -0.86102945 -1.3065193 0.5498488 -0.35848987 0.21897903 -0.79251033 -0.9944236 0.03513363 0.25668362 0.82611877 0.038570985 0.4222553 0.81099147 -0.06922728 -0.03980004 0.69848317 -0.8851043 -0.3486984 -0.18816999 -0.71385413 -0.9826054 0.28259063 0.1152261 0.009036885 -0.24434598 0.11105804 -0.09046853 -0.5471188 0.49936566 -0.5462473 -0.10831555 -1.1035583 0.63076884 -0.32144487 -0.65073216 0.6492765 0.38125405 -0.050786182 -0.14501143 0.427486 0.39908463 0.42932564 0.3377733 -1.0352072 -0.40686312 0.07766589 -1.0511882 0.8838673 0.19792429 0.101045765 0.6657893 0.5962538 0.04611595 0.24066381 0.57544786 0.31362692 -0.95743614 0.019996705 0.2991241 0.4449096 0.7966431 0.04680858 0.38852456 -1.4023917 1.0468651 -0.24150512 0.087072 -1.0573809 0.9386353 -0.9456964 0.084363885 0.11748837 0.2719577 -0.081334546 0.26163232 0.04306291
associated -0.03497995 -0.08959807 0.02985868 -0.251741 -0.18712689 -0.38294402 -0.020004041 0.16895866 0.22300209 0.24957427 0.13846523 -0.32905155 0.29885414 -0.014645115 0.24032578 -0.65470076 -0.40975615 -0.1756584 0.3848748 -0.19714053 -0.39297593 -0.20826463 0.24028742 -0.11904515 -0.4014588 -0.3820916 0.6867187 -0.21098934 0.0076607955 -0.06792091 -0.3224595 -0.003940916 0.059040204 0.5043376 0.3943809 0.152595 0.45434365 0.06842307 0.09862966 0.23155376 -0.42807788 -0.47723305 0.066321604 -0.2717901 -0.6738052 0.4031957 -0.066464834 -0.23128095 -0.20815182 0.031917956 0.46330473 -0.173879 0.17313275 -0.71271026 0.004613332 -0.61154175 -0.034686882 -0.35237804 -0.20549552 -0.02003641 -0.008734936 -0.3438924 -0.02668583 -0.038926784 0.035465304 -0.08341163 0.12325411 -0.8718138 -0.27061418 0.18010765 -0.2023078 0.24787037 0.24699213 0.23060301 0.14267972 0.058650907 0.4040929 0.4157512 -0.0093094325 -0.17814158 0.07123084 -0.10009697 0.033010714 0.29954368 0.13596207 -0.19059509 0.18881641 -0.66364104 0.23561378 -0.12833944 0.048483405 -0.4519757 0.2802188 -0.31820166 -0.09834264 0.5628763 0.03254103 -0.09647686 -0.29111192 0.036777347
burn -0.40255076 -0.30999395 -0.29632738 -0.032474548 -0.38776994 -0.29664323 -0.3278248 -0.12295654 -0.11907664 0.21608703 0.10588857 -0.58297217 0.32175452 -0.08755276 -0.6409439 -0.82808316 -0.8322409 -0.8722649 0.6316175 -0.47971553 -0.7954875 -0.628385 0.36957997 0.026358796 -0.8378177 -0.1574539 0.03338952 0.21657392 -0.17009878 0.33246884 0.34310022 0.14350551 0.042297196 0.55961144 0.47379407 0.06530293 0.21490724 -0.0544592 -0.37956843 0.3638056 -0.47353938 -0.060320184 -0.014489445 -0.1457022 -1.5397724 0.10131116 0.43039596 0.6111778 -0.5679627 -0.12692688 0.80578095 0.5359199 -0.4345375 -0.89931667 -0.51863104 -0.72011167 0.06338973 0.14766711 -0.6151272 -0.26546642 0.020925099 -0.2116734 0.08320138 0.2680793 -0.115966655 0.2684446 0.23708087 -0.26954848 -0.59019387 0.14506471 -0.06114806 0.32416007 0.16181235 -0.024456302 0.4076476 0.14655168 0.47795042 0.74074227 0.5651345 -0.6875212 0.6604068 0.033507694 0.022692917 -0.0772119 -0.2319016 -0.6888358 -0.034829192 -0.7792118 0.39797774 0.3437175 -0.1364485 -0.5527028 0.2593591 -0.36601022 -0.21135719 0.37249133 -0.16745128 0.19080393 -0.94398546 0.10272551
syndrome -0.19045834 -0.060428414 -0.061661333 -0.18921022 -0.4014698 -0.3017312 -0.015278396 0.07702163 -0.0349857 0.2841399 0.06973178 -0.2647654 0.40090683 0.08321149 0.04438105 -0.4745172 -0.30992845 -0.555422 0.43475693 -0.27224207 -0.425776 -0.2530112 0.1353395 0.13825473 -0.36418626 -0.3205613 0.35069805 -0.12050159 0.046021592 -0.10052975 -0.096580826 -0.049341507 0.0006058345 0.40562207 0.2399726 0.17355934 0.22637556 0.08841674 -0.093523026 0.32062882 -0.34983194 -0.28184956 0.040718846 -0.22500592 -0.69767666 0.043953814 0.19200128 0.20253615 -0.18685438 -0.014210327 0.2501695 -0.07880205 0.10406676 -0.48819402 -0.04997206 -0.5759761 0.23095983 -0.16227853 -0.13074908 0.15852292 0.065095894 -0.049873907 0.017062908 0.09042305 0.040109493 0.21771385 0.07801107 -0.57425135 -0.26427647 0.073611744 -0.06489043 0.49105456 0.10785737 0.1467387 0.4576486 0.14972702 0.29536927 0.3206136 0.29653 -0.18218097 -0.012925823 -0.027447946 0.25165626 0.13645099 0.082045436 -0.18808843 0.0020043068 -0.57957804 0.1954167 -0.033132207 -0.14119151 -0.52861965 0.20003599 -0.20085222 0.033330727 0.38893825 0.045298584 0.02460253 -0.4255542 0.0021548658
hours -0.52816653 -0.6621685 -0.5655105 0.5184637 -0.8163937 -0.50189406 0.023695728 -0.18665208 -0.34034202 0.5024285 0.16680425 0.6792282 1.074586 0.055184133 -0.1405619 -1.5046741 -0.67772955 -2.7949176 0.62007535 -0.35395694 -0.835481 -0.3751213 0.17569594 0.5490514 -0.7667391 0.5071481 0.68156004 -0.10944644 0.076102205 -0.42513806 0.3692493 -0.5824052 -0.15582727 0.52817243 0.27016565 0.09568287 -0.1392471 0.5056604 -0.34589398 0.35020885 -0.3829752 -0.25644848 0.33458585 0.014375399 -1.4135288 -0.64493203 0.5264368 1.4501933 0.003584447 -0.41477773 0.35429803 0.26588932 -0.29012415 -0.67675537 0.07132033 -1.1128434 1.0545331 -0.15965718 0.059411086 0.38937825 -0.013606184 0.7775466 0.23247083 0.4004317 -0.37777087 0.6878726 -0.76321566 -0.26023385 -0.7489599 -0.0056591635 0.6439534 1.3958609 -0.09298348 0.37257427 1.6510756 -0.32603672 0.5057153 0.9321066 0.0677686 -0.5181755 0.64815956 -0.19305597 0.29929322 0.047600772 -0.034548234 -0.027348837 -0.46973813 -0.40641078 -0.6881177 0.74402195 -0.97285414 -0.97465557 0.44550592 0.56114644 0.24687214 0.82666975 6.157924e-05 0.1915857 -1.9981668 -0.1281359
histological -0.22649695 -0.37696683 0.045244407 -0.8648343 -1.101483 -0.68095464 0.032340255 0.45463294 0.24405976 0.53161013 0.2936199 -1.2099345 0.4550362 0.2648526 1.035411 0.1530259 -0.41585785 -0.45814094 1.033586 -1.3005806 -0.29231715 0.17096862 0.26078156 -0.4246849 -0.3421015 -0.7152472 0.39332554 -0.5743572 0.7950502 0.34152517 -0.65710783 0.53752 -0.22118403 0.8770727 0.9392087 0.5080155 1.126144 0.11542858 -0.06790976 1.0814517 -0.28822848 -0.87742454 -0.6170561 -0.28764385 -0.49354327 -0.25999197 1.0468293 0.5790979 -0.25485843 -0.18149367 0.2916477 -0.31060517 0.55472994 -0.7556265 0.001205984 -0.6251404 0.14994586 -0.6281284 0.027696926 0.17429587 0.50001866 -0.35613236 0.16937383 0.15241002 -0.13959512 0.30628553 0.9518511 -1.7222886 0.80795324 -0.2038654 0.9285135 0.5422912 0.0986274 -0.22145823 1.1304293 0.85694516 0.6497886 0.24424611 1.3923103 -0.61658233 -0.08848927 0.20114806 1.4189496 0.49274224 -0.19964148 -0.16396968 -0.5977539 -1.1903223 0.61552864 -0.73159266 -0.12728003 -0.6043471 0.48212582 -1.074116 0.25618327 0.56059194 0.25270155 -0.024988478 -0.05821519 -0.4511682
part -0.37792358 -0.3250311 -0.32033673 0.2920385 -0.21420433 -0.12308088 -0.17413533 -0.18416743 0.09017209 0.01882321 0.08880648 -0.2794965 0.18429248 -0.14176226 -0.39047664 -0.6937635 -0.66095364 -0.833204 0.2600469 -0.30284476 -0.48980796 -0.44323286 0.30586025 0.1365535 -0.61184996 0.13917542 -0.12507695 0.3862702 -0.21969184 0.24126469 0.52349997 0.115704566 0.0642238 0.32200837 0.34508753 -0.13066298 0.17150414 0.07704876 -0.21168192 0.057910696 -0.22244038 0.043707617 0.07886146 0.03064092 -0.98818105 0.06521471 0.32141966 0.61393386 -0.38784868 -0.29135725 0.6301603 0.44404143 -0.5350743 -0.590335 -0.42211714 -0.41072768 -0.06382869 0.2292141 -0.37682384 -0.31718463 -0.05855019 -0.04482193 0.10338715 0.14359932 -0.28135857 0.108958304 0.011232336 0.085683234 -0.39714986 0.13043705 0.10484092 0.12753469 0.045415033 -0.068158194 0.17061453 -0.18771344 0.20066123 0.44211856 0.19132224 -0.536523 0.79066676 -0.08615958 -0.13503769 -0.21140647 -0.32260936 -0.46834287 -0.052499387 -0.42859632 0.023064662 0.38589388 -0.13370337 -0.3299859 0.12422263 -0.041417204 -0.27836263 0.13077407 -0.061079033 0.23138133 -0.771367 0.12521175
adverse -0.17986928 0.990598 0.27667528 -0.9200802 -0.12300097 -0.5028184 -0.12080092 -0.17608115 0.08487389 0.39591786 -0.030704107 -1.2146597 0.37355527 0.07168653 0.09030153 -0.06369363 -0.2638738 0.09645278 0.7270916 -0.30785838 -0.63218534 -1.2268991 -0.016974384 0.2003212 -0.85466915 -1.3812405 0.46112385 -0.3715096 0.24367522 -0.8734719 -1.102231 0.1032604 0.30764046 0.83210003 -0.029112352 0.409374 0.87231994 -0.099535145 0.018167626 0.6988887 -0.88804054 -0.29528153 -0.2221079 -0.7167513 -0.8187223 0.33966714 0.096011 0.0006980681 -0.18359403 0.10006863 -0.22202882 -0.6579559 0.5212513 -0.4176756 -0.071309984 -1.1088694 0.59058416 -0.31356615 -0.663496 0.73195016 0.45045108 0.015682457 -0.14477062 0.44830984 0.45620003 0.46352458 0.36579952 -0.9598198 -0.35696098 0.034652136 -1.1755776 0.88529116 0.19170013 0.07780494 0.63342196 0.6283045 -0.08652168 0.1503352 0.59447944 0.43090895 -1.1184584 0.05133136 0.32171217 0.4674912 0.8757653 0.1299879 0.41574413 -1.4170744 1.1520171 -0.29443297 0.11076958 -1.0836303 1.0254868 -1.0006628 0.07601684 -0.02767662 0.33124438 -0.11458056 0.52774966 0.049361233
accidental -0.19658913 0.1328557 0.04013121 -0.4301049 -0.2332892 -0.32482222 -0.071959086 0.13907346 -0.10032505 0.32896566 0.109008566 -0.5136584 0.26955754 0.15398769 -0.10823031 -0.33670557 -0.262718 -0.27392146 0.40340322 -0.2702837 -0.5534564 -0.32722205 0.09891257 0.018534357 -0.32120484 -0.5667916 0.29009724 -0.20621198 0.13845855 -0.11813762 -0.27510208 0.026891336 -0.0047148084 0.44194373 0.2619456 0.17530584 0.25648215 -0.057416264 -0.12879258 0.4110477 -0.35099566 -0.29583475 -0.0944074 -0.30981278 -0.74223346 0.20326868 0.107415624 -0.012464913 -0.31158635 0.1102609 0.23509076 -0.09970565 0.22175743 -0.42964736 -0.10821376 -0.5526531 0.23176384 -0.17100407 -0.1783641 0.2320731 0.09715887 -0.14182292 -0.07626587 0.14554901 0.18775703 0.103848614 0.283858 -0.7272841 -0.25941163 0.033631437 -0.30722407 0.33139682 0.13878284 0.15032174 0.3597096 0.36912096 0.37221864 0.3619451 0.4804262 -0.06607366 -0.28136444 0.058442894 0.28966686 0.22120899 0.19131346 -0.19505036 0.09273038 -0.6360188 0.4689831 -0.15242001 -0.007459917 -0.45271066 0.2858722 -0.5096699 0.123490594 0.2746318 0.036029305 -0.03908278 -0.11646412 -0.040436555
therapeutic -0.21841659 0.9350121 0.22930793 -0.95934355 -0.17884883 -0.565186 -0.116094805 -0.15842062 0.025219068 0.4532784 -0.055211134 -1.2435281 0.44242123 0.06606692 0.027882779 -0.17487672 -0.31683108 -0.057401083 0.7907748 -0.3494104 -0.7131842 -1.2703154 0.022502933 0.23052467 -0.9220531 -1.400777 0.52381283 -0.40302926 0.25006664 -0.8638621 -1.0813466 0.030771354 0.26337788 0.91588116 0.005677551 0.4209372 0.84186625 -0.07978172 -0.01237796 0.7717849 -0.9707114 -0.33974192 -0.20377734 -0.7755413 -0.986974 0.34090978 0.11512444 0.07604128 -0.20699477 0.09282539 -0.16299175 -0.63917553 0.5194848 -0.5472432 -0.09251963 -1.1741055 0.6325098 -0.36275628 -0.7185283 0.71290296 0.45290393 0.0010777604 -0.14413862 0.42881963 0.45729 0.5022225 0.37747455 -1.0808947 -0.4159726 0.075388886 -1.1503465 0.97219837 0.1787729 0.11518212 0.6998044 0.63152206 -0.014835189 0.21215677 0.63638854 0.36038163 -1.0657932 0.049769014 0.35611427 0.5136619 0.89423704 0.093939155 0.402657 -1.5148314 1.1716954 -0.2499895 0.0918955 -1.1506104 1.0598756 -1.0192647 0.10046329 0.12144745 0.3291958 -0.069549255 0.35799125 0.026772363
cerebral -0.34767726 -0.37017477 -0.29504663 -0.035174776 -0.47633618 -0.39499778 -0.0005582827 0.138617 -0.14469334 0.51092756 0.027991185 0.33787262 0.5982486 -0.22230895 -0.26555672 -1.0008901 -0.462026 -1.8128707 0.1606251 -0.4039485 -0.41785273 -0.69176364 -0.12714934 0.15180089 -0.64290965 0.03481246 0.7593898 -0.092358366 0.3131725 -0.41416553 0.13668753 -0.52766407 -0.24628446 0.31518224 0.1952578 0.0035131408 0.18569173 0.34351322 -0.22825138 0.2746792 -0.18021254 -0.39357498 0.17653696 -0.2257691 -1.0152874 -0.34244412 0.30712324 0.8975349 -0.17436612 -0.14002867 0.5221036 0.29956737 -0.16685261 -0.84020966 -0.21779212 -0.54738986 0.58267707 -0.37450388 -0.20164742 0.067574374 0.17593595 0.41361007 0.1722607 0.3223325 -0.1983755 0.058531206 -0.25828844 -0.59590036 -0.36382002 -0.048810687 0.39184728 0.81452185 -0.07484484 0.32793206 0.7973213 -0.08724844 0.4407565 0.66029966 0.023225287 -0.510796 0.6707839 -0.23341735 0.1659772 -0.19902591 -0.036597863 -0.12338592 -0.14261538 -0.26881126 -0.55107564 0.5040635 -0.6551088 -0.8619892 0.3395491 0.037794266 0.47239897 0.9203388 -0.022022206 0.375222 -1.4353278 0.09667295
face -0.34114844 -0.25085744 -0.41792956 -0.25551987 -0.6154434 -0.25996864 0.013968327 0.1964747 -0.47780642 0.4849442 -0.19113198 0.04156389 0.4679596 -0.3070442 -0.7395667 -0.5516997 -0.38157636 -1.7918096 0.26418245 -0.36882865 -0.25792626 -0.74231166 -0.29956156 0.30197617 -0.6690031 -0.102415234 0.44034806 0.13343194 0.24627556 -0.18660706 0.4635696 -0.61337423 -0.3076983 0.19275163 0.000462296 0.09154908 0.017172588 0.29209265 -0.54020816 0.35662276 0.088078976 -0.24576709 0.22331226 -0.2751066 -1.0165783 -0.55221 0.49959025 1.092356 -0.4075862 -0.022730323 0.586616 0.46165225 -0.3476753 -0.78434914 -0.568732 -0.39505717 0.559246 -0.13328634 -0.21825457 -0.055281572 0.25141802 0.39439118 0.31895918 0.376394 -0.17882271 0.17425 -0.032378864 -0.34664673 -0.2318137 -0.052552182 0.23916252 0.6927438 -0.124437876 0.18109138 0.6100646 0.004175797 0.32585135 0.3724556 0.37806544 -0.76588535 0.7646882 -0.04564205 0.19376975 -0.4912644 -0.3636359 -0.58237165 -0.25445166 -0.20763807 -0.3731405 0.5989169 -0.6531783 -0.893374 0.058789335 -0.13369995 0.46275035 0.9563082 -0.07853126 0.7292693 -1.4378004 0.370629
obstruction -0.21086606 -0.32655287 -0.21110734 -0.004865161 -0.3552101 -0.23913491 -0.054447647 0.18716447 0.13098237 0.21538164 0.18325275 0.20879643 0.31182212 -0.0670406 0.1015443 -0.89663386 -0.45611614 -0.9880499 0.15709178 -0.18351747 -0.2635982 -0.36672547 -0.035389148 0.031551052 -0.50366926 0.08847624 0.5440599 -0.12566087 0.16302925 -0.30081195 -0.0049118125 -0.25818837 -0.14560986 0.37928495 0.19635303 0.07403568 0.22806369 0.23255701 -0.02411089 0.08658234 -0.26053146 -0.35235938 0.20641969 -0.10655414 -0.6449414 -0.039077155 -0.030706825 0.4055323 -0.20143905 -0.1907255 0.3529928 0.08844682 -0.005122352 -0.6638933 -0.006659799 -0.40259546 0.2655174 -0.3208911 -0.17246565 0.058995564 -0.06313075 0.09839133 0.10426415 0.10263083 -0.17771727 -0.008028378 -0.26116586 -0.46642026 -0.37168437 0.08041946 0.09956731 0.40812096 0.012105164 0.30670962 0.39960098 -0.1789246 0.17182496 0.44136694 -0.13436429 -0.052879572 0.39499947 -0.18394825 0.035568193 -0.010820381 0.08731839 0.05830952 0.03927045 -0.3534925 -0.35800985 0.23692073 -0.28422484 -0.40427738 0.3561033 0.10932231 0.19159713 0.5854406 0.0015604787 0.001100928 -0.96914655 0.09391925
complicated -0.20725483 -0.12758836 -0.029054925 -0.015275024 -0.4447864 -0.33569816 -0.093115 0.106715865 0.04364179 0.24556899 0.020334994 -0.171193 0.3980625 -0.00019364523 -0.007977867 -0.60384005 -0.24137552 -0.763558 0.2796236 -0.2541011 -0.42705408 -0.35941237 0.030742273 0.14732216 -0.45522207 -0.2282931 0.43781394 -0.0065521207 0.124103785 -0.108684696 0.060731024 -0.11098209 -0.116192795 0.27797237 0.19943483 0.047841012 0.23020756 0.07691493 -0.11894242 0.32535562 -0.24817282 -0.2883992 0.0898529 -0.32961193 -0.61514336 -0.045967944 0.18867664 0.33306685 -0.21831729 -0.09094444 0.4357531 0.11826677 -0.019807497 -0.6243349 -0.04794152 -0.34089348 0.12574768 -0.29024416 -0.22381526 0.07139373 0.029432613 0.10881923 -0.0024000646 0.0032052281 0.0066349013 0.07234871 0.0017100307 -0.461617 -0.23871925 0.056238633 0.18248653 0.43134958 0.033843957 0.1946941 0.43439427 0.06655178 0.27721792 0.30082834 0.16468088 -0.1821746 0.33524254 -0.13269168 0.2304463 -0.034594867 0.055862777 -0.1263651 0.020030694 -0.49495232 -0.073767774 0.06783883 -0.2490572 -0.44287255 0.21543765 -0.19541447 0.07983035 0.47827128 0.07208508 0.14639474 -0.71663594 0.07194022
skin -0.36924738 -0.109604925 -0.14534816 0.035289176 -0.3573397 -0.26751876 -0.17171624 -0.041944817 -0.033773456 0.164903 0.07553049 -0.593621 0.31124994 0.014460123 -0.38809082 -0.6101237 -0.5822918 -0.6906328 0.48882917 -0.4030612 -0.64378756 -0.4782573 0.25283784 0.16578448 -0.64096624 -0.27180034 -0.049101673 0.18332203 -0.0840263 0.14403638 0.18517114 0.16924666 0.09647303 0.48734733 0.31414756 0.034563113 0.228863 0.020133385 -0.27629104 0.3501755 -0.35085994 -0.0795792 -0.0021803246 -0.2453816 -1.1506552 0.12930302 0.3767312 0.3837362 -0.46596754 -0.1239384 0.51462716 0.232081 -0.27760425 -0.61922413 -0.37229806 -0.6241309 0.14326507 0.14413688 -0.33589754 -0.075372875 0.06704471 -0.12628199 -0.029834514 0.1589619 -0.09998518 0.22155061 0.24815285 -0.20863947 -0.44386962 0.10707881 -0.17901257 0.29898143 0.14828409 0.0136442445 0.29223287 0.12944235 0.31561443 0.4216182 0.49018863 -0.41067535 0.32346708 0.020750703 0.0943232 -0.0199728 -0.101400174 -0.501583 -0.060031094 -0.650711 0.3738233 0.18600766 -0.087503515 -0.5211107 0.15968736 -0.29493722 -0.21024957 0.18262704 -0.059098586 0.14076072 -0.5798 0.09119247
laceration -0.36881265 -0.42718878 -0.34150648 0.07933339 -0.45904317 -0.36391842 -0.027492503 0.08142697 -0.1390503 0.47714177 0.053456016 0.3847989 0.6056976 -0.18183333 -0.3085869 -1.0253226 -0.46262723 -1.8971313 0.14033362 -0.39271957 -0.40676922 -0.6412476 -0.09425861 0.17436491 -0.6434358 0.14269651 0.7164103 -0.046301622 0.30223957 -0.3663589 0.22322252 -0.5410952 -0.28924948 0.30448964 0.18984711 -0.009271039 0.12138641 0.3534216 -0.27268794 0.247852 -0.1294779 -0.33044523 0.20014712 -0.14382878 -1.0201944 -0.40183133 0.36488673 1.0139539 -0.11845633 -0.16970897 0.5249534 0.33370483 -0.25609872 -0.8114187 -0.22099468 -0.5259457 0.5885034 -0.343513 -0.16153087 0.060688663 0.16150786 0.5061929 0.2117231 0.34324765 -0.26596206 0.079282254 -0.3127696 -0.47761682 -0.35934633 -0.054414246 0.4707994 0.8019463 -0.103733465 0.30542302 0.8296426 -0.14738391 0.43708342 0.6473793 0.014075327 -0.5427044 0.75116634 -0.19968243 0.14914732 -0.25978008 -0.07098019 -0.09560798 -0.21228425 -0.19849166 -0.6118563 0.59090143 -0.68303525 -0.7875374 0.30478808 0.14820333 0.42620596 0.8833846 -0.02060717 0.39870262 -1.4743311 0.09165051
congenital -0.14147066 -0.0077817636 0.003675489 -0.25915772 -0.32073975 -0.27591088 -0.041762702 0.12106958 -0.024254443 0.25755322 0.074566096 -0.38202232 0.2778454 0.061650045 -0.0263404 -0.3533554 -0.2818572 -0.34076092 0.37840882 -0.26007038 -0.37914288 -0.26200983 0.09071314 0.03873442 -0.3380328 -0.3643204 0.2764582 -0.14132586 0.09034348 -0.07557799 -0.16686976 0.025192017 -0.00090213807 0.36958784 0.21591404 0.15299177 0.2598731 0.03809315 -0.10329973 0.31822562 -0.30105484 -0.25858867 -0.029898072 -0.25984034 -0.6510276 0.09285728 0.16020203 0.1174863 -0.22717538 0.014260552 0.2537428 -0.06193906 0.10544767 -0.45499894 -0.10065903 -0.47331554 0.1672557 -0.14741717 -0.17940448 0.12044506 0.07813777 -0.13168609 -0.014680359 0.10968598 0.03983886 0.14101835 0.19307315 -0.550563 -0.17644489 0.075235054 -0.14138107 0.33871606 0.12372726 0.09991918 0.28845227 0.22228222 0.28533733 0.26973414 0.33732894 -0.14844805 -0.05718299 0.007351049 0.22362745 0.13687019 0.09314027 -0.19665748 0.011773531 -0.5318018 0.29307407 -0.060380507 -0.07209695 -0.4240126 0.17727636 -0.29842332 0.028293109 0.31773803 -0.008784207 -0.0011520869 -0.2990319 0.0025073679
benign -0.23030786 -0.098415576 -0.02231945 -0.22283755 -0.40408295 -0.36854917 -0.06519082 0.18261409 -0.05882237 0.36724716 0.06636538 -0.48821133 0.3935109 0.1117497 -0.13858466 -0.53630966 -0.3643282 -0.5924107 0.44381475 -0.32855955 -0.4541788 -0.3588367 0.112036616 0.13001293 -0.4806587 -0.39433753 0.2853426 -0.12824911 0.06484835 -0.05820069 -0.14104344 0.0127709815 -0.04304514 0.5162576 0.29313052 0.16017379 0.23563676 0.023435043 -0.19780108 0.409258 -0.38269764 -0.29310146 -0.013963018 -0.28837684 -0.91575456 0.09890228 0.250463 0.21542749 -0.3633776 -0.017964683 0.34957302 -0.01489845 0.07992619 -0.53902936 -0.1782546 -0.5831902 0.27165645 -0.10782589 -0.25940856 0.1374414 0.052219126 -0.17171426 -0.02309082 0.13806717 -0.053283382 0.18799488 0.17496729 -0.56787616 -0.29117173 0.11533846 -0.15789095 0.4478179 0.12697367 0.15349503 0.33567065 0.19791435 0.29893893 0.33729348 0.4043031 -0.17832574 0.06311271 0.038750127 0.25157896 0.06345143 0.12629043 -0.24976696 0.008963642 -0.61937445 0.2608329 0.0026469312 -0.14372535 -0.5286743 0.20133002 -0.2635328 0.053743802 0.43281838 -0.084307574 0.10477924 -0.55721545 0.008324702
dislocation -0.20873775 0.049472444 -0.071128726 -0.21605515 -0.3555276 -0.19610369 -0.031732224 0.14822114 -0.051692713 0.28039137 0.012399903 -0.3898613 0.29091382 -0.036200013 -0.22384006 -0.21585204 -0.22539246 -0.56495136 0.22255522 -0.2851329 -0.30027673 -0.40288126 -0.05860049 0.16957839 -0.28851688 -0.35529268 0.112732075 0.07345488 0.08428531 -0.01880827 0.15253823 -0.12950991 -0.10742772 0.26771888 0.10992413 0.0901297 0.1809708 0.105350874 -0.2788898 0.28410998 -0.09223797 -0.25937533 0.09877334 -0.25921172 -0.6617761 -0.080426015 0.29557967 0.38357103 -0.30225638 0.049252164 0.35938022 0.14118455 -0.095033325 -0.45199797 -0.3039354 -0.33856738 0.14999346 -0.14262865 -0.17191707 0.028170355 0.20501934 0.05066733 0.097665064 0.17317289 0.02464803 0.090335324 0.26452565 -0.43221837 -0.16785063 -0.038492594 -0.015642764 0.31932488 -0.03145891 0.16360833 0.16281116 0.19054395 0.20698565 0.20234108 0.43552756 -0.32239014 0.18676397 -0.0029260758 0.31148776 -0.20436525 -0.14269784 -0.35296 -0.004518036 -0.41747317 0.16668291 0.060661398 -0.25256094 -0.5681587 0.019307856 -0.31578854 0.13698466 0.40022928 0.040228065 0.2694903 -0.3389754 0.14635946
eye -0.1756538 -0.07234128 -0.042380575 -0.069756806 -0.43976703 -0.2638339 -0.113441974 -0.013880457 -0.1962593 0.18827358 0.072855234 -0.38886654 0.3323539 0.14975652 -0.28306788 -0.4132981 -0.4694307 -0.7140547 0.4617484 -0.40475824 -0.36794057 -0.33095208 0.05930361 0.29742318 -0.46625257 -0.22202973 0.078421734 0.03934327 0.09935431 -0.09086935 0.13927105 -0.05606598 -0.00036092958 0.35430846 0.13168228 0.15287836 0.2372276 0.123271175 -0.2958107 0.4531774 -0.24634969 -0.16392626 0.035722055 -0.196906 -0.672085 -0.22408856 0.36504826 0.56158763 -0.17593206 -0.043073762 0.28715175 0.08983073 -0.100087576 -0.36054376 -0.32431737 -0.3590719 0.30911016 0.08676979 -0.1203536 0.23763978 0.22943424 0.061343074 0.07132607 0.29670325 -0.029536886 0.34064236 0.27770576 -0.18624856 -0.16970903 0.035814703 -0.01481849 0.5101513 0.0206916 -0.07591256 0.51481146 0.26161435 0.2763148 0.3046791 0.7218416 -0.32125187 -0.01250699 0.20460144 0.26281756 -0.003667109 -0.00074558647 -0.29472485 -0.27548903 -0.4323718 0.2745303 0.19155857 -0.18741938 -0.46901828 0.099653706 -0.15871163 -0.032281056 0.2036053 -0.05996696 0.16976441 -0.38723552 0.13774474
affecting -0.17594478 -0.08602723 0.029470779 -0.24967879 -0.11939159 -0.43113208 -0.0047683474 0.13392895 0.086774446 0.40327424 0.043429844 -0.23736188 0.36919457 -0.018972315 0.25940943 -0.74580234 -0.4937968 -0.40911996 0.37392533 -0.1593629 -0.5103598 -0.378146 0.1281062 -0.060062505 -0.50092053 -0.5216194 0.765585 -0.321092 0.047778256 -0.32117313 -0.4574231 -0.05497616 0.1281614 0.54941016 0.32347032 0.06657148 0.45859754 0.11941524 0.10003627 0.24475984 -0.5626772 -0.48741606 0.035224427 -0.3370365 -0.83673704 0.37219524 0.030617956 -0.15078576 -0.062726684 0.07275013 0.36606503 -0.22967878 0.33275557 -0.7128047 0.09310987 -0.7817417 0.23491773 -0.32607028 -0.28499106 0.10462821 0.09018455 -0.15981795 -0.13662176 0.040288094 0.03658444 -0.03515418 -0.024321413 -0.8661699 -0.43613797 0.10117077 -0.35993728 0.5461146 0.16352086 0.21700993 0.41764694 0.06118633 0.4730648 0.4431519 -0.059912875 -0.16722395 -0.117098905 -0.092475176 0.070910595 0.3963225 0.30268174 -0.11761375 0.24344575 -0.6708216 0.28381264 -0.08422528 -0.027399715 -0.66991633 0.41966012 -0.26467276 0.017351763 0.59069633 0.065590195 -0.11847182 -0.3705145 -0.06971072
