1815 100
unspecified 0.2719359 -0.031951845 0.49362853 0.20126629 -0.021760358 -0.21728633 -0.44553298 0.67199856 0.18571489 -0.15731487 0.27826288 -0.3474813 0.06289201 0.21297069 0.429381 -0.012303742 -0.37554142 0.17885719 0.08457626 -0.102561675 -0.58047456 0.18990174 -0.042758692 0.12966451 -0.22813745 -0.3874831 0.13855085 -0.212877 0.8863931 -0.07975413 -0.050914906 0.06721514 0.085493974 -0.27374104 0.28942883 -0.016594466 0.21490267 0.3306195 0.30277145 0.15907297 0.4151454 0.32954308 -0.08478925 0.47737172 0.163746 -0.4685872 0.045251288 -0.21821164 0.20554167 0.43302372 0.056541827 -0.16526566 0.38505775 0.23034374 -0.021581843 -0.107364304 0.45517087 0.12919916 0.191802 0.047860898 0.057356372 -0.33812028 0.28741685 -0.2404211 -0.3693982 0.062312037 0.05881097 0.030434383 0.22855142 0.43155953 -0.01676298 0.14802088 0.034177408 0.5582237 -0.15315175 -0.33446985 0.00032632786 -0.26828277 -0.14419794 -0.17549416 0.55105084 0.18792874 0.21605828 -0.3208124 -0.09014991 0.050643083 0.013413946 -0.078536846 -0.39631125 0.25401753 -0.049573794 -0.081363864 -0.2217581 0.24120635 0.14313707 -0.089494936 -0.1075825 -0.22376025 -0.3226408 0.4416153
without 0.88898385 -0.23751251 0.36557215 0.89770865 -0.32301536 -0.44846982 -0.59315413 0.9783317 0.20981254 -0.3651188 -0.009536554 -0.27292702 0.33355913 0.51272416 0.5559389 0.11830628 -0.20545912 -0.007745165 -0.12118178 -0.47220373 -0.536401 0.49934638 0.06581151 -0.21046817 -0.21906634 -0.76287895 -0.25825182 0.03966863 1.2108501 -0.263144 0.34589106 0.19485305 0.38096365 -0.1369199 0.66997266 -0.4977457 0.41313592 0.29173928 0.15262394 0.569158 0.30811152 0.53850734 -0.31291154 0.29511937 -0.49452317 -0.85988605 -0.012216057 -0.46521583 0.47925487 0.7762277 -0.083413616 0.34067813 0.80968416 0.61821544 -0.5217315 -0.3801523 0.7606013 0.3036914 0.32602844 -0.3475906 -0.35877028 -0.33529812 0.722845 -0.7504176 -0.46522063 -0.21179134 -0.18618134 0.5733748 -0.1248766 0.8234638 -0.05877614 0.9270977 0.5327336 1.0556699 -0.575565 -0.8500986 -0.070705116 0.15706138 -0.25554636 0.034951452 1.0270556 0.108389884 0.13146208 -0.5486195 -0.46432635 -0.018299067 -0.27923274 0.72952163 -0.57108396 0.7270221 -0.07875933 -0.23611505 -0.33157715 0.39382622 -0.07030885 0.06156307 -0.5656264 -0.2467402 -0.78915 0.66552037
mention 0.9420996 -0.25446424 0.3624414 0.96739566 -0.4304368 -0.43212807 -0.5832663 1.0652353 0.17150888 -0.35319224 -0.008385383 -0.32097593 0.352458 0.52979887 0.45636675 0.20185497 -0.21914709 -0.004617522 -0.06146459 -0.48885524 -0.49455538 0.6228033 0.03176502 -0.23938477 -0.26611158 -0.75968057 -0.3429858 0.162517 1.3809928 -0.34116688 0.33862823 0.19367926 0.28483367 -0.16017568 0.70107967 -0.55269766 0.39076722 0.44188032 0.14302383 0.6396456 0.43024236 0.5070409 -0.28187463 0.37454942 -0.39276415 -0.9067458 -0.060953517 -0.3923089 0.42897207 0.9023545 -0.0024264276 0.4376919 0.80854005 0.64779675 -0.53594023 -0.39521354 0.84292686 0.2988913 0.3276323 -0.37202606 -0.2815542 -0.40092063 0.733422 -0.7534993 -0.4911119 -0.25845897 -0.20947278 0.5965166 -0.11013548 0.8944916 -0.0701917 1.0490334 0.49960205 1.2045015 -0.6392286 -0.8888319 -0.004534371 0.24582206 -0.33394346 0.073330015 1.1018909 0.023689212 0.19161147 -0.5904154 -0.42457232 -0.057282146 -0.26226825 0.7577749 -0.62152135 0.73682785 0.039286543 -0.40216485 -0.3265258 0.33736053 -0.10695082 0.04449251 -0.5898155 -0.20594032 -0.86311585 0.63971794
specified -0.010781507 -0.13894735 0.62875277 0.2759141 -0.42133835 -0.25554442 -0.18628018 0.46475154 -0.08639096 0.32761532 -0.02317906 -0.02471253 -0.015366392 -0.008869087 0.08678345 -0.2834484 -0.33893383 0.029961115 0.1452436 0.2632586 -0.2173557 0.30773386 -0.09116302 0.25319198 -0.017881004 0.101654775 0.007863756 -0.34903908 0.6791779 -0.3328582 -0.28598574 -0.26858994 -0.23353678 -0.06931529 0.31796208 -0.038327847 0.17311436 0.1741794 0.43275002 -0.08671627 0.71737015 0.21577877 -0.1718279 0.055992026 0.4711284 -0.35728028 -0.09527898 0.12377353 0.17996776 0.15096146 0.37460047 -0.060477473 -0.044467762 -0.18524326 0.013089527 0.051565804 0.44471964 0.005614184 0.2773043 0.22912319 0.09202185 0.05370308 0.21376218 0.03695544 0.010022883 0.05163001 0.07786019 0.072176956 -0.14034937 0.15166213 -0.076639704 -0.076629914 0.25601658 0.5934145 -0.09220709 0.1073529 0.08174957 -0.29502884 -0.34009716 -0.08957316 0.5820234 0.28729367 0.3869232 -0.46545494 -0.0910697 0.11004812 -0.021743251 -0.36579934 -0.042918906 -0.08937725 0.18615933 -0.13949966 -0.01862719 -0.1632267 0.14859176 -0.113532886 -0.11323558 -0.2455621 -0.036895953 0.24043334
open 0.6601806 0.2309258 0.80199087 0.36823305 -0.30799094 -0.31783006 -0.8482434 1.1575811 0.33386132 -0.2508578 0.15601303 -0.5098788 0.5032835 0.52810353 1.185431 -0.4145839 -0.2421349 0.39757386 -0.099778034 -0.47917387 -1.0677288 0.4000923 -0.043474596 0.3782183 -0.12648441 -1.0869023 0.24116197 -0.54639333 1.1884876 -0.044834502 0.26944658 0.110210285 0.37161648 -0.2868431 0.40438452 0.12695684 0.24300511 0.57919174 0.25606894 0.5357823 0.13111019 0.49529177 -0.08992386 0.42228693 -0.1636567 -1.1228359 -0.09678369 -0.6893276 0.5461596 0.6868975 -0.29981825 0.07146341 0.994712 0.5389636 -0.15793033 -0.28297082 0.77412575 0.50811946 0.12775189 -0.01720738 -0.22414392 -0.548578 0.65662533 -0.7385017 -0.5554867 -0.13041635 -0.027689304 0.41858357 0.11519916 0.37564546 0.1478515 0.59025425 0.5421269 0.9660961 -0.3627689 -0.7137732 -0.56671983 -0.7901861 -0.07234159 -0.36816165 0.85115457 0.36322874 0.4049263 -0.3429658 -0.54597926 -0.08699043 -0.049182057 0.30600354 -0.90122026 1.0450381 -0.36804718 -0.09006143 -0.7026541 0.4237421 0.07138476 0.21250668 -0.5186639 -0.31867278 -0.5355366 0.8332671
injury 0.37466535 0.12253934 0.6478185 0.28410402 -0.25150672 -0.21275432 -0.572825 0.8675318 0.20585047 -0.07611251 0.07811262 -0.27195933 0.29333103 0.31263518 0.85776776 -0.3110129 -0.18556453 0.2504076 -0.012400291 -0.23724945 -0.801792 0.3300981 -0.03649186 0.2916431 -0.095892504 -0.7047909 0.19538906 -0.44412795 0.9280072 -0.060379915 0.09625765 0.098250166 0.220292 -0.19973914 0.3352831 0.18963102 0.17318939 0.28666648 0.34562883 0.26196548 0.2258014 0.38870224 -0.08695841 0.27995884 0.047019634 -0.70859784 -0.06583692 -0.43234187 0.41609412 0.42579296 -0.1737749 -0.013359665 0.6174422 0.30852506 -0.051082946 -0.12929386 0.6095987 0.318073 0.13530456 0.08102635 -0.14410241 -0.26229665 0.49154627 -0.4998339 -0.30439612 -0.045488622 -0.04763687 0.28401965 -0.07534666 0.30979398 0.09223996 0.3086981 0.319955 0.7383956 -0.24759263 -0.3062131 -0.3805418 -0.6003249 -0.102099165 -0.29047042 0.6466267 0.37111884 0.2755095 -0.34522575 -0.45419014 0.01255966 -0.06265766 0.14995399 -0.54250276 0.7040934 -0.25889033 -0.10549234 -0.44581866 0.2553217 0.15662521 0.06765851 -0.29386887 -0.27162933 -0.213795 0.6218764
complication 0.7456579 -0.31214422 0.17867532 1.0531214 -0.5351276 -0.48159158 -0.30308747 0.95627856 -0.0872604 -0.23493552 -0.028895687 -0.16096911 0.2516425 0.2737516 -0.0035470172 0.39928284 -0.17704602 -0.22111645 0.04263662 -0.36852205 -0.05976683 0.62650865 0.049137425 -0.55505973 -0.30716893 -0.34539515 -0.5851171 0.5027725 1.2815721 -0.509679 0.13400622 0.1029398 0.030756459 -0.13163619 0.88948345 -0.712764 0.4786527 0.2872317 0.22390588 0.5009237 0.77609086 0.5933166 -0.23022042 0.14824978 -0.18122473 -0.58954924 0.061163448 0.07339589 0.28892294 0.7736399 0.30041462 0.46486372 0.50833845 0.51071167 -0.5608388 -0.3102096 0.92175233 0.18868622 0.52495307 -0.29151297 -0.06297788 -0.0734917 0.62026936 -0.46307623 -0.38305283 -0.15509227 -0.23479208 0.3938407 -0.33736587 1.1247675 -0.24153511 1.013303 0.3897038 1.1491083 -0.64876354 -0.6467171 0.39460126 0.60358626 -0.6241503 0.106926024 0.9847352 -0.039851204 0.09034257 -0.674968 -0.3303217 0.06983959 -0.32942605 0.6561722 -0.41460514 0.353174 0.284542 -0.67329013 -0.048103616 0.17768568 -0.13637015 -0.13738789 -0.42349657 -0.12768179 -0.7000478 0.6138726
fracture 0.45492312 0.36178297 0.87789214 0.014289605 -0.2458749 -0.20747484 -0.6515619 1.0361774 0.25001833 0.0032119944 0.25611034 -0.4509352 0.52230304 0.39946377 1.0387248 -0.61597794 -0.16038439 0.46448064 -0.14666577 -0.35569933 -1.1085415 0.36717105 -0.06908683 0.6194667 -0.02918776 -1.0159429 0.47478977 -0.5597196 0.92408305 -0.019536607 0.11465667 0.10333968 0.20865116 -0.20864294 0.18653229 0.35535917 0.082484126 0.61392355 0.31355846 0.38359743 0.17925152 0.33877662 0.038889248 0.41813147 0.015611971 -0.9188906 -0.30009803 -0.50534916 0.40713844 0.6058474 -0.27221456 -0.03299113 0.8290796 0.2204262 -0.014567926 -0.09587838 0.6689257 0.53604925 0.025271013 0.29169026 -0.08629592 -0.48617294 0.45079738 -0.45151109 -0.28034353 -0.018068185 0.024899388 0.34020054 0.14782259 0.17098959 0.1920103 0.39549607 0.38185334 0.7402883 -0.18052217 -0.43942583 -0.5821461 -1.0652492 -0.10572796 -0.4080886 0.5598161 0.41104585 0.5086172 -0.346068 -0.58749527 -0.023855358 0.10098548 0.0242665 -0.6777304 1.0210947 -0.46227297 0.032647315 -0.5151476 0.23030207 0.121452115 0.3281473 -0.2915445 -0.36661768 -0.2597028 0.7323113
loss 1.0758847 0.23625053 1.2036898 0.93466306 -0.23916173 -0.32133356 -1.0721427 0.6928511 0.28073275 -0.029727863 0.19127493 -0.17755365 0.0648692 0.38807827 0.9638668 -0.40157607 -0.589456 0.20083094 -0.37959528 0.01706724 -1.4160353 0.46119767 -0.1144475 0.6854125 -0.03541481 -0.7514901 0.37939036 -0.91374594 1.1199915 -0.28033862 0.39079836 -0.034054082 0.2636242 0.15371871 0.4536929 -0.3708284 0.42543748 0.4164459 0.43153048 0.4139835 0.32033813 0.5219132 -0.45184597 0.2984634 -0.74171084 -1.2579633 -0.43986353 -0.9360118 0.7951083 0.285483 0.090044454 -0.3285585 0.78116226 0.38385016 -0.8000589 -0.713201 0.6746288 0.3817454 0.3999147 0.1576485 -0.8572988 -0.27643266 0.52265674 -0.97183514 -0.6639288 -0.16671143 0.17403105 0.8331516 0.02426191 0.07825961 0.20933029 0.21211104 0.9520667 1.0812308 -0.35585213 -0.87033355 -0.2271582 -0.4457016 0.387681 0.24617998 1.5048028 0.56301904 0.5627454 -0.98673326 -0.3877677 -0.34339887 0.010088104 0.10495728 -0.60523546 0.49102277 -0.12587863 0.5190848 -0.4723122 0.5151236 0.16854306 0.16114014 -1.1059009 -0.76465255 -0.9059138 0.4322375
condition 0.8954892 -0.33756667 0.22160979 1.1411783 -0.6078296 -0.51864845 -0.36643654 1.0285082 -0.016070817 -0.22635044 -0.021657541 -0.15945263 0.25167882 0.32636768 0.022387894 0.41795546 -0.19196677 -0.21787961 0.016806997 -0.39885187 -0.134689 0.7017269 0.024494043 -0.54198277 -0.35262647 -0.38911232 -0.59627515 0.53011054 1.470042 -0.5407694 0.15077268 0.07465116 0.036975294 -0.08322599 0.9131902 -0.7573651 0.52960235 0.2913445 0.27624345 0.52573895 0.8294564 0.6550678 -0.27105045 0.22237206 -0.23282133 -0.6906183 0.002991462 0.011703295 0.34294292 0.82726693 0.34838605 0.50087994 0.60945 0.53908086 -0.6649605 -0.38541055 1.06949 0.21713717 0.5615704 -0.30523896 -0.14869706 -0.1213205 0.711721 -0.5470525 -0.4408055 -0.1894795 -0.27411246 0.51372904 -0.34682748 1.1819619 -0.22488081 1.1276964 0.44142243 1.3213646 -0.7364291 -0.7930455 0.43125817 0.6225786 -0.6181478 0.17496039 1.145495 -0.056425605 0.07983477 -0.8139464 -0.36648414 0.047507092 -0.3461348 0.72937524 -0.45348328 0.4161619 0.3082648 -0.6711183 -0.04273668 0.17823824 -0.1732162 -0.1103234 -0.5242174 -0.18053399 -0.82102734 0.64533365
neoplasm 0.17014106 -0.12330402 0.80898696 0.5096247 -0.370693 -0.32863373 -0.1537703 0.6908763 -0.0263873 0.23794524 0.10423099 -0.12054394 0.1578171 0.23728251 0.28220218 -0.31618991 -0.4906955 0.15620062 -0.114368476 0.14679936 -0.39839607 0.34961227 -0.21010098 0.37996554 0.13248055 -0.0367445 0.20978485 -0.55160975 0.9003592 -0.35584947 -0.28766075 -0.46270597 -0.3642538 -0.13135979 0.3503056 -0.11774785 0.14777255 0.26474327 0.5573064 -0.15271635 0.79442364 0.1333718 -0.032678463 0.21607955 0.31496364 -0.41057393 -0.073361635 -0.03824471 0.20763698 0.027152888 0.23964934 -0.04329965 0.22308783 -0.20794708 0.1527586 0.11751938 0.60974973 0.038455922 0.3610271 0.039317574 0.2541762 -0.07956652 0.26615494 0.10745482 -0.03036497 0.20656607 0.10818582 -0.016643785 0.0994137 0.22955908 0.035341572 -0.16306965 0.25343597 0.57693106 0.02040377 -0.15211144 -0.12658146 -0.4222502 -0.20622821 -0.07254046 0.75827867 0.23957455 0.5958398 -0.57357067 -0.06464646 0.18539971 0.17559204 -0.3257699 -0.147501 -0.012824059 0.28598997 -0.2198534 -0.07056597 -0.07366722 0.16960518 -0.013563286 -0.17125809 -0.23107798 -0.048887894 0.51382524
malignant 0.0306302 -0.11725146 0.63847065 0.4369813 -0.29907104 -0.35099736 -0.23605408 0.5441433 0.06525648 0.30104688 0.13381273 -0.18061891 0.10366153 0.12574188 0.18470371 -0.25200477 -0.4004924 -0.031323 0.039799336 0.22788014 -0.37246817 0.32177275 -0.121749096 0.5096297 0.1255681 -0.02457742 0.16986518 -0.40738752 0.79283404 -0.24122141 -0.15584785 -0.3135685 -0.35336348 -0.18066855 0.25978506 -0.109997116 0.19163501 0.3063026 0.49056956 -0.012924063 0.70963115 0.07099626 -0.13384545 0.16185118 0.39077562 -0.2274257 -0.23575191 0.13025503 0.19488661 0.10659918 0.31496823 -0.08081276 0.08395161 -0.14025721 0.09675565 0.09899984 0.41285667 0.045094002 0.30318227 0.04157202 0.25161532 -0.16137193 0.13450067 0.08167523 0.018866526 0.1508208 0.071302004 0.06347211 0.09369791 0.20462538 0.07681429 -0.17532553 0.28071153 0.59845835 -0.05668635 -0.005995743 -0.1208551 -0.40220043 -0.16487397 -0.18630685 0.5598672 0.28965145 0.4449247 -0.5196432 -0.13568686 0.08027037 0.03591586 -0.23479185 -0.23444742 -0.2106835 0.1783464 -0.34830382 -0.008404551 -0.094061084 -0.0011715712 -0.12477728 -0.21870954 -0.24903943 -0.08156059 0.46845543
wound 0.6743022 0.1829612 0.63330054 0.54557574 -0.32737052 -0.29652843 -0.758956 1.0406835 0.29128036 -0.24601594 0.10854322 -0.4593751 0.45281553 0.525447 0.9824774 -0.24863663 -0.23302771 0.34488013 -0.15168932 -0.55424994 -0.8707072 0.42209885 -0.028853053 0.21502024 -0.11447204 -0.95984346 0.13697039 -0.35034195 1.1857951 -0.074581385 0.29542142 0.12027701 0.35215262 -0.2164577 0.45396054 -0.037139025 0.26908827 0.5455647 0.15445621 0.53008646 0.124524444 0.47786927 -0.0750733 0.41973963 -0.28102177 -1.0241444 -0.10164696 -0.5656555 0.46687096 0.70886314 -0.22762448 0.12374745 0.95212984 0.56133723 -0.21649007 -0.28462717 0.72517735 0.47477955 0.1720073 -0.13240753 -0.22885934 -0.56029415 0.64151627 -0.7362808 -0.53669035 -0.1475798 -0.014342213 0.422717 0.10501025 0.4886318 0.08688031 0.7054413 0.541015 0.9387777 -0.45223367 -0.73098224 -0.40235448 -0.46309268 -0.13069507 -0.21043503 0.81602675 0.29268935 0.3568755 -0.37086493 -0.48358718 -0.050718844 -0.06174203 0.3666742 -0.84372574 0.9316153 -0.29929462 -0.18051171 -0.5660001 0.36702532 0.0242625 0.15410438 -0.46209604 -0.27276504 -0.6325362 0.8044341
antepartum 0.8374277 -0.29631615 0.25936985 1.1209987 -0.54715204 -0.5169499 -0.3483434 1.0353303 -0.026263926 -0.2861232 -0.050545204 -0.20147775 0.2558755 0.3253966 0.06986562 0.3364432 -0.21869263 -0.18923114 -0.029080568 -0.41611576 -0.20542865 0.6893003 0.0317526 -0.5308408 -0.3189602 -0.4037608 -0.5765629 0.45323652 1.3457165 -0.5568485 0.20602563 0.14493088 0.040849272 -0.08839437 0.89157313 -0.77056 0.48906896 0.33368742 0.24710158 0.5823428 0.7533061 0.6193109 -0.26309222 0.18578365 -0.27994555 -0.6570141 0.002122616 -0.028933888 0.35552126 0.81271774 0.25116625 0.48296967 0.5904702 0.5619125 -0.59736586 -0.3469875 0.9607762 0.23116145 0.5489777 -0.3072236 -0.13101448 -0.1379946 0.6805843 -0.5121682 -0.42944363 -0.17167658 -0.25420204 0.47272888 -0.31948397 1.1324687 -0.23425421 1.0676569 0.42096198 1.177387 -0.6845464 -0.76822954 0.3733402 0.54807043 -0.5665581 0.1556508 1.0584265 -0.024681158 0.08111143 -0.7322296 -0.41962144 -0.00016152482 -0.3603377 0.7223885 -0.4117015 0.3866991 0.27735817 -0.59423447 -0.037374835 0.22693527 -0.09891724 -0.114599004 -0.52409387 -0.19346686 -0.8377321 0.61194134
due -0.04616941 -0.20692597 0.59114313 0.21002074 -0.43423316 -0.21453604 -0.1885599 0.63700694 -0.10993694 0.21285447 -0.035756994 0.012643355 -0.00036031858 -0.018952081 0.23414704 -0.2460802 -0.2637457 -0.015842479 0.24847868 0.22153883 -0.30269107 0.3121634 -0.058133468 0.13046151 -0.14477558 -0.02041687 -0.053182844 -0.27036026 0.849699 -0.3088684 -0.25979993 -0.14414786 -0.1096096 -0.16810861 0.36815912 0.07620094 0.20356524 0.11450564 0.48961785 -0.047559638 0.76874775 0.32050535 -0.16890578 0.09135412 0.55219895 -0.34536323 -0.032971278 0.059412383 0.19793999 0.28679433 0.24853735 -0.017184852 0.025447913 -0.048304465 0.081553236 0.09628652 0.56656295 0.004345931 0.24631047 0.2061412 0.07725809 0.11628902 0.28603587 -0.024637608 -0.03850329 0.04592173 -0.025099045 0.054991152 -0.27726948 0.31190118 -0.13169844 -0.0047694677 0.14683248 0.69794196 -0.1585394 0.22178143 0.05063107 -0.34768546 -0.42314953 -0.20210098 0.59708524 0.30946207 0.30989584 -0.4424468 -0.1758471 0.17361526 -0.12883425 -0.22376347 -0.0143852765 0.099857904 0.0712946 -0.24820872 -0.08351708 -0.12526098 0.25748903 -0.17761633 0.0021357164 -0.24914335 0.06221607 0.30817142
involving 0.16551332 0.10076527 1.1951687 -0.22778714 -0.1449015 -0.3070255 -0.17326237 0.9000847 0.48950562 0.046615925 -0.00049848604 -0.037951857 -0.52671134 0.07711034 0.20960262 -0.58563226 0.010501274 0.21492279 0.3841285 0.56159896 -0.7920927 0.32858709 -0.12031437 0.3475899 -0.09823439 0.14752446 0.18636787 -0.4862734 1.2950736 -0.37786904 -0.40836972 -0.30854392 -0.35477018 0.35562864 -0.014869556 0.6386665 0.15505853 -0.15462907 0.9326205 -0.28998235 0.86077553 0.6355785 -0.32268727 0.53484285 0.92767453 -0.37912565 -0.25275457 -0.20716894 0.14734456 0.015139784 0.58833635 -0.10112234 0.27455166 -0.3041071 0.0047235726 -0.064729325 0.84071004 0.051346302 0.3025116 0.8966452 -0.16076458 -0.054519884 0.8045847 -0.09558075 0.15068269 0.22211707 0.13527773 0.46401685 -0.34093487 0.07055238 0.14078155 0.006492557 -0.2166164 0.88733006 -0.24955042 0.26907405 -0.09302081 -1.0531466 -0.34984398 -0.40002754 0.75407827 0.31638753 0.031778853 -0.44576466 -0.105831176 0.29225776 0.059384376 -0.24848548 0.1168869 0.39223096 -0.23439878 0.4204679 0.3806817 0.22532111 0.66117513 0.024744576 0.1456336 -0.55641186 -0.0030497496 0.12120526
tuberculosis -0.56729573 0.9547723 0.46205145 0.11139643 -1.141427 0.12424668 -0.3238189 0.6915803 -0.66814256 0.9714546 -0.16147044 0.17230251 0.46844828 -0.6143174 0.5642762 -0.69043595 0.2506391 0.28453696 -0.20016122 -0.13420655 0.12527895 0.26990172 -0.22952314 0.31030598 0.044916585 -0.26878694 -0.49039844 -0.17094794 0.55437565 -0.4866778 -0.22883345 -0.759511 -0.29367483 -0.095933564 0.50017107 0.33326748 0.53703725 0.23938611 0.46957225 -0.023169216 0.6129765 0.92327213 0.154749 -1.0279545 0.8267746 -0.99029136 -0.30730495 0.7150498 -0.13041382 0.072721794 0.75943077 0.050117146 -0.09978249 -0.08430758 -0.36003667 0.16233192 0.67286634 0.33945426 0.28799215 0.79855186 0.33669862 0.39183187 -0.19717251 -0.103398904 0.10920113 -0.3880711 0.11115498 0.06870199 -0.93152124 -0.045088295 -0.42056146 0.13074173 1.0623436 0.43490994 -0.38673916 0.6031811 0.27459058 -0.35750934 -0.8005913 0.02284995 -0.0037756134 0.5665244 0.5378913 -0.2537019 -0.41672155 0.17487365 0.15222962 -0.73245937 -0.33569106 0.38810593 0.19406785 -0.85168785 -0.49302626 -0.6441179 0.11313074 -0.041412123 0.21321805 -0.07824943 0.22889161 0.5941509
consciousness 1.0961144 0.22932225 1.142755 0.8788209 -0.24075942 -0.2850158 -1.2652574 1.0654284 0.33952945 0.058498643 0.22963835 -0.1576241 0.45990947 0.36204907 1.4857082 -0.38448536 -0.5506255 0.22246733 -0.3822269 -0.24760856 -1.6795475 0.53548986 -0.024360096 0.5151202 -0.076084405 -1.2061514 0.5106669 -1.0059706 1.2910278 -0.14963584 0.49211246 0.2122904 0.48813093 -0.21250324 0.73749316 -0.029466806 0.45976263 0.26599857 0.5471186 0.4882632 0.32489341 0.7414919 -0.23871131 0.25991213 -0.68900776 -1.2907895 -0.18738538 -1.0350378 0.9369972 0.4823484 -0.31281003 -0.4343258 0.9769052 0.6401563 -0.7005912 -0.43480104 0.90185946 0.54127777 0.46257043 0.10296757 -0.81752014 -0.1195043 0.6615902 -1.0158889 -0.83140486 -0.15068826 0.02104248 0.7998091 -0.10138991 0.3898193 0.22165988 0.2233295 0.9714633 1.1210098 -0.27922377 -0.69410557 -0.3986771 -0.5833324 0.33376247 -0.120036125 1.4166093 0.76294845 0.45413417 -1.0304947 -0.7382359 -0.29221624 -0.09217308 0.24570775 -0.7183403 0.935809 -0.32720485 0.19934133 -0.7761001 0.6115646 0.124725215 0.116906494 -1.0015404 -0.7035728 -0.48818856 0.77995664
closed 0.35788125 0.30138546 0.7270982 -0.0631461 -0.15219235 -0.19999038 -0.5525542 0.8230835 0.21733709 0.0030967563 0.18979421 -0.3702411 0.3782034 0.28461325 0.8274669 -0.57285625 -0.12158567 0.35193917 -0.057714604 -0.18822506 -0.8917966 0.25177184 -0.067467935 0.51509297 -0.06046125 -0.78049093 0.36461616 -0.5145021 0.70742303 -0.01885728 0.066837676 0.037008118 0.12733887 -0.16588348 0.115692265 0.30384123 0.04666263 0.46233135 0.29415798 0.2822978 0.13706967 0.27989796 -0.0013860735 0.31802633 0.08970104 -0.7274915 -0.21465734 -0.44841298 0.35429573 0.4138209 -0.16060202 -0.0646638 0.6256631 0.15709077 -0.010672629 -0.13204004 0.55582565 0.40581924 0.029160788 0.27273083 -0.05511598 -0.35845122 0.37588045 -0.35380998 -0.25316066 -0.017685382 0.038230002 0.28196448 0.09167056 0.054241024 0.19762713 0.23386443 0.31072354 0.5719541 -0.116594695 -0.375042 -0.48735094 -0.9537754 -0.041812394 -0.3874762 0.4751219 0.3303613 0.37738606 -0.23365569 -0.43975565 -0.07005448 0.07233409 0.000252212 -0.5616471 0.75800043 -0.35927346 0.09173972 -0.45850286 0.20931284 0.10459226 0.25949988 -0.305743 -0.29766023 -0.222743 0.51905245
degree 0.91239905 0.08955186 1.4032259 0.8577865 -0.3121668 -0.42359325 -0.72219557 0.37576762 0.18722786 0.10890911 0.0530964 -0.2941678 -0.39010486 0.38179702 0.1267084 -0.566778 -0.75011563 0.23255222 -0.21290375 0.42390156 -0.8689482 0.39861426 -0.35121593 0.99143887 0.012678728 -0.03131698 0.15757816 -0.7420951 1.1329472 -0.54555446 0.1001274 -0.4805988 -0.2340934 0.51760656 0.15356876 -0.7591713 0.39297658 0.6956721 0.41267058 0.18097748 0.62366617 0.22075434 -0.6067793 0.39618605 -0.43336132 -1.2050828 -0.7152693 -0.48360178 0.51174164 0.08855691 0.7215834 -0.10968276 0.37147552 -0.19201593 -0.7553931 -0.87367815 0.4363485 0.22518887 0.26690906 0.36664852 -0.59907717 -0.48408493 0.387194 -0.63070905 -0.34193188 -0.14056234 0.3601761 0.78520846 0.22347221 -0.18543145 0.12400517 0.1221537 0.8175119 1.1537663 -0.43605205 -0.9836864 0.0524317 -0.50330305 0.097808436 0.5618821 1.5472044 0.36972257 0.7998644 -0.8927736 0.13001046 -0.29887587 0.24248159 -0.3398856 -0.41724548 -0.16622618 0.23740834 0.7099753 -0.0047198962 0.22245742 0.22149964 0.23065306 -1.0437671 -0.78214926 -1.3565253 0.06435653
intracranial 0.9431636 0.31368944 1.0246198 0.4950669 -0.2372898 -0.3048801 -1.1055273 1.4187763 0.46745968 -0.39430574 0.2345334 -0.516486 0.4482636 0.61385256 1.5054119 -0.38983437 -0.25580886 0.44712797 -0.17808494 -0.56095207 -1.5550402 0.4037282 -0.045090895 0.41314128 -0.19139431 -1.4048604 0.371344 -0.69840825 1.5204875 0.008155868 0.37494004 0.2733683 0.57097334 -0.26930225 0.47087586 0.18196474 0.35890985 0.5317461 0.4116317 0.6594721 0.102858126 0.6803014 -0.16551574 0.55970746 -0.3531466 -1.351429 -0.14927815 -1.0143588 0.70622617 0.78405976 -0.47002617 -0.09481648 1.266531 0.7662637 -0.3716229 -0.41296092 0.95001084 0.60851777 0.19231598 0.028795823 -0.46031982 -0.61899036 0.7738305 -1.0192884 -0.72580445 -0.12347538 -0.040656783 0.61342347 0.11056197 0.5242462 0.19028704 0.6837887 0.5559177 1.1613946 -0.45955807 -0.85541964 -0.6256095 -0.8862658 0.108619526 -0.33759648 1.1471055 0.5032909 0.34742922 -0.5409191 -0.6825279 -0.14048138 -0.09938054 0.4005651 -1.0197258 1.3736137 -0.51802295 0.06944984 -0.8012026 0.66392446 0.23260769 0.20441225 -0.6415757 -0.51740646 -0.6293109 0.9564051
hemorrhage 0.66309667 0.084578425 0.59881246 0.49169993 -0.123129696 -0.21482055 -0.74190897 1.0136151 0.26161066 -0.2779244 0.15371025 -0.3185332 0.31446436 0.4267881 0.9330076 -0.11806102 -0.22103557 0.19719253 -0.084726095 -0.36923957 -0.96946216 0.31473467 -0.0037719023 0.18913452 -0.1487586 -0.97346693 0.1040025 -0.3348703 1.1481832 -0.056970127 0.25548854 0.22037007 0.40015873 -0.24545683 0.44803804 -0.060092635 0.3372099 0.30923447 0.30913535 0.4524677 0.16032566 0.49230027 -0.17715707 0.39990965 -0.26868743 -0.8820685 -0.03241387 -0.6447728 0.49733868 0.6232428 -0.2596039 -0.047336593 0.8176057 0.5767058 -0.29595664 -0.32675704 0.71791863 0.32377204 0.1568242 -0.07606539 -0.26956603 -0.39026895 0.5194166 -0.75667614 -0.47019354 -0.12198281 -0.09775952 0.41137078 0.0066747614 0.521529 0.069504976 0.5697801 0.38745713 0.8017363 -0.36673355 -0.6402125 -0.28918895 -0.3568414 -0.038971484 -0.15205209 0.86843175 0.31956226 0.24156919 -0.44396573 -0.4599576 -0.05855722 -0.12741804 0.29354343 -0.7124821 0.8998641 -0.24977452 -0.0679043 -0.5323638 0.42547253 0.09720245 0.06604149 -0.4781252 -0.33468932 -0.4889872 0.67157096
delivered 0.80550486 -0.29483625 0.19670437 1.0739157 -0.52370757 -0.48712692 -0.35790047 0.947054 -0.04690081 -0.24224044 -0.011054032 -0.17031123 0.25290394 0.3213407 0.055471014 0.36234665 -0.17452651 -0.19739164 0.0023504507 -0.3960043 -0.13658807 0.61718583 0.053259775 -0.5022765 -0.3171695 -0.40301782 -0.55939704 0.46514338 1.2724833 -0.47506574 0.1814947 0.10905098 0.07946532 -0.097708136 0.845008 -0.7242906 0.4849771 0.28103974 0.2330752 0.5307716 0.701008 0.58957744 -0.25847644 0.16356398 -0.25685602 -0.63276845 0.016502326 -0.017043788 0.3217678 0.754835 0.27287328 0.45770255 0.55464834 0.52885693 -0.59051806 -0.33410528 0.9219099 0.20276387 0.49369866 -0.29324928 -0.13474686 -0.119127 0.64331925 -0.5401965 -0.38320038 -0.1704153 -0.2371769 0.47023067 -0.3121114 1.0898315 -0.21110056 1.0102103 0.4383545 1.1715724 -0.6772171 -0.7170811 0.34648117 0.59071213 -0.56687385 0.15415293 1.0264972 -0.011107335 0.08504982 -0.6945967 -0.3562674 0.052127972 -0.34317556 0.6915334 -0.41843793 0.4067963 0.25203404 -0.59856474 -0.05732975 0.20665568 -0.14554971 -0.11500338 -0.46442154 -0.1597904 -0.7550996 0.6243436
acute 0.16301453 -0.19279571 0.45821813 0.3092232 -0.2819268 -0.2315958 -0.3033704 0.6176571 -0.028769672 0.08365541 -0.013379593 -0.054419152 0.10963405 0.104411714 0.32222962 -0.13266195 -0.24779908 -0.007864044 0.13545725 0.07639743 -0.35874933 0.28115425 -0.05904205 0.13347873 -0.1277739 -0.25294366 -0.07123296 -0.24667768 0.78102356 -0.27568808 -0.064632565 -0.044078026 0.044587817 -0.1857124 0.3768636 -0.066737495 0.21746907 0.15515316 0.38691732 0.08789174 0.534805 0.33212864 -0.21914898 0.090291634 0.2209359 -0.43290538 -0.06816991 -0.07738002 0.24593964 0.37179327 0.18411635 0.038688432 0.17239034 0.10186392 -0.088404834 -0.018814145 0.47814518 0.07815048 0.17980681 0.07049116 -0.06266799 -0.0053437133 0.30853337 -0.20222935 -0.09867032 -0.035257544 -0.054413013 0.17990756 -0.22975346 0.33107933 -0.09552797 0.1542037 0.25332466 0.6344375 -0.20973584 -0.048558876 0.023247939 -0.18172377 -0.3313373 -0.07305928 0.6086388 0.2444651 0.27599546 -0.4030392 -0.21660458 0.08490938 -0.08874366 -0.04195274 -0.17821592 0.23999709 0.030041775 -0.21233143 -0.16189028 0.005471488 0.13084446 -0.068020806 -0.14279085 -0.17480494 -0.123186246 0.34333527
disorder 0.09242094 -0.12719436 0.5820547 0.2649518 -0.33110836 -0.1785458 -0.28801468 0.63252616 -0.097713396 0.12994744 0.11066202 -0.08667149 0.019000126 -0.032023754 0.2102761 -0.07495795 -0.38138005 0.027639464 0.17333877 0.15194625 -0.3473189 0.29990533 -0.1026851 0.08385387 -0.21801916 -0.13885765 -0.06949729 -0.19942787 0.8741251 -0.30424255 -0.1779639 -0.06726724 -0.07322257 -0.23588912 0.37187678 -0.038349327 0.26622754 0.24498941 0.44803956 0.05101518 0.7378812 0.39657563 -0.1501979 0.1541781 0.3943949 -0.34492832 -0.0290555 0.066545464 0.108165525 0.3144958 0.30439633 -0.11614051 0.09430054 0.07481529 -0.06246046 0.017317044 0.54903036 0.07054778 0.20289868 0.14655137 0.068029284 0.039649043 0.19857547 -0.07192906 -0.1769575 0.04898664 0.036972433 0.021075131 -0.13204837 0.36413544 -0.1997511 0.049592257 0.15268615 0.66066563 -0.13558353 0.014664427 0.2175801 -0.15094697 -0.35102826 -0.063616 0.60585266 0.26475325 0.29597837 -0.48264995 -0.089406185 0.09415458 -0.047286425 -0.24367563 -0.15503258 0.08859271 0.13736884 -0.26513422 -0.08505462 -0.005646819 0.21116903 -0.14717646 -0.03623064 -0.19899902 -0.11663647 0.34139046
poisoning -0.21586037 -0.20775962 0.78449225 0.21259952 -0.62032413 -0.17577161 -0.1663527 0.65637547 -0.29999736 0.42218342 0.019227583 0.084872685 0.011421564 -0.21544646 0.24235934 -0.33000684 -0.35334674 -0.04638037 0.29301912 0.38022918 -0.34759575 0.38518465 -0.17297922 0.30205634 -0.16675009 -0.001647376 -0.061406013 -0.37382776 0.7909784 -0.4091285 -0.41894245 -0.13700181 -0.24093221 -0.24864948 0.3839217 0.14680502 0.26469982 0.16869368 0.685685 -0.04472277 0.9841916 0.28993338 -0.1760696 -0.13555107 0.80349445 -0.30429268 -0.113428436 0.20372194 0.13142219 0.19929463 0.40662995 -0.12509446 -0.18452658 -0.19666813 0.09919035 0.2586154 0.61895776 -0.0005142098 0.23116647 0.2554381 0.12079873 0.33742294 0.16092055 0.07924738 0.04274475 0.026094731 0.0058742072 -0.015561916 -0.40144363 0.21187511 -0.28501529 -0.19745614 0.19031487 0.74073297 -0.08223881 0.4919418 0.16988954 -0.4135731 -0.5569947 -0.12440986 0.6661553 0.41993055 0.48202962 -0.58052623 -0.19303378 0.18623532 -0.083416454 -0.53706515 0.029114548 0.0017471513 0.15320392 -0.466729 -0.08895659 -0.29103068 0.31263924 -0.24134748 0.08984822 -0.2038334 0.21481378 0.33596116
accident -0.14878365 -0.15902898 1.4124147 -0.3892846 -0.31927338 -0.4126464 -0.043020956 1.1336808 0.50576466 0.27343392 -0.09706475 0.27706203 -0.83177876 -0.23834993 0.16270103 -0.5587247 0.11297628 0.005393151 0.7666205 1.0465605 -0.7829974 0.43167815 -0.15007716 0.15694275 -0.18191539 0.566389 0.1092861 -0.64733386 1.6899483 -0.6154936 -0.7206854 -0.36501345 -0.56789696 0.3498198 0.047605354 1.1425766 0.2601471 -0.63094366 1.4881649 -0.6590591 1.4964261 1.0252789 -0.38909194 0.4453829 1.7528933 -0.10061542 -0.097926214 -0.026586154 0.0739978 -0.14676952 0.9208391 -0.16292813 0.0049044685 -0.49317515 0.15055445 0.269002 1.2050842 -0.1845727 0.48155648 1.1928898 -0.15687802 0.42504874 1.046307 0.22691582 0.38325992 0.4363057 0.084365785 0.44933614 -0.85347015 0.18344708 0.024607893 -0.30424505 -0.51620185 1.0954281 -0.21077643 1.0631183 0.13239682 -1.1806695 -0.6197881 -0.56880915 0.83071476 0.47237515 -0.21679038 -0.69199413 -0.120055564 0.56956947 -0.072270066 -0.41175267 0.5513686 0.2663458 -0.1879911 0.25987723 0.6588321 0.13207757 1.0443277 -0.27859783 0.56718135 -0.60072607 0.5833071 0.047573924
sites 0.14706323 0.001307458 0.74900985 0.3451091 -0.3429499 -0.3496839 -0.34832975 0.52560854 0.020807747 0.2843153 0.10086928 -0.37964705 0.24168901 0.20207454 0.25711837 -0.4788822 -0.5281098 0.21646604 0.18405779 0.07135104 -0.43557358 0.42734438 -0.18740122 0.51643264 -0.055269666 -0.10427899 0.23045038 -0.43704128 0.72139615 -0.3353986 -0.22448488 -0.26049018 -0.26591513 -0.08489677 0.3367673 -0.100726865 0.112041906 0.47078788 0.41957098 -0.016895512 0.6081105 0.07355937 -0.103604995 0.2486645 0.34995747 -0.5887175 -0.12909797 0.09420279 0.38110918 0.26404583 0.32748592 -0.0036622363 0.16259912 -0.20926839 0.19565584 -0.057541277 0.4174099 0.2466782 0.23294641 0.20490482 0.1352165 -0.2759127 0.33029532 -0.11299184 -0.12815253 0.06855376 0.114189096 0.09730912 0.19115669 0.14193684 0.10802899 -0.00202576 0.37033048 0.7725971 -0.17972022 -0.26497385 -0.16611803 -0.61342365 -0.3852386 -0.2684908 0.6418885 0.31170577 0.56637436 -0.40696537 -0.11845458 0.025764128 0.15954655 -0.3274906 -0.31954387 -0.08449989 0.121302046 -0.13845797 -0.18360224 -0.028016988 0.05809393 -0.0028407336 -0.37537318 -0.22192091 -0.30927232 0.5201559
disease 0.03554397 -0.22860359 0.51946867 0.22842465 -0.29213184 -0.29152903 -0.11048258 0.52343285 -0.16079248 0.17971228 0.09053106 -0.07484933 0.15174438 0.0018347749 0.23901753 -0.18133695 -0.33526102 -0.07019319 0.26908585 0.1707963 -0.4007293 0.40636194 -0.21843481 0.1966921 -0.19155106 -0.102606565 0.042742647 -0.24336901 0.6093118 -0.38589975 -0.19703801 0.011737898 -0.11613834 -0.19703668 0.35615376 0.006454954 0.09682818 0.27380335 0.5347667 0.062437236 0.6579265 0.16255096 -0.12471622 0.052079365 0.36894578 -0.20003282 -0.12711495 0.12676258 0.24029797 0.260455 0.26361135 0.023448268 0.0023684853 -0.114736356 0.1224151 0.101624876 0.45047915 0.16441184 0.14216007 0.12802613 0.006982301 0.14577143 0.2660914 -0.06266178 -0.015727764 0.05729188 -0.09181647 0.017148688 -0.18763122 0.24204518 -0.14430088 -0.08114178 0.099449426 0.6801469 -0.1027276 0.099162176 0.06186225 -0.28356794 -0.39875475 -0.14678438 0.49478963 0.25627863 0.3166905 -0.48300382 -0.21706209 0.090601966 -0.029233474 -0.12255394 -0.09309126 0.05710569 0.19627225 -0.39359432 -0.10165277 -0.020888386 0.19913736 -0.13464007 -0.15766418 -0.05565959 0.028918345 0.42496917
injuring -0.29163155 -0.12851965 1.4031274 -0.37466687 -0.3920735 -0.38798878 -0.058662497 1.1090323 0.43155566 0.3653589 -0.18262583 0.36222115 -0.8118237 -0.32039076 0.12007139 -0.58405644 0.13862927 -0.01760363 0.75501615 1.0767007 -0.67006844 0.4436825 -0.1291299 0.16516611 -0.13997315 0.6657435 0.075321585 -0.68960667 1.6580135 -0.65224534 -0.74714845 -0.43466187 -0.6181287 0.32788026 0.09359183 1.1388502 0.28203425 -0.69154704 1.5544543 -0.72723377 1.5915449 1.0802132 -0.4045788 0.3342291 1.8188767 -0.054239575 -0.103070825 0.0706067 0.089399055 -0.21418753 1.0009378 -0.1493366 -0.116676345 -0.5878987 0.16752349 0.30684945 1.1852978 -0.23900405 0.5336515 1.2394366 -0.13002585 0.591951 1.0231959 0.29379493 0.42263857 0.42454833 0.07524266 0.41049394 -0.9489903 0.1707432 -0.006249976 -0.37955534 -0.47023574 1.080294 -0.18453495 1.1891098 0.19725288 -1.0977477 -0.67032486 -0.57694286 0.7840417 0.53614193 -0.21870315 -0.69415545 -0.08905582 0.5956623 -0.06366537 -0.52162296 0.6085132 0.18284464 -0.118416406 0.22071524 0.67423654 0.078836024 1.0542475 -0.30452913 0.61420035 -0.57998866 0.68832034 0.06688969
chronic 0.18652304 -0.20350859 0.47242787 0.35331157 -0.30560514 -0.2744627 -0.30455413 0.65217304 -0.02755803 0.084039114 -0.021255957 -0.05976775 0.09278631 0.12620793 0.34522992 -0.14111109 -0.2734753 -0.024570469 0.13137557 0.06288282 -0.3768929 0.31218565 -0.080033116 0.12729254 -0.118197314 -0.25634488 -0.07500897 -0.28207022 0.83930343 -0.3318284 -0.0509369 -0.085359655 0.05593147 -0.18627085 0.40632978 -0.10440702 0.23352069 0.19849421 0.38972604 0.11209809 0.5714288 0.3488635 -0.2193791 0.10681184 0.17558491 -0.4713626 -0.085228756 -0.0969054 0.26940608 0.413076 0.22557047 0.07303429 0.18492226 0.12162232 -0.11931891 -0.030950386 0.5209116 0.10620099 0.1978722 0.062311698 -0.092081204 -0.020795416 0.3400467 -0.24509811 -0.11759542 -0.044000078 -0.047616657 0.18577676 -0.26691946 0.34950924 -0.108048074 0.1663175 0.27280548 0.67828894 -0.25628036 -0.051485498 0.029778635 -0.15489368 -0.36640498 -0.05068043 0.63427716 0.25473243 0.295896 -0.43238384 -0.24473621 0.103895575 -0.082257725 -0.008553108 -0.20713413 0.27306706 0.060178448 -0.24054006 -0.18100797 0.0068898154 0.13738836 -0.07699924 -0.17732736 -0.18103787 -0.16286424 0.36986136
episode 0.26987916 0.054616243 0.5504791 0.40673205 0.18871376 -0.12074114 -0.48720595 0.7930545 0.031601697 -0.27499062 0.72613114 -0.43411455 -0.3272185 -0.18888478 -0.020888435 0.6479839 -0.6533323 0.030116096 0.14143892 -0.0147494795 -0.46243206 0.24992578 -0.14251772 -0.2895794 -0.7460378 -0.05606759 -0.15624504 0.255309 1.3726718 -0.34092572 -0.1033729 0.15492857 -0.14832437 -0.47778383 0.54955566 -0.3361189 0.54790336 0.36109495 0.66964304 0.12472871 1.1102227 0.87724173 -0.096161135 0.64392245 0.41105953 -0.16382517 0.23065351 0.22862698 -0.14802113 0.37208027 0.68009794 -0.5032335 0.16345744 0.26979393 -0.40035367 -0.17000934 0.7241994 -0.0031230787 0.3692387 0.27805924 0.20672336 -0.19672863 0.06489504 -0.14565256 -0.6481666 0.1826429 0.11851623 -0.26218835 0.27090064 0.9371273 -0.42512116 0.014295599 -0.32297045 0.6491579 -0.22096953 -0.32331318 0.98483074 0.6282364 -0.44235796 0.08082527 0.70083594 0.15021344 0.018044319 -0.7182155 0.25741136 0.18179853 0.12500313 -0.2475287 -0.30940768 -0.33856338 0.36765087 -0.3722554 0.18574543 0.3303715 0.30438796 -0.3333555 0.16131058 -0.22402738 -0.56679416 0.44373083
examination -0.5608399 0.9278872 0.47356516 0.16908814 -1.2829306 -0.014276382 -0.5401791 0.80654716 -0.5698046 1.0787169 -0.07257264 0.2186848 0.7299392 -0.6214182 0.7297162 -0.63346565 0.38357747 0.27628526 -0.32121375 -0.14114182 0.12604816 0.14271162 -0.26455855 0.33673763 0.05524665 -0.46893758 -0.6020557 -0.05040554 0.74197376 -0.43395814 -0.22969428 -0.8033051 -0.2557942 -0.17057312 0.6124331 0.3703403 0.6721289 0.1862654 0.6762157 -0.027587174 0.743412 1.2450866 0.108517855 -1.2038493 1.1208882 -1.3139143 -0.44789174 0.9814322 -0.23274985 0.016574292 0.8727043 0.18013264 -0.08328538 -0.14085539 -0.4519967 0.19068418 0.8191269 0.26340592 0.62283725 0.7558222 0.4619928 0.6449294 -0.21102925 -0.026404347 0.17850904 -0.6639908 0.08337985 0.20013165 -1.134305 0.10533768 -0.5817715 0.18701598 1.3298085 0.65573114 -0.3425987 0.6260268 0.29267716 -0.5211905 -0.79472 0.05958734 0.14257918 0.6179154 0.67992264 -0.39687863 -0.48863897 0.20876613 0.13484426 -0.93830407 -0.29111338 0.34095448 0.21169603 -1.0918055 -0.6426127 -0.72499675 0.09773156 -0.15152231 0.3178748 -0.15500668 0.26346385 0.6590801
skull 0.7577744 0.47922355 1.1186612 0.0502708 -0.13599339 -0.28882867 -0.9422576 1.5068501 0.53055716 -0.35294753 0.30508688 -0.6256165 0.48549697 0.645236 1.4658941 -0.6713674 -0.08168571 0.58811057 -0.11349626 -0.55433697 -1.5936092 0.33747962 -0.08470892 0.6191379 -0.16257282 -1.4386017 0.49447632 -0.6750664 1.466504 0.07649231 0.21678992 0.22415651 0.4146598 -0.23096746 0.18861851 0.48045027 0.1826443 0.62311786 0.449443 0.6193478 0.027544472 0.5398203 -0.02953648 0.7163134 -0.0694574 -1.2289902 -0.263513 -0.95535386 0.5738039 0.7896159 -0.4949759 -0.07412184 1.2636129 0.5246244 -0.11295678 -0.32421994 1.0023859 0.6625553 0.050526466 0.25488696 -0.23586166 -0.775037 0.75514984 -0.84744346 -0.5079257 -0.0678735 0.015338382 0.5789362 0.19304937 0.32684597 0.28489912 0.6986778 0.3699429 1.010046 -0.3828534 -0.7816997 -0.82892966 -1.3460732 0.01740954 -0.56182516 0.9121997 0.43829185 0.39703706 -0.33006573 -0.709555 -0.08752679 0.0066813477 0.23766626 -1.0156323 1.5344503 -0.69143885 0.14743271 -0.701635 0.59160787 0.25379738 0.35545278 -0.4296992 -0.50053304 -0.5311571 0.9256476
care 0.2753143 0.09703867 0.59211725 0.41598457 0.14100029 -0.13471177 -0.54179317 0.81295335 -0.09707143 -0.21511686 0.7732557 -0.46925384 -0.33257672 -0.23212959 -0.04465988 0.612676 -0.72627276 0.092176475 0.15458731 -0.017345842 -0.38032943 0.2953192 -0.19714607 -0.29746425 -0.75430536 0.025412442 -0.19662938 0.28660172 1.4703798 -0.3251516 -0.118480906 0.13026121 -0.17324859 -0.4835443 0.6001177 -0.32078815 0.6498017 0.3602576 0.69027686 0.09436193 1.1753235 0.9489458 -0.052254573 0.6072082 0.45177197 -0.21608905 0.24532454 0.26669523 -0.121569656 0.39802846 0.7107717 -0.5466101 0.10589986 0.27586955 -0.4088439 -0.13715306 0.76317537 0.057289246 0.51062065 0.30329275 0.29074162 -0.16625795 0.090967946 -0.056766875 -0.64953256 0.18446104 0.23054756 -0.25041398 0.26523733 1.0173513 -0.4265771 -0.024738345 -0.2833643 0.6729391 -0.2338159 -0.29598784 1.0300465 0.57916826 -0.5276412 0.14243123 0.6929132 0.21687949 0.015365709 -0.725601 0.26325822 0.13250074 0.17892383 -0.3705126 -0.27850357 -0.3197001 0.4297873 -0.40351066 0.07579876 0.3779976 0.33192125 -0.43818387 0.15648702 -0.28455782 -0.5302692 0.49108952
site 0.13403182 -0.16742128 0.5564961 0.27903733 -0.26571462 -0.25354156 -0.3289683 0.5741576 0.010245425 0.10235164 0.08566395 -0.2796924 0.118386045 0.19846514 0.25258332 -0.22193365 -0.4487558 0.11271404 0.20658614 0.05909062 -0.3765929 0.30191165 -0.0672659 0.23596837 -0.14493698 -0.16430552 0.0361602 -0.26034963 0.77813405 -0.18609528 -0.19529752 -0.09303337 -0.04064468 -0.24091452 0.34410787 -0.1008446 0.20301239 0.3227927 0.27781403 0.033278525 0.54124564 0.13568157 -0.18288565 0.3053745 0.31341454 -0.5520061 -0.0033202127 -0.028982894 0.2606358 0.40821922 0.11532975 -0.034280285 0.20467632 0.013966017 0.13600677 -0.056614015 0.41363913 0.1126378 0.18593244 0.0067820535 0.09955659 -0.2001895 0.28982818 -0.10205289 -0.16259682 -0.010741622 0.0381994 0.068203315 0.08726593 0.33141953 -0.06920227 0.099826865 0.2014055 0.6441034 -0.16307196 -0.13010742 -0.06679014 -0.3945995 -0.3580805 -0.17930888 0.6291415 0.19526099 0.42993152 -0.3406192 -0.099552915 0.07812917 -0.046048157 -0.2280827 -0.20965548 0.030148255 0.050639056 -0.126849 -0.17346792 0.0044496628 0.09876932 -0.16098295 -0.16557282 -0.22407812 -0.22313088 0.3406633
body 0.6962957 -0.036831528 1.1617129 0.67982286 -0.3483419 -0.41396978 -0.50577545 0.4164469 0.134986 0.06781331 0.04313796 -0.18622148 -0.30576795 0.27292317 0.109572686 -0.45090201 -0.5594465 0.13344125 -0.115929455 0.37850916 -0.69748724 0.39253822 -0.28897744 0.72466123 -0.028136514 -0.019424448 0.054825164 -0.5842013 0.98701745 -0.4406971 0.014735156 -0.37374455 -0.1976606 0.3701498 0.16394205 -0.53837645 0.3060115 0.51349694 0.44909054 0.14758816 0.61495346 0.22905038 -0.5109344 0.30690995 -0.19541402 -0.8795895 -0.57993335 -0.3094353 0.38366207 0.11674157 0.59711295 -0.015496883 0.28761813 -0.17629091 -0.55177987 -0.6013001 0.46615902 0.14228237 0.24680035 0.27069193 -0.46344393 -0.2899267 0.358355 -0.44261423 -0.22914687 -0.09294075 0.22338867 0.6166773 0.06412344 -0.06430171 0.06760376 0.09958783 0.61640453 0.98518705 -0.35475445 -0.6555249 0.054580323 -0.4156403 -0.04666293 0.39317015 1.2698412 0.29300356 0.620599 -0.7627471 0.05791326 -0.18948862 0.1215671 -0.20463419 -0.30308825 -0.05987763 0.23922789 0.39375234 0.042819098 0.16436853 0.21260925 0.15593334 -0.7372863 -0.5827593 -1.0008209 0.10892539
found -0.9274744 1.5336736 1.0668595 0.41127416 -1.9652811 0.333489 -0.34212285 1.4213558 -1.4059759 1.5905929 -0.5120911 0.3431433 0.1335786 -1.0224274 0.8142669 -1.3512492 0.07201515 0.42708308 -0.01871581 -0.059573174 0.062360436 0.98119277 -0.2808512 0.43056867 0.018331926 -0.008811129 -0.7758258 -0.72075623 1.1282766 -1.2013602 -0.482167 -1.3480264 -0.5710872 0.0022616906 0.97269744 0.38376877 0.8248282 0.6027076 0.6616848 0.06641005 1.2774073 1.2413646 0.21535215 -1.4056835 0.96754676 -1.2406963 -0.22891733 0.57525957 0.11383793 0.5121062 1.1861284 -0.18383811 -0.14002584 0.072318256 -0.5536378 0.18579394 1.2535632 0.8259883 0.027815567 1.581636 0.18612416 0.23638527 -0.103056766 -0.4429157 -0.10021211 -0.06490753 0.20888285 0.078551285 -1.5070208 -0.09256048 -0.52221507 0.264671 1.4134936 0.8019614 -0.9036856 1.0655563 0.5577011 -0.3341177 -1.6022605 0.042977456 0.1863631 1.1268125 0.75231147 -0.55805004 -0.86416185 0.38841754 0.117278285 -0.83023465 -0.62112826 0.9359613 0.38485053 -1.051947 -0.5034238 -0.95455503 0.3391235 0.03588852 0.021255208 -0.1268894 0.25631475 1.0712696
disorders 0.024909979 -0.07291996 0.49579126 0.32171997 -0.4627091 -0.23332658 -0.2063737 0.57814664 -0.1587765 0.24355665 -0.0039903307 -0.04968852 0.07368294 -0.025218166 0.17105755 -0.18171036 -0.27128568 0.016940903 0.14502802 0.11652556 -0.18595226 0.3189232 -0.08587704 0.08651618 -0.12915069 -0.06138806 -0.10669881 -0.1671924 0.78593916 -0.35513234 -0.20149761 -0.21625975 -0.16001774 -0.15938812 0.40494087 -0.07650037 0.24097236 0.21930668 0.39298823 0.024784533 0.7190791 0.34265867 -0.14371699 0.01978346 0.42568094 -0.3965727 -0.065274045 0.15190637 0.14212541 0.29648998 0.34308988 0.0129787065 0.048540454 -0.0009710504 -0.056446955 0.030593777 0.5456627 0.062445372 0.2580077 0.16067907 0.11623309 0.04768131 0.21412407 -0.024049593 -0.0847535 0.010406304 0.009463057 0.065556794 -0.20511603 0.32683143 -0.15063538 0.10028767 0.24191822 0.6383966 -0.18546018 0.060944784 0.15847985 -0.16771056 -0.45141134 -0.082940854 0.54330426 0.23733014 0.3141595 -0.41775632 -0.14113458 0.11893094 -0.05280067 -0.22340558 -0.12454455 0.05722926 0.15442589 -0.33556885 -0.08367254 -0.15308885 0.1336168 -0.115431145 -0.045462538 -0.16806272 -0.09942216 0.35593605
multiple 0.27336863 0.029962767 0.6395858 0.28718004 -0.26026264 -0.37251723 -0.32459003 0.4155448 0.09199644 0.15806787 0.1285079 -0.3916003 0.27118227 0.22234443 0.27273312 -0.42071503 -0.42218256 0.2215457 0.065857366 -0.053324483 -0.44636592 0.41580048 -0.14061232 0.3991399 -0.056532007 -0.1623774 0.2614495 -0.35885862 0.5473874 -0.19441213 -0.15548289 -0.11675828 -0.15280503 -0.0391273 0.26251358 -0.1113137 0.016156277 0.49630946 0.2805934 0.06847963 0.309094 0.033926204 -0.050644703 0.30590767 0.16110466 -0.56777096 -0.106262825 0.0052642585 0.33272845 0.2627203 0.1728858 0.02039605 0.24392258 -0.20628898 0.16010003 -0.12583059 0.31552792 0.2823817 0.22645612 0.13922589 0.042986654 -0.32934105 0.35986573 -0.1772063 -0.12511097 0.008693317 0.1085187 0.16150197 0.21258172 0.11940935 0.120342895 0.069493815 0.36292568 0.7171669 -0.14719984 -0.41411105 -0.1978325 -0.5663204 -0.27148712 -0.19622084 0.5552563 0.24350333 0.490944 -0.36001328 -0.17376727 -0.0573368 0.08267577 -0.1918415 -0.3836655 0.01952629 0.096559845 0.023577455 -0.21126316 0.04962977 -0.015091503 0.029347396 -0.44599968 -0.22007261 -0.36205646 0.4025822
infection 0.036298584 -0.011785099 0.3693504 0.32722688 -0.49972337 -0.15984504 -0.2443226 0.53938067 -0.18035643 0.23299778 -0.041575667 -0.12190841 0.17583683 0.04489706 0.22215566 -0.2140242 -0.25788516 0.08127234 0.1113822 -0.042221013 -0.11972109 0.32316184 -0.025794517 0.0865079 -0.10809404 -0.1405165 -0.18521294 -0.11587887 0.6560709 -0.25075486 -0.14637037 -0.19159678 -0.06401477 -0.1862884 0.40734157 -0.12907623 0.2441993 0.27455097 0.1875823 0.09439604 0.4999748 0.24973336 -0.08852496 -0.0034938992 0.25817925 -0.5356777 0.008695451 0.094287135 0.1704774 0.3837661 0.19895935 0.06292378 0.121969976 0.075944774 -0.01175454 -0.022616003 0.4442003 0.13805768 0.1941777 0.06773543 0.103122175 -0.06473114 0.19984533 -0.12462386 -0.1440137 -0.075948335 -0.009292617 0.07749433 -0.17650089 0.30580238 -0.14877899 0.2303599 0.37037554 0.5709227 -0.25031948 -0.038116354 0.04706322 -0.16191995 -0.44308472 -0.09038225 0.46815288 0.21147427 0.3544158 -0.27873594 -0.1947432 0.093042724 -0.09664704 -0.14338587 -0.19822751 0.12941213 0.099317 -0.29945368 -0.19252416 -0.15164669 0.019119183 -0.108874306 -0.108910024 -0.14687657 -0.16314703 0.35455227
vehicle -0.12989658 -0.11965714 1.5211817 -0.37749812 -0.31680164 -0.4478114 -0.054695424 1.2082459 0.61609626 0.26931888 -0.10098368 0.28779653 -0.9082085 -0.26286146 0.13267857 -0.61190856 0.14774586 0.017717816 0.8220531 1.1012843 -0.85598195 0.5138464 -0.1353541 0.13308361 -0.23196626 0.6468835 0.14786027 -0.684763 1.8886597 -0.7008874 -0.7502512 -0.45433497 -0.6084622 0.41530094 0.05395239 1.2281983 0.29665625 -0.6928218 1.6268283 -0.7362142 1.6169857 1.1335217 -0.4198404 0.51484156 1.8933266 -0.10599629 -0.065901905 -0.015157941 0.07516915 -0.12012698 1.029044 -0.15288807 0.06730508 -0.5050624 0.11684418 0.2818889 1.3238016 -0.14767414 0.5778576 1.3787093 -0.19488196 0.3925684 1.2015153 0.19937573 0.4377193 0.43341333 0.11227878 0.5213374 -0.89969796 0.24776147 0.041922208 -0.31118658 -0.5461363 1.2429054 -0.2717035 1.104621 0.15003477 -1.245462 -0.72656125 -0.6927326 0.8957057 0.4721014 -0.2414531 -0.731255 -0.1384987 0.6262933 -0.03764579 -0.3826185 0.57144195 0.28369585 -0.21314105 0.34499094 0.751288 0.18049175 1.1013423 -0.291725 0.5872556 -0.6108581 0.59844935 0.059215713
postpartum 0.7199772 -0.2790863 0.19250628 1.0634264 -0.5854428 -0.4873828 -0.28802195 0.9749243 -0.06880748 -0.22469126 -0.07852343 -0.16185805 0.24263099 0.24178326 -0.014053329 0.350025 -0.19867834 -0.1831389 0.0074642887 -0.39251605 -0.047668573 0.6591477 0.021904469 -0.5548256 -0.31598163 -0.29686192 -0.5918138 0.5027321 1.3252363 -0.55289155 0.11170202 0.07160645 -0.016611274 -0.09830022 0.8686131 -0.72763854 0.49233532 0.3016371 0.2363216 0.49396297 0.81276983 0.64592344 -0.2168606 0.13305211 -0.16883776 -0.60510725 0.01774746 0.09737132 0.2657115 0.7858284 0.3233991 0.47926643 0.5228343 0.48862234 -0.5565696 -0.28907537 0.95941913 0.20046079 0.5696654 -0.2859329 -0.029929882 -0.111750625 0.6445488 -0.4112116 -0.4049523 -0.15274124 -0.25057092 0.37233946 -0.33962566 1.1303116 -0.26128387 1.0376718 0.38713634 1.1300523 -0.6655255 -0.6745897 0.45857027 0.5732339 -0.62228584 0.135142 0.9600143 -0.05931772 0.060645297 -0.7140547 -0.36865908 0.069724 -0.33586052 0.6447162 -0.3905431 0.30375022 0.3166572 -0.67475945 -0.0071890284 0.13124897 -0.12252302 -0.14818197 -0.42553017 -0.13797386 -0.7551307 0.62598264
applicable 0.2997823 0.09513317 0.6270893 0.3793842 0.10600607 -0.18539734 -0.46953422 0.8563022 0.040406387 -0.19215363 0.78344977 -0.42545965 -0.2751824 -0.20419922 0.025595732 0.60310113 -0.71233004 0.054551966 0.12105215 0.043220934 -0.55353653 0.3308055 -0.19450445 -0.25834957 -0.78889513 -0.07013837 -0.20336722 0.19785081 1.5157423 -0.40514624 -0.18767941 0.06532271 -0.22097456 -0.4540417 0.60001945 -0.3264218 0.5733683 0.39933643 0.7762586 0.080198094 1.1978351 0.9636237 -0.1313388 0.66962326 0.48657605 -0.20490709 0.17755663 0.2394644 -0.13816378 0.34938237 0.7861187 -0.5541002 0.15707965 0.29468104 -0.42653286 -0.20962438 0.8116316 0.0069677895 0.4175566 0.33381116 0.21279389 -0.21429424 0.07309801 -0.14527136 -0.69451845 0.17611282 0.15615341 -0.25522205 0.26482666 0.9154792 -0.44507968 -0.00068339624 -0.29828987 0.70098007 -0.29395464 -0.3065858 1.0288281 0.59891057 -0.47065395 0.10727229 0.7713015 0.20636253 0.061333757 -0.7744485 0.23575263 0.21759489 0.18029688 -0.35490048 -0.30894753 -0.34367394 0.4178386 -0.35789406 0.19828378 0.36182567 0.35847786 -0.39822274 0.15448892 -0.25864115 -0.5977054 0.5122618
pregnancy 0.5720902 -0.21109866 0.23834118 0.8307033 -0.34961736 -0.3543143 -0.24224874 0.7598364 -0.11114371 -0.14168806 0.16846588 -0.15210739 0.058046356 0.054441236 -0.09237022 0.4375078 -0.28133816 -0.18928878 0.052377686 -0.15555376 -0.11906885 0.53512794 -0.043511927 -0.4266116 -0.39991304 -0.14837252 -0.4261435 0.42971525 1.1666944 -0.45270297 0.0031167823 0.07819844 -0.11101696 -0.18610884 0.7116922 -0.56706333 0.46437454 0.24437733 0.40190607 0.3348992 0.8533243 0.6010514 -0.16679649 0.21504553 0.002974167 -0.32588604 0.04957892 0.16235042 0.10082955 0.51868874 0.44109762 0.15673311 0.29713634 0.3395772 -0.48202986 -0.19194765 0.8407254 0.086200796 0.5026183 -0.12841752 0.015866907 -0.024928913 0.36904073 -0.23226388 -0.38527995 -0.029756585 -0.12879391 0.1791005 -0.15253961 0.97443116 -0.25761 0.5990998 0.16912462 0.92288846 -0.44636005 -0.42651564 0.6004621 0.60442895 -0.4749958 0.13825762 0.8275095 0.014458798 0.033893004 -0.7623815 -0.1338571 0.067257725 -0.1796812 0.31924286 -0.23906024 0.04837875 0.38505718 -0.5826404 0.091474496 0.15064172 -0.029786374 -0.19821848 -0.21035317 -0.1280769 -0.52620393 0.50265217
upper 0.110821545 -0.021790564 0.8564365 0.29585406 -0.39103034 -0.3855316 -0.36081985 0.3582827 0.0073362496 0.37714443 0.08122422 -0.45833167 0.28928638 0.15459149 0.3064437 -0.6431029 -0.4522867 0.19088645 0.16268158 0.13639246 -0.49777633 0.45686263 -0.29898596 0.594973 -0.04545186 -0.12137822 0.31014207 -0.43304816 0.5782687 -0.283867 -0.25743064 -0.1973766 -0.3183822 0.025571547 0.29822052 0.04528471 0.025436707 0.5888097 0.47518173 0.018345548 0.62052155 -0.026484175 -0.05813653 0.1845418 0.37327662 -0.53483206 -0.12292869 0.1061375 0.3300484 0.28867772 0.2541642 -0.053183187 0.1582229 -0.39322492 0.2215098 -0.058581024 0.38603267 0.33349693 0.15318528 0.25902244 0.14122765 -0.20161845 0.34767696 -0.12240175 -0.106751755 0.021553999 0.14263281 0.104082435 0.12527904 0.04302805 0.19279821 -0.14213988 0.41780406 0.77337927 -0.12471409 -0.24494563 -0.17021273 -0.8187309 -0.4113758 -0.24181826 0.49442244 0.35507894 0.5477298 -0.45158646 -0.17591839 -0.07643178 0.2061797 -0.35542685 -0.37793726 -0.08248067 0.1141149 -0.046599265 -0.17021199 -0.11323464 0.004751799 0.015944272 -0.44022217 -0.18279558 -0.2498479 0.41526437
elsewhere -0.33835927 -0.65686435 0.66712695 0.17042245 -0.7898726 -0.3063054 -0.27729252 0.3495833 -0.48170295 0.43368915 0.10321795 -0.14319794 -0.024214143 0.008237493 -0.25941417 -0.24346544 -0.767963 -0.17759931 0.52798957 0.29813796 0.074407786 0.1950716 0.18865778 0.03339846 -0.30376953 0.25510114 -0.19872177 0.028463779 0.9126454 -0.10636202 -0.7722475 -0.36542594 -0.1567993 -0.5760297 0.6117582 -0.17974614 0.14885873 0.283548 0.23141854 -0.009920705 1.1123048 -0.111942224 -0.16878295 0.32080626 0.9744984 -0.670397 0.19026324 0.59307593 0.0742122 0.8533751 0.02208179 -0.0457116 -0.28463653 -0.27405462 0.5058671 0.120651424 0.624604 -0.055959314 0.3071418 -0.21333422 0.49208212 0.02882562 0.21818219 0.44995475 -0.13606782 -0.15234308 0.09867348 -0.30111438 0.042493384 0.5297527 -0.31377578 0.10638072 0.081844136 0.94844407 -0.039078712 0.4353716 0.005149649 -0.43737087 -0.9051434 -0.11873282 0.8721932 0.2808342 0.74648947 -0.2446318 -0.02446649 0.32153904 -0.4145417 -0.8352301 0.34575284 -0.53836894 0.31159538 -0.2966939 -0.19242969 -0.61969835 -0.04458841 -0.6242613 0.11572369 -0.4536023 0.051162153 0.0017350954
bacilli -0.830754 1.4166219 0.81314826 0.30610403 -1.6645216 0.29671094 -0.29837653 1.1288823 -1.1771308 1.3598031 -0.47541702 0.3084048 0.21395363 -0.87059045 0.7185704 -1.1386285 0.14117783 0.39896303 -0.1099544 -0.12262848 0.12282839 0.7316942 -0.24385488 0.37463608 0.055330086 -0.049863476 -0.6736539 -0.53676105 0.8840427 -0.9622822 -0.3900354 -1.1735731 -0.47732598 0.009178168 0.774064 0.40122986 0.74008805 0.43774185 0.4606075 0.002920009 0.9974659 1.0776194 0.25216007 -1.3133981 0.8325754 -1.0770048 -0.16709772 0.59318966 -0.009859997 0.3496469 1.0591495 -0.062814735 -0.08258777 0.02768575 -0.5306738 0.2044035 0.99170333 0.7106342 0.04073562 1.368105 0.18753846 0.219209 -0.15748587 -0.32554525 -0.055959493 -0.19285397 0.12611105 0.015809895 -1.3210868 -0.14520222 -0.5017537 0.2665351 1.292192 0.58147085 -0.7251032 0.8682135 0.4853094 -0.27260298 -1.3171953 0.03877299 0.053869996 0.9038236 0.628343 -0.44222516 -0.72419244 0.33828926 0.17649089 -0.7138862 -0.48848784 0.77895504 0.31393582 -0.93157196 -0.4774121 -0.8750935 0.24023987 0.099177465 0.074126855 -0.10064135 0.26084235 0.90359294
effects -0.30258736 -0.948874 1.3558387 0.18013202 -1.0638987 -0.23303096 0.09912366 0.9085442 -0.83998245 0.53146845 0.073805645 0.28243637 0.13047686 -0.4193401 0.565426 -0.4900647 -0.70683336 -0.40418032 0.7096895 0.91299945 -0.7791384 0.7944855 -0.60935926 0.4703605 -0.61517495 -0.37347966 -0.11195142 -0.53453255 0.76087487 -0.6683253 -0.5827347 0.38209662 -0.21972212 -0.46571144 0.35472873 0.24175206 0.1483959 0.50724256 1.1741168 0.2043038 1.2700738 -0.19395614 -0.3738316 -0.363906 1.1570324 0.28526947 -0.40303457 0.171479 0.083095685 0.36636308 0.2618503 -0.14306134 -0.44166964 -0.19178346 0.40729228 0.66862893 0.84895414 0.076717265 -0.35740757 -0.067071654 -0.094201855 0.8635476 -0.32752535 0.18618745 0.27006584 0.14811076 -0.3858111 -0.13690087 -0.46094576 0.09354604 -0.84846956 -0.57674676 -0.03260725 1.1016387 0.19915836 1.0516658 0.07629752 -0.72373617 -0.5376587 0.049105782 0.90144813 0.6097762 0.8211146 -1.1844274 -0.2185011 -0.0915276 -0.28427416 -0.8438316 0.27673033 0.2462585 0.627222 -0.94719243 -0.059802633 -0.38189766 0.71291924 -0.3635702 0.10662057 -0.07185433 0.6915445 0.4046693
tubercle -0.8031137 1.3294027 0.56286705 0.20627281 -1.4872768 0.4246922 -0.1935109 0.886407 -1.0763009 1.2609336 -0.41486958 0.3038798 0.22575581 -0.86246806 0.5924599 -0.9709104 0.24967104 0.34977517 -0.098271504 -0.17027646 0.24240687 0.5759594 -0.24232577 0.26061523 0.04388813 -0.03224235 -0.6298188 -0.44815025 0.5532142 -0.83400667 -0.28932717 -1.0716025 -0.41432947 0.02859682 0.6665078 0.3522338 0.59914905 0.42447767 0.3523131 0.015666004 0.74494827 0.9548312 0.28457972 -1.2325864 0.6529576 -0.9342944 -0.17059053 0.5413798 -0.043357532 0.2420643 0.83401006 -0.11999337 -0.2059532 0.04105235 -0.466388 0.17231415 0.7652254 0.60233575 -0.016320085 1.2000319 0.23851614 0.25772372 -0.23580831 -0.28447366 0.018814309 -0.1510101 0.16326347 -0.0058550336 -1.1519287 -0.21743578 -0.40905598 0.17640588 1.13154 0.35653383 -0.6492104 0.855437 0.39711565 -0.17211132 -1.1598251 0.05862173 -0.15163533 0.7857351 0.5183942 -0.21284837 -0.64427704 0.28323665 0.16760392 -0.67901874 -0.4738469 0.68146074 0.27674443 -0.8737562 -0.47445336 -0.82664037 0.12653221 0.07180673 0.13178311 0.059719853 0.30906948 0.74867904
bacteriological -0.7037378 1.1815861 0.6078575 0.17473552 -1.5745828 0.123374455 -0.5612585 0.9497512 -0.7637221 1.2825841 -0.13860904 0.24621752 0.80901235 -0.77408105 0.80773705 -0.83821994 0.44211742 0.3673265 -0.3576018 -0.22247268 0.14234783 0.22993885 -0.3306459 0.4100495 0.009195519 -0.48534393 -0.70524895 -0.17119169 0.80437595 -0.58722484 -0.23528014 -0.999888 -0.32776606 -0.17102325 0.7247124 0.44729576 0.80249673 0.27191487 0.692141 -0.055930316 0.8574217 1.3784401 0.1821948 -1.4453331 1.157836 -1.4842845 -0.49542582 1.0709146 -0.23852034 0.03818179 1.0377939 0.17681442 -0.11749986 -0.111841284 -0.57255435 0.24771889 0.9022174 0.3597099 0.59054744 1.0025513 0.46175277 0.6774979 -0.2718543 -0.10472602 0.17827031 -0.6981086 0.102171965 0.20469151 -1.3288838 0.022807678 -0.6090345 0.24884723 1.5668812 0.6752403 -0.4625966 0.718938 0.33688492 -0.56112397 -0.9694026 0.066570476 0.0911985 0.7636777 0.7732301 -0.44531125 -0.6037723 0.21142171 0.19714595 -1.0650407 -0.39072782 0.4366072 0.2708034 -1.204533 -0.72421724 -0.90867615 0.10845523 -0.06520543 0.34107333 -0.081088334 0.31131467 0.77199644
classified -0.5142703 -0.60783786 0.47348833 0.17944479 -0.816164 -0.34626907 -0.049971797 0.74876523 -0.3070539 0.5645885 -0.1813642 -0.12298497 -0.02946335 0.21297634 -0.17185318 -0.516589 -0.87444264 0.15764871 0.74164 0.49674413 0.022162257 0.42706046 0.08848774 0.18826394 -0.34432253 0.41442347 -0.3437369 -0.27254456 0.79307014 -0.33964726 -0.75501204 -0.2841196 -0.2994236 -0.5830894 0.5173868 -0.31688097 0.40609035 0.36356813 0.016355937 -0.34805438 1.1031528 -0.14414653 -0.4326241 0.2010042 0.9636722 -0.7588566 0.33594468 0.24810912 0.26055676 0.6519537 0.28197643 -0.024042616 -0.18568274 -0.0545048 0.70023614 0.20417581 0.3555527 -0.29387733 0.40889308 -0.18306378 0.43829554 0.055023555 0.00047923822 0.5157326 0.0017421078 -0.107321724 0.049342256 -0.1842418 0.121548995 0.64945984 -0.5578921 -0.1469808 0.30056554 0.6313808 -0.14374198 0.51154774 0.10056507 -0.5157419 -0.93310475 -0.43714726 0.8078598 -0.04996716 0.9376809 -0.51765037 0.14879645 0.26380566 -0.3354746 -0.8690774 0.4168307 -0.5522144 0.07598719 -0.19497047 -0.031431857 -0.42129695 0.2808868 -0.6861665 0.13516207 -0.14562169 -0.07419535 0.15786374
lower 0.080836706 -0.005769539 0.898344 0.30551234 -0.46733025 -0.38197094 -0.36891875 0.3894894 -0.007787802 0.4226391 0.063107595 -0.4353858 0.2797407 0.09959717 0.30180508 -0.69285566 -0.4631643 0.19941883 0.19138294 0.22682571 -0.45900577 0.52590555 -0.32331312 0.5769478 -0.09022872 -0.05024634 0.25579238 -0.44508687 0.6678037 -0.37857565 -0.2671018 -0.25076452 -0.3557388 0.02701753 0.2826364 0.05574708 0.03775798 0.574522 0.4878631 0.0050620167 0.69933313 0.044749252 -0.08504624 0.17856202 0.4816235 -0.5675352 -0.12532635 0.15586042 0.34641397 0.2578361 0.3335726 -0.04652506 0.117630534 -0.40742525 0.22166103 -0.06703255 0.42910567 0.34282744 0.15202194 0.29973644 0.18087775 -0.18445164 0.38249567 -0.11518479 -0.06817382 0.025710613 0.15373822 0.12560855 0.04866626 0.01573483 0.17315151 -0.16301937 0.45075956 0.7651705 -0.1143276 -0.1716878 -0.13044247 -0.8365287 -0.49117765 -0.24692959 0.5375972 0.3426194 0.5606915 -0.43902183 -0.14586686 -0.035290442 0.22788742 -0.4315636 -0.36780652 -0.11897915 0.18665507 -0.109553166 -0.14920285 -0.15845148 0.07148065 0.010285686 -0.36709836 -0.19800171 -0.23262511 0.4195272
joint -0.14121158 -0.046525832 0.6718112 0.11253105 -0.541045 -0.28655684 -0.24179527 0.44446987 -0.1557694 0.46308082 -0.00058989803 -0.2230192 0.12148067 -0.015034671 0.09679506 -0.51783186 -0.4588748 0.17984842 0.2630318 0.2690412 -0.15683523 0.38146582 -0.12713309 0.38005072 -0.07289852 0.12163302 0.03261809 -0.37047544 0.6287394 -0.35186931 -0.3949156 -0.37085572 -0.32506555 -0.16367358 0.2974719 0.013298392 0.13339753 0.38974863 0.34244478 -0.12670085 0.75256854 0.16047183 -0.10575754 0.09675153 0.69456565 -0.52244705 -0.06372752 0.2946624 0.135656 0.2791855 0.4638564 -0.0048625623 -0.061712917 -0.30843738 0.26565942 0.0788699 0.39394546 0.08488106 0.2223827 0.2938845 0.26899612 -0.09458366 0.22906864 0.14207596 0.012127343 0.04402052 0.12594853 -0.046001676 -0.034139566 0.101439 -0.09047534 -0.09958658 0.32275167 0.62883955 -0.071347184 0.09730751 0.02476861 -0.5727062 -0.53359836 -0.24604878 0.5082599 0.26851535 0.54858005 -0.32946217 -0.059638754 0.1441461 0.06951263 -0.54587066 -0.12583697 -0.2061796 0.17503463 -0.14115638 -0.09814407 -0.2834713 0.09388898 -0.10808352 -0.07120257 -0.20204121 -0.0969503 0.28130355
motor -0.098189086 -0.07826846 1.4526201 -0.37163436 -0.2739598 -0.4314523 -0.017772973 1.1307503 0.58443487 0.2533739 -0.07144682 0.24100776 -0.8698876 -0.24363957 0.08956654 -0.5795616 0.13883086 5.4983226e-05 0.7762652 0.9868462 -0.79494035 0.4190037 -0.14296608 0.08703031 -0.16791047 0.59399086 0.11653335 -0.59975964 1.7194182 -0.644963 -0.7255874 -0.40624017 -0.602112 0.42517734 0.061301373 1.132178 0.23932399 -0.6214881 1.5070244 -0.70571667 1.4744217 1.0908568 -0.38368678 0.49002227 1.7029058 -0.12894464 -0.061513495 -0.004698327 0.047937278 -0.15398344 0.9382999 -0.18620975 0.06594284 -0.4873721 0.14595251 0.2509538 1.206827 -0.13054691 0.5313106 1.2428907 -0.15474945 0.36157486 1.1324368 0.21107425 0.35056025 0.44878036 0.12000382 0.4915812 -0.8547157 0.20160417 0.081523366 -0.23894724 -0.4882544 1.1140158 -0.2590195 0.9982988 0.13965571 -1.1565984 -0.6497386 -0.62626606 0.8179854 0.4611356 -0.25186178 -0.6694216 -0.1466906 0.6094137 -0.041407138 -0.31761798 0.5537454 0.23101354 -0.20919447 0.31380388 0.6605855 0.19789992 1.0219728 -0.24370849 0.5393012 -0.6049588 0.53241205 0.06857938
causing -0.2544921 -0.77614385 1.1956939 0.19296354 -0.93434775 -0.20762591 0.07320001 0.8406328 -0.70498157 0.47270072 0.038939595 0.2449254 0.06651917 -0.37257057 0.4205373 -0.39580035 -0.56006557 -0.3316747 0.61984396 0.82172966 -0.65435904 0.69892013 -0.5015597 0.38773707 -0.507726 -0.25355136 -0.14037989 -0.43385988 0.77781016 -0.5984727 -0.52631915 0.24780926 -0.2536109 -0.37639052 0.34185997 0.22716217 0.2019238 0.3694673 1.079475 0.1328316 1.2276552 -0.047288146 -0.3498178 -0.33414194 1.1214317 0.18388638 -0.3047802 0.2164842 0.06003333 0.3083955 0.36112446 -0.1285403 -0.38666737 -0.17672314 0.30496347 0.54138476 0.80742127 0.021423573 -0.22124718 0.028805733 -0.028845513 0.78938735 -0.19810815 0.17025207 0.24219857 0.12402069 -0.29299206 -0.12183063 -0.48818833 0.118506856 -0.71512526 -0.4413179 -0.010190433 1.0447305 0.122012034 0.96132046 0.15312752 -0.5966756 -0.53318924 -0.009388737 0.8156659 0.539641 0.65266615 -1.0336922 -0.1868263 -0.01541633 -0.25529242 -0.7210474 0.2505743 0.17351069 0.52327347 -0.8401532 -0.02268388 -0.34856886 0.630127 -0.34453177 0.15103394 -0.096702985 0.6360263 0.35333207
nodes 0.18400629 0.35050735 1.0549598 0.16295633 -0.15126868 -0.48835555 -0.21358497 0.6066007 0.11787457 0.4362193 0.39164844 -0.4671155 0.67176455 0.18866897 0.4021346 -0.7262082 -0.516919 0.23100719 0.46053103 0.07680579 -1.0031832 0.83828026 -0.34520292 0.74432164 -0.20419508 -0.12506808 0.5867886 -0.4388985 0.4680396 -0.54087377 -0.38104507 -0.001985116 -0.48151195 -0.006164377 0.46427822 0.31028438 -0.073636934 0.5324704 0.98342746 -0.043513082 0.72339493 -0.011149224 0.094263114 0.20479095 0.5328975 -0.468298 -0.2737094 0.36503947 0.58033913 0.22763833 0.40915942 -0.03592364 0.13149479 -0.67764854 0.56287926 0.039625738 0.4554054 0.7571228 0.27075663 0.6044363 0.042930573 -0.057021253 0.76142395 -0.20206262 0.007211351 0.15093178 -0.03845148 0.06462388 0.1576228 0.061437402 0.3030574 -0.30405012 0.2569616 1.1357623 -0.17352645 -0.21940841 -0.2445677 -0.912018 -0.67405444 -0.7074534 0.48634452 0.54707646 0.49328718 -0.62353086 -0.4584733 -0.016861407 0.33151746 -0.085406385 -0.39270788 -0.03024181 0.24456999 -0.2453754 -0.15590186 0.279087 0.107915714 0.06090637 -0.68966997 0.041493077 -0.11679168 1.0054797
diseases -0.20579721 -0.21282233 0.5060088 0.25684038 -0.6061705 -0.2275903 -0.1699797 0.5018922 -0.30896252 0.38182265 -0.0327001 -0.07903866 0.025081798 8.488012e-05 -0.006808755 -0.29396293 -0.44641924 0.020137968 0.3029878 0.21129775 -0.010614708 0.30581233 0.0015543066 0.103689276 -0.14611815 0.15143232 -0.19365497 -0.1523583 0.7602754 -0.31490102 -0.41233012 -0.33079103 -0.2133049 -0.28871676 0.4554729 -0.15626256 0.24978071 0.24155803 0.2521499 -0.07062507 0.82158685 0.1452552 -0.16216059 0.06877492 0.6052422 -0.517155 0.04980793 0.29141507 0.13807419 0.45339948 0.27257976 0.0023113445 -0.092797026 -0.08509884 0.1998089 0.07036231 0.50828624 -0.014138111 0.2621239 0.0746555 0.25678566 0.02917119 0.1627596 0.17546226 -0.071310624 -0.021054832 0.05019806 -0.072651535 -0.12387786 0.35719502 -0.2286045 0.057558116 0.24592938 0.6371351 -0.16700758 0.23747174 0.113747984 -0.27332452 -0.64051855 -0.12740318 0.6072163 0.20582727 0.52797043 -0.3518897 -0.09835957 0.19804668 -0.1701142 -0.4603065 0.07516106 -0.1995512 0.20582232 -0.29556432 -0.077725865 -0.34380668 0.08006933 -0.31276947 -0.0008982078 -0.20916933 -0.07392749 0.22636957
history -0.188109 -0.13217154 0.5613045 0.4032991 -0.4117763 -0.22691487 -0.051114075 0.5648696 -0.16231382 0.46099675 0.104102306 0.09776311 0.0036925965 0.057115804 0.08216066 -0.20650065 -0.3477796 -0.077749856 -0.10522844 0.2549972 -0.16771474 0.1277798 -0.17216992 0.38983855 0.2293093 0.16975161 -0.006511169 -0.4580052 0.8051814 -0.24703938 -0.27404177 -0.581535 -0.46456257 -0.26920423 0.2667361 -0.15467481 0.116043076 0.013514292 0.47182277 -0.22482787 0.9206605 0.19017245 -0.063520126 -0.11005656 0.48976654 -0.06921274 -0.06165167 0.2723285 0.10876431 -0.10429891 0.3428786 -0.104641184 -0.00086072285 -0.19715476 0.19310576 0.2652683 0.4845892 -0.14807029 0.43714136 0.0021260986 0.3313295 0.10025575 0.106519 0.2845152 0.1303104 0.27287254 0.008097847 -0.19836105 -0.05398871 0.15502422 -0.017939918 -0.32903436 0.30177805 0.46508142 0.05276366 0.21319617 -0.05018005 -0.23832646 -0.20438106 -0.0154104605 0.5941525 0.24735719 0.4872584 -0.48734334 -0.056122515 0.20375715 0.028554771 -0.2754285 0.05802155 -0.3287215 0.2906506 -0.3867557 -0.016168276 -0.23095255 0.025800625 -0.23642804 -0.034953576 -0.12727533 0.19025387 0.4937607
type 0.13954681 -0.40701166 0.43488652 0.22184902 -0.22722615 -0.3799303 -0.18295687 0.7497066 0.0059012584 0.016345488 -0.01922734 0.0777605 0.0369999 0.08614981 0.23047726 -0.045382723 -0.2084874 -0.14669383 0.3408892 0.22866206 -0.40870956 0.22386046 -0.05898403 0.029312199 -0.1997605 -0.21220067 0.046609145 -0.36127084 0.8751696 -0.42781377 -0.19376911 0.04437199 0.05567148 -0.18225367 0.39223576 0.09039221 0.14875333 0.029899277 0.5631009 0.04346594 0.7427379 0.35986772 -0.32084727 0.014821068 0.44599265 -0.21711129 -0.15379085 -0.032858185 0.3304916 0.48158914 0.28240234 -0.024251204 0.07443338 0.002033207 -0.07439419 0.11961398 0.58677346 0.052979693 0.3284962 0.027027324 -0.14489919 0.15326704 0.5237468 -0.12562571 -0.009324139 0.073569424 -0.09228069 0.10841681 -0.32258204 0.34470084 -0.08753597 0.056446407 0.004025019 0.8714265 -0.057710633 0.11380157 0.0449029 -0.16216765 -0.4345941 -0.19171315 0.6577849 0.2790223 0.17395666 -0.45581838 -0.15064302 0.076120764 -0.12569526 -0.009590212 -0.057209857 0.25318664 -0.04252719 -0.2554325 -0.06938696 0.06837494 0.20601489 -0.07377618 -0.019558592 -0.060543597 -0.006300695 0.35057887
lymph 0.22565505 0.21270344 0.82723993 0.3695839 -0.055803433 -0.46911168 -0.27107513 0.5362278 -0.020972475 0.36064643 0.47720146 -0.6481262 0.51152736 -0.09861354 0.4625894 -0.73265326 -0.5323046 0.29274043 0.44182846 0.056100115 -1.0180268 0.74767256 -0.56496423 0.7889717 -0.41400596 -0.13698007 0.6465862 -0.48616737 0.54279006 -0.43965092 -0.16119231 0.12469749 -0.37055168 0.0677355 0.34271693 0.17818934 -0.20898026 0.70198745 0.9404993 -0.20608065 0.6148332 0.081443086 0.13352601 0.34562972 0.48597595 -0.34181497 -0.25398186 0.19736254 0.76560795 0.14883484 0.47823057 -0.03979468 0.19880901 -0.66344523 0.50329363 -0.081681274 0.41317984 0.75519544 0.34906098 0.4387446 0.053488065 -0.020637777 0.76118195 -0.21846712 -0.085677646 0.1882419 -0.00557345 0.18124187 0.10498016 0.18248162 0.28964987 -0.29493526 0.21833399 1.2882837 -0.1061737 -0.36141524 -0.31888145 -1.0883261 -0.6411916 -0.6628568 0.59708303 0.3077134 0.6344018 -0.5788882 -0.39421472 0.046789553 0.3921073 -0.090469815 -0.42341265 -0.20961665 0.14533259 -0.38289475 -0.20439334 0.25989148 0.1868334 -0.17979921 -0.7319991 0.07669142 -0.12608847 0.9254061
level 0.52496517 0.10635226 0.6935179 0.56635505 -0.2390681 -0.17493251 -0.7384946 0.46615088 0.021475367 0.6201402 0.12471332 0.2010897 0.5349406 -0.10966823 0.7890566 -0.3714833 -0.4219937 -0.0387415 -0.3764954 0.08062724 -0.8843459 0.49729484 0.11148194 0.38034824 0.072876714 -0.50208473 0.4337735 -0.7565406 0.47504857 -0.26721653 0.27496767 0.050860036 0.084415734 -0.14172144 0.66461957 0.022653922 0.24754147 -0.07788701 0.46518812 -0.0015528988 0.590954 0.5727504 -0.09778299 -0.26419792 -0.3574437 -0.5603834 -0.13116525 -0.3509677 0.67591274 0.11503953 0.042006817 -0.3986594 0.21369429 0.07553318 -0.5231799 -0.07395206 0.54366934 0.3610826 0.5153027 0.34079283 -0.5310562 0.51701903 0.29269448 -0.32653868 -0.4012096 -0.08200624 0.003975933 0.49545297 -0.4167609 0.08939496 0.18194741 -0.24151036 0.94472116 0.54801077 0.030362252 -0.022857422 -0.0094302 -0.23910569 0.12373305 -0.08633333 0.74086595 0.6907023 0.4208255 -0.9384468 -0.6805696 -0.11827219 0.029934997 0.020302735 -0.0281748 0.20661408 -0.13195492 0.047610097 -0.3517062 0.15028475 -0.1167333 0.10470177 -0.6623755 -0.49557033 0.14059676 0.41045824
region 0.023410501 -0.037200112 0.7851525 0.27149296 -0.5101723 -0.35926586 -0.34667942 0.5217478 -0.07139688 0.42117324 0.08001195 -0.36438867 0.23749875 0.0110741975 0.260866 -0.56821734 -0.48294666 0.208185 0.2381285 0.2203178 -0.4047533 0.5062073 -0.23051512 0.47168332 -0.16264059 -0.014559831 0.16173686 -0.4555836 0.73708886 -0.40236858 -0.29792997 -0.2692019 -0.2871569 -0.071477786 0.3790997 0.047710307 0.08162628 0.44935408 0.5073313 -0.084527105 0.78301686 0.13976072 -0.11454228 0.16950503 0.5782036 -0.52473444 -0.1262095 0.20216101 0.28501543 0.28789744 0.41603547 -0.018010585 0.054159798 -0.33534122 0.2610309 -0.025575971 0.46366015 0.29263833 0.19829892 0.2794055 0.18983026 -0.0859107 0.3972321 -0.008476734 -0.035395525 0.06762236 0.11095124 0.029637225 -0.04803266 0.1670345 0.027211742 -0.08199307 0.3821977 0.8503243 -0.1745435 -0.08726623 -0.035581384 -0.6958412 -0.53309315 -0.28273144 0.63880837 0.29909602 0.530675 -0.44683227 -0.18688624 0.085802935 0.15272813 -0.3527274 -0.25669307 -0.1477948 0.1553062 -0.18133385 -0.15256256 -0.10688007 0.087122515 -0.09582416 -0.31558102 -0.12802035 -0.15942219 0.42993298
third 1.0165198 0.11538079 1.5272406 1.1254349 -0.38783857 -0.42113578 -0.7528709 0.3306766 0.0013112241 0.054370575 0.02271477 -0.2175991 -0.5678143 0.32307398 -0.04329127 -0.46857432 -0.82817817 0.12646891 -0.29984123 0.5051558 -0.79871243 0.39756048 -0.36563268 1.0036889 -0.05160698 0.013669336 -0.04921886 -0.74797994 1.143965 -0.6375022 0.19361871 -0.55297786 -0.20140679 0.6510994 0.18458803 -1.0298377 0.48992097 0.7199871 0.4118187 0.25646743 0.65160024 0.2507716 -0.7845683 0.2160828 -0.67571944 -1.3107712 -0.88451135 -0.51513654 0.50608975 0.061960254 0.87099546 -0.027722614 0.31323498 -0.117491335 -1.0597109 -1.072333 0.48273867 0.15951237 0.22644892 0.32552138 -0.79620254 -0.43653068 0.3263273 -0.77131724 -0.3257721 -0.22908579 0.37430355 0.84584635 0.06856716 -0.21694452 0.025702108 0.22010604 0.97999346 1.2039046 -0.54005617 -1.0581 0.22865447 -0.21395442 0.09047508 0.8689386 1.748546 0.26686382 0.914856 -1.0707194 0.20093136 -0.33124876 0.24721627 -0.24238698 -0.39345875 -0.23745199 0.43430492 0.6882955 0.048716165 0.22198309 0.27770382 0.27644938 -1.1980457 -0.76774776 -1.6392908 -0.028935233
limb 0.2096712 -0.048266552 0.7986552 0.16006152 -0.21857928 -0.37842867 -0.30185372 0.20252025 0.045517493 0.25607944 0.19434828 -0.53326106 0.33490595 0.08200402 0.2290064 -0.6485055 -0.5676797 0.2441953 0.26594225 0.26613334 -0.52053404 0.57025206 -0.21413209 0.5821638 -0.1399105 -0.0024393578 0.40774924 -0.5067409 0.40561032 -0.3693815 -0.20579705 -0.18105794 -0.27309403 0.04874401 0.18109776 -0.005035862 -0.07095225 0.56076366 0.44478598 -0.04200999 0.45697054 -0.10094762 -0.06610543 0.29077318 0.3800314 -0.38281143 -0.14745109 0.114696644 0.37163007 0.18752153 0.39108244 -0.014790336 0.07280884 -0.4786634 0.3985681 -0.10911957 0.23805296 0.3494446 0.12581149 0.23981638 0.1001484 -0.22695258 0.37904647 -0.024807187 0.018265788 0.17910513 0.08546991 0.048027962 0.15606605 -0.045649882 0.12644607 -0.19708504 0.29168835 0.7222418 -0.0037713237 -0.2913398 -0.21974021 -0.76916844 -0.36790693 -0.3340982 0.57173127 0.30607483 0.5982586 -0.32376936 -0.08293111 -0.037904546 0.2899966 -0.28424323 -0.28794163 -0.26593745 0.24790497 0.06619205 -0.14122362 0.06313578 0.04244102 0.036344785 -0.51713854 -0.14488466 -0.26706904 0.4105511
deep 0.7399702 0.10356132 1.5462388 1.1272873 -0.5218728 -0.22989267 -0.60865164 0.32208169 -0.29316637 0.12997006 -0.06630533 -0.060187113 -0.6523532 0.13373838 -0.20982866 -0.39354175 -0.74435914 -0.11847421 -0.19491842 0.5122831 -0.5117762 0.31159317 -0.43174154 0.9358824 -0.21582595 0.09907678 -0.33273068 -0.6018647 1.2117343 -0.8476228 0.17526439 -0.53393155 -0.25729188 0.61815196 0.15882516 -1.0990244 0.53919333 0.82714826 0.514297 0.20684302 0.79320663 0.3640343 -0.8352817 -0.10820524 -0.52162725 -1.2138901 -0.8649443 -0.22762561 0.28786343 0.03124781 0.9801699 0.10645789 0.12741251 -0.18209395 -1.1697307 -0.9985365 0.45338258 0.16524974 0.115142316 0.31589442 -0.77887136 -0.18132047 0.2065823 -0.6192007 -0.13167678 -0.3887596 0.30778268 0.75516397 -0.23997404 -0.21175088 -0.18508402 0.19616793 0.86462075 1.2348645 -0.60229236 -0.84357363 0.49032494 0.09975128 -0.14648615 1.0723149 1.6700282 0.22197787 0.9864601 -1.1669873 0.2186149 -0.14813904 0.24324949 -0.15649357 -0.10292423 -0.34672743 0.5701457 0.52877444 0.100855775 0.075899 0.31431285 0.09383783 -1.1375945 -0.52501917 -1.6160563 -0.04114134
use -0.217098 -0.8227559 1.3928635 0.2690691 -1.0915128 -0.25452882 0.018477 0.9640711 -0.80784345 0.53048146 0.08645242 0.23187864 0.1480516 -0.3902004 0.55229867 -0.51485854 -0.7190872 -0.35675332 0.6466872 0.86992794 -0.78772247 0.8348661 -0.5716794 0.49387696 -0.56303334 -0.37064615 -0.14707993 -0.52542424 0.87926114 -0.66490287 -0.543124 0.28416806 -0.25386313 -0.43984655 0.39325577 0.19103263 0.21940929 0.50237215 1.1663105 0.2107503 1.3125321 -0.08375891 -0.35781723 -0.37641314 1.1387872 0.12886898 -0.366396 0.19793995 0.14032649 0.39106715 0.34147948 -0.14120445 -0.38837042 -0.16444202 0.30918634 0.5973732 0.914652 0.09388874 -0.27190077 -0.002128125 -0.079751745 0.8052436 -0.25423646 0.12559265 0.21597132 0.11172766 -0.35743415 -0.0978853 -0.4589408 0.14631717 -0.81466365 -0.5090964 0.06337576 1.1831508 0.14614543 0.94539046 0.13724889 -0.72891796 -0.57769924 0.03810138 0.98221934 0.616942 0.8326685 -1.213577 -0.22245246 -0.07848268 -0.23800942 -0.84380054 0.20833276 0.21137734 0.62360406 -0.90390825 -0.07885061 -0.38297346 0.6800009 -0.32316044 0.038028933 -0.09802478 0.59152395 0.43923047
associated 0.055971645 -0.16940622 0.49447912 0.46903187 -0.5572538 -0.29545283 -0.1406108 0.63050187 -0.22454827 0.22047815 -0.03897705 -0.1135329 0.004886952 -0.012457593 -0.029503195 -0.10877897 -0.3343032 -0.014216619 0.22975591 0.0867506 -0.02659193 0.44435742 -0.087745 -0.05590829 -0.18471065 0.10108509 -0.3041736 0.018522061 0.93524855 -0.49212176 -0.29080558 -0.23421668 -0.25805715 -0.14190137 0.54198885 -0.25318733 0.30822438 0.2924368 0.38998127 0.056163117 0.8735771 0.3552406 -0.14791963 0.052132525 0.44846326 -0.38737428 -0.003966043 0.2545677 0.11835891 0.4236173 0.49666363 0.09703852 0.033155244 -0.007372093 -0.07991873 -0.018113306 0.6438368 0.06995638 0.33370188 0.13232747 0.14467789 0.0055357576 0.28692883 -0.018663066 -0.13642478 0.044843353 -0.014159864 0.033265814 -0.22419244 0.5303832 -0.20271187 0.24254946 0.23727147 0.77853477 -0.31856608 0.0010837305 0.30482346 0.029262451 -0.646043 -0.03846238 0.67513347 0.1984635 0.30745196 -0.5326689 -0.11979702 0.17219423 -0.10934336 -0.17131881 -0.1352546 -0.035075277 0.3100069 -0.40851465 -0.002633817 -0.16302478 0.08663041 -0.20800304 -0.12710336 -0.14511098 -0.23138659 0.38812813
burn 0.53860813 0.05584964 1.142941 0.5123261 -0.32897425 -0.40530795 -0.45704558 0.52320606 0.14800341 0.12019767 0.079974815 -0.2172746 -0.3103675 0.196697 0.11794052 -0.46187043 -0.5006958 0.18405528 -0.018300058 0.39111328 -0.6898325 0.39250338 -0.24165742 0.6583712 -0.07661548 0.004532024 0.06474056 -0.5458886 1.0356753 -0.45505723 -0.07241772 -0.38570866 -0.22009683 0.3145389 0.2058355 -0.33675298 0.31032634 0.41618356 0.51489526 0.08386815 0.6880856 0.3315667 -0.460108 0.32861292 0.061622452 -0.81784666 -0.5206312 -0.27046075 0.34148362 0.14030124 0.6434233 -0.07996984 0.26051763 -0.18939084 -0.41733706 -0.5292287 0.5592803 0.1311353 0.24830681 0.40578416 -0.35382077 -0.26029474 0.42010775 -0.4114922 -0.16777904 -0.014702362 0.22280137 0.5126612 0.030663604 -0.01981066 0.04187679 0.07170433 0.49897927 0.98399264 -0.34853542 -0.47507283 0.06290799 -0.54482824 -0.14001149 0.21767628 1.1620222 0.3039604 0.5680015 -0.69311804 0.028214218 -0.09324737 0.14396189 -0.3023502 -0.27778557 -0.015774408 0.18575443 0.33050886 0.06039907 0.13867316 0.29549876 0.12856172 -0.54656327 -0.6128802 -0.8103213 0.14168324
syndrome 0.10444211 -0.049794998 0.5909383 0.30903485 -0.40112245 -0.21494079 -0.30849078 0.5650341 -0.09849482 0.2965248 0.053095993 -0.041087598 0.1722912 -0.027370274 0.3387377 -0.25749114 -0.28753862 0.021881014 0.07251476 0.11652831 -0.38366798 0.3761401 -0.08539925 0.21661308 -0.10298826 -0.16742887 0.04021379 -0.30860502 0.69333875 -0.33448875 -0.12160142 -0.11466305 -0.10660298 -0.14078587 0.4068766 -0.00049024535 0.20379736 0.18966119 0.4411362 0.031314295 0.65958047 0.34465176 -0.11701508 -0.009571152 0.29889435 -0.4157747 -0.10938761 0.035099696 0.24917136 0.23752476 0.26385918 -0.06494899 0.09470087 -0.026231686 -0.08699772 0.02686657 0.5262573 0.15937632 0.2533383 0.2214073 -0.0036696326 0.12529792 0.2439375 -0.11040245 -0.10831984 -0.00594796 -0.0033987758 0.13433701 -0.240453 0.23690195 -0.08441225 -0.0005160794 0.34784186 0.6318546 -0.13809617 0.04110163 0.062425923 -0.27126604 -0.33156294 -0.11955339 0.5561076 0.34173572 0.34062788 -0.511063 -0.26425132 0.07357176 -0.008595586 -0.18350379 -0.12789415 0.12326584 0.094852954 -0.24968223 -0.15789004 -0.06395013 0.11258819 -0.059095774 -0.17856808 -0.20866196 -0.031133886 0.3678059
hours 1.1607763 0.19621086 1.0753818 0.9953625 -0.25426978 -0.31621668 -1.2923864 1.0188622 0.3861232 0.051229473 0.24024105 -0.13533562 0.5732834 0.39398247 1.4742752 -0.3584784 -0.56029004 0.19371086 -0.4411152 -0.26443177 -1.6947892 0.5901833 0.007076301 0.48352638 -0.0693573 -1.2685263 0.5251662 -0.9889214 1.220748 -0.12609191 0.54005384 0.24654964 0.5160046 -0.18657354 0.7535328 -0.08760962 0.4338096 0.24909236 0.51584387 0.5577782 0.26083013 0.7503766 -0.2291318 0.20850697 -0.83438635 -1.288606 -0.17412528 -1.0904251 0.9630286 0.55284005 -0.3392959 -0.4105349 0.98246336 0.66074836 -0.731053 -0.45944983 0.9053075 0.55166787 0.52446467 0.04376568 -0.87484294 -0.09540268 0.62580925 -1.0594475 -0.85888165 -0.17083459 -0.026679937 0.8626588 -0.12398989 0.39464352 0.27661481 0.30547765 1.0845112 1.0849736 -0.33689916 -0.7675885 -0.37575635 -0.5041779 0.39922407 -0.06429571 1.399785 0.7414675 0.4383311 -1.074459 -0.80698097 -0.36695993 -0.11294145 0.36876506 -0.71631306 0.9215171 -0.35088393 0.20984982 -0.8057519 0.6005493 0.013609731 0.12910336 -1.1187221 -0.6875213 -0.5472424 0.779041
histological -0.5204959 1.04142 0.6408369 0.23590253 -1.4144131 -0.09872103 -0.6764947 0.91295433 -0.58347356 1.1901187 -0.03110128 0.2123147 0.8313319 -0.6499122 0.88762176 -0.68798935 0.3688404 0.35481778 -0.40096423 -0.18277583 0.089991875 0.16428322 -0.2731959 0.37893817 0.07333049 -0.61362565 -0.6258459 -0.053975616 0.9233618 -0.43510392 -0.24982929 -0.8431109 -0.33002576 -0.22934291 0.6212489 0.34311748 0.7252536 0.21010935 0.8261412 -0.021305295 0.82108366 1.3764993 0.13502331 -1.2420921 1.2791837 -1.5397581 -0.47942546 1.0493283 -0.18996629 -0.004542261 0.9183224 0.24163532 -0.022716703 -0.16161238 -0.4930705 0.1933974 0.97975206 0.31176642 0.70563245 0.8022866 0.5211119 0.7093224 -0.14457172 -0.059093103 0.2381072 -0.7712316 0.110963896 0.21667196 -1.191712 0.13007736 -0.6797098 0.25164863 1.4609958 0.8365504 -0.37965244 0.67614365 0.33730543 -0.60373163 -0.83463156 0.08657538 0.23975848 0.71411955 0.8124102 -0.48905537 -0.50270426 0.24394429 0.16971214 -1.0556438 -0.34522304 0.41888526 0.18619195 -1.2021644 -0.7573892 -0.78134876 0.073676154 -0.1605281 0.25562143 -0.24330999 0.20056131 0.7316971
part 0.56312996 0.10923203 0.76215464 0.4891838 -0.16441691 -0.25577986 -0.43662095 0.2504099 0.10332781 -0.007708468 0.07958892 -0.28417864 -0.04980657 0.30095506 0.16220134 -0.35121676 -0.43250546 0.17806913 -0.16321656 0.098951265 -0.5310992 0.2654653 -0.17996365 0.5746105 0.009293726 -0.1957726 0.13187271 -0.40805647 0.5570987 -0.246699 0.12709211 -0.22847827 -0.06417045 0.2322301 0.11157077 -0.4380864 0.16784099 0.48489928 0.16057621 0.19438857 0.21957898 0.07090241 -0.29302192 0.24344821 -0.34317416 -0.7332879 -0.39962628 -0.31509528 0.32233983 0.14159879 0.29488423 -0.001889029 0.32561195 -0.051965397 -0.36705852 -0.49942285 0.2362253 0.18316178 0.08583617 0.12680034 -0.31042674 -0.37440208 0.23065186 -0.42609915 -0.19886392 -0.08154858 0.18616623 0.4130444 0.2010083 -0.07773816 0.09955293 0.15603064 0.50788414 0.6178119 -0.23857006 -0.6770202 -0.08274959 -0.33421198 0.05705373 0.25228184 0.81617844 0.17590632 0.51006323 -0.4444259 0.008552744 -0.18539065 0.15390013 -0.06811415 -0.37593916 0.012238063 0.08534833 0.35672444 -0.11215587 0.14526893 0.059288576 0.20441441 -0.6378554 -0.38862827 -0.8062425 0.13050328
adverse -0.33213115 -0.97683555 1.3258464 0.18026267 -1.1635883 -0.21920079 0.16973746 0.8785306 -0.97102004 0.55330676 0.052907195 0.29729164 0.19418874 -0.44113228 0.5172147 -0.5159975 -0.7307614 -0.38801992 0.69146436 0.9612002 -0.70720387 0.8097296 -0.6258373 0.5097552 -0.59652823 -0.32660267 -0.17425813 -0.5314349 0.6982502 -0.62720096 -0.5857383 0.37258735 -0.22438376 -0.5069467 0.31553274 0.22918406 0.17601706 0.50536966 1.1560785 0.22168438 1.2854128 -0.24831909 -0.3647313 -0.48943532 1.1876143 0.30589902 -0.39098856 0.245786 0.096172586 0.34146863 0.28724697 -0.171489 -0.53756773 -0.19184773 0.39664322 0.70283026 0.795019 0.055915013 -0.40213883 -0.0959361 -0.088645466 0.9279965 -0.4341725 0.24129355 0.30756745 0.14258175 -0.41384685 -0.19045196 -0.46173579 0.060470067 -0.93083674 -0.6345564 -0.020458784 1.1015958 0.26005253 1.1237499 0.1471621 -0.7586793 -0.5465335 0.06886188 0.9215667 0.5779049 0.8657912 -1.1679349 -0.18821321 -0.14208165 -0.30381474 -0.95638806 0.31603166 0.15000255 0.6644152 -0.99416554 -0.09845422 -0.48870525 0.71393263 -0.38020638 0.10724244 -0.018482165 0.75828516 0.35100192
accidental -0.12679844 -0.17792098 0.6605899 0.21088319 -0.5353529 -0.21108884 -0.22814904 0.6356167 -0.2095941 0.37892303 0.020690473 0.018490532 -0.0010788816 -0.15550733 0.18102643 -0.29780728 -0.2980399 -0.010246162 0.24841414 0.2945308 -0.33490533 0.30268648 -0.1333109 0.21566974 -0.13177128 -0.013624225 -0.08345191 -0.32045513 0.7929474 -0.36654082 -0.3591091 -0.13290586 -0.20235333 -0.20261157 0.39397374 0.12099974 0.22076224 0.15556325 0.5901101 -0.02248803 0.8784974 0.27867955 -0.15700574 -0.03576204 0.70895386 -0.3016757 -0.09713194 0.14742456 0.20083204 0.2200153 0.35763592 -0.055115636 -0.08184931 -0.20257068 0.06327019 0.1782198 0.53848296 0.011028776 0.21764886 0.25724983 0.13946733 0.2568259 0.22219644 0.032336626 0.043791987 0.06427611 -0.0067416113 0.015677614 -0.31077495 0.2424537 -0.18744266 -0.12226747 0.14693238 0.7264297 -0.08844362 0.39587578 0.08074077 -0.34573987 -0.4768108 -0.17484602 0.5835183 0.38139093 0.37703946 -0.48418006 -0.17849734 0.16351275 -0.09491528 -0.37731463 -0.001184437 0.052571677 0.15554121 -0.3725853 -0.08514815 -0.18517587 0.30636784 -0.20108886 0.06659193 -0.20513128 0.12921947 0.32070488
therapeutic -0.25498846 -0.9884616 1.4733696 0.2652432 -1.2156347 -0.2472067 0.09152962 1.0132674 -0.9517022 0.55882937 0.0550139 0.25386816 0.21400705 -0.42146742 0.5802953 -0.52941906 -0.7586402 -0.3391412 0.6738753 0.9707136 -0.85603696 0.87225634 -0.67245126 0.5663225 -0.63411975 -0.41262558 -0.15496501 -0.5919151 0.854763 -0.6918882 -0.58833665 0.35964817 -0.24701719 -0.5038967 0.3912997 0.22274476 0.24089198 0.597237 1.2344735 0.26765344 1.4214746 -0.18226273 -0.43234587 -0.44130164 1.2098696 0.1945174 -0.4549773 0.20143457 0.09557336 0.4075417 0.37490904 -0.19683412 -0.4363459 -0.1628942 0.3625128 0.62695193 0.9135448 0.1122615 -0.36551777 -0.071292914 -0.104453474 0.9302689 -0.36339128 0.1990841 0.25143784 0.14956546 -0.36747524 -0.15130518 -0.5025786 0.08218103 -0.92370576 -0.548819 0.06865475 1.2832243 0.1921483 1.0934501 0.12841573 -0.78512317 -0.57830894 0.06780376 1.035932 0.63501644 0.90565264 -1.292896 -0.25473398 -0.14279735 -0.32937536 -0.90288776 0.23421933 0.23872799 0.65953225 -1.0478876 -0.14244555 -0.4192754 0.7208916 -0.40644014 0.06600218 -0.0905871 0.7314272 0.4522618
cerebral 0.57558733 0.14035678 0.7814033 0.36800802 -0.29581946 -0.28990948 -0.7356863 1.0928273 0.2258471 -0.18948568 0.20004 -0.35984486 0.31562698 0.35457125 0.90402037 -0.29638717 -0.22371449 0.3107417 -0.07344609 -0.3300947 -0.9500951 0.3805861 -0.05731205 0.2904206 -0.18944387 -0.88040006 0.17285971 -0.43296593 1.2073942 -0.13420554 0.1854928 0.09015467 0.27452508 -0.24177825 0.3850773 0.08557213 0.26789084 0.4779805 0.34110054 0.4839734 0.31177327 0.5399866 -0.1389283 0.41932467 -0.08914632 -0.97642154 -0.1706802 -0.5588906 0.4467059 0.6299499 -0.17659748 0.02403049 0.8235084 0.44657373 -0.25409096 -0.1957126 0.806112 0.44485632 0.21738634 0.06953375 -0.2344124 -0.44364387 0.55602413 -0.58858365 -0.4863405 -0.10380757 0.011657806 0.42406005 0.041570965 0.4260271 0.048370063 0.48904413 0.39708564 0.947808 -0.3853322 -0.54486424 -0.33483684 -0.58624 -0.114816435 -0.25054345 0.8847441 0.30171582 0.33148593 -0.43692642 -0.4366869 -0.028799761 -0.07566834 0.20295802 -0.64023125 0.88578886 -0.31142458 -0.09127799 -0.5028453 0.3236171 0.13405739 0.13298059 -0.34825876 -0.33680144 -0.4845413 0.6764088
face 0.63842523 0.44730747 0.9365013 0.04840633 -0.010290928 -0.2594952 -0.52727973 1.0725318 0.42128664 -0.14564711 0.27424243 -0.5604023 0.36672142 0.4460229 0.82614625 -0.6032307 -0.15039766 0.5246289 -0.0035804687 -0.28540713 -1.2307736 0.3238979 -0.13068104 0.6532888 -0.1382965 -0.8978346 0.44095215 -0.452936 1.0162956 -0.012401291 0.08448183 0.08987186 0.13030599 -0.006693216 0.09190813 0.28599325 0.09569094 0.5194129 0.4741621 0.32668802 0.1233273 0.35959113 -0.016185086 0.5415618 0.07613865 -0.87184465 -0.33928755 -0.5412338 0.4755732 0.47396925 -0.14394535 -0.04444897 0.85997695 0.10355951 -0.040954214 -0.33418196 0.68289214 0.6157805 0.15413885 0.41614437 -0.102015026 -0.60517263 0.6362086 -0.5639407 -0.26125553 -0.0039338865 0.056924306 0.4725384 0.19652054 0.2000285 0.2805507 0.43951094 0.24165256 0.8789436 -0.3191103 -0.6479289 -0.54969126 -1.1378684 -0.09221797 -0.46087632 0.7260117 0.369448 0.41146445 -0.25765473 -0.48012266 -0.036831588 0.10689013 0.09383934 -0.7258678 0.92151123 -0.3593124 0.113610625 -0.39328346 0.4698759 0.19643955 0.23833023 -0.46787313 -0.3942928 -0.4861711 0.7374668
obstruction 0.47006902 -0.19471598 0.3970122 0.5115916 -0.18813351 -0.25762224 -0.41688222 0.67675596 0.10190445 -0.10566489 0.02762785 -0.18552202 0.21448575 0.29056174 0.4579256 -0.030245561 -0.22664705 0.018148027 0.029696822 -0.1227365 -0.47183612 0.35626644 -0.0016387142 0.048316713 -0.13177618 -0.50629085 -0.12988111 -0.16109413 0.80787367 -0.18608505 0.13614081 0.08227951 0.19938765 -0.15496828 0.40428153 -0.21170731 0.26209316 0.18238774 0.23628491 0.26258183 0.29962933 0.30699292 -0.24318288 0.20638864 -0.10470777 -0.58766496 -0.016430587 -0.29923165 0.33102036 0.4896606 -0.0023808174 0.109783925 0.42808232 0.30257854 -0.22055024 -0.16956708 0.48075926 0.14951779 0.15038618 -0.13987075 -0.19281115 -0.20061745 0.40246126 -0.46337792 -0.19807664 -0.09077169 -0.11250842 0.32066187 -0.12165366 0.45565376 -0.015368566 0.4283524 0.33786976 0.6838942 -0.32404447 -0.3699436 -0.089296296 -0.069826916 -0.21931721 -0.0067650066 0.71656525 0.16070263 0.22012356 -0.37338522 -0.27929947 0.024673114 -0.14902541 0.23378293 -0.35100308 0.43093202 -0.033676226 -0.14242645 -0.25341815 0.17407037 0.039029434 -0.030065171 -0.31535614 -0.19807655 -0.35647535 0.39828286
complicated 0.15814282 0.029064389 0.5524332 0.23385237 -0.32855344 -0.088010155 -0.40904772 0.6245705 -0.007202529 0.0967913 -0.07759388 -0.09587051 0.161387 0.0629278 0.39206767 -0.19507691 -0.2764633 0.09636117 -0.027149523 -0.02741376 -0.27408117 0.35197824 -0.042065114 0.20015897 -0.0039004344 -0.34875065 -0.025269708 -0.27610305 0.81219286 -0.20675552 -0.005504717 -0.03742568 0.024955185 -0.14875598 0.29886305 0.051273346 0.21032242 0.312227 0.21234955 0.06903711 0.5334293 0.39791918 -0.110683896 0.107059345 0.13652861 -0.5219066 0.00024363345 -0.104852475 0.13085842 0.32748026 0.14270791 0.011017524 0.32087994 0.13620897 -0.093344815 -0.11306197 0.42586342 0.21380632 0.084241085 0.118587255 0.0037755573 -0.040370893 0.3059168 -0.2457676 -0.24840134 -0.024619916 0.069856815 0.07620815 -0.16283865 0.25740242 -0.0676022 0.22899835 0.34043077 0.57426614 -0.15208167 -0.16173844 0.092263274 -0.34658957 -0.2470702 -0.13584962 0.47320747 0.20854376 0.32315594 -0.33914176 -0.2642194 0.077282146 0.066504434 0.005409441 -0.41429403 0.34146592 0.02986196 -0.22670655 -0.26082876 0.043602742 0.120190464 0.09763511 -0.22666728 -0.12615272 -0.20088103 0.43375963
skin 0.36915672 -0.035008606 0.96728355 0.51274467 -0.3606036 -0.30900526 -0.42839065 0.48877978 -0.008421711 0.23510133 0.049698375 -0.14572093 -0.042455185 0.10125034 0.23521075 -0.41040626 -0.53404224 0.11640719 0.0111812055 0.3069824 -0.57482415 0.36218673 -0.21627991 0.5908525 0.0011816032 -0.093391106 0.13566354 -0.5566061 0.8057823 -0.3660017 -0.12604575 -0.29523715 -0.22244397 0.100291684 0.26281866 -0.25795907 0.24684128 0.391773 0.48096752 0.050462455 0.65363944 0.16248631 -0.2874862 0.15369117 0.12167189 -0.63016653 -0.36642754 -0.12509863 0.3371688 0.13276617 0.40168118 -0.11308311 0.15601937 -0.15923093 -0.21051602 -0.24944852 0.48644128 0.17175145 0.26112482 0.22671449 -0.1373296 -0.12897313 0.23658113 -0.25250152 -0.15426248 0.008696487 0.16240689 0.29538962 -0.008396768 0.022472514 -0.0067981957 -0.05381163 0.4967262 0.786326 -0.14952953 -0.26948798 -0.006408217 -0.45245585 -0.1438357 0.07268562 0.9376999 0.37186182 0.5773604 -0.6408163 -0.07375516 -0.07418255 0.09811407 -0.36217037 -0.2579486 -0.036176383 0.22444424 0.069788136 -0.112848334 0.00792729 0.18460244 0.029154092 -0.4983912 -0.40020794 -0.4476284 0.27881554
laceration 0.6806751 0.27492037 0.8048459 0.39844927 -0.27746332 -0.2860038 -0.8262043 1.0371829 0.27006525 -0.2169617 0.23852283 -0.3905002 0.34327596 0.3988095 1.0507482 -0.30689228 -0.2537303 0.35400543 -0.1691037 -0.3921158 -1.0820078 0.3311931 -0.06530291 0.33258107 -0.16530833 -0.9409659 0.21021153 -0.5214894 1.1994302 -0.08960062 0.25323394 0.0828351 0.34979773 -0.22738466 0.38648096 0.09085167 0.29541522 0.49802727 0.29124162 0.519562 0.18964863 0.5725703 -0.10966695 0.42369005 -0.24871685 -1.0328016 -0.14415604 -0.6850614 0.49561876 0.5950376 -0.2364111 -0.050952073 0.9109533 0.52229315 -0.31734884 -0.26908198 0.78147036 0.48661453 0.20869729 0.05501368 -0.31408498 -0.4851829 0.5404195 -0.66772544 -0.57604843 -0.12396921 0.030108074 0.44798705 0.11206911 0.3593192 0.09881716 0.5110148 0.4897162 0.8946054 -0.38443774 -0.6233062 -0.4110361 -0.57287675 -0.019512663 -0.20147932 0.91817176 0.33196953 0.36257088 -0.46468604 -0.44611534 -0.0858938 -0.06412045 0.18967678 -0.72407514 0.9378362 -0.36008886 -0.043041255 -0.5655057 0.40679115 0.118190974 0.16154537 -0.4338759 -0.3640495 -0.5633511 0.68077683
congenital -0.004616394 -0.02996072 0.5401057 0.22220276 -0.41140014 -0.18590717 -0.19396508 0.50555646 -0.118521824 0.2702782 0.02401289 -0.0020854336 0.06771316 -0.06241032 0.22868437 -0.25556874 -0.21976443 0.018034387 0.10782224 0.17103136 -0.26925156 0.27592766 -0.12032257 0.2225886 -0.07532575 -0.06315998 -0.021355351 -0.2800717 0.6593042 -0.30285105 -0.17509463 -0.21359712 -0.17027989 -0.10252177 0.29988617 0.030174023 0.18428202 0.18603356 0.43005237 -0.0076127253 0.6212195 0.2911204 -0.10743819 -0.029401876 0.42163104 -0.3306805 -0.13858734 0.10248242 0.13706988 0.17281789 0.30618846 -0.029306922 0.028770037 -0.08293994 -0.027860593 0.052936412 0.46213874 0.08706324 0.20990297 0.23724103 0.06581809 0.08290193 0.1872737 -0.03023409 -0.020280182 0.024758764 0.012295413 0.08875826 -0.21114685 0.16277313 -0.100762576 -0.020979661 0.24783544 0.5482724 -0.12784393 0.11681067 0.051288035 -0.26651815 -0.3291948 -0.08100414 0.4836958 0.2866616 0.33748186 -0.40363273 -0.1558172 0.10658142 -0.012167549 -0.25121602 -0.10159085 0.08641928 0.1205223 -0.2459574 -0.080395274 -0.12493475 0.15506452 -0.068712674 -0.061076242 -0.18858236 -0.0076939035 0.3285585
benign 0.13773234 -0.0755022 0.7052987 0.39460078 -0.42927587 -0.3033545 -0.33971813 0.69762105 -0.024287146 0.24377269 0.0514456 -0.12114761 0.090894386 0.07023256 0.32667413 -0.27486444 -0.32229197 0.020256558 0.08751296 0.15881367 -0.44503605 0.3794697 -0.118179984 0.3495657 -0.038423833 -0.1849891 0.03866783 -0.36388856 0.9369493 -0.32442534 -0.12086166 -0.21882445 -0.17562778 -0.15101151 0.34753448 -0.037417952 0.26897585 0.28741613 0.51035804 0.08434455 0.73168826 0.32372501 -0.18200427 0.10664922 0.36757848 -0.4605894 -0.20859678 0.023630768 0.22413018 0.2694112 0.32599038 -0.024796236 0.17030571 -0.0024071222 -0.080126 0.016303416 0.59232587 0.11852608 0.2745838 0.17377514 0.074437946 -0.06938441 0.24396689 -0.10947186 -0.091290355 0.03736616 0.035738368 0.18377858 -0.13942246 0.27746072 -0.05253284 0.047048707 0.3464541 0.73052704 -0.20043762 0.0063844477 -0.008265387 -0.3841779 -0.30209547 -0.12860146 0.67440706 0.34552228 0.40437508 -0.5545316 -0.21086073 0.090678655 -0.028356198 -0.2159735 -0.25861785 0.11154683 0.1196863 -0.30824658 -0.105078876 -0.05793857 0.12860765 -0.08768581 -0.18543468 -0.28941956 -0.14273266 0.44776005
dislocation 0.029742574 0.117280126 0.55981266 0.014311532 -0.33113876 -0.17812024 -0.2861047 0.46108004 0.0007986228 0.23152912 0.057293326 -0.21667759 0.18975572 0.09784951 0.38443586 -0.4460258 -0.20440541 0.22110467 0.043420047 -0.0066926884 -0.38099203 0.2786969 -0.08522351 0.384121 -0.016751077 -0.2654536 0.18822347 -0.32560077 0.50748247 -0.14746757 -0.13569216 -0.16181153 -0.07467796 -0.12830211 0.14275947 0.16241115 0.035218198 0.38894987 0.23604369 0.06871615 0.36072823 0.17541225 -0.03360784 0.15910901 0.33577123 -0.47852644 -0.16307065 0.0090982225 0.13920043 0.29384676 0.1345012 0.0033338047 0.2199464 -0.09313592 0.1072286 0.038211457 0.33432654 0.21359354 0.046286087 0.23740283 0.110331066 -0.1661049 0.19016267 -0.04178426 -0.05504324 0.0030089682 0.071483254 0.101607814 0.03996756 0.048959132 0.0148855 0.06884251 0.2480003 0.47501653 -0.07918457 -0.051930778 -0.17024909 -0.62010837 -0.25348765 -0.21312992 0.3083298 0.2673336 0.3667646 -0.23445047 -0.18697803 0.051409084 0.099848464 -0.2758016 -0.2657266 0.26536956 -0.096484944 -0.060331512 -0.17069592 -0.10186583 0.0926142 0.10873267 -0.06067927 -0.2062643 -0.093545325 0.3217352
eye 0.21768415 0.24116537 0.6640924 0.2091249 -0.3853457 -0.059826035 -0.29183322 0.49333984 -0.07455061 0.25160336 0.05889149 -0.109435305 0.21129604 0.075065464 0.34625643 -0.3119007 -0.19801496 0.14625883 0.036971893 0.031342857 -0.53840166 0.23027974 -0.088938825 0.37381744 -0.033319507 -0.25462148 0.084822536 -0.3681212 0.5548097 -0.1899335 0.03457281 -0.07276913 0.041736238 -0.110269606 0.20381299 -0.036047246 0.1210989 0.2673412 0.3941175 0.1528625 0.35970438 0.29065365 -0.034556933 0.03354443 0.15652277 -0.4802355 -0.24614581 -0.05691656 0.28750923 0.06422409 0.18838438 -0.22221479 0.098592624 0.032086726 -0.12683804 -0.07697503 0.4876674 0.24632578 0.22598742 0.34956267 -0.055555593 -0.054084484 0.16660614 -0.23693427 -0.0982402 0.016683219 0.060548294 0.17157517 -0.036923602 -0.05420341 -0.07983176 0.048758354 0.40723753 0.5225234 -0.004276339 -0.051409703 -0.11878436 -0.3041696 -0.017491868 -0.113253124 0.61483574 0.45219624 0.3900422 -0.36224332 -0.21302545 -0.03297544 -0.021163302 -0.25581345 -0.24262562 0.24918692 -0.034596346 -0.013751659 -0.21120545 0.026707234 0.17078288 0.03296968 -0.19569805 -0.3549395 -0.042491496 0.2896925
affecting 0.11678874 -0.30680048 0.6961319 0.50444263 -0.5900103 -0.3558547 -0.24776365 0.8174617 -0.27584484 0.18317178 0.16572155 -0.1105194 0.06587443 -0.03410496 0.13849066 -0.072141774 -0.48354515 -0.13249028 0.29068026 0.21087302 -0.36871466 0.51594317 -0.20330343 0.034924548 -0.35979107 -0.10416879 -0.18574966 -0.093923286 1.1076173 -0.548681 -0.28176668 -0.03601802 -0.20529605 -0.25346148 0.5949134 -0.2337707 0.34475645 0.34921905 0.6787739 0.17685777 1.0955946 0.35506377 -0.25983924 0.08236174 0.56142855 -0.36633152 -0.058281213 0.20718215 0.22157735 0.39565113 0.47619778 -0.019654159 -0.00436871 0.040418368 -0.07755078 0.038907394 0.808512 0.0915797 0.30976257 0.13640445 0.0953974 0.1608227 0.2592706 -0.107277595 -0.14323163 0.025692463 -0.06287035 0.04216122 -0.27960423 0.5803065 -0.34077644 0.12301177 0.17139664 0.97176784 -0.2408392 0.02313479 0.3553359 -0.07955064 -0.6162829 -0.056640137 0.8776092 0.34527615 0.42601672 -0.71904564 -0.18367523 0.07910854 -0.14079386 -0.27109477 -0.13310921 0.0013658423 0.35335138 -0.5881399 -0.053782746 -0.12882753 0.24587895 -0.26679084 -0.12074873 -0.23769489 -0.15978687 0.4725384
