1982 100
unspecified -0.14219959 -0.17689621 -0.20124516 -0.4422803 0.2754675 -0.4028964 -0.21033305 0.3881129 -0.075700834 0.3770193 -0.41005257 0.05598379 -0.6256699 -0.5316914 -0.21151893 0.26317438 0.23550256 0.13188592 -0.31615585 -0.16401957 0.031353623 -0.0127803 -0.18972579 -0.25909442 -0.19661628 0.4943307 0.3161208 0.1431086 0.67886037 -0.23913975 -0.12967645 -0.11284494 -0.48359048 -0.3024646 0.4401968 0.0044232523 -0.0010727834 0.065898605 0.37432367 -0.03321348 0.03476537 0.25720435 0.29964393 -0.41181582 0.32873538 0.45520207 0.075699165 -0.3131812 0.13604197 -0.1825661 -0.56900036 -0.1345819 0.3850469 -0.037014484 0.24242336 0.043662824 0.1463385 -0.036197405 -0.29566395 0.48358077 0.12314185 -0.8583862 0.30144832 -0.46375352 -0.28381208 0.3884034 -0.13817692 -0.06924963 0.1783723 0.22912401 0.24838656 0.43989488 0.30692986 0.0725178 -0.13263386 0.13778801 0.13950837 0.27303785 0.10677185 0.36014703 -0.27756867 0.40990615 0.3180901 0.10256904 -0.0032844231 0.032808997 0.04189246 0.11337679 0.056261837 0.06832444 0.36485812 0.54123855 -0.24315737 0.17575078 0.060645238 -0.07564169 -0.016363967 0.06353773 -0.046110854 0.22181262
Other -0.2794717 -0.11320006 0.10574626 -0.22343257 0.10179987 -0.42332926 -0.33270657 0.078896545 -0.02576033 0.2899995 -0.10129981 0.09193054 -0.33319923 -0.17185065 -0.15927614 0.31050074 0.18462193 0.28874636 -0.29887795 -0.23145343 0.030597348 0.2991633 -0.29787177 -0.37621552 -0.07867797 0.509396 0.15576534 -0.22074763 0.5779603 0.094096914 0.15173273 -0.20060205 -0.45240834 -0.23968092 0.46076903 0.13733953 -0.23843253 0.0061469455 0.38281 -0.09566568 0.14013773 0.17159756 0.01848083 -0.26348817 0.07421156 0.29780623 -0.05245997 -0.028962528 -0.19757557 -0.3192748 -0.5647721 -0.052564044 0.16171974 -0.07825677 0.27588698 0.012391401 0.107722245 0.00032287813 -0.100524426 0.41098157 0.09844762 -0.61117697 0.07503504 -0.32989603 -0.007403883 0.6015206 -0.022033406 0.2821258 0.12773171 0.032611676 -0.016153898 0.051848058 0.033178486 0.10271465 -0.39565262 0.15189876 0.19888636 -0.0450688 -0.19566734 0.15105632 -0.13680603 -0.03518959 0.14289218 -0.072756 -0.0093315225 -0.06101197 -0.33789828 -0.019457739 -0.13504948 -0.11541395 0.339379 0.14779212 -0.23621638 0.14287816 -0.13919283 0.24697712 0.17337617 0.049999636 -0.21950781 0.07562346
without -0.68950063 -0.5668256 0.2563779 -0.43668813 0.3362261 -0.69153553 -0.46415916 0.426074 -0.44077444 0.13078931 -0.47660717 0.4096522 -1.3349062 -0.8109441 -0.34138644 -0.025973026 0.644371 0.51586986 -0.3705282 0.32578322 -0.12781912 -0.32002154 0.3626334 -0.21584421 -0.21003504 0.8348205 0.29046905 -0.03670792 0.46751052 -0.61352336 0.43303818 0.03347267 -0.81076586 -0.703651 0.39335316 0.59666866 0.23578091 -0.15434057 0.52977836 -0.03172663 -0.2021499 0.52071947 -0.017742574 -1.5268885 -0.126672 0.57346636 0.031986184 0.27669176 0.14109308 -0.17331491 -0.0803756 -0.45013168 0.7631244 0.04167541 -0.00701038 0.31304547 0.4647445 0.25035927 -0.101845376 0.38606858 0.587129 -1.1887202 0.60938746 -0.5196958 -0.59654194 0.36964208 0.030264439 -0.53912085 0.13010211 0.31578127 0.5522866 0.8205628 0.0025003443 0.45875642 -0.0367757 0.7759717 0.58171433 0.7016395 -0.10728272 0.8742572 -0.64313334 0.7587241 0.34833145 0.761297 0.4601986 -0.1259575 0.009832443 0.260289 -0.083011515 0.4681411 0.63009894 0.5780508 -0.20218752 -0.30524603 0.52482986 -0.20778042 -0.0439266 0.5238429 -0.3711075 0.7677864
mention -0.7497522 -0.6848197 0.39142472 -0.4545499 0.3868791 -0.7790883 -0.49602708 0.42380595 -0.45187724 0.1493158 -0.5253482 0.42316955 -1.4157089 -0.79977614 -0.34084216 -0.02360725 0.7826993 0.5398748 -0.39626253 0.4696765 -0.1756568 -0.38706616 0.47621343 -0.20554166 -0.23982921 0.8302293 0.26492968 -0.030867992 0.5111345 -0.6548338 0.49484864 0.02335681 -0.9042063 -0.8098484 0.43734628 0.59679025 0.2696084 -0.18985142 0.6250036 0.03144256 -0.19908397 0.59080946 -0.04495608 -1.6145543 -0.106145166 0.6055989 0.020545162 0.33432788 0.1116286 -0.21477252 -0.10384195 -0.5193831 0.8625305 0.037566017 -0.03313995 0.34144527 0.5758876 0.2837494 -0.1559115 0.4238114 0.6374756 -1.2399255 0.7123533 -0.68393457 -0.6390559 0.35354117 0.09513953 -0.5278962 0.085418 0.34728488 0.63886154 0.8392247 0.0856501 0.5276289 -0.0823846 0.79244137 0.600626 0.8240485 -0.123186335 1.0150689 -0.6971433 0.7670978 0.4204305 0.81822056 0.47081608 -0.14161718 -0.0054852287 0.26750278 -0.021906089 0.52797914 0.66725045 0.712987 -0.15295833 -0.2545499 0.52474535 -0.20533001 -0.0076055727 0.57153434 -0.4235478 0.87445045
specified -0.2973476 -0.17986332 0.06168498 -0.23904064 -0.025845602 -0.4291143 -0.2617071 0.15398222 0.0380713 0.3859046 -0.026378335 0.06882386 -0.31771618 -0.1612335 -0.23278676 0.37812638 0.24981497 0.35974744 -0.31963307 -0.381756 -0.07859673 0.43819204 -0.5013172 -0.34721753 -0.03970559 0.48026362 0.13651456 -0.33513942 0.6497126 0.18945569 0.036487546 -0.33384407 -0.57506317 -0.38212186 0.45241702 0.09737909 -0.2974567 -0.03170234 0.3331996 -0.105021045 0.18607825 0.036140244 -0.028739337 -0.019029409 0.06060902 0.2872201 0.002694203 -0.061330527 -0.18449514 -0.43216062 -0.6427431 -0.07562953 0.06878924 -0.19032232 0.25348595 -0.059351653 0.06903879 0.0027273796 -0.17386119 0.42992124 0.12937188 -0.6010559 -0.03792896 -0.40941882 0.07890295 0.6245894 -0.13030118 0.43798617 0.24310477 0.008460942 -0.010080095 0.029902287 0.14491412 0.11942297 -0.34591252 -0.043394253 0.13426746 -0.10400545 -0.32896402 0.0020323799 -0.14890058 -0.052764643 -0.004963567 -0.25023758 -0.0017005625 -0.10857154 -0.3757429 -0.18744835 -0.15818511 -0.16788574 0.34046787 0.060738478 -0.19933428 0.25453022 -0.21569742 0.12820765 0.24673007 0.019429015 -0.11420015 -0.03951685
complication -1.006736 -0.67360604 0.98503464 -0.6048931 -0.010357464 -0.88315547 -0.71587706 0.14041354 -0.5245457 0.124136046 -0.38248214 0.11608342 -1.1137162 -0.37371525 -0.48090312 -0.05345022 1.0347015 0.53079623 -0.49386153 0.5749052 -0.15652625 -0.12231178 0.37414896 -0.6809312 -0.3372784 0.95631343 0.13983335 -0.22016837 0.741746 -0.36570382 0.8826724 0.11107689 -0.8707494 -0.86893743 0.5883748 0.7570978 0.23675488 -0.15216392 0.6773191 0.02757363 -0.31001255 0.47448784 -0.37985098 -1.1676387 -0.13599938 0.5906819 -0.069997385 0.7023308 -0.375762 -0.45403495 -0.12675181 -0.34420925 0.5796522 -0.13142094 -0.119965784 0.09674444 0.8112649 0.3319275 -0.08222061 0.4908216 0.18898402 -0.49714383 0.42831397 -0.9183497 -0.6583807 0.65055 0.28939593 -0.1764614 -0.18451735 0.06034086 0.61395967 -0.043795183 -0.21413846 0.44039768 -0.25154907 0.68523836 0.8473781 0.56042147 -0.37669745 1.241081 -0.5761712 -0.15327226 0.62228364 0.6638777 0.49426493 0.002779998 -0.57472295 0.6880994 -0.3074735 0.7753939 0.52256876 0.52088314 -0.1682051 -0.06175587 -0.123554796 -0.10174485 0.32019675 0.64448243 -0.7085451 0.65523475
fracture 0.07196814 0.06924813 -0.58796716 -0.39883876 0.7938302 -0.36836153 -0.34124592 0.42134213 -0.1880725 0.4527131 -0.46889302 0.69465137 -1.1051168 -0.9808638 0.10353986 0.63577527 -0.22965814 0.24456932 -0.6038237 -0.5094683 0.13923891 0.106746085 -0.07755889 -0.17452759 0.044802297 0.8170701 0.49315605 0.15746808 0.6411034 -0.346103 -0.14431769 -0.40566415 -0.56752014 -0.22763714 0.809905 -0.299954 -0.402055 0.36015922 0.5715211 0.024339957 0.4281823 0.47473013 0.4569319 -0.8072943 0.39496964 0.40574998 -0.28438175 -0.6930466 -0.0132735865 -0.2930047 -0.9680117 -0.1979836 0.5584918 0.006838086 0.52995455 -0.045115322 -0.04988731 -0.19863677 -0.17557001 0.56491697 0.55532247 -1.8300542 0.55821604 -0.17881735 -0.29200432 0.5071987 -0.32257208 0.023411073 0.48711097 0.41152394 -0.23945174 1.1002474 0.5932874 0.23031229 -0.41438353 0.50484097 -0.35732305 0.36691263 -0.11266126 -0.11378018 -0.45000598 1.1034719 0.21886303 0.2548 -0.33719212 -0.1433733 0.13770595 -0.6224985 0.08620855 -0.61345285 0.78967136 0.53739023 -0.61194164 -0.1580344 0.4312737 0.40096927 -0.18869962 0.22433548 0.17323506 0.33476081
loss -0.3788436 -0.6276288 -0.59725606 -0.48020697 0.5029802 -0.65658104 -0.003032795 1.1936576 -0.14990854 0.8301389 -0.5144163 0.65041125 -1.4595608 -1.1802202 -0.43091655 0.56399524 0.2796485 0.67101717 -0.4343779 -0.7945228 -0.44477245 0.1306717 -0.16939396 0.2840706 0.016876778 0.84274095 0.44734675 -0.30833596 0.6244717 -0.12833264 -0.45935327 -0.37552044 -1.2586577 -1.0628252 0.71508193 0.06446129 -0.25550702 -0.052186355 0.521204 -0.31753862 0.12483284 0.26488227 0.17807654 -1.1941073 0.008724144 1.12058 0.16935784 -0.44168365 0.6945876 -0.360195 -0.84456336 -0.4533276 0.6208353 -0.05868693 0.28180087 0.15547255 0.20342788 0.047335047 -0.58184236 0.556143 1.0819542 -1.9219054 0.25549367 -0.34796244 -0.38385847 0.6900402 -0.42306575 -0.2653231 0.8671528 0.4741142 0.58744526 1.6016829 0.6915168 0.7841105 -0.030652622 0.14662604 0.07029331 0.59369755 -0.26700443 -0.0118886 -0.491122 1.3981663 -0.55991876 -0.0033287918 0.31283602 -0.5807079 0.16772766 -0.6035547 0.29918364 -0.19054419 0.6722229 0.4543938 -0.2945466 -0.4925509 0.93712246 -0.5836345 0.04299206 0.28492123 0.1363807 0.48883235
condition -1.1344763 -0.83448815 1.1213717 -0.6712098 -0.05195899 -1.0216515 -0.7542464 0.18315981 -0.6002748 0.18069755 -0.40073675 0.1841496 -1.2625202 -0.43639177 -0.5837502 -0.08599792 1.2166679 0.6495351 -0.57298154 0.66698295 -0.25058737 -0.15395755 0.39581794 -0.67937183 -0.33275068 1.059096 0.18472493 -0.25294417 0.86230737 -0.40036088 0.9342068 0.11705529 -1.0269241 -1.0514497 0.6940399 0.8939048 0.25873464 -0.18916616 0.82069093 -0.003869289 -0.3833048 0.53394103 -0.4590427 -1.3218088 -0.23044339 0.66196066 -0.029853234 0.82870525 -0.36367527 -0.51382715 -0.15205409 -0.445932 0.68292433 -0.19797678 -0.14133976 0.1286386 0.94636065 0.38457468 -0.12492897 0.58023125 0.25261098 -0.5644458 0.5185721 -1.0571119 -0.74208105 0.7823312 0.29764265 -0.14889129 -0.1767799 0.097730234 0.7122568 0.026418354 -0.23017699 0.5241183 -0.2942433 0.7209932 0.9334198 0.6165694 -0.46942893 1.416911 -0.60220844 -0.1369968 0.65562385 0.7277026 0.5695812 -0.0054227374 -0.6370643 0.7185689 -0.3014638 0.8920765 0.6003595 0.59517366 -0.17922679 -0.041626118 -0.119692646 -0.14533329 0.39073864 0.7423085 -0.85350686 0.7126264
Unspecified -0.41566294 -0.26985765 0.3685494 -0.4063231 0.049045093 -0.49317458 -0.34285212 0.17214566 -0.16194586 0.2552939 -0.14993033 0.0266943 -0.5591713 -0.20224476 -0.2269727 0.24108943 0.43770182 0.31357625 -0.34848142 -0.02662586 -0.030923804 0.3066233 -0.15302104 -0.43396428 -0.17632449 0.61437607 0.078480385 -0.28030062 0.6701601 0.014982188 0.29206005 -0.18116397 -0.58882016 -0.48592758 0.4879961 0.20206985 -0.13737257 -0.03536835 0.38630557 -0.018291352 0.0895739 0.2687199 -0.048663393 -0.33970985 0.0906541 0.3764029 -0.07368968 0.09043314 -0.22311908 -0.43611613 -0.4640775 -0.07253955 0.18907203 -0.11097023 0.16456765 -0.041175433 0.27112028 0.0029794918 -0.11537303 0.4080499 0.08483157 -0.52283925 0.14580636 -0.5798216 -0.12048149 0.5281121 0.011225105 0.18113874 0.049338225 0.0061581642 0.16588214 -0.0055168145 0.07983282 0.15837911 -0.2995705 0.19015317 0.2882465 0.17050976 -0.29245478 0.3252626 -0.25582463 -0.0871841 0.21710017 0.046175897 0.071365625 -0.013036699 -0.41728806 0.104757115 -0.15947779 0.11490342 0.3805589 0.26733232 -0.18593982 0.15214437 -0.18883151 0.08004658 0.23700556 0.2209816 -0.2507509 0.16334678
neoplasm -0.33248666 -0.18728894 0.07288601 -0.2517457 -0.02364441 -0.4111926 -0.4019354 0.48417342 -0.1797337 0.41179067 -0.1472125 0.04622456 -0.57430136 -0.20016286 -0.2876898 0.44384852 0.41392455 0.3079099 -0.5026998 -0.25356513 -0.23541844 0.4116797 -0.3118528 -0.31000182 0.13294956 0.51671004 0.1809848 -0.46561453 0.86654234 -0.007372118 0.103229545 -0.24955171 -0.7020514 -0.47447672 0.5493816 -0.03477931 -0.25749883 0.17630863 0.4538988 -0.24423052 0.45847264 0.08445682 0.14025106 0.05139616 0.03072826 0.17612873 0.0066357767 -0.19425537 -0.14026889 -0.48250198 -0.82027924 0.07152809 0.06306412 -0.25218034 0.38410574 -0.18713072 0.28764036 -0.15621942 -0.040792037 0.5686605 0.1575828 -0.95959616 0.028690698 -0.6238031 0.21382165 0.2888808 -0.04621834 0.29811862 0.19309586 0.13068503 0.14432247 -0.05882693 0.28073347 -0.007696196 -0.027517214 -0.017646851 0.1574725 0.0626255 -0.28021458 -0.0029308612 -0.12886232 0.08992739 -0.05276257 -0.28414118 0.09762556 0.030824535 -0.36362112 -0.3269865 -0.082323745 -0.0014476429 0.54603106 0.29616657 -0.3452587 0.37953943 -0.2650075 0.07509519 0.35578027 -0.12956 -0.00900161 0.20370945
Open -0.020197637 -0.06890848 -0.3740507 -0.30651996 0.5574646 -0.3491267 -0.27195042 0.36625966 -0.18529162 0.35815534 -0.38663936 0.48480335 -0.9973089 -0.8156434 0.043660183 0.51925427 -0.010618095 0.30068028 -0.45652032 -0.26701897 0.060660828 -0.014013211 -0.044541843 -0.15173542 0.029649844 0.6099498 0.41551033 0.07096766 0.5816354 -0.34281248 -0.0043129455 -0.33433628 -0.49756286 -0.2758068 0.58947635 -0.16920161 -0.25763276 0.19973688 0.4469488 0.094578475 0.28209898 0.36756647 0.3347897 -0.7687673 0.29823115 0.34744975 -0.17942841 -0.40389827 0.044371016 -0.25797364 -0.6942011 -0.18521947 0.5165344 -0.004556504 0.38629484 0.097101584 0.07780201 -0.16760603 -0.12398413 0.43907532 0.51768833 -1.4540675 0.5305832 -0.18753037 -0.19879283 0.3015779 -0.23454206 -0.024178015 0.37689003 0.35718155 -0.10077967 0.88115174 0.4203398 0.28583977 -0.3003624 0.3801533 -0.2208246 0.3664492 -0.11917283 -0.0057364665 -0.39138153 0.91196156 0.19723739 0.27497867 -0.11514625 -0.14722703 0.0492854 -0.509137 -0.023990603 -0.39943862 0.6609118 0.47162 -0.4061384 -0.084185444 0.31111017 0.2583234 -0.116869725 0.22155255 0.13360868 0.33752573
wound -0.20607287 -0.27689368 -0.20731163 -0.49398035 0.76311374 -0.5402198 -0.34454912 0.46646476 -0.32775632 0.26517406 -0.52727336 0.5972775 -1.3847646 -0.9561023 -0.006490491 0.3686161 0.13566373 0.42016858 -0.4336655 -0.09510593 0.14924279 -0.115883276 0.15852678 -0.15346846 -0.038514543 0.7196331 0.3217882 0.005766842 0.49177903 -0.6421842 0.10728391 -0.17795102 -0.75886095 -0.40896052 0.52970856 0.11624462 -0.17348702 0.052426405 0.46627665 0.033861406 0.23818797 0.6342716 0.46544987 -1.294627 0.2699343 0.52965176 -0.19965427 -0.38321912 0.1634353 -0.08852402 -0.5803354 -0.29408962 0.72222143 0.22843964 0.37040833 0.122083396 0.06407881 0.018415848 -0.046896007 0.41738802 0.6342788 -1.8597895 0.6166268 -0.3710939 -0.33290613 0.25871846 -0.18580613 -0.3729138 0.36201042 0.38357747 0.1584393 1.2027763 0.4281399 0.35353237 -0.18614468 0.7180903 0.0958758 0.6503369 -0.0063872244 0.23666635 -0.64982927 1.2261078 0.23869255 0.5135645 0.06021188 -0.12740123 0.22733879 -0.3078783 0.037578683 -0.14836603 0.8372853 0.68206805 -0.42114487 -0.26062426 0.7629144 -0.022003667 -0.18216395 0.24790229 0.07431466 0.6485613
antepartum -1.1242206 -0.8165866 0.9773325 -0.6996906 -0.0057670632 -0.9732742 -0.75137836 0.25399908 -0.5806081 0.12729451 -0.41218996 0.113770604 -1.2517164 -0.49764726 -0.594091 -0.09063228 1.0881573 0.6263413 -0.5180561 0.62728536 -0.2360935 -0.089828596 0.41820052 -0.68209517 -0.37158737 1.0536094 0.19928007 -0.24016502 0.79065365 -0.43847954 0.89896333 0.07457139 -0.95459557 -0.9587856 0.63141334 0.83735573 0.2911895 -0.1989042 0.7495885 0.018209176 -0.29967502 0.5396485 -0.40556374 -1.3711306 -0.1685408 0.66051316 -0.07973734 0.73994267 -0.35041288 -0.4980391 -0.14749126 -0.41596696 0.63226724 -0.13793805 -0.12831305 0.14390673 0.832987 0.36369956 -0.13460317 0.5051059 0.27391556 -0.6519087 0.4721421 -1.0187737 -0.7126732 0.662427 0.28777462 -0.20395069 -0.13074593 0.064120844 0.7209566 0.026381852 -0.2122925 0.50410914 -0.21979505 0.72346926 0.941736 0.6158129 -0.39407033 1.3280638 -0.6536578 -0.07650418 0.5953849 0.74429804 0.5784328 -0.022564935 -0.60543543 0.71530956 -0.31615412 0.83424926 0.58675593 0.5741358 -0.15258954 -0.068813436 -0.066207 -0.17567489 0.31162393 0.7139752 -0.7518321 0.7170799
due -0.41469905 -0.18997858 0.27473107 -0.33854985 0.010876386 -0.5365177 -0.36556566 0.09004807 -0.04720139 0.31661668 -0.052200135 0.03916525 -0.41582906 -0.14931777 -0.23796847 0.36396316 0.34862432 0.3700236 -0.37840977 -0.19903181 0.018107096 0.47171822 -0.37677795 -0.5099546 -0.16696407 0.635466 0.11713516 -0.37100586 0.73258054 0.14076021 0.25081277 -0.27367866 -0.62247205 -0.42866895 0.5218714 0.21272755 -0.28115693 -0.06858006 0.45123592 -0.075092584 0.11657928 0.21157783 -0.042944457 -0.26877767 0.058154203 0.38751587 -0.08492648 0.04968385 -0.2616516 -0.45249584 -0.6017199 -0.05016528 0.1369584 -0.14578348 0.26059586 0.008508468 0.16685572 0.03181297 -0.10832341 0.46227074 0.082279295 -0.6168784 0.08677825 -0.4957477 0.019206591 0.7304315 -0.024207177 0.3976355 0.14170977 -0.06072147 0.027787829 -0.059346557 0.03205539 0.0732329 -0.45283812 0.124062575 0.32260042 -0.021371448 -0.34401852 0.2259858 -0.1828489 -0.17159367 0.1481453 -0.13397019 0.008207745 -0.07931999 -0.49630538 -0.0071524084 -0.19107145 -0.012513823 0.41100758 0.17722605 -0.19047284 0.20608129 -0.24231344 0.21809322 0.28789088 0.11827998 -0.3089651 0.07287685
involving -0.13702819 0.06831491 -0.503753 -0.13575396 -0.007555635 -0.5329096 -0.6046859 0.25248548 -0.02484556 0.76108414 -0.11231354 0.2613993 -0.22387597 -0.6227911 -0.26084545 0.72028065 -0.090236954 0.620715 -0.58030653 -0.95385486 -0.046975505 0.31778347 -0.90830374 -0.41255048 0.18978006 0.66539156 0.63426423 -0.072908126 0.9601138 0.25398153 -0.3676794 -0.49334738 -0.58279383 -0.29250497 0.88236374 -0.029865842 -0.51726127 0.039400633 0.6649648 -0.20407581 0.09833722 0.0029736243 0.11952036 -0.25200835 0.14024146 0.5222965 0.08012172 -0.5165445 -0.04647065 -0.52616596 -1.1284732 -0.23227029 0.5755053 -0.2986289 0.5579533 0.040091135 0.26021564 0.0667184 -0.34100807 0.7771137 0.51384455 -1.050378 -0.044432856 -0.14732501 -0.14244558 1.2610108 -0.41735533 0.9235811 0.81549734 0.19685788 -0.27923256 0.62258464 0.050780773 0.32722408 -0.5454709 -0.20493197 -0.0973815 -0.46412313 -0.24045679 0.06588039 0.1512326 0.19671153 -0.019544728 -0.65674 -0.17649615 -0.2436382 -0.21947277 -0.60453606 -0.121376395 -0.5643577 0.3768877 -0.08521123 -0.77425015 0.045400973 -0.48998666 0.37012443 0.31279328 -0.149408 -0.2713648 -0.22337043
consciousness -0.39896682 -0.47659189 -0.787418 -0.5447866 1.1073917 -0.8813594 -0.22339763 0.9855258 0.025914092 0.90699244 -0.84972245 0.6786142 -1.7378657 -1.0911694 -0.27168712 0.6573554 0.0044672056 0.36406115 -0.5223886 -0.9612179 -0.017084664 0.22363612 -0.040145617 0.07156506 -0.14480238 1.1981177 0.6476625 -0.22433999 0.55037045 -0.09637006 -0.37716642 -0.13614877 -1.3698676 -0.9241816 0.9346004 0.11029191 -0.50111526 0.2118208 0.6841082 -0.5395066 0.26073188 0.54190683 0.38701418 -1.5522435 0.2071288 1.2710671 0.18609086 -0.73942494 0.5425761 -0.091064185 -1.2299644 -0.31616312 0.777286 0.22762948 0.37363267 0.029034011 -0.049581483 -0.035841767 -0.58853847 0.5356418 0.93074024 -2.883139 0.31623355 -0.13797587 -0.15277767 0.8751032 -0.31907538 -0.57238996 0.76524705 0.5720865 0.5324569 1.7261242 0.7929274 0.62843806 -0.38222456 0.81505734 0.1376052 0.68971634 -0.16760631 0.07592693 -0.5926084 1.5586668 -0.4024893 0.39113212 0.1503177 -0.58593065 0.09678074 -0.35677293 0.23678786 -0.49142873 1.0626519 0.7923508 -0.49770787 -0.6099449 1.359841 -0.42294055 0.0045868442 0.40889362 0.13294762 0.62930715
injury -0.17272696 -0.19276263 -0.4706036 -0.37832347 0.7930013 -0.5612954 -0.38416055 0.5059127 -0.15765315 0.4687449 -0.60179144 0.5299074 -1.2161893 -0.891157 -0.05196174 0.47979978 -0.031379946 0.3462624 -0.43930298 -0.43279448 0.15676728 0.022873068 0.067327276 -0.11509119 -0.11013879 0.82845175 0.4568647 -0.018892966 0.45960188 -0.29638243 -0.05817656 -0.1473637 -0.7731343 -0.40025693 0.6807315 0.0038315298 -0.27433404 0.17315069 0.53157365 -0.15403685 0.296807 0.53834736 0.43097532 -1.2257478 0.3247286 0.6497264 -0.10848872 -0.5024093 0.20139885 -0.10043383 -0.816218 -0.15481655 0.68037117 0.19165732 0.4267268 0.12387129 -0.002518924 -0.08520966 -0.20026061 0.4327038 0.58157474 -2.0466526 0.47783536 -0.2059999 -0.18162912 0.50565207 -0.17043565 -0.32892314 0.42009318 0.42397216 0.107492104 1.21982 0.46720877 0.38265443 -0.316704 0.71362996 0.06729165 0.48810303 0.004804669 0.13218386 -0.50451833 1.1051888 0.04901964 0.39343953 -0.022127056 -0.20949766 0.08813377 -0.25175458 0.026379414 -0.30388257 0.8432145 0.65042484 -0.4650332 -0.29604372 0.7534044 0.06706713 -0.09926484 0.19848718 -0.005573632 0.5432026
degree -0.37594354 -0.7853634 -0.22561595 -0.52684975 -0.22910537 -0.55605286 0.13897876 1.4202393 -0.4033742 0.8506814 0.02576812 0.536135 -1.1674399 -1.2772315 -0.6396914 0.5004152 0.77453166 1.0787891 -0.52337825 -0.6102777 -0.87697923 0.17095734 -0.57634467 0.27523354 0.14012887 0.5869514 0.2840487 -0.50195783 1.0577761 -0.06394049 -0.5380298 -0.78686464 -1.17069 -1.3219789 0.63854325 0.0015268112 -0.042185612 -0.3406211 0.48349893 0.04049685 -0.06735301 0.031099046 -0.016922921 -0.57775056 -0.13717921 0.9304609 0.05171695 -0.15580687 0.70788944 -0.8866953 -0.6764507 -0.5277385 0.316555 -0.4613545 0.22442079 0.22374615 0.5928325 0.059202436 -0.5977427 0.72100914 1.1155332 -0.76824236 0.19671269 -0.8432471 -0.6378909 0.646987 -0.5729314 0.29469663 0.98367304 0.2883694 0.47366297 1.2860142 0.62283295 0.8756993 0.1585116 -0.7350239 -0.106894985 0.28659147 -0.5441589 -0.14051144 -0.31338766 0.9505563 -0.51169384 -0.6076361 0.35012445 -0.47929427 0.06519132 -0.8581771 0.24323565 0.1263421 0.2595913 0.12353229 -0.20212337 -0.13679613 0.094487265 -0.6465342 0.27729914 0.20048587 0.09483092 0.14704727
open -0.1886757 -0.32406962 -0.27861887 -0.4761927 0.84694296 -0.61593705 -0.38675272 0.50792944 -0.35056585 0.29896483 -0.60305387 0.62329376 -1.4926522 -1.0801847 -0.016427752 0.3825299 0.14633901 0.4257444 -0.46847835 -0.17484422 0.18759002 -0.12178842 0.12794517 -0.15851061 -0.06743759 0.7985407 0.41644523 -0.004048937 0.5515229 -0.6601074 0.07865111 -0.21421915 -0.84010184 -0.417394 0.5806068 0.10055258 -0.18567923 0.07320725 0.5295731 0.02348599 0.2516776 0.6798237 0.5210014 -1.464353 0.35284203 0.6370213 -0.19247892 -0.43147546 0.24223663 -0.09233609 -0.66098714 -0.24134214 0.7951396 0.2658418 0.46031582 0.18596378 0.07451744 -0.046489697 -0.048126683 0.44684178 0.67814445 -2.1235087 0.6670259 -0.3591101 -0.29091892 0.29963002 -0.20292707 -0.4059474 0.40588778 0.42128313 0.16505519 1.335257 0.4680675 0.4229659 -0.24962117 0.76561844 0.11394684 0.702061 0.024747571 0.3013379 -0.6699959 1.3282906 0.2270445 0.53681993 0.052104913 -0.16245922 0.22877204 -0.31162113 0.021810845 -0.15040326 0.9551039 0.80167526 -0.43695727 -0.2820104 0.8500225 -0.007460121 -0.19380328 0.22726032 0.04864102 0.7238704
hemorrhage -0.27336025 -0.3518052 -0.30827466 -0.5303036 0.7530476 -0.609911 -0.42192587 0.5426512 -0.25676182 0.3925345 -0.67288357 0.50151575 -1.3528734 -0.9640909 -0.123070896 0.30544207 0.22176565 0.30698928 -0.49214548 -0.16217162 0.05595191 -0.13684987 0.18685922 -0.15960342 -0.18489668 0.84777594 0.4427295 0.11301283 0.51174814 -0.49030373 0.06849481 -0.07660435 -0.82289386 -0.50810564 0.6753965 0.1511222 -0.079323426 0.1342019 0.5616201 -0.10855088 0.08253536 0.5947308 0.39788994 -1.3513188 0.300261 0.7181744 -0.03020876 -0.33153394 0.23152554 -0.13625176 -0.6710005 -0.28605592 0.7844815 0.18741347 0.3374804 0.22387078 0.17396176 -0.0022843292 -0.23325464 0.51599514 0.5237987 -1.8212556 0.6105243 -0.39663208 -0.44808063 0.4667707 -0.14420332 -0.48858908 0.3130425 0.431746 0.33918226 1.1676943 0.40693474 0.36806816 -0.22907838 0.67016625 0.18296146 0.633338 0.06299979 0.48735672 -0.58150333 1.0565292 0.2410319 0.55178833 0.079987906 -0.100000784 0.12753591 -0.0033444283 0.029679831 0.0043198955 0.78034854 0.77329415 -0.41443875 -0.21860927 0.675027 -0.029866487 -0.15615916 0.32675463 -0.07728827 0.6491742
intracranial -0.13696338 -0.2833519 -0.6980326 -0.59130955 1.181397 -0.7648172 -0.46757287 0.74716955 -0.30665606 0.5880538 -0.86475235 0.78750134 -1.8061334 -1.3702396 -0.02889806 0.57380646 -0.08551091 0.41970107 -0.6322805 -0.5376721 0.18946388 -0.12216221 0.1460264 -0.07910115 -0.047971424 1.0835094 0.65445375 0.079217 0.6180983 -0.6030903 -0.09667194 -0.1849765 -1.0197482 -0.48404288 0.9185035 -0.011611301 -0.35445794 0.29136908 0.766301 -0.16587196 0.30981 0.7900507 0.6632706 -1.7953084 0.5071586 0.93257314 -0.16153875 -0.75373375 0.3620458 -0.053790383 -1.1038388 -0.30559292 1.0005068 0.3245986 0.59927696 0.21294136 0.01993285 -0.09248809 -0.2468204 0.62543535 0.7961198 -2.805469 0.7357516 -0.27580643 -0.3871163 0.59854287 -0.26426563 -0.5634927 0.5955806 0.62281406 0.15887713 1.808083 0.686134 0.5553833 -0.40106118 0.94375646 0.011284426 0.7677497 0.08907488 0.2823673 -0.6990363 1.6728888 0.14298996 0.6095006 -0.056967102 -0.236626 0.26226255 -0.36590958 0.113799274 -0.3531856 1.1247112 0.9732062 -0.62860435 -0.4513495 1.111902 0.048670035 -0.2415921 0.28584036 0.03226974 0.7944813
delivered -1.0168612 -0.73917335 0.9490428 -0.6265361 0.06458119 -0.9230779 -0.7084195 0.22626978 -0.54202163 0.1660194 -0.4022165 0.19877626 -1.2301068 -0.4745102 -0.51132447 -0.025929162 1.0846486 0.61921936 -0.5292289 0.54427886 -0.18880841 -0.11724634 0.3677021 -0.63483953 -0.3341237 1.0281794 0.15306449 -0.24280448 0.75356996 -0.3952078 0.8528879 0.09065338 -0.9563314 -0.9506178 0.6307455 0.7930276 0.22521026 -0.15509385 0.72656775 -0.0094677545 -0.29389685 0.5287649 -0.37775436 -1.3139204 -0.15591209 0.6862689 -0.0476109 0.6999106 -0.29487908 -0.47435334 -0.16935445 -0.37449327 0.64496267 -0.12904346 -0.0895157 0.14510553 0.8068893 0.33597827 -0.117499076 0.516564 0.26020542 -0.6772706 0.4951498 -0.93228304 -0.6804996 0.71241206 0.24295464 -0.23745523 -0.12445387 0.10385093 0.68263024 0.12244551 -0.18602195 0.4886303 -0.26632705 0.72996324 0.86429685 0.6416755 -0.42192015 1.2514753 -0.6285218 -0.0051871818 0.5855218 0.679642 0.5453328 -0.04277972 -0.5611118 0.658674 -0.27067083 0.78839886 0.57654583 0.56917936 -0.19175898 -0.078507 -0.012881299 -0.15777864 0.30818218 0.6752317 -0.71090716 0.6977288
disorder -0.34094045 -0.24680087 0.30558702 -0.4101846 0.06370236 -0.50855434 -0.32803878 0.17925434 -0.12736464 0.28146955 -0.13175192 -0.07250131 -0.48168868 -0.1536452 -0.25524014 0.23981586 0.40675917 0.2245486 -0.3363097 -0.09550641 0.010312802 0.3677889 -0.23731008 -0.43925482 -0.25235733 0.6213826 0.06936849 -0.276514 0.67247254 0.10296709 0.24002044 -0.15645504 -0.5751578 -0.40347925 0.53663546 0.1419781 -0.14182864 0.0029630046 0.42271438 -0.030636689 0.07223058 0.27095866 0.0009841279 -0.23466346 0.15370207 0.42355156 -0.061538994 0.03066984 -0.19219288 -0.42757174 -0.544501 -0.014066668 0.12649234 -0.10696707 0.19720368 -0.045888234 0.25719538 -0.04032385 -0.19049922 0.43629056 -0.027325716 -0.4538551 0.10735717 -0.5914769 -0.11820664 0.59946495 0.021332154 0.20877422 0.02213761 -0.003914065 0.15551196 -0.06761893 0.120832466 0.11098722 -0.33346447 0.096134536 0.28426424 0.11559409 -0.22411121 0.31528318 -0.2260392 -0.21068741 0.22836556 -0.023867948 0.0253039 0.0442787 -0.46214843 0.1946285 -0.11958876 0.09754179 0.32274416 0.2831664 -0.16836923 0.16938545 -0.22403532 0.093523055 0.23248568 0.18437584 -0.2686877 0.09414466
sites -0.2641581 -0.16511467 -0.005099155 -0.43266654 -0.026518801 -0.35255936 -0.20403033 0.50001204 -0.047544945 0.5577644 -0.07340825 0.17915162 -0.5577544 -0.51200265 -0.19982696 0.58756995 0.3500414 0.61530405 -0.42687458 -0.20020717 -0.11580282 0.33316627 -0.48235312 -0.3440554 -0.060930353 0.46378204 0.22149637 -0.31124476 1.0724071 -0.07183098 -0.05969717 -0.54386485 -0.565149 -0.5964481 0.46485668 -0.046449658 -0.24825935 -0.1984504 0.3210404 0.06929924 0.33187732 0.15682063 0.13069013 -0.03251742 0.10982741 0.3678033 -0.10320454 -0.19675712 -0.11978123 -0.61334085 -0.70256746 -0.15282792 0.13050482 -0.20006223 0.33487692 -0.074696615 0.107564256 -0.16306183 -0.14641532 0.6026107 0.41876352 -0.82348377 0.11257416 -0.659969 0.08724385 0.44992998 -0.31820765 0.40326315 0.39123008 0.029067952 0.05214162 0.26527774 0.37751833 0.16894807 -0.19157742 0.04714882 0.05152612 -0.0009241007 -0.35278478 -0.14123407 -0.28859246 0.35367244 0.11996683 -0.25861856 0.071177706 -0.119997695 -0.23294885 -0.57416457 -0.14555885 -0.093665235 0.5181629 0.24492387 -0.32374936 0.37407252 -0.21398921 -0.0042978353 0.21669778 -0.003785848 0.116282366 0.07257408
disease -0.2619859 -0.086710975 0.27933043 -0.46299908 0.022457069 -0.40845436 -0.37635255 0.29179597 -0.15300712 0.3526137 -0.09899247 -0.100431524 -0.470832 -0.20929955 -0.17097187 0.3005243 0.3505368 0.37315178 -0.3248887 -0.09089995 0.041515008 0.39409357 -0.14683276 -0.47303057 -0.2792374 0.6371661 0.048283316 -0.32733962 0.8075194 0.10824967 0.23187043 -0.18654354 -0.5452023 -0.45476398 0.52014154 0.03866282 -0.21998127 -0.102910034 0.40797937 -0.010552401 0.22414696 0.24032366 0.0425941 -0.19858523 0.13005458 0.3787345 -0.16310774 -0.033951513 -0.33199883 -0.5273788 -0.5094417 0.07118804 0.17638363 -0.086090736 0.28282723 -0.12111295 0.28147578 -0.16431887 -0.12468013 0.4410448 0.10566501 -0.6650637 -0.027836004 -0.5918484 0.09960125 0.49671718 -0.0047443938 0.26691163 0.17045291 -0.04096051 0.06313164 -0.002526728 0.22362684 0.09672246 -0.24906658 0.28767398 0.19801117 -0.009678365 -0.19742742 0.18157654 -0.13872612 -0.17936717 0.19841899 -0.089514606 -0.019086901 0.12718078 -0.5056158 0.04818239 -0.13436528 0.08932131 0.4247034 0.24171689 -0.30532148 0.13895509 -0.29346862 0.07181352 0.32709667 0.10246602 -0.2587751 0.13900226
injuring -0.28887337 0.21010123 -0.44470504 0.05351356 -0.2369892 -0.7161421 -0.95775086 -0.1688963 0.22723615 0.91442806 -0.045855567 -0.16799411 0.4231426 -0.08744575 -0.40570432 0.942037 -0.17491584 0.5370588 -0.5585999 -1.4287982 0.16356078 0.7697484 -1.3536468 -0.85591227 0.068410605 0.88422716 0.68911713 -0.31585458 1.0400466 0.9145511 -0.38785538 -0.35756066 -0.70755684 -0.1979671 1.0521923 0.09773465 -0.79300207 0.10451033 0.8364832 -0.50146604 0.018374106 -0.20758489 0.01985944 0.15882102 0.12814905 0.6086421 0.28936434 -0.5753513 -0.31951165 -0.4928738 -1.4834524 -0.030941654 0.55674815 -0.38833103 0.6264426 -0.13384941 0.36585563 0.17313187 -0.43677932 0.9053278 0.2177631 -0.9790874 -0.5276088 -0.04554907 0.20967594 1.9747047 -0.26319027 1.5313648 0.91607183 -0.028607318 -0.34357834 0.22204019 -0.1828322 0.15701894 -0.88288975 -0.27634352 0.17230639 -0.9255131 -0.2995214 0.17151205 0.5009319 -0.6170642 -0.08775103 -1.092612 -0.31413248 -0.26576942 -0.703774 -0.29262918 -0.22218959 -0.80134076 0.25945854 -0.42894477 -1.0838522 0.15832236 -0.97273606 0.52438205 0.71761596 -0.45035806 -0.6569018 -0.58598983
Malignant -0.30072296 -0.28500542 0.051631235 -0.31037873 0.08943261 -0.42873836 -0.23496428 0.32816222 -0.041205294 0.29668286 -0.16677186 0.0830422 -0.526717 -0.30426815 -0.24582614 0.36490116 0.36428225 0.46091893 -0.40677106 -0.3300413 -0.12558262 0.3602354 -0.3638666 -0.36960348 0.050009307 0.4921623 0.117737316 -0.2904083 0.64834565 -0.014512431 0.03201209 -0.37591997 -0.618216 -0.49308705 0.56091106 -0.04419246 -0.34325197 -0.03268795 0.28159815 -0.06862015 0.24426885 0.1143091 0.09642171 -0.12025342 0.119411 0.29511333 -0.045658328 -0.15315737 -0.20537487 -0.50860566 -0.6569553 0.043361306 0.10407073 -0.06305786 0.2526935 -0.11114851 0.14164665 -0.049789272 -0.17036954 0.4567816 0.26801202 -0.79983693 0.1272006 -0.5483107 0.014418896 0.5020933 -0.16291563 0.2929094 0.21744546 0.122130305 0.026285294 0.21237552 0.20237032 0.097382285 -0.15440159 0.063236415 0.13993275 -0.016204597 -0.2448803 -0.030956961 -0.23153998 0.04463483 0.04559587 -0.062647656 0.053875435 -0.07504404 -0.40627638 -0.1568109 -0.18516494 -0.13234851 0.44483453 0.14724073 -0.29368076 0.27627748 -0.18998261 -0.016840314 0.1690743 -0.018651094 -0.116442375 0.022329383
episode -0.4500243 -0.5438146 0.48927718 -0.97784394 -0.05271951 -0.69459337 -0.37968123 0.4844893 -0.26751593 0.42738447 -0.6123306 -0.54068166 -0.6655408 -0.28492203 -0.6118847 0.07210001 0.94564235 -0.00039997252 -0.4737708 0.23110628 -0.012777016 0.14549819 -0.25375044 -0.82020324 -0.71484214 0.90483457 0.19760272 0.08818212 1.2580361 -0.120569386 0.08217538 0.10817846 -0.6819501 -0.6357166 0.7973669 0.1900993 0.2917146 0.10778064 0.6811178 -0.0067032734 -0.2309807 0.40251398 0.11490499 -0.16057044 0.5500139 0.8939751 0.15806243 -0.018508924 -0.025945487 -0.40309483 -0.7222704 0.044069473 0.24936844 -0.21344668 0.12803003 -0.26698858 0.67536896 -0.032770813 -0.6174268 0.6675259 -0.53145975 -0.11444706 0.2971336 -1.2441179 -0.72159255 0.7523694 0.11953669 -0.022469426 -0.24517408 0.049859878 0.8196858 -0.36461946 0.30591664 -0.027619733 -0.205314 -0.1414171 0.52869606 0.43655142 0.07329626 1.150909 -0.3754124 -0.55680954 0.7674546 0.11431832 0.17617185 0.3487284 -0.4419656 1.1331466 0.1839844 0.8072157 0.10192342 0.9362912 -0.215905 0.5219302 -0.5689336 -0.43160358 0.33299187 0.30119663 -0.35039362 0.039515845
Closed 0.10615895 0.05501817 -0.5038282 -0.25324658 0.5683942 -0.27266625 -0.26468414 0.32507452 -0.10632845 0.4004624 -0.3360788 0.4972102 -0.83033204 -0.7571118 0.10320999 0.5975039 -0.19364929 0.2163865 -0.45639285 -0.44287086 0.08682185 0.076918185 -0.115848266 -0.13106206 0.07577691 0.58634925 0.4475063 0.110869415 0.51985556 -0.2095868 -0.11337974 -0.37481034 -0.37354952 -0.18058945 0.64736557 -0.30585682 -0.35305324 0.31991437 0.44106254 0.040178902 0.3221265 0.27608055 0.3324067 -0.598482 0.3462055 0.31609604 -0.20734102 -0.50561476 0.0002732255 -0.2469235 -0.79177016 -0.11799098 0.44764927 -0.020257663 0.4256612 0.046669114 -0.0047011953 -0.20079938 -0.14646137 0.43389145 0.43419164 -1.425712 0.4421451 -0.038399752 -0.15540953 0.3644055 -0.26963437 0.08137136 0.40768072 0.34417868 -0.22972152 0.82772756 0.4232227 0.23437393 -0.3614805 0.2887647 -0.35947755 0.25064972 -0.12661435 -0.15999734 -0.27933854 0.8322893 0.116550185 0.14928146 -0.24626008 -0.16552949 0.022062356 -0.580218 -0.0106416 -0.5489633 0.588098 0.38906473 -0.4589869 -0.08367486 0.24694012 0.36228108 -0.10292991 0.18995176 0.1576064 0.16987945
skull 0.17715973 0.0116366865 -0.8475051 -0.4853432 1.1177998 -0.50199574 -0.48939624 0.59499925 -0.2933246 0.60307276 -0.719794 0.8992276 -1.4966046 -1.4258777 0.12872061 0.7666484 -0.36442462 0.3820247 -0.7432294 -0.646251 0.18565458 -0.089036405 0.0010820838 -0.16322255 0.10339995 0.9869303 0.782578 0.3136429 0.7137454 -0.58747536 -0.2055776 -0.40966913 -0.6752076 -0.20994563 1.0401151 -0.36071736 -0.46458414 0.46576458 0.8216695 0.010660499 0.42478323 0.63046265 0.7215657 -1.4289732 0.58799267 0.67786694 -0.33817258 -0.86853874 0.15034337 -0.2104773 -1.2354124 -0.2926659 0.95340455 0.18896054 0.75190324 0.19067124 0.0037420208 -0.21089515 -0.20716219 0.7533182 0.7918739 -2.6191757 0.81432796 -0.097669125 -0.4294961 0.57563686 -0.38624483 -0.18713585 0.68214446 0.6193937 -0.24951144 1.6606793 0.6909949 0.436499 -0.46511686 0.7066268 -0.37327906 0.4826061 0.05245865 0.008872028 -0.5155941 1.5717779 0.24658307 0.40357712 -0.3359024 -0.20511551 0.30252722 -0.7073717 0.04605277 -0.6898935 1.051371 0.7961867 -0.8190828 -0.30915508 0.6979697 0.45692486 -0.31287158 0.25517985 0.12775849 0.4955983
examination -0.4098073 -0.043546356 0.9548621 -0.83678764 0.5721843 -0.8015607 -0.69871897 -0.55922085 0.08112865 0.029878326 0.04963327 0.5071655 -1.0407118 0.53285927 0.5528801 0.8849383 0.27399138 -0.32508454 -0.5825531 -0.74932104 0.47158843 1.440107 -0.13253261 -0.97989285 0.18090673 1.1259049 -0.4286199 -0.9134929 0.26564103 0.8094105 0.93450063 -0.48981762 -0.8229587 -0.5502663 1.0362315 0.011687788 -1.0753877 1.1828545 0.05455943 0.113262564 0.62971205 0.6769487 -0.3952867 -0.49871626 0.46579868 0.52366763 -1.0864719 0.18049708 -0.9436916 -0.86358464 -1.071741 0.27459082 -0.10163192 -0.051731776 0.19950461 -0.5160627 -0.011653132 0.031460878 0.42207095 0.038240418 -0.6680022 -0.5148288 0.009756757 -0.16226256 -0.15723224 1.275047 0.06141744 0.62983334 -0.11009002 -0.3106201 -0.0986991 -0.36003742 0.11959612 0.5372539 -1.7090675 0.0039881133 -0.471338 0.93090725 -1.3311293 -0.12814146 -0.4169408 -0.3041738 0.076727256 -0.08358592 -0.73400897 -0.25432917 -1.2018203 0.21923083 -0.5529258 -0.6902669 0.2695501 0.011788073 -0.40869176 -0.14070804 0.05092036 0.88699996 0.4273211 0.78554344 0.15296854 -0.31600764
site -0.26659358 -0.1589527 0.01260647 -0.37862936 0.08277411 -0.40901506 -0.14477386 0.31284443 -0.021843158 0.39448178 -0.12081137 0.14480856 -0.48179662 -0.38729042 -0.20167917 0.33424762 0.2957982 0.36793506 -0.32855555 -0.09468154 -0.039450154 0.24323548 -0.36579725 -0.3271374 -0.15919413 0.4743159 0.15183467 -0.20650432 0.82192177 -0.12841807 0.013504579 -0.31532267 -0.53820854 -0.40528533 0.422134 0.099536136 -0.1353908 -0.17781097 0.36571327 -0.006076737 0.21059129 0.17605516 0.15848799 -0.20390067 0.12748379 0.3002483 -0.03767207 -0.08702108 -0.065515816 -0.41192466 -0.6110918 -0.1400052 0.15752728 -0.059986606 0.29382837 0.09119044 0.0095601315 -0.09350942 -0.16778928 0.5503529 0.17611852 -0.70017505 0.24271254 -0.55015653 -0.029406244 0.45804998 -0.16476251 0.20561635 0.1130776 0.10859787 0.03608259 0.1897071 0.2478192 0.012988415 -0.25632232 0.105191946 0.2113323 0.045477405 -0.13729936 0.05398535 -0.26846606 0.22244088 0.23852131 -0.042384297 0.09030195 -0.026813872 -0.17181641 -0.1904423 -0.1043138 0.027331252 0.44412202 0.33898565 -0.12197611 0.3646372 -0.07567209 0.107336916 0.07857019 -0.012756678 -0.02579757 0.1520947
care -0.47601196 -0.5431177 0.5128226 -1.0560508 0.020805972 -0.6902657 -0.45494148 0.4578186 -0.33103472 0.5118169 -0.6110151 -0.5592089 -0.6686861 -0.30977303 -0.6685993 0.078012444 0.94019526 0.03814966 -0.51335055 0.18318091 -0.025658775 0.15023094 -0.25757954 -0.85784763 -0.72419244 0.95321476 0.31269893 0.12542102 1.2478389 -0.22328177 0.026388064 0.07710717 -0.61455756 -0.74840266 0.92822194 0.11075757 0.23830526 0.25623667 0.6695337 -0.07467571 -0.2636076 0.33690017 0.2002925 -0.06652297 0.5384421 0.8787729 0.18030186 -0.10444414 -0.1268894 -0.566369 -0.8135546 0.06332982 0.2249285 -0.22098175 0.088339105 -0.31021187 0.6491585 -0.0046561896 -0.59420276 0.6816516 -0.5883093 -0.12585248 0.19883944 -1.3235769 -0.7406266 0.7354251 0.034910556 0.0051286523 -0.2923939 0.04133151 0.7680427 -0.411301 0.3796934 0.017375216 -0.19706358 -0.18289405 0.57292247 0.5012799 0.10971608 1.1619505 -0.33998945 -0.62751955 0.76210296 -0.012842931 0.13984908 0.40935364 -0.500256 1.1407893 0.12441505 0.8136237 0.10317758 0.9405466 -0.17447475 0.62377965 -0.61471415 -0.46569088 0.33538914 0.19738902 -0.28717625 -0.026553525
Injury -0.26262334 -0.1646405 0.1418223 -0.35342655 0.17109214 -0.455045 -0.350433 0.15484865 -0.12268155 0.27963948 -0.15379025 0.1668551 -0.602693 -0.31598523 -0.10692962 0.3822618 0.25834876 0.3351677 -0.37271932 -0.17035268 0.07755744 0.30822706 -0.23488379 -0.40175164 -0.11508379 0.5642143 0.13556756 -0.24636614 0.5925813 -0.023216171 0.16640922 -0.26391563 -0.5471542 -0.38687363 0.4499514 0.071725756 -0.26337415 0.032940228 0.3741359 0.0037410299 0.17446528 0.2777699 0.1285894 -0.4024156 0.16914518 0.3520716 -0.1590526 -0.11607017 -0.1581587 -0.3545399 -0.54110724 -0.034533232 0.26290363 -0.047510248 0.28054243 -0.025091197 0.15081917 -0.011596028 -0.049539056 0.38062698 0.18515415 -0.83738303 0.17712381 -0.42534578 -0.038673036 0.5166451 -0.10378904 0.21591333 0.22530329 0.009616051 0.026376033 0.26990214 0.15332392 0.1444138 -0.34633029 0.19967906 0.1552742 0.14852461 -0.23601288 0.16021982 -0.28421938 0.1756874 0.14720535 -0.02392665 -0.0542179 -0.06783377 -0.2715258 -0.13677926 -0.13017605 -0.06907212 0.4370984 0.24765404 -0.27369803 0.114086606 -0.035588507 0.1416546 0.1643887 0.09709932 -0.121236995 0.15610541
found -0.4322765 -0.9475213 1.3956463 -0.85221374 0.687642 -0.9444797 -0.91942495 -0.77795345 -0.28556415 0.045118097 -0.06436281 0.8062073 -1.2478883 0.34747118 0.4587367 0.9054791 0.3767297 0.017966837 -1.2887942 -0.77642107 0.625339 2.1977177 -0.3959834 -1.0462615 0.12205018 1.3885922 0.010945995 -0.93791366 -0.23411262 0.56885993 0.9406399 -0.6239707 -0.81049347 -0.9525756 1.7161002 -0.05164915 -1.4713782 1.2294968 0.853448 -0.4548616 0.3464627 0.7697769 -0.3121613 -0.20425111 1.0008734 0.7607256 -1.3377842 -0.39900053 -1.214709 -0.6772332 -1.397457 0.44938573 -0.18197294 0.27330664 0.46329352 -1.0955927 -0.054482397 -0.17658228 0.3219779 -0.08422005 -1.0635313 -1.0077926 0.21674526 -0.71027136 -0.17235531 1.2980925 -0.06472938 0.7548841 -0.107420534 -0.64823484 -0.2901487 -0.30947658 0.13885404 0.18254775 -1.7770091 0.0431673 -0.09292351 0.63652074 -1.7230743 -0.07507867 -0.5285522 -0.96139795 -0.010983019 0.0016151258 -0.8307436 -0.11392526 -1.5185463 -0.5469888 -0.6531354 -0.62985545 1.0066065 0.48542684 -0.4892296 0.5583634 0.05876023 0.70998317 0.34782973 0.795351 0.1807956 -0.88119286
body -0.35552776 -0.6393488 -0.12501372 -0.40973502 -0.15084064 -0.51777303 0.0029030095 1.0685968 -0.34400636 0.6799542 -0.00048284125 0.476129 -1.0412744 -1.0409849 -0.52553684 0.43051413 0.64915925 0.9082069 -0.5010482 -0.47426748 -0.6528549 0.18168059 -0.48300168 0.11435818 0.124117605 0.5638227 0.2325426 -0.41203034 0.9167449 -0.123102546 -0.28794757 -0.65613097 -0.9862602 -1.0710756 0.5574514 0.048783276 -0.06804646 -0.23314038 0.45788732 0.04797211 -0.036072813 0.08616121 -0.007087209 -0.58348894 -0.09920987 0.7536442 0.024491189 -0.08280366 0.48118436 -0.7574507 -0.6335572 -0.46590942 0.33726105 -0.37412268 0.22949985 0.2022802 0.5017669 0.07677586 -0.4297182 0.6136429 0.90674835 -0.741649 0.23772122 -0.71331656 -0.55596316 0.5917674 -0.45043716 0.3001376 0.80231637 0.22869739 0.3673296 1.0332761 0.4337536 0.7119726 0.020940023 -0.49671066 -0.026758147 0.2804578 -0.51041406 -0.00012624453 -0.29529795 0.7450316 -0.35465777 -0.40886143 0.29622304 -0.40677577 -0.013792785 -0.69749933 0.13790795 0.07986344 0.3067706 0.13200043 -0.25589702 -0.10500711 0.058758743 -0.41523084 0.26967287 0.20527337 -0.00013655669 0.18546875
Acute -0.3145537 -0.21808952 0.16747832 -0.34255308 0.17026678 -0.4456636 -0.31667653 0.18372756 -0.114508264 0.25054914 -0.20022136 0.09355737 -0.58347934 -0.27449724 -0.13695985 0.25099272 0.3243714 0.24271442 -0.33667594 -0.13057199 -0.00014598764 0.27548373 -0.13673837 -0.33806616 -0.15739608 0.5892616 0.11449504 -0.21471491 0.5000566 -0.015165007 0.17391072 -0.1696614 -0.5529585 -0.43158203 0.46331793 0.1335925 -0.14914812 0.0360441 0.37090775 -0.041402526 0.08382391 0.27289012 0.061309483 -0.42378122 0.12719923 0.3812917 -0.085416265 -0.04057141 -0.10856717 -0.3288513 -0.454637 -0.06269764 0.2615624 -0.047918968 0.19310342 0.013557583 0.19799602 -0.005214783 -0.12624227 0.356365 0.1097374 -0.6653203 0.18775888 -0.43625253 -0.13005236 0.50073653 -0.02443983 0.076534174 0.11929292 0.043919176 0.15876703 0.21475972 0.14315102 0.14883503 -0.27596015 0.1909561 0.18176235 0.21665233 -0.19940613 0.26947653 -0.24545895 0.08994505 0.16307415 0.0842942 0.0032588586 -0.027511569 -0.28859237 0.060979187 -0.09501632 0.022175454 0.35497317 0.28772733 -0.21279094 0.094048165 -0.0204488 0.07546222 0.14637583 0.17447183 -0.16384524 0.17081206
vehicle -0.40669397 0.18773016 -0.4952715 -0.049247496 -0.28467426 -0.85042214 -1.1310058 -0.10291896 0.24419968 1.1073071 -0.14993177 -0.083051436 0.31800273 -0.19378312 -0.558958 0.99647844 -0.12906846 0.7252087 -0.68477136 -1.541369 0.18372318 0.66174614 -1.5301006 -0.94813824 0.06349898 1.0216544 0.88328534 -0.24890785 1.2932179 0.87048274 -0.46781135 -0.38586587 -0.804317 -0.24139006 1.2060349 0.19173932 -0.83301824 0.018033493 0.98521805 -0.5845578 -0.027108654 -0.15954828 -0.007642513 -0.019150946 0.097777024 0.6741248 0.3582251 -0.5689012 -0.386294 -0.6678526 -1.6562967 -0.14645334 0.74870145 -0.45201474 0.67284626 -0.072369434 0.46193963 0.22900146 -0.52598447 1.0963178 0.3111342 -1.2481456 -0.49233097 -0.093482025 0.12637737 2.271789 -0.35085338 1.698945 1.0318286 0.03707152 -0.3449417 0.32085395 -0.25268292 0.24896388 -0.9968224 -0.18735845 0.24678282 -1.0399078 -0.27537727 0.335442 0.50117826 -0.5398304 0.011643805 -1.1308708 -0.26987138 -0.3016285 -0.69301623 -0.3346529 -0.29585215 -0.83417416 0.35576302 -0.38858885 -1.1923934 0.21821475 -1.0735477 0.57489854 0.7712608 -0.45504418 -0.6771841 -0.53527087
applicable -0.47233313 -0.5388281 0.46481982 -1.0175836 -0.0983135 -0.7164697 -0.3760146 0.463569 -0.26553607 0.45095128 -0.6369315 -0.56493664 -0.605966 -0.2721084 -0.60390294 0.1610413 0.94457674 -0.028532503 -0.49793172 0.13834606 0.00049464975 0.1415124 -0.2854384 -0.7903787 -0.7314711 0.87064683 0.20343412 0.13097142 1.2722242 -0.12280327 0.07847226 0.099684544 -0.6574191 -0.6367765 0.7739704 0.14551626 0.3040438 0.13232563 0.6572267 0.01887093 -0.2597802 0.3798934 0.104326576 -0.07217105 0.6040114 0.89322364 0.13256702 -0.04982067 -0.02878746 -0.46272156 -0.8157112 0.077575065 0.26185742 -0.23016784 0.17104864 -0.26749805 0.6527448 -0.04852341 -0.63831645 0.682777 -0.5602424 -0.10656676 0.24439566 -1.2560083 -0.71235037 0.81162983 0.061835926 0.018101538 -0.19054738 0.03953043 0.8452096 -0.4004824 0.3140839 -0.00033230023 -0.20967962 -0.16593482 0.4772825 0.4739155 0.03017097 1.1300713 -0.380143 -0.5915088 0.76943326 0.076853834 0.11241597 0.30712253 -0.43329722 1.1156248 0.14488661 0.7783041 0.12839517 0.9065181 -0.19611372 0.52529734 -0.57710075 -0.45338437 0.37204114 0.2882237 -0.3287509 -0.008131849
postpartum -1.0597444 -0.77007586 1.0158343 -0.7057354 -0.05488031 -0.9280876 -0.73473114 0.14432025 -0.55289376 0.098750226 -0.3636321 0.0797211 -1.1497859 -0.37059355 -0.55483747 -0.052366585 1.0523126 0.51439756 -0.51672673 0.5979773 -0.2001966 -0.01150427 0.33573505 -0.7215085 -0.31348848 0.9913473 0.17190818 -0.23931877 0.7829846 -0.3712251 0.8988824 0.04966983 -0.882993 -0.89850605 0.60982364 0.7846447 0.20189582 -0.119937 0.7137513 0.02143982 -0.30434754 0.49486992 -0.3940836 -1.1641312 -0.11964928 0.5735552 -0.12750465 0.71289957 -0.4041138 -0.49885264 -0.16524346 -0.36727872 0.5608623 -0.1760097 -0.10711009 0.047871374 0.8241082 0.3403479 -0.08253677 0.49216998 0.14781857 -0.47511685 0.431189 -0.9907499 -0.6671746 0.664846 0.27527598 -0.08740602 -0.17289627 0.018515266 0.64090097 -0.116383344 -0.21212344 0.4338878 -0.26793715 0.61398774 0.8548283 0.5718711 -0.43493313 1.2677174 -0.5886083 -0.20359196 0.60947675 0.6738626 0.4718536 0.040235784 -0.6421734 0.6920455 -0.35703516 0.765669 0.54012436 0.51771677 -0.15476257 0.01944047 -0.15723625 -0.09206249 0.35364604 0.70224214 -0.7230698 0.5978058
accident -0.3181041 0.18056497 -0.53327084 -0.022354499 -0.26060286 -0.73464614 -1.0333189 -0.04983206 0.22683695 1.0643346 -0.10751396 -0.077827536 0.36520055 -0.2331076 -0.50629276 0.94215685 -0.16927741 0.68673074 -0.62507486 -1.5131876 0.14010397 0.61708033 -1.4545732 -0.86578274 0.07587382 0.9124289 0.84957725 -0.20967957 1.1762505 0.8351137 -0.52762586 -0.36102885 -0.7208761 -0.18688759 1.1287029 0.12840387 -0.7767288 0.052289013 0.91609937 -0.55379564 -0.036057457 -0.18984802 0.037333895 -0.0014790185 0.088362075 0.66844326 0.32958165 -0.6053781 -0.3260827 -0.5657288 -1.5986478 -0.17747872 0.71622354 -0.42048448 0.67907196 -0.040235374 0.436406 0.21204223 -0.5095279 1.0255072 0.3149432 -1.1695819 -0.44949362 -0.062039226 0.11210089 2.142414 -0.33710077 1.589303 1.0166166 0.03800917 -0.3369456 0.4087468 -0.22173883 0.24847278 -0.9085366 -0.25250068 0.16860832 -1.0232497 -0.24486162 0.25176555 0.5181924 -0.49425668 -0.04298443 -1.0782337 -0.2725504 -0.2837498 -0.5976462 -0.35727718 -0.21790648 -0.814807 0.3002322 -0.40042317 -1.172441 0.15650304 -1.0006359 0.51738846 0.7361966 -0.46821955 -0.6492681 -0.54536265
disorders -0.35259756 -0.21807626 0.28456822 -0.3266533 0.018762954 -0.4505088 -0.32761675 0.08264038 -0.08112877 0.25638336 -0.07572349 0.026118366 -0.38281885 -0.119243845 -0.20980963 0.25749248 0.35698032 0.26082835 -0.31667832 -0.15863383 -0.01658949 0.36479527 -0.28831172 -0.4441326 -0.11149381 0.519487 0.09111384 -0.2732101 0.6143412 0.09991921 0.21546139 -0.21328388 -0.5090892 -0.3626712 0.46002218 0.1565942 -0.19734211 0.009188446 0.3647793 -0.07345259 0.09056044 0.15740694 -0.054173246 -0.18478143 0.09159122 0.3154884 -0.067513764 0.056798387 -0.23556986 -0.40241963 -0.51626605 -0.040236894 0.12087586 -0.124378726 0.20908064 -0.051542327 0.1806562 0.02021303 -0.10809813 0.3833745 -0.0011294361 -0.46362206 0.060898256 -0.4842429 -0.064289786 0.58863837 -0.011303591 0.28691137 0.054422043 -0.031356823 0.07254463 -0.08521494 0.045777928 0.091833934 -0.3546154 0.10066559 0.24147277 0.019835383 -0.27387482 0.22506845 -0.18618546 -0.16984527 0.19416629 -0.070554905 0.015593517 -0.00014651928 -0.44025585 0.06202201 -0.18332012 0.030761955 0.32619083 0.18043987 -0.17991239 0.21185593 -0.23223795 0.17287193 0.24122295 0.10597442 -0.23704754 0.056306913
elsewhere -0.69284445 -0.04456133 0.15938255 -0.47585866 -0.31734723 -0.5736286 0.16160478 0.16421373 0.3812731 0.5801623 0.18329927 0.22970487 -0.06604984 -0.02822424 -0.29540503 0.4959231 0.47099674 0.50805926 -0.1252924 -0.15910463 -0.1021177 0.8779111 -0.8942417 -0.6145273 -0.1948418 0.5425916 0.18967246 -0.6787169 1.3990859 -0.015611568 0.18625745 -0.4473972 -0.838172 -0.64645416 0.425921 0.43357024 -0.17704989 -0.6043072 0.53367424 -0.23435116 0.4483105 -0.029621545 -0.056475114 0.2749956 -0.036063507 0.01531755 -0.05967451 0.253279 -0.41925645 -0.68542403 -1.0254936 -0.34075654 -0.25277424 -0.000578881 0.3553536 0.25369102 -0.4438849 -0.113413624 -0.16813181 0.94033074 0.09311042 -0.48391998 0.17774057 -0.6927488 0.28092638 1.0478348 -0.039995775 0.58596176 -0.21407053 -0.094042026 -0.08850206 -0.5013588 0.23477478 -0.3823771 -0.69459665 0.03672592 0.6345256 -0.688367 -0.34457445 -0.15159464 0.030645376 -0.16047886 0.3651532 -0.102421 0.17751315 -0.13256563 -0.49837673 -0.2830562 -0.4121204 0.17321569 0.5399141 0.39689356 0.40044037 0.97361016 -0.27122435 0.5204126 0.35181138 -0.38362435 -0.1837954 0.085957624
upper -0.13820456 -0.12239476 0.03150741 -0.4391293 0.009318614 -0.32823023 -0.13348673 0.45648438 -0.13018502 0.55651796 -0.06075968 0.12413402 -0.5167937 -0.5608313 -0.08905165 0.61049145 0.2778068 0.5275649 -0.46211973 -0.28766194 0.0035275084 0.3331986 -0.4692043 -0.40353903 -0.1125331 0.5394772 0.15859473 -0.30304337 1.0320807 -0.06464277 -0.07211158 -0.47736996 -0.49183977 -0.5890126 0.4833138 -0.16018584 -0.28071687 -0.14208472 0.2935127 0.17143093 0.39067036 0.16811918 0.1386292 -0.010742181 0.11368666 0.3111711 -0.077729896 -0.23486863 -0.19704233 -0.658498 -0.71745706 -0.102150686 0.10975799 -0.2606627 0.32888526 -0.18452395 0.0850168 -0.24576437 -0.12217139 0.532487 0.35320556 -0.7399416 0.07938556 -0.59273046 0.04851707 0.4315036 -0.3884847 0.47390866 0.41967744 -0.0029028088 -0.124983996 0.25146502 0.4744071 0.23126194 -0.14910007 0.11651467 -0.004281538 0.05050349 -0.38241184 -0.19072805 -0.30524412 0.31369346 0.14491147 -0.26538366 -0.087710105 -0.0765042 -0.18994924 -0.6321682 -0.14812954 -0.1268715 0.53342205 0.22844383 -0.33809894 0.3011217 -0.18851188 0.014395166 0.22762206 0.027090175 0.2352446 0.09249799
pregnancy -0.77086335 -0.59013873 0.8194981 -0.6065442 -0.054782618 -0.6872635 -0.5317677 0.22430703 -0.4245787 0.17962644 -0.3916405 -0.13573922 -0.7621063 -0.24010497 -0.538434 -0.015592822 0.905259 0.32705835 -0.37504113 0.40710232 -0.16742614 -0.0051506558 0.20524289 -0.5918797 -0.3833817 0.815717 0.14410643 -0.16323468 0.76603127 -0.16278407 0.597835 0.15998177 -0.70215595 -0.7207808 0.5806847 0.5078621 0.17799057 -0.012483932 0.62803936 -0.01419029 -0.29599854 0.3505278 -0.28200212 -0.6580461 0.032706276 0.5910292 0.025501093 0.46813375 -0.30639127 -0.41438642 -0.28458357 -0.16971278 0.3517937 -0.17059475 -0.056093868 -0.09239149 0.73341155 0.20512167 -0.23884189 0.44676548 -0.050482985 -0.25566512 0.24717647 -0.8896113 -0.5299593 0.64150625 0.24582487 -0.06681717 -0.17885189 0.010415524 0.5968659 -0.27947992 -0.031812735 0.31372648 -0.156646 0.38299295 0.69347966 0.3932566 -0.2797254 1.0695734 -0.38597977 -0.3881873 0.52473015 0.40307024 0.37597442 0.091999225 -0.56998575 0.7698267 -0.14343953 0.71019465 0.36205953 0.5069395 -0.121674225 0.08104972 -0.25406015 -0.21663362 0.38704926 0.5076866 -0.6114007 0.38243878
bacilli -0.3213382 -0.731897 1.2956953 -0.8020597 0.6911838 -0.7909446 -0.8103803 -0.8093958 -0.16706936 -0.043576054 -0.05525648 0.73024124 -1.1392517 0.42285198 0.51900303 0.7675873 0.27133557 -0.17252114 -1.0106757 -0.7538604 0.64482206 1.9556668 -0.2746862 -0.9466029 0.11119205 1.1668029 -0.04992781 -0.78982717 -0.32864317 0.4925143 0.9243862 -0.5346713 -0.5717781 -0.77911484 1.4336083 -0.049530037 -1.3940068 1.2446638 0.56976783 -0.31064975 0.3194593 0.63920057 -0.37202102 -0.18388344 0.9168004 0.59251535 -1.2752037 -0.27765462 -1.1463524 -0.6452305 -1.1992706 0.44019353 -0.24022602 0.2562187 0.2934588 -1.0135418 -0.12615187 -0.1667884 0.41162327 -0.2143545 -0.9638746 -0.78794855 0.15871438 -0.49791512 -0.18414904 1.0967995 -0.07088811 0.65187645 -0.14961518 -0.60108304 -0.28356102 -0.30918851 0.060345285 0.22480705 -1.741727 0.031270582 -0.22948489 0.7344543 -1.5748682 -0.13238144 -0.4733257 -0.73917437 -0.042794775 0.029168058 -0.85536414 -0.12525997 -1.3487847 -0.48180443 -0.6191497 -0.7053109 0.72178626 0.34965295 -0.46611226 0.4090682 0.11982391 0.75440216 0.2506074 0.8163357 0.21118252 -0.82545173
tubercle -0.26955286 -0.639875 1.1611742 -0.67830503 0.6183027 -0.6418763 -0.6445537 -0.7506097 -0.16868825 -0.13269943 -0.07293898 0.6856618 -0.9665322 0.42263296 0.5449507 0.71050334 0.258176 -0.14881566 -0.9851589 -0.5867481 0.56828165 1.7193952 -0.1784597 -0.785938 0.15687041 1.0112294 -0.11166826 -0.7675975 -0.3537061 0.5050252 0.77693033 -0.49971947 -0.55620944 -0.6485022 1.2265266 -0.11870351 -1.220171 1.0920359 0.48458225 -0.28966242 0.38026518 0.61673176 -0.27776387 -0.17471938 0.7685673 0.5120531 -1.1312089 -0.2571911 -1.0327232 -0.53315365 -0.99508655 0.393884 -0.16926514 0.25618488 0.31393254 -0.900919 -0.0797645 -0.14487323 0.4145967 -0.21140221 -0.89968413 -0.6463037 0.16720505 -0.37030426 -0.10355439 0.90667474 0.009394945 0.52734447 -0.17185685 -0.5051661 -0.22609521 -0.32236665 0.11336897 0.14790994 -1.4517099 -0.021902932 -0.23048174 0.65358627 -1.3822856 -0.16329019 -0.41358918 -0.7340176 -0.03469711 0.04455222 -0.75872874 -0.1252279 -1.178524 -0.37029636 -0.5464241 -0.59172785 0.7112189 0.3005767 -0.36267427 0.3232776 0.10882681 0.59713423 0.24673055 0.7159931 0.24837808 -0.7380993
bacteriological -0.4169302 -0.11907513 1.1023943 -0.90501654 0.6657214 -0.8829483 -0.7718785 -0.64571834 0.055676285 -0.0072700577 0.002531633 0.66825867 -1.2070986 0.5721984 0.63744986 0.9778988 0.2906381 -0.3023482 -0.7787024 -0.8324237 0.5484197 1.6876881 -0.13075534 -1.0612538 0.20101094 1.2629697 -0.42563555 -1.0144268 0.17473912 0.8538643 1.0161643 -0.5737923 -0.85714304 -0.6548108 1.2219343 -0.015902463 -1.2893786 1.3650266 0.11002147 0.04782786 0.69785255 0.7459749 -0.41754645 -0.520192 0.57308805 0.5971423 -1.2373738 0.10265463 -1.1148713 -0.94024926 -1.2445265 0.31952152 -0.10352055 0.0072521474 0.25144526 -0.6557216 -0.056397647 -0.0015620744 0.50735486 -0.013955084 -0.7630337 -0.67253387 0.060930185 -0.18452884 -0.13977872 1.3573008 0.027942318 0.65513676 -0.11276884 -0.38202465 -0.14311874 -0.32558537 0.14850372 0.5635615 -1.8755848 0.0012034394 -0.50070244 1.0379249 -1.524584 -0.20612179 -0.4469405 -0.37362027 0.06361485 -0.08629545 -0.8646078 -0.27203795 -1.334289 0.049153477 -0.64769095 -0.8113149 0.35423425 0.04016911 -0.4901066 -0.11457169 0.06845471 0.94993126 0.42529368 0.8660529 0.20543495 -0.47229376
effects -0.16159636 0.077494785 0.52046365 -0.30222964 0.3833214 -0.52297944 -0.33579376 0.5614021 -0.5166864 0.37521714 0.12536445 -0.42355064 -0.30739346 -0.09404647 -0.2855792 0.46361417 0.081659876 0.8168661 -0.43139368 -0.2255222 0.12654762 1.2089379 -0.16294244 -0.5417152 -0.6767198 1.2526512 -0.2243858 -1.173466 1.1164407 0.73337656 0.59089816 -0.20180961 -0.8709522 -0.26608306 1.237071 -0.39193976 -0.42403305 -0.11310308 0.8849133 -0.023202155 0.8045602 0.6979856 0.19365059 -0.1532705 0.3146661 0.46226332 -0.6093545 -0.12267721 -0.6860523 -1.0119307 -1.1626391 0.7876397 -0.3929613 0.19621752 0.8827957 -0.01240327 0.0002009373 -0.8411774 -0.16272505 0.62433255 -0.095063105 -1.1131403 -0.13390186 -0.8828661 0.8909597 1.1565846 0.38832027 0.35817096 -0.19795457 -0.3272985 -0.632639 -0.26835304 0.3784027 0.18396942 -0.6451376 0.5075185 0.42420077 -0.71995527 -0.25713402 -0.5324406 0.28048083 -1.0473129 -0.1145753 -0.4595249 -0.29014918 0.4373804 -1.3202375 0.22465898 0.018363517 0.07808207 0.8104857 0.2211968 -0.35881117 0.042163536 -0.68276435 0.5961142 0.62470096 -0.095319755 -0.88289225 0.012715105
multiple -0.15774101 -0.14684328 -0.07952446 -0.3821363 -0.04341121 -0.27107167 -0.10366918 0.4706466 -0.09563416 0.5013151 -0.038778745 0.21314074 -0.6045822 -0.61305046 -0.17210796 0.4273949 0.23869886 0.61852187 -0.36856115 -0.09374984 -0.14773056 0.10327571 -0.43164632 -0.20025714 -0.045492873 0.35155898 0.18746914 -0.18285528 0.9434236 -0.17536727 -0.15484451 -0.46423542 -0.53547657 -0.5013677 0.3600261 -0.05376397 -0.117135316 -0.25511244 0.27019146 0.22186759 0.29250968 0.11937361 0.09956138 -0.095247634 0.14480342 0.2596519 -0.089314245 -0.19067618 -0.111472204 -0.55711156 -0.5423077 -0.22638577 0.15758997 -0.24790594 0.28507102 -0.031131627 0.033547655 -0.12251886 -0.20714514 0.51394147 0.42840138 -0.7157076 0.11241269 -0.55968255 0.015444469 0.23305042 -0.3466384 0.30899432 0.43070966 0.12676474 -0.04174127 0.36525416 0.45875812 0.24079272 -0.095240906 0.013662176 -0.05025301 0.013042003 -0.29022416 -0.16606688 -0.30955216 0.48052567 0.1119271 -0.20359159 0.03900706 -0.09613766 -0.07303401 -0.6136501 -0.09383822 -0.036249008 0.49344924 0.23815896 -0.23027448 0.25032547 -0.1871443 -0.09825769 0.12606883 0.07340457 0.15637814 0.15063055
classified -0.3681707 -0.13536468 0.37711 -0.281838 -0.06269628 -0.7485183 -0.014751249 0.10281866 0.38712665 0.5161515 0.48459756 0.0496196 0.041444592 -0.08965704 -0.5245889 0.34611216 0.18036444 0.70344704 -0.37124854 0.0010187383 0.004200454 0.5873817 -1.0010607 -0.50244606 -0.32170996 0.49737346 -0.053298123 -0.64471656 1.3830159 0.21758237 0.094294004 -0.72288215 -0.5949451 -0.23777306 0.42090556 0.5637448 -0.40728334 -0.7051946 0.57386816 -0.0397551 0.3167351 0.010041761 -0.26550776 0.11440418 -0.14530942 0.3712113 -0.02690064 0.4257129 -0.38162705 -0.6615427 -0.86812574 -0.15768352 -0.2586414 -0.21061091 0.47321498 0.48322153 -0.5006196 -0.03497508 -0.1800324 0.8997196 -0.20353486 -0.306724 0.18974485 -0.7898118 0.47641382 0.9069784 -0.19566287 0.8809594 -0.35198098 -0.19724844 -0.31243706 -0.67601484 -0.076594755 -0.34759757 -0.7992638 -0.047038574 0.75913095 -0.34514007 -0.32762825 -0.14430234 -0.21942405 -0.3247587 0.36165813 -0.53326637 0.29457933 -0.11887681 -0.5946638 -0.40464437 -0.25418383 -0.045634013 0.6136072 0.072650775 0.4327292 0.92444366 -0.42561787 0.58104837 0.013130999 0.0020507511 -0.4322327 -0.17665385
tuberculosis -0.37135938 -0.17169777 0.9670062 -0.8113242 0.5659396 -0.8723217 -0.7431128 -0.53618455 -0.0031149334 0.032506485 0.062911175 0.47406211 -1.0082338 0.48105183 0.51311684 0.8765957 0.30101597 -0.23042327 -0.65694946 -0.74385846 0.4801836 1.5819609 -0.20859058 -0.96042335 0.11159456 1.1525174 -0.3750912 -0.9199147 0.21568573 0.7620193 0.887615 -0.4604259 -0.79604053 -0.55730367 1.1853676 0.002482675 -1.1229016 1.1313866 0.20633237 -0.014450801 0.5714633 0.6594544 -0.37565476 -0.44086286 0.5284857 0.5696139 -1.0747079 0.090528145 -0.95205224 -0.8447131 -1.1242566 0.35909703 -0.1813979 -0.0535031 0.2875696 -0.5444321 -0.0606504 -0.03859301 0.3900568 0.02674446 -0.7516735 -0.5990422 -0.017185587 -0.27789575 -0.1470182 1.2861236 0.08089405 0.6477838 -0.104804 -0.366225 -0.17218475 -0.37080202 0.09447203 0.4687687 -1.7166203 0.039473042 -0.38456753 0.81689805 -1.3187112 -0.119313516 -0.4395516 -0.4405279 0.060088906 -0.11642618 -0.7707307 -0.1859127 -1.2483231 0.12620555 -0.561697 -0.6701332 0.31101465 0.07748794 -0.47889912 -0.027021483 0.030089697 0.84409666 0.4186176 0.6995412 0.08708504 -0.38702643
lower -0.19482118 -0.137604 0.03581943 -0.4438519 -0.021430947 -0.3507456 -0.16421306 0.4643535 -0.12641372 0.61563706 -0.085646585 0.105268165 -0.52861136 -0.55963737 -0.1622037 0.64228374 0.3129356 0.540364 -0.49346316 -0.33299404 -0.015979102 0.41098055 -0.54490894 -0.43093055 -0.14181146 0.5757706 0.16177282 -0.3582471 1.0801125 -0.020190569 -0.06792716 -0.52648646 -0.551492 -0.64701545 0.5270744 -0.09609533 -0.28037813 -0.16301094 0.34334064 0.13700725 0.37105942 0.16635762 0.09552598 0.026946032 0.1411802 0.3418602 -0.05847546 -0.2593474 -0.21960075 -0.73736525 -0.752599 -0.09449034 0.1069395 -0.29238328 0.32904798 -0.16988206 0.10542801 -0.23490071 -0.120960526 0.59953004 0.3921602 -0.7383886 0.05883788 -0.6428872 0.047670968 0.49900585 -0.39715955 0.52153605 0.4086548 -0.023535151 -0.10603388 0.2581941 0.45152542 0.23911047 -0.17533675 0.080955155 0.017747318 0.037161324 -0.3936417 -0.15186568 -0.29835305 0.23969996 0.16025752 -0.3014226 -0.08683511 -0.10829282 -0.25962043 -0.64930993 -0.1938861 -0.11763836 0.5356995 0.21486448 -0.34440723 0.32776427 -0.28809446 0.034955125 0.28435713 0.024626518 0.21482599 0.08411304
joint -0.26341334 -0.07771996 0.1637387 -0.35275137 -0.008080922 -0.37524685 -0.15447511 0.19355524 0.05331973 0.4345337 0.0732291 0.1389875 -0.40187892 -0.22372594 -0.13280398 0.53989816 0.25555575 0.43214554 -0.34028485 -0.2411532 -0.05069411 0.5058998 -0.56366724 -0.42014575 -0.042776495 0.50859773 0.07143823 -0.3702827 0.91068965 0.120007545 0.09994153 -0.52902305 -0.5294552 -0.46766007 0.45705646 0.021038253 -0.35056797 -0.152285 0.32230085 0.097539485 0.32761905 0.12668608 -0.021862565 0.112184234 0.14773163 0.19453262 -0.14219701 -0.09474531 -0.30746925 -0.65782243 -0.7142663 -0.1165875 -0.017555183 -0.20657887 0.32141477 -0.043596994 -0.010139278 -0.1321362 -0.10141088 0.55329317 0.133756 -0.484947 0.09176251 -0.5343421 0.10494266 0.5755087 -0.21407036 0.58581346 0.18244168 -0.052500267 -0.15215243 -0.045416646 0.26980332 0.05338591 -0.46845114 -0.0654122 0.016872095 -0.053027183 -0.46096537 -0.19993344 -0.2209649 0.05069567 0.18721442 -0.28360397 -0.0901294 -0.11621231 -0.4163584 -0.47814474 -0.2559381 -0.21932688 0.42515722 0.14530942 -0.1412518 0.45235726 -0.34282225 0.2819656 0.19768634 0.049995348 0.049509373 -0.057165004
causing -0.12499136 0.07827676 0.4426341 -0.24943754 0.28535426 -0.47041476 -0.31498253 0.39197043 -0.4044826 0.30447194 0.12299223 -0.37818173 -0.18667988 -0.0030765517 -0.22620854 0.3874195 0.048095755 0.666025 -0.37980974 -0.21285394 0.14565484 1.0725975 -0.16281731 -0.49454534 -0.5617122 1.0424184 -0.20625623 -1.0116143 0.92382157 0.6424568 0.5188314 -0.12280887 -0.7177539 -0.21267076 1.0457603 -0.31488758 -0.39518192 -0.071132354 0.7468176 -0.0141259255 0.6538812 0.57598186 0.11868191 -0.08281143 0.26518473 0.38777277 -0.49306968 -0.11023588 -0.65045315 -0.8232253 -1.0048475 0.6853274 -0.36684814 0.1582209 0.73900056 -0.016644157 -0.007843763 -0.701007 -0.09215489 0.5422241 -0.11401819 -0.87350315 -0.14764476 -0.73094845 0.75190395 1.0261397 0.36981252 0.3374325 -0.20988174 -0.28664085 -0.53310055 -0.302594 0.25374106 0.14095789 -0.6023376 0.38625303 0.36584857 -0.6564146 -0.21374416 -0.4263664 0.2496944 -0.9872265 -0.06867279 -0.4047479 -0.29375452 0.38103613 -1.1910233 0.21970062 -0.02439834 0.028262746 0.6663518 0.14227492 -0.30845857 0.047387287 -0.6253385 0.51373297 0.539586 -0.09137731 -0.7889458 -0.04944309
nodes 0.028024063 0.11823183 0.002082221 -0.8747335 0.0010969561 -0.29885656 -0.37398878 0.54235065 -0.04985488 0.7877892 -0.12816663 0.12151394 -0.59588075 -0.7021685 0.16027284 0.8613682 0.023462918 0.6076778 -0.5271401 -0.053636074 0.2715459 0.252101 -0.30251512 -0.61944 -0.3486483 0.57487214 0.375684 -0.22716604 1.409257 -0.1403442 -0.28226396 -0.49881467 -0.41382426 -0.80274874 0.66597366 -0.3968133 -0.34080136 -0.19410722 0.3379196 0.16461869 0.632494 0.25386423 0.2203469 -0.02718773 0.33771357 0.5898511 -0.4030268 -0.4117589 -0.56153375 -0.80568355 -0.7807486 -0.0025577252 0.3648156 -0.1308956 0.32817033 -0.46019074 0.17984198 -0.37967175 -0.12923686 0.5580098 0.4429779 -1.1154605 -0.1927033 -0.609586 0.36466935 0.2997662 -0.48766693 0.42035723 0.6438995 -0.12689498 0.08131039 0.39296854 0.7772342 0.28540716 -0.14585273 0.39470553 -0.23510727 0.047211234 -0.33777174 -0.25671846 -0.35855058 0.42633897 0.2688077 -0.15306894 -0.21701267 0.027234621 -0.2587816 -0.7769443 -0.23924609 -0.049490068 0.76619995 0.47212306 -0.60602534 0.23370756 -0.39808762 -0.19985442 0.50508386 0.19063662 0.29972702 0.08243599
diseases -0.43873763 -0.20380649 0.36872375 -0.33689365 -0.10567477 -0.50372165 -0.1575767 0.0004217135 0.10860429 0.31002715 0.14386572 0.08242785 -0.17984083 0.0089942515 -0.22191395 0.29895484 0.34803084 0.36180806 -0.28789383 -0.09397995 -0.03329329 0.5787212 -0.5314335 -0.4849601 -0.114255406 0.44993278 0.0599167 -0.4324006 0.82167906 0.122205205 0.25288856 -0.35897747 -0.55443585 -0.406294 0.42613196 0.29897064 -0.27334064 -0.23008335 0.4104007 -0.12262861 0.19055542 0.05125379 -0.14389046 0.06357401 0.025271753 0.20081185 -0.11846329 0.19881897 -0.36742604 -0.49317068 -0.6492674 -0.10431303 -0.10038907 -0.10974645 0.2841545 0.043073267 -0.10914409 -0.0029190069 -0.07711653 0.5350154 -0.10837775 -0.33624798 0.05723517 -0.58161074 0.13451207 0.71089613 -0.05448188 0.48750722 -0.11953195 -0.15201658 -0.052289005 -0.39988092 0.03806418 -0.10171226 -0.54134065 0.050794847 0.4143066 -0.2246622 -0.3713501 0.07549399 -0.115812 -0.31149933 0.24297725 -0.1657732 0.06338781 -0.05212331 -0.5365925 -0.14217253 -0.30101413 0.05881494 0.40339682 0.1780963 0.08318971 0.56229985 -0.29581195 0.32314104 0.23089986 -0.026913766 -0.23905492 -0.024199067
lymph -0.012986207 0.14539751 0.13290597 -0.7570921 0.102775194 -0.41016304 -0.5137098 0.49989423 -0.090400495 0.79498833 -0.21221295 0.08365394 -0.7277516 -0.6115004 -0.07431985 0.8315012 0.11987184 0.5860543 -0.6196017 -0.11056746 0.27041826 0.3945639 -0.32343677 -0.6604847 -0.38921952 0.5714424 0.34283105 -0.13547795 1.325212 0.03745659 -0.23279338 -0.6134074 -0.5182067 -0.78704685 0.5823836 -0.22981344 -0.38233957 -0.19300257 0.36308023 0.2498099 0.5236466 0.31821105 0.0960575 0.033762794 0.36932543 0.65672845 -0.2218292 -0.49215668 -0.4689837 -0.7545813 -0.749697 0.03538619 0.44152182 -0.22349037 0.27459943 -0.38518465 0.104221426 -0.43667796 -0.16845264 0.59538954 0.38091704 -1.2498076 -0.17920452 -0.6207775 0.34543684 0.38074103 -0.26841447 0.48432267 0.59613764 0.016275544 0.009506042 0.20227982 0.71615446 0.16179858 -0.24685362 0.3984472 -0.16279556 0.036615457 -0.35285485 -0.15626676 -0.18134874 0.227728 0.3008761 -0.27216256 -0.156278 -0.119417936 -0.45932612 -0.74943143 -0.2741854 -0.06634566 0.58995754 0.30321 -0.57960665 0.13155992 -0.33974695 -0.091073275 0.43426558 0.31841126 0.14147717 -0.06283142
type -0.30982006 -0.18452084 0.10933095 -0.3690447 0.12031218 -0.6034556 -0.381261 0.3046394 -0.14326362 0.36334258 -0.14729963 -0.09365159 -0.65511346 -0.330598 -0.24049701 0.232068 0.39820012 0.23218048 -0.2722438 -0.11670554 0.050246958 0.25222927 -0.2217903 -0.4917864 -0.32655135 0.69769263 0.13871798 -0.21065862 0.79155415 0.135981 0.18214253 -0.14841296 -0.69306964 -0.3737565 0.46394438 0.12873994 -0.07220214 -0.10904277 0.5178543 -0.01622789 0.036293283 0.28081888 0.17013869 -0.5120323 0.112900585 0.5157297 -0.047760997 -0.10250362 -0.11562392 -0.43482032 -0.38451418 -0.04070836 0.3952064 -0.13166922 0.20443515 0.08502955 0.3907448 0.0066544386 -0.31572706 0.5617418 0.14399509 -0.7909365 0.15934178 -0.5536044 -0.13856463 0.6874141 0.008859474 0.11993548 0.23110682 0.16950001 0.25138572 0.24735655 0.13751882 0.16934758 -0.18823452 0.30161163 0.30472237 0.14174382 -0.13709725 0.42420986 -0.19078271 -0.019056976 0.3219607 -0.02705756 0.0024973275 0.07011419 -0.3985165 0.22980875 -0.078285724 0.0894032 0.36706945 0.339628 -0.31827816 -0.0070689023 -0.26483595 0.07330979 0.24546525 0.2185325 -0.46617717 0.23404339
history -0.47786218 -0.2816751 0.39489797 -0.33263168 0.0054655066 -0.5262365 -0.30051044 0.22596109 -0.09233895 0.2887415 0.06996675 -0.096474856 -0.27177912 0.17921036 -0.14495085 0.36010933 0.4912272 0.25031155 -0.37517783 -0.40067446 -0.17104118 0.75342876 -0.37250584 -0.4501511 0.09674876 0.3712048 -0.043485977 -0.624007 0.6860485 0.34206155 0.12471944 -0.24201567 -0.7237543 -0.44268894 0.5785113 -0.08216635 -0.36171624 0.027229471 0.28140497 -0.32413194 0.41003516 -0.08981993 -0.07839503 0.1827031 0.13882652 0.13507916 0.024618033 0.05810154 -0.3807528 -0.5923515 -0.77326834 0.31294045 -0.021349002 -0.15273613 0.2834183 -0.23770238 0.19586776 -0.2130935 -0.15065055 0.43762028 -0.032411553 -0.56696934 -0.1636556 -0.5317945 0.279342 0.3552376 -0.037337847 0.34321848 0.046701528 0.028671885 0.15321712 -0.45692635 0.028114382 -0.13504411 -0.09325288 0.0014866798 0.27494994 -0.124787994 -0.41832593 -0.1118943 -0.08979028 -0.45935127 0.078212574 -0.3284606 0.005639662 -0.06763297 -0.7112094 0.043907568 -0.16689202 -0.22237226 0.23774955 -0.02660263 -0.18321875 0.33450884 -0.50433594 0.22216171 0.4234722 -0.22423038 -0.31560266 -0.025872646
infection -0.33408406 -0.21729656 0.2921536 -0.32292086 0.07833427 -0.41515455 -0.21005134 0.07611018 -0.045388248 0.19667314 -0.059516415 0.15667622 -0.46804377 -0.16566801 -0.1229113 0.22131027 0.32818884 0.27360883 -0.2881012 0.011605004 0.03828527 0.2863503 -0.19798668 -0.35019585 -0.12000455 0.4473748 0.05470673 -0.2571855 0.52609104 -0.06339472 0.25368607 -0.21287838 -0.47054917 -0.38283542 0.35072556 0.22171874 -0.17677066 -0.09062464 0.30468005 -0.012505445 0.12921113 0.21358277 -0.04362559 -0.28435287 0.079470105 0.23296803 -0.12680653 0.09121422 -0.20384124 -0.35264325 -0.41899467 -0.10471164 0.101116434 -0.025084753 0.15245007 0.025164582 0.05526034 0.016188297 -0.03766112 0.33200908 0.05595003 -0.45696482 0.18895045 -0.4370057 -0.049636602 0.42553627 -0.050145023 0.16346936 -0.019672029 -0.020784937 0.04733195 0.004587123 0.06786614 0.058533516 -0.34843597 0.166318 0.24868865 0.124658294 -0.2788393 0.1793509 -0.26713654 0.022317836 0.2027223 0.076725304 0.068782896 -0.046269823 -0.29649314 -0.07409873 -0.19715077 0.04003624 0.36799416 0.23410982 -0.04210426 0.22637735 -0.05555639 0.16396327 0.10871763 0.14913575 -0.11941168 0.118694626
level -0.53103626 -0.21422152 -0.54606885 -0.18697912 0.6003984 -0.6924135 -0.18487884 0.38494018 0.45244846 0.7110116 -0.59185123 0.32361984 -0.8099514 -0.13771023 -0.19342825 0.61575335 -0.03820036 -0.05919865 -0.31356943 -1.0225698 0.029175533 0.66506094 -0.22129314 -0.05135845 -0.23481993 0.94232833 0.43136525 -0.3190024 0.19652614 0.5045305 -0.29043034 -0.028768722 -0.98845524 -0.7809797 0.6829952 0.12988164 -0.64052033 0.3113441 0.3705097 -0.7271686 0.29299763 0.030922288 -0.089950696 -0.55634654 -0.17449866 0.8492213 0.3791088 -0.44751722 0.17654689 -0.044869818 -0.9351494 -0.06531128 0.29091856 -0.034694053 0.051591303 -0.28118652 -0.11563365 -0.0055240337 -0.6206694 0.1999796 0.46794847 -1.8559744 -0.1850537 0.21095848 0.23144007 0.9285467 -0.13865729 -0.1453557 0.49206114 0.30046847 0.48357242 0.72063667 0.4967815 0.29505372 -0.4444346 0.5490213 0.06901273 0.3788159 -0.4710258 -0.09288956 -0.37640747 0.6377637 -0.5479965 0.2267584 0.102925666 -0.6547096 -0.34190324 -0.19893095 0.14980789 -0.79380727 0.5887838 0.2524889 -0.27936208 -0.41227996 0.88750935 -0.29085433 0.2040117 0.42834872 0.19398977 0.116617575
Tuberculosis -0.02771184 -0.14144772 0.47206205 -0.31017384 0.25708044 -0.18253118 -0.25599992 -0.341619 -0.027419478 -0.08310373 0.00500172 0.29119363 -0.37991786 0.24294598 0.31253517 0.31829417 0.04643559 -0.16459575 -0.3336854 -0.2681277 0.28035516 0.6767467 -0.019148642 -0.32895148 0.10552312 0.31406057 -0.1367664 -0.28451902 -0.17925406 0.20045272 0.32244748 -0.21616793 -0.119322985 -0.21972138 0.4129338 -0.10653144 -0.5370797 0.53426063 0.050999228 -0.02458834 0.22233073 0.2404771 -0.13371646 -0.022088874 0.31803125 0.1350793 -0.52995455 -0.08491707 -0.4455999 -0.23127326 -0.36701354 0.16798723 -0.110970296 0.10382569 0.0663235 -0.3980968 -0.09210057 -0.062756345 0.25570443 -0.17078094 -0.37850982 -0.17187265 0.020121235 -0.06265346 -0.036838215 0.28112158 -0.02808414 0.2159718 -0.07102663 -0.21665587 -0.12136214 -0.145542 0.049416523 0.08134084 -0.6264147 -0.02650068 -0.23202047 0.34930438 -0.5964097 -0.15657015 -0.16276613 -0.21284987 -0.035689764 0.008734192 -0.37328765 -0.062072065 -0.44749346 -0.18529892 -0.2631594 -0.30958745 0.196112 0.050945666 -0.15709472 0.08934836 0.069350645 0.3091737 0.079906836 0.31081054 0.22174998 -0.3171393
region -0.2821621 -0.09448333 0.23453736 -0.4797354 -0.008087074 -0.45752534 -0.23198745 0.3220306 -0.026645789 0.47976992 -0.022596337 0.106651105 -0.5374437 -0.33529526 -0.14208347 0.59877515 0.33040607 0.49995345 -0.4281674 -0.23183617 0.015603241 0.53346115 -0.5469621 -0.5317739 -0.14061952 0.60032994 0.073115684 -0.42953113 0.9870707 0.09139502 0.112776235 -0.54422575 -0.6651242 -0.6578055 0.5437211 -0.0054067895 -0.39152157 -0.20113502 0.30902892 0.12543468 0.35965684 0.24575311 -0.00240327 -0.021037808 0.17547303 0.34370056 -0.16645923 -0.19957732 -0.34524027 -0.7338616 -0.74938965 -0.06665205 0.13780925 -0.20936847 0.3283009 -0.16339208 0.11190231 -0.19440345 -0.12541585 0.5829173 0.21747608 -0.65279883 0.07397755 -0.67103976 0.15275863 0.59598815 -0.23771825 0.5380415 0.27492458 -0.08029445 -0.078155 0.08369334 0.3641568 0.1613113 -0.37140274 0.008882942 0.068898365 0.05252277 -0.49279487 -0.1388295 -0.2747453 0.056128852 0.18569827 -0.27581108 -0.082530715 -0.07454758 -0.4408827 -0.4858455 -0.24529144 -0.15825635 0.52389735 0.23530371 -0.23100153 0.36670247 -0.28556922 0.15935041 0.31491494 0.07894647 0.094660684 -0.021654187
Poisoning -0.2982029 -0.17577627 0.24048816 -0.35709745 0.12547286 -0.5031619 -0.33911172 0.16920695 -0.07777599 0.34079704 -0.072648935 0.06331766 -0.47244832 -0.15673916 -0.1610147 0.42520073 0.25237197 0.34092298 -0.40408322 -0.30009443 0.041404437 0.6120896 -0.32279027 -0.4656524 -0.16947985 0.70809895 0.06921233 -0.44126505 0.69391733 0.24105537 0.21251957 -0.28322104 -0.6213579 -0.4335151 0.64807683 0.03476194 -0.36778787 0.070830226 0.4406315 -0.08774038 0.24810497 0.26910403 0.00431332 -0.20996994 0.17034839 0.41818354 -0.19066498 -0.0756117 -0.3050102 -0.52326065 -0.72591794 0.08621177 0.07907662 -0.08424218 0.33453938 -0.09597248 0.12160273 -0.11860838 -0.116220385 0.44147837 0.032318357 -0.7081032 0.039575998 -0.48592848 0.07636334 0.75155234 -0.018085063 0.35948765 0.12508604 -0.06967606 -0.04729128 0.013187863 0.160697 0.13478725 -0.49116802 0.11622668 0.18491192 -0.015989954 -0.36491325 0.033279933 -0.1560512 -0.18514657 0.06972553 -0.1621494 -0.09698202 -0.037761826 -0.563895 -0.0620794 -0.15440722 -0.11334713 0.4253504 0.1921856 -0.2664505 0.16577941 -0.21395546 0.24016343 0.30246037 0.12611029 -0.23582174 -0.004610732
limb -0.14540106 0.031699456 -0.010912917 -0.44175592 -0.029279724 -0.23460303 -0.08526471 0.49099937 0.010680811 0.5835831 -0.061921984 0.12837133 -0.40575767 -0.5780137 -0.12921016 0.53339756 0.11864866 0.5998258 -0.29048076 -0.20429827 -0.07174076 0.16869661 -0.44782373 -0.30721262 -0.09851019 0.34052092 0.17635047 -0.17590831 1.0542711 -0.0329976 -0.13866587 -0.44477654 -0.47460857 -0.6301519 0.4239739 -0.16334526 -0.19444966 -0.3321118 0.1814069 0.21602131 0.37832376 0.17331362 0.08617451 0.12104536 0.19937469 0.33279833 -0.03209812 -0.32448408 -0.16560824 -0.6804997 -0.61592674 -0.1082386 0.17147517 -0.24856712 0.25491282 -0.17746125 0.048706457 -0.26215094 -0.13111912 0.4402573 0.428039 -0.6206362 -0.076112226 -0.5666236 0.1826796 0.3308575 -0.41355163 0.4762607 0.46291354 0.028187381 -0.0936572 0.30140266 0.44991934 0.20707917 -0.079304986 -0.025580756 -0.10075263 -0.07724561 -0.35849166 -0.22432105 -0.1790878 0.39398277 0.09128432 -0.3246524 -0.044502556 -0.12869129 -0.1321007 -0.68164027 -0.15483727 -0.12738323 0.44276008 0.25777426 -0.25327045 0.32575718 -0.27244988 -0.0773439 0.22602546 -0.009270193 0.2481371 0.04626188
third -0.3804019 -0.9964911 -0.16679366 -0.44555923 -0.3529625 -0.5094998 0.26959485 1.6557097 -0.4903023 0.8138969 0.12477215 0.6552906 -1.3018987 -1.4080988 -0.78502434 0.47104982 0.88879305 1.2087317 -0.5330327 -0.6655365 -1.1170084 0.20776728 -0.6082581 0.47514683 0.21895023 0.5521075 0.20792125 -0.6419669 0.9804756 -0.104929626 -0.5663094 -0.88077086 -1.323463 -1.5394018 0.54709095 0.002282449 0.079061374 -0.3965766 0.50634533 0.086812906 -0.17304336 -0.026142903 -0.06955977 -0.73004407 -0.31282523 1.046331 -0.010550597 0.009169944 0.88052225 -0.94718826 -0.5899934 -0.62103075 0.3908913 -0.5455152 0.17559065 0.32130224 0.7914787 0.13263723 -0.6370608 0.73170835 1.3290292 -0.61040163 0.2861871 -0.8389407 -0.8489551 0.66894096 -0.60178757 0.36954087 1.1236721 0.25741187 0.60800856 1.4853084 0.5809565 1.118776 0.27222162 -0.9962038 -0.15612833 0.38862166 -0.655383 -0.10345058 -0.34522226 0.96077 -0.8002864 -0.6606298 0.45839253 -0.6552546 0.12718275 -1.028918 0.34410954 0.28563154 0.12226015 -0.004070541 -0.059501287 -0.28410047 0.20872262 -0.85906523 0.35873464 0.31878173 0.07207561 0.14321242
Chronic -0.36062768 -0.25398988 0.1587984 -0.35991466 0.17263927 -0.49610546 -0.34527838 0.25170037 -0.12445126 0.30536336 -0.21184118 0.119911216 -0.6477812 -0.35001925 -0.19643077 0.2791638 0.3658054 0.32241118 -0.36801514 -0.12547833 -0.022667674 0.27398947 -0.15605676 -0.34401718 -0.1718617 0.64236015 0.15442261 -0.24632537 0.5932976 -0.022337249 0.17938933 -0.18734023 -0.63537 -0.48458353 0.49343655 0.17263742 -0.15156004 -0.02042113 0.42939273 -0.052794334 0.09665422 0.27699038 0.056992885 -0.502986 0.08914298 0.4218786 -0.057770565 -0.027847853 -0.10494099 -0.37793273 -0.49336922 -0.1155475 0.31095812 -0.056078278 0.21324791 0.057283312 0.22571139 -0.0029064398 -0.15892297 0.43326998 0.19323613 -0.7879943 0.20368381 -0.4743143 -0.13151947 0.56778145 -0.043680623 0.09074233 0.15896265 0.0770819 0.16594839 0.27885243 0.15093197 0.18678515 -0.2859617 0.23782116 0.24493976 0.20769113 -0.21672912 0.29339194 -0.27306792 0.13681409 0.16773619 0.091492705 0.057004437 -0.046830103 -0.29756585 0.026154948 -0.10314893 0.046678122 0.4195519 0.30338797 -0.22353072 0.0889386 -0.0063448655 0.07629732 0.16337356 0.18190163 -0.20029585 0.22097993
use -0.1729427 0.0028681783 0.50576925 -0.3167286 0.33438236 -0.5137609 -0.3351513 0.49887046 -0.5071153 0.35323462 0.074203596 -0.35761032 -0.34223914 -0.07692821 -0.28114706 0.41031682 0.12482766 0.7436064 -0.39825648 -0.20068194 0.115020916 1.1375842 -0.12377485 -0.5202009 -0.6040413 1.1576384 -0.19363649 -1.0979215 1.0401689 0.6235069 0.5409671 -0.15311018 -0.82735026 -0.30374518 1.1699239 -0.3456771 -0.39475244 -0.08991101 0.82548845 -0.028244428 0.7076394 0.6216792 0.11715472 -0.15593177 0.26439202 0.45829347 -0.5404692 -0.13385148 -0.65336806 -0.9570115 -1.0690113 0.68353504 -0.350844 0.17547655 0.79550695 -0.02726563 0.043349754 -0.7491205 -0.12026724 0.57873195 -0.077511385 -1.0126148 -0.1036237 -0.8372843 0.7334198 1.0531619 0.36400405 0.2962609 -0.20595126 -0.25942475 -0.5108849 -0.22765175 0.34668556 0.20369805 -0.58580494 0.45242473 0.3792294 -0.59402007 -0.23997805 -0.42492625 0.2269117 -0.9535029 -0.07568687 -0.368858 -0.2374132 0.3971913 -1.2334124 0.21087824 0.022597825 0.06972451 0.7639571 0.20330279 -0.3414091 0.03971413 -0.57575697 0.49671718 0.5639748 -0.03553652 -0.79221237 0.027768414
associated -0.6266092 -0.42512053 0.7077143 -0.4988929 -0.12259694 -0.64255005 -0.43384516 0.059008934 -0.22255394 0.27682504 -0.06491734 -0.0032750566 -0.530534 -0.12426492 -0.3390726 0.2356678 0.6808511 0.41974628 -0.43229648 0.14142664 -0.09709315 0.40267688 -0.24425653 -0.6480329 -0.2235144 0.6752415 0.06162139 -0.37156168 0.8113241 -0.0045833653 0.50097275 -0.24061202 -0.6394438 -0.6363491 0.5892967 0.40161097 -0.11429913 -0.12471181 0.5520477 -0.00027720546 -0.02200747 0.26368478 -0.210816 -0.27906474 0.07742439 0.42768133 -0.14518976 0.31597906 -0.42392784 -0.5650015 -0.5136962 -0.13755392 0.10869155 -0.17722115 0.14569855 -0.07679788 0.34189597 0.081737906 -0.12201873 0.5236024 -0.06678294 -0.29582796 0.13673595 -0.87543386 -0.19269726 0.6869211 0.076672815 0.36389023 -0.109262 -0.14768808 0.21653226 -0.366107 0.001553746 0.1413459 -0.40293136 0.1549416 0.5057604 0.103055015 -0.4168953 0.5384753 -0.27499124 -0.4372565 0.36508578 0.011506122 0.18352759 0.049776442 -0.6343336 0.2328931 -0.25907052 0.33744237 0.41427216 0.32580188 -0.105541 0.3752226 -0.3826849 0.10500164 0.35416088 0.2670338 -0.38878483 0.11448954
syndrome -0.35266632 -0.18600293 0.099589266 -0.33158794 0.17647766 -0.49346107 -0.29302424 0.206946 -0.0019842777 0.37366903 -0.17934477 0.11798969 -0.5518545 -0.1879946 -0.15902643 0.39193502 0.25355056 0.23049055 -0.35558695 -0.32213408 0.017733509 0.44978875 -0.23861983 -0.34189203 -0.1505934 0.6569709 0.15056251 -0.31483465 0.5476203 0.17397939 0.12190355 -0.19567212 -0.6196489 -0.48759115 0.54164225 0.111137845 -0.30335516 0.07810027 0.381162 -0.16909303 0.18531895 0.19707422 -0.031656098 -0.3196853 0.07130179 0.43390155 -0.041741353 -0.09304343 -0.16605045 -0.36823374 -0.6174407 -0.025359986 0.16799016 -0.0942007 0.18893023 -0.11320581 0.118829586 -0.04450654 -0.192625 0.35382667 0.13761695 -0.8173677 0.045653567 -0.36109507 0.023088666 0.635183 -0.059522193 0.2001184 0.17318593 0.030242972 0.13184793 0.15950182 0.19178693 0.1715818 -0.3771997 0.20852953 0.15746005 0.15083152 -0.34163052 0.111438155 -0.2341695 0.05496384 0.022597171 0.0028417471 0.005734454 -0.1364098 -0.40891516 -0.06768152 -0.08574522 -0.15612563 0.42254677 0.23941484 -0.22110225 0.07112929 0.03232131 0.06393214 0.23791812 0.2024987 -0.099433385 0.07844071
hours -0.45776013 -0.48100385 -0.73989606 -0.499414 1.0943172 -0.8540416 -0.20875496 0.92479044 0.030256562 0.85136557 -0.86088455 0.696617 -1.6660174 -1.0213126 -0.27747607 0.6273756 -0.012257106 0.36639634 -0.46774122 -0.89485246 -0.020020653 0.2019149 0.034841757 0.09283019 -0.1593652 1.1797109 0.60695684 -0.23338473 0.45765862 -0.08757314 -0.33336344 -0.07885996 -1.3239897 -0.90746456 0.8718224 0.14882144 -0.49769357 0.18984896 0.63407934 -0.5583791 0.27008823 0.5236709 0.32123888 -1.5769762 0.121221684 1.2106296 0.21926923 -0.6811841 0.49193257 -0.059740346 -1.1306707 -0.3308785 0.8001558 0.21896558 0.31229168 0.03460734 -0.065890595 0.0137262335 -0.59013057 0.47812778 0.9319066 -2.8647368 0.27862966 -0.0774918 -0.10842291 0.8256095 -0.28415072 -0.6301373 0.7323093 0.5504365 0.58498156 1.6771652 0.763007 0.6042437 -0.3563757 0.9074226 0.20857441 0.7238171 -0.16093047 0.0962883 -0.6152843 1.5405986 -0.41645822 0.45398194 0.20422804 -0.61034745 0.09203767 -0.32634443 0.23751631 -0.47080714 1.0360535 0.7200888 -0.42566356 -0.6311955 1.4054985 -0.4331805 -0.0051668165 0.4544229 0.10706151 0.64459735
histological -0.37364155 0.029818762 0.9976785 -0.89469355 0.59477526 -0.80334395 -0.7566997 -0.59014636 0.11891179 0.028960714 0.0434281 0.5558523 -1.1385216 0.6424006 0.60989064 0.99405456 0.25292873 -0.39629474 -0.6280204 -0.8536702 0.561389 1.600397 -0.10450669 -1.0353596 0.23007998 1.1905435 -0.49441975 -0.9896479 0.2526946 0.90002114 1.020585 -0.48911023 -0.85988104 -0.53762335 1.1218771 0.020338984 -1.2285563 1.3018371 0.09032616 0.15239522 0.72028583 0.6895525 -0.46639672 -0.51997006 0.49427858 0.5567714 -1.1858429 0.16021684 -1.0656714 -0.95131165 -1.1755421 0.29345074 -0.11469936 -0.07352977 0.21933319 -0.56332463 -0.052355964 0.0072783977 0.5158 -0.015365278 -0.69053054 -0.57721806 -0.052932046 -0.06615412 -0.13101387 1.3825948 0.085323945 0.7188009 -0.1490562 -0.30497023 -0.18216771 -0.35272112 0.17985079 0.5785953 -1.8864204 0.039599624 -0.5828404 1.0468526 -1.4559438 -0.21743658 -0.40045783 -0.36694488 0.02580098 -0.1493075 -0.78051406 -0.27496168 -1.2854211 0.2004214 -0.622275 -0.8403454 0.30415764 -0.057690263 -0.48491156 -0.2146422 0.13096774 0.96623945 0.45768175 0.8812339 0.21965028 -0.41708788
part -0.14814755 -0.4147064 -0.19495255 -0.2964162 -0.018695747 -0.25526783 0.10701913 0.8166325 -0.2566984 0.4501319 -0.054805662 0.39096782 -0.8159562 -0.8270423 -0.28527758 0.32928583 0.38467747 0.6094186 -0.31468242 -0.2585511 -0.44535756 0.00057962385 -0.22531919 0.18793792 0.10045545 0.34610823 0.17678784 -0.2079448 0.614927 -0.17827815 -0.27600253 -0.4503373 -0.6432249 -0.72084016 0.3503675 -0.06740188 0.02344815 -0.17861362 0.27461666 0.11391542 0.052115925 0.08423829 0.07400759 -0.406675 -0.04604723 0.45920452 -0.014296512 -0.15284836 0.39654297 -0.49523744 -0.37796205 -0.32589713 0.24450614 -0.25437835 0.14464605 0.115607396 0.28509343 -0.015491153 -0.30237544 0.4154267 0.70151573 -0.60687673 0.25771028 -0.45011848 -0.38424048 0.23925549 -0.36131334 0.07672896 0.5452722 0.23642288 0.21618997 0.84122115 0.42452118 0.5001705 0.107377596 -0.28543147 -0.13666573 0.2544365 -0.29197878 -0.10858263 -0.27400586 0.7454661 -0.23253211 -0.20364803 0.19627836 -0.2746292 0.13767076 -0.5942426 0.139909 0.021892905 0.23982996 0.14959966 -0.1239983 -0.080910176 0.16474347 -0.33264562 0.064095944 0.15138163 0.16550583 0.1846422
adverse -0.11258122 0.054633882 0.4871246 -0.2945265 0.3673685 -0.49446756 -0.28599963 0.53383785 -0.5296574 0.34892857 0.13883145 -0.42162135 -0.2502831 -0.065926135 -0.28750336 0.40459073 0.0092859445 0.798185 -0.3651857 -0.21775036 0.14090951 1.293113 -0.12878902 -0.51899654 -0.6842179 1.2184668 -0.27319273 -1.2536515 1.1075301 0.7639006 0.59094393 -0.13172759 -0.802485 -0.20841621 1.2301049 -0.40700832 -0.42458773 -0.14657089 0.827051 -0.0033583958 0.8584537 0.6625402 0.18389875 -0.056268647 0.3033027 0.44600976 -0.60972875 -0.17393264 -0.7379312 -1.0271764 -1.1531316 0.84009176 -0.5107857 0.23732312 0.9059656 -0.031219525 -0.025318436 -0.8797257 -0.10846512 0.6383787 -0.13546148 -1.0264585 -0.12355341 -0.8602471 0.92089987 1.1044872 0.4223656 0.33182603 -0.29920045 -0.31280354 -0.7048667 -0.330018 0.35193053 0.19039449 -0.6700681 0.47983912 0.39736965 -0.76391095 -0.2099744 -0.58349174 0.32772416 -1.1104234 -0.15449475 -0.4058457 -0.2865717 0.471642 -1.3646104 0.23682033 0.039714016 0.053897586 0.7957305 0.17562297 -0.34251744 0.051014706 -0.6590215 0.61467797 0.6128745 -0.08913393 -0.8764619 -0.00651134
therapeutic -0.13941911 0.068839535 0.49103796 -0.34290838 0.40671206 -0.5348535 -0.32744735 0.5900319 -0.5201743 0.3555674 0.12343718 -0.41336167 -0.34223974 -0.120228104 -0.2768086 0.4415221 0.039194062 0.82768357 -0.43964455 -0.23952357 0.13291927 1.2723045 -0.12127808 -0.5060325 -0.6820392 1.2767198 -0.27007085 -1.2517378 1.1139035 0.7543671 0.63575006 -0.12789111 -0.84361166 -0.26495764 1.2572651 -0.38334718 -0.43379274 -0.11148362 0.86582243 0.0047472464 0.8504593 0.7213609 0.1933996 -0.15320972 0.3360756 0.49813128 -0.6310637 -0.1603948 -0.7784666 -1.0141872 -1.1980784 0.84526443 -0.4739406 0.2216095 0.86836207 -0.025493067 0.024989916 -0.8751815 -0.15306686 0.68292385 -0.06434113 -1.0835317 -0.101730436 -0.89882463 0.9179733 1.1593095 0.43269947 0.31206813 -0.2685107 -0.30931148 -0.6659649 -0.32517004 0.32878515 0.24326643 -0.68662864 0.5058244 0.40284947 -0.7498669 -0.25842053 -0.55780053 0.28091282 -1.0856584 -0.13174853 -0.391837 -0.3236659 0.44709718 -1.4047704 0.24698994 -0.0013161524 0.07073699 0.8130927 0.21588026 -0.38200298 0.0030640145 -0.7037913 0.57368517 0.6350361 -0.062332045 -0.9068567 -0.030400326
complicated -0.22928347 -0.2156694 0.16179696 -0.34037888 0.16654968 -0.427476 -0.3050299 0.12718648 -0.1536959 0.18447056 -0.18452884 0.13969305 -0.60898596 -0.30460444 -0.11002849 0.31207997 0.27720538 0.17380112 -0.39895806 -0.15012564 0.073092036 0.29021406 -0.24350472 -0.32457447 -0.06516291 0.5009121 0.08337045 -0.20762768 0.49885938 -0.07278594 0.18173404 -0.24140596 -0.6094971 -0.39343518 0.4153051 0.07975273 -0.27075157 0.009680588 0.262621 0.0026234724 0.1151544 0.3195509 0.1608647 -0.27812082 0.117076784 0.31825173 -0.080642514 -0.1572258 -0.070851505 -0.30133012 -0.49831757 -0.15924357 0.27164996 -0.0144654205 0.19711266 -0.065871045 0.24377243 -0.020874716 -0.054860167 0.33541146 0.29664266 -0.6670004 0.24978432 -0.43699798 -0.059296153 0.37766314 -0.075177625 0.1605665 0.17130923 0.048252832 0.06348002 0.3483711 0.19232623 0.15468064 -0.25806272 0.124372885 0.019562582 0.22512545 -0.20731148 0.13653554 -0.2951171 0.20251122 0.075729266 0.09744898 -0.05482548 -0.06748776 -0.19152021 -0.2018245 -0.13257696 -0.15136205 0.39245802 0.2051842 -0.2049815 0.03585526 -0.009056007 0.18530917 0.08991837 0.18177117 -0.030888222 0.1613526
face 0.22725342 0.05435395 -0.5574962 -0.40731105 0.6607077 -0.336893 -0.3834752 0.5339589 -0.24467158 0.49930274 -0.4422404 0.6374127 -1.0676204 -1.0789732 0.13134837 0.60806346 -0.18182813 0.39379397 -0.61311144 -0.38882998 0.16880769 -0.08133726 -0.0892675 -0.1481275 0.13821612 0.6786104 0.55854875 0.20956552 0.6805826 -0.4559312 -0.20922157 -0.42169166 -0.422251 -0.27377924 0.75984234 -0.36333248 -0.3855559 0.31432322 0.54177207 0.08630247 0.4216897 0.449557 0.5247954 -0.84596175 0.47861195 0.5073502 -0.31888074 -0.6973741 0.0480213 -0.363805 -0.9519802 -0.22881252 0.6821415 0.06182664 0.5200392 0.036542233 0.031755 -0.15417628 -0.054805238 0.5764764 0.6417949 -1.8079157 0.46263412 -0.17842224 -0.24946491 0.3771329 -0.40643305 0.007398348 0.5912818 0.4260876 -0.21012472 1.1732384 0.5563596 0.3317309 -0.30101871 0.3828995 -0.40359327 0.28613544 -0.032014214 -0.05479535 -0.33131734 1.0974872 0.1215305 0.11954847 -0.30438158 -0.15523998 0.20242731 -0.71646315 -0.02262921 -0.4144437 0.74926597 0.5187419 -0.6556314 -0.17237177 0.32379854 0.27883738 -0.07285922 0.16523258 0.18192261 0.26493368
skin -0.2851853 -0.3653373 -0.005987829 -0.37897676 0.05120722 -0.45706764 -0.14588928 0.6400914 -0.12288106 0.5383359 -0.08571497 0.2314466 -0.6867562 -0.55883586 -0.31576294 0.46186858 0.38094836 0.5745481 -0.42532656 -0.43985865 -0.2776398 0.40147448 -0.4034961 -0.16397847 0.00093601545 0.5735541 0.16054752 -0.42855614 0.8080418 0.10046053 -0.11006571 -0.43914998 -0.8011541 -0.7049118 0.56589276 -0.019943208 -0.28677538 -0.08525968 0.37729076 -0.0718502 0.20732686 0.12514462 0.038225133 -0.24307513 0.0754565 0.5351788 -0.05362616 -0.18492103 0.06848856 -0.6121346 -0.7257033 -0.11282621 0.15618455 -0.20437486 0.30920702 -0.04597961 0.19547029 -0.06971285 -0.23262379 0.5059497 0.46839994 -0.86809766 0.070206456 -0.57436913 -0.04696313 0.56716883 -0.24031138 0.28658354 0.4541061 0.11428843 0.14015794 0.4462402 0.34548202 0.3256956 -0.17949635 -0.10896946 0.035528358 0.052819353 -0.39769647 -0.1401055 -0.21075429 0.3070989 -0.18089937 -0.28724787 0.055979166 -0.21701169 -0.26631075 -0.42527473 -0.021108521 -0.0831813 0.42090896 0.157338 -0.23809776 0.113820575 -0.039540738 -0.11570053 0.27298164 0.09115895 -0.0040532094 0.06913611
motor -0.3066252 0.15013993 -0.38010514 -0.06282554 -0.20198059 -0.6266243 -0.86947346 -0.090962924 0.18834624 0.8661062 -0.10329543 -0.08137516 0.2577965 -0.18453936 -0.41553316 0.78160024 -0.11985843 0.56221795 -0.5331768 -1.2111768 0.14331906 0.52974635 -1.1927532 -0.7459723 0.026987946 0.7667161 0.68614084 -0.18178537 0.98697776 0.65846884 -0.3610543 -0.31000465 -0.61120415 -0.15828075 0.9505029 0.15932974 -0.6374768 0.05570904 0.7526286 -0.46153906 -0.0070301215 -0.13806196 0.009122782 -0.0027216997 0.082558304 0.53434044 0.24655399 -0.4623228 -0.33936968 -0.4873299 -1.2986777 -0.14678477 0.5933344 -0.35143223 0.5520782 -0.06630228 0.36188343 0.1790111 -0.4247393 0.8551164 0.21497032 -0.9549175 -0.37144527 -0.091333956 0.12589805 1.7683651 -0.27866426 1.2970643 0.77450895 0.015653256 -0.27521226 0.24705549 -0.20856865 0.19412124 -0.7767181 -0.16031247 0.15389614 -0.8151074 -0.21636756 0.2692144 0.3815958 -0.41693723 0.04100111 -0.85037583 -0.21240015 -0.19775885 -0.54173416 -0.26817757 -0.21854998 -0.6262027 0.28906152 -0.29474172 -0.9454607 0.15299523 -0.81100935 0.46627736 0.6059347 -0.34747678 -0.56142724 -0.43782678
obstruction -0.42922956 -0.33622345 0.09413621 -0.34707552 0.30468038 -0.4882694 -0.37006542 0.30765337 -0.21473528 0.19381411 -0.34426033 0.24673794 -0.8671396 -0.49590138 -0.17904629 0.1365772 0.44130662 0.33732244 -0.3278195 0.09818752 -0.055124972 -0.021391284 0.11020316 -0.22630318 -0.18571936 0.6154192 0.18604545 -0.07172701 0.41132897 -0.29935992 0.25147665 -0.053981718 -0.6109476 -0.49670026 0.3634798 0.2884292 0.04776433 -0.0841754 0.37619662 -0.027729994 -0.030646004 0.39239016 0.08503194 -0.9009854 0.044625204 0.41760617 0.010459591 0.06576728 0.06657604 -0.23758514 -0.27693534 -0.24546063 0.49351493 0.032337938 0.116941854 0.21789372 0.26139194 0.059223857 -0.10145592 0.35527888 0.35718027 -0.9131235 0.3924973 -0.4221288 -0.28097436 0.41007942 -0.020227699 -0.27867076 0.12460357 0.19445446 0.3218134 0.5726393 0.08317185 0.27254027 -0.14699018 0.43163788 0.3307802 0.4025942 -0.08348679 0.48638105 -0.4183946 0.44112673 0.23075284 0.39468667 0.20562229 -0.06466762 -0.08439213 0.10358881 -0.071462356 0.20500992 0.4720077 0.44237024 -0.20973812 -0.037420567 0.27150795 -0.020290608 -0.008608197 0.27021587 -0.18453915 0.47077304
poisoning -0.25974634 -0.20324081 0.17308901 -0.40597212 0.039969884 -0.5943179 -0.39854148 0.15699562 0.010000433 0.37492415 0.043441508 0.0930393 -0.4462075 -0.16240406 -0.20420529 0.4725053 0.2987247 0.39842248 -0.3936708 -0.3934497 0.021962607 0.81847405 -0.46487084 -0.56115425 -0.21735021 0.74076277 0.062161483 -0.5673119 0.837042 0.3973038 0.23636428 -0.39401972 -0.6056502 -0.4485965 0.62914467 0.13100535 -0.406161 0.052991495 0.47097206 -0.19898407 0.2657137 0.18134277 0.015249599 -0.093636304 0.15882836 0.38051316 -0.1624315 0.008727392 -0.25230306 -0.47260994 -0.80424255 0.18292911 0.09965394 -0.09954438 0.38510853 -0.107819796 0.1571175 -0.05907251 -0.06955631 0.42451918 0.0066115186 -0.6911484 0.049548533 -0.46962538 0.18863942 0.85519475 -0.062303003 0.43171412 0.10761153 -0.12726904 -0.11164731 -0.118086964 0.15417732 -0.0026391638 -0.45273882 0.10571117 0.22090691 -0.11583991 -0.35886124 -0.04205834 -0.19076149 -0.28148887 0.111795954 -0.23067084 -0.010939916 -0.13610221 -0.59345 -0.056460984 -0.2650265 -0.06085849 0.45831516 0.21368988 -0.23105203 0.33866975 -0.21770851 0.2761054 0.37764353 0.013552816 -0.26985833 -0.012125111
affecting -0.60149294 -0.36794126 0.5896212 -0.6161811 -0.0314447 -0.7109513 -0.47708935 0.24442753 -0.24691345 0.3791127 -0.19284797 -0.074749924 -0.66704404 -0.2795575 -0.3681236 0.27920333 0.63885456 0.49628052 -0.51646465 -0.026583703 -0.031090235 0.5218132 -0.22590959 -0.73285097 -0.3799449 0.92785877 0.10166635 -0.4067746 1.0635232 0.1045573 0.45235473 -0.16121651 -0.8063472 -0.7024496 0.79258186 0.29170436 -0.13149275 -0.0826569 0.61787343 -0.06384292 0.123748764 0.41245973 -0.10939804 -0.39298365 0.12513399 0.59080327 -0.09929878 0.18701197 -0.39158413 -0.66227937 -0.7076268 -0.0076600825 0.15514226 -0.19625409 0.28702253 -0.102126196 0.37976667 -0.056624353 -0.17507401 0.58711225 -0.024535403 -0.62238526 0.10765001 -0.94110876 -0.13394752 0.86920553 0.065239586 0.2917286 -0.019335018 -0.100713655 0.21182701 -0.18967907 0.0679229 0.1733706 -0.48738736 0.27868226 0.50373733 0.092070095 -0.42510423 0.538426 -0.30483925 -0.3648043 0.335243 -0.023676822 0.08413503 0.06185777 -0.7533629 0.3199361 -0.22338821 0.3096411 0.50663793 0.4213632 -0.22675413 0.28193238 -0.3670067 0.109294765 0.40891293 0.23980695 -0.47889334 0.18855786
dislocation -0.06471807 -0.0025579697 -0.109054886 -0.2900857 0.2568081 -0.2305671 -0.18261595 0.19814938 -0.096833505 0.30155095 -0.10240164 0.35410503 -0.56368834 -0.42729485 0.034381714 0.48546597 0.027362661 0.24427807 -0.38967395 -0.3124659 0.03914361 0.3263618 -0.2733513 -0.25853994 0.028916448 0.52924955 0.15578131 -0.12949379 0.5925014 -0.06446549 -0.00592614 -0.39560953 -0.41235876 -0.2437335 0.511848 -0.1586942 -0.3100038 0.12230552 0.33449084 0.07312682 0.2962989 0.22924572 0.13905956 -0.17474368 0.20441973 0.16983427 -0.21425149 -0.30769038 -0.17811422 -0.42138934 -0.6474031 -0.12132319 0.1643757 -0.11328265 0.31911093 -0.09675307 -0.02343448 -0.124026075 -0.08199834 0.41049966 0.25315 -0.7885542 0.24779254 -0.28782314 -0.105041154 0.43657917 -0.2042258 0.32306242 0.27388823 0.103334375 -0.1968821 0.33725983 0.33261216 0.081427485 -0.35122088 0.093007125 -0.18643843 0.1266258 -0.28828174 -0.19579914 -0.23829326 0.39861748 0.16261321 -0.0698923 -0.21369296 -0.08885793 -0.13142759 -0.48936382 -0.06223181 -0.37156233 0.4445632 0.18732232 -0.33174595 0.108019084 -0.036934506 0.30327934 0.0384735 0.096714586 0.124909855 0.044857036
malignant -0.2376492 -0.19731303 0.19171704 -0.24732095 -0.018509155 -0.33966473 -0.2298463 0.21275376 -0.0021355513 0.20794311 0.00017841991 -0.054583553 -0.27763525 0.0006750295 -0.15628342 0.27947423 0.37881497 0.28966558 -0.2940176 -0.31009153 -0.115883306 0.46490452 -0.33624715 -0.34207672 0.09971082 0.29744175 -0.0038625924 -0.36364922 0.57098585 0.10916321 0.04939864 -0.27790034 -0.5109075 -0.3583126 0.4084634 -0.07698623 -0.33489725 0.01568305 0.1107776 -0.1560098 0.29516473 -0.04308771 -0.00085928576 0.14260998 0.088891424 0.1578578 -0.05580207 -0.054083183 -0.29053688 -0.46316817 -0.55236053 0.19897494 -0.04215288 -0.09838192 0.23133415 -0.14487346 0.13319029 -0.077001534 -0.05297519 0.32951507 0.074651346 -0.51585984 -0.10189964 -0.47773418 0.20086914 0.32656205 -0.11739364 0.28519765 0.13740224 0.039146297 0.07261254 -0.17784269 0.10697657 -0.030402318 -0.07285517 0.032408908 0.13422263 -0.088115185 -0.22348471 -0.11357315 -0.11052173 -0.23796585 0.04354501 -0.1815367 0.05564342 -0.0043850625 -0.4821259 -0.07144111 -0.20804095 -0.08634489 0.29650402 0.037794616 -0.22828278 0.32283893 -0.33895245 0.02673355 0.25786203 -0.1470087 -0.15436763 -0.023711368
Accidental -0.3805171 -0.13804297 0.1679733 -0.44590357 0.19330534 -0.587479 -0.40465352 0.13472599 0.008722302 0.44291255 -0.1042531 0.077968255 -0.51962936 -0.20001772 -0.2585095 0.52810556 0.2752574 0.3551949 -0.5209932 -0.3477456 0.08028178 0.68763995 -0.41063812 -0.5486713 -0.14813952 0.7834593 0.1454924 -0.44363496 0.74837357 0.20826358 0.20665692 -0.4192074 -0.7256579 -0.5468855 0.6796797 0.15045507 -0.46989185 0.111845665 0.4686016 -0.047228705 0.24397877 0.3273596 -0.012743767 -0.27040872 0.16010018 0.52813184 -0.1541958 -0.039383546 -0.33956328 -0.54109144 -0.87118804 0.027045287 0.055663094 -0.12174744 0.30986378 -0.03016276 0.15147592 -0.037749283 -0.07077824 0.56455576 0.04275501 -0.88286555 0.08420985 -0.5118452 0.053523734 0.8647161 0.00891762 0.4519295 0.09229899 -0.11752859 -0.016273322 0.0017185243 0.14463957 0.05716407 -0.52940285 0.049173612 0.2683447 -0.011206044 -0.46735144 -0.008381187 -0.17902976 -0.14723139 0.10474453 -0.13893434 -0.13552393 -0.14390236 -0.5695191 -0.0792419 -0.21622252 -0.15353116 0.543202 0.20519811 -0.19859365 0.24792561 -0.21986045 0.30676726 0.2656297 0.13691285 -0.17669587 0.078734145
